-0.03993237,0.04417581,0.08391454,-0.04296111,0.00846308,0.02859184,-0.04630558,-0.01378082,0.00935864
-0.03646110,-0.00491593,-0.01780014,-0.05713501,-0.05212145,0.01385044,0.01777601,-0.04413916,0.08945964
-0.05711967,-0.02060411,0.01352915,-0.01013451,-0.01274630,0.02489898,-0.00766421,-0.02854824,0.00906225
-0.02945601,-0.00255585,-0.01228973,0.03123743,0.03432203,-0.01754377,0.01630645,0.02094724,-0.01205337
-0.01806005,0.01337609,0.07165058,-0.02552015,0.03195522,0.08261713,-0.06164290,-0.00077595,0.06901241
0.02771427,0.01833645,0.00770923,-0.00158315,-0.00266919,-0.00136912,0.03331551,0.04010070,0.04351653
0.00793125,0.02975947,0.08005603,0.01878469,0.02015680,0.03373026,-0.01385724,-0.03366185,-0.03730664
-0.00247511,-0.02660036,-0.00804086,-0.05936659,-0.04448397,0.01028338,-0.06610998,-0.00572474,0.07701421
-0.01386578,0.01237161,0.02668173,-0.02497347,0.00661772,0.01799053,-0.00433134,0.02373569,0.02434235
-0.02758820,-0.06317184,-0.02262761,-0.08339434,-0.10111762,-0.06075802,-0.12120333,-0.11973090,-0.03301657
-0.05323711,0.04003618,0.09809160,-0.04757591,0.01028447,0.05476759,-0.00814439,0.02848100,0.02432254
-0.00101641,0.00132235,0.00128273,0.00430545,-0.00505265,-0.00161718,0.00452866,-0.00115704,0.00431319
0.03484146,0.03313116,0.05163576,0.00590716,0.01501722,0.01061288,-0.05034027,-0.01689468,0.00259029
0.01393771,0.02981213,0.10647087,0.02691381,-0.00468271,0.06585774,0.01149283,-0.02662655,0.02922387
-0.00895888,-0.03264466,-0.04857454,0.03609108,-0.02050571,-0.01181804,0.05734870,-0.00265606,0.04838790
0.04320137,0.00613117,-0.04077325,-0.02191345,-0.03591542,-0.01259469,-0.06404731,-0.04861584,0.00855799
-0.02081698,-0.03337875,-0.01901350,-0.01243995,-0.01735438,-0.01309210,-0.03391080,-0.03605874,-0.01931335
0.00838509,-0.00637291,-0.00232042,-0.01375050,-0.01299551,0.01320793,0.05063301,0.04848285,0.04935984
-0.03786914,-0.00280543,0.01227637,-0.05784331,-0.03172955,0.03258573,-0.05154086,-0.03008186,0.01407718
0.06603245,0.03492394,0.00445963,0.02743690,-0.00036907,0.01792924,0.00750317,0.02532381,0.06287903
0.00446861,0.00361480,0.00123555,0.02566579,0.02027467,0.00285630,0.02040678,0.01569367,-0.00955574
-0.06491735,-0.05533971,0.00116059,0.00722593,-0.01791197,-0.01732966,0.00318397,0.01429098,-0.02604158
-0.03135806,-0.00142355,-0.03327443,-0.04945569,-0.05287772,-0.04291345,-0.02375983,-0.02375587,-0.02411662
-0.06137950,0.00062648,-0.05076420,-0.08000109,0.00085409,-0.00412017,-0.14753604,-0.06070598,-0.03690981
0.02255677,-0.00204058,-0.04242429,0.03380299,0.00284476,-0.01963437,-0.03733483,-0.05339322,-0.05897724
0.00605476,0.01554558,0.02236858,0.01642855,0.01511846,-0.00223210,0.01630958,0.01444478,0.00699099
0.03654386,0.02208300,0.03834313,0.00735830,-0.02998305,0.00315159,0.01396092,0.02503807,0.05358279
-0.02519531,-0.04202595,-0.02379660,-0.01049843,-0.02684391,-0.01207776,-0.01495387,-0.03375350,-0.00051455
-0.03983837,-0.04909950,0.02707157,-0.04615488,-0.04335812,0.02380420,-0.03122737,-0.03441873,0.01681364
-0.07534640,0.02535110,0.08909725,-0.04609967,0.01668724,0.07317714,0.00049402,0.04174935,0.10029973
0.03841613,0.06914908,0.05828636,-0.01732256,-0.01112818,0.02308007,-0.04975614,-0.01824515,0.02137598
-0.03188551,0.02042106,0.06660177,-0.03419498,0.03201496,0.04634176,-0.04068104,0.04328286,0.05882875
0.02654428,-0.00172465,0.04773317,-0.01417738,-0.01674920,0.07472392,-0.03093739,-0.00175599,0.04076867
0.02398101,-0.04715247,-0.03994888,-0.02180564,-0.05757223,-0.03842625,0.00554407,-0.02749614,0.01350723
0.00712504,-0.01865787,0.02806719,-0.00838280,-0.00916358,0.03658912,-0.02178237,0.00989345,0.05293052
-0.06340026,-0.02846321,-0.00163884,-0.03640227,-0.03965690,0.02824996,-0.01786925,-0.01480270,0.06145349
0.06925254,0.04507197,0.11016248,0.01858547,0.03530033,0.12081488,0.01387643,0.02605682,0.13802420
0.02433468,0.02638672,0.04250688,-0.03359727,-0.00468676,0.02875409,-0.06928135,-0.01474236,0.02868733
0.01077278,0.00103770,-0.02896816,0.00191102,-0.00980279,-0.01708775,-0.03940002,-0.01664980,-0.00103138
-0.04625275,-0.04755335,-0.04424893,-0.03375100,-0.00600535,0.02604297,0.01210708,0.01457645,0.01104779
0.00742272,0.02566191,0.03075339,0.00632277,0.00381554,0.00681194,-0.01101085,-0.00243149,0.00548096
-0.06422532,-0.02722215,-0.02497764,-0.07126009,0.03266179,0.00992472,-0.07536058,0.01697213,0.01134729
-0.11454387,0.01854671,0.04425184,-0.06959726,-0.00165367,0.02010697,-0.04235119,0.00645207,0.00114428
-0.02251201,0.01918565,-0.09272431,-0.01884509,0.00637821,-0.06231252,-0.01523526,0.01177912,-0.02326914
-0.00342020,0.02483315,0.09388271,-0.04750465,-0.00968578,0.06629254,-0.00138958,0.03870236,0.12323817
-0.07854884,-0.04105822,-0.08350447,-0.05980261,-0.02373989,-0.07924571,-0.03442358,-0.01994962,-0.04733846
0.04270605,0.00171020,0.03601317,0.04168968,0.01537095,0.01893059,0.06626835,0.03846245,0.06762207
0.04857240,0.00955893,-0.02748203,0.01616584,0.00055958,0.02547789,0.04089648,0.04241177,0.05456668
-0.00312636,0.00504995,0.06634795,-0.03415028,-0.02191955,0.02367323,-0.06920000,-0.03548418,0.02011120
-0.04673200,-0.03130538,0.02862015,-0.03769261,-0.01035114,0.01902352,-0.03797136,-0.01384163,-0.01715451
-0.01988268,-0.00829097,0.05163942,-0.00657959,-0.03986615,0.05416805,0.01758699,-0.00725413,0.07743376
-0.00583506,-0.01241278,0.01880518,-0.01032891,-0.01630565,-0.02316255,0.05394260,0.02808837,0.02217928
-0.00132015,0.00162808,-0.00287435,-0.00284579,-0.00114476,0.00173951,0.00656036,0.00669823,0.00114151
-0.01455318,0.05150618,0.07920278,0.00085476,0.04419575,0.06896956,-0.04358509,-0.01204973,0.00330995
-0.00208687,0.00988394,0.00009413,-0.00646108,0.00631641,0.00359047,0.00167698,0.00117002,0.00202303
-0.03762247,-0.04299388,0.01771651,-0.00977711,-0.01405934,-0.03562985,-0.01450587,-0.01951270,-0.01781971
-0.04078732,-0.02995404,0.01941352,-0.00602509,0.00848854,0.04681230,-0.06940854,-0.06947947,-0.01236182
-0.08442031,-0.07945100,0.02298019,-0.05857401,-0.05094172,0.04301780,-0.02437399,-0.03084331,0.03997408
0.01892459,0.03462657,0.02200109,-0.05945127,-0.03122832,0.00333091,-0.04009270,0.00215882,0.05299039
-0.01860332,-0.02632974,-0.04591352,-0.03115932,-0.01367068,-0.01257223,-0.04030401,-0.00811348,0.00772018
-0.05184478,-0.04723385,-0.02375896,-0.03919702,-0.03773047,-0.01193252,-0.05409362,-0.04393468,-0.03023372
0.03578750,-0.03374320,-0.00410123,-0.00188101,-0.03828834,-0.01543979,-0.01631709,-0.05667476,-0.01441615
-0.03248991,-0.05943168,-0.00388031,0.01805692,-0.03135080,0.02656137,0.03595961,-0.00129787,0.06836008
-0.01619937,-0.00480073,-0.00834705,-0.02839757,-0.02452618,-0.01338509,-0.02160087,-0.01460542,0.02109312
-0.05181030,-0.03646760,-0.00506181,-0.03226422,-0.02073071,-0.02546611,-0.00797716,-0.01618398,-0.03878421
-0.04300508,-0.03246231,-0.00596006,-0.10192091,-0.10039222,0.01508917,-0.07975548,-0.05770179,0.02637241
-0.00325592,-0.03088723,-0.06221480,-0.06632245,-0.09211425,-0.07036711,-0.07870067,-0.06220483,-0.02165355
-0.02008602,0.00648981,0.02034854,-0.03889903,-0.00627486,-0.01443326,0.00077287,0.01861331,0.02136077
-0.02294206,-0.00211260,0.04333306,-0.02790994,-0.01173889,0.06128835,-0.03785416,-0.02145030,0.04928332
0.03707659,0.11337139,0.04568359,-0.00504363,0.05525924,0.03174583,-0.02532828,0.01301953,-0.00434024
-0.00965209,-0.01467453,-0.01970745,-0.02913303,-0.02344973,-0.05844728,-0.02477165,-0.03723252,-0.06497235
-0.05951836,0.03508310,-0.01821636,-0.03318293,0.05561578,-0.04952431,-0.03163583,-0.04115789,-0.09855247
-0.01694772,-0.00860563,0.00118058,-0.01562178,0.00271752,-0.01434586,-0.01002027,0.01538517,-0.00417235
-0.04518417,0.12830770,0.00257583,-0.04224949,0.16678087,0.03034900,-0.08146543,0.00297112,-0.04884874
-0.02836423,0.00878291,-0.01455734,-0.01802116,0.01773357,0.00161433,0.00450302,0.05034574,0.04167243
0.00045758,0.00002877,0.00437849,-0.00255427,0.00252352,-0.00383681,0.00205606,0.00086095,0.00139236
-0.04403254,-0.03316316,-0.08010407,-0.00004769,-0.00834174,-0.03643712,0.01495341,0.04304288,0.05224809
-0.02115210,0.06020278,0.03532041,-0.05359981,0.03803506,-0.00183573,-0.02015346,0.01788270,-0.00796633
0.01467811,-0.00094608,-0.00703756,-0.03334741,-0.04557509,0.00418008,0.00789110,-0.03075755,0.06506741
-0.03798662,-0.02355458,0.00462023,0.00892418,-0.00715404,-0.02081468,-0.00455486,-0.00564359,-0.00485990
-0.01753420,-0.01013386,-0.01920172,-0.01255889,-0.01001576,-0.01983680,-0.01173212,-0.01127006,-0.01230631
-0.02305209,0.00023541,0.01245666,0.02508111,-0.00848242,-0.04399418,-0.04622473,-0.06239758,-0.04378630
0.01978041,0.03849166,0.03305501,0.03236609,0.03559864,0.02117258,0.03014643,0.06259380,0.04193530
-0.01905996,-0.03026841,-0.03941463,-0.00845326,-0.00597009,-0.04484705,0.02140917,0.07221533,-0.00275911
-0.00521016,0.00794776,0.01383177,-0.02067760,0.05721709,0.05904098,-0.01277376,0.02492216,-0.01025934
-0.01758704,0.00299425,0.02652040,-0.00224039,0.01589918,0.02462963,-0.01018118,0.02350804,0.04778256
-0.03324717,-0.02804491,0.01757335,0.02039801,-0.01311098,0.02101766,-0.02381064,-0.03751395,-0.02743036
-0.07877915,-0.06427912,-0.02764378,-0.04707142,-0.05118237,-0.02438219,-0.00552408,0.00317449,0.02919709
0.00992523,-0.01001493,-0.03923262,0.00419500,0.02248904,-0.01219136,-0.00545664,0.00924480,0.00345709
0.01319623,0.00106715,-0.02003454,0.00745340,-0.00490105,-0.01555111,0.00156146,0.00078994,0.00008464
-0.05714761,-0.04794320,0.00822901,-0.03644174,-0.02117172,-0.00930408,-0.05849298,-0.00948674,-0.06040591
0.00732740,0.02288601,0.00220781,0.00207564,0.02511902,-0.00139907,0.00796503,0.02133008,-0.00204025
-0.07096604,0.06388710,0.01529024,-0.04336668,0.10567832,0.03730170,-0.06492061,0.06276430,0.03452181
-0.01357264,0.01509525,0.00716879,0.01696535,0.03919130,0.04001868,-0.03872648,-0.05751874,-0.05187501
-0.05446586,-0.04686143,0.01063593,-0.04411520,-0.06732841,-0.01679623,-0.01479028,-0.00657767,0.02482080
-0.05061219,-0.02669028,0.03681577,-0.03692945,-0.00338908,0.09520889,-0.04492994,0.00107726,0.08331122
-0.03999916,0.00470015,0.05994684,0.02680488,0.06370907,0.10283920,-0.09673344,0.03116949,-0.02437837
-0.06676687,-0.01622155,-0.00700741,-0.06911056,-0.02952820,-0.02059633,-0.04703439,-0.01029640,-0.00301548
-0.00744370,0.07255010,0.02232838,0.08740801,0.10037268,-0.02065108,0.02002669,-0.02584396,-0.05940946
0.03288355,0.04731745,0.03057125,0.04286140,0.01837797,0.02922259,-0.03011266,0.01185355,0.02449411
-0.03972485,-0.02665697,-0.00299737,-0.05358706,-0.04601477,0.01262242,-0.05653895,-0.06358985,-0.04921364
-0.04098444,-0.02679621,0.00956266,-0.02793315,-0.01491096,-0.00458485,-0.02276866,-0.01158546,-0.01447730
-0.05372670,-0.04033817,-0.06039763,-0.03636602,-0.03715149,-0.04499153,-0.01370713,-0.02687965,-0.03752860
-0.08561586,-0.05976687,-0.06169849,-0.08993686,-0.05004642,-0.04379718,-0.03310344,-0.04767108,-0.08314543
0.00714725,-0.00287644,-0.00669706,-0.00049552,-0.00360711,-0.00792316,-0.00150925,0.00111571,-0.00000985
-0.02304662,-0.01299945,-0.01516011,-0.04308517,-0.01072315,0.00693421,-0.01732306,-0.00399624,0.03935469
-0.08307729,-0.06272838,-0.02976760,-0.07085980,-0.07157192,-0.04482578,-0.03037964,-0.03602652,-0.00668486
-0.01742092,-0.01355099,-0.00982081,-0.00483877,-0.00848916,0.01072972,-0.01250599,0.00802114,-0.00663946
-0.00465906,0.00935430,0.02613666,-0.00982508,0.02378490,0.00807490,-0.03039317,0.00388203,-0.02711823
-0.02210860,-0.05353329,-0.08412094,-0.04122616,-0.01586622,-0.07082869,-0.00288622,-0.00096774,-0.05593340
-0.21605831,0.13122258,-0.05288677,0.04887357,0.55754131,0.22888398,-0.03541945,0.06119129,-0.11235748
-0.02965691,-0.01846695,-0.02118291,0.01681404,0.03661077,-0.00941766,-0.04901640,-0.01320218,-0.01716668
-0.03291967,-0.01039532,0.00408654,-0.01311588,0.01405283,-0.00061107,-0.02585893,0.03294300,0.00583366
-0.02441398,0.05921301,0.00894559,-0.03545430,0.03434270,-0.02025352,-0.00443807,0.03507738,-0.03495014
0.00533144,-0.02438859,-0.02829578,-0.02583661,0.02438892,-0.00847146,-0.05980018,0.02168954,-0.01084070
0.03962377,0.10991186,-0.01183531,0.00594157,0.05811362,0.02618110,0.02598460,-0.02882724,0.04040818
-0.00046991,0.00753722,0.00467768,0.00220887,0.00399360,0.00271778,-0.00106378,0.00364348,0.00815974
-0.03618258,-0.02334173,-0.03180405,-0.00907499,0.00029538,-0.00031750,-0.03015746,0.00674644,-0.01168229
0.00449225,0.00404039,0.00554418,0.01390179,0.01837029,0.00723591,0.00348307,-0.00281627,-0.00097624
0.00478450,0.08248486,0.04082964,0.00270093,0.16488758,0.03051792,-0.00517449,0.00362538,-0.04181057
-0.01070535,0.02831697,0.02739587,0.08002776,0.16677064,0.07591214,0.05432822,0.05906379,-0.01985223
-0.08067974,0.00440127,-0.01829508,-0.13128981,0.05753452,-0.00408556,-0.06146413,0.19068155,0.07718134
-0.02036949,-0.02394803,-0.02008988,0.00727224,0.00905001,-0.00963427,-0.06226275,-0.03306431,-0.05518063
0.02389972,0.02922673,0.04632602,-0.02467427,0.00945048,0.06498525,-0.03692925,0.05560258,0.05335591
0.00416751,0.01780973,-0.03263499,0.00334823,0.02715158,-0.01697977,-0.00237879,-0.01447724,-0.04617798
0.00416668,0.00295293,0.00269956,0.02821823,0.05012047,0.03353198,0.00582113,0.01491749,0.01221059
-0.01213024,-0.00605337,-0.01065413,0.01497752,0.02497400,0.00257940,0.00185784,0.02124715,0.00370664
0.01624588,0.04729429,0.06061044,-0.03744228,0.01061824,0.02357249,-0.04950337,-0.03189577,-0.03799426
-0.00767810,-0.00582208,-0.03877910,0.04610745,-0.00885898,-0.04991707,-0.00118304,0.02086111,0.00824906
-0.00116694,0.04485532,-0.05266086,-0.01863640,0.03758571,-0.02993890,0.01480438,0.07921000,0.05452831
0.05518288,0.00142359,-0.01181068,-0.01013691,-0.03846207,-0.03551988,-0.00999733,0.00780325,-0.01238762
0.04754748,0.07130513,-0.00759910,0.02213020,0.06745122,-0.02348364,-0.03291814,0.00468308,-0.03842809
0.04210664,0.01660436,0.02207101,0.05332695,0.01407253,0.03058013,0.05255634,0.04434176,0.04776371
0.01268767,0.00651385,-0.01038976,-0.01253810,0.01140265,-0.00904534,0.01076118,0.03672943,0.02462108
-0.01987957,-0.02483562,-0.06789603,0.00972775,0.02323547,-0.00900830,-0.01692659,-0.01838190,-0.02476740
-0.03103211,-0.00179945,0.00608212,-0.07026770,-0.02090067,-0.03021749,-0.02520999,0.02041049,0.01141324
-0.06647572,-0.02147629,-0.00973739,-0.01532800,0.03148253,0.01221194,-0.02505414,-0.01624511,-0.03071149
-0.02391946,0.07129450,-0.03210551,-0.03256275,-0.02799046,0.00361777,0.02580200,-0.00068388,0.01481124
-0.01290956,-0.03948548,0.01320929,0.00349946,-0.03252688,-0.01763821,0.02035892,0.03297799,0.04206485
0.00325493,-0.00200384,-0.00280592,-0.00338703,-0.00025070,0.00025396,0.00108674,-0.00332952,-0.00505166
-0.04987291,-0.02911981,-0.03353874,-0.04967863,0.00961528,0.00918263,-0.00561333,0.00200146,-0.05994671
-0.01117846,0.01388691,0.00376252,0.02757088,0.00514357,0.02176780,0.01090980,-0.01035340,0.01769554
0.06568385,0.03597093,0.03392563,0.02827494,-0.03143653,-0.01745987,-0.00046587,0.01936587,-0.05519515
-0.01569949,0.04315849,0.00611509,-0.05347446,0.01074213,-0.02988373,-0.01111861,0.04773978,0.03709842
-0.01235696,-0.01035571,-0.00338848,-0.00993333,-0.01285162,-0.01807139,-0.00682798,-0.00599963,-0.02163932
0.07019247,0.02673027,0.02879749,-0.00408875,-0.03121937,-0.02006509,0.02977767,0.00245050,-0.01090964
0.03937618,0.00568258,0.01306897,-0.00005529,0.00769955,-0.02889535,0.03915060,0.05061945,-0.00160116
0.04991418,-0.01331056,-0.03340763,-0.05362456,0.02001182,-0.02158726,-0.03445169,0.00599095,-0.00839492
-0.02016047,0.01174114,-0.00681303,0.02308758,0.02316835,-0.00240125,0.00877987,0.02444292,0.00588402
0.00688636,-0.01982751,0.01061145,0.01190980,0.03409692,0.05820701,-0.02004926,-0.00508688,0.04165785
-0.01498694,-0.01754478,0.00522300,0.00515548,0.00808763,-0.03169994,0.02477619,-0.00343137,-0.01888873
0.00736355,0.04221920,0.01441851,0.00479057,0.05578370,0.00994142,-0.02882738,0.00238875,-0.01207132
0.06253302,0.02626177,0.03688242,-0.01691825,-0.04146827,-0.00549458,-0.02051923,-0.01044902,0.01746617
0.01350514,0.00200032,0.00093101,0.00001668,0.00197036,0.00153665,0.00211964,0.00635826,-0.00018631
0.00271451,0.01495715,-0.01266283,0.02158193,0.06017456,0.04066316,0.03443789,0.09286178,0.06069228
0.01057181,0.02912642,0.00476701,0.00914794,0.02310673,0.01943552,-0.00678973,0.01909398,0.02642263
0.02836320,0.02487654,-0.00273142,0.05435870,0.06896029,-0.00707050,0.02079258,0.03145666,-0.03519780
0.06271668,0.01351528,0.04117270,0.03845887,0.01028598,0.00303536,0.01789503,0.02445050,0.02971839
0.01100066,-0.01122979,0.01931924,-0.03940614,0.01806495,-0.05069869,-0.02493867,0.03631140,-0.04493659
0.06515965,0.05562560,0.02250220,0.08628676,0.01388150,0.00017647,0.05659045,-0.00005305,0.00187651
0.00169075,-0.04125097,-0.06852423,-0.02700750,0.20550074,0.00851957,-0.09559929,-0.04446252,-0.10022107
-0.01884508,0.00807690,-0.01360642,-0.00747312,-0.00112864,-0.01948484,0.01266308,0.03284498,0.03085856
-0.01144979,0.03056972,-0.00567234,-0.02603338,0.00817504,-0.02137444,-0.01962221,-0.00887623,-0.03240393
0.00126941,0.00134362,-0.03407045,0.00264270,0.07230362,-0.00624318,-0.03684172,0.03639584,-0.02667292
0.01111984,-0.03154856,-0.06173035,0.03506186,0.01290776,0.01054320,0.00431717,0.02366651,0.04120040
-0.00075118,0.01392938,-0.03112819,-0.01093663,-0.00591833,-0.01475164,0.01688949,-0.00803897,-0.00263385
-0.03754905,-0.03180811,-0.04566531,-0.02230980,-0.00986194,-0.04250034,-0.04792872,-0.01045866,-0.04714666
0.03735459,0.05419450,0.03762786,-0.04049671,-0.04015236,-0.02746663,-0.02249396,-0.04743276,-0.04688622
0.01808865,0.00764828,0.00467058,0.00878796,0.00516364,-0.00012419,0.00163039,0.01052750,0.00437523
0.01978630,0.02025103,0.08047860,0.02551444,0.00644652,0.08540936,0.03093053,0.01029756,0.03579547
-0.03663055,0.05733334,0.10827016,-0.01302111,-0.00681599,0.01127579,-0.01487746,0.04641556,0.01703304
-0.06009543,-0.01588062,0.03839429,-0.03907825,0.02509377,-0.00122143,-0.02032251,0.06980235,0.00831190
-0.02029765,-0.01535292,-0.03151820,0.02690099,0.00719009,0.01509269,0.03526424,0.05276510,0.10424650
-0.02691639,0.06941085,0.01285650,-0.01981710,0.04600570,0.02348531,-0.05309037,-0.01784251,-0.04915004
-0.13532972,0.06772441,-0.08323733,-0.06209689,-0.07675171,0.03154720,-0.02284438,-0.01347432,0.01528439
0.00576618,0.00825262,0.04108233,0.00074013,-0.00522721,0.02143331,0.00748276,0.03286193,0.00935475
-0.02009071,-0.01005462,-0.04250051,-0.03508733,-0.00752551,-0.00463297,-0.03134364,0.03865666,0.04657602
0.02368589,0.07000148,-0.01188518,0.00261450,0.00403206,-0.05224511,-0.00832078,0.00137110,-0.04796237
0.05499148,-0.05814915,-0.02171778,-0.04798582,0.02132528,-0.02348287,-0.01663269,-0.01850437,-0.03031472
0.01713400,0.03781830,0.03553180,-0.00303938,-0.07748698,0.01076661,0.07518828,0.05779828,0.03173302
-0.00163371,-0.00060178,-0.00149437,0.00692844,0.00289173,0.00371565,0.00237666,-0.00139503,0.00485925
-0.00669031,-0.00820384,-0.02576707,-0.00111216,0.00770226,-0.02290304,-0.02511194,-0.03549765,-0.06871467
0.00911280,-0.00042331,0.01144654,0.00486610,0.00539221,0.00073452,0.01518421,0.01684140,0.01122383
0.02728242,0.09531806,-0.08215892,-0.01371096,-0.01134273,-0.02384221,-0.00436394,-0.03636792,-0.01703863
-0.02697483,0.04842058,-0.03171727,-0.00124730,0.04960481,-0.00150129,-0.01183529,0.01106487,-0.02567677
-0.03232083,0.03675198,-0.06356036,-0.00919010,0.08505789,-0.02100134,0.01802094,0.02712604,0.01711397
-0.05537436,-0.00498162,0.00774784,-0.04383437,0.04819820,0.02247351,-0.03487002,0.01180439,0.02052401
-0.03753882,-0.00830887,0.00869538,-0.01629230,0.09130374,0.00716619,0.00733456,0.05542256,-0.00376240
0.00829899,0.04407753,0.02744834,-0.00098191,0.01575446,0.01309371,-0.02210143,-0.02017364,-0.00110505
0.00998617,0.02776188,-0.03504678,-0.03498886,-0.00310209,-0.00524054,-0.03464645,-0.02819405,-0.02597878
-0.03141618,-0.02180066,0.00218596,-0.02696018,-0.01210792,0.00273073,-0.01069540,-0.00270657,-0.00631865
0.03120622,0.05831186,0.03408667,0.03472134,0.02221284,0.01283794,0.04224493,0.03961359,0.04075486
0.03292101,0.04538096,0.04428452,0.00590920,0.01950151,-0.00369732,-0.00690745,-0.03580126,-0.05352117
-0.03281289,-0.02362606,-0.11760720,-0.04507301,-0.04596005,-0.11200197,0.02246673,-0.02596653,-0.07359314
0.00361060,-0.03126418,-0.04372678,-0.01691022,-0.02477441,0.00661204,-0.04103272,-0.03948336,-0.00744954
0.02367623,0.01023912,-0.01552662,0.07189231,0.04846418,0.01481559,0.14696446,0.07434008,0.00591306
-0.03144660,-0.00839799,-0.07176390,-0.05015419,0.00871188,-0.01242311,-0.02471670,0.01208551,0.00255307
-0.01990036,-0.02270414,-0.01324858,-0.00227310,-0.00345247,0.01554964,0.04378653,0.02240038,0.01242164
0.03426875,0.03646399,0.03139415,-0.08537087,-0.08320844,-0.10203864,0.02458963,0.00751249,-0.02090857
-0.03947370,-0.01393870,-0.08919930,-0.04292716,-0.04170131,-0.05582554,0.00051599,0.00473457,0.02341652
-0.03952476,-0.04663730,-0.02776378,-0.00616036,-0.02268968,-0.03197724,0.06424910,0.04387423,0.02376961
-0.00954322,0.03277549,-0.01197981,-0.00078419,0.07240561,-0.00583688,0.01368685,0.04112824,-0.00305560
-0.06457462,-0.03659716,-0.02040626,-0.08617759,-0.05525688,-0.02699079,-0.04006388,-0.03471553,-0.03459772
-0.00497782,0.00087489,0.00405772,-0.00209663,0.00115957,0.00047492,0.00263343,-0.00369120,0.00351343
0.01654812,0.03356500,0.02136803,0.00550716,-0.00059344,-0.02859958,0.01348695,0.01462432,0.00437349
0.02184839,0.04020057,0.02702932,-0.00534833,0.01049520,-0.00846890,-0.06097092,-0.05763972,-0.01974728
-0.00808478,0.02664175,-0.00170081,-0.01384136,-0.04053855,-0.03118169,-0.02834065,-0.03787512,0.02401857
0.00046291,-0.01023685,-0.04156473,-0.01780351,0.00006449,-0.01173669,0.06371118,0.03366700,-0.01990638
-0.01782886,-0.02115454,-0.03802348,-0.00859507,-0.01661356,-0.01986780,-0.00596647,-0.01119468,-0.01148488
0.06211281,0.03127657,-0.00971823,-0.00065079,-0.03248274,-0.03569130,0.00953161,0.01329998,0.04652967
0.02123415,0.01079104,0.01026548,-0.00393550,-0.05890406,-0.00552133,0.03265930,-0.01391273,0.00170597
-0.00607090,-0.03421139,-0.02163320,0.01893121,-0.06367766,-0.05131993,0.00423928,-0.00663193,-0.04570208
-0.00086162,-0.00419181,-0.00563040,0.01114234,-0.00429374,-0.00180273,0.01611685,-0.00379629,0.03745120
-0.04266157,-0.01517198,0.05030577,-0.02048746,-0.03566499,0.02407395,0.06210412,0.03293174,0.05341577
-0.03115369,0.01616959,-0.00958731,-0.04676553,-0.03576383,-0.03326860,0.00426072,0.01882182,-0.01840161
-0.03424252,-0.03965171,-0.03326039,0.00121871,-0.02322104,-0.05576713,0.07181260,0.01320779,-0.01035075
0.01885876,0.00069591,-0.01840529,-0.06097282,-0.07045674,-0.06989962,0.01712890,0.00268608,-0.00996621
0.02590341,0.02935874,0.01651991,0.00725842,0.00589732,-0.00494620,-0.00585909,-0.00605042,-0.00402277
-0.03482063,-0.03428609,-0.00504675,-0.00803684,-0.00437660,-0.04882654,0.03877372,0.05564857,-0.00615776
0.01990534,-0.01106188,0.03048375,0.03679113,0.01095797,0.05214026,0.04257513,0.00295865,0.05860163
0.02840906,0.04497313,0.02926720,0.02209208,0.02074079,0.00847973,0.06160560,0.05026206,0.02155914
-0.04506802,-0.03424735,-0.04889464,-0.00117730,0.00924436,0.02087034,-0.03980945,-0.01217996,0.01343767
0.03308216,0.05475118,0.07140955,-0.01645174,-0.05831916,-0.03071971,0.08778947,0.07819960,0.02971220
0.02117741,0.02432349,-0.00637514,-0.00950071,-0.00301416,0.00417969,0.07027810,0.03455573,0.06045888
-0.04828745,-0.04155491,-0.00599774,-0.00644016,-0.05621126,0.02682990,0.10016758,0.13532248,0.00633280
-0.01244388,-0.01313157,-0.03955974,-0.07299613,-0.03581299,-0.04810033,0.03572046,0.03188768,-0.01881144
0.05872826,0.05680190,0.00079943,0.04960627,0.03025630,-0.00765521,0.05115555,-0.00689714,0.00536014
0.01506376,0.03793190,0.02648604,0.04799204,0.01302305,0.00043248,0.03783018,0.05816486,0.05897919
0.02673534,0.00074459,-0.04776737,0.00803858,-0.02930457,-0.09182920,0.05995592,-0.02753961,-0.08948149
-0.02439336,-0.05212656,-0.06971788,0.03622517,0.03580498,0.00760707,0.04018294,0.03122648,0.00666616
-0.05741005,-0.05068107,-0.05584797,-0.00963895,-0.01728229,-0.03323685,0.02242850,-0.01451133,-0.04601065
0.07472868,0.04215438,-0.02718974,0.05781001,0.02634346,-0.04374104,0.02724214,0.04701850,0.01246571
0.00969006,0.01960738,0.01743041,0.01493228,0.00687747,-0.00342352,0.01012034,0.00984085,0.00685119
-0.01114440,-0.01027051,0.02138189,0.02207279,0.02727771,0.01639356,0.02837525,0.01405233,-0.03954287
0.02390882,0.01847574,0.01625969,0.00329202,-0.00044822,0.01050325,-0.03452801,-0.06764749,-0.03352613
-0.00358048,-0.00218355,-0.00261879,0.02162639,-0.03183701,-0.02188207,0.05119645,0.00095912,0.00203985
-0.02263082,0.00170314,0.00943802,0.01605434,0.02788910,0.02503470,0.00274293,-0.02757639,-0.02687473
0.00552773,0.00554332,-0.01036762,0.02349734,0.05534504,0.00064206,0.08722493,0.11960243,0.06223759
-0.02413089,0.05580145,0.04707693,-0.01722416,0.09719533,0.03309890,0.09631994,-0.10709313,-0.04714095
0.01463881,-0.01618396,-0.05001550,0.02194357,-0.02335471,-0.03401726,0.04925432,0.00502119,0.00518801
0.02557896,0.00205983,-0.00702162,0.00325986,-0.02247045,-0.01105348,0.01884066,-0.00303225,-0.01938883
-0.01808014,0.00175807,-0.02468583,-0.00491627,-0.01015793,-0.01648556,0.06936284,0.02722112,0.00976182
0.03493343,-0.00377430,-0.02264207,0.02406180,-0.04410480,-0.04235137,0.06242904,0.12613605,0.05895657
-0.01883190,0.05766033,-0.01914322,0.06313331,0.11744691,0.04220870,-0.01143938,-0.05778645,-0.04515585
0.00020224,0.00127088,-0.00189693,-0.00221414,-0.00581829,-0.00488252,-0.00341669,-0.00091366,-0.00471310
-0.03284744,-0.03253748,-0.06607252,0.00719578,0.00451730,-0.02447553,0.07168854,0.04343976,0.00341126
-0.00450739,-0.00635103,-0.00003745,0.00041266,0.00596312,-0.00065351,-0.00236768,0.00129341,0.00362678
0.03264078,-0.02312298,0.01747121,0.01227471,0.05549499,0.01613539,0.01420141,-0.00100772,0.01084340
0.01016500,0.03364572,-0.03612315,0.02389538,0.07798821,-0.01272472,0.02368347,0.07082357,0.01908286
-0.02068529,-0.00102166,-0.01503404,-0.07498764,-0.01125194,-0.05850628,-0.00547223,0.08764636,-0.00288547
-0.10219461,-0.07540549,-0.05859224,-0.04895405,-0.04033095,-0.02158854,0.00527898,0.01807830,-0.01583584
-0.00476048,-0.00964071,0.01495601,0.01324437,-0.03261469,0.03612936,0.01861191,0.02194563,0.05209975
0.02960676,-0.02611917,-0.01222145,0.06317481,0.00161265,0.02471779,0.07841751,-0.01661731,0.03246602
-0.03183394,0.00675109,-0.01983679,-0.01746624,0.04332944,0.02990961,-0.00867036,0.02919920,0.06646622
-0.00329035,-0.02384445,-0.04328079,0.00765976,0.00832918,-0.00051680,0.02773435,0.02196296,0.02872292
-0.00551004,0.03975657,0.01591861,-0.01400441,0.02535738,0.02731097,-0.02489214,-0.01569381,0.01519505
-0.05114966,-0.04850752,-0.05130503,0.00746195,-0.02096177,-0.06905911,0.06458959,0.07276335,0.00020967
-0.04913604,-0.03754881,0.00411305,0.03673073,-0.06789538,-0.03598139,0.06941783,-0.01031768,-0.03240512
0.02285208,0.02174316,0.04761663,0.04669267,0.03462231,0.01695045,0.01726981,0.01883748,-0.01159161
0.00918843,-0.04704843,-0.01666500,-0.00539157,-0.02916852,-0.00847785,0.00686614,-0.02765485,-0.00369684
0.04691519,0.00130442,0.00213000,0.03984292,-0.00547069,0.02305767,0.04398012,-0.01053323,-0.01907592
0.01555906,0.01602799,-0.02910597,0.04902689,0.00600023,-0.05086187,0.05519914,0.04285296,-0.00597467
0.02346873,0.01641584,0.00794749,-0.01251947,0.00381879,0.03537970,0.04410166,0.03155029,-0.00305230
-0.01969981,-0.01802605,0.00800451,0.01287409,0.00990453,0.02593602,0.02658608,-0.03870040,-0.03498650
0.10126331,0.04038958,0.03619924,0.06764744,-0.01642375,-0.02744359,0.08197512,0.00748268,-0.03178224
0.00115083,0.02110443,0.00066315,0.01862507,-0.00881427,0.02639975,0.11789345,0.02641016,-0.01887438
0.03309286,0.01321541,0.04932532,0.08183245,-0.00385948,-0.00300091,0.06979030,-0.00326823,-0.00041672
0.00359487,-0.00053524,-0.00337973,0.00199861,-0.00057633,0.00263146,0.00248853,0.00044883,0.00015850
0.06303840,-0.00599350,0.01003220,0.05474086,0.01416100,0.01590216,-0.01387226,-0.07583117,-0.01569807
0.01902769,0.00662339,0.00701282,0.04068627,-0.00173501,0.01346578,0.06784682,-0.02658507,-0.07518648
0.01391466,0.00721645,0.02922482,-0.00484748,0.00516094,0.01704268,0.03925439,0.03421237,-0.02512236
-0.00516537,-0.00951472,-0.03404011,0.00110801,-0.02431649,-0.05147484,0.04080532,0.00172401,0.00752944
-0.01428779,0.01765656,0.02451478,-0.00391617,0.01102294,0.03289123,-0.01125531,-0.00208862,0.00368788
-0.06027329,-0.08759934,-0.02725753,-0.02998319,-0.06269836,-0.01374907,0.03237382,-0.00599498,0.00878695
0.05864385,-0.02892232,0.03101644,0.08411852,0.02556979,-0.01474962,0.06478368,0.02094436,0.00416886
0.05151804,0.03364415,-0.04454337,0.02789007,0.08374035,-0.00246796,0.03138662,0.02076475,0.04572282
-0.01934985,0.01371345,-0.00901444,0.00027730,0.01677996,-0.00488996,-0.01566822,-0.01745796,-0.01689506
-0.01495955,-0.03718548,-0.00262971,-0.04363248,-0.05927690,-0.02430617,0.00723171,-0.04573955,-0.02207702
0.01467275,0.04539325,0.05604861,0.02204727,0.02475827,0.01093970,0.03407039,0.04006349,0.01218432
0.06721777,0.02865074,0.01594478,0.05475774,0.02251146,-0.01333719,0.02271176,0.03444528,0.04017767
0.01019080,0.02729376,0.01729343,0.07188616,0.02738322,0.01669641,0.09445212,0.02599364,-0.03290562
0.00215422,0.00401000,0.00488581,0.04286695,0.03841186,0.03156926,-0.00265544,-0.00758448,-0.00610512
0.02707044,0.01736376,-0.02837281,0.03236884,-0.05316128,-0.07755865,0.08121402,-0.00683217,-0.01359370
0.00158563,-0.01091476,0.02649794,0.01836773,-0.00231990,0.02925892,0.02824738,0.00040160,-0.00776150
-0.04407338,-0.01300042,-0.00108505,-0.00458587,0.03357377,0.03582036,-0.02584527,0.02272541,0.02616324
-0.02385257,-0.07536900,-0.01087924,0.05131282,-0.03001186,-0.02191157,-0.04813727,-0.01764121,-0.03745515
-0.00044905,-0.01872097,0.00606617,0.04479390,0.05694093,0.02472902,-0.03568758,0.03959954,0.05126698
0.03802846,-0.07326131,-0.01236317,0.00475648,-0.05402363,-0.04885741,0.01209928,-0.04653161,-0.03794368
-0.01633206,-0.00674859,-0.04587791,0.05899330,0.12096674,-0.06975826,-0.10426775,-0.04602304,-0.04257512
-0.00116309,0.02629710,0.05032594,0.04444096,0.00366379,0.00742683,-0.00238172,-0.00343778,0.00176487
-0.01981647,-0.02831625,-0.06831560,0.03259446,0.00289335,0.00394248,0.00574241,-0.01058301,-0.05042026
0.00736103,-0.02431132,0.00857090,-0.06940276,-0.00832439,-0.05486788,-0.05871629,-0.04986720,-0.04687945
-0.02560665,-0.00937854,0.00861317,-0.00114617,-0.00968206,-0.01124641,0.00478506,0.03619977,0.01333337
0.08181801,0.05054713,0.01355869,0.02787423,0.00910673,-0.00731897,0.00116238,-0.01074313,0.02701753
0.00928271,0.02204260,-0.01087490,0.04953771,0.02350275,-0.00159561,0.00094596,-0.01767493,0.00242767
-0.06791549,-0.03267874,-0.05143705,0.00079243,-0.00606250,-0.02608226,0.08369122,-0.01166917,-0.09189534
-0.00795049,0.00846528,0.00312368,0.00206246,0.01911227,-0.00205459,-0.00696170,-0.00375454,-0.00749535
0.04971110,-0.00338111,0.01087705,0.04534817,-0.06453858,-0.02263747,0.00660751,-0.07794707,-0.02538205
-0.00045875,0.01842585,0.07120656,0.00862936,-0.01712804,0.00201276,0.02462481,-0.00207027,-0.04433476
-0.00195708,-0.06207315,0.00918946,-0.02253526,-0.03292775,-0.03167527,-0.03920148,-0.00075531,-0.02757091
-0.02003541,-0.00410259,-0.03725839,-0.00053767,0.00438738,-0.02286084,-0.04818818,-0.05524732,-0.04933977
0.04617037,-0.07388414,0.01456535,0.10663554,-0.04660909,0.02133796,0.07644294,-0.01649989,0.02642804
0.03990226,0.06016938,-0.06771416,-0.03270602,-0.07532504,-0.02008459,0.18862307,0.02226175,-0.06812627
-0.00685169,-0.01833490,-0.03604414,0.02697763,-0.02546385,-0.01446681,0.02882093,-0.01867372,-0.00113811
0.02334222,-0.00743316,-0.04088867,0.03042863,-0.01700625,-0.11063734,-0.01936855,0.00551147,-0.03073691
-0.02471216,-0.02026578,0.00341554,-0.01258944,-0.02388909,-0.01315745,0.00432028,-0.02613778,-0.05822388
0.00734263,-0.02392598,-0.05429599,0.05241065,0.08221103,-0.03167439,0.04223467,-0.02952354,-0.04450064
0.04931943,0.00556219,0.01732997,0.05297399,-0.04815878,0.02171888,-0.00423602,-0.11072719,-0.10840087
-0.00068830,0.00080695,0.00431149,-0.00174370,0.00241803,-0.00124709,0.00354852,-0.00323239,-0.00271348
0.00958665,-0.04420098,0.02042133,0.00442262,0.00082431,0.00651191,-0.01545049,0.00018045,0.03039388
0.00242656,0.00234682,0.00546491,0.00936392,-0.00536618,-0.01051598,0.00566760,-0.00321610,-0.00244909
-0.02483949,0.01723928,-0.01314493,-0.04042388,-0.05086576,0.01913715,0.11180895,0.02204452,-0.04556606
0.00302433,-0.04600656,-0.05301014,-0.00798072,-0.03413437,-0.04794195,-0.07181571,-0.06151031,-0.07185168
0.01886629,0.07386353,0.01630186,-0.02025738,0.06369676,0.06957141,-0.03272574,-0.00489899,-0.02132419
0.06434006,-0.01775611,-0.07245027,0.04990676,0.03738602,-0.03499677,0.01707815,-0.01530877,-0.05954207
0.01012434,-0.05254020,-0.04185684,0.02808806,-0.01921571,-0.01058678,-0.03562767,-0.06096235,-0.00034541
-0.02338425,-0.01681398,-0.00810556,-0.00797447,0.02452039,-0.02099295,0.01562795,0.04538627,-0.02211482
-0.01841284,-0.02213881,-0.02885305,-0.02860023,-0.01786607,-0.03093116,-0.04421629,-0.03589056,-0.05339590
0.05777888,0.02443110,-0.00613346,0.09023970,0.05309972,0.01046638,0.04608285,0.01761330,-0.00756258
0.03003403,-0.00682228,-0.02885712,-0.03119482,-0.01497707,-0.01596938,-0.04177354,0.01659754,0.00185536
0.03711061,0.01158220,-0.03597273,0.03286804,0.01331144,-0.05015966,-0.00143568,0.00708375,-0.05498691
0.04880179,-0.01741250,-0.02057466,0.02672793,-0.00169990,-0.03001867,-0.05292250,0.04158935,-0.00195037
-0.00300237,-0.00844074,-0.04133234,-0.02125103,-0.01627832,-0.04736780,-0.01864150,0.00067134,-0.04986753
0.00908961,0.04528834,0.01379579,-0.03260942,-0.01827040,-0.03779382,0.00662890,-0.00286624,-0.01854667
-0.01168273,-0.00342465,-0.04947601,0.05896902,0.04856111,-0.03850051,0.05359234,0.03966272,-0.03524744
-0.01492155,-0.00198804,-0.01784823,0.00807120,0.00795360,-0.01129778,-0.01731695,0.02107118,0.04240567
-0.05472004,-0.06898497,-0.06674127,-0.01100350,-0.03371930,-0.05148910,-0.00214364,-0.00104285,-0.00432873
-0.04386344,0.01372626,0.02775065,0.00292322,-0.01555665,-0.01781238,0.01255537,0.02476381,0.01468517
-0.01334967,-0.03075328,-0.02171783,0.02933125,0.00594102,-0.00425531,0.03800767,0.00089529,-0.04612364
0.06206901,-0.00953871,-0.02949430,0.08071245,0.00500864,-0.01245772,0.00834779,0.00448784,-0.05242162
0.05141910,0.02149527,0.02282280,0.02006442,0.00563102,0.00195888,0.06634451,0.03131678,0.02534194
-0.00001265,0.00367955,-0.00257338,0.00008299,-0.00100882,-0.00286749,0.00834930,0.00767710,0.00251042
-0.01774663,-0.08281699,-0.03454175,-0.03509532,-0.04732601,0.00494756,0.00864640,-0.06356280,-0.06376842
0.10587606,0.02351259,-0.03077897,0.07275069,0.04811555,-0.03756591,-0.00762017,0.05701658,-0.01222068
-0.05840414,-0.05816565,-0.06715924,-0.07419165,0.02100074,-0.07344904,-0.02324908,0.06147294,-0.05262101
-0.01890867,-0.00070300,0.07183623,0.03820759,0.01529829,0.00410924,0.07206123,0.04213509,-0.05297561
-0.01670384,-0.01665559,-0.04029940,-0.01801865,-0.00732215,-0.01717213,-0.02107753,-0.00640122,-0.00380372
0.00421194,0.00165693,-0.00477263,-0.02535988,-0.01689073,-0.01121132,-0.02523209,-0.02534070,0.00110242
-0.01732625,-0.01119065,-0.02925736,-0.03260780,0.01199209,-0.00251371,-0.02268505,-0.01548622,-0.02244451
0.01763022,-0.02238026,-0.06187702,0.04898738,0.01813954,0.03507441,0.06023707,-0.01281356,-0.00324081
-0.03585728,-0.02756939,-0.00250667,-0.01115181,0.02700080,0.05310160,-0.01703333,0.02221482,0.02787497
-0.00123330,-0.06157402,-0.05255069,0.03943161,0.03519675,-0.02161908,0.03322700,0.07955617,0.04160935
-0.00177866,0.02699338,-0.00229497,-0.00494751,0.03892910,0.05737326,-0.00622428,-0.01988287,-0.00566934
-0.03062255,-0.00654008,-0.02297552,0.01066158,0.02896382,0.00970519,0.01943493,0.01518879,-0.00772620
-0.01862278,-0.01691590,-0.04714498,-0.00846705,-0.00797875,-0.01496245,-0.02270798,-0.01345118,-0.02704845
-0.01869266,-0.02156797,-0.02915758,-0.00377039,-0.01004959,-0.02372923,-0.00031228,-0.00966620,-0.01210392
0.05562948,0.04101337,-0.00743969,0.03012955,0.00829107,-0.00673397,-0.01988837,-0.00108944,0.03882359
-0.02737233,0.02485532,-0.00692943,-0.01935399,0.03214379,0.00175373,-0.01546295,0.02268922,0.00756711
-0.03864320,0.00661384,-0.00197950,-0.05935055,0.00059455,-0.00281767,-0.00785615,0.03320465,0.03408652
-0.05343313,-0.01531998,-0.01554786,-0.06231437,0.02310531,0.04731382,-0.06693652,-0.07493600,-0.03676469
-0.05188518,-0.02324099,-0.05903732,0.00462893,0.04462034,-0.01313672,0.01600615,0.02568086,0.00383941
0.00734938,-0.01667669,-0.02709593,0.04205479,0.00044026,-0.04302753,0.00382187,-0.03191213,-0.04450084
-0.02037900,-0.02294286,-0.10782915,0.05374174,0.03595603,-0.03642542,0.08121260,-0.03154440,0.00950134
0.07898416,0.05986363,0.01850401,0.07569373,0.06873655,-0.01750048,-0.05002299,-0.02632738,-0.04945783
-0.01732134,0.01549792,0.04079848,-0.00849195,0.03627054,0.01635788,-0.00972896,0.00663675,-0.00840797
-0.02502988,-0.01479447,0.00527254,0.02138954,0.04970019,0.06332702,0.01161678,0.01739680,0.08070702
0.03235247,0.00066444,-0.00027180,0.00468491,-0.01208212,-0.00805235,0.00038028,0.00428665,0.00066549
-0.05066911,0.04887452,0.06972644,-0.04885994,-0.01826646,0.00121456,0.00350800,0.00289628,-0.01015635
-0.00868509,-0.03204662,-0.05498744,-0.01753964,-0.02009227,-0.01162631,-0.04615007,-0.04343924,-0.03718425
0.05169947,0.01893014,-0.02706183,0.02563870,0.02079141,0.01041736,-0.01701030,0.00028353,-0.00104403
-0.02415811,-0.02307822,-0.02278893,-0.01204605,-0.00518542,0.00039556,0.00182897,0.01212702,0.01481822
0.03174847,0.00119813,0.04832195,0.03819925,-0.00346389,0.02512500,0.01316227,-0.04547016,0.00491295
-0.05580355,-0.12712432,-0.10935200,-0.03105438,-0.06668915,-0.05724735,-0.05069252,-0.06245383,-0.03040148
-0.04738563,0.02302098,-0.01625836,-0.04687372,0.04286670,0.01066393,-0.01136273,0.04223198,0.03741599
-0.01979670,-0.01796284,-0.02245425,-0.01627813,-0.02734384,-0.02793992,-0.02373274,-0.02474931,-0.03879265
0.02462908,-0.00177004,-0.06313369,-0.06427263,-0.02605078,-0.03650888,-0.06136462,-0.05455306,-0.03501160
0.00167464,-0.06236540,0.00340727,0.15003869,0.10005694,0.07248123,0.00479152,0.08668981,0.01316785
-0.01373782,-0.00001282,0.04586278,0.02583989,0.00223576,0.01018289,0.05242842,-0.00472093,-0.01157889
0.00054640,0.04625388,0.08909305,0.04374493,0.04918695,0.04415721,0.01921098,0.02131976,0.06959696
-0.04269452,-0.03859883,-0.08763950,-0.04425124,-0.01320023,-0.05859627,-0.05804770,-0.00336474,-0.04051637
0.00653602,-0.00066424,-0.09948618,-0.02084538,0.03727186,0.00249052,0.03655317,-0.00788778,0.02969083
0.01216491,-0.02582886,0.05249697,-0.00258518,-0.00126331,0.02672452,0.01664002,0.04507787,0.02110155
0.00161443,0.00029150,-0.00159580,-0.00239804,-0.00313378,-0.00442901,0.00260475,-0.00793962,0.00011081
-0.02393620,-0.04626412,-0.01020995,-0.01071322,-0.06497821,-0.02827035,-0.00427683,-0.07765254,-0.02312381
0.00029823,0.00297085,0.00281934,-0.00633900,-0.00042673,-0.00743967,-0.00985846,-0.00111101,0.00088313
0.00992906,-0.02520834,0.00624342,0.05486385,0.00036674,-0.00855486,-0.01355129,0.03326342,-0.01215895
0.00045083,0.06163545,0.04247711,0.00254901,0.07426392,0.02608896,-0.03065504,0.03912318,-0.00353518
-0.06739482,-0.00999559,-0.01256961,-0.03419883,-0.03016200,-0.01462177,0.00745208,0.02322947,-0.00652150
0.05504918,0.10730946,-0.00086679,0.03327943,0.06042698,-0.07160263,0.01371185,0.00630675,-0.07428329
-0.02795563,-0.00698319,-0.02182740,-0.04165565,-0.00036275,0.00369270,-0.02454799,0.01933171,0.02096195
-0.04016727,0.03761902,0.05686274,-0.04310157,0.02178985,0.05451400,-0.03398954,-0.00535507,0.04287006
0.00436191,0.02311186,-0.00110634,-0.00899302,-0.01599294,-0.03113083,0.00377803,-0.00139746,0.00227445
0.00936880,0.02513212,0.03501638,-0.01351585,0.00394091,-0.00974996,-0.03803581,-0.02739057,-0.06216664
0.04875197,-0.04265217,-0.05703126,0.02579995,-0.02813292,-0.01909914,0.02715960,0.02418786,-0.00223959
0.02684227,-0.08471303,-0.01099728,0.16076635,-0.05379452,-0.07785214,0.11122636,-0.06146358,-0.07687188
-0.10497705,-0.07237879,0.03895702,0.21767911,-0.01892942,-0.02216955,0.23198618,-0.12310228,0.00556596
-0.03532103,0.00133423,0.00842292,-0.02976991,-0.01751380,-0.00648822,0.00876517,0.01755193,0.01268643
-0.04004592,-0.01633752,-0.04357589,0.00782700,0.03499722,0.01951048,0.02172796,0.06689709,-0.00184451
-0.03490192,0.00765511,0.01497218,0.03362907,0.02509864,-0.00640324,0.03339534,0.00774015,-0.05901502
0.01302394,-0.00243443,-0.01135504,-0.00916669,-0.01191677,-0.04745211,0.00004048,0.02224245,-0.00817403
-0.01875368,0.00752978,0.05550302,-0.04298662,-0.00950774,0.04598255,-0.01364675,-0.00969368,0.01805491
0.02098574,0.00244748,0.02465098,-0.01032322,-0.05891865,0.00837076,0.04875746,0.04316382,0.04120841
0.00673975,-0.00577020,-0.01788820,-0.04133207,0.01869306,0.04591194,-0.04618315,0.01116720,0.00959277
-0.07515489,-0.02321475,0.01287088,0.14314805,-0.05311205,0.01400024,0.03568402,-0.05565339,0.01194664
0.05082821,0.00273886,-0.00478877,-0.02499307,-0.02895005,-0.02572439,-0.06088221,-0.00845886,0.00407931
0.00448123,-0.00012251,-0.00333494,0.00710627,-0.00166749,0.00060604,0.00411335,-0.00113532,0.00458261
0.05409322,-0.04553814,0.00942097,0.02576990,-0.08937943,0.05399998,0.10448778,-0.02220702,0.04306918
0.00577820,0.02980665,-0.01455901,0.12115289,-0.04174104,-0.05348056,-0.00342720,-0.03716713,-0.02755687
0.05474017,-0.06307406,0.04169745,-0.01656090,-0.01051512,0.05432775,-0.11362608,0.07265881,-0.01461800
0.04160278,-0.01143782,0.00335397,0.03164785,-0.00342055,-0.00266740,0.03902667,-0.00665052,0.00070973
-0.01016086,-0.02578922,-0.02248978,-0.01127766,-0.01550143,-0.01476976,-0.00646033,-0.00083926,-0.00295795
0.03082505,-0.01948691,-0.05216876,-0.02609235,-0.01746482,0.03248134,-0.04913342,0.01138122,0.03248269
-0.00456041,-0.07474022,-0.00320195,-0.03222755,0.01247069,-0.00367952,0.05226985,-0.00475880,0.02073940
-0.02121046,-0.01115409,0.01963949,-0.08004611,0.05643800,0.04222503,0.00674080,-0.04061377,0.00602988
-0.00035548,0.03761300,-0.00065988,0.03384894,0.01841174,-0.05907240,0.00834798,-0.00805824,-0.01440335
0.00152543,0.01449717,0.02994134,0.00294043,-0.03782983,-0.00784152,0.00723571,-0.10700824,-0.07533545
-0.00401188,0.01358023,0.04287004,-0.01108237,0.04296724,0.00812255,-0.02433498,0.05597587,0.03464198
-0.05355021,-0.06095698,-0.06587082,-0.05588987,0.02546296,0.01679727,-0.00581307,0.07841706,0.01680225
0.04007753,0.02802155,0.01263499,0.09646698,0.00912542,0.00624402,-0.00461848,-0.03655621,0.00500989
0.01227302,0.02663345,0.04856990,0.01580756,0.02110980,0.03584648,0.00668624,0.01524696,0.00542506
-0.08293904,0.00764968,0.02532951,-0.00134494,0.03324451,-0.02696808,0.10055304,0.07135558,-0.00064517
-0.00206997,-0.02087582,-0.01739280,-0.00788826,-0.00734860,-0.03192243,-0.02171878,-0.03298792,-0.05569883
0.00265343,0.00967412,0.00734338,-0.03544566,0.02725276,0.03047301,-0.04173208,0.01475858,-0.02417094
0.05577209,-0.00073077,0.02217912,-0.00827272,-0.01947878,-0.04844565,-0.01562130,0.01424088,-0.01227707
-0.01277170,-0.04435363,-0.03935216,-0.02789756,0.06951631,0.01829327,0.05810321,0.04882029,0.00206456
0.06570679,-0.00991565,-0.02709605,0.02290871,0.02478692,-0.01852678,-0.00175350,0.01946798,-0.10965645
0.02142445,0.03843889,-0.08592102,-0.10166071,0.22691682,0.00336784,0.06348082,-0.08936782,-0.04252043
-0.03396576,-0.01530979,0.00052891,0.00831616,0.01711739,-0.01288791,-0.03423524,0.03326676,-0.01714473
0.00264144,-0.02668044,0.04023265,-0.00313315,0.00357908,0.04268057,-0.02296216,-0.03372231,-0.00911479
-0.02075218,-0.00393315,-0.01591919,-0.07075669,0.05997466,-0.04673915,-0.02545480,0.03270057,-0.04733124
0.07171794,-0.09860368,0.03712919,0.15238160,-0.07963964,0.01916749,0.04680923,-0.09823237,0.04182646
-0.02529136,0.07267031,0.01238533,-0.02927895,0.05094071,-0.00298737,-0.01264325,0.00833935,-0.00088965
-0.04888336,-0.04363105,0.03060096,0.00921274,-0.06950284,0.00741732,0.05708363,-0.01234900,0.00224888
-0.02458728,0.00458109,0.03039320,0.02138900,0.00681052,0.03836052,0.01363875,-0.06113045,-0.01578968
0.02014374,0.02297320,0.02187037,0.01074472,0.01236633,0.01278407,0.01038407,0.00388993,0.01011809
0.01206399,-0.14230274,0.09236467,0.06302571,-0.13937782,0.11290701,0.08646197,-0.05505362,0.04367578
-0.00131058,0.01584995,0.00536068,0.06228713,0.01630495,-0.01200750,-0.02408406,0.02932719,0.00916785
-0.01335435,-0.13558607,-0.03223206,-0.01305266,-0.05961535,-0.06906163,0.00585431,-0.06763579,-0.06316047
-0.03294419,0.00376328,-0.00691996,0.01205235,0.01498400,0.03226731,-0.00956613,-0.00954857,0.10577273
-0.00643421,-0.00345232,0.01136579,-0.06418037,-0.00570011,0.00063592,-0.03326610,0.02339233,-0.01281489
0.02187183,-0.01458465,0.02418624,0.22363615,-0.18635693,0.05085333,0.02820829,-0.07566197,0.06614082
-0.03380318,-0.01187875,-0.06983438,0.00811287,0.03278724,-0.03682652,-0.01904080,0.03904237,-0.00437452
-0.01830495,-0.05007762,-0.00308946,0.02313228,-0.03199898,0.02751492,0.09413609,0.02812876,0.02072392
-0.00854717,-0.00653240,-0.01605001,-0.03831070,0.00664273,-0.01745800,-0.00820900,0.04836248,0.01079708
-0.00409187,-0.02054248,-0.10019217,0.00061270,0.12812364,-0.07198687,0.02504976,0.03354328,0.07303665
-0.02949476,-0.00126150,0.02962627,0.10733427,-0.05005297,0.05793834,-0.01175246,0.04627307,-0.00790303
0.00487705,0.01181674,-0.00250126,0.00747341,0.01199002,0.01014718,0.00136237,0.01282596,0.01699697
0.01013135,0.01753164,0.02776400,-0.02645667,0.03874909,0.03091802,-0.03582138,-0.04312182,-0.04420951
0.00142078,-0.00368650,-0.00436570,-0.00269567,-0.01414216,0.00283177,0.00418502,0.00317110,0.01615603
-0.02631766,-0.01228695,0.00662546,0.15147974,-0.12346619,0.03618413,0.04380117,-0.14884464,0.01648253
0.04667360,0.02493664,0.01222160,0.00669293,-0.01901865,-0.03445790,-0.00125527,-0.00930780,-0.03482969
-0.03438154,0.05265639,0.02496213,-0.08279081,0.02648702,-0.01168250,-0.01228503,-0.02460856,0.01749827
-0.02341368,-0.02414352,0.00914215,-0.05362663,0.05561052,-0.01943933,-0.01816867,0.00633146,-0.01820911
-0.05749495,-0.09246761,-0.02261458,-0.05167986,0.06110249,-0.06636602,-0.03261478,-0.07806898,-0.03283050
0.02536599,0.04139738,-0.04452018,0.00872358,0.03507132,-0.06150581,0.02079253,0.03937781,-0.06827039
-0.03799151,-0.03316699,-0.04068350,-0.01356474,-0.00837328,-0.00441996,-0.00898647,0.01798742,-0.02636210
0.04432229,-0.02122218,0.00095706,0.02531579,-0.03510358,-0.04642722,-0.02534466,0.00839356,0.00315904
0.10751921,-0.01496197,0.03400003,0.11538101,-0.05581776,0.00943449,0.01038338,-0.08048122,0.02230334
-0.07022462,-0.09392746,-0.02864649,-0.01393953,-0.04371558,-0.02331564,-0.09618441,-0.09768388,-0.05763108
0.52033031,-0.17143656,-0.07993028,0.41543502,-0.16009921,0.00385508,0.02092040,-0.06689680,0.02733395
-0.03749268,-0.02837389,0.00333299,0.01492405,-0.03196475,-0.01392738,-0.02274879,-0.02679002,0.00216169
-0.03901441,-0.03399568,0.00004801,-0.03569027,-0.03191657,-0.01270207,-0.02087291,-0.00241504,-0.02383493
0.03754596,-0.03984518,-0.06418777,0.02086617,-0.06703315,-0.05303107,0.01801763,-0.06997330,-0.05809415
0.06409296,0.03123969,0.01662754,0.03635499,0.01615218,0.02982300,0.01121248,0.00912718,0.01852426
-0.00003145,-0.01184811,-0.00806848,-0.00753509,0.00424549,0.00416824,-0.00855520,0.00827358,0.00544367
-0.01576096,0.11996361,0.06526192,-0.02950063,0.13521513,0.06323962,-0.03033478,0.10325386,0.03966193
-0.00457709,-0.00035381,-0.00913814,-0.02966963,-0.04797121,-0.06352532,-0.02116426,0.01024023,-0.00681419
-0.11281988,0.03504199,-0.04905913,-0.15621305,0.00903718,-0.05359200,-0.12377834,-0.00403658,-0.08303957
-0.05452485,-0.00013861,-0.05421556,-0.01996453,0.00394237,-0.06517230,0.00556654,0.02230009,0.01096638
0.00115451,0.00506584,-0.00559117,0.00002805,-0.00062372,-0.00216327,-0.00097533,0.00213975,0.00911826
-0.13437670,-0.04054441,-0.07486241,-0.12545446,-0.05692403,-0.08905178,-0.07937884,0.00986954,-0.02360958
0.07354595,-0.05229084,-0.05766066,-0.02161504,-0.01336550,-0.02498122,-0.02752481,-0.00853490,-0.02054502
0.00575214,-0.00458626,-0.04574616,-0.02496377,0.07021856,0.01043444,-0.01721667,0.01691685,-0.04100169
0.08410578,0.06088103,-0.05078769,0.40926614,0.21695673,-0.07445223,-0.01131928,-0.05247661,-0.08221228
0.00340905,0.00802582,0.00767275,0.00387598,0.00835587,0.01325777,-0.03644351,-0.02236066,-0.01857816
-0.02382672,0.02047392,0.05339543,-0.03717738,-0.01151344,-0.01611169,-0.01597626,-0.02330241,-0.04882196
0.03001611,0.05781802,0.03024636,0.04528011,0.02534335,0.02307248,0.03793965,0.04181302,0.00718893
-0.06624361,-0.08378237,-0.08842786,0.00252522,-0.01617300,-0.06190905,-0.00642362,0.01837890,-0.00202268
-0.03946097,-0.00310848,-0.00394036,-0.00306956,0.03210878,0.03285519,0.00276008,0.02871059,0.01461542
0.11303020,0.25275689,-0.05637868,0.08551262,0.35059401,0.03619741,-0.04498040,-0.00663903,-0.03406751
-0.02580328,0.01391175,-0.03222201,-0.00778179,-0.00288018,-0.03333142,-0.00942052,-0.01017333,-0.05364103
-0.00148382,0.01175530,0.05189083,-0.03543223,-0.02455682,0.03940097,-0.06047821,-0.03997895,0.01359505
0.01004207,0.02077036,0.03858748,-0.00184478,0.01641462,0.01823537,-0.02020610,-0.01176773,-0.00129534
0.00073049,-0.01788342,-0.02116257,-0.00740497,-0.00161887,-0.00378613,0.00352612,-0.00071731,0.00942919
-0.00778606,-0.03974729,-0.04076678,-0.02512036,-0.01019986,0.01790988,-0.04958264,-0.02351941,-0.01363363
0.00654279,0.01559688,0.00958032,-0.01584339,0.00739818,0.01240789,-0.02207796,0.00666011,0.01131211
-0.03279288,-0.01778262,-0.02187939,-0.04972136,-0.01609657,-0.03519490,-0.00493469,0.01582111,-0.01696713
-0.00489008,0.00418214,-0.01612308,-0.00139819,-0.00926054,0.03821584,0.01476346,-0.02093775,0.00089643
0.01876333,-0.01001477,0.02804743,0.01647220,-0.03743709,0.02114676,0.00789594,-0.05142216,0.01980365
-0.03451901,-0.05827650,-0.03080746,-0.05381655,0.25933641,0.22897321,-0.05362514,0.14707056,0.10247774
0.03216666,0.25351441,0.10544927,-0.04411565,-0.08871185,-0.07052236,-0.01499638,-0.02727615,-0.01130648
-0.05255926,-0.00888681,0.00477985,-0.07526273,-0.03248197,0.00306893,-0.06550555,-0.04216120,-0.00819383
0.01172300,0.02014756,0.02705609,0.00305912,0.01814035,0.04183628,-0.02606976,-0.04496464,-0.01893372
0.05055751,0.11155237,0.03446585,0.05313484,0.09466761,0.03353661,0.04138412,0.08863860,0.05369699
-0.06188636,-0.07649744,-0.07911904,-0.01041458,-0.02520750,-0.02747241,0.03457923,0.02487849,0.00527608
-0.02598806,0.01744904,0.08240120,0.03058523,0.03110780,-0.03407609,-0.01529025,0.01469846,-0.00091606
-0.02180643,-0.00141463,0.00830555,-0.03290980,0.02023730,0.01394516,-0.04391722,0.00409303,-0.04755281
-0.07736634,-0.04192473,-0.01363418,-0.05075398,-0.04586931,0.00363124,-0.05758968,-0.04165450,-0.00728816
0.01202055,0.00965206,0.01317575,0.00061242,0.01305721,0.01796132,0.00324056,0.01397069,0.01164137
-0.01121156,0.02369804,0.00699316,-0.01016608,0.02686018,0.04184504,-0.04015388,-0.01330567,0.01490303
0.01195223,-0.05495585,-0.02798339,-0.00800503,-0.01748615,-0.06252656,-0.04760044,0.15878378,0.02745719
-0.00889672,-0.04724805,-0.05556033,-0.00775355,-0.06180649,-0.03760593,-0.00785875,-0.05706783,-0.03308390
-0.02932590,-0.06994515,-0.07484373,-0.00287044,-0.00965021,-0.06320966,-0.03048376,-0.01076371,-0.07009899
0.01526235,0.06076758,0.03846986,-0.05887507,0.00211106,0.07525128,-0.05446749,-0.03218739,0.01188352
0.05526021,0.02798079,0.04737868,-0.03536025,0.10714041,0.06316426,-0.05971359,0.01067269,-0.05212074
-0.04722079,-0.05243243,0.00555413,-0.01311884,-0.01627125,-0.00854726,-0.00964817,0.01242064,0.00130459
-0.04426821,0.02296117,0.03567478,-0.02099577,0.04143510,-0.04638905,0.00649009,0.02645324,0.00971372
-0.02083239,0.02254855,0.04791449,-0.07086468,-0.02154420,0.00726180,0.00171508,0.03412143,0.01460816
0.03032837,0.06283434,0.00754624,-0.01987978,-0.06148071,-0.01084152,0.01488366,0.02710685,-0.01436481
0.04234028,0.02388421,0.05102863,0.01429109,0.01472980,0.00771415,0.05649018,0.10026656,0.04791126
0.00160153,0.00391827,-0.00121124,-0.00136349,-0.00143695,0.00080104,-0.00088285,0.00383592,-0.00080232
-0.04352873,-0.07235336,-0.05466544,-0.04711850,-0.10361518,-0.06405085,-0.05106004,-0.06708545,-0.08011249
0.00262024,0.00234142,0.00642963,0.00312577,0.00366610,0.01115074,-0.00691696,0.00482713,0.00564843
0.03806862,0.02064245,0.02368484,-0.01800763,0.04488784,0.00234832,-0.04328503,0.01262273,-0.01812248
-0.00212367,0.02193522,0.03581305,-0.01741818,-0.00722066,0.03166781,0.00587389,0.03436300,0.06578390
-0.10362947,-0.11849704,-0.07785182,-0.05699124,-0.05343583,-0.03669881,-0.05717304,0.00265699,-0.01455882
-0.14040215,-0.05628217,-0.07812817,-0.07397068,-0.05494910,-0.02510702,-0.08677362,-0.07114147,-0.01303292
-0.02747686,-0.10391797,0.00445082,0.02877980,-0.05898894,0.05328918,-0.01015667,-0.00205277,0.06548074
-0.03162764,0.00446586,0.05294767,-0.03641832,0.00226512,0.05288863,-0.02095909,-0.00169771,0.04299377
0.03075070,0.03881165,-0.01842327,0.00133911,-0.01983750,-0.02759259,-0.01230017,0.01220250,0.01455495
-0.00037251,-0.01103672,-0.00446433,0.00647098,-0.00295408,-0.00995017,0.01381643,-0.01048714,-0.01707967
-0.03138915,-0.04741613,0.00390135,-0.04876144,-0.00836152,0.01611237,-0.01519766,0.03110794,0.01094386
-0.01384024,-0.01720526,-0.02146579,0.02701132,-0.02065202,-0.03049706,0.06880260,0.02333437,-0.00498024
-0.10121050,-0.04894962,0.02613469,-0.04842471,0.02796872,0.08425598,0.03727040,0.01049686,0.03999823
-0.05234909,-0.03474984,-0.00548306,-0.01464076,0.00488687,0.00315610,0.01959433,0.00407744,-0.02802987
-0.03482132,0.02697826,-0.04781134,-0.02052438,0.03628594,-0.05436290,-0.00794834,0.05380305,-0.06929819
-0.03195720,-0.05357379,-0.02113624,-0.00168300,-0.01111469,0.00471225,0.01948903,0.01314023,0.02578152
0.02379967,0.00331939,0.01554458,-0.00778918,-0.02073226,-0.02246591,-0.01163175,-0.02334385,-0.01576331
0.00074051,-0.00602884,-0.01727054,-0.01999638,-0.01191146,0.01404139,-0.03799544,0.00119746,0.02247795
-0.08865710,-0.05155000,-0.03663067,0.01606893,0.04548312,0.03531712,0.03222707,0.00661422,-0.03669235
0.02962317,-0.00688249,0.02894736,0.05646594,0.01597013,0.02701561,0.05465771,0.01716765,0.01753992
-0.05204735,0.03273453,0.08527931,-0.02459372,0.02099656,0.07661508,-0.04510328,0.00869994,0.04671685
0.12522930,0.02770563,-0.03350848,0.01529548,-0.03468610,-0.04231971,0.03203892,-0.04226511,-0.05352346
-0.00703392,0.00147958,0.00501094,-0.00173731,0.00109641,0.00282898,0.00171082,-0.00071172,0.00237904
0.05601189,0.00352255,0.02974847,0.01401111,-0.04263241,0.02105010,0.02654217,0.00351386,0.06445882
-0.10080816,-0.10850631,-0.12037655,-0.01655696,-0.04865859,-0.04830278,0.00004738,-0.06109877,-0.07562712
0.02876737,-0.03131004,-0.00603016,0.03677541,0.02137267,-0.03243380,0.04962217,0.05779119,-0.01939590
-0.01574830,-0.00089660,0.00403327,-0.00141699,-0.00816225,-0.00641315,-0.03411858,-0.03581809,-0.03666387
-0.00363126,-0.00820884,-0.00586984,0.00801324,0.00556404,-0.00417311,0.00192044,-0.00594218,-0.01430745
-0.01066401,-0.00515029,0.00279353,0.00661796,-0.00202245,0.00719576,-0.03619866,-0.03614287,-0.01951586
0.04916875,0.06287696,0.01583862,0.02433035,0.06452054,0.01011685,-0.00188612,0.01017858,-0.02261996
0.02867552,-0.01192665,-0.03528480,-0.02497402,-0.00283736,0.01629257,0.00755136,-0.03262701,-0.03117158
-0.02675438,0.00774225,0.02072306,0.00184004,0.02786726,0.00493551,-0.01395861,0.01727560,0.03006396
0.01247077,0.03717500,-0.00469396,0.05622148,0.05482960,-0.02682958,0.02466169,0.00278357,-0.03575740
0.01894607,0.02487116,0.00201877,0.02075221,0.02533791,-0.00320840,0.01704935,0.03812182,0.00534639
0.06819833,-0.06080420,-0.06646306,0.08554937,0.02212415,0.02583073,0.06213989,0.03443293,0.08582389
0.00375693,-0.01378197,-0.02363424,0.02499657,0.01850067,0.00248273,0.00136837,-0.02672638,-0.05164888
0.00391458,-0.00167627,-0.00435853,-0.01221429,-0.00339079,0.01489736,-0.00883852,0.00307002,-0.00133261
-0.03833050,0.04431221,0.07633406,-0.04171273,0.01007864,0.05335560,-0.08860307,-0.01666684,0.05982335
0.03364481,0.02485039,0.01485127,0.02401910,0.00314686,0.00274031,0.00595721,-0.00971993,-0.00441388
0.01320705,-0.00946508,-0.05987743,-0.01133455,-0.03302151,-0.08573812,-0.01857716,-0.02365480,-0.06503995
-0.01913395,-0.01512267,-0.04097976,-0.00784720,0.03890112,0.01509769,0.01317712,0.04214903,-0.01098479
-0.02624857,-0.00008727,0.02157839,-0.05614680,0.03747351,0.02073709,0.01198775,0.07671237,0.04694576
-0.02903739,-0.05311236,-0.02766553,0.00887729,0.02131763,-0.03451026,0.01662912,0.04100170,-0.03867573
0.09240648,0.06179652,-0.02643837,0.02092483,0.00757412,-0.03884113,0.04294477,0.00194677,0.04122437
0.02203907,0.05760594,0.05707097,-0.00327524,0.03000903,-0.00483132,-0.02143465,-0.00567140,0.00433858
0.03577878,0.00759715,-0.00657779,0.02918687,0.03320127,0.00545106,-0.02384799,-0.01039492,-0.02194697
-0.00855000,0.02199361,0.02014355,-0.04035229,0.01512444,-0.01840849,-0.00998955,-0.00836850,-0.03266653
-0.03110736,-0.01309501,0.07145208,-0.03003394,-0.01355484,0.07063151,-0.03808598,-0.07908734,0.00037078
0.06372174,0.01313250,0.02066597,0.04430671,0.01109996,0.01996544,0.02502162,-0.00253256,0.01693348
-0.02799506,-0.03177153,-0.04188052,-0.01826141,-0.03711291,-0.03153592,0.02503295,-0.00182491,-0.02337947
0.01028950,0.02098969,0.04857935,-0.01491514,0.04309060,0.05604215,-0.04704032,0.00060022,0.01588718
0.01479437,0.00867742,0.00512698,-0.00429681,0.00655199,0.01750043,0.00827298,0.00614354,0.01243864
0.00712569,-0.03310084,0.02899262,0.01336590,-0.05473194,-0.00227993,0.02277189,-0.04462767,0.02184264
-0.08391774,-0.11515094,-0.06703407,-0.02591560,-0.07678462,-0.05263202,0.03763758,0.00971258,-0.01171089
-0.02542085,0.01306395,0.00838411,-0.02593464,0.04625859,0.00947977,-0.01012298,0.02720673,-0.00305710
-0.00601611,-0.00880491,0.01201994,0.00936724,0.02717907,0.02365269,-0.00156584,-0.00936080,-0.01395777
0.11496718,0.01246104,-0.01823546,0.05481820,0.00432952,0.02303649,0.00891696,-0.01646118,0.01581127
0.04012594,-0.03760130,0.00916265,0.09089382,0.02521911,0.06619725,-0.02178010,-0.01700637,0.03840043
-0.02918759,-0.02580128,-0.01420249,-0.05684715,-0.03645280,-0.00665804,-0.08813863,-0.06032915,-0.04209055
-0.05717843,0.01236241,0.06008845,-0.03160330,0.02473371,0.03758917,-0.05449398,-0.01679100,-0.01044379
0.03451940,0.00431897,-0.03068778,0.00495299,-0.00107159,-0.03395017,0.00832476,0.05218026,0.04453452
0.00394008,-0.09706911,-0.12823814,0.04311254,-0.00770470,-0.00244607,0.10563353,0.02562117,0.07884008
-0.03623863,-0.06300067,0.02123256,-0.00358586,-0.03870516,-0.01605611,-0.04323867,-0.02455762,-0.00895160
0.00488053,0.00208863,0.00443037,0.00326690,0.00622420,0.00143482,-0.00059929,-0.00160407,0.00264473
-0.00922427,-0.02399975,-0.03246409,0.00385196,0.01375855,0.00930471,0.01401339,0.01633257,0.02769347
0.00186428,-0.00310451,0.00358059,0.00639706,0.01034907,0.00368650,0.00227518,0.00424551,0.00273138
0.00972870,0.05858267,0.01156027,0.05210425,0.04970882,0.01045992,-0.00391892,-0.00938239,0.01440546
-0.03932090,-0.00907982,-0.01188231,-0.01222378,0.01655043,0.00094381,-0.03939099,0.00348972,-0.01145513
0.01809393,-0.03789189,-0.04737573,-0.02714944,-0.06865785,-0.06934125,0.02212881,0.01110158,0.01877362
-0.03837339,0.03049081,0.00078449,-0.03615960,0.01839058,-0.01254457,-0.03779721,0.00202708,-0.01961877
-0.00783391,0.01446720,0.04751169,-0.00331009,0.04323996,0.03194051,-0.01959746,-0.00219755,-0.00452385
-0.01506105,-0.00641370,-0.01760937,-0.02022068,-0.01789938,-0.01310657,-0.00851981,-0.01147764,0.00071371
-0.03797499,-0.00408802,-0.01327987,-0.03595930,0.00032664,-0.00590764,-0.04895566,-0.02042702,0.00354358
-0.00112653,0.01319440,-0.01597343,0.00464603,-0.01393505,-0.04553408,-0.01117435,0.00060233,-0.02683296
-0.00714438,-0.02788851,-0.01934851,-0.00343201,-0.03873841,-0.01425231,0.00927022,-0.04721060,-0.02332908
-0.04349563,-0.04561722,-0.04289246,0.00312508,0.01474410,-0.00127334,-0.05920947,0.00051106,0.01576817
0.04671557,0.05946131,0.06610225,-0.06158954,-0.04428786,-0.03687347,-0.08968626,-0.04306883,0.00378169
-0.02695292,0.01636106,-0.01999069,-0.00947561,0.02915654,-0.03158516,0.02249062,0.06141776,0.03776260
0.02313139,0.03820919,-0.08855860,0.02616000,0.03628848,-0.08044506,0.04949366,0.04063538,-0.03820967
0.02355394,-0.00051377,-0.01354495,0.00620533,0.00308346,-0.01873764,-0.00121195,-0.01621976,-0.01278738
0.00875612,-0.01711755,-0.03484108,0.02447707,0.03135887,-0.01743600,0.00269071,0.02742364,0.01164202
0.04590354,0.06128533,0.01583291,-0.03207221,-0.00846939,-0.00823613,-0.02993246,-0.03514336,-0.03800153
-0.06281092,-0.05581345,-0.03529986,-0.06421613,-0.04527920,-0.01620826,-0.07838226,-0.01975502,0.01312109
-0.03079326,-0.03756341,-0.03530374,0.01977514,-0.00117140,-0.02634401,0.01719145,-0.00396138,-0.03880543
-0.05620113,-0.03708494,0.01893348,-0.04386096,-0.05285506,0.04444704,-0.03713080,-0.02814855,0.01735325
0.02532644,-0.00721134,0.00055496,0.00733729,-0.00984605,-0.00227647,-0.01059619,-0.00438329,0.00932346
-0.00208125,0.00072993,-0.00131228,0.00701183,0.00516155,0.00566549,-0.00477828,0.00004887,0.00183166
0.06648076,0.00343317,-0.03804839,0.02049849,-0.00892457,-0.01413164,0.01072517,0.01047369,-0.01419286
0.00262092,-0.00111374,-0.02315605,-0.04612029,-0.03448330,-0.03095814,-0.06914558,-0.02589670,-0.03323249
-0.02154571,-0.02303725,-0.03204460,-0.01230353,0.02953214,0.01326938,-0.01746142,0.02843378,-0.04399162
-0.01482294,0.00157958,0.02315115,0.06765946,0.07926631,0.05655028,-0.03770597,-0.02964686,-0.00721542
-0.00386391,-0.01908931,-0.00712427,-0.00306550,-0.00265481,-0.00210334,0.00862594,0.00946806,0.00953683
-0.02456622,-0.01298265,0.00116644,0.03650689,0.06108605,0.06580808,-0.03114064,-0.02178284,-0.02278319
-0.02353074,0.02288637,0.01916403,0.03439235,0.08306316,0.07973824,-0.02925422,0.00413127,0.02507668
0.03723661,0.01642500,0.01930773,0.04519356,0.06990868,0.04681370,-0.02341179,-0.03042616,-0.00239648
0.03860525,0.02407417,0.01335755,0.01369553,-0.00638445,-0.00731285,-0.02526555,-0.03118157,-0.03712611
-0.00998781,0.01098698,-0.01253899,0.01903755,0.09492730,0.07073432,-0.02844104,0.01800756,0.01336105
0.01428084,-0.00583416,-0.01929328,0.00891905,0.02668954,0.02145877,0.00588707,0.01185058,-0.00423745
0.01500779,0.02691507,0.11315148,0.04154572,0.01751052,0.09096530,-0.04409456,-0.09813724,-0.02899483
-0.02646616,-0.04749691,-0.04558898,0.01825322,-0.03431977,-0.03060563,-0.03928850,-0.05061449,-0.03803745
0.06631559,0.04619232,0.03544384,-0.00134085,-0.01071247,-0.01773344,-0.00055522,0.00078109,-0.00401927
0.02278772,-0.03094128,0.00268033,0.02110687,-0.04876813,-0.00466435,0.00241527,0.00258371,0.07451611
-0.00435600,0.01935026,-0.01053682,0.00626816,0.01836748,0.00770386,0.00559916,0.01746141,0.00515347
-0.00115624,0.02018942,-0.07379880,0.07507026,0.09265066,0.01123134,0.00939552,-0.00005947,-0.07711955
0.10839378,0.08159868,-0.02040600,-0.01266640,0.02253398,-0.08443724,0.03779799,0.07850256,0.00881600
-0.01875501,0.03226865,0.04944239,-0.01091666,0.05112521,0.01772656,-0.04291201,-0.01654712,-0.01646473
-0.00259955,-0.00547102,0.00045902,-0.01950688,0.05552656,0.06426951,-0.04827203,-0.03325044,-0.02246589
-0.07958710,-0.01258885,-0.02146613,-0.06636959,0.05638054,0.03846018,-0.13158751,-0.10155881,-0.08122077
-0.06330252,-0.03344889,-0.01653805,-0.03066140,-0.01920456,-0.00318455,-0.03988736,0.00879207,0.04011513
-0.03246129,0.01085010,0.08597046,-0.00333106,0.00052152,0.06716011,-0.01488091,-0.04609965,0.00893581
0.00271019,-0.02885039,0.00160723,-0.02345711,-0.00098949,0.00814286,0.00821592,0.01421189,0.02689867
-0.03911169,0.00623968,0.05819025,-0.05271180,-0.01524224,0.01431766,-0.02635322,0.01629122,0.02662276
-0.03850349,-0.02634053,-0.01525148,-0.01668558,-0.03657427,-0.04618223,-0.02192506,-0.02903016,-0.03239904
0.03173921,-0.00897670,-0.03503036,-0.02109223,-0.01921951,-0.03451571,-0.03320008,-0.01899429,-0.02860472
-0.04054284,-0.01800181,0.07122792,-0.07810682,-0.05993070,0.01596109,-0.03107179,-0.03025304,-0.00506104
0.01602867,0.01319092,0.00718093,-0.00107561,0.00293916,-0.00211213,-0.01111291,0.00098654,-0.00011449
0.04530524,-0.01880963,-0.01614772,-0.04551063,-0.07121381,-0.04879507,0.04645298,0.00591957,-0.01663225
-0.03355369,-0.00146619,-0.02108400,-0.03505309,-0.02350739,-0.04169150,-0.03589843,0.00748227,0.02645794
0.01167467,0.01865475,-0.00755614,-0.00324665,0.00121818,-0.01317037,-0.01496278,-0.02148884,-0.01144453
0.02793469,0.03230498,0.02224107,0.03856118,0.02893464,0.00450786,0.00585503,-0.01434720,-0.00965059
-0.01657810,-0.02860931,0.01362893,0.01888045,-0.01702628,0.00635586,-0.00267044,0.00472637,0.05302287
-0.00615312,0.21723963,0.25505793,-0.04800283,-0.02286601,0.07167760,-0.04973330,-0.00592066,-0.01304010
-0.02389642,-0.03492159,0.00229043,-0.02265273,-0.01752623,0.02336947,-0.05549140,-0.04168592,0.00861742
0.02130027,0.01917273,0.04829857,0.02695218,0.01582250,0.00987799,-0.02727637,-0.03235260,0.00933362
-0.01059604,0.01742897,-0.00644127,0.02503242,0.01196640,-0.01847626,0.00505613,-0.00481651,0.00076499
0.05490866,0.02547548,-0.05514777,0.01541775,-0.01099268,-0.01829210,0.01394343,-0.05498140,-0.02579311
0.00970736,0.04145122,0.05438361,-0.01004622,-0.04248046,-0.03964755,-0.02602375,0.03029129,0.00653485
-0.00287835,-0.00060084,-0.00380684,-0.00254323,0.00464711,-0.00705208,-0.00385156,-0.00485992,-0.00867618
-0.02143365,0.01194401,0.01883829,-0.06292043,-0.02449344,-0.03354073,-0.00621105,0.00542483,0.01395197
0.00613016,0.00950838,0.00500552,0.00046682,0.00696722,0.01191837,0.00535833,-0.00318554,0.00061134
0.00372235,0.05630575,0.01517521,0.00369618,-0.01893581,0.02691261,-0.00935901,0.00545490,-0.01716932
-0.02008758,0.01316251,0.02574208,0.02170571,0.01135893,0.04457602,-0.00564248,-0.01873315,-0.03342898
-0.00629400,0.07065438,0.06771482,-0.08408277,-0.01552751,0.01685457,-0.08392246,-0.07092791,-0.01304300
-0.02498563,0.03021299,0.01541528,0.01851356,0.06954093,0.03453355,-0.00650580,0.02039126,0.01441247
0.03268392,0.02246799,0.06333800,-0.01120971,-0.01170840,0.01651844,0.01556418,-0.00267351,0.05451215
0.02556321,0.01716583,0.02599143,0.01034052,-0.00654990,-0.00109232,0.02409453,0.00276195,-0.00343977
0.04870300,0.04921773,0.04545766,-0.00970763,-0.01629023,-0.01483059,-0.02832608,-0.03156954,-0.02269265
-0.02387306,-0.00641179,-0.01164669,-0.00137780,-0.00418735,-0.01122138,0.01429929,0.00197207,-0.00207301
0.01763562,0.03506784,0.03168998,-0.03262486,-0.01518437,-0.00516328,-0.01241842,0.03047980,0.01637291
-0.01653555,0.00047425,-0.01015515,0.02453969,-0.03009171,-0.01510064,0.07913676,0.00061316,-0.05684073
-0.15011027,0.03414843,0.03494657,-0.16589145,0.00631052,0.03388812,-0.05441565,-0.00243619,-0.03016073
-0.03397599,0.00503413,0.02745445,-0.04157086,-0.00148566,-0.03436292,0.00375030,0.00722454,0.03582159
-0.03531154,-0.05759777,-0.10299375,-0.03755333,-0.03845917,-0.06323553,-0.06365448,-0.06096605,-0.09137969
0.00697408,-0.00291540,-0.01514754,-0.01621789,-0.02160679,-0.05478273,-0.00183420,-0.04405764,-0.07287805
0.00549054,0.01556255,0.02650023,0.00389955,0.03048512,0.02306434,0.01256546,0.02043115,-0.00561883
-0.01867581,0.00041447,0.00154816,-0.02732895,-0.02068728,0.01450761,0.00040209,0.00725841,0.01635829
-0.01675713,-0.01876362,-0.03066232,-0.02104187,-0.02605128,-0.04957155,-0.04362245,-0.02142361,0.00267885
0.00827849,-0.01059125,0.01202102,0.06643832,0.02110588,0.00218495,0.02495761,0.01127881,-0.01265430
-0.06168024,0.03227495,0.08755701,-0.06909621,-0.02039602,0.10874509,-0.05676283,-0.02854965,0.04349323
-0.00848350,0.02392832,0.09936641,-0.00647979,-0.00409652,0.07050549,-0.03723359,-0.05626253,0.01874414
0.00333391,-0.00133324,0.00479751,0.00253407,-0.00395029,0.00153562,-0.00364661,-0.00470859,-0.00349629
-0.01490261,-0.04139869,-0.09932163,0.02977120,0.01423427,-0.00718871,-0.06677821,-0.02495890,-0.01770154
-0.05635107,-0.05932556,-0.01555310,-0.05509692,-0.03247397,0.01996580,-0.05361755,0.01813990,0.01997698
0.02438625,-0.00166290,0.02861310,-0.00330087,0.04162256,-0.04999116,0.02732653,0.06328078,-0.10476805
-0.06041990,0.02380559,0.14784551,-0.08760075,-0.03230454,0.09348015,-0.06644493,-0.04769679,0.02834533
0.00567025,0.02812452,0.05633061,-0.01910408,0.00184284,0.03900517,-0.01869655,0.00244045,0.03991316
-0.00547696,-0.00943497,-0.02633506,0.06219980,0.02164082,-0.00445193,0.05637327,0.05795349,0.02399286
-0.01998193,0.02773411,-0.00597923,0.03940862,0.06025836,0.01190800,0.00986221,-0.00725745,-0.01675870
0.06627720,0.03917551,-0.04685761,0.04562669,0.02822069,-0.04589482,-0.00185744,0.00170594,0.01710251
-0.01604085,0.00839776,0.00721057,0.00882258,0.00463618,0.00733924,0.05118101,0.04708588,0.04078519
-0.03294884,0.01662780,0.04506123,-0.02261950,0.01096240,-0.00511512,0.04060109,0.01554574,-0.00676546
-0.04739247,-0.01815726,0.03867732,0.04549152,0.03152899,0.05590258,0.00955884,-0.01557665,0.00376685
0.01077156,0.02257063,0.09546351,-0.02332320,-0.01041939,0.01696222,0.03423074,0.01406446,0.01566126
0.02473573,0.02904462,0.07297543,-0.01400598,-0.00427764,0.03845139,-0.01499349,0.03245599,0.07476440
0.03694637,0.02154458,0.01046108,0.03485591,0.02381576,0.01143617,-0.00264921,0.00012581,0.01464507
-0.07957920,0.01455151,-0.04839888,-0.06135350,0.05287072,0.00229358,-0.04298202,0.01180848,-0.04574278
0.01202672,-0.01129603,0.01411550,0.01824323,-0.01775384,-0.00091580,0.00212216,-0.01989015,-0.00500159
0.02424301,0.03602400,0.02575024,-0.01078485,0.03128551,0.03132797,-0.00630646,0.01609141,-0.00167234
-0.03971998,0.02814539,0.01775239,0.00610841,0.08328415,0.05016774,0.01220342,0.06811975,0.08115806
-0.00638517,0.02363884,-0.02977743,0.01423931,0.04254227,-0.02818223,0.03007165,-0.02030876,-0.00916569
0.00458256,-0.03355940,0.02618391,0.00861261,-0.02270314,-0.08918614,0.08691875,0.01940541,-0.07642001
-0.03692205,0.03500145,0.01470798,0.04578202,0.04763805,0.01225187,-0.01081946,-0.02853881,0.07413062
0.00925669,0.01024183,0.03688008,-0.00473438,-0.01179400,0.01172286,0.00508681,-0.00270471,0.01909499
-0.03335088,-0.03242407,0.05276478,0.02922572,0.02875549,0.04758876,0.02074699,0.01302099,0.01681294
-0.01570821,-0.04619679,-0.04803035,-0.04586713,0.00650773,-0.03129471,-0.02547919,0.01143883,0.00417404
0.08024658,0.00529222,-0.05987357,0.07073994,-0.00037418,-0.06099794,0.03729610,-0.03402596,-0.06727336
0.04606284,0.00755057,-0.03380935,0.00202541,0.02610199,0.01209593,-0.01633153,0.00899283,0.02094759
0.05881680,0.02282998,0.06913890,-0.02610627,0.01219204,0.08861520,-0.04212862,-0.00490126,0.03547219
-0.11303283,0.05673904,0.13023630,-0.10302180,-0.00117121,0.05810757,-0.00690925,0.04050680,0.04636484
0.00881333,-0.00437329,-0.02015023,0.02054914,0.01732335,0.00794896,-0.00214908,-0.00457267,0.00163116
-0.01248749,-0.13458303,0.05064378,-0.03267881,-0.14584060,0.09405002,-0.09526613,-0.12416347,0.08109622
0.02438268,-0.02947379,0.08306411,0.01014029,-0.03710076,0.01768965,0.01447887,-0.01615358,-0.00193333
-0.00831207,-0.01331945,-0.05095590,-0.01797914,0.00492304,-0.07270549,-0.00306424,-0.00921419,-0.04401478
-0.01881428,0.00482479,-0.01957214,0.01451550,0.00883506,-0.03874111,0.00114783,-0.01964949,-0.04953918
0.03408986,0.01301325,0.01093449,0.03141816,-0.01460340,0.00840588,0.04724136,0.02194893,0.03658331
0.05577402,-0.07860918,0.03737856,0.05068355,-0.09341045,0.11857517,0.04334961,-0.03509049,0.04351347
0.05315144,0.04134129,0.00155619,-0.02639760,-0.01037144,-0.01875323,-0.05579600,-0.01436784,0.00808913
0.01140509,0.02229575,-0.05597380,0.00389410,0.03258793,-0.03890042,-0.00564376,0.01340848,-0.01411324
-0.05318568,0.01406026,0.04057334,-0.09475322,-0.01746972,-0.01701056,-0.04400840,0.02286231,-0.00789546
-0.05711285,-0.05879549,-0.06315687,0.01816209,-0.00732096,0.02530097,0.00332775,-0.03797369,0.07555586
-0.00523024,-0.04827480,0.01573589,-0.01202144,0.01570744,0.04967414,-0.01803474,0.08243006,-0.00767636
-0.00377250,-0.00096320,-0.00040818,-0.00526864,-0.00296318,-0.00668010,-0.00539721,-0.00980596,-0.00179300
0.00701015,-0.06695878,-0.00476318,0.03986375,0.01742357,0.01376929,0.00168090,-0.03312428,-0.04358378
0.00793855,0.00320648,0.00710923,0.01907937,0.00741452,0.00927590,0.01108054,0.01110027,0.00589212
0.05044881,-0.02570081,-0.03983808,0.07396247,-0.04370014,0.04460447,0.05546780,-0.02103985,-0.00250167
-0.02968438,-0.02933604,-0.03096031,0.00221604,0.00919901,0.00504199,-0.02166478,0.02170957,-0.00596783
-0.03725668,-0.00483838,-0.06460995,0.00500571,-0.01653673,0.02085714,0.03728335,-0.02446826,0.04323453
-0.07617570,0.03195556,-0.00287821,-0.07849161,0.03089916,-0.00376144,-0.05447674,0.00217110,0.00765414
-0.01591067,-0.01209566,-0.02238560,-0.01472263,-0.01254369,-0.00014149,-0.01468131,-0.06603184,0.00198919
-0.00544956,-0.01188154,-0.00414096,0.00944501,-0.00690330,-0.00570960,-0.00841341,-0.00824964,0.01247845
-0.07442808,-0.06488260,-0.08460571,-0.05496654,-0.06056900,-0.07904153,-0.03219442,-0.01131152,-0.02903721
-0.02447455,0.03390624,0.10323562,-0.05536173,-0.00417710,0.06830308,-0.03094442,0.00706196,0.07313081
-0.02782411,0.00633726,0.00585207,-0.03544332,0.00832446,0.03639234,-0.04691467,-0.00092080,-0.00369616
-0.03328444,-0.05295930,-0.03509204,0.01535666,0.04835090,0.05706013,0.00008463,0.08654896,0.12839121
0.08028104,-0.03346987,-0.04655393,0.08296037,0.01858591,0.03740194,0.05152973,-0.02963405,-0.00383221
0.00202034,0.01744932,-0.01179955,-0.02363959,-0.03978380,-0.05369636,0.04550040,0.00416263,-0.01289727
0.01038689,-0.03012624,-0.02968308,0.00926373,-0.00700419,-0.02795809,0.01958748,-0.02209437,-0.09773237
-0.01435800,-0.01264463,-0.04623700,0.00488065,0.01884586,-0.00638826,-0.00172290,0.03776863,0.01414585
-0.00392101,0.02373917,-0.00515280,0.00579922,0.03587949,0.01295235,0.02246598,0.03123231,0.00057532
-0.03417407,-0.03333724,-0.00422391,0.00176048,-0.01151226,-0.00542399,-0.03549889,-0.03428772,-0.04134767
-0.06671868,-0.01848619,0.03059345,-0.03463633,0.05303567,0.08522488,-0.09190055,-0.00559518,0.01485617
0.02096714,0.00416609,-0.03436136,0.01152869,-0.03218718,-0.02467332,-0.06831861,-0.05652757,-0.02830040
-0.01662974,0.05113526,-0.03425199,-0.05220575,0.03924194,-0.04649568,-0.05442152,-0.00396371,-0.07343397
-0.00840024,-0.00490534,-0.02090369,0.01953085,0.00931368,0.00524666,-0.02486713,-0.00431451,-0.01594527
0.00324601,-0.00034858,0.00063437,0.00231322,-0.00551085,0.00289435,-0.00048910,-0.00226638,-0.00403479
-0.01473246,0.01651958,-0.05469031,-0.00569400,0.02372823,-0.03430086,-0.01219489,0.02024977,-0.03690744
-0.05064464,-0.00396326,0.00230067,-0.03324975,0.02098924,0.03284492,-0.02982665,-0.00647521,0.04466704
0.00016344,0.01596455,-0.02624959,0.09545866,0.01119225,0.02439441,0.07501998,-0.00245360,0.04696739
0.09306302,0.02750922,-0.05269624,0.07353985,-0.00500272,-0.07398809,0.00629259,-0.02026141,-0.04371413
-0.01632155,-0.01187376,-0.00882803,-0.00893195,-0.00170166,0.00370113,-0.02246978,-0.01423596,-0.01801126
0.00127277,0.01425033,-0.01289554,0.01993591,-0.02565381,-0.07373673,0.02073238,0.00509473,-0.01241625
0.00577764,-0.02163817,-0.04914172,-0.00241614,-0.01855239,-0.01692075,-0.01247585,0.00998275,0.02296105
0.01245669,0.01594769,0.03469983,-0.03203471,-0.03072052,0.00698443,-0.02134009,0.00923995,-0.01182703
-0.03593674,-0.01960273,-0.00367145,-0.01434671,0.00839157,0.04530141,-0.03817027,-0.00250178,0.00399326
0.05020308,-0.01105107,-0.01259390,-0.00594494,-0.05003194,-0.07319990,-0.01370118,-0.03478336,-0.07468600
0.00414246,0.01745435,0.02313127,0.00965828,0.02207685,0.05077948,-0.00343301,0.03204259,0.06379747
0.08688373,0.00490949,0.01061417,0.04179697,-0.02136451,-0.00707628,-0.00044303,-0.05249183,-0.02441311
-0.01579029,0.00338640,0.00102741,-0.04041234,0.00269437,0.00086457,-0.02271309,0.00897779,0.03261707
-0.00920716,-0.02106864,-0.01417999,0.01178832,0.01181159,0.02009552,0.00289428,-0.00229074,-0.00414816
0.02999723,0.00640045,0.00473461,-0.02838518,-0.04027266,-0.00929974,-0.04528183,-0.03162617,-0.01950438
0.00592721,-0.00563211,-0.01226081,0.03368806,-0.00088601,-0.00936450,0.04017845,0.00080509,-0.00189350
-0.04649252,-0.02688838,-0.03790328,-0.05504275,-0.04347401,-0.04095663,-0.09799497,-0.06747250,-0.04829034
0.04752165,-0.02230761,0.00488889,-0.00252613,0.01630070,0.06580935,-0.01481250,-0.01507723,-0.03043419
0.03069749,0.02115214,-0.02166396,0.00990149,-0.00184502,0.02217091,-0.03765050,-0.04004374,-0.05751659
0.04932319,0.02016114,-0.00093255,0.04193596,0.01405316,0.01727444,-0.03725516,-0.03862962,-0.03613095
0.09826628,0.02864797,0.01622733,-0.00593086,-0.00383159,0.06638902,-0.07152160,-0.05214569,-0.04808240
0.04742902,0.00500501,-0.03478903,-0.00480010,-0.01467446,-0.05587641,-0.05957984,-0.08034814,-0.08213427
0.02459263,0.00383377,-0.00179544,0.08020720,0.07832704,0.01505276,0.04153612,0.02920350,-0.03317145
-0.02099626,-0.00225246,-0.03745802,0.01211539,0.02042381,0.04344788,-0.03803227,0.01356054,-0.01685372
0.00407514,0.02262365,-0.05926088,0.01111926,0.06830446,-0.01497204,0.01320366,0.05804767,-0.01834212
0.04009251,-0.02482431,-0.02343688,0.00142810,-0.04070686,-0.04025272,-0.02339681,-0.04900421,-0.04186889
0.04627561,0.03463683,0.00319191,0.06974842,0.03379652,0.01655371,0.02647425,-0.03774400,-0.03030267
-0.00563501,-0.02143205,-0.01445786,-0.04095192,-0.00637279,0.01123443,-0.05141399,-0.02128422,-0.01526473
0.00280370,0.00080315,0.01091037,0.01110664,0.00986007,0.02444734,0.00642839,-0.00080962,0.00334060
0.03993810,0.06314592,0.02445187,0.03017696,0.02904307,0.00735137,0.00139185,-0.00444918,0.02628774
0.01206199,0.04211517,0.04789650,0.00332123,-0.00214519,-0.00042745,0.02881019,-0.01709956,0.03256634
-0.01638651,0.02302644,-0.02300707,-0.00712680,0.00877397,-0.00978015,-0.00061906,0.00899511,-0.00934827
0.04943972,-0.00138936,-0.00426664,-0.02128711,-0.04949661,-0.04064550,-0.08386080,-0.05147273,-0.02786385
-0.05337819,-0.04729285,0.02757766,-0.05062361,-0.04044921,0.01888420,-0.12713085,-0.11614606,-0.05497429
-0.08570340,-0.01496060,0.04429509,0.01530941,0.10500287,-0.01069752,-0.00997212,0.01891153,0.00437334
0.03201827,0.03353015,0.04687476,0.05720592,-0.03071187,-0.07903389,0.05196297,-0.06998173,-0.06586966
0.07905618,0.02830056,-0.02295439,0.01804115,0.04941640,0.04153307,-0.07001320,-0.02280803,-0.01397393
-0.03460170,0.00789865,-0.01974786,0.00082183,0.02412770,0.00209885,-0.08128411,-0.02166702,-0.01830517
0.00498778,-0.03970103,0.08638776,0.00746108,-0.03220077,0.06412635,0.05159247,-0.01428612,-0.07043133
-0.00685059,0.03609525,0.03866144,0.00671653,0.00034371,-0.01406205,0.03476962,0.02918291,0.07236145
-0.00506748,0.00110146,-0.00044985,0.00288733,-0.00098503,0.00768198,0.00330963,-0.00152388,0.00422838
0.00315282,-0.03381685,-0.05240783,0.05035290,-0.00185157,0.00425121,-0.00799325,-0.08061431,-0.11613245
0.00911855,0.00793090,-0.00113965,0.01193216,0.01786154,0.00453634,0.00442636,0.00897126,0.00014095
-0.02640269,0.01893150,-0.03453688,0.02877997,0.10823573,-0.00879343,-0.03513493,0.03026386,-0.00737411
0.04096186,0.03788377,0.07878785,0.07446694,0.06906362,0.04725937,0.03968726,0.04090673,-0.02055082
0.07623127,0.01717168,0.01673622,0.01889261,-0.00528640,0.00291314,-0.01107297,-0.00625057,-0.00129791
0.18693455,0.00136408,0.01761533,0.10471002,-0.07017811,-0.04362075,0.07934040,-0.05054012,-0.03205915
0.01374621,-0.02130581,-0.00776975,0.00788092,-0.03599095,-0.01662066,-0.01478980,-0.03700441,-0.00314927
0.06550594,0.02728132,0.04257681,0.08086742,0.01780572,0.01256141,0.03972203,-0.00363088,-0.01023258
-0.00634297,0.01098262,0.03514865,-0.02168144,-0.02212057,-0.01733476,0.00263293,-0.00600792,-0.00381929
-0.01624184,0.01452891,-0.00132581,-0.00775908,0.01138638,-0.03354030,-0.00609471,-0.01095052,-0.02698590
0.00443000,0.00506663,-0.00780132,-0.01970872,0.00708860,0.00970097,-0.01556736,-0.00291804,0.01343291
-0.09408932,-0.02993304,0.00607618,-0.06346995,-0.04586674,0.00322917,-0.04428604,-0.06806882,-0.04511045
-0.00106476,-0.04052853,-0.08665030,0.07864895,0.01786569,-0.07551821,0.08080267,0.06135343,0.01408636
-0.01155349,-0.01763074,-0.03830190,0.02824080,0.03030844,-0.01413248,-0.00371282,0.00198856,-0.04205270
0.06084016,0.03434739,0.03306758,0.05441718,0.01555351,0.01479416,0.02482601,0.02965438,-0.02787773
0.05773554,0.00254294,0.03355586,0.05299185,-0.00735202,-0.01153368,0.07403394,0.02531925,0.00080527
-0.03918708,-0.02796491,-0.02837003,-0.00370048,0.03344342,0.01957284,-0.04166873,-0.00927390,-0.00734591
0.01375019,0.02224139,0.01160527,0.02548972,0.02642174,0.01524590,-0.01268323,-0.01772535,-0.02257435
-0.01923981,-0.00519414,0.00743762,-0.04860933,-0.00542281,-0.01415161,-0.06641434,-0.01854543,-0.01892636
-0.00746726,0.04101819,0.03537197,-0.02618820,-0.00052163,-0.01243025,0.08937930,0.07556933,0.02608307
0.06800742,0.01476151,-0.06033368,0.10983925,0.02511584,-0.08006346,0.09980515,0.02193229,-0.05275888
0.01638735,0.01900231,-0.00052308,0.01593848,0.00002860,0.00565951,0.03782693,-0.02119579,-0.04359733
-0.00253535,0.00173408,-0.00140647,0.00371129,0.00294538,-0.00294011,0.00206835,-0.00142748,-0.00489458
-0.01281702,-0.01153066,-0.02846755,-0.01105104,-0.05915793,-0.04976920,0.02881318,-0.04151989,-0.05675649
0.02595791,0.01936257,-0.00472142,0.02562216,0.01407563,0.03431849,0.00789016,0.04271973,0.11310387
0.02816005,0.05508982,0.03203464,-0.02087995,0.00127634,0.00880696,-0.03534214,0.00858086,0.00950455
0.02969688,-0.04424820,-0.09430388,0.06439604,0.02411266,-0.06561663,0.09346685,0.04197549,-0.03382203
-0.00961727,-0.00785365,0.00625806,-0.00108300,0.00093794,0.00628383,0.01370068,0.01262657,0.00909188
-0.02223798,-0.00482734,-0.01372494,-0.00647709,0.00603401,0.01144313,-0.02706638,-0.00273165,0.00174336
-0.02107949,-0.04238506,-0.04781560,-0.01167659,0.00564600,0.03248097,0.01383247,0.02022732,0.02194549
0.04015880,0.06730790,0.07087768,-0.00258695,0.03857518,0.06608035,0.02207360,0.03067472,0.00933990
-0.02779233,-0.00953191,-0.01027307,-0.03436437,-0.02590540,-0.02330276,-0.00361953,-0.02199630,-0.01119122
0.02632543,0.01650983,-0.00851328,0.00107567,0.01330527,-0.00355731,-0.06974759,-0.06445941,-0.04303093
0.02348406,0.00251248,-0.03523951,-0.01208499,-0.00095572,-0.01303721,0.00785082,0.00595622,-0.00244224
-0.05365339,-0.08034295,-0.12056422,-0.02304756,-0.03695724,-0.06788362,0.03163523,0.00010632,-0.04686195
-0.02536898,-0.02266554,-0.00283147,0.01165149,0.01307654,-0.00010027,0.01544781,0.00252064,-0.01015940
0.01813483,0.01520416,0.01819944,-0.00934273,0.01042390,0.00602571,0.00595008,0.00421736,0.00442172
-0.09601104,-0.00257040,-0.02914315,-0.03244468,0.04285789,0.05845084,-0.05995513,-0.06683426,-0.02697601
0.00387992,0.00433199,0.02096289,0.00549656,0.01519369,0.01387051,0.01816315,0.01083471,0.01066841
0.03578320,-0.01557183,-0.01828949,0.01825118,-0.02257815,-0.01916723,-0.03763725,-0.06669319,-0.04361369
0.04069406,0.04569371,-0.03516436,-0.04810597,-0.00076401,-0.01576556,-0.01604213,0.02717736,0.01151998
-0.04212381,-0.02964256,-0.05774298,-0.09417836,-0.00056439,-0.00296576,-0.12312902,-0.00195710,0.02266326
0.06922296,0.06384175,0.04712402,0.04143614,0.07344677,0.02039807,0.06740861,0.09200313,-0.01013422
0.02521854,0.01756170,-0.00640363,-0.03998849,0.01708829,0.02926923,0.00989168,0.05475731,0.02372710
-0.00157382,0.00470787,0.01525360,-0.01471266,0.01163902,0.00539157,-0.04144920,-0.01686568,-0.00548652
0.01389834,-0.01878187,-0.05808385,-0.02215570,-0.01939921,-0.05463761,-0.00234109,0.01569493,-0.00871188
-0.01608364,-0.01153032,-0.01819239,-0.00138271,-0.01183315,-0.01664586,-0.01625666,-0.04748676,-0.09754185
-0.02333688,0.02098151,0.03040632,-0.02390146,0.01803667,0.04547564,-0.04873934,-0.03744539,0.01344254
-0.04105425,-0.00957184,0.02104243,-0.03314870,-0.00094408,0.02701208,-0.05121221,-0.06178284,-0.02037279
-0.02876358,-0.03550749,-0.02140552,-0.00840687,-0.00952827,-0.00581692,-0.06068405,-0.03798717,-0.04181244
0.00915185,0.01327269,-0.05923788,-0.03291382,0.01180796,-0.02177239,-0.06483569,-0.02886653,-0.04832497
0.00470478,0.02363798,0.00775167,0.00305231,0.01065669,0.01122402,0.00042600,0.00380604,0.00285404
-0.01132393,0.01648521,-0.02408203,0.01039515,-0.00354754,-0.02421906,-0.00317051,-0.01685274,-0.04104051
0.00741663,-0.10963034,-0.11865080,0.07480110,-0.03042407,-0.03816694,0.08401493,0.00130267,0.01371193
0.05453568,-0.04903300,-0.03910432,0.04622006,-0.02096137,-0.01588549,0.03394566,0.00601294,-0.00091782
0.00110606,-0.02240706,-0.08626207,0.03561403,0.02934533,-0.06677496,0.12246136,0.09866248,-0.02642433
0.02750009,0.00230293,0.01203376,0.03773783,0.02259480,0.06431068,0.06747928,0.01806878,0.03472700
-0.03379739,-0.00059356,-0.03294605,0.00576906,0.03680811,0.00082109,-0.00013455,-0.00835664,0.01715395
-0.07245409,-0.02947739,-0.00379840,-0.05415542,-0.01704546,0.00672500,-0.05027742,-0.02174018,0.01431161
-0.04518776,-0.00588952,0.01420110,0.00665028,0.02290707,0.01033861,-0.08224082,-0.08205669,-0.12873551
-0.02484801,-0.00610765,-0.01087060,-0.05010483,-0.01002376,-0.00750175,-0.02045876,0.00381568,-0.00368799
0.06592917,0.04414004,-0.00125593,-0.00644301,0.01730136,0.06847941,0.01259283,0.06993991,0.09152101
-0.02539631,-0.06345075,-0.05968416,-0.02775606,-0.07351490,-0.06984090,-0.00580484,-0.04751823,-0.03554745
-0.00575530,-0.00763447,-0.00142894,-0.00311393,-0.00711890,-0.00830414,0.00047336,-0.00552566,-0.01026053
0.00201539,-0.02441095,-0.00105567,0.01768739,-0.00530129,0.01417625,0.10501753,0.06960155,0.06806979
0.00037903,0.00186700,0.00605288,-0.00212119,0.00156145,0.00109676,-0.00254671,-0.00703933,-0.00235591
-0.03365161,0.01235550,0.07130147,-0.02055929,-0.01747908,-0.02247045,-0.05427536,-0.05457043,-0.04877764
-0.00065157,-0.00893508,-0.01017270,-0.01887388,-0.02142363,-0.01407637,-0.02739404,-0.02598521,-0.01142833
-0.02217565,-0.01386791,0.01584157,-0.01217069,-0.00078258,0.02165132,0.01141820,0.01273243,0.00287586
-0.01866612,-0.05836542,-0.09883063,0.07267556,0.03565230,-0.01607441,0.02346596,0.03000035,-0.02575645
0.01301308,-0.00866656,-0.03323670,0.01811595,0.00771646,-0.01400249,0.02088273,0.00107439,-0.01947949
-0.00034448,0.01356133,0.02741776,0.00676670,0.01648123,0.02712475,0.02369311,0.02307860,0.00179446
-0.03433522,-0.00697794,-0.02821948,-0.01728899,0.00198312,-0.00217795,-0.01417934,0.00202112,-0.00851363
-0.06486850,-0.02853631,-0.02497711,-0.02600740,0.01577458,0.01133806,-0.04144495,0.00152847,0.00415657
0.02025899,0.00800867,-0.01320304,0.01495050,-0.00388324,-0.02222625,0.02130442,-0.00634558,0.01026243
0.12393974,0.02055890,-0.03617633,-0.02265513,-0.04209411,-0.06021183,-0.03223953,-0.06228250,-0.05722314
0.15036680,0.00133392,0.03663103,0.04009471,-0.05278141,0.00600538,0.01734969,-0.07174554,-0.00050008
0.02359751,0.00536781,-0.03860896,-0.00341643,-0.02258517,-0.04082806,0.01222048,-0.01817041,-0.03155290
-0.08072216,-0.08335807,-0.04430221,-0.04434245,-0.05433830,-0.07071918,0.00287430,-0.05488403,-0.05944314
0.00727772,-0.00450480,0.00000115,-0.00247214,0.00014217,0.04106759,-0.00486206,-0.02345249,0.02515655
0.02690672,0.01821825,-0.01134519,0.00355546,0.05816874,0.04530665,0.01933531,0.02108624,-0.04387433
-0.01589039,-0.01579284,0.00728037,0.01831294,0.00224202,0.03212319,-0.06386604,-0.04638919,0.00979224
-0.00241664,0.03928087,0.03375389,-0.04403253,-0.03700588,-0.07280258,-0.00722270,0.06779326,0.05753291
0.01615980,0.13158631,0.08448926,0.02761001,-0.00965859,-0.10837738,0.01654398,0.02147155,0.02389183
-0.02230300,0.01693719,0.00643633,0.02253245,0.08409234,-0.00514517,-0.07369263,0.02093055,-0.05306812
0.02272133,0.00886320,-0.08447324,0.00692863,0.02691134,-0.02451404,-0.04699163,-0.01533389,-0.06996902
0.00615756,0.00281449,0.00220613,0.00053865,-0.00560334,-0.00257690,0.00157592,-0.00142344,-0.00077733
-0.02465279,0.01494793,0.06534237,-0.02713798,-0.05231956,-0.07760553,0.02273767,-0.00567235,0.02275318
-0.02105040,0.02346505,-0.00016068,-0.05490887,-0.10524528,-0.16897561,0.03924080,0.04291235,-0.00364184
-0.00794798,0.13012612,0.00435519,0.00638813,0.10798600,-0.03653419,-0.02693522,-0.01677162,-0.05187022
0.01903274,0.10151475,0.01477509,-0.04104703,-0.04773422,-0.06973940,-0.01584884,-0.00270144,-0.05556776
-0.01097888,-0.01747015,-0.01058899,-0.02122678,-0.03043550,-0.02531422,-0.05742538,-0.06007257,-0.07151718
-0.00436090,-0.00598920,0.00723197,0.09487734,0.01501306,-0.03323730,-0.04284458,0.01766518,-0.03187168
0.05974660,0.04514680,-0.02616455,0.07489935,-0.00460139,-0.01912198,0.02273139,-0.01234577,-0.02306211
-0.04474091,0.03186012,0.05891393,0.00458761,-0.04506092,-0.03293151,0.00906672,-0.03185695,-0.00638042
0.01439852,0.02076920,0.02033472,0.08516105,0.06144443,0.00465752,0.00004295,0.00407232,0.00147119
-0.04464599,-0.06436279,-0.03620307,-0.00650702,-0.03901576,-0.05172889,0.02656113,0.04386076,0.00501285
-0.00787569,-0.01871529,-0.06386653,0.04310938,0.03564893,-0.00484731,0.02545396,0.03405752,-0.01473500
0.01021474,-0.00329920,0.03406978,-0.00708305,-0.08398393,-0.06626626,0.00566078,-0.07360025,-0.10879049
-0.00832449,-0.01964849,-0.04067812,-0.01345525,-0.00959777,-0.04254452,0.06892042,0.19274175,0.15881768
0.00840752,0.00611987,0.00836490,0.02916175,0.04431287,0.04609653,-0.03064233,-0.01165793,-0.00385136
0.02345970,0.00211901,0.01201301,-0.01198610,-0.00663061,0.06032597,0.01875627,-0.01833869,0.01444472
-0.00740411,-0.01395719,0.03568576,-0.00024846,-0.01437546,0.01731934,0.01084237,-0.01355528,-0.00293650
-0.07070802,-0.01516600,0.03068568,-0.05829316,-0.06805331,0.00919979,0.00085175,-0.00269149,0.10691376
-0.07826558,-0.03534941,-0.07072714,-0.04918112,-0.02394142,-0.08018433,-0.05465703,-0.07536449,-0.04737654
-0.04955725,0.00497511,-0.01723467,-0.05692325,-0.07091683,-0.03953540,-0.03236794,-0.04564749,0.00915647
0.06172255,0.18266624,0.11813065,-0.02349560,0.03104795,-0.00647628,-0.04421277,-0.03674233,-0.03314058
0.04608912,0.11401118,0.06758954,-0.04424728,-0.17425431,-0.08664182,0.04382212,-0.01403173,0.03842745
-0.00938851,-0.02830138,-0.01584599,-0.00335325,0.00738326,0.01410011,-0.09059741,-0.07133307,-0.05886680
-0.02459995,-0.01828065,-0.03749299,-0.01890785,-0.01497725,-0.05172675,-0.07793698,-0.05733452,-0.03204848
-0.03554842,0.00816541,-0.04866184,0.03639051,0.01102677,-0.00881691,0.04072496,0.02662543,0.01673961
-0.04996805,0.01995649,0.00763415,-0.01210940,0.02283799,-0.03652100,0.02992025,0.00550040,-0.06741530
0.07386947,0.00556973,-0.05217398,0.05307094,-0.00429796,-0.02502781,0.03433265,-0.01611693,-0.02915617
0.03832579,0.06806197,-0.00319157,0.00598794,0.16555901,0.04134451,-0.03109077,0.10849556,0.06605801
-0.06211110,-0.02819199,-0.02703090,0.00807885,-0.02913261,-0.05635301,0.03692819,-0.06416027,-0.16814433
0.00276585,0.01960626,0.02200566,0.02672510,0.02242604,0.02086222,0.01132276,0.00336811,-0.00935048
-0.02114796,-0.00439530,-0.04974850,0.02756426,0.11769468,-0.01194405,0.00785119,-0.02789833,0.00043525
0.06896075,0.02488951,-0.02519359,0.01803020,0.12050397,0.09235292,0.04227945,0.16243914,0.10856593
0.01063907,0.04984917,0.00887440,-0.02383040,-0.02439450,-0.01676757,-0.03109248,-0.04953141,-0.05923800
-0.06983165,-0.02096639,-0.07952959,-0.00576822,0.02232618,0.00675338,-0.02908814,-0.04528457,-0.04576299
0.01322269,0.05235850,0.09052590,-0.00077329,-0.03784972,0.00600909,0.01806751,0.00616166,0.01240551
-0.01128221,-0.04911946,-0.07492501,-0.08837800,-0.00862998,-0.04156703,0.12413816,0.25782922,0.25492224
-0.00870278,-0.02511333,-0.03423869,-0.06150922,-0.03705114,0.04737917,-0.06627742,-0.02280353,0.05849330
-0.06960399,-0.04467686,0.03838551,-0.04241943,-0.04365631,0.03258782,-0.02049951,-0.00983135,-0.02811356
0.01926837,0.05194140,-0.00925044,-0.00307132,0.01725719,-0.06854814,0.01502220,0.04229822,0.00923396
-0.00517391,-0.02888420,0.03021561,0.11036508,-0.03552561,-0.04779160,0.01503072,-0.06199576,0.07261719
0.04180544,0.03415627,-0.03597223,-0.06870736,0.24080028,-0.07632975,0.02617476,0.23163685,-0.00602693
-0.00415491,-0.00520379,-0.00628760,-0.00454666,-0.00212568,-0.00371606,-0.00037493,0.00636419,-0.00641447
0.04815156,0.11856356,0.10072460,0.00852839,0.06020095,0.08219587,-0.03715823,-0.01030747,0.00088539
0.00117154,0.00418153,-0.00268415,0.01227878,0.03206350,0.01028326,-0.00353653,0.01599716,-0.00342279
0.02488601,-0.03458484,-0.02783621,0.09461123,0.09025421,0.05617588,-0.03485326,0.02102268,0.03044633
-0.02384852,-0.07995668,-0.01568657,0.04915775,0.00216100,0.02546809,-0.00877086,-0.05940876,-0.06543060
-0.06926538,-0.08383261,-0.05785278,-0.06287391,-0.08510330,0.02162379,-0.04228085,-0.10417104,-0.07030874
-0.03132476,-0.06322128,-0.06806909,-0.05917282,-0.04226619,-0.04836127,-0.08336375,-0.01348603,-0.08041245
-0.05388661,0.00568605,0.04056745,0.00930856,0.01841913,0.06041346,-0.00887956,0.00622500,-0.00613126
-0.02117991,0.00331864,0.00548640,-0.01629207,0.01821451,0.00071107,0.02498253,0.02443708,0.04660076
-0.05199923,-0.06253894,-0.02323933,-0.04761659,-0.05673320,-0.04401919,0.04354701,0.00393370,-0.01938217
-0.00863555,0.01144962,0.02726413,0.00874614,-0.01281274,-0.00597970,0.04725006,0.01713013,0.02085213
-0.08854274,-0.00402605,0.00899614,-0.06413496,-0.00820013,0.02205632,-0.01446643,-0.04640536,-0.03518856
-0.04799346,-0.02358191,-0.00896190,-0.01440996,0.02794299,-0.02081859,-0.06018401,0.03239239,-0.00083229
0.10723154,0.16227181,-0.04484161,0.30878419,0.28847384,-0.01981180,0.22526351,0.14910574,-0.02754594
0.00467083,-0.06573354,0.01686517,0.04336311,-0.00426124,0.05247753,0.02417495,-0.01723519,0.04279120
-0.00351360,-0.04074135,-0.03983516,0.01543548,-0.04197631,-0.00397700,0.01611111,-0.01390206,-0.00111742
-0.00009401,0.03816294,-0.02787854,0.00704864,0.01600485,-0.02867781,0.00514879,0.01106736,-0.04493328
-0.03854929,-0.03542459,-0.00152389,-0.02513407,-0.01265634,0.00515879,-0.03704484,-0.00601790,0.01805156
-0.00876451,-0.02740662,-0.03708457,0.00649435,-0.01440361,-0.01762807,0.00383184,0.00214186,0.00185177
-0.02684218,0.01930397,-0.03650314,0.03303136,0.00868975,-0.06233007,0.10096918,0.08857710,-0.04553200
-0.01529197,0.02873005,0.02966407,-0.00263333,0.03713435,0.02802308,-0.00980912,-0.03111038,-0.01551519
-0.05444853,-0.01429829,-0.00367093,0.01154426,0.05000173,-0.00139013,-0.02421952,0.03192864,-0.04458946
0.02972787,-0.03715642,-0.03340504,0.02938568,-0.00900552,0.00194227,0.02475522,0.00025223,0.03948680
-0.00059828,-0.00072855,-0.00190064,0.00067431,0.00598617,-0.00173011,-0.00067034,0.00285596,0.00195919
-0.02451554,-0.05867419,-0.04633148,0.03406155,-0.00027281,-0.05073678,0.02941432,-0.00587764,-0.05995118
-0.10664734,-0.04691489,0.02830385,-0.05719362,-0.01570264,0.04738421,0.00749493,0.01547442,0.04658275
0.03601104,0.00344363,-0.03532856,-0.01627554,-0.02471219,-0.01879991,-0.04754899,-0.02844773,0.01450237
0.03369787,-0.01865621,-0.00476774,0.06669185,0.02184236,-0.00985275,0.02670003,-0.01377527,-0.04007151
-0.02062878,0.01424785,-0.01271987,-0.02630423,-0.00843988,-0.02338785,-0.02870790,-0.02343871,-0.03988156
0.02692213,0.00657180,0.02328097,-0.00318449,-0.03109503,0.01477698,-0.01254103,-0.00270852,0.01972263
0.03712906,0.01147000,0.03151254,0.02007025,-0.03263869,0.04552067,0.02046275,0.00614538,0.04684335
-0.01408284,-0.01806819,-0.00936943,-0.02406929,-0.00991474,0.01345908,-0.05303028,0.00124993,-0.00191647
0.04131813,0.02593559,0.00603377,0.03788524,0.02060803,-0.02382943,0.00413440,0.02627806,-0.00710608
0.00498041,-0.03989978,-0.00503378,-0.04289796,-0.04866529,-0.01816189,-0.05799203,-0.04628908,0.02891828
-0.02920179,0.01013050,0.01545596,-0.02130529,-0.01771058,-0.04128801,0.00557996,0.00021373,-0.02468079
-0.01350983,-0.06326368,-0.05256529,-0.01634363,-0.06660432,-0.03412665,-0.02516744,-0.02796413,0.00033402
0.02716696,0.00694531,0.02168844,0.02973896,0.02653209,0.05316359,-0.03457076,-0.02402895,0.00850230
0.00327774,0.00835825,0.01703293,-0.00539657,-0.00108099,0.00376680,-0.00266748,-0.00447411,-0.00727029
-0.02918202,-0.02369600,0.03714017,-0.08346271,-0.02448707,0.00932406,-0.05371466,0.01919928,0.01750059
-0.00129339,0.00515129,-0.00426600,0.00527463,0.00240361,0.00420042,0.00894128,0.00717797,0.00440382
-0.00930133,-0.00340081,-0.03692208,-0.02262498,-0.00514089,-0.00009568,-0.04216032,-0.00956642,0.04686334
-0.04042565,0.02318396,0.05705353,-0.02862441,-0.01430360,0.01501935,-0.00685305,-0.00900203,0.01155667
-0.01980609,-0.04552733,-0.01043488,0.00494463,0.00644891,0.05366972,-0.00896094,-0.00731292,0.00705846
-0.01685392,-0.00378441,-0.03991160,-0.03204116,-0.01414695,0.04253396,-0.00101491,0.03185982,0.08988141
-0.02094435,0.03236596,0.05338347,0.00745233,0.04059540,0.04697088,-0.09804789,-0.05616257,-0.05088028
-0.03304908,0.00579201,-0.08106616,-0.02301690,0.04925157,-0.01832501,-0.04992795,0.00961780,-0.01537231
-0.02000201,-0.00479629,0.00155104,-0.03291895,-0.00869647,-0.00202869,-0.01273479,0.01474382,0.00939359
-0.00737086,-0.03568297,-0.00402147,-0.03609265,-0.05490226,0.03535593,-0.00524579,-0.01005540,0.03606131
0.01091469,0.02097274,-0.00378499,-0.00919702,-0.01873410,-0.03938292,-0.04116392,-0.03687087,0.00425036
-0.04431855,-0.04274742,-0.04676525,-0.05247336,-0.04026175,-0.03370328,-0.03446037,-0.01298311,0.00841082
-0.02157339,-0.00254745,0.02089705,-0.00337784,-0.02864349,-0.01935406,-0.00809829,-0.01204157,-0.03436596
-0.03881098,0.02493200,-0.04942186,-0.08446725,-0.02028391,-0.03997486,-0.03324968,0.01754862,-0.01146836
-0.00306260,-0.00567623,-0.00001744,-0.00319872,-0.00071492,0.01509711,-0.00170303,0.00542984,-0.00456044
-0.00393549,-0.02242586,-0.04875625,0.02214795,-0.04104329,-0.08368178,-0.03468551,-0.06242291,-0.05061582
-0.00184627,0.01009711,0.02689644,-0.01621862,-0.00254378,0.02598360,-0.04021813,-0.07062495,-0.01478436
-0.01782921,0.02033722,-0.01267102,-0.00414454,0.02066226,0.00484945,0.00251565,-0.01222537,-0.04511597
0.03236463,0.05578156,-0.01194427,0.03945133,0.05486127,0.00880524,0.01993979,0.05358186,-0.00164814
0.01816357,-0.00006791,0.00972265,0.02322498,0.00127579,0.01421223,0.04282077,0.01907847,0.02578842
-0.08417547,-0.03482089,-0.07144997,-0.01231144,-0.04834198,-0.06162534,0.01041220,-0.02062189,-0.08743315
0.04783855,-0.00030658,0.00667185,-0.01389298,-0.00679018,0.00805436,-0.01257527,0.00387127,0.02543064
0.01461339,0.02564257,0.04138687,-0.00043158,0.00327956,0.04757622,-0.02053138,-0.01460251,0.03612148
0.02584483,0.01796361,0.05223311,0.06285519,0.02109001,-0.01246072,0.04945107,-0.00412829,-0.09196741
-0.01930472,-0.09585065,-0.01854025,-0.03782586,-0.13416305,0.00550230,0.01773360,-0.03712142,-0.04073153
-0.05630675,-0.03184171,-0.01403489,0.00931099,0.06271417,0.02897453,-0.03124530,0.03807585,-0.00817684
-0.00777690,-0.00559894,-0.00257098,-0.01045822,0.00185590,0.00498530,-0.00106349,0.00515638,0.00476955
-0.06836843,0.01380053,-0.01443372,-0.04756308,0.03871502,0.00674990,-0.06808301,-0.01580647,0.00671543
0.00189313,-0.00047916,-0.00694006,0.00632362,0.00064330,-0.00437873,0.00073320,-0.00629940,-0.01033146
-0.04242312,0.01748116,-0.03144316,0.04621610,0.01331292,-0.01991168,-0.03917141,-0.01055623,0.00235819
0.03905066,0.02121836,0.02119388,-0.02461104,0.00073088,-0.00557765,-0.03667754,0.03022115,0.02292836
-0.00411085,0.01616343,-0.05770172,-0.01354919,0.02855115,-0.02922988,-0.07187041,0.00361437,0.00940694
-0.02469298,-0.05811341,-0.03136230,-0.00225144,-0.03249364,0.03101574,-0.06080024,-0.14058004,-0.05192161
-0.05273331,0.00678293,-0.04124574,-0.03691549,0.01801152,-0.08044723,-0.05622889,-0.06102966,-0.09552515
-0.01108154,-0.00125163,-0.00357320,0.01345243,-0.00201810,-0.00121117,0.02090134,-0.00325405,-0.00101351
0.03715933,0.00133806,0.01698972,0.00003603,-0.03071450,0.00290400,-0.03562300,-0.02536531,0.00988224
-0.06027404,-0.02734022,0.00447372,-0.02893581,0.00619599,0.01806779,-0.02198770,-0.01325417,0.02185158
-0.08044316,0.03653780,-0.03172831,-0.05741322,0.00775443,-0.05759709,-0.05841788,-0.01941376,-0.06339090
-0.09551017,0.02206746,-0.00044852,-0.01909942,0.08933875,0.00643956,-0.07308848,-0.00419701,-0.00222040
-0.07722630,-0.02711079,0.01385867,-0.01581894,0.26813987,0.24547718,-0.07182443,-0.05866561,0.01150069
-0.00686323,-0.03933114,0.05203146,0.04723734,-0.00953645,0.09314047,0.00743771,-0.04600802,0.01564857
