0.03695958,0.06990351,-0.04082701,-0.02574504,0.04148085,0.00955006,-0.07722098,-0.05722057,-0.00134828
0.07470216,-0.05506403,-0.01790841,0.02876554,-0.03984082,0.02122658,-0.00340871,-0.04384113,0.01735286
-0.03754879,-0.03081638,0.03902236,-0.04647107,-0.01851984,0.04467345,-0.05126618,-0.01066245,0.00235386
-0.02063408,0.04685902,0.01581286,-0.05690236,0.00036255,0.01197166,-0.01470905,0.00797937,0.00607748
-0.01798244,-0.00439716,0.02537223,-0.01665464,0.02749689,0.03986182,0.00511343,0.01556024,-0.00322306
0.00512005,0.01699664,-0.02150440,-0.00665613,0.04971441,-0.00107288,-0.05895047,0.01309550,0.00155955
0.02495535,0.01789097,0.03488659,0.02204738,-0.04414177,-0.02100165,0.02600670,-0.01712130,0.01319086
-0.00728377,-0.00435544,0.02217871,-0.00678108,-0.00078665,-0.00849574,0.01461171,-0.03870668,-0.09870178
-0.05400628,-0.00194460,0.00122174,-0.01438190,0.02711316,-0.02370033,-0.03479001,0.04154805,-0.00895100
-0.04395230,-0.01382217,0.01191784,-0.07790706,-0.03471496,-0.00459342,-0.03666920,-0.01482001,0.00135042
0.01519099,-0.02619012,-0.03489174,-0.01200605,-0.00460204,0.00686100,-0.01179375,-0.00539527,-0.01738750
-0.00608210,-0.02592163,0.00879915,-0.03327464,-0.02677009,0.00763906,-0.02777452,-0.03731550,0.00737660
0.00778585,-0.01787329,0.01238358,0.04254615,-0.02654229,-0.01797426,0.02027946,0.00564896,0.00487011
-0.01332421,0.02495508,-0.00953861,-0.00871618,-0.02311525,-0.04007385,-0.00720328,-0.00018314,-0.02849892
-0.04932217,0.00774995,0.02128853,-0.02402561,-0.00968270,-0.00317689,0.00569549,-0.00446574,-0.01702863
-0.02328838,0.00752495,-0.02111144,0.02174493,0.03301153,0.01633853,0.03745198,0.01994542,-0.00981573
-0.00281129,0.01949945,-0.01298628,0.01376695,0.04298442,0.00051100,0.01946038,0.02913366,0.01683640
0.01806223,-0.01033415,-0.01010349,0.04862625,-0.00313895,-0.02220343,0.02721315,0.02263365,0.00608879
0.00316328,-0.02919821,-0.06689309,0.00460611,-0.00536474,-0.05225527,0.01954889,0.01749085,0.00493995
0.00573334,0.01159360,0.01297987,0.00759478,-0.00831006,-0.04251675,0.00803212,-0.01711076,-0.02114894
0.05794080,-0.00162870,-0.04500335,0.04460558,-0.01472981,-0.06009895,0.01991330,-0.01743220,-0.04446753
0.04472123,-0.00113883,0.00582275,0.03932094,0.00145834,0.00862263,0.04670862,0.01492519,0.00304224
0.00010584,-0.00151483,0.00306865,0.00532576,-0.00263626,0.00463131,0.00171328,0.00059167,0.00712158
-0.02373586,-0.02968331,-0.00734132,-0.03530833,-0.06013121,-0.02617287,0.01933157,0.01558680,-0.01861764
-0.00944614,0.04740385,0.00340256,0.00102595,0.00801327,0.01612236,0.02112497,-0.00238640,-0.03311034
-0.06692726,-0.01024594,0.02384891,-0.11736163,-0.02140727,-0.00839374,-0.03252923,-0.02576351,-0.02205408
0.01648111,-0.01971962,-0.01389248,0.05579765,0.01891722,0.01009995,0.01331655,0.04008399,0.02253507
-0.03601218,-0.04440762,-0.06942097,-0.00610493,-0.04849889,-0.07542688,0.04308726,0.02169809,-0.02283473
0.00435512,-0.00407300,0.02468285,-0.00613397,-0.03588851,-0.02485647,-0.03098121,-0.04024734,-0.06659167
-0.03974130,-0.02312794,-0.13945514,-0.00795578,-0.00744627,-0.07383391,-0.02201805,-0.01402586,-0.07823223
-0.03318767,-0.02813550,0.00517833,-0.03746983,0.01434725,0.01205608,-0.05943374,0.00239086,0.05175121
-0.07643749,-0.03939884,0.04503581,-0.04541619,0.00389383,0.01178586,-0.07892531,-0.03985951,0.00748711
-0.00139466,0.02848202,0.03553130,-0.00474928,0.02776648,0.02730629,-0.01906483,0.00781030,0.01667188
0.00690958,-0.05785850,-0.07355612,0.00503547,-0.01336339,-0.02381891,0.00473349,0.03949525,0.03450936
0.01939618,0.03329999,-0.05608296,0.01531246,0.00515838,-0.05394650,0.00632408,0.01025035,-0.01642186
0.01154867,0.00767443,-0.03500103,-0.03270072,-0.01684200,-0.00694699,-0.01415041,-0.00564239,-0.01171585
-0.09316751,0.03169120,0.08387854,-0.06701893,-0.03416637,0.00318446,-0.06489335,-0.03890876,0.00268152
-0.02617475,-0.00814109,-0.01431823,-0.02813667,-0.03785365,0.01358437,-0.02285216,-0.04778061,-0.03676253
0.01899253,0.00164646,0.05501386,-0.00097031,-0.00908440,-0.00094913,0.01931023,0.00592075,-0.01125729
-0.00890205,0.02288425,0.04308856,0.01259370,-0.01486766,-0.02314453,0.02582713,-0.01829665,-0.02394776
-0.00767426,-0.00404018,-0.00403487,-0.00317154,-0.00516063,0.01848211,0.03078075,0.02705380,0.03216640
0.00466314,-0.00792921,-0.00731969,-0.00300597,0.00054940,0.00042913,0.00400867,0.00617361,-0.00779436
-0.00443810,0.02661616,0.02211030,-0.04867831,0.01619060,0.02184945,-0.04901247,-0.00395129,0.00226301
0.02514458,0.01431047,0.05842508,0.04053706,-0.03194371,0.01024212,0.01396136,-0.01218719,0.02249875
-0.04271396,-0.03277521,-0.01620710,0.06863287,-0.03657080,-0.00398399,0.03391592,-0.02934606,0.02732501
0.00469434,-0.07017142,-0.02818940,-0.00871036,-0.06423412,-0.02645629,-0.00187344,-0.04343326,-0.00501602
0.01359177,0.00998475,0.00705937,0.00512997,0.02455925,0.00791584,-0.02854196,-0.03347826,-0.05013418
-0.04892505,-0.01601715,-0.08238005,-0.05491912,-0.03356849,-0.05582916,-0.01699900,0.02544536,-0.03510205
-0.03118247,-0.00644906,-0.02282665,-0.02272078,0.00920073,-0.00063739,-0.00668190,0.00537508,0.02314475
-0.07012583,-0.02294544,-0.02415264,-0.02314756,-0.01018321,0.00682179,-0.01716513,-0.00838268,-0.02635496
-0.01094288,-0.05198494,-0.02815794,0.00484605,-0.03967860,-0.05974063,0.01181899,-0.06248457,-0.04279156
-0.01992313,0.00828496,-0.01638699,-0.00560689,-0.01086034,-0.02219892,0.02419293,-0.01062778,-0.03408923
-0.05669607,-0.05253956,0.01191432,-0.02594897,-0.06929202,-0.04668345,-0.06954115,-0.08004560,-0.05848271
0.06239833,0.02236222,-0.01338468,0.07906634,0.03056698,-0.01208139,0.04063065,-0.01760942,0.06597433
0.04007702,0.05205882,0.08291942,-0.01321024,0.02394101,0.02572358,0.02591452,0.01460225,0.03508040
0.03908953,-0.02212315,-0.00800219,0.05836609,-0.04349792,-0.10377920,0.04720286,-0.01341678,0.00876488
0.05467840,-0.04000310,-0.02320587,0.06404798,-0.04988300,-0.05217875,0.02709202,-0.04144345,0.02636714
-0.00214939,-0.00370919,-0.00245132,0.03865774,-0.00320063,-0.00166884,0.00891821,-0.00759881,0.00050764
0.03815307,0.02347689,0.04468818,0.02066805,-0.03173438,0.04814903,0.08091548,-0.04212813,0.00267484
0.06216823,-0.00542109,0.00185954,0.06266225,-0.01413243,-0.06842886,0.05487941,-0.05918591,-0.08707581
0.03438116,-0.02446886,-0.00632089,0.07134572,-0.04443904,-0.04329886,0.01405749,-0.04625201,0.00044192
-0.05475019,-0.01970958,0.00910413,-0.07412582,-0.03018448,0.01233550,-0.03310296,0.00020218,0.02185112
-0.03347130,-0.03501897,-0.02578151,-0.04533230,0.00356078,-0.00998895,0.02970648,0.05690828,0.00285531
-0.05395386,0.00498306,-0.01788069,-0.05341248,-0.01615951,-0.02270366,-0.01490010,0.00210642,-0.04183947
0.00093883,-0.02439758,-0.00589740,0.01697807,-0.01522181,-0.00159001,0.02861883,0.00402645,-0.01885717
-0.06637912,0.00764569,0.04863704,-0.07266729,0.02186951,-0.00161261,-0.08008659,0.02249719,-0.01385559
-0.03427097,-0.03038620,0.07007170,0.02450941,-0.03953439,-0.00295797,0.07910796,-0.05271935,-0.02062284
0.02536696,0.03273818,-0.02314073,0.03231957,0.07636766,-0.03247917,0.04081190,0.04263126,-0.03139598
-0.02705733,-0.01687658,0.09040540,-0.06188454,-0.03330402,0.17284809,-0.08967898,-0.01530731,0.06478866
-0.04208748,-0.05859705,-0.01286549,0.01645835,-0.06313847,0.05722838,0.04594510,-0.04786666,0.01527516
0.04095100,0.01862647,0.07423379,-0.03762032,-0.01886591,-0.02720317,0.02444892,-0.05537107,0.01672916
-0.01043483,0.02701687,-0.00690982,-0.00528774,-0.01241096,-0.03921816,-0.05376263,0.02057484,-0.02683268
0.04027043,0.02261330,-0.02994516,0.07170492,0.02749609,-0.02154230,-0.00282666,-0.01967741,-0.00937890
0.09357595,0.08133079,-0.01177409,0.05197126,0.13943316,-0.02742801,0.04932404,0.03653648,0.01352379
0.00120860,0.02449393,-0.00533233,-0.01224241,0.01731912,0.01508065,-0.00351508,-0.01766312,-0.01484175
0.02116514,0.02306926,-0.06876977,0.03210847,-0.02510506,-0.06270676,-0.01145881,0.00910634,-0.02131417
-0.01883919,0.04268593,-0.01549624,-0.00312774,0.01137816,-0.02249655,-0.00842688,0.02352420,-0.02585710
0.01040513,-0.04477457,-0.00790280,-0.03236083,-0.01648286,0.00171636,-0.08468235,-0.03521261,-0.04296602
-0.01875965,0.04278944,-0.05645944,-0.04111159,0.00778181,-0.01013210,-0.05073102,0.00177775,0.02434839
-0.01755255,-0.07338090,0.01756461,-0.01131577,-0.05191818,0.01445202,-0.03019209,-0.01927155,0.00645448
0.01653601,0.00705044,-0.04167888,-0.04736748,0.00395384,-0.05554396,-0.00663292,0.02257201,-0.04255003
0.00497010,0.00384678,-0.00319492,-0.03143275,0.02375340,-0.01520110,-0.05139883,0.00304850,-0.03104062
-0.02447838,-0.01222558,0.00957521,-0.07516120,-0.02711420,-0.05545517,-0.04802842,0.00127453,-0.00899889
0.04143996,-0.02297437,-0.05982846,0.04499646,-0.02269719,-0.04284928,0.00513122,-0.02353527,-0.02035486
-0.03585018,0.00034715,-0.01870670,-0.02900084,-0.01764216,-0.02991459,0.00489765,0.00765722,0.01105107
-0.02784633,0.01491700,0.00703208,-0.01571162,0.00874768,-0.00249552,0.00650870,-0.00358820,-0.01564810
-0.00024811,-0.00381382,-0.00411828,-0.00503570,-0.00212078,0.00366737,0.00051747,0.00372142,-0.00374886
-0.00350509,0.04293888,-0.00816171,0.02640934,0.00747817,-0.01371380,0.02265474,0.02317099,0.00744587
0.03005766,-0.04408755,-0.00387053,-0.03305275,-0.01310236,0.02064886,-0.03736076,-0.02045016,-0.00208171
-0.05652418,-0.08054143,-0.00403055,-0.12373367,-0.05951278,-0.04299614,0.03011715,-0.08064258,-0.00533357
0.00605672,0.03622529,-0.05344327,0.00824913,-0.02299032,-0.02437070,-0.01618202,0.01716031,0.00260938
0.04642766,0.02098926,-0.02879148,0.02282434,-0.02524830,-0.04810692,0.00626604,-0.05308317,-0.04605573
-0.07314037,-0.04190734,0.06409237,-0.04982752,-0.09460865,-0.02446359,0.06183018,-0.07431200,-0.02484337
-0.02015417,-0.05918589,-0.02960858,-0.01616913,-0.05259750,-0.07351612,0.00531780,-0.05385832,-0.00308525
-0.00109126,-0.01604138,-0.01615563,-0.03242859,-0.01522538,0.00031032,-0.03287201,-0.02074514,0.01620624
0.06664769,-0.04461237,0.00133575,0.01362672,0.04256683,-0.01382215,0.03438558,-0.03385630,0.00646518
0.05389628,0.03642799,0.01320238,0.01880547,-0.00446946,0.02550676,0.02114566,-0.02571945,-0.01944713
-0.01074498,-0.03252242,-0.03678155,-0.01352907,0.00234160,-0.01897779,0.01862389,0.03431448,0.00836960
0.04506075,-0.01784398,-0.03201385,0.00986990,0.02879612,0.00068725,0.01079008,0.04036359,0.02330270
-0.00940101,-0.01546281,-0.01319974,0.01145774,-0.06992168,-0.04328087,0.02671005,-0.02776958,0.02405864
0.05479743,-0.05941627,-0.08757347,0.04861135,0.00646956,-0.05839342,-0.00837765,-0.03760640,-0.07279533
-0.04193665,0.00744587,0.07388175,-0.00626841,0.00697915,0.00699642,0.00235756,0.01274326,0.04749521
-0.04622986,-0.02212327,0.02375879,0.01393674,0.00863804,0.00387650,0.00162963,-0.01288494,-0.00758492
0.00870546,0.01270385,-0.03907809,-0.05624947,-0.00918938,0.01865208,-0.02775028,0.00403413,0.00457670
-0.03868419,0.03600456,-0.03307271,-0.00255358,0.03621538,-0.04141474,0.02959132,0.02732717,-0.04087315
0.00313383,-0.00256064,-0.00163983,0.00520092,-0.00000359,-0.00162890,0.00090612,-0.00118704,0.00130437
0.06014754,-0.04228101,0.02137852,0.01345748,-0.06274412,-0.00160080,-0.00518043,-0.08720411,0.02857367
0.11207657,0.06458313,-0.03468293,0.01592589,0.03294130,-0.02895879,0.00898490,-0.00089221,-0.02573164
-0.02217044,-0.13321382,0.04222042,-0.06051419,-0.10351492,-0.01778842,-0.03196920,-0.06875298,-0.02522118
0.01574739,-0.03147649,-0.00345815,0.03075380,-0.04435143,-0.02127863,-0.02439462,-0.01176300,-0.07090739
-0.04028872,-0.03425219,0.00497430,-0.02612814,-0.04427493,-0.01636777,-0.04119400,-0.03241568,0.01702813
-0.03531050,0.03491263,-0.02098485,-0.06970591,0.05866602,-0.04795133,-0.04172584,-0.02101437,-0.04873564
-0.01256345,-0.02715912,-0.00447498,-0.00243054,0.00497082,0.01497072,-0.01980533,-0.02607864,0.03797154
0.05275179,0.01190162,0.00520103,0.01360055,0.00080232,-0.01685891,0.01941289,0.01797534,0.00968672
0.00468850,-0.00356835,-0.00771802,-0.04470636,0.00805240,-0.00139565,-0.00389984,-0.02283770,-0.02428097
-0.04012550,-0.05396178,-0.01779410,-0.02679475,0.03114012,-0.04703378,-0.12463640,-0.02071224,0.00645222
-0.04565261,-0.05349703,-0.08049204,-0.03967078,-0.05634680,-0.04970180,0.00946634,-0.06240200,-0.00216919
-0.04281606,-0.01997388,0.01858212,-0.07350276,0.02672761,-0.03329103,0.02997269,0.03392256,-0.00182070
-0.02477125,-0.02435360,-0.03089340,-0.04573331,-0.04048418,-0.02077634,0.00403974,-0.06446739,-0.00498010
0.00593017,-0.05826876,-0.01485934,-0.02269993,-0.00173041,-0.01147355,0.00658412,-0.05733821,-0.00755072
0.02294344,-0.03386484,-0.04552568,-0.05664556,-0.04222686,-0.01537893,0.01181159,-0.03612046,-0.04024845
-0.03381561,-0.04982264,-0.01908159,-0.00577524,-0.03951279,-0.00846021,-0.02294449,0.00663028,0.00119333
-0.01540799,0.06004750,0.01400726,-0.02548393,-0.00394837,-0.01098125,0.02366048,-0.01230423,0.01295923
-0.02892837,-0.03336662,-0.04219043,-0.01784253,-0.02637943,-0.01944993,0.01661532,-0.06886923,-0.02000233
0.00181111,-0.03385510,0.01387361,-0.04192699,-0.00074972,0.00146996,-0.03168926,-0.01766038,0.02912599
-0.01775888,0.04924907,-0.00597674,-0.05286175,0.00927419,0.02846393,-0.06241326,0.01691069,0.05092921
-0.00182761,0.04619336,-0.06985641,0.01666442,0.05253550,-0.00355324,-0.00536179,-0.00543869,0.00661469
-0.04784352,-0.02286139,-0.04042390,-0.02201806,-0.03741597,-0.05069595,0.00673617,-0.03925597,-0.05657919
-0.01214565,-0.00271294,-0.02487992,0.00369086,0.02624841,-0.01343654,-0.03495664,-0.02935924,-0.00644852
-0.04909349,-0.02083186,-0.04683351,0.02720056,0.01686528,-0.02039473,-0.01323084,0.01199298,-0.01306329
0.02700493,-0.03895961,-0.10083002,-0.00278563,0.00852994,-0.00960945,-0.03528630,0.00770782,-0.00715088
-0.00870322,-0.01119772,-0.05333624,0.00451424,0.00993181,-0.04114801,-0.03356384,-0.01367565,-0.02916929
-0.01083858,0.00810399,0.00527076,-0.01595771,0.02724543,0.02078927,-0.04359024,-0.00818821,-0.01494851
-0.04589443,-0.04665385,-0.04910020,-0.03030839,-0.00999245,-0.00397614,-0.05789223,-0.02920280,-0.03547889
0.01657820,-0.01543474,0.03359557,0.00266331,0.03424625,0.01872248,-0.06619666,0.03456173,-0.00196594
-0.00989085,-0.04823377,-0.01855305,-0.03401848,-0.00195326,-0.03367007,-0.01176022,-0.02647444,-0.01470050
-0.02367978,0.01139041,-0.01531802,0.03089681,0.01389709,-0.00735658,0.03036682,0.00467877,-0.00141153
0.01733395,0.01198999,-0.05021959,-0.03351009,0.03466257,-0.04004075,0.03626128,0.04070547,-0.04041424
-0.00257827,0.00305645,-0.00847082,-0.03542608,0.00090152,-0.01042664,-0.02024564,-0.00790902,-0.00610900
-0.03376023,-0.00605134,-0.03560150,-0.02564168,-0.00975531,-0.01157959,-0.03532790,0.03588312,-0.04624176
-0.01770209,-0.01147919,-0.01107723,-0.01360175,0.02308859,-0.01287960,-0.01122714,0.01629619,0.01387814
-0.02717465,0.05072447,0.04049097,0.00467385,0.00904429,0.01790641,0.00978847,0.01894190,-0.00329584
-0.01868647,0.01184803,-0.02419119,0.01171931,0.04091861,0.00106040,-0.01766001,-0.01323358,-0.02856305
-0.02088873,-0.00763781,-0.01042960,0.01606153,-0.00196114,-0.01243069,-0.03401300,-0.02627949,-0.04353788
0.00501736,0.02336806,0.01740582,-0.04480426,-0.06283779,-0.00491353,-0.02210751,-0.00527146,0.01906584
0.01537209,-0.01531374,0.04982784,0.04778295,0.02687768,-0.03149051,0.01159290,-0.02707753,-0.00704820
0.02876848,0.02601952,-0.01975193,0.03946536,0.02534213,0.01550069,-0.06478003,-0.00802273,-0.05320166
-0.01992226,0.00853674,0.03645567,-0.05229484,0.00458237,0.04092804,-0.06005498,-0.03663238,0.01150617
0.03115865,0.01862695,0.00912135,-0.00057706,-0.00508265,0.01374552,0.02816579,0.00003590,-0.01862064
-0.04223507,0.00042279,-0.00698724,-0.02231811,0.01038640,-0.02313419,-0.03792016,-0.01054939,-0.02997241
-0.00292301,0.00461881,-0.00015502,-0.00246577,-0.00169765,0.00307850,0.00382521,0.00072189,0.00396740
-0.02941364,0.02638279,-0.00859884,0.02879068,0.05592915,-0.04901275,-0.01031957,0.03702420,-0.04875365
0.00638943,-0.00032246,0.03305626,-0.02315430,-0.02509483,0.00573017,-0.01333773,-0.00772063,-0.00456455
-0.01453258,0.00617247,0.00092079,-0.00721115,-0.00205843,-0.03855375,-0.00302216,0.02560010,-0.01793367
-0.01612145,-0.05220819,-0.07147332,0.00300200,-0.00412596,-0.02850885,0.01359508,-0.00034638,-0.04780308
-0.00485840,0.00149819,-0.05408780,-0.00529245,0.04060212,-0.02110268,0.01465678,0.06900993,0.05181368
0.00067403,-0.03860473,-0.09116153,0.02260191,0.02958506,0.01255222,0.00750249,0.05075460,0.02150696
-0.01613262,-0.01502606,-0.02830581,-0.00774814,0.03322069,0.01745786,0.01769192,0.01329268,-0.02019959
0.01050853,0.01341742,-0.04162402,0.01372656,0.01394052,-0.01646302,0.01630969,-0.03030386,0.01556892
-0.01027298,0.02794293,-0.03713532,0.02702777,0.04627157,0.05802643,-0.01948525,0.01257795,-0.00831917
-0.00798158,0.02042807,0.00786912,-0.00849674,-0.02153102,0.01543302,-0.02132325,-0.00262433,-0.02778515
-0.01994689,-0.03320984,-0.03232046,-0.01860668,-0.02033778,-0.00550726,0.01890300,0.03311910,-0.00103604
-0.00640395,-0.05010009,-0.00316761,0.02201797,0.02573942,-0.00284036,0.04648715,0.02270052,0.00749600
0.00373534,0.01417366,-0.04149568,0.02499580,0.01314780,0.02559096,0.01595701,-0.01205591,-0.01304006
0.04788443,0.05497202,0.04510628,-0.03936787,-0.01272712,0.03046466,-0.01250711,-0.01069561,0.04147053
-0.01681244,-0.02968208,-0.05828081,0.02537424,0.02650995,0.05321567,-0.05407215,-0.03475391,-0.05409111
0.00023093,-0.03150002,-0.02186631,0.00832403,-0.01393675,0.03824057,0.05213685,0.00974787,-0.01538362
-0.02911504,0.01131663,0.01940685,0.00730657,0.02788848,0.01954597,-0.02730806,-0.01483037,-0.00576455
0.02114734,0.03971938,-0.02945202,-0.00786550,0.03123358,-0.00235696,0.01087653,0.07371215,-0.00162044
0.00040246,0.00257670,0.00072697,0.00428743,0.00284714,0.00119258,-0.00182279,0.00405849,-0.00240738
-0.06257137,0.00502859,0.00032116,-0.01630595,0.01036184,0.00613238,-0.02687650,-0.00837474,-0.01428175
-0.05542288,-0.01395380,0.01892192,-0.04566834,-0.01603948,0.00456138,0.04327485,-0.01941607,-0.03868459
0.05364734,0.01299535,-0.00254922,0.03327564,-0.00885855,0.00472707,0.04472332,0.04411295,-0.00752561
-0.01108380,-0.00241511,0.01726527,-0.01013542,-0.00241261,-0.00298752,-0.03907207,0.01680009,0.01187381
0.01486667,0.01654423,-0.00321864,-0.00332587,-0.02964835,-0.04221077,-0.05069704,-0.04080608,-0.00455348
-0.00062248,-0.01353668,0.01063306,0.04804310,-0.02676652,-0.02677340,-0.04230948,-0.01769448,0.01347628
0.01121156,0.01224346,0.06007743,-0.02669899,0.00812920,0.02216450,0.00295375,-0.01729730,0.01413817
0.01226225,-0.01169518,0.05829573,0.06710123,0.01596122,0.04656965,0.02486417,0.01251602,0.00348568
-0.00614196,-0.01455355,-0.01952302,0.01666537,0.02945348,-0.02919725,-0.00959089,0.04660415,0.00803578
-0.04070011,-0.00627053,0.01073988,-0.02879669,0.00165649,0.04387314,0.01087846,0.01452694,-0.05651464
0.00005174,0.03451955,0.01614821,-0.01752500,0.02488842,-0.02784784,0.03520099,0.01714149,-0.02419027
-0.02491898,0.04911795,-0.06785946,-0.02129059,0.03170899,-0.01463891,-0.02693033,0.01193227,0.00887559
-0.03569569,-0.05219536,-0.00932086,0.02987106,0.04858235,0.05708757,0.02401941,-0.01976993,0.04300444
0.00320668,0.00369310,-0.00928232,0.00211429,0.00283015,0.02278329,-0.02394195,0.00046287,0.01334866
-0.03913618,-0.02534142,-0.02591347,0.03107457,0.02563930,0.00082133,0.02844001,-0.01373519,0.00799637
0.07639308,0.01910953,0.05464793,0.03187812,-0.01269727,0.08194882,0.02126503,-0.02404423,0.09038336
0.00022438,-0.00146941,-0.00531884,0.00417972,0.00283498,0.02528239,0.03243072,0.04298203,0.04143176
0.00980257,0.02389757,-0.03140634,0.03170283,0.04059952,0.06764791,-0.00287385,-0.00045225,0.02467621
-0.03793303,0.01478995,0.03366930,-0.02017266,0.01166228,0.01155384,0.02495600,0.01471363,0.01682404
-0.02380243,-0.00514760,0.02080354,-0.00498454,-0.01423885,0.03584141,-0.00421310,0.02285364,0.02582138
0.00762352,-0.00794975,-0.03361702,0.01517779,-0.03208329,0.03714325,0.00336460,-0.00442323,0.04724865
-0.01550261,0.01443105,0.02459369,0.01826815,0.01239482,0.01337826,0.01585317,0.04574857,-0.00621710
-0.03706923,-0.06079872,-0.05473917,-0.01076785,-0.00432199,-0.03585612,0.00191732,0.00726678,-0.00953975
-0.04709738,-0.01805354,-0.01327304,-0.01060933,0.00588052,0.00162101,-0.03585580,0.01686431,-0.03557463
-0.05361071,-0.06015713,-0.01451386,-0.02788469,-0.01108836,-0.01038873,-0.01592884,0.04036186,0.00379525
0.01253600,-0.01008722,-0.04876630,-0.02153495,-0.01482518,-0.07391145,0.00180235,-0.02113846,-0.02929240
0.00770665,-0.00022303,-0.00843896,-0.02090049,-0.02976955,-0.00550502,-0.06406424,-0.04480426,-0.00101445
-0.03429756,-0.00431005,-0.04635670,-0.06073089,0.02330125,-0.00931240,0.00642880,0.02896833,-0.08096634
-0.02190805,0.00486304,0.08293763,-0.01198685,-0.03090918,-0.01906819,0.04296202,-0.04750102,-0.02076520
-0.01484919,0.03374857,-0.04739785,-0.06239146,0.01035478,-0.01658072,-0.03113672,-0.02902791,-0.01108125
0.03806721,0.01608557,-0.00506800,0.00610682,0.04954198,-0.04431373,-0.00446827,0.05688069,0.02171602
0.01182049,0.01615639,-0.01677717,-0.02602280,0.03919238,-0.04097726,-0.01971370,0.02901129,-0.03122754
-0.04465435,-0.02058223,0.00803829,-0.04297880,-0.01240803,0.01096340,-0.01034087,-0.00141178,0.00296056
-0.00312527,-0.00929454,-0.08477785,-0.04750982,0.00640759,-0.07508341,-0.05226867,-0.00197313,-0.03581616
-0.05009967,-0.04879752,-0.00373622,-0.02501731,-0.01266682,0.00208231,-0.04856414,-0.03203874,0.01110799
-0.02488763,-0.02695233,-0.02983079,-0.01352557,-0.00688349,-0.08540697,-0.04089003,-0.05672751,-0.06123209
-0.00915143,0.03619885,0.00054538,-0.00021523,0.00231076,-0.05938919,0.01973671,0.00250106,-0.09176510
0.03290515,-0.03722718,-0.01732434,-0.01059882,-0.06519745,-0.07982144,0.03085134,0.00106072,-0.06491839
0.04759975,-0.00329548,0.02166265,0.06097231,-0.04212912,0.00212382,0.03832894,-0.02001465,0.02697358
-0.02631559,-0.01669761,0.01898042,-0.02440243,-0.06074380,-0.05892412,0.00050917,-0.03017582,0.03599070
0.00438641,0.00422013,0.01416239,0.02763234,-0.00848389,-0.04146256,0.00605391,-0.01418570,-0.02677540
0.00133151,0.03279319,-0.00898431,-0.01998552,-0.00757820,-0.03095187,-0.01705756,-0.02252067,-0.04099110
-0.04234038,-0.05623217,-0.05425491,0.01333977,-0.04282596,-0.01591812,0.02053573,-0.02067882,0.00242031
-0.03095726,-0.01335840,-0.00561346,-0.00697466,0.00649072,-0.02408724,0.00304727,0.04745385,0.00522776
0.00415814,0.00413339,0.00544468,0.00083037,0.00202639,0.00459919,-0.00027917,0.00534323,0.00081315
0.00015696,-0.02014208,-0.10815341,-0.00938724,-0.02866459,-0.06079153,-0.05938170,-0.05601478,0.03006303
-0.01217826,-0.07100676,-0.01594675,0.01600969,-0.01800865,-0.00828269,-0.03569712,-0.06917582,-0.01709410
0.02376541,-0.00736707,0.03961961,0.02086690,-0.01384954,-0.00534839,0.02142599,0.05311185,-0.00904536
-0.05061686,-0.05768120,-0.05606825,-0.03939436,-0.03803224,-0.05507652,-0.04570621,-0.02522290,-0.02110224
0.00210563,-0.00094224,-0.04429485,0.01405620,0.01519927,0.00077941,-0.07258435,-0.12991013,-0.04419233
-0.03295156,-0.01786732,0.03597329,0.01099851,0.01572779,-0.04059476,0.04405345,0.03980651,-0.05061106
-0.05282512,0.02043128,-0.06112324,-0.01038661,0.01438067,-0.00285148,-0.01181686,-0.01403934,-0.03021515
-0.00562181,0.00075115,-0.03702927,0.02051695,-0.00034319,-0.03036431,-0.01238656,0.01721824,0.07115807
0.00926443,0.03372990,0.08060684,-0.02197862,-0.02598153,0.05930384,0.00866315,0.00821493,0.03564405
-0.05801534,0.02379369,0.03484968,-0.02470885,-0.00450711,-0.02707287,0.01659927,0.02460080,-0.00173827
-0.03432600,-0.05559416,0.00185369,-0.02138820,-0.04717195,0.00694912,0.05343245,0.00748250,0.00867279
0.01345509,0.12898238,0.01114146,0.03196536,0.07450617,-0.00432933,0.00991527,0.01679062,0.00042438
-0.00532526,-0.05269673,-0.01305488,-0.01283746,0.00228641,0.01720251,-0.00810736,0.02158088,0.03450105
-0.04286576,0.03914791,-0.02431021,-0.02507936,0.02008335,-0.00821634,-0.01206089,-0.01534531,0.00644728
-0.01832252,-0.05623127,-0.10397808,-0.02546690,-0.01853720,-0.05596192,-0.02983725,0.05519287,-0.03600743
0.03971305,0.04425192,0.00004406,0.00126151,0.02726766,-0.00830614,-0.01756859,0.01828170,0.02073960
0.00077415,-0.03218977,-0.06349412,0.01315970,-0.04961958,-0.04185015,0.01420470,-0.05181303,-0.03996632
-0.00955699,0.01617594,0.01715972,0.01796206,0.03341394,-0.02743948,-0.01594630,-0.00181944,-0.02562830
0.00023804,0.00244053,0.00731011,-0.00701315,0.00230371,-0.00265638,0.00202953,0.00339885,-0.00303552
0.00057281,0.01267978,0.03797733,-0.00107559,0.02545775,0.02229608,0.04030575,0.00057305,-0.00704009
-0.01143268,0.00577108,-0.03982366,0.01663066,0.03930800,0.00905708,-0.02917538,0.00922131,-0.01899192
-0.01802342,0.02210303,0.04552254,0.02062675,0.00015751,-0.04024370,-0.03562891,-0.04374842,-0.04680788
-0.02682245,-0.02964951,-0.00026805,-0.06076328,-0.02704496,-0.03368119,-0.03694880,-0.04285929,0.00331699
0.05270743,0.02703163,0.05583511,0.02975838,0.00875305,-0.00380945,0.11696666,0.01344146,-0.02033325
0.00025846,-0.02080589,-0.00526092,-0.00009596,0.03587243,0.01374520,-0.03065994,0.00504838,0.06470067
-0.02824761,0.01271951,0.01460139,0.00012855,0.05324867,0.08122654,-0.00240723,0.00203796,-0.00241176
-0.01130963,0.04799422,-0.01790600,0.00547359,0.00439943,-0.02325416,0.03826022,0.05347347,-0.02702523
-0.01529776,0.01261422,-0.03701268,0.00947933,0.01550298,-0.04114743,0.00377651,-0.00158887,-0.04901722
-0.01369079,-0.03083709,-0.02715642,-0.02607797,-0.03877703,0.01224907,0.06394202,-0.02914692,-0.02963777
-0.00691951,-0.01672422,-0.05105483,0.02598876,0.02375047,-0.04097801,-0.09159756,-0.06317035,-0.01489850
0.07238006,-0.00397111,0.00172792,-0.02321050,-0.00287552,0.03789805,0.03085530,-0.00202623,-0.01334557
-0.02793534,-0.03883734,-0.02020507,-0.00008483,0.01146167,-0.02574795,-0.02610638,-0.00937257,-0.05514784
-0.10158247,-0.05415070,-0.00088494,0.00903221,0.02379034,-0.02861350,-0.05552091,-0.04784257,-0.01566653
-0.02801103,-0.03716115,-0.03529835,-0.02797848,-0.03161339,-0.05068206,-0.05200323,-0.04843403,-0.01855008
-0.02407018,0.00617545,-0.00789770,-0.01191996,-0.00511254,-0.02190910,-0.00539412,-0.02696353,-0.02206303
-0.02569430,0.02641158,0.02890994,0.01437807,0.04869745,-0.01043101,-0.02388008,-0.02228286,-0.08582164
0.00892820,0.02411574,0.00556413,0.02114234,0.00742470,-0.05440986,-0.09320302,-0.05456280,-0.08297418
0.02277741,-0.03560616,-0.05965717,0.02154024,-0.00307083,0.02747237,0.03529016,0.01781648,0.01319093
-0.01309430,-0.00531474,0.04700370,-0.01149813,-0.00682319,-0.01613860,-0.06314266,-0.02362769,0.00945164
-0.00908106,0.02227428,0.04861863,-0.02955674,0.01807038,0.01678329,-0.04660218,0.04221062,-0.00929159
-0.00701087,-0.02473019,0.01785218,0.04443815,-0.00576037,0.03019952,-0.01736456,-0.00281108,0.00297957
0.12018670,-0.01895478,-0.07338976,0.12486412,0.06064708,0.02166860,-0.06666044,-0.04051916,-0.02089811
0.01806299,-0.00696133,0.05355861,0.02829916,-0.02440219,-0.02833811,0.03497260,0.02431626,-0.02673337
-0.07953794,-0.06049349,-0.02524287,-0.05289604,0.00103653,0.00702080,-0.05904225,-0.01584657,-0.03227047
-0.00471286,-0.00828157,-0.01709758,-0.00292920,-0.02809169,-0.03800705,0.00297322,0.01310683,-0.01704784
-0.10306477,-0.08481125,-0.02092713,-0.06924336,0.00167508,0.03060751,-0.05850026,-0.00260584,0.00249859
0.04726611,-0.04216919,-0.15481254,0.05974590,-0.00699957,-0.10068303,0.00216093,0.00914266,-0.02135616
0.14576258,0.16980468,0.10263813,-0.08206607,-0.10515483,-0.07417093,-0.09611283,-0.10186888,-0.04419109
0.01862630,0.00974778,-0.01194079,-0.07991000,-0.04094863,-0.00399387,-0.09755232,-0.06046837,-0.00244814
-0.05910344,-0.01801766,-0.06259876,-0.06887877,-0.00357727,0.01204731,-0.01850558,-0.06190458,-0.01606244
-0.02664974,0.00415473,-0.00831049,-0.02469194,-0.03345877,-0.00840635,-0.04955655,-0.08270127,-0.05902201
-0.03548850,-0.01552671,0.02353476,0.00167359,0.01009709,0.03248971,-0.02606188,-0.00712039,-0.04844157
-0.03574174,-0.03815251,-0.00778218,-0.06995306,-0.05005665,-0.00571679,-0.09769657,-0.00800904,0.01867767
0.00338602,-0.00590089,0.01057170,-0.02637686,0.00037929,0.01090416,0.03295627,0.01802151,0.04335737
0.02695235,-0.01851852,-0.01791810,-0.06343839,-0.07568181,-0.07066862,-0.01920390,-0.04882539,0.03030017
0.02333197,-0.00577016,0.01915743,-0.02381610,-0.03971123,-0.03619944,-0.01548310,-0.03444849,-0.01481419
-0.05281321,-0.03169878,-0.05689054,0.04017427,0.05510468,0.05403770,0.01059842,0.05223408,-0.03851468
0.03193425,-0.01827230,-0.02905620,0.03557635,0.00604074,-0.04698709,-0.02948739,-0.01627515,-0.02050656
-0.03215054,-0.04061464,-0.06004855,-0.07629383,-0.07584401,0.01798529,-0.00475083,-0.00368837,0.04372228
-0.10163955,-0.10731667,-0.07104479,-0.05133129,-0.06696027,-0.06028385,-0.02090747,-0.00474503,-0.01172595
0.09343555,0.09973856,0.03926880,0.01266298,-0.03520786,-0.01127242,-0.02115559,-0.02879339,-0.00453212
-0.04882841,-0.05346372,-0.05294716,-0.06249001,-0.03826617,-0.01441154,-0.03649534,0.00589903,0.01377330
-0.03286932,-0.05023657,-0.05766828,-0.05208827,-0.05085175,-0.04226283,-0.02385615,0.00284330,0.01402397
0.00086098,-0.00251831,0.00427216,0.00104356,0.01140416,0.00312325,0.00430434,0.00059469,0.00176190
-0.01140067,-0.01138820,-0.04200872,-0.06676278,-0.02903131,-0.07298264,-0.00656620,-0.01409189,-0.07135734
0.03983889,-0.00853786,0.01928288,-0.02499815,-0.01209545,0.01557535,-0.00756808,-0.00448487,0.02018097
-0.00476331,0.02440881,-0.04188304,-0.02851600,-0.02465269,-0.00330168,-0.02713843,-0.08447266,-0.02873169
0.00712991,0.01702002,0.04403378,-0.00312193,0.01549777,-0.00015141,0.04611419,0.00255976,-0.03581973
-0.02166695,-0.02340395,-0.10459916,-0.04401610,-0.03925588,-0.12251082,-0.09175286,-0.12801328,-0.15577711
-0.00915384,-0.02391037,-0.01750270,-0.06790033,-0.05578953,-0.07140583,-0.08109342,-0.10342351,-0.09365448
-0.02624400,-0.11680996,-0.17939501,-0.05294467,-0.05303526,-0.08284473,-0.04199910,-0.04528289,-0.03149864
-0.08843257,-0.05330287,-0.00594972,-0.05394132,-0.00285610,0.04743827,-0.02925341,0.00742601,0.04555196
0.00628938,0.06472028,0.11367735,-0.01017380,0.03605093,0.11615419,0.00705873,0.01296963,0.03638829
-0.01148417,-0.00733113,0.01351559,0.01260270,0.00031499,-0.03154552,-0.02331688,-0.02064107,-0.03648513
-0.02919713,-0.04281165,-0.02952433,-0.02795338,-0.03238893,-0.02502519,0.03431247,0.00400105,-0.02008413
-0.06110466,-0.02482489,-0.00909215,-0.07996900,-0.03150186,-0.04731240,-0.03849563,-0.05720771,0.00177320
0.01770489,0.02625686,0.02105914,0.01480445,0.01809424,0.01785764,-0.00272641,0.02781330,0.01195689
0.11362816,0.08478029,0.00285597,0.01280198,0.01763049,-0.05579355,-0.01317078,-0.05102709,-0.03756711
0.00523422,-0.00284938,-0.01034456,-0.02027858,-0.03004267,-0.01663121,-0.02848815,-0.01420079,-0.01078396
-0.01293445,-0.07104575,0.00367374,-0.01218821,0.12425906,-0.02386396,0.01624769,-0.04402302,-0.04150799
-0.05189734,0.00191714,0.00629699,-0.08016118,-0.04828129,-0.05232783,-0.04811003,-0.05815434,-0.04496321
-0.07774699,-0.04534265,0.00741268,-0.06372184,-0.00990551,0.03899373,-0.02124890,-0.01375521,0.03012773
-0.00223830,-0.00476870,0.00002368,-0.00003062,-0.00520706,-0.00631798,-0.00060676,-0.00150709,-0.00463115
0.05582235,-0.00456775,-0.03009383,0.08322318,-0.00309775,-0.05587666,-0.00580856,-0.04184800,-0.03239348
0.09467310,0.12279598,0.07026637,-0.02562904,0.02584346,0.03973990,0.01697153,0.01856685,0.01926002
-0.13100854,-0.08515092,-0.07519521,-0.11969615,-0.08907931,-0.04694298,-0.06798113,-0.06031500,-0.05323346
-0.11104110,-0.03270909,-0.02089644,-0.10544302,-0.05063818,-0.02380697,-0.02415129,-0.02287136,0.00370645
0.05197009,0.00128575,-0.02740425,-0.02934064,-0.03655617,-0.01706313,-0.04463219,-0.05608796,-0.02830188
-0.07633901,-0.03820552,0.00094787,-0.05052173,0.02658008,0.01809381,-0.05970937,0.05622979,-0.02627134
0.01131314,0.03209127,0.02267759,-0.00243160,0.00331500,0.00539662,-0.00930691,0.00622526,0.03571909
0.02515152,0.00390422,-0.06669804,-0.01083127,-0.02393829,-0.03444077,-0.02167446,-0.03137942,-0.03829730
-0.02532165,-0.03144836,0.02325126,-0.07690999,-0.09909773,-0.01812833,-0.00401649,-0.05188828,0.00750487
-0.04936039,-0.08820952,-0.08072642,-0.05310768,-0.05548279,-0.03518811,-0.01818554,-0.05364884,-0.06307113
0.03178455,0.01329038,0.01334722,-0.06434546,-0.04782785,-0.05967700,-0.03314085,-0.04394808,-0.02436822
0.04011060,0.04323422,-0.05700061,-0.00337353,-0.01303918,-0.00929447,-0.01986176,0.00889065,-0.01875194
0.06897952,0.05409364,-0.01683396,0.05442581,-0.02063318,-0.03675045,0.03950076,0.04387926,0.01417782
0.00979311,-0.09614821,-0.07199614,-0.03780900,-0.07785749,-0.03709629,0.00620018,-0.01018006,-0.01958751
-0.11419129,-0.07866371,-0.02908028,-0.17155762,-0.09044015,-0.04915885,-0.06211874,-0.02604849,-0.01701973
-0.04327134,-0.05027418,0.00125137,0.01362953,-0.02456545,0.03429805,0.03115172,0.00737985,0.00537178
-0.05774247,-0.02565478,0.00386641,-0.06535268,-0.03591601,-0.01172083,-0.07774756,-0.08559371,-0.04826220
-0.05941295,-0.00393893,0.06098880,-0.08245539,-0.05270889,-0.00316037,-0.16732731,-0.07005636,-0.07644439
0.00209817,-0.12640896,-0.06097347,-0.07702693,-0.08645423,-0.02847745,0.00179378,0.00851875,-0.03534817
-0.02786360,-0.00764356,0.03178883,-0.01583010,0.01626166,0.01812077,-0.00837151,0.02035679,0.01259916
-0.07729549,-0.00257138,0.09130497,0.00105683,0.03414183,-0.00738681,0.05658096,-0.00935957,-0.10619382
0.03776673,-0.01103220,0.06090213,-0.01016698,-0.02870395,0.00589852,-0.00381003,-0.03548841,-0.01243157
-0.03868123,-0.07241394,-0.10443204,0.01784780,-0.01035153,-0.07717615,-0.01693607,-0.01259770,-0.02318629
-0.02075803,0.01161637,0.00669705,-0.00923397,0.08854182,0.03666631,-0.01026893,0.02998956,-0.00329689
0.00838623,-0.02875108,-0.02734892,-0.00541884,-0.01915763,-0.00255426,-0.01431962,-0.02880226,-0.00628150
-0.05342882,0.01728459,0.01015030,-0.03659482,0.02147546,0.01771424,-0.03318395,0.01522212,0.02813675
-0.08064134,-0.02124883,0.00903369,-0.07701360,-0.03876670,0.02529395,-0.01022357,0.02012700,0.04185498
0.00744296,-0.01368454,-0.01216073,0.01333816,-0.03003431,-0.04385595,-0.00884591,0.00651747,-0.00302281
-0.01545006,0.02094854,0.11862451,0.03555955,0.02786392,0.01474992,0.04799837,0.03840020,-0.01578468
0.01158532,0.03343572,0.00860733,0.03885124,0.01737412,0.08952561,0.01794496,0.00674774,0.05407565
-0.00108416,-0.03430729,-0.09667630,0.01964420,0.01352314,-0.03664101,0.01696334,0.07369600,0.08750882
-0.06429319,-0.00833617,-0.01966758,-0.03413826,-0.04850664,-0.04380149,-0.04754771,-0.06102070,-0.07217184
-0.05221548,-0.01065524,-0.00731593,-0.04930190,-0.03324352,-0.02557219,-0.02602630,-0.00501881,0.00503928
0.03232773,0.02653294,-0.04926926,0.02014037,-0.01561617,-0.05994726,0.01007136,0.01469294,-0.00624831
0.02541056,0.04017673,0.01979570,0.01341539,0.00503417,0.01024963,-0.02398738,-0.00020252,-0.00505234
0.03323716,0.04108453,0.04582069,-0.00229519,-0.01754451,-0.03034770,-0.02851618,-0.03598355,-0.05854733
-0.05395633,-0.01299952,0.00518728,-0.04435979,-0.04620838,-0.03760242,0.02832682,-0.00290698,-0.03353443
-0.02216573,-0.12060128,-0.04564018,0.01970325,0.00298495,-0.02938383,0.04663805,0.01938029,-0.01202852
-0.02919450,-0.04360789,-0.02235730,-0.04811090,-0.05119749,-0.03396153,0.01435807,-0.05552242,-0.01361488
0.00857785,0.00194684,-0.06186153,-0.04662594,-0.06241633,-0.05416273,-0.01624338,-0.00621579,0.06625181
-0.03075788,-0.00772656,-0.00559788,-0.01066346,-0.02317395,-0.00179386,0.00559898,0.02661191,0.04384245
0.02922062,0.05253114,0.06427528,-0.00231896,-0.01552673,0.02166618,-0.00982768,-0.01421768,0.00392977
-0.03941831,-0.01384826,-0.03840991,-0.01576174,-0.00854297,-0.02588337,-0.00490102,0.00872156,0.01567731
0.00928793,-0.01759020,-0.01703371,0.07126220,0.01996213,-0.00645189,0.05345215,0.03260513,0.01031666
0.00141682,-0.00589720,-0.00328250,-0.00372094,-0.00219336,0.00000568,-0.00263226,0.00128401,-0.00238908
-0.02800871,0.03952936,0.04222207,0.02117005,0.04249598,-0.00877720,0.00901571,0.00564244,-0.05400222
-0.02956591,-0.01889784,0.03542379,0.00698920,-0.01015972,0.02667561,0.01059109,0.00744586,0.01156700
-0.01068347,0.03077778,0.04453051,-0.02183502,0.03848340,0.08314931,-0.02205167,0.00087867,0.03598350
-0.01576720,0.00644013,0.02707345,-0.01921077,0.00411472,-0.01312544,0.01938580,0.02381186,0.00022119
0.00456479,-0.00594832,-0.04864026,-0.00233717,-0.00584208,-0.03886759,-0.00463902,-0.00365522,-0.03510008
0.00465163,-0.06276858,-0.04548223,-0.01427133,-0.05712379,-0.04051013,-0.00262062,-0.03595176,-0.10133741
-0.03528123,-0.00330392,-0.08181965,0.07362007,0.02303704,-0.06327696,-0.02429176,-0.00613569,-0.08132027
-0.06792174,-0.08635253,-0.05939563,-0.10019048,-0.06631777,-0.01983610,-0.07101838,-0.03345936,0.05583035
-0.01765916,0.00089936,0.00240488,-0.02842359,-0.04500679,0.03130551,-0.02327339,-0.02819498,0.03042861
0.00930318,-0.01265811,0.00616140,-0.04895569,-0.08847588,-0.06449274,0.02177511,-0.04366885,-0.05496103
-0.01392194,-0.02229438,-0.01141186,-0.01670550,-0.01751405,0.00205269,0.01701565,0.03811767,0.02328010
0.09191826,0.03246944,0.00875112,0.07123555,0.02381638,0.00915816,0.07744201,0.03303595,-0.01299355
-0.02307420,-0.01913752,0.04461385,-0.01949090,-0.02535737,0.02369426,-0.01826865,0.00038331,0.00762817
0.02347090,0.00776620,-0.02903576,-0.03883078,-0.03507772,-0.02410540,-0.00520898,-0.03363362,-0.06293796
-0.03147735,-0.06822658,-0.09958018,0.02330394,-0.00678636,-0.03238964,-0.03306700,-0.04038436,-0.06509966
-0.04196876,-0.05950033,0.01530559,-0.01215997,-0.03030318,0.09987955,0.05121138,0.05327281,0.06351347
-0.02713303,-0.00328500,0.04561749,0.02350559,-0.00346316,0.04981924,0.00602728,-0.00451755,0.03670464
0.00702885,-0.05834410,-0.07960975,0.00868994,-0.04602958,0.00864427,0.01628139,-0.03405029,0.00922749
0.00198202,0.00194091,-0.00532244,0.00014955,0.00368489,-0.00000956,0.00538399,0.00133269,0.00301151
0.01513580,0.04295634,-0.01399435,0.02172031,0.02949263,-0.00253507,0.04597216,0.01170876,-0.02112454
-0.05479048,0.10721357,0.07094426,-0.05923217,0.05049033,0.04793691,-0.04906593,0.00303628,-0.01605480
-0.06107532,-0.00953895,0.03383115,-0.01837746,-0.02833177,0.04301872,-0.04570742,-0.02929372,-0.03016946
0.03958415,-0.02203633,0.01749417,-0.03393766,-0.05563446,-0.01273829,0.00129762,-0.03867397,0.01880540
0.07183643,0.04089013,-0.01773087,0.05823977,0.00888213,-0.03617960,0.01437523,-0.04418128,-0.03684419
-0.07271484,-0.02177219,-0.01542003,-0.02388064,-0.05687645,0.01257451,-0.02566380,-0.01366045,0.02459339
0.01155885,0.08396549,0.00966305,0.02491918,0.03271452,-0.00906037,0.00325275,0.00007686,-0.00940389
-0.03998722,-0.03619115,-0.07937739,0.01905626,0.02625155,-0.00558510,0.03929202,0.02183793,-0.02929835
0.03791261,-0.00477358,-0.01902015,0.05536366,0.01486077,-0.03847389,0.02853328,-0.02779697,-0.04423525
-0.00124491,0.02732892,0.02220960,-0.01235505,-0.00214957,0.01300217,-0.00439863,-0.02620199,-0.00947392
-0.00824533,0.00869878,-0.02623271,0.01579394,-0.02151671,-0.09531106,-0.01863169,-0.03850113,-0.08303616
0.06741157,-0.00656645,-0.02019831,0.05318523,0.02084742,0.01934227,0.00873466,-0.01547276,0.05995694
0.02237001,-0.01804566,-0.02244996,-0.01884008,0.00973982,-0.06733185,0.02631856,0.06418004,-0.03998404
-0.00385424,-0.00146268,-0.05566484,-0.02321587,0.02049008,-0.00734462,-0.02050657,0.01377746,0.03149999
0.02373786,-0.03141047,0.01184254,0.02031833,-0.01375693,0.02425632,-0.02118858,-0.00311068,-0.03146687
-0.00392847,0.03741542,0.00614201,0.04125772,0.04864344,0.05325969,-0.00423713,0.05200614,0.07168728
-0.04616766,0.03238394,0.03944996,-0.04455659,-0.03482046,0.01967349,-0.05583164,-0.06911302,-0.05002310
-0.03022737,0.00040941,-0.01447366,0.04412187,0.04133579,0.02338092,0.03141511,-0.01894625,-0.03535912
-0.10535006,-0.07993046,-0.04370324,-0.07923872,-0.08358869,-0.02318518,0.01491861,0.03951501,0.04131011
-0.03325408,0.04333559,0.04057271,-0.06323267,-0.00785430,0.04133754,-0.04956041,0.00683876,0.02571779
0.00837350,0.03578933,0.05375827,0.01463322,-0.01376995,0.00335786,0.03787903,0.03285592,-0.00735520
-0.02106116,-0.02265985,0.02604206,0.00242701,-0.01595384,0.00471395,-0.00534277,-0.05092273,-0.03686906
-0.04150528,0.03830872,0.05872520,-0.01974852,0.00638611,-0.00514583,0.04949998,0.00740851,-0.00726068
0.02075062,0.01036189,0.02022165,-0.01058480,-0.03633535,-0.01574432,-0.02213405,-0.02426333,-0.03917095
0.05099681,0.04611753,-0.01676529,-0.03100313,-0.04247887,-0.04475575,-0.00469159,-0.06746840,0.00014444
-0.00557568,0.02778442,0.00349824,-0.02483537,0.04273045,0.00856068,-0.02807196,-0.02164569,-0.00885710
-0.01372425,-0.02355228,-0.02993690,-0.00796762,-0.01196921,-0.00378125,0.01049288,-0.02281020,-0.05096886
-0.04881655,-0.01596547,-0.05204989,-0.00650428,-0.00159630,-0.02127459,-0.02156582,-0.05190533,-0.04622808
-0.04563622,-0.07811372,0.00299498,0.01899968,-0.00772706,-0.00402556,0.02810302,0.00332146,0.00723503
-0.01790164,-0.00098348,0.04097760,-0.06049722,0.00677794,0.01382133,0.02311390,0.02432030,0.00715779
0.01559028,0.01934752,-0.01120585,-0.03527981,-0.02406898,-0.00497810,0.01444899,0.02551625,0.02868462
0.01786126,0.00430090,-0.01885499,-0.04762780,-0.00096664,-0.00850284,0.01979604,0.06251016,0.03672052
0.04985440,0.00561057,-0.00607254,-0.02659138,-0.01659138,-0.02889241,0.00156385,0.01113513,0.04520667
0.00166240,-0.00381958,-0.03463367,-0.01944931,0.00434858,0.04592701,-0.05860681,-0.01765817,-0.01567737
0.06368048,0.04147433,0.02571153,0.05271428,0.04971906,0.03542973,0.01019588,0.00249632,-0.00790983
0.01610094,0.00359924,-0.00206975,-0.01575064,-0.01001970,0.03624369,-0.05992373,-0.04334584,-0.00891543
0.00353821,-0.01643089,-0.04712664,0.05372871,0.07438277,0.04448860,-0.05410456,0.00736779,-0.02030351
-0.03338096,-0.03883468,-0.00328309,-0.02815527,-0.01541464,0.04083110,0.01057252,0.04987639,0.06143738
-0.02847753,0.01255600,0.01238502,0.03467625,0.03466778,-0.00042267,-0.00714132,-0.00986964,-0.02697979
-0.01424461,0.02367224,0.04983457,0.02463648,0.04110635,0.02752844,-0.02775061,-0.01148609,-0.04390876
-0.00263545,0.01867992,0.01897038,-0.01460429,-0.02659465,-0.04375359,0.03755403,-0.02190550,-0.01603944
-0.05668459,-0.05219200,0.00481370,-0.00467408,-0.02044378,-0.00901937,0.03082637,0.00102210,-0.01318828
0.01381545,0.04584600,-0.01245708,-0.01685781,-0.01306439,-0.00592628,0.02294686,0.01942709,-0.00184420
0.07505033,0.05226815,-0.01609812,0.00527513,0.01748249,0.00222857,-0.01737938,0.00298640,0.00499663
0.00154923,0.00511893,-0.00236753,-0.00145166,0.00166154,0.00280111,-0.00161329,-0.00246640,0.00122929
-0.06971276,-0.06381484,-0.03471636,-0.01462364,-0.00303134,0.05002422,-0.01087478,-0.03000828,-0.00378227
-0.00282494,0.02054281,-0.00245330,0.02101200,0.04323045,0.01325544,0.06302176,0.02868014,0.02601065
-0.04177449,-0.01858356,-0.05626414,-0.05312299,-0.01584776,-0.01070781,-0.10574729,-0.08193182,-0.08648673
-0.02169984,-0.04825123,0.00041695,-0.01427440,-0.03082235,-0.02675001,0.01025783,-0.00832125,-0.01596892
-0.01619441,-0.00833127,-0.04033478,0.03100400,0.03431236,0.03053765,-0.02498729,-0.05246600,-0.09108822
-0.06114864,-0.07281032,-0.03343772,-0.00342525,-0.00860041,-0.04186485,-0.03729785,-0.00892791,0.00519500
0.00052416,0.02984999,0.03230777,-0.02765181,-0.01830726,-0.03648749,0.02424748,-0.02401645,-0.04375247
-0.04850651,-0.00528701,0.02083567,-0.00075795,-0.00787168,0.00112771,0.01899297,0.02268466,-0.00279587
-0.01446128,-0.00738910,-0.00898943,-0.04764066,-0.01377536,-0.03544588,-0.03153682,-0.04137800,-0.01299986
0.01586430,0.00133425,-0.02001326,0.01411767,-0.00926622,-0.02736877,0.01357108,-0.00837982,0.01606156
-0.02006041,0.01743977,-0.00571944,-0.00862486,0.00199645,0.01965893,0.03241222,-0.01242436,0.02436871
-0.04791853,-0.03690643,-0.03314989,0.00243183,-0.02191599,-0.01966652,-0.01510574,-0.02327498,0.00457936
-0.02167510,-0.03572908,-0.02860486,-0.00799031,-0.02555049,-0.05861474,0.04292510,-0.02435617,-0.01955714
-0.00541078,-0.01658582,-0.01338914,-0.01749565,-0.02878804,-0.00090674,0.02099284,-0.00349103,0.04101850
0.03702673,0.01669289,0.01726254,0.01422099,-0.02209706,0.07585035,-0.06329437,-0.05375420,-0.04256328
0.06750253,-0.02156593,-0.02778722,0.00109899,-0.01402255,-0.00506027,0.01159564,-0.00176217,-0.00180743
0.05510318,0.01137604,-0.03089890,0.10366896,0.09429026,0.00180247,0.02503275,0.00309533,-0.01385260
0.01666153,-0.02119678,-0.01201154,0.01069561,-0.02952967,-0.01111636,0.01429404,-0.01173542,0.02612793
0.00663079,0.00207539,0.00449137,0.00102222,0.00087162,0.00390709,0.00421109,0.00329040,0.00523519
0.01167434,-0.02017011,-0.04655828,0.02143293,0.04455117,0.00705820,-0.02156650,0.02570713,0.00724690
-0.03746795,-0.00052606,-0.00965597,-0.02208422,-0.04234513,-0.01335026,0.02430072,-0.02062964,-0.00250093
-0.04764479,-0.02584082,0.01172729,0.07825068,0.02162029,0.02537796,-0.00948309,-0.01129793,0.00144264
-0.01656178,0.01512073,0.03406464,-0.00947377,0.01709847,0.02043614,0.04149656,0.00140633,-0.02436674
0.01889241,0.01023663,-0.02036583,-0.00448494,-0.01923574,-0.00082311,-0.00701181,-0.03237424,0.00575183
-0.03834588,-0.03673366,-0.02654947,-0.03268448,-0.00804697,-0.01490164,-0.02636641,0.02991566,0.02863442
-0.00506187,-0.01642908,-0.00565544,-0.03212031,-0.01294883,-0.00939605,-0.01260701,-0.00203593,0.04390121
0.00168078,0.01038423,-0.01429947,-0.02088482,0.02154416,0.00549888,-0.03872256,-0.00224138,-0.01607008
-0.01023041,-0.03518944,0.05643921,-0.01329899,-0.01980002,0.01110503,-0.00328307,0.00499999,0.00305108
0.00620875,-0.04512617,-0.08782406,0.04202519,0.02710644,0.06231507,0.06869861,0.12669577,0.10532657
-0.00024392,0.02470603,-0.04646193,-0.05767817,-0.06937745,-0.06732995,-0.13603036,-0.16015708,-0.16500059
-0.02829294,-0.02829297,-0.04488131,0.01308570,0.00759350,-0.03304343,-0.04812710,-0.03430508,-0.02935754
-0.03616235,-0.02947306,-0.01275698,-0.03406492,-0.02650192,0.00008623,-0.07006606,-0.06273528,-0.05141517
0.02783932,0.04275861,0.04279232,-0.01051983,0.01856451,-0.03275323,-0.04174710,-0.03152277,-0.03046986
0.02498299,-0.01760861,0.03320531,-0.01635806,-0.02360197,-0.04680783,-0.02790583,0.00021948,0.00534862
0.01103556,0.00808729,0.03657790,-0.03950672,-0.06581560,-0.05471973,0.07805000,0.02093874,0.05317814
0.02966041,-0.02447080,-0.00840362,-0.00109386,-0.01715787,-0.01715117,0.01601277,0.01406237,0.00874440
-0.03509267,0.02751660,-0.04154463,0.00027801,-0.00524033,0.00124151,-0.06382128,-0.04506592,-0.00629589
0.00902005,0.02745351,-0.02260944,-0.01619869,-0.04995554,-0.01776495,0.00823325,-0.00011472,0.02257073
-0.00505079,0.03828021,0.02874183,-0.01585119,-0.01935376,-0.03516080,-0.01859576,-0.00552665,-0.07907257
0.03494874,-0.03603147,-0.01880058,0.03823614,0.02542611,0.00254018,0.00390760,-0.01261601,-0.02227038
0.00647214,0.00521291,0.03965062,-0.00412468,-0.00604419,0.06027177,0.02007456,-0.02087926,0.00881574
0.00270459,0.01896270,-0.01535928,0.04654680,0.00051169,0.03355194,0.01943177,0.01575473,0.00301247
0.02457671,0.07483226,0.05876307,-0.00539913,0.04487403,0.01207657,-0.01956290,0.05419238,-0.00067875
-0.01274018,-0.02365325,0.01725360,-0.00820878,0.03357847,-0.04193855,0.00615107,0.01429453,-0.06153047
0.00521703,-0.01642364,-0.01075073,0.00337508,-0.05521601,-0.05101947,-0.02597093,-0.03797309,-0.00134896
-0.00278335,-0.00428000,-0.04010619,0.03416940,-0.01241743,-0.02325576,0.00629324,-0.01473492,-0.03916954
0.02168095,-0.01161370,-0.01221106,0.01152619,-0.03992077,0.00926561,-0.03798083,-0.03682339,-0.00753196
-0.04411659,0.00193022,-0.00408524,-0.02748560,0.02455036,-0.02465388,-0.03713362,0.00499391,0.04513943
-0.01498134,-0.05650005,-0.00863140,0.02340938,0.04240736,0.00674934,-0.01179718,-0.01397816,-0.04654460
0.00512556,-0.01590534,-0.00618518,0.01879767,-0.00742490,-0.00305072,0.02458949,0.01128177,0.01137417
-0.00277682,-0.00909562,0.00634447,0.01443322,0.04088559,-0.01852432,-0.01864302,-0.01738369,-0.03339894
-0.04659424,-0.01002327,-0.02178692,-0.01628419,-0.00891550,-0.00224786,-0.00015721,-0.02411683,-0.00811436
-0.03695121,-0.02994286,0.04854898,-0.04486337,0.00534029,0.10387629,-0.03877546,0.01931296,0.10011020
-0.03208575,-0.01586010,-0.05525295,-0.02454406,0.04379648,0.00875873,-0.05355286,-0.04071957,-0.03107803
0.00022525,-0.01866616,-0.00702546,-0.00116551,0.00217066,0.02638317,0.04169831,-0.02778282,0.05732801
0.01294192,-0.05587326,-0.00928837,-0.01292065,-0.06165258,-0.00278225,-0.03796931,-0.04831909,0.01178985
-0.02762221,-0.04755969,-0.03409099,-0.07162168,0.02073867,0.03018969,-0.00412090,-0.01082185,0.01740461
0.02628797,0.01415545,-0.00210928,-0.00868728,0.05648999,-0.02519180,-0.00514823,-0.06828458,-0.03534872
0.00195822,0.01158520,-0.07131308,0.00022764,0.05394842,-0.03711931,-0.00937621,0.01270390,-0.03803848
-0.02282021,-0.03746903,-0.04671694,-0.09198249,0.02586448,-0.05008342,-0.02997510,-0.00700124,-0.04677797
-0.02530703,-0.02838966,-0.00859748,-0.00467639,-0.04863366,-0.01453980,0.00267878,-0.02218510,0.02103598
-0.00256575,-0.01515568,0.02003400,-0.00492801,0.03075812,0.01837192,-0.01525727,-0.01868248,-0.04717416
-0.03005532,-0.02938257,0.00736010,0.00534464,0.01445351,-0.02512793,-0.00373420,0.02956906,-0.01456334
0.00118380,-0.00062470,-0.00296234,-0.00394521,-0.00301784,-0.00773737,-0.00504758,-0.00144952,-0.00203671
-0.03005707,0.00589212,0.03387050,-0.05926050,0.04069490,0.02558570,-0.01950426,0.02500681,0.03324185
-0.00197172,0.01900268,0.01190216,-0.02738784,-0.00795967,-0.01172843,-0.01448304,-0.01059067,0.02359478
0.02881464,0.01809875,-0.04007316,0.02722470,-0.03817981,-0.06476404,0.03742156,-0.00093694,0.00372899
-0.01264972,0.05431322,0.05594953,-0.02855738,0.04647502,-0.00366750,-0.02554372,-0.03008792,-0.02633967
-0.04731383,-0.04356582,-0.06400443,-0.01966882,0.04569117,-0.00062535,-0.05509519,-0.00769738,-0.00432938
-0.00986566,0.00301792,-0.07114029,-0.05687240,0.03829838,-0.04389114,-0.00247966,-0.00314155,-0.01123380
-0.04701056,0.01886491,-0.00527822,0.00390841,-0.00362306,0.06062654,-0.00098545,0.00532696,-0.00091407
-0.00112966,0.01412041,-0.00432942,0.00757777,-0.03360087,-0.00824728,0.02767093,0.00324152,-0.00839442
-0.01185045,0.00560120,-0.02896633,-0.02155863,-0.00128917,-0.05615800,-0.01102250,-0.00220477,-0.02208873
-0.00107648,0.00148972,0.03170469,-0.00221041,-0.01263160,-0.02078412,-0.02016614,-0.02473970,0.03542152
-0.04987441,-0.03093580,-0.01762580,-0.02120258,-0.00730989,0.05710691,-0.03611596,-0.03987756,0.00141204
0.01584207,-0.00511855,0.02938836,0.00998882,-0.03679392,0.03889919,-0.03481554,0.00520450,0.03095059
0.00037628,0.00720511,0.02399161,-0.02558094,-0.00641611,0.03379035,-0.05728293,0.03154565,0.02228533
-0.00140722,-0.00091668,0.05835391,0.00637424,-0.06957034,0.00409398,-0.01505725,0.05856139,0.00725356
0.00799053,-0.05679642,0.07253104,-0.03567541,-0.06000156,0.07719280,0.04270384,-0.09158687,-0.02860148
0.03547587,-0.05249993,-0.00581873,0.02157297,-0.00786538,-0.00800093,0.00053852,-0.02839088,-0.00606040
-0.03575145,-0.03103590,-0.04142907,-0.03740167,0.02664315,-0.00377970,-0.07370174,0.00031456,-0.02326982
-0.03816451,-0.06477617,-0.05314336,-0.00948161,-0.02414737,-0.04283432,-0.05161273,-0.06607755,-0.05657649
0.00599090,0.00227089,-0.00357256,0.00451533,0.00673857,-0.00534841,0.00045020,-0.00303044,0.00166557
-0.04302021,0.01609279,-0.09116664,-0.00944035,0.03577725,-0.06889072,-0.02349327,0.03470214,-0.03599264
-0.04528800,0.00449423,0.03185744,-0.00843386,-0.03144040,-0.05557045,-0.01648897,-0.03970527,-0.01472294
-0.00444936,-0.04027121,-0.02053763,0.00932388,-0.05597792,-0.01234358,-0.00956009,0.02776763,-0.00067684
-0.00463060,-0.01626476,-0.01987073,-0.06584977,0.01863789,-0.00997420,-0.04684898,-0.01780041,-0.03503123
0.01247943,-0.02997206,0.00208992,-0.05706777,-0.05147557,0.00667888,0.02737403,-0.02972182,0.06550697
-0.01898582,-0.02113862,-0.00916628,0.00684617,0.03167251,-0.00597991,-0.06228792,-0.05093246,-0.02443176
-0.05614608,0.01235828,-0.04332696,0.01560792,0.00470797,-0.01878837,-0.03840270,-0.00331817,-0.00763627
0.01766252,0.04174187,0.00976149,0.05027422,0.02116754,0.01243438,-0.02646536,-0.01854673,-0.02610826
0.03902935,-0.00402854,0.00579739,0.03861367,0.03413581,-0.00530901,0.01334159,0.00387207,-0.05974681
-0.05357252,0.01515062,-0.06099675,-0.04524144,0.00321648,-0.03819560,-0.06957208,0.01849969,-0.01417557
0.01550800,0.02492256,0.00823130,0.01662316,0.02592420,0.02505094,0.02220636,0.08180036,0.16204850
-0.03026466,-0.00619244,0.00019587,-0.01139638,-0.00116369,-0.00793692,0.00631516,-0.01577476,-0.04906667
0.02739932,0.02920289,0.03651693,-0.02058639,-0.01068651,-0.02808142,-0.00128609,-0.02365877,0.00555107
-0.00165178,0.03499487,-0.04030509,0.01184777,0.02542360,0.01074234,-0.02505999,0.03980657,-0.05093758
-0.02307598,0.01576527,-0.03882412,0.02797176,0.02810536,-0.01847361,-0.04101786,0.01844602,-0.01819697
-0.04150848,0.00772543,-0.00568938,0.01615331,0.05382755,-0.01606630,0.01671257,0.02620018,-0.02639749
-0.00799851,-0.02617923,-0.00741906,-0.00739106,-0.01403428,0.03406498,-0.00937931,0.01165694,0.03675552
0.00296705,-0.02490767,0.01023316,-0.00738740,0.00351142,-0.01811222,-0.05261925,-0.03199168,-0.02058177
0.00664280,-0.03672447,-0.00483298,-0.00702005,-0.01926788,0.00126357,0.01041386,-0.03341544,-0.04376436
-0.03626621,-0.01185652,-0.01772778,-0.01630960,0.00665338,-0.02655314,-0.00829942,0.02341680,-0.00536897
-0.01141311,-0.01479548,0.02768601,0.02005186,-0.00463159,-0.03038331,0.01404229,-0.01507310,-0.03489094
0.00541052,0.00861169,0.01018580,0.02990725,0.00608588,-0.01932464,0.01952289,0.01958710,-0.00011181
-0.00147527,0.04654474,0.02567971,0.01692733,0.00482952,0.03246760,-0.13303703,-0.11410995,-0.05371967
-0.02228765,-0.02975162,0.00098885,-0.01975111,-0.00088064,-0.04675459,-0.00772576,0.01704869,-0.01483833
0.00007002,-0.00297423,-0.00620345,-0.04501799,0.00274019,-0.02711097,0.00222358,0.00790732,-0.04586230
-0.00105974,-0.04911404,0.01145135,-0.00801072,-0.02247542,0.00085772,-0.00739820,-0.01359602,0.00558173
0.02978423,-0.06035368,-0.03978518,0.05046488,-0.00218028,0.04201753,-0.02152828,-0.05355464,0.00207803
0.03108994,0.01173990,0.01205287,0.00117220,0.02797329,0.08127180,0.02462829,0.00606092,0.00705405
-0.09290201,-0.03128001,-0.02998724,-0.03361831,-0.03368121,-0.05842795,0.05093063,0.07907660,0.05727564
-0.00437649,-0.02419463,-0.00981245,-0.04151037,-0.00177174,0.00349039,-0.04523658,0.01957798,-0.02473746
0.00223069,-0.01375337,-0.04609187,-0.00984739,-0.02284267,-0.04968902,0.00121222,-0.02754875,-0.03209904
0.02129526,0.01023547,-0.03109393,-0.01355114,0.01307353,-0.02187032,0.02035735,0.03322501,-0.01897008
0.02966443,0.04217122,-0.00828293,0.03072798,0.02750858,0.00621829,0.00476597,0.00478646,0.02836378
0.00578576,0.01036673,-0.04388294,0.00795814,-0.01920085,-0.01268564,-0.04500075,-0.05569290,0.00643324
0.01452752,0.01454762,-0.00059580,0.00437418,-0.00372378,-0.02253111,0.00014538,0.01019590,0.02569210
0.02057656,0.03973097,0.02598204,0.01634753,-0.03083366,-0.02673570,-0.04019591,0.05562879,-0.00373839
0.00055666,0.00303965,0.01984295,0.00176212,-0.02079873,0.00384200,-0.03898608,-0.11255149,-0.10555442
-0.02634821,-0.00470412,-0.03763598,-0.00177353,-0.02893608,-0.00257579,0.02881684,-0.02190151,0.00206711
-0.00246283,0.00841867,-0.02987247,0.00135300,0.00876531,0.00880492,0.01297852,0.02922259,0.04722517
0.03793553,0.00914515,-0.02437368,-0.02722719,0.00820397,-0.03621205,0.07588974,0.01694563,0.03396830
0.00893190,-0.00003406,-0.00854827,0.00921797,-0.03614307,-0.02861501,0.02829049,0.00523916,0.01060868
0.02272491,0.03094524,0.01930200,-0.00336590,-0.04442947,-0.02156786,-0.07978638,-0.04857037,-0.01780767
-0.01880355,0.00239628,-0.01630898,-0.04009741,0.00229178,-0.01230820,0.00595981,-0.01546894,-0.01126521
0.02564544,0.01768011,0.01674098,0.02151259,-0.00785578,0.01190274,0.04861565,-0.01270847,-0.02674026
0.00866466,0.00387348,0.00131697,0.00177402,0.00332557,0.00530804,0.00445994,-0.00012717,0.00217277
-0.01985159,-0.01669111,-0.05803708,0.04548223,0.04978341,0.00387441,0.04771293,-0.00811487,0.00082034
-0.00585839,-0.00451705,0.03885884,-0.04140699,-0.04861176,-0.01541964,-0.02594386,0.01296358,0.01131828
0.01415060,0.01619016,0.01332005,0.00644074,-0.00512799,-0.01681543,0.02378477,-0.03266365,-0.01549562
0.00437269,-0.00893364,-0.00238116,-0.01322161,-0.01574706,-0.03390650,-0.02274930,0.01993588,-0.00611588
0.00913338,-0.04969424,-0.00094928,-0.01221930,0.02256353,0.08059124,0.03313066,0.05964496,0.08465251
-0.00978869,0.01722585,-0.01938483,-0.01015871,-0.01419523,-0.02138547,-0.03202202,-0.05018552,-0.02858873
-0.02918497,0.00683034,-0.03724568,0.00081130,0.01306257,0.01099162,-0.00493139,0.00208267,0.03136360
0.01416710,0.01689344,0.00094200,-0.01289729,-0.02847256,0.00241466,-0.02398542,0.02973323,0.05139510
-0.01462139,-0.02072078,0.01644564,0.00746822,-0.01555206,0.01021477,-0.01359419,-0.00710659,-0.03053094
0.04235665,0.05469274,0.01729945,-0.00176681,0.00348030,-0.02172891,-0.03018081,-0.03212904,-0.04000538
0.04398480,0.01428658,0.01868246,0.02520828,0.02731186,0.02217015,0.04091454,0.02204319,0.00340656
0.02996824,0.00744861,-0.04405347,0.05177094,0.00219078,-0.01382112,0.07609766,-0.04882790,-0.04902148
-0.01768414,0.02218231,-0.00958159,-0.00618934,-0.02311363,0.00503707,0.01989172,-0.02636927,-0.02927285
-0.02512753,-0.01065826,-0.05332048,-0.02299659,-0.00302249,0.00310043,-0.00311680,-0.00714986,0.02097813
0.00974867,0.00558454,-0.03890546,0.01687329,-0.00764254,0.01942780,-0.00799968,-0.02203223,-0.00335739
-0.00387225,0.01885703,-0.01721783,0.02798839,0.01485553,-0.03830468,-0.01493513,0.00013208,0.00881918
0.01613492,0.03050292,0.04626038,0.00947099,-0.00069944,0.00694905,0.03756160,0.00116704,0.01047476
0.01788904,-0.01414841,-0.01043943,0.03526778,-0.01220104,-0.01548550,-0.02736665,-0.01613910,-0.03988700
-0.00183341,-0.00518475,-0.00607176,-0.00220540,0.00303434,-0.00404037,-0.00434978,-0.00466016,0.00131764
-0.04148101,0.00199336,-0.05065779,-0.02938455,0.01497850,-0.04146248,0.02125970,0.06088905,-0.02288918
0.00278644,-0.00053802,0.03034878,-0.00789277,-0.00925141,-0.01588909,-0.00453685,0.01019114,-0.00707296
0.00380105,0.02877770,0.00902892,-0.01685338,-0.03410077,-0.01213883,0.00977105,0.02111150,-0.00680924
0.00399986,-0.01325688,0.02346556,-0.02800809,-0.03822441,-0.00379430,0.02651854,0.04901436,0.02866476
-0.02646576,0.03308316,0.00619671,-0.00145517,0.03386318,-0.01472718,0.01808960,-0.00371131,-0.03760450
0.00564210,0.01944206,-0.03080111,0.00726310,-0.00024134,0.02820141,0.03316795,0.08524983,0.02166389
-0.00671731,0.05703067,0.07573783,0.01799905,0.03308728,-0.00463052,0.00670986,-0.01196985,-0.00330515
-0.03724473,-0.01135116,-0.03277164,0.03342737,0.01301135,0.00207627,0.02633726,-0.03328302,-0.05181193
0.01647322,0.03605138,-0.01473588,0.01679134,-0.07705308,-0.00874177,0.01581462,0.05431182,0.04469262
0.00583543,0.00713668,0.02253243,0.01923823,0.03135516,0.03500039,-0.00939567,-0.03170280,-0.08022386
-0.02569649,0.00148719,0.00252072,-0.01107567,-0.00647457,-0.08226810,0.00966600,-0.07181037,-0.08881805
0.01443578,0.02070234,-0.01102602,-0.01374188,0.00498995,-0.03191243,0.06618427,0.05868923,0.00906964
-0.01260549,-0.00310123,-0.03813657,-0.06334237,-0.01265770,-0.04721726,-0.05504894,-0.04423040,-0.05376960
-0.01893101,0.00247903,-0.00780689,-0.01175710,0.03733427,0.02732328,-0.00554418,0.00439259,-0.03899736
-0.01199302,0.00837481,0.02698702,-0.02006433,0.01278802,0.02051948,-0.01610394,0.01213929,-0.00946516
0.01163261,0.02094339,0.05716142,-0.00691790,0.11280910,0.05142489,-0.03761281,0.00614588,-0.00365488
-0.02715055,0.05179235,0.02033634,-0.00650988,-0.01976433,-0.01489764,0.00873020,-0.05044895,-0.06060237
-0.01847258,0.02615592,-0.05370263,-0.06723575,-0.00204713,-0.05996145,-0.05351496,-0.02611446,-0.04595036
-0.00173812,-0.01113001,-0.03290538,-0.04304229,-0.00425338,0.00361832,0.02366331,0.02661582,0.03554126
-0.00798752,0.01986194,0.02753010,-0.02514324,0.00999883,0.05614399,-0.02184953,-0.01185637,0.05579721
-0.04093619,-0.00818620,0.06115380,-0.00564235,0.05783042,-0.00502459,0.13368708,0.05397271,0.00303696
0.00967774,-0.03564729,0.01672641,-0.04250638,0.00492089,0.06221795,0.01524510,0.07546090,0.01994112
0.03767797,-0.00191831,0.01719343,-0.02982198,-0.02809706,-0.01097367,-0.03434644,0.02218345,0.03345246
-0.02105205,0.03478798,0.00446710,-0.05549384,-0.01766537,-0.03856204,0.00574399,-0.01399744,-0.00092856
0.02333529,0.02125073,0.03968991,-0.02975382,0.03564716,-0.01762927,-0.08882761,-0.02488832,-0.04939291
-0.03032171,-0.01135144,-0.04634640,-0.02295595,-0.02905961,-0.03107394,0.03841475,-0.02397744,-0.01878336
-0.02945019,-0.01362609,0.02489886,-0.01553359,0.02831632,-0.00816290,-0.02433119,-0.04110463,-0.02574705
0.01318658,0.02685035,0.02572675,-0.01164569,0.03362017,-0.01568181,0.05813246,0.04583063,-0.01531791
-0.03646693,0.01414345,0.06279474,0.02005625,0.00677198,0.00449097,0.01973674,0.00656591,-0.01645431
-0.00034133,0.00847995,0.01299813,-0.05048648,-0.06091268,-0.00878617,-0.01010630,-0.07172728,-0.01446760
0.02865890,0.03637527,0.00498004,-0.01607790,-0.04122766,-0.02608376,-0.01097295,-0.02660449,0.04521218
-0.04020237,-0.00806186,0.01796071,-0.00134887,-0.01038529,-0.03234936,-0.01212544,-0.01139417,0.00788053
0.02812484,0.02474708,-0.01199066,-0.01045128,0.03300155,0.01223023,0.00529802,0.02538364,0.04611547
0.01643562,0.00829879,-0.02397982,0.03351053,0.00771242,-0.03608989,-0.00444859,0.01314901,0.00227511
0.02712393,-0.00701188,0.00477767,0.00499359,0.00033804,-0.02149470,0.01588926,-0.02901475,-0.03617292
0.00725250,-0.02838668,0.00659362,0.08572073,-0.00929455,0.00445218,0.04413256,-0.02360263,-0.01123954
-0.00589486,0.02342119,0.02240295,-0.03784461,-0.00446935,-0.00932283,0.03834973,0.00895272,-0.04627195
0.00906811,0.02110745,0.01099867,0.03383217,0.06121183,-0.02631640,0.01403574,-0.02285424,-0.02298788
0.00292000,-0.02235309,-0.05209345,-0.00997772,0.03986416,0.01661923,-0.02165546,0.12254115,0.06178459
0.02774036,-0.03312303,-0.06511059,0.03879973,0.03157112,0.04140993,-0.08084842,0.01322393,-0.00077208
-0.08944399,-0.03774173,0.00182463,0.02395762,0.00427409,0.02472134,0.01282044,0.01385226,-0.02633173
-0.04120659,0.01112158,-0.00063712,-0.00426008,0.02310235,0.00024172,-0.00550480,-0.04681183,-0.04686509
0.04881054,0.02118205,-0.00268985,0.08912908,0.07507505,0.02638303,0.00131715,-0.00307523,-0.00293569
-0.00885575,-0.00448301,-0.03212767,-0.02741460,-0.05119019,-0.03548743,0.00973429,-0.03505201,-0.02589632
0.00291319,0.00437196,0.00245141,0.00082250,-0.00073710,-0.00066492,-0.00186457,-0.00170479,0.00322816
-0.00868087,0.01850135,-0.03319748,-0.01820271,-0.00323771,-0.00223181,-0.00180912,0.04009443,0.01511002
-0.02808874,-0.01005710,-0.01605422,-0.04157010,0.01207325,-0.02082266,-0.00176823,0.01346901,-0.02121684
0.03229686,0.11219617,0.00937270,0.05184836,0.06196965,0.07601117,-0.05138436,-0.03828507,0.01123498
0.01483045,-0.00559961,-0.02058134,-0.02157238,-0.02039593,0.01529465,-0.00070782,0.03079978,0.01520451
0.01965249,0.04732896,0.03043044,0.05295205,0.05697098,-0.04015912,0.02774787,-0.01716538,-0.06443502
-0.00753294,0.02219304,0.04199874,-0.00705401,0.02712535,0.01358105,-0.04612794,0.05512625,-0.04903189
0.04549316,-0.01832119,-0.06047962,0.02546587,-0.00816669,0.04381220,-0.04022153,-0.00475984,0.01123711
0.00358419,0.04272398,0.01785058,0.03053726,0.03069994,0.03692542,0.00158889,0.01982252,0.10413269
-0.04219658,0.04924844,0.00402719,-0.05456423,0.00557752,0.01492929,-0.05212487,-0.03025717,0.01001360
0.01948437,-0.01474042,-0.02592676,0.02149303,0.01783043,0.00612031,0.00299272,-0.00785329,0.00825115
-0.01746802,-0.00100657,-0.03873459,0.02199615,0.04882729,0.03081630,0.00189500,0.05174314,0.04298777
0.01593995,-0.00084813,-0.08424970,0.01183283,-0.00227193,-0.01716461,-0.03492672,0.05196700,0.00699394
-0.02977264,0.02019599,0.02974870,-0.02650234,0.01513749,0.03546539,0.04585780,0.04696171,0.02186051
0.00311729,0.01782509,0.01358986,-0.01033477,0.04196440,0.02168884,-0.03194453,-0.02557015,-0.02411885
-0.00391867,0.05165334,0.00067806,-0.00672859,0.03464993,-0.03265326,-0.03132122,0.01748199,-0.00248905
-0.01644547,-0.03756058,0.05931224,-0.03798175,-0.06524780,0.04027410,-0.03417194,-0.07514507,-0.00308558
-0.04945550,-0.00307337,-0.01658628,0.04590598,0.02101269,-0.03934005,-0.02692990,-0.05846623,-0.06107833
-0.00648869,-0.00447054,0.02580695,-0.02088448,-0.00132894,0.04181314,-0.03962914,-0.04184670,-0.00168138
-0.00382404,0.00233828,0.00267932,-0.00608338,0.00073994,0.00248405,0.00230407,-0.00302150,-0.00252092
0.11577772,0.03215143,0.00329644,0.01755597,0.05521170,0.01158825,-0.04170106,0.00594943,0.01196019
-0.02257086,0.03191455,0.01536353,-0.00268362,-0.00987018,0.03108808,0.05393277,-0.00533848,0.07234341
-0.01414678,0.01805942,0.01142485,0.04188304,0.02775206,-0.01436520,0.01743137,0.01938273,0.01537048
-0.02913889,0.03710792,0.01721957,-0.00553758,0.00615083,0.03419135,-0.05206738,-0.00940026,0.00626164
0.02928891,0.00395584,-0.03039987,0.03647061,0.04521084,-0.03580192,0.04010393,0.07673104,0.00501455
-0.09479315,0.03220337,-0.01502216,0.00013616,-0.01853668,-0.06884288,0.06813505,-0.03560242,-0.02142605
0.02382073,-0.00107497,0.01403183,0.02569371,0.04653008,0.04679383,0.02982377,0.03133722,-0.02736720
0.10879928,0.08413270,-0.01969372,-0.02082667,-0.01066100,0.02619267,-0.07667089,0.05063171,0.15608759
-0.03627375,-0.01858407,0.00649428,-0.03397464,0.00177021,-0.02705235,0.05731889,0.03851858,0.01442848
0.00753270,0.02189979,0.01285708,0.05357032,0.01047067,0.01404002,0.01956933,0.03564156,-0.00756366
0.00619747,0.08191384,0.00169832,-0.04205391,-0.01407860,-0.01729901,-0.10153129,0.09820201,-0.00751721
-0.00468856,-0.03350333,-0.06428869,0.04414463,0.05855555,0.02821210,0.00171450,0.01587616,0.06106741
-0.06782181,-0.03227108,-0.04854533,-0.02290750,-0.00754154,-0.01585594,0.00607766,-0.05146518,-0.01499058
-0.01550399,-0.02090972,-0.01294477,0.02484606,0.01307131,-0.03544885,-0.02757711,-0.03407129,0.00165141
0.02516035,-0.00945578,0.00961051,-0.03551449,0.00278775,-0.01585121,-0.00924758,-0.00785117,0.00112830
0.00489187,-0.04059993,0.00191856,-0.00751179,-0.02923571,-0.03470633,-0.01668545,-0.02462992,-0.01464489
-0.05709426,-0.04685134,-0.01387451,0.00721515,-0.02192189,0.00727870,0.08023234,0.03258618,0.01231061
-0.01309470,0.03113769,0.00864637,-0.01013742,0.04915795,0.00304057,0.01299700,0.02149488,-0.01134283
0.01827812,-0.08028474,-0.00926246,-0.00884191,-0.01225096,0.00364023,-0.00005793,-0.00136605,-0.01328448
-0.03574325,0.05090822,0.03710646,0.00600624,-0.01098355,-0.03901748,-0.00307721,-0.00629183,0.01592190
0.00817969,0.00390891,-0.01514752,-0.02485762,-0.05312631,0.00402031,-0.08600153,-0.04634145,-0.02959294
0.04255158,-0.02539668,0.01368767,0.01306720,-0.00323634,0.00637166,0.00366206,0.02192446,0.03792261
-0.06246717,-0.01432454,0.01613916,-0.00852477,-0.01039792,0.01386949,-0.05865135,-0.02856876,-0.04713495
0.07591220,-0.00525868,-0.04009581,0.04776502,-0.00145398,-0.01096094,-0.01260797,-0.05636419,-0.00725667
-0.02332231,-0.00730932,-0.00132315,-0.02665290,0.00741726,-0.00891840,-0.03216168,-0.01196758,-0.02286883
-0.00681753,-0.03145928,-0.01725184,-0.03097616,-0.01058393,-0.01609484,0.04787621,0.00403484,-0.01455156
0.03519349,0.06330374,-0.02967013,0.04201368,-0.00902911,-0.03757760,0.05641036,0.04334119,-0.02838950
-0.01775105,0.00438254,-0.06844775,-0.01174181,-0.04356377,-0.02875115,0.01121952,0.02932470,0.05139729
0.00609500,-0.01767697,-0.01543806,-0.01102653,0.01272189,0.01140530,0.00042111,0.07476740,0.10349540
-0.03912527,-0.02545097,-0.06079202,-0.01213891,-0.03504175,-0.04372027,-0.02400425,-0.01437865,-0.02899454
-0.03558211,-0.02971504,0.00573384,0.00001636,-0.02949483,-0.08066052,0.01383296,-0.00188300,0.01382562
0.01613854,0.00760082,0.02574040,-0.03966071,-0.04514188,-0.01046929,-0.04246994,-0.06466114,-0.01113523
-0.04503635,0.03523919,-0.02496915,-0.01414682,0.01203892,-0.02146110,-0.02435816,0.01114281,0.04306521
0.02294686,-0.02037338,-0.01692428,-0.05778090,-0.03420697,-0.03986842,-0.04787118,-0.02871284,0.01990404
0.02099658,0.02273010,0.05012451,0.02127957,-0.01483039,0.02145066,0.00987754,0.01204244,0.03914962
0.00189332,0.02149994,0.05099970,-0.04311806,-0.03244994,-0.01994918,-0.00996940,0.00142917,0.02000759
0.02036573,0.03651605,0.05452168,0.00988784,-0.04464492,-0.02889562,0.01286916,-0.02935549,0.01433085
-0.03630105,0.00638951,-0.00199564,-0.04067831,-0.02990736,-0.00210499,-0.07219087,0.02310909,-0.00595108
0.03001241,0.04393642,0.02625903,-0.03214526,-0.00390423,0.00530406,0.00045074,0.04384196,-0.02819659
0.03563547,0.02304892,-0.00418930,0.02087828,0.04472423,0.02257958,0.08168732,0.05313088,0.07119043
-0.01675543,-0.04116551,0.00859562,0.00154207,-0.02328785,0.01417707,0.04785972,0.01950769,0.00071564
0.05939130,0.06325416,0.03956591,0.00899452,-0.01688641,0.00072781,-0.02603544,-0.00687147,0.00958905
0.03930131,0.00592981,0.01818390,-0.03111737,-0.00349962,-0.02800451,0.01889391,0.02063117,0.02642559
-0.02903787,-0.03813333,-0.00321710,-0.02506208,-0.02937813,0.01946484,-0.03809749,-0.04334898,0.02154300
0.00631529,0.00561753,0.00043474,-0.00149496,-0.00392857,0.00497948,0.00694665,0.00059218,0.00340858
-0.06650203,-0.02455652,-0.00943777,-0.00968986,-0.04557829,-0.03506273,-0.00120859,-0.04976507,-0.00300466
-0.02616474,-0.01500025,-0.01921371,-0.02488861,-0.03532793,0.01322165,-0.04549726,-0.02799579,-0.01054682
-0.00766854,-0.00595009,-0.00128425,-0.05267954,0.00658453,0.01526408,-0.02420752,-0.00974136,-0.02481045
-0.02359444,-0.01152698,-0.00470302,0.01885708,-0.01970739,-0.00308423,0.05130361,-0.03137273,0.04400085
-0.00514311,0.02265665,0.00643229,-0.04836780,-0.00606035,-0.01704941,-0.07505180,0.00526524,-0.07742476
-0.00120920,-0.01337971,-0.03033082,-0.01049938,0.02795853,-0.02677191,-0.10663621,-0.02240269,0.02999549
-0.04330316,-0.09642340,-0.04633277,-0.04673941,-0.00306687,0.03511821,-0.04999275,-0.00547740,0.05115620
-0.02719849,0.01246891,0.03300678,0.02311089,0.01801125,0.00702579,0.10089441,0.04031386,0.03456336
0.00695617,0.01110126,-0.02960550,-0.02130969,0.00511405,-0.03889856,0.00706835,-0.00778548,-0.05779376
0.00860774,-0.01551378,0.00679663,-0.00288862,-0.02195320,-0.01504569,-0.01415945,-0.02009963,0.00153209
-0.03473771,-0.00231653,-0.02223950,-0.02275482,-0.02513831,-0.03271412,0.03983055,-0.00008400,-0.02870085
-0.06379622,-0.01951918,0.04003250,-0.06837232,-0.00211402,-0.02370475,-0.07229222,0.05158728,0.09287215
-0.04029410,-0.00929551,0.01003807,0.00550620,0.04907577,-0.00787311,0.05176217,0.03389557,-0.00041971
0.01296609,0.00486068,0.05488119,-0.02435484,0.01390111,0.03016910,-0.00862598,0.08053358,0.04530506
-0.02474032,-0.03315229,0.03513857,-0.01092257,0.02269074,0.02617767,-0.02505077,0.00840674,-0.00260060
-0.01142595,0.06280808,-0.04639363,-0.01289455,0.02307257,-0.06203249,0.02893951,0.06075939,-0.02407306
-0.00235787,-0.00411748,-0.03044008,0.04085214,0.02580282,-0.00171266,-0.01166119,-0.00445094,-0.01392561
0.00964606,-0.01272880,-0.01889907,-0.00177590,-0.00352002,-0.04191613,0.01708095,0.00604922,-0.00489328
0.00346797,0.00152474,0.00187104,-0.00164044,-0.00357614,-0.00042363,0.00137789,0.00436538,0.00158235
-0.02759605,-0.03551166,-0.06422540,-0.00360702,-0.01885771,-0.01640126,-0.03770122,-0.04295150,-0.03473243
0.04275987,-0.01805396,0.01191887,0.00227895,-0.04598415,-0.01840448,0.03471578,-0.02531825,-0.02751645
-0.00939568,-0.02872271,-0.05814074,-0.00944482,-0.00961017,-0.02114231,-0.00330452,-0.04888811,-0.05212252
-0.02140247,-0.04429206,-0.05849579,0.02133006,-0.00992920,-0.02390122,-0.01857389,-0.05073842,-0.01652634
0.01997655,0.02687228,0.05004777,-0.01514117,-0.02879216,0.04906091,-0.02173580,-0.00918259,0.04161533
0.04347526,0.01845713,0.01395772,0.03713977,-0.00857636,0.00025721,0.05956174,0.02009588,0.01631310
0.03269428,-0.00022382,0.03449015,0.00440181,0.02323879,0.00371499,0.01320306,-0.01672506,0.04603660
-0.04319279,-0.03738157,-0.00262277,-0.00348739,-0.01670908,0.01677961,-0.07212295,-0.04639439,0.08336021
0.02010104,-0.02174135,-0.01854512,-0.04013468,-0.01835821,-0.03234883,-0.07460897,-0.04944541,-0.02057068
0.00411575,-0.02003733,-0.02321523,-0.02548900,-0.01974021,0.00812789,-0.05847508,-0.04926845,-0.02089124
-0.01808267,-0.01661638,0.05956028,0.03184444,-0.03434940,0.00186747,0.02607090,-0.04974716,-0.04573293
-0.06134254,-0.05802917,-0.06152187,-0.07474831,-0.00545815,-0.03991308,-0.07931195,-0.01928953,-0.05020340
-0.00795372,-0.04792802,0.01103140,-0.02304056,-0.04446464,-0.02830237,-0.01707683,-0.04358391,-0.05614729
-0.02789368,-0.03384230,-0.02091869,-0.05708395,-0.00837948,-0.03112566,0.01158173,-0.04640009,-0.07903612
-0.01761463,0.01316213,-0.00699506,-0.00181721,-0.01145033,-0.03402926,-0.06364006,-0.08129930,-0.07797824
0.03186672,0.04087850,0.01608011,0.03953992,0.05078937,0.02123242,0.04304205,0.03138031,-0.00768490
-0.02970810,-0.01988185,-0.03628238,0.00506231,0.01231194,-0.02904328,-0.06351084,-0.02039249,-0.02105086
-0.04448448,-0.04469575,-0.01537825,-0.00011050,-0.00738302,-0.00386676,0.05406599,0.01679449,-0.00923264
-0.05468552,0.04677834,-0.01677880,-0.05555827,0.02699571,-0.01709693,-0.00188689,0.05021024,-0.02959643
0.09580635,0.08034576,0.04070975,0.04585374,-0.00007517,-0.00885417,0.08652025,0.00696650,-0.05316370
0.01175551,0.01157149,-0.05138615,0.07383530,-0.02637744,-0.05318294,0.07019041,-0.07464154,-0.01497853
-0.03132869,-0.02335863,-0.06530230,-0.01127998,0.01000655,-0.06782684,-0.04614969,0.02747492,-0.04046559
-0.01141809,0.02760121,0.05585787,-0.05318588,-0.01269389,-0.01411361,0.03010717,0.03614850,-0.00678148
0.09513557,0.04482636,0.01384875,0.07413529,0.05486543,0.00823633,0.02372048,-0.01810514,-0.07804316
-0.00659245,0.01096798,0.04650655,-0.00020812,0.01010311,-0.00077856,-0.05388547,-0.06547363,-0.02157181
0.00759295,-0.00587389,0.03072600,0.01197060,-0.05391268,-0.00824052,-0.01370493,-0.02297864,-0.03058504
0.09156527,0.00087793,-0.04360927,0.09248862,0.02669488,-0.04863251,0.03368034,0.02641372,-0.04672223
-0.05304747,-0.01254414,-0.04524505,-0.05566638,-0.01936855,0.00880530,-0.06851394,0.00841056,-0.00611503
0.04691952,0.01168682,0.02588142,-0.00287978,-0.01432993,-0.01138057,-0.01053956,-0.02569123,-0.00945535
-0.00638514,-0.00867518,-0.03557763,-0.01773126,-0.01081267,-0.01688262,-0.01536937,-0.02406223,-0.02356954
0.02425123,0.03432162,0.00512025,0.01708704,0.00278251,-0.02489557,-0.01640700,-0.02104947,-0.00359562
-0.00308645,0.01002616,0.04107595,0.01544649,0.03731127,0.00615904,0.00395994,0.00952388,0.02080169
0.02663093,0.00008997,-0.01386770,0.00853650,-0.01879483,-0.02949126,-0.00003518,0.00547903,0.01215336
-0.07947335,0.00314809,0.04312940,-0.02349520,0.03703017,0.04055427,-0.03094752,0.00419800,-0.03656208
0.00656789,0.01079929,-0.00954091,0.02763630,0.03566555,0.01026946,0.01962178,0.06572216,0.06707584
-0.02051766,-0.03948468,-0.07585502,0.00711478,-0.02183581,-0.04772280,0.04010944,0.01512833,-0.05063233
-0.01099741,-0.04801257,-0.03694210,-0.00753300,0.00840818,-0.01723730,0.09422181,0.05043821,0.03461030
0.03325829,0.00272184,-0.01494393,-0.00448510,-0.01734580,-0.02106658,-0.03978949,-0.03045905,0.00689697
0.01598437,-0.01429016,0.03295577,-0.01957202,-0.03255474,0.03265173,0.05274693,-0.01429730,-0.02171272
-0.05065530,-0.01910823,0.02253045,-0.03041928,0.04270139,0.04350419,-0.01738320,-0.03870884,-0.03166503
-0.05017706,-0.04217878,-0.01464823,0.03533363,0.04759236,0.01038661,0.00681854,-0.01472367,-0.01248647
-0.01589241,-0.04313653,0.01010076,-0.01516796,-0.00158323,0.03032356,0.05096753,0.03911237,0.04768075
0.04611411,0.00589981,-0.01264672,0.05284638,0.05792055,0.06864762,0.03021814,-0.04277517,-0.02147867
0.03692932,0.06413636,0.03570305,-0.00375616,0.05518129,-0.00265824,-0.00363295,0.02741362,-0.03819806
-0.00257540,0.00322406,0.00271535,0.00129684,0.00254080,0.00458138,0.00040046,0.00079643,0.00095250
0.04393172,0.00457372,0.02095029,0.05150980,-0.01053684,0.01100301,-0.00698188,-0.05237290,-0.07045236
-0.03031263,-0.03224288,-0.03177567,0.00864321,-0.02544708,-0.01834635,-0.00822772,0.00099173,-0.04522717
-0.04612761,-0.03045581,-0.06015595,-0.00801273,-0.01303768,-0.08060975,0.02151305,-0.00934894,-0.06442403
0.06156060,0.00698093,0.00811655,0.06574354,0.00299269,-0.01641504,0.02647354,-0.02714720,-0.07940078
-0.03104095,-0.02489038,-0.11208765,-0.01470456,-0.00026954,-0.05273252,-0.05905790,-0.02111185,-0.08535928
-0.01646131,0.02142265,-0.03769191,-0.04501433,-0.01452645,-0.06473588,-0.03470594,-0.03078071,-0.06664755
-0.02497703,-0.05757501,-0.00042158,-0.03327319,0.00037420,0.05495926,0.00841515,-0.02030329,0.00633919
0.00036511,-0.00515523,-0.00658683,-0.01037800,-0.01524744,-0.00307254,-0.01435295,-0.01150284,-0.04843389
0.01162050,0.00691897,-0.00648599,0.05079329,-0.00602055,-0.01963338,-0.00553793,-0.05093689,-0.00491869
0.00636494,0.01094356,0.02420995,0.00003265,0.01101370,-0.01668503,-0.03742307,-0.00284153,0.01350470
0.01951896,0.00929728,-0.00524411,0.07055610,0.04497482,0.02841103,0.02947497,0.00154287,0.01895478
0.01849553,-0.04336788,-0.06129973,0.00178427,-0.04093133,-0.01136070,-0.02037446,-0.03827521,-0.03505228
0.00195949,-0.00585123,-0.00485237,0.02958093,-0.00623366,0.02017907,0.02012404,-0.01425646,0.00950820
0.00327102,-0.03254846,-0.01021418,0.01013151,-0.00866184,-0.03817436,-0.02478368,0.03491721,-0.02626730
-0.05299740,-0.03761000,-0.00361637,-0.08398175,-0.00175340,0.00328618,-0.05710092,0.00034981,-0.03722026
-0.00924823,0.05044499,-0.00881686,0.03838568,0.00167755,-0.02217372,0.03138036,0.00255118,0.04007811
0.00562022,0.01000476,-0.00297032,-0.04049782,0.00941921,-0.03720702,-0.03138078,0.03004796,0.01345763
0.01130033,0.00021604,-0.04079376,0.00998340,-0.02248898,-0.06435671,-0.02013783,-0.04107200,-0.06337642
-0.00423592,0.00042123,0.00103017,-0.00207922,-0.00767771,0.00382838,0.00108170,0.00138002,0.00436725
0.01081645,-0.03449828,-0.03458136,-0.03558862,-0.01963089,-0.02818679,-0.03518048,-0.04258940,-0.06420857
0.02924226,0.01555023,0.00211617,0.02139186,-0.01548805,-0.00319270,0.05434153,0.02753036,0.05407052
-0.02498021,-0.05048351,-0.02035245,0.00357649,0.03172440,-0.00428703,-0.03346781,0.00522838,-0.01930549
-0.00312411,0.00182268,-0.00964373,0.01575077,0.01300737,0.01413798,-0.07217030,-0.01008664,-0.03479435
-0.02741180,-0.01735595,-0.00855987,-0.01783094,0.00720383,0.00631073,-0.03602071,0.02178543,-0.03347022
-0.02621987,-0.02029962,-0.03521895,0.02855840,-0.05519084,-0.03267512,-0.00153645,-0.06570983,-0.08657428
0.05179036,0.02367813,0.03184935,0.02155559,0.02883429,0.02214048,0.00484987,0.01846728,0.00175344
0.01928671,-0.03414691,-0.05472881,0.04007025,-0.00724972,-0.02396708,-0.01636622,-0.02396627,-0.00264786
-0.00071458,0.01178964,0.01047763,-0.03447235,0.00215896,-0.05611921,-0.01328295,0.00304157,-0.01758351
-0.06347816,-0.05410174,-0.07139602,0.00241151,-0.00576156,-0.00460478,0.02529320,-0.04593553,0.01519002
-0.00393952,-0.07519706,-0.09556763,-0.02703263,-0.01432195,-0.06389873,-0.05232498,-0.04214049,-0.10141158
-0.10005242,-0.06889533,-0.02556994,-0.06640404,-0.04241365,0.00655501,-0.05819269,-0.07753249,-0.02738606
-0.00794620,-0.00860699,-0.02177126,-0.00356996,0.05736221,0.03469377,-0.04128393,-0.01235627,-0.00098301
0.00146391,0.02102908,0.00641566,-0.03491793,-0.01252284,-0.05596869,0.00214206,-0.01574772,-0.02678131
-0.01606414,0.02775355,0.00208487,0.02143100,0.03530797,0.03344676,0.06818709,0.00470184,-0.01993649
0.04260999,0.00688688,0.01895469,-0.00595201,-0.00273434,-0.02568707,-0.03056724,-0.03331005,-0.03231530
0.05427432,0.00088775,-0.03854894,0.01078433,0.00533609,-0.04652047,-0.03665391,0.00212111,-0.05949828
-0.02467573,0.00544434,-0.01249710,-0.02490756,0.04631160,-0.02343063,-0.05355618,-0.03864061,-0.06320657
0.00277302,-0.02413799,-0.00001716,0.00874090,0.02147585,-0.06190562,0.00577410,0.02143476,-0.04200727
-0.05755552,-0.04890356,-0.05414472,0.01322635,-0.03312201,-0.04005922,-0.00952222,-0.04589215,-0.04462479
0.04595346,0.04391858,-0.04786415,-0.00474481,-0.00458194,-0.00414044,-0.03889672,-0.00595818,0.01267674
0.01633023,0.03481060,0.02884404,-0.01574087,0.03942492,0.02659629,0.02762417,0.01477506,0.02611529
0.00054974,0.01962703,-0.02173708,0.00023134,0.04755690,-0.00400518,0.01657376,0.02205190,0.00294095
-0.05515531,-0.01482894,-0.03214877,-0.03310476,-0.02072124,-0.00228728,0.00126296,0.00629492,0.00663431
-0.00503126,-0.01376898,-0.03943455,-0.01045144,-0.01289079,-0.03152417,0.00462642,-0.02276446,0.00048678
0.02759278,-0.02964831,0.00241375,0.03250452,-0.02833912,-0.01729870,0.00970885,0.00897981,-0.03675740
-0.03421649,-0.00594689,-0.00213159,-0.02017313,0.05227371,-0.06541181,-0.05115741,-0.02672018,0.02359598
0.00909661,0.02361680,0.01781834,0.00786226,0.01627098,-0.01062352,0.00271134,-0.00321446,0.02575741
0.03348072,0.00030670,-0.01358559,0.02190665,0.00335994,-0.02469630,-0.01161528,-0.01259262,-0.02140215
-0.04672206,-0.00601344,0.01204661,0.00267298,-0.05935299,0.02121749,-0.03677168,0.00387567,0.01284135
-0.00169240,-0.03111418,0.03477190,0.01218027,0.01147383,0.06878675,0.00300635,0.01207532,0.00928777
0.06633238,0.01070646,0.01659751,0.05615567,0.03044419,-0.04494172,0.06469067,-0.01053241,-0.00403135
-0.02674608,0.00296923,0.03250851,-0.00685864,0.01680184,-0.03279933,-0.02986265,-0.00871977,-0.01502738
-0.01010085,0.00827410,-0.01018483,0.00220777,-0.01220683,-0.00482307,-0.00880585,0.00415848,0.02684854
0.00580723,0.01558014,-0.01105289,-0.03547654,-0.03035213,-0.05136317,-0.04031631,0.00824028,-0.01119500
-0.01117591,0.00121534,-0.02802510,-0.03417686,0.04447235,0.01994660,-0.00932108,0.01703085,-0.00677489
0.02151796,-0.02107780,0.01794861,-0.01148765,-0.05549432,-0.01192007,0.00665899,0.00421621,-0.00752956
-0.04129973,0.12354869,-0.05918309,0.00309496,0.01692453,0.00691012,-0.00230195,-0.02531234,-0.02516096
0.01950943,-0.01416223,0.00461378,-0.00072365,-0.00045265,0.00809004,0.02215087,-0.02932803,-0.00858255
0.01930806,-0.04071483,-0.00166042,0.01501431,-0.02533402,-0.00301096,0.00958754,-0.03662881,-0.00049734
-0.03852964,0.01615246,-0.05327756,-0.01086181,0.01245561,0.00496440,-0.02216495,0.01097111,-0.05408591
0.01432942,-0.00643572,-0.02587551,-0.00003946,-0.02075777,0.00488140,0.00625059,0.05582313,0.05257220
-0.01764626,-0.01628673,-0.04005275,0.00788134,-0.02369359,-0.01625769,-0.00187926,-0.00770132,0.00014480
-0.05780738,-0.02996036,-0.00089900,-0.00031897,-0.03019617,-0.00510665,0.01620881,-0.00200379,-0.01153303
-0.00656152,-0.00624699,-0.00254074,-0.00801823,0.00179712,-0.00031772,-0.00347113,-0.00331092,-0.00698409
-0.00006652,-0.00130417,0.01430922,0.01816993,-0.00122705,0.02282507,0.01324398,0.00462353,0.02512525
-0.00100075,-0.03886247,0.00985192,-0.01716344,-0.00632672,-0.01763090,-0.03830894,-0.02774721,-0.05988496
0.14484587,-0.00509607,-0.06212296,0.00099535,0.02292972,-0.03213264,0.06320541,-0.06254435,-0.00757948
-0.01650227,0.00035451,-0.00734998,0.04743890,-0.00467386,0.00271795,-0.00973210,-0.05298923,-0.02367777
-0.00468755,-0.00345966,0.00086063,-0.01114208,-0.00824775,-0.03154284,-0.02120387,0.01278950,-0.04834799
0.01764676,-0.00907404,-0.03529646,0.01960684,-0.01776140,-0.00911439,0.00848458,-0.01502441,0.00915071
-0.01057520,-0.03063880,0.02554335,0.00462171,-0.05233458,-0.01410942,0.00911212,0.00319983,0.03688147
0.02098631,-0.00726779,0.02276308,0.00413707,0.00350315,-0.00301449,0.02918327,-0.02583109,-0.02446114
0.02420901,0.02565487,-0.03294971,0.02074081,0.01707940,-0.06311769,-0.02837438,0.00150068,-0.05195909
-0.01366166,-0.01897372,0.01880437,0.01438105,0.00722013,-0.01054729,-0.00213774,0.01075465,0.01421333
-0.00617123,0.00429019,-0.00704658,-0.00803420,0.03015088,-0.00305963,0.02002423,0.00098741,-0.02248078
-0.02529752,-0.00084133,0.03541563,-0.02530521,-0.00193295,0.00726385,-0.01094030,-0.01093127,0.02141635
0.01175414,0.00555830,0.03554946,-0.00824649,-0.00158466,0.02199598,-0.00920535,-0.01584548,-0.01920586
0.00921391,-0.01003894,0.05880237,0.01281642,-0.04335096,0.00041000,-0.00779308,0.00632596,-0.01648936
-0.04446596,0.05561282,-0.04416038,-0.01276273,0.05548964,-0.01916435,-0.04983826,0.00695040,0.01109106
-0.00841333,-0.02235740,-0.01683514,-0.02506471,-0.00808978,0.01157025,-0.01277893,0.02250833,0.04859051
0.01788131,-0.04839701,0.02222608,-0.01268894,0.01056490,0.03684610,-0.04225253,-0.02344256,-0.02926714
0.04834351,-0.03311042,0.00980188,0.05566828,-0.04512423,0.00547556,0.04034277,-0.00577593,0.02575007
-0.00012092,0.00483495,-0.00170373,0.00106211,0.00293792,-0.00161805,0.00183640,0.00676772,0.00040653
0.04537002,-0.06181002,0.04631780,0.02909840,-0.03568652,0.01611833,0.02460007,-0.06666077,-0.02668018
-0.01827246,-0.01478599,0.00211154,0.00161581,0.02398540,0.04862622,0.02796303,0.01816889,0.03684094
-0.01283557,-0.00850661,-0.01319453,-0.04287599,0.02515258,-0.01676351,-0.02990696,-0.01186277,0.01349193
0.00604696,-0.03774744,-0.04092147,0.01458241,-0.00594220,-0.03719259,-0.02134522,-0.03329532,-0.03503500
-0.02171331,-0.00156931,-0.01321934,0.00199775,-0.00431689,-0.02074561,-0.04169885,-0.02291056,0.02534084
0.02227892,0.00600095,0.02673585,0.00547067,0.42137474,-0.08761760,0.03606238,-0.03358091,0.03112999
0.00274802,-0.00907298,-0.00208921,0.01772741,0.02141389,-0.01582242,0.01070622,0.00921973,0.01604672
-0.01898185,0.00552714,0.03532090,0.03372547,0.02167236,0.00104733,0.03835494,0.01412200,0.01702250
-0.03365938,0.04601089,-0.02320109,-0.02288436,0.00752402,-0.01518928,0.00341731,-0.00102823,0.00148976
-0.00994559,-0.02278513,0.01943222,-0.01879005,-0.05511510,0.07257219,-0.07336963,-0.01709883,0.02848497
-0.00786953,0.02598496,0.02711005,-0.01826744,-0.02481612,0.13027860,-0.00604790,0.01021690,0.01261070
0.00816235,0.00877983,-0.06560356,-0.02987946,0.03806229,-0.03417986,-0.00782558,0.01811643,-0.02152341
0.00546863,-0.00313483,0.00260048,0.00378601,-0.03370764,0.02223415,-0.01248357,-0.01783711,0.02527014
0.00461624,0.02025818,-0.00919298,0.00033063,0.01943811,0.02124849,-0.01288601,0.00454217,-0.03501189
0.01777063,-0.00894751,-0.05315465,-0.02991298,0.00430367,0.01875978,0.00719079,-0.02014792,0.01358061
-0.01721015,-0.01833907,0.00376307,-0.02399452,-0.02655017,0.02804754,-0.03188219,-0.01976761,0.02098394
-0.01472837,-0.01688285,0.03571822,-0.00360773,-0.03459531,-0.02373781,0.01404944,0.03116765,-0.01791789
-0.02515134,-0.01944591,0.00736359,0.00956425,-0.00616789,0.04864001,0.01438824,0.01146370,-0.00317687
0.02269751,0.01080437,-0.02471627,-0.01886366,-0.04921870,0.03257158,-0.02259844,-0.03084776,-0.02418051
0.01657196,0.01417921,0.00000241,-0.01442848,0.01084620,-0.04482067,-0.02202190,0.04619473,-0.06305613
-0.03454274,0.00279853,0.02083833,-0.00265163,-0.00525664,0.02820835,-0.01177316,0.02221342,-0.02913491
-0.01249215,-0.01524927,-0.02954637,-0.01180120,-0.00818599,-0.03437041,0.01883616,-0.01166411,-0.00451021
-0.06093766,0.01547379,0.03423505,-0.06590933,0.05431911,0.07826934,0.01157022,0.02061193,0.03184728
-0.07446523,-0.00850979,0.04309088,-0.01416294,0.03700720,0.01199149,-0.01771861,0.02816154,-0.03260885
0.03425593,-0.01345205,-0.02756699,0.02716824,-0.01555809,0.04868424,0.05572653,-0.01378053,0.02106526
-0.00990643,-0.01169610,-0.02970799,-0.02435634,-0.01092161,0.03172415,0.00606120,-0.02002951,0.00975424
-0.00019780,-0.02348564,-0.02202163,-0.04599485,0.02332734,0.01551399,-0.03179563,0.03236454,-0.00336642
-0.04431224,0.01790657,-0.03978962,-0.05031665,0.03635668,-0.03989173,0.00105346,0.03150388,-0.02075198
-0.07591759,0.00467634,0.07449207,-0.02293270,0.00898564,0.02679204,-0.04247501,-0.01100439,-0.01540748
0.05585453,0.04570638,0.04753117,0.03231589,0.01019074,-0.00681308,0.06448111,0.01668076,-0.04093426
-0.00618476,0.03980356,0.01342716,-0.05147466,0.04950112,0.04234302,-0.05348301,0.02911354,0.03507447
0.01212553,-0.00854192,-0.00723085,0.03547060,0.01521945,-0.00337410,0.02973247,0.00683803,-0.07354490
-0.02853510,0.02971451,0.02755693,-0.02016463,0.01967137,0.02963055,0.00357098,-0.02301217,0.02139473
0.03236308,0.01828848,0.01352446,0.06653242,0.02384143,0.05389924,0.01381523,-0.02298701,0.05658879
-0.01323690,-0.02827891,0.02923027,0.01656659,-0.02008889,0.01866312,-0.00154603,-0.03348672,-0.00173887
-0.02380206,-0.02739807,-0.02458669,-0.01122830,0.01854812,-0.05185792,-0.09698526,0.01047417,0.01657041
-0.02130234,0.00386202,-0.01095567,0.03371220,0.00875279,-0.02226893,0.04799910,0.05233773,-0.01851645
0.00121816,-0.00606207,0.01042517,0.00025851,0.02609518,0.00190444,-0.01497263,0.04445637,0.03603148
-0.05215933,-0.05257407,0.03353553,-0.04483816,-0.00888039,-0.00941484,-0.03369728,0.00000551,0.00389715
0.05107200,-0.00652651,-0.01266008,-0.00154333,0.02571331,0.06836168,-0.11723457,0.00862114,0.11081550
0.02125648,0.00305542,0.00025656,-0.01442691,0.00600435,0.02202882,-0.02573576,-0.03895340,-0.01754674
-0.08002578,-0.03694427,0.08491128,-0.01288912,-0.00586809,0.03152187,0.04184223,0.00966202,-0.00518270
0.03004290,-0.00041630,-0.00719815,0.02087882,0.02556264,0.03451308,-0.04711239,-0.01237478,0.02556916
-0.00488893,0.02743725,-0.02435080,0.00029714,0.01580579,-0.01008997,-0.01147001,0.03267873,-0.01496239
0.00357116,-0.00174452,0.00131458,-0.00478311,0.00045387,-0.00232648,-0.00168374,-0.00019883,0.00156391
-0.00135967,-0.02248408,-0.06019592,0.03133265,-0.03306040,-0.04525378,0.02715141,-0.00587990,-0.04774979
-0.00196565,0.00223675,0.02655439,0.01838552,-0.00275116,-0.00617581,-0.01128838,0.01630828,-0.02590439
-0.01731464,0.00523760,-0.02798711,-0.02587968,-0.01707694,0.01216630,-0.03348279,0.00730355,-0.02945765
-0.04578418,-0.01055640,0.03726798,-0.05132199,0.00967769,0.01682621,-0.06871063,-0.00085982,0.00775939
-0.00962362,0.03002273,-0.07045120,0.00690936,0.01353290,-0.08873575,-0.05094106,0.00899303,-0.04510273
-0.00762317,0.01505254,-0.02568594,0.00958566,0.03297603,-0.02891865,-0.02514541,-0.00910119,-0.06993526
-0.00116485,0.04320884,-0.09251275,0.02967847,0.04162545,-0.03433426,0.02484509,-0.05827244,-0.07130062
0.01130999,0.04446755,0.00946761,-0.02453283,0.01716168,0.06619346,-0.04366560,0.04078352,0.11455750
-0.02568562,-0.04126363,-0.03966797,-0.01353213,-0.01322617,-0.03744820,0.02469368,-0.01886834,-0.00285122
-0.00066905,0.02546779,0.04738290,-0.02184324,0.02382330,0.03305674,0.00560073,-0.00976534,0.01506483
0.00926276,0.01055648,0.00499929,-0.03345048,0.01238704,0.05057124,-0.09038762,-0.02610723,0.04963749
-0.00771161,0.06077705,-0.02172594,-0.01436241,0.07438149,-0.00333355,-0.02343195,-0.00213055,-0.04731635
-0.03227139,0.00864536,0.01021397,-0.03439729,0.02623729,0.07686514,-0.00023983,0.00415856,0.00272276
-0.08819321,0.03449211,0.00986927,0.00073098,0.00002025,-0.08619172,0.03117920,-0.01695616,-0.03161209
-0.03095761,0.01066154,0.01782227,-0.01835525,0.00795192,0.03432971,-0.03645461,-0.02087245,0.02875816
-0.00401431,0.02710771,-0.01352548,-0.02353276,-0.07129443,-0.05544884,-0.03713480,-0.05594422,-0.07755831
0.02908440,0.04233547,0.06465115,-0.00592593,0.01343995,0.05076967,0.03642241,0.05038670,0.03227699
0.01703877,-0.03836885,0.00276888,0.01549019,-0.00771962,-0.01702004,0.01100911,-0.04087898,-0.01455737
0.00053479,0.00035822,-0.00031951,-0.00223490,0.00112831,-0.00256813,-0.00062657,-0.00163393,0.00372651
-0.02581445,0.02063756,-0.02616510,-0.02423654,0.02853313,-0.04853377,-0.06298510,-0.02357131,-0.01883593
-0.08492123,-0.00175287,0.13337184,0.02978850,0.00555049,0.00719514,0.08467582,0.03194918,-0.00647238
0.05070692,0.02938768,-0.01407103,0.04312390,-0.04156519,-0.04269242,-0.02096925,0.00468611,-0.02638728
0.05493896,-0.01715908,-0.00166039,0.06171935,0.00891466,-0.02427151,0.05686864,-0.01569248,-0.00806328
-0.01280188,0.00429719,0.00622679,-0.01860732,-0.00648090,-0.02450612,-0.06937006,-0.01329838,-0.01534993
-0.01591000,0.02349650,-0.04144973,-0.01407354,0.00284922,-0.00519102,0.02591815,0.00997630,0.01417785
-0.01442762,-0.00633028,0.03397794,-0.04170001,-0.00687798,0.01885046,-0.03034984,0.01627840,0.02268468
-0.07670646,-0.03462624,-0.01230958,-0.06705631,-0.00187023,0.01407750,-0.05768099,-0.03566080,-0.00322451
0.02583857,0.01251868,0.02373229,0.05273844,0.00588928,-0.01495573,-0.01542256,0.00535413,0.01131644
-0.03010014,0.02732334,-0.00799934,0.02567232,0.02357883,-0.00943316,0.04000102,-0.01431750,-0.04954923
0.02925599,-0.00183111,0.02259228,0.08515606,-0.01661267,-0.04046500,0.00138630,-0.02875104,-0.01055608
0.00244919,-0.00026956,0.02962016,0.01786436,-0.03262594,-0.00138836,0.02615711,-0.04710958,0.00579746
-0.05748321,-0.01389118,-0.01834472,-0.01483680,0.03683144,0.01479322,0.03140927,0.00314680,-0.02366372
-0.05293265,0.01292963,0.01535325,0.01591233,0.03763438,-0.03930587,-0.03133968,0.01595963,-0.01195449
0.05348080,0.02658486,0.00876043,0.02844527,0.03889704,0.03252705,-0.00764182,0.01716076,0.02965650
-0.00301355,0.02555202,0.05037532,-0.01721323,0.01261554,0.08051863,-0.01803607,0.00707455,0.01731893
0.03148978,0.01107027,-0.01069705,0.01301651,-0.02183655,-0.01746234,-0.03502968,-0.02352608,-0.05885873
0.12223154,0.02345349,0.08371081,0.04848223,-0.00625017,0.04923093,0.09069013,-0.02010633,-0.06835669
-0.04751145,-0.04047136,-0.05134831,-0.03849694,-0.03000253,-0.01792769,-0.04462352,0.00865647,0.03694465
-0.07293066,-0.00507358,-0.01841155,-0.03982436,0.01064267,-0.01130533,-0.02434552,0.05112308,0.00419458
0.06407917,-0.01477201,-0.01033318,-0.01846057,0.02252288,-0.00455932,-0.07588562,0.00126951,-0.00162716
-0.01371751,-0.01634853,-0.01717109,-0.01270141,-0.00425730,0.00121375,-0.04331956,-0.01194204,0.02883970
-0.00172455,0.01415315,-0.01974221,-0.03463768,-0.03296314,-0.04561168,0.01590169,-0.00528866,0.00306218
0.03507541,0.04324506,0.00716593,0.09313433,0.00622731,-0.03162238,0.04116224,-0.03994066,-0.03635352
-0.03886820,-0.07458238,-0.05213063,-0.06969308,-0.04264060,-0.02642315,-0.06644169,-0.02968567,-0.06497823
-0.00514580,0.05029031,-0.01296954,-0.03097371,-0.00008721,-0.02389168,-0.00964184,-0.02254383,0.00860485
-0.03812997,0.01688735,-0.01710438,0.00041483,0.01204009,-0.02101322,0.00733477,0.02824766,-0.02723992
-0.03369849,-0.00447934,-0.07713468,-0.01726136,0.01182824,0.01546000,0.01433149,0.01265808,0.01189572
-0.02006778,0.03979554,-0.01152437,-0.03192601,0.03954047,-0.00780258,0.00665722,0.01097261,-0.00081062
-0.03559550,0.00700464,-0.02904909,0.00476341,0.03757989,0.00445312,-0.03210896,0.00357801,-0.02038158
0.01833051,-0.02145250,-0.00599289,-0.03333693,-0.02893838,-0.00130170,0.00769813,-0.04356776,-0.00707851
0.00585481,0.00980585,0.03997639,-0.02197696,0.02474182,0.02532824,-0.01120465,0.01857463,-0.02196749
-0.06429659,0.01058702,-0.00471147,0.05297916,0.02217804,0.00786533,0.01538800,0.00280546,0.00207017
-0.04439263,0.04522395,0.02301385,-0.03267730,-0.01907264,0.00325930,-0.03718714,-0.00483534,0.00489467
-0.05125114,-0.05575961,-0.03036232,-0.00485527,0.01900410,0.01001394,-0.00294719,0.03171477,0.01078106
-0.00126795,0.00048431,0.04268433,-0.01212379,0.06813341,0.00566746,0.08015973,0.03056963,0.02740617
0.01842846,0.00099439,-0.00255137,0.02052112,0.01840624,0.02908066,0.02602047,-0.00598870,-0.00435618
-0.07982704,0.01947776,-0.01057216,0.01998760,-0.02415466,0.06045502,0.00319599,0.05295916,-0.04053913
-0.00388136,-0.02412814,-0.04302487,-0.04028658,0.02845002,0.01566447,-0.01337718,0.05270043,0.03404282
-0.04492839,-0.01833043,-0.02239167,0.00002794,0.07199758,0.03144319,-0.00464381,-0.04704000,-0.04321358
-0.04387956,-0.03840971,-0.02547764,-0.05926903,-0.04032762,-0.05690297,-0.01455345,0.00306833,-0.04330980
-0.00376859,0.02946170,0.00926881,-0.02713333,0.02727915,0.00644610,-0.01983017,-0.06353524,-0.05659571
-0.06086085,-0.07371105,-0.03013725,-0.01169544,-0.03949217,-0.01386632,0.02427543,0.00588378,0.02550774
0.01560692,-0.05959214,-0.00721933,0.04079862,-0.03288464,-0.02639492,0.02203222,-0.00649616,-0.01312143
-0.00050490,-0.00141334,0.00268832,-0.00079739,-0.00111999,-0.00082347,-0.00074147,-0.00241792,-0.00345042
-0.05824914,-0.02240962,-0.03514837,-0.04405431,-0.00703655,-0.03641468,-0.02511309,0.00088017,-0.02244172
0.02633568,-0.01090793,0.02183863,-0.01053931,-0.00808635,0.00129694,0.04025249,0.01495939,0.02666746
-0.01483291,-0.00239033,-0.05799567,0.01194362,-0.03885150,-0.02088590,-0.04810651,-0.02624503,-0.05319040
-0.03653126,-0.04128416,-0.01536771,0.00048332,0.03447658,0.00856458,0.00893583,0.04279926,-0.03085910
-0.02589675,-0.04141532,-0.03803713,0.00774792,0.03508642,-0.00630732,-0.04612473,-0.02722939,-0.06882937
-0.05092908,-0.01632986,-0.02305506,-0.07061220,-0.04065914,0.02161858,0.00600316,0.01816945,0.00543042
-0.02569802,-0.01998898,-0.05233433,-0.01338007,-0.01542524,-0.03051264,-0.02711950,-0.00413934,-0.03529338
-0.01033975,-0.01782057,0.01966609,0.03548509,0.00798941,0.00805073,0.00359648,0.00035401,-0.01131927
-0.00687946,-0.01366718,-0.04957860,0.00127704,0.01006740,-0.02393785,-0.02293170,0.00035956,-0.02442530
-0.00267068,0.00582395,-0.03755175,-0.02823176,0.01044561,-0.00158849,0.02820992,0.02037072,0.00174105
0.02307181,-0.01639971,-0.04394542,0.03769258,0.05611749,0.03346522,-0.00051785,0.02160212,0.01818926
-0.03827478,0.00009511,-0.03662777,-0.01145760,0.02237520,0.04421283,-0.00938940,-0.00947781,-0.01643898
-0.01836188,0.04898284,-0.01897634,-0.01687309,0.02667175,-0.04396549,0.01047317,0.01165934,-0.01015718
0.03803775,0.06206764,0.01047544,0.00949190,-0.01415638,0.00129965,-0.00658631,0.00948750,-0.03649165
-0.01994185,-0.02270009,-0.00211471,-0.01937290,0.01521420,0.01247309,-0.02205579,-0.00162223,0.02562427
-0.03372358,0.04026826,0.00137876,-0.00297628,0.03738867,-0.01136899,0.01062539,-0.01371597,0.01767312
-0.00631654,0.01564300,-0.01897298,-0.00994049,0.01413321,-0.00826566,-0.05758127,-0.01024081,-0.02434080
-0.01340837,-0.00227337,0.00105314,0.01635279,-0.00379410,0.02346400,0.00187601,-0.00400202,-0.00425034
-0.00627334,0.00090489,0.00490692,0.00170144,-0.00253901,0.00215087,0.00219355,0.00104550,0.00131450
-0.02554199,-0.02273426,-0.03488488,-0.01518780,-0.02550541,-0.05847863,0.00101726,-0.00252807,-0.02542540
0.01925210,0.03472307,0.03352648,-0.00534701,-0.00783417,-0.01112771,0.03951721,-0.00164998,-0.01475303
-0.01009582,-0.00657940,-0.02540292,-0.02015520,0.02579299,-0.01531200,-0.01520493,0.02471888,-0.01525546
-0.05252837,-0.01671144,-0.01071557,0.00857958,-0.00825467,-0.04605914,-0.00059336,0.00083080,-0.00644293
-0.03309477,0.01020930,0.00285809,-0.02526261,-0.00509527,0.01862489,-0.00625702,0.03058943,0.04002890
-0.07341067,-0.01209545,0.03540081,0.05115455,0.05150122,-0.01389679,0.03938547,-0.05840124,-0.02281528
-0.01639997,-0.02358948,0.00100963,0.02377077,-0.00178656,-0.01346260,0.00139910,0.01988739,-0.00616318
-0.00887569,-0.04186158,-0.03682990,-0.00883629,-0.03132146,-0.02524880,0.02960607,0.03609458,0.01370434
-0.03509408,-0.00938332,-0.03090976,-0.01301487,0.01057862,-0.00788882,0.03224061,0.07191657,-0.05527952
0.00827642,0.04754368,-0.00192909,-0.03786376,-0.04205414,-0.06479185,-0.02012222,-0.00426720,-0.03739518
-0.01936094,-0.02213139,-0.05465998,-0.01702011,0.02261419,0.00837754,-0.00204952,0.03039538,0.02343968
-0.03231103,0.00750602,-0.04097781,0.00519497,0.00121549,0.00595245,-0.00304218,0.00551391,-0.04431465
-0.01080854,0.07729995,-0.03910573,0.04727579,-0.00120334,0.02717889,-0.00313256,-0.00772557,-0.00472353
-0.05970811,-0.01795491,-0.03362450,-0.02481105,-0.00236746,0.01205046,-0.02251464,0.02171947,0.00681260
-0.02494325,0.00629292,-0.03438831,0.00756142,0.02094512,-0.03579559,-0.00284933,-0.00331121,-0.07980538
0.00394530,0.00984404,-0.00362640,-0.02330477,0.01857352,-0.03548475,-0.00302350,0.03847153,0.01011373
-0.04072356,-0.00806735,-0.00611195,-0.02272690,-0.01292473,-0.00635200,-0.02014332,0.01673402,0.00620798
-0.06430656,0.01037034,-0.05311361,-0.06604333,0.00039775,-0.02297341,-0.05152323,-0.02862481,0.00076545
-0.04309503,-0.06054292,-0.04251017,0.03945499,0.00560103,0.01451150,0.02880245,0.02319211,-0.01823237
0.03148594,0.00462428,0.00310413,0.03008114,0.00262796,0.00027228,0.02859305,0.05117815,0.04066446
-0.03947140,-0.01696976,0.02287806,0.00184395,0.01798917,0.01106467,0.00097236,-0.02043163,0.01431884
-0.01502641,0.02186340,0.00462397,-0.00230045,0.01474209,-0.02797565,0.02165290,0.00148840,0.00815793
