-0.04104072,-0.01721635,0.03550540,-0.06149641,-0.02315063,0.06443567,-0.04758556,-0.03013592,-0.01108029
-0.03232360,-0.01431637,0.02919289,-0.03351035,-0.03588468,0.00419738,-0.01275476,-0.00392224,0.00795330
-0.02715563,0.01125650,-0.01534187,-0.03578541,-0.01316387,-0.01778193,-0.03082359,-0.01060657,-0.01229498
-0.04785942,-0.03657499,0.00013304,0.02255071,0.00313191,-0.00759283,0.04730301,0.02905424,0.00853755
0.03375250,0.00398741,-0.01096977,0.01318929,-0.03039968,-0.02265717,0.01987074,-0.02901218,-0.00382704
-0.05602349,-0.06527860,-0.02489590,0.02529440,-0.01052168,-0.02173920,0.02048322,0.04026760,-0.00963423
0.01515719,0.00201400,0.02248514,0.03283526,0.02554756,0.02581884,-0.04843237,0.04199509,0.13998683
-0.00588946,-0.02315472,-0.00463608,-0.01202417,-0.03847244,-0.01367514,-0.03525125,-0.04383392,0.01235883
-0.09399049,0.01565875,-0.01642679,-0.08277225,0.03209853,0.03784423,-0.03071988,0.03950459,-0.00622146
-0.10535752,0.01839560,-0.01749539,-0.10966583,0.07337704,0.07352677,-0.04944433,0.06983130,0.06529503
-0.00844458,0.02193051,0.00840851,-0.02265673,0.01715962,0.00685523,-0.02588800,0.01485860,0.02444006
0.01213641,0.06420464,0.06655300,0.01499598,0.05059181,0.07939646,0.03026113,0.03460594,0.06789058
0.02012826,-0.02807225,-0.02644779,-0.04811702,-0.03630161,-0.05408591,-0.01153988,-0.00542367,-0.00897005
0.02307475,0.05632387,-0.00001747,0.00337259,0.01391841,-0.02559415,-0.04014536,-0.03136431,-0.05266048
-0.02376305,0.00459969,0.01492878,-0.04204663,-0.01205618,0.00114960,-0.03411486,-0.01465356,0.01498092
-0.04495529,0.02169000,-0.00356334,-0.04052116,-0.05038265,-0.08864684,-0.01835872,-0.00145864,-0.08332542
-0.01497821,-0.02093792,0.00816990,-0.04174371,-0.05575836,-0.01075863,0.01890662,0.00911917,0.04893650
-0.00704423,0.00773411,-0.01036518,-0.05900164,-0.01073700,0.01073210,-0.04037512,-0.01059471,0.00029830
0.00908623,-0.00241349,0.00190546,-0.00097881,0.00197246,-0.00110134,0.00370559,-0.00192298,0.00274430
-0.01768641,0.07167999,0.08640200,-0.14686538,-0.07951113,0.11523917,-0.05217209,0.00933695,0.06708530
-0.08109212,-0.07815208,-0.00060761,0.07405526,0.06156554,-0.06978932,0.00113305,0.04163180,0.03311829
0.00068625,0.07153370,-0.01078928,-0.04907679,-0.00399305,0.00590153,0.00801290,0.01165175,-0.01042664
0.02563892,-0.00222471,0.00700414,0.02189638,0.01868797,0.04033356,0.01702100,0.04808458,0.06600292
-0.05205125,-0.00586986,-0.00866340,-0.02523762,-0.00281897,-0.00988318,-0.00787871,0.00021638,-0.01891292
0.02325876,0.01141398,-0.02332358,-0.02051474,-0.02942208,-0.02265245,0.00076322,-0.00615221,0.00560092
0.03055408,-0.04526193,-0.00782485,-0.00551786,-0.13698058,-0.01860305,0.07677472,-0.04988841,-0.02163695
0.01451220,0.01439775,0.02898500,-0.00143048,-0.00258630,0.00927361,0.00546026,0.00388115,0.00345027
-0.05109858,0.02190659,0.02692095,-0.04087760,0.01212810,0.03728352,-0.02327669,-0.01883591,-0.00306347
-0.04114666,-0.07199312,-0.00405680,-0.00860344,-0.03800998,0.03308043,-0.00919447,-0.01354252,0.02934406
-0.00607550,0.02295224,0.02104488,-0.02371136,-0.04199827,-0.00235458,0.00773894,0.01366354,0.05463333
-0.00165934,-0.03337896,-0.07441473,0.00338015,-0.02874297,-0.05105224,0.03283846,0.00448209,-0.02255940
0.03656563,-0.10271153,-0.07484477,0.06096335,-0.04007093,-0.03799420,0.10337396,0.03170581,0.05121315
-0.01249328,-0.01129382,0.01112037,-0.00701482,-0.00676888,0.00580195,0.06038708,0.05007387,0.03064639
0.01245418,0.01176759,-0.05821482,0.05958525,0.09026477,-0.05537209,0.05666520,0.04627471,-0.04312666
0.00767036,-0.03824644,-0.05114140,0.13146827,0.06059663,-0.06620556,-0.02423004,0.00097773,0.03103369
-0.06723675,-0.04991687,-0.05940793,-0.01053175,-0.02909489,-0.04408395,0.01604039,-0.00582955,-0.00534373
0.04663784,-0.02715603,-0.01460913,0.03168195,-0.04396921,0.00231997,0.03611266,-0.01523277,0.01032246
0.01593491,0.04086691,-0.00091232,-0.00785852,0.02410478,-0.00101423,-0.02251246,0.00578321,-0.00118650
-0.05478638,-0.09565789,-0.07977864,-0.06321459,-0.09947148,-0.04237166,-0.08672813,-0.09749246,-0.01533397
-0.00535050,0.04476795,0.00146687,-0.05650408,-0.00126217,-0.01935949,-0.04348433,0.00094766,-0.00834514
0.00400189,0.02367910,-0.03735141,0.00522260,0.02032782,-0.03713969,0.00909076,0.02756144,-0.02290474
-0.02073179,-0.00500808,0.13534847,0.04434732,-0.00568256,-0.09452917,0.01206942,0.00851797,-0.03374508
0.00664004,-0.00487602,0.00891673,-0.02739797,-0.02702746,0.02206990,0.02012274,0.01281536,0.01533600
-0.00413947,0.02749247,0.03367296,-0.01782945,-0.03670544,-0.00591146,-0.00837404,0.00071177,0.00508424
-0.00533065,0.01817926,-0.00742888,0.00696409,0.02226074,0.02493118,0.02440598,0.01095118,0.00096347
-0.00082273,0.00241700,0.00266572,0.00188626,0.00346319,-0.00119233,-0.00288485,-0.00138016,0.00125669
0.00716607,-0.02861020,0.06631877,-0.03451960,-0.06067375,0.02760866,0.00415588,-0.05015518,0.05378115
0.02348850,0.01092837,-0.00706900,0.01424668,0.00003342,-0.02168483,0.01224133,-0.00228168,-0.02430291
0.04504950,0.06844263,0.06613190,-0.00699125,-0.02938877,0.00778212,-0.01035622,-0.03455819,-0.01028926
0.00858003,-0.02556724,-0.06414219,0.11096328,0.02976291,-0.08312761,0.05026146,-0.01038028,-0.01540515
-0.00747271,-0.04828196,-0.03024074,0.06954528,0.02364070,-0.03752090,0.12803002,0.06812356,0.02428975
0.02671464,-0.02720029,-0.02885029,-0.00215388,-0.05989211,-0.00858546,0.01601524,0.03681154,0.03602723
-0.00242553,-0.04261475,-0.04344512,0.02405082,-0.01651338,-0.03194560,0.05514772,0.01493233,-0.06130709
-0.00567731,0.02056534,0.06605729,0.00105947,0.01796726,0.04364408,0.00302654,0.04369340,0.06984439
-0.03107702,-0.04126389,-0.00903615,-0.04220060,-0.09053145,-0.02746558,-0.02163058,-0.07127944,-0.01424684
-0.02541219,-0.00891941,0.01113587,-0.04355172,-0.01557679,0.02170184,0.00636017,0.02719529,0.06683950
-0.01883796,0.03907034,-0.00817948,-0.07254387,0.00160785,-0.01278735,0.03296258,0.08058915,0.01138361
0.04648016,0.00865140,-0.02362353,0.01771062,-0.01405097,-0.07495495,0.02651073,0.03141843,-0.02173243
-0.00077026,-0.05192064,-0.04184629,-0.00502851,-0.07272147,-0.05303460,0.00888077,-0.05431735,0.00491925
-0.02711900,-0.02394875,-0.03105639,-0.06721542,-0.04357035,-0.03302924,0.02775170,0.02854918,0.00714376
0.00316465,-0.01148627,-0.02885766,0.02055712,-0.01233756,-0.01022285,0.06928606,0.03435472,-0.00935449
-0.01382083,-0.00899450,0.01181454,-0.00778539,0.00157200,0.01627991,-0.02475657,-0.00742603,0.00539158
-0.01087716,0.00461942,-0.00057857,0.00272245,0.01412697,0.01870658,-0.00803533,0.01490281,0.02709523
0.05071327,-0.06638192,-0.05088828,0.08047923,-0.06118983,-0.06970817,0.01144383,-0.05095793,-0.02142569
0.01630275,0.00350660,-0.04475524,-0.03798576,-0.03737197,0.00446719,-0.03242830,-0.02142524,-0.04427043
-0.00392174,-0.03181928,-0.03798330,-0.00394746,-0.03191916,-0.07892894,-0.00797893,-0.04802319,-0.10962094
-0.02634078,-0.05121804,-0.01836518,0.01233212,0.00916038,0.02005215,0.03044474,0.02616232,-0.03855843
0.04488538,0.04086552,-0.01297170,0.02361018,0.03996370,-0.02549628,0.00582427,0.04416181,0.00616359
0.00582284,0.00056769,0.04682881,-0.01827664,0.05635394,0.05908777,0.02143824,0.02452506,-0.02007946
0.00646315,-0.00013994,-0.05040014,0.00525601,0.03633554,-0.00688856,-0.08200571,-0.04599273,-0.01399094
0.05934784,0.05585837,0.07366221,0.00376046,-0.00925439,0.03184737,0.01274175,0.07241134,0.15175164
-0.05439480,-0.07421019,-0.03145527,-0.01531583,0.02336119,0.06828573,-0.05881507,-0.09340572,-0.06399059
0.05164649,-0.04649909,0.02337635,0.05169466,-0.09210920,-0.02074187,0.02760917,-0.04651731,0.01958561
-0.01974822,-0.09765152,0.02121410,0.01761832,0.03161554,0.22998407,0.06434822,-0.10855851,-0.04358994
-0.02184956,0.00873628,-0.01863920,-0.00818954,0.02685377,0.00414415,-0.01447438,0.02463468,0.00280994
0.03221459,-0.14911093,0.20338157,0.00850322,-0.09135096,0.32911068,0.00117792,-0.11802216,0.08100814
-0.04531545,-0.04526627,-0.04647681,0.07730009,0.06894600,0.08601785,0.05059801,0.01783089,0.07136141
0.06641832,0.03289210,0.01107213,0.05471772,-0.01594085,-0.02091770,-0.00197132,0.02119453,-0.00956594
0.00737013,-0.05075973,-0.03568963,0.04316267,0.00018139,-0.07327218,0.00441286,-0.04229764,-0.03313941
-0.02345141,-0.02553044,0.02283687,-0.06565536,-0.07016554,0.19350109,0.01156315,-0.01701732,-0.09000045
0.01438526,-0.03958420,-0.02133507,0.01907543,-0.02154634,-0.04045322,-0.01321994,-0.01231350,-0.03717951
0.03932136,0.02293215,0.06693731,0.11748008,0.08578248,0.00453949,0.01688918,0.03072230,-0.03460865
0.00165156,0.00018323,0.00179188,0.00263628,-0.00050265,0.00050925,0.00071146,0.00550374,-0.00162211
0.03555436,-0.09714434,0.07412486,-0.15323332,-0.21035701,0.26699066,0.02257316,-0.02161839,-0.09980810
-0.03313124,-0.01169405,0.01827942,0.19492868,0.10898210,-0.18111186,-0.04137217,-0.05356210,0.07067966
0.03475581,-0.01122938,-0.00765720,-0.07056274,-0.02910873,0.23254438,0.02788063,-0.03252160,-0.00022431
0.06495845,-0.10284837,-0.00587595,0.00189594,-0.10984118,-0.05230293,0.05498906,-0.14634648,-0.09846042
-0.04821169,-0.03737633,-0.01231736,0.00102383,0.01310753,0.00864128,-0.00928200,-0.00526178,0.00833161
-0.00614865,-0.04660964,-0.03063784,-0.01577381,-0.05285450,-0.01265657,0.03982506,0.01894218,-0.01216576
0.01893342,-0.05152893,-0.03405046,-0.07747084,-0.13512333,0.14968622,-0.02833893,0.01485953,0.03679572
-0.02255181,0.00729840,0.04768172,-0.01457447,0.00264415,0.04498868,-0.01645404,0.00032685,0.02915812
0.00041720,-0.00534231,0.00828648,0.00748260,-0.00625253,0.01540582,0.03549046,-0.02543543,-0.01880504
-0.01798015,-0.08272043,-0.04899723,-0.03303490,-0.06550794,-0.05221019,-0.02255515,-0.05576169,-0.08548106
-0.07464620,-0.00480700,0.00918749,-0.07565667,-0.07862433,0.03143627,0.00175015,0.04609144,-0.04695081
0.04611085,0.02396342,0.03077718,0.03196394,-0.02068914,0.00391333,-0.01316255,-0.07455081,-0.06119771
-0.06156045,-0.10984405,-0.06345442,-0.06310020,-0.18502152,-0.08396947,0.02380337,-0.04467677,0.08657860
-0.06576378,-0.06187327,0.08988362,-0.03337484,-0.02251909,0.06289428,-0.00685312,0.00498462,-0.04050857
-0.04956941,-0.03901718,-0.01811647,0.12414432,0.13899784,0.03191457,0.07359273,0.04673590,0.03411268
0.02751759,-0.00033384,-0.02686300,0.04590584,0.00844379,-0.04436171,-0.09148373,-0.00189226,0.11221299
0.01951706,-0.00757454,-0.04084539,0.04638921,0.03201919,0.01321415,-0.07522492,-0.05929174,-0.01711802
0.08037564,-0.02558405,-0.02103122,0.00271625,-0.06237008,0.00413827,0.03896549,0.00283987,-0.01472168
0.01759360,-0.02850955,-0.04089545,0.03849166,-0.00405654,-0.00941330,0.04273850,-0.04162548,-0.05469362
-0.03567772,0.09806790,0.03093299,0.01672322,0.04299595,0.04712426,-0.07533499,-0.03834194,-0.04202748
0.00011617,-0.00506174,-0.00056767,-0.01958395,0.03627313,0.08085629,0.03343019,-0.01024620,-0.02664032
-0.00981589,0.00723774,-0.03162511,0.00741501,0.00178138,-0.01195574,0.01858196,-0.01206927,-0.06768493
-0.15788808,-0.05421256,0.10872640,0.23961152,0.10420519,-0.21518515,0.03937455,0.03277928,-0.01745268
-0.01397405,0.00666955,0.01679078,-0.03873956,-0.01400999,0.04268394,-0.00281217,0.01101031,0.04023803
-0.03289695,-0.02404139,0.04776655,-0.05312305,-0.12097184,-0.01777066,-0.02981578,0.02859989,-0.02402927
0.00053555,-0.01844457,-0.03772371,-0.02147302,-0.00145379,0.07524668,-0.02410256,0.01607838,0.01105341
0.00634408,0.00887995,0.00088545,0.00474561,0.00451697,0.01037747,-0.00246044,0.00282392,0.00173962
-0.05699401,-0.09313571,-0.02809615,0.02838865,-0.03069803,-0.04089607,-0.00951167,-0.02433355,0.01387686
-0.00082649,0.00453586,0.01722647,0.02316518,0.00923835,-0.02140976,-0.00262056,-0.00407469,-0.03081661
0.03317881,0.02146777,0.05041347,-0.00041194,-0.03971718,0.09852108,-0.03869785,-0.05299645,-0.02437543
0.02561150,0.03406075,-0.04531593,0.04393808,0.00103441,0.01136521,-0.01395153,-0.03689887,0.05114030
-0.00609301,0.01751650,0.00601732,-0.02990777,0.05634664,0.03012409,-0.07540767,0.03415996,0.05772395
-0.08142670,-0.05276835,-0.09234408,-0.06034794,-0.07112612,0.10039353,-0.01113334,0.01490070,0.07397021
-0.01444212,0.04143669,0.11127799,-0.04727657,0.00828625,-0.01890127,0.01081613,0.05830277,-0.04827910
0.09738282,0.14448729,-0.01221042,0.19797738,0.19156566,0.00708171,0.10672076,0.02009390,-0.03054906
-0.01206004,-0.03429385,0.01878483,0.02406192,0.07483771,0.03871539,-0.01768603,-0.07797399,-0.02560059
-0.02425584,0.00139190,0.05227279,-0.00332892,0.02753938,0.03685697,-0.04084449,-0.04930808,-0.06497972
0.06362349,-0.05333129,-0.01017640,-0.05773117,-0.05922119,0.16814664,0.05027958,0.03291482,0.03285327
0.02242238,0.01596622,-0.04838367,0.00714194,-0.00086072,0.01123813,-0.00237372,0.03792732,-0.00061254
-0.01635489,-0.00107750,0.06155477,0.00757376,-0.04237580,-0.05216258,-0.08121793,-0.05924696,-0.02118359
0.04186611,0.02007889,-0.04211312,-0.03531091,0.00296782,0.13009280,-0.02763651,-0.00894187,0.07190044
-0.02464590,-0.01443276,-0.01292648,-0.07904531,-0.08834429,0.09440504,-0.00902978,0.02129645,0.01493689
-0.00325225,-0.03403414,-0.02108739,0.02813101,-0.02373003,-0.01520309,0.02750965,-0.00481893,0.01395414
-0.00874332,0.00557950,-0.00274355,-0.02293416,0.00052991,0.01304305,-0.03156200,-0.00547229,0.04032079
-0.10185044,-0.06235380,-0.02105903,-0.02360810,-0.06912564,-0.02927652,-0.01724515,-0.04406160,0.06285329
0.00448905,0.00487619,0.02543982,-0.03723051,-0.02760660,-0.00798502,-0.00878085,-0.01979159,-0.01712651
0.02377696,0.03179905,0.06656484,0.03012269,0.04473268,0.04638876,0.01505833,0.02916838,0.02323628
-0.02523276,-0.00938784,0.00020611,-0.00389791,0.00221330,-0.00212025,0.00862528,-0.00789064,-0.01964346
0.02644657,0.03312800,0.02245257,0.02537804,0.03620358,0.02656239,-0.00917830,-0.00470015,0.00927705
0.00392768,-0.03623687,-0.06209365,-0.00235589,-0.01544765,-0.03428496,-0.01832803,-0.03255025,-0.03445283
0.04909507,0.05313448,0.04400580,0.04681821,0.08329523,0.07011267,0.02866903,0.00961383,0.01770996
0.00917531,0.00281124,-0.00117641,-0.00601251,0.00908671,0.01182811,0.00334554,-0.00635135,-0.00909902
0.00122431,-0.00300680,0.01527057,0.00365918,0.00152476,0.01333813,-0.00655288,-0.05619174,-0.05425947
-0.06895304,-0.09693452,-0.09865250,-0.04299426,-0.07253903,-0.06513211,-0.04698554,-0.02060271,-0.00317073
-0.06699753,-0.03595765,-0.05607221,-0.02743166,0.03769651,-0.00558317,-0.00647504,-0.01769121,-0.01481034
-0.01883914,-0.02183555,-0.02650854,-0.01319110,-0.02031002,-0.02574249,-0.00590866,-0.01176558,-0.01358697
-0.00216918,0.03325192,0.01460056,0.00255118,-0.00065074,0.00196334,-0.00148556,-0.05605420,-0.04515849
-0.02777237,-0.01581783,-0.00810438,-0.01580356,0.01165618,0.02370982,-0.02755467,0.00257002,0.02305760
0.02601886,0.00583085,-0.01133916,0.00029856,-0.01277503,-0.00669081,0.03621238,0.02563877,0.01831893
-0.00630241,-0.00956894,-0.00366056,0.01604895,0.00203097,-0.01456345,-0.00747928,-0.01247188,-0.00892132
0.01523516,0.02412678,0.00769250,-0.00597411,0.04141138,0.05949173,0.01546202,0.00473330,-0.00603274
0.04733910,0.07911018,0.07393537,0.03763422,0.06111774,0.05852945,0.00065363,0.02572693,0.02293803
-0.05003235,0.04862459,0.00505021,0.08633704,0.07557200,0.01425753,0.02463201,0.02543793,-0.03207908
0.00367480,0.00409912,-0.00038886,-0.00158841,-0.00270147,0.00070444,-0.00076890,0.00379055,-0.00588347
-0.03492723,0.05290993,0.01083726,-0.10282930,-0.00588824,-0.02082767,-0.02431368,-0.03693243,-0.09028363
0.01336196,-0.01211986,0.03192426,0.04604429,-0.04293540,-0.03202841,-0.01765120,-0.00514253,0.03115836
0.00724164,-0.00747449,-0.03658872,-0.01192490,0.04443506,0.01431990,0.00849169,-0.00077996,0.00435389
0.16361171,0.02959623,0.04089662,0.06214193,-0.04829985,-0.05226315,-0.04788390,-0.11336839,-0.15563287
0.01662502,0.01878780,0.00716906,0.01063489,-0.00226631,-0.01447169,0.00295534,-0.00554066,-0.01192531
0.01620325,0.05828736,0.03186272,0.00595541,0.02822578,0.01687238,0.00824435,-0.00608592,-0.01836711
-0.00919843,0.03755398,-0.09554610,-0.04148066,0.02322393,-0.09383999,-0.01938013,-0.01637252,-0.11154310
0.00160116,0.00596329,0.00638749,-0.00461965,0.00346062,-0.00101009,0.00003255,-0.00469646,0.00515160
0.00723603,-0.00990873,-0.00741584,-0.06565178,-0.07097580,-0.06873477,0.00721178,0.02070322,-0.00264685
0.11834382,0.06093420,0.07331385,0.02025988,-0.00610566,0.01363536,-0.01152396,-0.04161854,-0.02215665
0.05285540,0.02289556,0.02374173,-0.00195137,0.00923640,0.01759434,0.00265160,0.00275969,-0.03689644
0.00952574,0.04509856,0.01343804,-0.00495972,0.02052400,0.01961787,-0.01211989,0.01834993,0.01466101
-0.00857213,-0.02612536,0.01460374,-0.04258186,-0.05107481,-0.03953724,-0.05172635,-0.03045094,-0.02425365
-0.03142967,-0.01000655,0.00631794,-0.01651216,-0.01345202,-0.00624398,-0.01250558,-0.01056110,-0.01807888
-0.00584374,-0.02115751,-0.00582372,0.03826421,0.01969219,0.00181861,-0.03019663,-0.02866827,-0.00589962
0.00407716,0.00231271,0.03374764,0.00912852,0.00881949,0.01438012,-0.06439466,-0.04343540,-0.03592650
0.04628681,0.05331133,0.03461133,0.03298487,0.01614453,-0.01306721,0.00472645,0.00132864,-0.00647572
0.02944998,0.00882331,-0.01163983,0.03562337,0.03575573,0.00549529,0.01930052,-0.00234950,-0.01920536
0.00392976,0.01382475,0.03488032,-0.00589059,0.01228152,0.03280122,-0.01286645,-0.02919480,0.01319088
0.01699372,0.02593968,0.02520728,0.03025942,0.03489899,0.03722708,0.02687475,0.02976243,0.01528321
0.03397924,0.06198345,0.02149823,0.03288005,0.09385332,0.05426801,0.01319625,0.03247827,0.02595200
-0.00570133,-0.00633789,0.01390578,-0.01124164,-0.00151054,0.02564762,-0.00101503,-0.00726650,0.01212509
-0.03290430,-0.04226394,0.03294209,0.05243097,-0.05934776,0.00713638,-0.01451239,-0.03128264,0.02461606
-0.04425762,-0.02025210,0.01498886,-0.02052954,-0.00048716,0.02270628,-0.00564078,-0.00264009,0.00379772
0.00555698,-0.01116076,-0.00071433,0.01532996,-0.00051458,0.00790800,0.06789280,0.05062425,0.02289438
0.02187358,0.02970092,0.02941603,-0.01411119,0.02744669,0.02283382,-0.03445655,-0.05030997,-0.05667889
-0.00269874,-0.00479638,-0.00081476,-0.00183688,-0.00048370,0.00079145,0.00150161,-0.00087464,-0.00480145
-0.03618229,-0.05373594,0.00760117,0.00455112,-0.01754205,0.01553125,-0.01181510,-0.02550601,0.00207632
0.00203739,0.01622087,0.02112179,-0.00127421,0.00112193,0.01585995,-0.02219876,-0.01866331,-0.00547956
0.04436224,0.03050751,-0.00328152,0.02652330,0.01342854,0.00205300,0.03184452,-0.00651559,-0.02797597
0.04019844,0.05054730,0.03068758,0.01193007,0.04012655,-0.00191931,-0.01269039,0.02578615,0.01145852
-0.05633122,-0.00013764,-0.01916032,-0.01378850,0.00692575,-0.03153504,-0.02838600,-0.01296279,-0.02850772
-0.02366814,-0.00741455,-0.01512737,-0.05631223,-0.02018815,-0.03779789,-0.04933422,-0.03615947,-0.05928601
-0.05126878,-0.01146749,-0.01748275,-0.00190478,0.01075446,-0.01616324,0.01468685,0.01909660,0.00611726
0.04637897,0.02884607,0.04016069,0.03298790,0.03835424,0.04755425,-0.03318650,-0.02873764,-0.02387480
-0.00752383,-0.00349865,0.02031068,-0.01222119,0.02497005,0.02651605,-0.02337223,0.00023437,0.01317079
-0.04560980,-0.00149201,0.00877544,-0.02146970,0.04149579,0.04424156,0.01250605,0.02205328,0.01982347
-0.02946772,-0.02030525,-0.03518704,-0.02553485,-0.00008785,-0.02064612,-0.00759038,-0.04030989,-0.05125324
-0.01913354,-0.01105707,0.00653984,-0.03024019,0.00200021,0.01819670,-0.01601951,-0.00355420,-0.00626275
0.05240681,0.00379592,0.03687022,0.04974366,0.01511474,0.03742209,-0.00282460,-0.00270067,0.00691863
0.02426495,0.01872873,0.02709986,-0.00674285,0.02747328,0.04097769,0.00690140,-0.00312643,-0.00623048
-0.03219642,-0.01295810,-0.02872912,-0.03666141,0.01397174,-0.00665218,-0.00669936,0.00004888,-0.03926184
0.02450766,0.00084955,0.00587699,0.02699994,-0.00930472,-0.01311953,0.01955682,0.00050263,-0.00746958
-0.00879985,-0.00665617,-0.01589056,-0.00707560,-0.00719363,-0.01598130,-0.01024175,-0.00789428,-0.01797959
-0.02566091,-0.02801784,0.02684107,-0.01970634,-0.04571299,-0.02452249,-0.06100918,-0.06433867,-0.06724152
0.00624910,-0.00012658,-0.03953484,-0.01279617,-0.01526515,-0.05922094,-0.01852513,-0.02012045,-0.03725850
-0.01879607,0.03576549,0.01672904,-0.04144162,0.04505727,0.07707746,-0.03497415,0.06030789,0.09740907
-0.02839989,-0.02220348,-0.03751104,-0.03554378,-0.01749915,-0.06647480,-0.02042120,0.00179770,-0.07874186
-0.03593902,-0.02769570,-0.01475352,-0.01954098,0.00556961,0.01534074,-0.00017152,0.01546902,0.01541830
0.02629742,0.01305739,0.04235546,0.00263803,0.00567008,0.02753638,0.00189771,0.02149506,0.04187157
-0.03087810,-0.04621205,-0.03204980,-0.04189513,-0.05345976,-0.01952398,-0.07703537,-0.03160438,-0.00951317
0.08495770,0.00480325,-0.00160587,0.04140529,-0.01648881,-0.01136021,0.00530219,-0.05608826,-0.03914313
-0.00272663,-0.01990019,0.03471190,-0.01815676,-0.01271355,0.01750576,-0.00901073,0.06634934,0.04660573
-0.02620019,-0.01826628,-0.05340289,-0.02906171,-0.07085557,-0.08065446,-0.01157863,-0.06795742,-0.05395375
0.00580782,-0.02940600,0.00893054,-0.02449547,-0.03020345,0.00259212,-0.01136892,0.06701496,0.04244135
0.02234440,0.03712775,0.03703170,-0.00446382,0.01404638,0.00743474,-0.02321121,-0.00216813,-0.00885881
-0.01833579,-0.05644958,0.04446768,-0.00323505,0.03533872,0.06168165,0.00975499,0.10986664,0.10408933
-0.02051147,0.01421861,-0.00431663,-0.02042451,0.00393485,-0.02309693,-0.00921930,-0.00379139,-0.02313488
0.02392059,0.02006978,-0.00029882,0.00728093,0.00819009,-0.01614847,0.00851761,0.00230427,-0.00036620
-0.00879328,0.00615182,0.02911148,-0.01233676,-0.00184310,0.01661051,0.00967375,-0.00763342,-0.00228705
-0.03604350,-0.05952309,-0.05578661,-0.03931728,-0.04888583,-0.05983417,-0.03374951,0.01509427,0.03125171
-0.00676318,0.00198468,0.04879826,-0.05554014,-0.02654986,0.06171298,-0.05791096,-0.04453532,0.06085784
-0.14035353,0.01742062,0.06505221,-0.15784715,0.09327333,0.17788155,-0.08371541,0.05771414,0.12445275
-0.00069869,-0.00166609,0.00100016,0.00057402,0.00238946,0.00300069,-0.00076787,-0.00114524,-0.00446062
0.01343497,0.02537896,0.00730836,-0.01470880,0.03014101,-0.02968268,-0.03166524,0.08706209,0.08184238
-0.03420195,0.00967520,-0.00396168,-0.01600222,0.00895666,0.03930788,0.00520999,-0.03552227,-0.00960572
0.00837045,-0.01173793,0.02370007,-0.02652645,-0.03103300,-0.02208442,-0.04078729,0.05638186,0.01490670
-0.07715853,-0.03348425,-0.05268971,-0.05240175,-0.01146322,-0.03721134,-0.03561398,0.01495691,0.01909299
0.00207327,0.00400050,-0.01363452,0.01399696,-0.00695892,-0.02340196,0.02978487,0.00432234,-0.01926445
0.00103236,-0.02257742,-0.02592648,0.01019218,-0.00742805,-0.00988205,0.02889684,0.00321542,-0.01559646
-0.02386066,0.00009105,-0.03030067,-0.04582213,0.00609028,-0.02032635,-0.03507416,0.04068188,0.05502041
-0.00122384,-0.00378406,0.00434848,0.00343553,-0.00189439,0.01284258,-0.00111362,0.01372937,0.01795616
-0.00859769,-0.01309773,-0.01272307,0.01686038,-0.01589984,-0.02017894,-0.00413966,-0.01778420,-0.01927298
-0.01323288,0.03154999,0.06049228,-0.01554304,0.01649280,0.04563353,-0.01034966,0.01937384,0.03274044
-0.00557541,0.01687388,-0.02620102,-0.02747913,0.00868911,-0.02535489,-0.03917889,0.03901314,0.04617293
0.01523799,-0.01686406,-0.00971693,0.00854274,-0.01188015,-0.02608789,0.04545356,0.02977937,0.01282627
-0.02623588,-0.02864495,0.00237942,-0.04790457,-0.02374565,0.01822230,-0.07660016,-0.03888059,0.02958810
-0.02077384,-0.02611482,-0.00851435,-0.02384194,-0.00598552,0.00048958,-0.04263676,-0.01054736,0.00499276
0.01032562,-0.01021388,0.01088795,0.00668974,-0.02600005,0.00377718,0.03529930,-0.00788388,0.01308541
-0.02996096,-0.03532833,-0.01548834,0.02712434,-0.01005552,0.03244026,0.04408053,-0.01818351,0.01781270
-0.05043911,-0.03930356,-0.01420087,-0.03483653,-0.03824689,-0.01721100,0.00688156,-0.01466285,0.00106548
0.00041664,-0.01181972,-0.00539810,-0.00525919,-0.01787616,-0.01759497,-0.03748348,-0.04220865,-0.03707387
-0.00476460,-0.01026720,0.02103710,-0.00371316,-0.00352128,0.00233437,0.00522354,0.03682375,0.02296117
-0.01045034,0.02159677,-0.07205421,0.03388328,0.05894281,-0.06202692,0.10622051,0.13284239,0.00078502
-0.00200845,-0.02984549,-0.02200463,-0.03245337,-0.03690498,-0.01991061,-0.01098364,0.01195418,-0.00843350
0.01415565,0.00145338,-0.03131733,0.01340629,0.00082768,-0.01978095,0.01360498,-0.00032847,0.00354468
-0.03147950,0.01944312,-0.01082659,-0.03564369,0.00543996,0.03501447,0.01550376,-0.01891729,0.04087550
-0.03130292,-0.03369930,-0.02826279,-0.03939225,-0.02596019,-0.01157076,-0.01236331,-0.00417835,0.01355486
-0.02445394,-0.00949500,-0.02475715,-0.01240725,0.02510648,-0.01008371,-0.00959138,0.02353582,0.01507472
-0.00902261,-0.03569541,-0.04510540,0.01187095,-0.02721843,-0.03413645,0.04332931,0.00217706,0.00084466
-0.00213305,-0.00365840,-0.00277306,0.00362662,-0.00011878,0.00321347,0.00178606,-0.00140439,-0.00333185
0.00194702,-0.00039133,0.02714856,-0.01611871,-0.02842497,0.02779579,-0.01319725,-0.03029558,0.02069729
0.01504241,0.02344184,0.03298968,-0.00298549,0.00734697,0.00456091,0.00192570,-0.00081091,-0.01291565
0.03018482,-0.00917507,-0.03441532,0.02530109,0.01138676,-0.00967084,0.04064205,0.04739062,0.05419892
-0.04397104,-0.03686732,-0.02075796,-0.01681796,-0.00469977,-0.00844636,0.00722831,-0.01688078,-0.03192526
-0.08956446,-0.00980613,0.04050230,-0.09429563,0.03240315,0.11015648,-0.10871632,0.02591364,0.13702886
-0.03926406,-0.02726097,-0.02740764,-0.01475866,-0.01139623,-0.03301981,-0.00987807,0.00016870,0.00876942
-0.05411236,-0.03107092,-0.01938884,-0.05646985,0.02414173,0.04923914,-0.06142048,0.06369632,0.11794370
-0.01660047,-0.02889296,-0.12159897,0.05867416,0.00235963,-0.13265266,0.11410004,0.07192525,-0.10315825
-0.01705552,-0.02242754,-0.04203580,-0.00157961,-0.01628643,-0.04347344,0.02282945,0.04171000,-0.03691837
-0.01293484,-0.00777178,-0.00202775,-0.03980306,-0.01030112,0.00082797,-0.01970661,0.01281507,0.05012647
-0.00787148,-0.04368322,0.01240463,-0.04235295,-0.05709588,-0.01602777,-0.02488417,0.02582576,0.05012106
-0.03582137,-0.03038238,0.00545494,-0.01342710,-0.01389440,0.01819457,0.00072081,0.02797005,0.06282899
-0.03419530,-0.02141834,0.04545018,-0.01961720,-0.02273132,0.04750751,-0.00748137,-0.01325100,0.05766574
-0.00556837,-0.03080379,-0.03246329,-0.01219522,-0.02411941,-0.02396071,-0.00603576,0.02440904,0.01500416
-0.03484316,-0.02304884,-0.02398813,-0.04289230,-0.03028418,-0.02750777,-0.04283669,0.00740238,0.01719633
-0.00497528,-0.01558650,-0.00950969,-0.00029344,-0.00372800,-0.00606133,0.00895995,0.00675019,0.01908457
-0.00487923,0.00805248,0.02046024,-0.00880065,0.01339381,0.01833093,-0.00545123,0.00932775,0.02037779
-0.00902116,-0.00364319,0.01527308,0.00291589,0.00635613,0.00374249,0.00310760,-0.00090016,0.00113258
0.01386684,0.03693292,0.00504215,0.00325889,0.01965721,0.00909063,0.01775995,-0.00636535,-0.00970235
-0.07009789,-0.02477082,0.02143692,-0.05095246,-0.02112773,-0.00531026,-0.01955016,-0.00132773,-0.01544748
0.00774548,-0.00053911,-0.00135523,0.01091889,-0.00149469,-0.00595980,-0.00104738,-0.02009816,-0.00673846
-0.01157301,-0.00664309,0.01821607,-0.00176191,-0.01870126,0.00878327,-0.00496370,-0.02633082,0.00605502
0.00656114,-0.03169209,-0.00594023,-0.00552593,-0.03782986,-0.01146699,0.01211721,-0.03140049,-0.03279710
-0.01576002,-0.01127700,0.00888791,-0.00804052,-0.02734599,-0.00753576,0.02886138,0.01667105,0.01687729
0.08843640,0.03389812,-0.06999620,0.04333499,-0.03595066,-0.10948297,0.06183285,0.01209443,-0.02028349
0.00648525,-0.01781189,-0.00448213,0.00809121,-0.02195537,-0.00631938,0.03045399,-0.00292854,-0.00414075
-0.00119835,-0.00433224,-0.01083166,-0.00589119,0.00086715,0.00181546,-0.02561917,-0.01331231,0.00404141
0.05092743,-0.00206929,-0.01694504,0.03680316,-0.00212443,0.01482078,0.03733446,-0.03427126,0.02475939
-0.01133207,-0.00351159,0.00347142,-0.01631275,-0.00140127,0.00675739,-0.00331420,0.01061002,0.01678895
-0.05672690,-0.09519297,0.00283641,-0.01621555,-0.04427435,0.01803175,-0.02846467,-0.02453875,0.01950095
-0.03088102,-0.01474125,-0.04246575,-0.01348683,0.00905743,-0.03173788,-0.01618570,0.01812962,-0.02717689
0.03423414,0.01404992,-0.00553721,0.01860752,-0.00383324,-0.00753335,0.03145151,0.01208303,0.01041993
0.00788745,-0.00657779,0.01331403,0.00242446,-0.00663591,0.01710179,-0.00201199,-0.00881478,0.02754104
-0.00604856,-0.01939726,-0.01530532,0.00374843,-0.02000793,0.00525625,-0.02136729,-0.04440630,-0.01843815
0.02304586,-0.03591770,-0.06120190,0.03844513,-0.00957144,-0.04953167,0.03682354,0.01113673,-0.03708873
-0.02848486,-0.04655362,-0.00356503,0.01903684,-0.01505394,0.02165546,0.04193107,0.00982350,0.05600594
0.00153542,-0.00198627,0.00315686,-0.00023427,0.00034982,0.00379574,0.00190737,-0.00069338,-0.00528409
0.02790448,0.09330738,0.01239761,-0.01273604,0.02173760,0.03493507,0.01127396,0.00131904,0.03940825
0.00090515,-0.04608985,-0.00696248,0.03283398,-0.00792903,-0.01184323,0.01579056,-0.00379349,-0.01050165
-0.00877830,0.01005241,0.01897681,-0.04800234,-0.03661558,0.02755002,-0.01868833,-0.04084297,0.01190428
-0.15213224,-0.00269724,0.30948168,-0.14335097,-0.04751220,0.25975430,-0.14184935,-0.07230860,0.09588616
-0.03191783,-0.02107086,-0.03470770,-0.01798278,-0.01413884,-0.03374707,-0.01816620,-0.02151450,-0.03646190
-0.03013098,-0.02936026,-0.03153788,-0.01220152,-0.02389811,-0.03698450,-0.00151925,-0.00766203,-0.03350504
-0.05847035,-0.00781909,-0.05284410,-0.01538727,-0.02809873,-0.08348005,0.04311829,-0.01551441,-0.09173549
0.01081396,0.00360653,0.00658084,0.00777677,0.00444112,0.00369144,0.00116117,0.00344722,0.00202253
0.01184604,0.01366885,0.02538945,-0.01543955,-0.00380162,0.01082992,-0.01818259,-0.01079921,0.01190782
-0.02036920,0.02025624,0.08121406,-0.02469743,0.01828380,0.07698343,-0.01953422,0.01494546,0.04224103
0.03524838,0.06950264,0.05297643,-0.02246863,0.02594978,0.04575107,-0.03073942,0.01638546,0.04732977
0.08279692,0.06534430,0.06338828,0.00042120,0.00673890,0.01713251,-0.01568051,-0.00622730,-0.01467614
0.05291322,0.03245707,0.06682503,0.02660575,0.02338363,0.05106777,-0.01457343,-0.02421948,-0.00017305
0.01810913,-0.00422140,-0.03337641,0.01062923,-0.00978732,-0.01236731,-0.01940850,-0.03365613,-0.01647808
-0.00994095,-0.02340910,-0.05516085,-0.00567986,-0.02691171,-0.06347708,-0.00348367,-0.02773744,-0.05784557
0.01285484,-0.00329276,-0.01929217,0.03195963,0.02875611,-0.03452192,-0.01873511,0.00833933,-0.02621779
-0.00066804,-0.00123356,0.00428013,0.01086257,-0.00111666,-0.00601342,-0.01476672,-0.02520698,-0.02521842
0.02309228,-0.02402829,-0.01744669,0.00868760,-0.03937281,-0.03978222,0.03674136,-0.01941057,-0.03619870
0.00163173,-0.02941853,0.00793764,0.02251860,-0.01629152,0.01188911,0.01811676,-0.01286132,0.01402261
0.00437416,0.01007578,-0.01336269,-0.01302273,-0.00850734,-0.02851643,-0.01515366,-0.01511691,-0.01595854
-0.02184318,-0.01126101,-0.00407352,0.00037447,0.00005827,0.02286255,0.04130998,0.02675264,0.00364200
0.02238401,0.00169612,-0.04958449,0.02321915,-0.00675709,-0.06745186,0.03137036,-0.01966774,-0.06464223
-0.00034836,-0.07038448,0.02903963,0.04112997,-0.04212173,0.00140152,0.01013440,-0.02131229,-0.01237231
-0.01184223,0.00628401,0.04235841,-0.02715753,-0.03110437,-0.01004994,-0.00865553,-0.00604653,-0.00764391
-0.00356464,-0.01041505,0.02920917,0.00863530,-0.02278976,0.00958256,0.01692049,-0.00363623,0.00441721
0.04267827,0.00369071,-0.05356865,0.03599992,0.00309396,-0.03633713,0.00717374,-0.01846001,-0.01669533
-0.00025254,0.00142592,0.00006694,0.00137526,0.00383939,0.00612178,-0.00602342,-0.00349633,0.00452226
0.01137716,0.00599591,0.00255488,0.01492107,0.01635560,-0.00048927,0.01885494,0.01093481,-0.01428177
0.00624565,0.00815444,0.02183457,0.00495642,0.00537129,0.01230269,0.00135870,0.00224826,0.02198587
0.03043048,-0.01265603,-0.06073909,0.05056768,0.00776742,-0.03530116,0.05344458,0.03027340,0.01363399
-0.00535635,-0.02453043,-0.05575749,0.03471880,0.01968915,-0.03237281,0.02527316,0.00623108,-0.02280225
-0.06803759,-0.03586538,0.04522355,-0.04892983,-0.01908306,0.03802902,-0.04039722,-0.00311282,0.04285921
0.03190860,-0.05588049,-0.09756073,0.03723330,-0.02841672,-0.07467246,0.06668498,0.02140103,-0.03555734
-0.01402563,0.01104092,0.08899317,-0.02948199,-0.03731540,0.01804060,-0.02140119,-0.02702874,0.00767896
-0.04251032,-0.03062123,-0.02768429,-0.01176006,-0.03132214,-0.05921555,-0.00682240,-0.04465098,-0.08107612
0.00687295,-0.03726256,-0.03853400,0.00402173,-0.02978678,-0.03217880,0.00563328,-0.03251491,-0.03119520
-0.01795310,-0.00405397,0.00428056,0.01829927,0.00650313,0.00782101,0.01759487,-0.01113284,-0.01906796
-0.00872335,0.00582713,-0.02117316,0.00449311,-0.02512344,-0.04489199,0.00610229,-0.02568918,-0.04414739
0.01854907,-0.02845161,-0.03336596,0.00708115,-0.02807894,-0.03975021,0.00191860,-0.01096489,-0.01784276
0.02562882,-0.04220909,0.02825751,0.00977057,-0.03857864,0.02567814,0.00786604,-0.00112381,0.02452161
-0.00221855,-0.01565193,-0.01804187,-0.01140207,-0.00518887,-0.01302988,0.03217741,0.03482220,0.01686979
0.02742950,0.00299302,-0.02740709,0.02949201,-0.00608785,-0.02651482,0.02927118,0.00458739,-0.00956313
-0.01828651,-0.01665621,-0.00007007,-0.00875078,-0.02804593,-0.02755060,-0.01376227,-0.03824718,-0.04558283
-0.00669495,-0.00274113,-0.01135364,0.00286737,-0.00165476,-0.00972845,0.00531261,-0.00026598,-0.01574743
0.01484935,-0.03011630,0.01317858,0.00989718,-0.02709454,-0.00036821,0.01095150,-0.01408754,-0.01897305
-0.01021610,-0.01799980,-0.04749565,-0.00208186,0.00077916,-0.00193823,0.00543668,-0.00570323,-0.01253075
-0.02126823,-0.00348995,0.02006273,-0.02391089,-0.01193726,-0.00209281,-0.01173140,-0.00531753,0.00096262
-0.03081126,-0.01029934,0.00368344,-0.03944597,-0.02409933,-0.01533930,-0.01432000,-0.01340586,-0.00044570
-0.01827178,-0.01377752,-0.00908598,-0.01338756,-0.00272954,0.00062581,-0.02491873,-0.01386822,-0.00834928
-0.02263758,0.00279205,0.01619694,-0.02508391,0.01186836,0.02198735,-0.02195957,-0.00408239,0.01259432
-0.05888614,0.00620738,-0.01963262,-0.00675051,0.10958748,0.09339742,-0.05787723,-0.01243420,0.00975962
0.01047980,0.08120831,0.03260846,0.01951537,0.10874166,0.00929425,-0.04151421,-0.02519172,-0.06513400
0.00070840,0.01972566,0.04474900,-0.01653898,0.02503452,0.04559622,-0.03414391,-0.02796577,0.01007320
0.04533185,0.02669322,0.00993108,0.03096348,0.03086842,-0.00485292,0.06174667,0.10510489,0.05906901
-0.01310562,0.01571580,0.00269547,-0.02807907,0.04000825,0.04691059,-0.05099055,-0.03289185,0.01053940
-0.00576004,0.00472180,-0.00388309,-0.00960953,-0.00613336,0.00043565,-0.01289998,-0.00963298,-0.00071806
-0.01093734,0.01411821,0.01983793,-0.03713707,-0.01283320,0.01555817,-0.03681530,-0.04364850,-0.00627886
0.00840936,-0.00808985,0.00337234,0.04008165,0.04291409,0.03565493,-0.01948759,-0.00067467,-0.00486766
-0.00276850,0.00191201,-0.00301317,-0.01574076,-0.00650018,-0.02242564,-0.01298508,-0.01371263,-0.02328745
0.02713453,0.00861655,0.00546730,0.07114136,0.06436359,0.02456081,0.04322904,0.08366883,0.06617630
0.02450358,0.02401093,0.01351888,0.01251715,0.02644019,0.07681371,0.01721223,-0.01067693,-0.00988305
0.03166750,0.01755482,0.04210483,-0.00950882,-0.02584041,-0.00538750,-0.00748880,-0.02283370,-0.00824677
-0.05022271,0.01997722,0.06028752,-0.07239581,-0.05387015,-0.02347400,-0.02336461,-0.01419313,-0.01722821
-0.00022493,-0.00252193,-0.00552565,0.00173888,0.00049295,0.00109793,0.00185085,-0.00231906,-0.00044087
-0.00818886,0.01459334,-0.04745356,-0.05869098,-0.02130817,0.04007725,-0.02520273,-0.04085203,-0.02463015
0.01318616,0.03773093,0.08779343,-0.01524854,-0.04155824,-0.08405130,-0.02026538,0.03037044,-0.01634190
-0.00494887,-0.02514837,-0.06236126,-0.00659729,0.03912457,0.03939994,-0.01458344,-0.02727592,-0.00212504
0.06794913,0.01690454,-0.00706352,0.04546497,-0.07620627,-0.05615262,0.06223879,-0.08002182,-0.06328776
-0.00034661,-0.00556351,-0.00092170,-0.00560137,-0.01628290,-0.01165349,-0.02066922,-0.01688595,-0.01612668
-0.02594907,-0.01972226,-0.03494703,-0.02474185,-0.03035760,-0.03873580,-0.00342216,-0.02406381,-0.03512066
0.07343714,0.03985743,0.01564701,0.00867516,-0.02440060,0.01117838,0.01493580,-0.06087980,-0.05291357
-0.00598106,0.00335633,0.00161126,-0.01487969,-0.00503054,-0.01169232,-0.00593917,-0.00982578,-0.01151089
0.03485651,0.02285024,0.00562999,0.03576842,0.05808378,-0.00664251,0.13714895,0.19457054,0.10174678
0.01154740,-0.00070623,0.00205269,-0.02826365,-0.03442780,-0.01744537,-0.02379601,-0.03184233,-0.02905354
0.07400148,0.04318912,0.02581118,0.01279883,0.00750860,0.02238774,-0.00979912,-0.03310901,-0.01736233
0.01182005,0.02370766,0.00014881,0.00171179,0.01651214,0.00128976,-0.01383307,0.00119652,-0.00557723
0.02614904,0.02727358,0.02983991,-0.02290659,-0.02534374,-0.00709750,-0.02725112,-0.00834101,-0.00336639
0.04299463,0.04259975,0.06684624,0.02090798,0.01389616,0.02244453,0.01066736,0.00366324,0.01432149
0.01333929,0.01706169,0.02493673,0.01020743,0.05819868,0.03963329,-0.04907231,-0.00079707,-0.00264570
-0.01914711,-0.01384855,-0.00943565,-0.02981727,-0.03630107,-0.07148251,0.00549307,0.04008467,0.00801752
0.01447964,0.01848482,0.01988992,0.00049387,0.01356642,0.00787306,-0.01624726,0.00683320,0.00067191
-0.00164508,-0.00124433,-0.03193301,-0.00281656,-0.00058553,-0.00547120,0.00531475,0.00135508,0.01573641
-0.01017939,0.02837710,-0.00624061,-0.00263863,0.03483503,0.03001002,-0.01892574,-0.00301673,0.00760610
-0.01582173,-0.00637661,-0.00454916,-0.01174239,-0.00505306,0.00775431,0.01135619,0.01105202,-0.00168039
-0.05010286,-0.00339632,-0.03947848,-0.01199712,0.05146711,0.03196339,-0.05395375,-0.03419619,-0.03592733
0.02040327,0.01375289,0.01665077,0.02689835,0.00939733,0.02349711,0.02270741,-0.01139931,-0.00239112
-0.01171438,-0.00382494,0.03371297,0.04713809,-0.01910822,-0.06567337,-0.01335330,0.00493298,-0.05000575
-0.01137428,0.01202576,0.01047598,-0.00530033,0.01479668,0.01797224,-0.01683830,-0.01509024,-0.01098401
-0.01383711,0.00480254,0.01208910,-0.01391345,-0.02193142,0.00332745,0.00323257,-0.00809507,-0.00898111
0.05489626,0.04648222,0.01994823,0.00727991,0.03024589,0.02731384,0.01316516,-0.02375543,-0.02781153
0.00584534,0.00402931,0.00814246,0.00107499,0.00716464,0.00100141,0.00677524,0.00630720,0.00636690
-0.01760234,-0.04661245,-0.01939626,-0.01228246,-0.04877516,-0.05535936,-0.01146792,-0.02086375,-0.01870855
0.03706213,0.02133727,-0.00436509,0.04527033,0.02959655,0.00938070,0.03187077,0.04552308,0.01483717
-0.05140710,-0.03762137,-0.04818832,-0.01676434,-0.02893527,-0.02348818,0.00687327,-0.00222400,-0.02817897
0.00357117,0.03505683,0.03013182,-0.03929670,-0.02011037,-0.03615857,-0.00779767,0.00407575,0.00097652
0.03625613,0.04442145,0.05636005,0.00719498,-0.01129167,0.00290343,0.00841624,-0.00135578,0.01702116
0.02184862,0.02066872,0.02483785,0.00740741,-0.00484725,0.02657193,-0.02225762,-0.02931941,-0.01806080
0.03772793,0.05882001,0.06578815,-0.00557072,0.01977164,0.03066711,-0.00901618,-0.01384877,-0.00084841
0.01104558,-0.00370431,-0.00678019,-0.02185990,-0.02375992,-0.03662780,-0.06172851,-0.09392724,-0.10474681
0.04569203,0.04405992,0.01809042,0.05480496,0.10041499,0.04935353,0.02426614,0.05243781,0.03501146
-0.05348765,-0.04547842,-0.04077165,-0.01207383,-0.01750421,-0.00924077,-0.01319758,-0.03381862,-0.02295150
0.02796298,0.04026363,0.01343989,0.00517056,0.03661883,0.04258241,-0.03656778,-0.02524650,-0.03417215
0.00719714,-0.00499484,0.01927573,0.02484449,0.02717209,0.07299083,-0.01969371,-0.03415439,-0.01373884
-0.01754765,0.01119111,-0.02436002,0.00152739,0.03112172,-0.03081695,-0.00871075,0.02503590,-0.00400827
0.02976055,0.03515432,0.00909737,0.00334760,0.03717643,0.03591168,0.00776227,-0.01927118,-0.02180634
0.04123039,0.01990825,0.01910375,0.01163335,0.00448643,0.03493460,0.00947022,-0.02838889,-0.02322367
0.02606217,0.01799584,0.01121021,0.04394818,0.02977369,0.01855010,0.04883562,0.03116003,0.01025903
-0.01169608,-0.00990678,-0.00606571,0.00948589,0.00810953,0.00130180,0.00970303,0.00895523,0.00767035
-0.01188761,-0.02638472,-0.03164698,-0.00624700,-0.03207200,-0.06195442,-0.02720075,-0.02166693,-0.02807901
-0.02022376,-0.02348640,-0.02167419,-0.00886466,-0.01855235,-0.00230927,0.01417903,0.01565092,0.02562362
-0.02663585,-0.01730003,-0.00426895,0.00670023,0.01512121,0.01675051,0.04712266,0.05362374,0.05485827
-0.02289089,-0.03221744,-0.02233300,0.01551500,-0.00701622,-0.00269064,0.02864689,0.01021061,0.01432796
0.00455264,0.00587456,0.00750111,0.01122045,0.01338366,0.00808162,0.00739246,-0.00805683,-0.01096222
-0.02793508,-0.01474996,-0.02197093,-0.01059235,-0.01873793,-0.02096862,0.04995783,0.06276512,0.05076205
-0.03332212,-0.03885371,-0.03060919,-0.01395500,-0.00550979,0.00375502,-0.01358300,0.00130715,0.01028368
0.03981372,0.02293854,0.01367728,-0.01338777,-0.02719790,-0.02813705,-0.03362459,-0.03016040,-0.01433938
-0.00342462,0.00023233,-0.00460822,-0.00956151,-0.01682571,-0.00081902,-0.02430953,-0.01533251,-0.00285440
-0.02398399,-0.01781019,0.01562225,-0.04656895,-0.03081897,0.00900456,-0.03106320,-0.03644496,-0.03780572
-0.03399698,-0.02914164,-0.03151871,-0.02580152,-0.03754248,-0.02276596,0.00557722,0.00327639,-0.01434394
-0.00954997,-0.00970440,-0.00543172,-0.00112765,0.00590783,-0.00148047,0.00218618,0.01101759,0.00397632
-0.00586286,-0.01754675,-0.02232824,0.00181418,-0.00912152,-0.00691763,-0.02719906,-0.01626347,-0.00003202
-0.02501417,-0.01442551,0.00196708,0.00982081,0.00714461,0.01055850,0.01619263,-0.00345831,0.00336308
-0.03066554,-0.01944191,-0.01891799,0.00351930,0.00146495,-0.00700588,-0.02261967,-0.01073495,-0.00991047
-0.01185784,-0.01257534,-0.00611808,0.00743876,0.00853653,0.02460106,-0.00445104,-0.00676039,0.00010786
-0.02458542,-0.01611265,-0.02351966,0.03567156,0.00131144,-0.02109790,-0.01944863,-0.00395244,0.00661270
-0.05052745,-0.05479623,-0.04593442,0.01709779,0.04103398,0.04349747,0.01426219,0.03248350,0.03596593
-0.15025219,-0.14373572,-0.09860872,0.05048119,0.10614046,0.14632872,0.01692131,0.02677036,0.05766346
-0.00013746,-0.00032782,-0.00084068,0.00403080,0.00000848,-0.00157642,-0.00057413,0.00151601,0.00734122
-0.04265334,-0.04864538,-0.04875700,0.02045469,-0.01950521,-0.01864719,-0.02099096,0.00715886,0.04429733
-0.00122861,0.00754477,0.01166823,0.02010613,0.05914048,0.08328815,-0.02574060,-0.06201353,-0.06386613
-0.05806755,-0.05738795,-0.04023016,-0.03752090,-0.06931118,-0.05212564,0.02191781,0.02519867,0.01985687
-0.04577304,-0.07182860,-0.09151448,0.07907996,0.08642990,0.07524867,0.02194509,0.03256363,0.05040465
-0.00915743,-0.00651085,-0.00868711,-0.00518912,-0.01057602,-0.00198253,-0.01906573,-0.02816687,-0.02929344
-0.01642669,-0.02148571,-0.01952281,-0.01238920,-0.02024662,-0.00878293,-0.01256479,-0.01632017,-0.00600930
-0.01299624,-0.01005775,-0.02796670,0.02955121,0.00517493,-0.00893442,0.00034700,0.01720279,0.00715073
-0.00329745,-0.00259308,-0.00163836,0.00533260,-0.00461003,-0.00369550,0.00060084,-0.00038388,0.00113190
0.03408944,0.05071893,0.06530814,0.01677675,0.00731077,0.00787653,0.00145461,-0.01349105,-0.01917129
-0.00744891,0.00263311,0.00719846,0.01156261,0.01815542,0.01524478,-0.00687093,-0.00338248,0.00115733
-0.02085710,-0.02153567,-0.02651939,0.01087345,-0.02128423,-0.03636706,0.03983023,0.03160243,0.03493415
-0.05050451,-0.04774427,-0.04060321,-0.03570030,-0.04392859,-0.02916116,0.01299120,0.03208385,0.04162713
-0.02028656,-0.04813096,-0.05067035,0.02932018,0.03353238,0.04356446,-0.00679096,-0.02011132,-0.02364671
-0.02203496,-0.01005806,0.00013167,0.01084948,0.00906906,0.01395017,-0.01094834,-0.01254041,-0.00270144
-0.02405054,-0.01337356,0.00176172,-0.00179363,-0.00387457,0.00441530,-0.01044347,-0.00343448,-0.00921699
0.04097843,0.04936362,0.03264628,-0.02628441,-0.03121398,-0.01774427,-0.00374363,-0.03897313,-0.02693525
0.00190121,-0.00063084,0.01301200,-0.01379826,-0.01397142,0.00233210,-0.02401691,-0.03590192,-0.03135721
-0.02813340,-0.01459026,-0.01049808,-0.03447973,-0.02899696,-0.02206672,0.04460664,0.06532162,0.05475470
-0.00390295,-0.01483383,-0.01050732,-0.00236144,-0.01013396,-0.00037676,-0.00952040,-0.01524155,-0.00848160
-0.00802586,-0.00810460,0.00195964,0.01072128,0.01892738,0.01891597,-0.03466226,-0.00979425,-0.01228167
-0.00606477,-0.00513532,0.00022729,0.00834658,-0.01115207,-0.00882841,-0.01002571,-0.00726562,-0.00548307
0.01173068,0.01165868,-0.01528592,0.00950852,0.00127190,0.00006002,-0.00008434,-0.00671828,-0.00868435
-0.04136613,-0.03763665,-0.03030569,0.00929125,0.04801800,0.06376005,-0.03581451,-0.05196504,-0.04271873
-0.08330458,-0.08230268,-0.07161244,-0.00940090,-0.02201103,-0.00648352,-0.00580155,-0.01003659,-0.01003205
-0.00571703,-0.00742564,-0.00685392,0.05194048,0.04611650,0.02250835,0.01409733,0.02246591,0.02142944
-0.00976839,-0.02961418,-0.04519960,-0.00875918,-0.02383400,-0.02867157,-0.00274070,-0.02747309,-0.02217689
-0.00216872,0.00409835,-0.00058428,0.00048093,-0.00016408,-0.00194554,-0.00077418,-0.00316927,0.00013015
-0.04554195,-0.05586372,-0.04351044,-0.00470892,-0.00218734,0.01127941,-0.00811995,-0.01577946,-0.00948074
-0.02897938,-0.04201884,-0.03935436,-0.01751984,-0.02041377,-0.01521986,-0.00027790,0.00144443,0.00034320
-0.00029685,-0.00404422,-0.00340019,0.03086964,0.00272717,-0.02415360,-0.01244300,-0.00833157,-0.01413272
0.03379975,0.03230538,0.01868736,0.01408235,-0.01191295,-0.01517520,-0.00104274,-0.04008402,-0.03901972
-0.03482403,-0.03554746,-0.02798277,-0.02257551,-0.01814656,-0.00365466,0.06967753,0.06903773,0.06796423
0.00140925,-0.02860400,-0.02482123,0.01740310,0.00937573,0.03043617,-0.02592367,-0.02689272,-0.00300794
-0.03978924,-0.04019479,-0.02284827,0.00381394,0.00733756,0.01583813,-0.01083493,-0.00455749,0.00634768
-0.02435436,-0.03405016,-0.02123345,-0.01272686,-0.02902706,-0.03564985,-0.03735378,-0.01768246,-0.02558367
-0.01281986,-0.01215777,0.00713082,-0.02195322,-0.02384250,0.00666621,-0.01407483,-0.00502335,-0.00416609
-0.01922016,-0.01261701,-0.02087340,0.07919268,0.07567509,0.04314211,0.00348006,0.01792786,0.01262671
-0.01905159,-0.02144007,-0.03425816,0.00984145,-0.03770411,-0.05878368,0.02925198,0.00281801,0.01480445
-0.00772588,-0.00587451,-0.00397718,-0.00795097,-0.02339576,-0.00852291,-0.01479660,-0.02586687,-0.01187722
-0.04398290,-0.03077372,-0.01862314,-0.03445128,-0.01349346,-0.00867728,-0.02730546,-0.00373720,0.01949073
-0.01384555,-0.01591552,-0.02177647,0.00171287,-0.00014199,0.00051263,0.00656845,-0.01065762,-0.00565110
-0.02761842,-0.03180668,-0.01488938,0.02538860,0.00457541,0.00749328,-0.00729637,0.00515704,-0.00166000
0.02613762,0.01379333,-0.00069439,0.00689521,-0.00342123,-0.00908328,-0.00069807,0.00534348,0.01577896
0.00372664,-0.00446395,-0.00330820,-0.00478164,0.00340713,-0.00753242,0.00213490,0.00256692,-0.00383693
0.02046709,-0.00420452,0.00350036,0.00148405,-0.02489129,-0.00879930,-0.00369620,-0.03127401,-0.03732756
-0.00160078,-0.02795439,0.01010968,-0.01687307,-0.00983845,0.03461806,-0.00449406,-0.01012579,0.01232032
-0.05284984,-0.01017938,-0.00185974,-0.05312614,-0.00225107,-0.00546215,-0.07127149,-0.00516450,-0.01734321
-0.01864294,-0.11337473,-0.07460251,-0.02923563,-0.08551314,-0.01779313,-0.02538844,-0.05875277,-0.00235534
-0.01539968,-0.02627869,-0.00392524,-0.04457999,-0.03823053,0.01065799,-0.06243015,-0.04678794,-0.01575174
-0.04678791,-0.05744755,-0.02195398,-0.06130149,-0.06407514,-0.01548346,-0.08416574,-0.08580510,-0.04627509
0.06405185,0.07974491,0.12155906,-0.02954474,-0.04978738,0.07499490,-0.06885362,-0.14806885,-0.06519084
0.08487112,0.08525835,0.05741845,-0.01434461,-0.04347837,0.01428117,-0.05378526,-0.09691439,-0.06094186
-0.00039473,-0.00880757,-0.04444760,-0.00653159,-0.04081159,-0.05375987,-0.01457091,-0.04289783,-0.07317855
0.01857769,-0.02360001,-0.02495463,0.07021219,0.14053619,-0.00379706,0.07659717,0.12572841,-0.03683301
0.08272591,0.04487639,0.05841171,0.06281051,0.04807395,0.07650574,0.04850017,0.01860102,0.03480433
0.03410747,0.02745756,0.01433429,0.02381346,0.02035310,0.01918701,0.01352545,0.00188296,-0.00184346
0.00347538,0.01640878,0.03004957,-0.01712670,-0.00577941,-0.00460081,-0.01590013,0.00470375,-0.05537537
0.06990677,0.01361118,-0.00918489,0.06238699,0.02045762,-0.00758298,-0.00191101,-0.04902680,-0.07740580
0.02295294,0.02256274,0.02778183,0.04413924,0.00790876,0.00385596,0.02820088,-0.01440500,-0.00524746
0.05886646,0.05480269,-0.03120627,0.07370433,0.11546094,0.00793009,0.04630119,0.08667815,-0.00109474
0.01953168,0.01940461,0.07178324,-0.01919886,-0.03817775,0.03252519,0.03655587,0.01169995,0.01873517
0.00157570,-0.04828247,-0.03418541,-0.02493764,-0.04779946,-0.01960065,-0.01717487,0.00429514,0.00544013
0.01122850,-0.13600150,-0.06502102,0.00625895,-0.09743796,-0.00113282,0.14206044,0.12124216,0.10704441
0.00090700,-0.00017262,-0.00031698,-0.00151114,0.00172630,0.00386711,-0.00145535,0.00352746,0.00468892
-0.01558216,-0.01704227,0.01634123,-0.01926645,-0.02040321,0.01292384,0.03044928,0.07100569,0.04794575
0.00749366,-0.00226834,-0.01824853,0.02971061,0.07292166,-0.03927998,-0.01293035,0.01118113,-0.05366203
-0.01306131,-0.02940297,0.00562195,-0.04803073,-0.05366451,0.03496921,-0.00366911,-0.04123693,-0.00281094
0.08097073,-0.04487901,-0.06122419,0.04643198,-0.16484514,-0.11832708,0.12112947,-0.06832366,-0.07776730
0.01097454,-0.05306535,-0.08014925,0.01077240,-0.02820175,-0.06597956,0.01632393,-0.02834969,-0.05581963
-0.05620990,-0.10347489,-0.00488785,-0.05128622,-0.11687668,-0.03366410,-0.04233303,-0.10629920,-0.07258534
-0.02408424,-0.04792671,0.11924474,-0.07056350,-0.08000080,0.11936603,-0.08653929,-0.06288888,0.07006853
-0.00013345,-0.00251385,0.00345742,-0.00087042,0.00208306,0.00058662,-0.00029531,0.00033396,0.00631815
-0.00350911,-0.01192164,-0.00333957,0.10358604,0.02667661,-0.08741838,0.03425990,-0.01058419,-0.03415349
-0.08133725,-0.02906201,-0.03277041,-0.07174663,-0.05574024,-0.06136808,-0.03739822,-0.02619548,-0.01455346
-0.03194636,0.00408805,0.00025068,-0.04219630,0.00609939,0.02403885,-0.07085051,-0.00515287,0.00900717
-0.01311034,-0.04907897,-0.05102211,0.00221725,-0.03921933,-0.01913135,-0.01977267,-0.05784535,-0.03441089
-0.07834452,-0.00318732,-0.01063510,-0.05389812,-0.00353799,-0.03848786,-0.01376166,0.07057428,0.01316656
-0.00238138,-0.00119165,0.00141276,0.00079916,-0.00297116,0.01121001,-0.01535622,-0.02069298,-0.03128432
0.02717017,0.02852062,0.01755065,0.00005963,0.01890739,0.03190518,-0.03644583,-0.05571329,-0.02438745
-0.04759320,-0.06280593,-0.04364980,-0.00431555,-0.01997110,-0.00064953,0.00679585,-0.01224449,0.01838135
0.03276554,0.00485353,-0.00151605,0.00294417,-0.01857081,-0.03180948,0.00451557,-0.02651115,-0.02503629
-0.05045415,-0.03614809,-0.03147667,-0.05309924,-0.04706334,-0.02812228,-0.04819112,-0.03535068,-0.03104822
0.02989144,0.05145762,0.07072951,0.01917929,0.03474419,0.07409340,0.00987752,0.01494355,0.00837417
-0.05350093,-0.10352103,-0.05937819,-0.01918354,-0.03987990,0.00064264,0.00257318,-0.01403024,0.00224320
-0.01365376,-0.01557200,0.00308064,-0.07548304,-0.09226093,-0.02920044,-0.04676778,-0.07859242,-0.07653933
-0.02203180,0.00819386,0.03096917,-0.00818530,0.01606744,0.02947396,0.00791480,0.01926774,0.02662362
0.03120459,-0.02250954,-0.03771045,0.05641688,0.03785020,-0.05450868,0.06343019,0.03695050,-0.05409949
0.01886954,-0.04041222,-0.05359105,0.03739767,-0.02523523,-0.03721748,0.00558250,-0.03146031,-0.03179622
-0.01124698,-0.03867956,-0.04890727,-0.03725517,-0.06204196,-0.04993712,-0.07708941,-0.07196347,-0.03967272
-0.00792718,-0.02242827,0.00207914,-0.00885321,-0.03669294,0.00883274,-0.00379627,-0.01814517,0.01260295
-0.00320498,-0.00028960,0.00655306,0.00069008,0.00059732,0.00008754,0.00012258,-0.00211888,-0.00056768
-0.02012865,-0.04198531,-0.03216887,0.01617458,-0.01389292,-0.01579789,0.00034916,-0.01363693,-0.00402590
0.00035763,-0.02598074,-0.05664874,0.02180697,0.00582057,-0.05570152,0.04859441,0.02824259,-0.05239014
-0.02636662,-0.01639672,0.05487017,-0.03552893,-0.02350715,0.00683014,-0.03349097,-0.03250417,-0.04314511
-0.01042020,-0.02402720,0.00165568,-0.03846431,-0.02718948,0.02809101,-0.08126249,-0.08003968,-0.00987293
-0.01012660,-0.03539335,-0.04362995,0.02855920,0.01313949,-0.00151700,-0.02804386,-0.01161981,-0.03760811
-0.03849049,-0.03997900,0.04532062,-0.01761982,-0.01696057,0.01551434,-0.02640853,-0.01723280,-0.02371455
-0.01689428,-0.05721371,-0.03740432,-0.00549654,-0.05541097,-0.02505721,-0.04652561,-0.06719604,-0.04028755
-0.20558164,0.07248651,0.49586949,-0.22335392,0.13089076,0.59553432,-0.18086004,0.05196409,0.45873660
0.02500135,0.05166805,0.00074351,0.03730569,0.06729316,0.00547267,0.03438363,0.02272973,-0.02697144
-0.02009342,-0.00554384,-0.00399749,-0.07304322,-0.04709055,-0.02604822,-0.06761902,-0.04823972,-0.07696560
0.08430528,0.03883768,-0.03447753,0.03739098,0.00925534,-0.03397043,0.05027306,0.03284397,0.00330750
-0.00089819,-0.00274454,0.00991841,-0.00563783,-0.00052711,0.00047777,-0.00208528,-0.00517264,-0.00316350
0.01381184,-0.00589309,-0.00087085,0.02867643,-0.00429264,-0.00876696,0.03056997,-0.01102635,-0.00306803
0.04814123,0.03873758,0.04397904,-0.00632838,0.00403535,0.05586444,-0.00345041,0.00457266,0.02824158
0.01208653,-0.03347310,0.00728610,-0.03747920,-0.07255529,-0.01221449,-0.06005539,-0.07080018,-0.01166359
0.02958895,0.02824754,0.01326570,0.01216432,-0.00513084,-0.01016583,0.03484868,0.00537884,-0.00777737
0.01929842,0.01642098,0.01910876,-0.00184475,-0.00516273,0.00960739,-0.00071964,-0.00340429,-0.00046872
-0.02831659,-0.05530295,0.03964518,-0.04112206,-0.04637072,0.02475267,-0.07726968,-0.04948481,0.05130098
0.01686708,-0.01557468,-0.02956813,0.05158153,0.02107527,-0.02100467,0.01117475,-0.00221641,-0.02526334
0.00249435,-0.01267857,-0.03072695,0.01029868,-0.00108848,-0.00263100,0.00227720,0.00374929,0.02298554
0.03571115,-0.00200914,-0.02279359,0.03656500,0.00006454,-0.00648236,0.01874383,-0.02259971,0.00570945
0.02264779,0.03048795,0.03487966,-0.01162257,-0.00739959,0.00359476,-0.00222202,0.00110428,0.02162110
0.00415840,-0.00177342,-0.03499520,-0.00168727,-0.00830420,-0.03185324,-0.00013215,-0.01369244,-0.00722333
-0.04208766,0.02141740,0.00340768,-0.04392906,0.02699568,0.00278550,0.01603584,0.07871792,0.05541760
-0.27732003,-0.10096165,0.01046095,-0.11260955,0.00762244,0.01618744,0.12090255,0.20331050,0.10067417
0.03688862,0.05943657,-0.01238118,0.02706078,0.02707841,-0.01313565,-0.02162557,-0.02285736,-0.01639836
0.03179213,0.00673264,-0.00702663,0.00852862,0.01803665,0.01082201,-0.00268738,0.03358836,0.03319172
-0.02937713,0.01577907,0.03680614,-0.04551363,-0.01801229,-0.00250067,-0.01402753,-0.01146646,0.01793971
0.00355055,0.00486033,-0.00708118,0.01487259,0.02421566,0.00051338,0.00080003,0.01373480,-0.00233393
0.04787518,0.09098615,0.04344090,0.02737478,0.04282934,0.01367728,0.02181526,0.00148389,-0.01043906
0.08285553,0.07100540,0.00383249,0.00112507,0.01746550,-0.03494838,-0.02055365,-0.00068610,-0.07132296
-0.03216293,-0.02763832,-0.02995164,0.02317270,0.02265616,0.02434580,0.03900912,0.03349037,0.02262000
-0.01230239,-0.00941417,-0.01740588,-0.00022678,-0.00605625,-0.00215910,0.00372361,0.01265067,0.00106883
-0.01198187,0.02408182,-0.01350286,-0.02286663,-0.02320268,-0.04916368,-0.00749289,-0.04050333,-0.02536186
-0.01848792,0.00140954,0.01997962,-0.02860762,-0.00872800,0.01457147,-0.00707103,-0.00304579,0.01109608
-0.05655320,-0.07538304,-0.07157389,-0.04087701,-0.06037559,-0.03435064,-0.02570918,-0.02480632,0.03699918
0.00737519,-0.00048465,-0.00084056,0.00363228,-0.00244093,-0.00056226,0.00124947,-0.00461970,-0.00528150
-0.02968401,0.01879101,0.02317598,-0.00813606,0.01801823,0.00345578,-0.02074180,-0.04057882,-0.00174331
-0.08369873,-0.02904821,0.01467715,-0.06123032,-0.01972217,0.01522108,-0.01925785,0.03148757,0.01890529
0.04040042,0.04842582,-0.05850341,0.01657656,0.01690331,-0.08030254,-0.00941259,-0.04131456,-0.04693761
0.14974181,0.09034105,0.05817096,0.08823552,0.09399256,0.04258187,-0.14112368,-0.08061481,-0.07833458
-0.02844585,-0.03051184,-0.02830390,-0.01789648,-0.02201943,-0.01626801,-0.01215758,-0.00968915,0.00113972
-0.01451524,0.01397449,0.00455950,-0.01164035,0.00195561,-0.03199996,0.02516354,0.00812030,-0.02456584
0.03366700,0.04589377,-0.01378877,-0.00715973,0.03077156,-0.01828450,-0.02401381,-0.00796133,-0.02281305
0.00502011,-0.00268723,-0.00032236,-0.00380528,-0.00019029,-0.00282907,0.00121479,0.00405582,0.00314896
-0.03777515,-0.04471919,-0.01464593,-0.02907272,-0.02749266,-0.01004233,0.00666697,-0.00059337,-0.02310468
-0.02244714,-0.00707188,0.00801993,-0.00703217,0.00293747,0.01163897,0.01635395,0.01792148,0.03484071
0.02782552,-0.00013952,0.00943056,-0.00608800,-0.02207006,-0.00782890,-0.08383895,-0.05569978,-0.02045603
0.00286578,-0.01240135,-0.03093793,-0.01587894,-0.03476853,-0.04378591,-0.02093555,-0.04005804,-0.03564046
0.11397603,0.05172219,-0.00324422,0.00690182,0.01388090,-0.01256016,-0.09703779,-0.06341241,-0.06108801
-0.01713172,-0.01294953,-0.03356162,-0.01865276,-0.02195634,-0.02682723,-0.01785965,-0.02418761,-0.02821745
0.08459083,0.05196489,-0.02095269,0.02695675,0.00932027,-0.03823022,0.00950642,0.00033660,-0.05078303
-0.03742403,-0.00261476,0.01660871,-0.03745890,-0.01655181,-0.01094215,-0.02788583,0.01812939,-0.02456858
-0.03131662,0.00115095,0.01034987,-0.05343951,-0.04018869,-0.03569158,0.00445253,0.01331674,-0.01105734
0.01235891,0.00952885,-0.01989462,0.01801155,0.01852356,-0.02162739,0.01912669,0.02253983,-0.00221314
0.01228193,0.01857707,0.01150341,0.01658060,0.02084682,0.02733777,0.00955560,0.00503892,0.03506344
0.04906441,0.04642310,0.02350529,0.01143334,-0.00121361,0.00220425,-0.01194512,-0.00621479,0.00322592
0.01617880,0.04937267,0.01039831,0.00849993,0.03143679,-0.00851544,-0.01649217,-0.01051003,-0.02605663
-0.00948374,0.01227902,0.01627913,-0.00683096,0.00782593,0.00610648,0.00193442,0.01037323,-0.00438784
0.00849110,-0.00998169,0.00060210,-0.00807322,-0.03332073,-0.00430694,-0.00829256,0.00380783,-0.01390049
0.05540452,0.00019663,-0.02816038,-0.01144376,-0.01689485,-0.01875125,-0.01418461,-0.01743141,-0.01935424
0.03198344,0.00508161,-0.01733639,0.01537480,0.00478416,-0.01873316,-0.00235716,-0.02102765,-0.04549500
-0.08428285,-0.00212275,0.02366097,-0.01768708,0.03277313,-0.00454534,0.00275633,0.03840380,0.00254353
0.00171771,0.00071901,-0.00164464,0.00210562,0.00130823,0.00102522,0.00221797,-0.00221206,0.00802198
-0.01978609,-0.03104897,-0.04057087,0.00237093,-0.00485258,-0.01764595,0.01885736,0.02513181,0.00375056
0.00225519,-0.01746598,-0.01459974,-0.00145071,-0.01325581,-0.01362845,-0.00157656,-0.00267017,-0.00227563
-0.04386599,-0.02156756,-0.00621418,-0.02207847,-0.00703079,0.00561832,0.00648305,0.00844237,0.02633270
-0.01153131,0.03335574,0.03084111,-0.04267239,-0.01928324,-0.02467118,-0.00452147,0.02200281,-0.00860417
0.06294399,-0.00115090,-0.00795772,-0.03092229,-0.05793101,-0.02636250,-0.07113208,-0.07337644,-0.03205702
0.08809241,0.13047636,0.06675600,-0.00505981,0.04879022,-0.03485245,-0.03072832,-0.01500588,-0.10623893
0.09612793,0.02116341,-0.00112661,0.00785651,-0.03607797,-0.01914871,-0.03147232,-0.06264062,-0.02986759
0.07188152,0.05894254,0.03427083,0.02728733,0.01131004,0.01756814,-0.00175423,0.01044367,0.01928375
-0.01421212,0.00730846,-0.02883085,-0.01526531,0.00060395,-0.02116409,-0.03337321,-0.01034684,-0.01768086
-0.03770219,-0.01329572,-0.03582493,0.00491927,0.01700926,-0.01904570,0.03194914,0.02140353,-0.00794994
0.04576749,0.04926533,0.01472637,-0.02689488,-0.03673836,-0.05017192,-0.00039618,-0.03300293,-0.01298626
-0.03126743,-0.01469122,-0.01588209,-0.02791370,-0.00983789,-0.01641782,-0.01628082,-0.01538993,-0.01368708
0.00510587,-0.03748547,-0.05452805,0.06000167,0.00118907,-0.00683311,0.03569703,0.01464546,0.02973568
-0.04481101,-0.02055663,-0.03204554,-0.00525529,0.02317899,-0.02421574,-0.04595888,-0.03811004,-0.06986532
0.01411829,0.04012738,0.02944692,-0.00509842,0.02290340,-0.00450053,-0.03417856,-0.02394876,-0.02014677
-0.02531940,-0.03041061,-0.01870570,-0.01513776,-0.03192454,-0.03563513,-0.02651000,-0.03473655,-0.04488525
-0.01897177,-0.02279135,-0.03092609,-0.00624720,-0.01435919,-0.03422676,-0.01052204,-0.02089234,-0.03010684
0.04642902,0.05587276,0.06626225,0.00701107,0.00580634,0.00430636,-0.01436676,-0.01472764,-0.02882623
-0.01859237,-0.02502508,-0.04174086,0.01092159,-0.03366248,-0.01185823,0.01822953,-0.02261589,-0.04637583
-0.00916489,-0.04117250,-0.01844427,0.02357216,-0.01137080,-0.00213652,-0.01072643,-0.03799802,-0.01749224
-0.03593791,-0.01363797,0.00735239,-0.04415389,-0.02355735,0.02741720,-0.02728394,0.01447073,0.01208189
0.02540741,0.03613973,0.04001039,0.00060960,0.02656162,0.02351899,-0.02412600,-0.01403855,-0.00997230
0.00482391,0.00343458,-0.00051983,-0.02775074,-0.00726301,0.02344242,-0.03454215,0.00410084,-0.01910879
-0.00631970,0.03746086,0.04285018,0.02179801,-0.00710856,0.04738633,0.01562012,-0.03253727,-0.05293391
-0.08655935,-0.00547286,0.04162297,0.03118936,0.09159376,0.12415040,0.04338584,0.02583477,0.06965272
0.02841370,-0.02525200,-0.02417921,0.05222581,-0.03816884,-0.00647553,0.02834233,-0.03576994,-0.02788544
-0.05397958,-0.01824427,0.01968656,0.00495710,0.06055413,0.00649546,0.00741019,0.05622545,0.01797446
0.00340981,0.00165699,-0.02522644,0.02100545,-0.01019105,0.09400351,0.03506661,-0.04510438,-0.02465517
0.03141815,0.01905596,0.00913945,0.02086438,0.00635019,0.00509801,0.01651494,-0.01894689,-0.00481713
0.06510583,-0.03397701,0.02216901,0.11143340,-0.03523173,0.00268657,0.07693456,-0.00871540,-0.01399474
0.01742033,0.06756345,0.06354178,0.00337405,0.03983178,0.05029583,-0.01767834,-0.00160547,0.07174271
0.00540853,0.01598288,0.01124907,0.02433329,0.03033067,0.01490803,-0.00117357,0.01028228,0.00950428
0.02716028,0.01219504,-0.02953400,0.05930400,0.13606466,0.02544379,0.02832219,0.05938516,0.01243745
-0.02941332,-0.01363328,0.00223586,-0.03087582,-0.08672092,0.02746431,0.00106689,0.03432012,-0.03857338
-0.02026544,0.02355105,-0.01591101,-0.00515354,0.06372955,-0.01204591,0.00344457,0.06255483,-0.00575203
0.00539077,-0.03546565,-0.00440431,0.00562612,0.05891497,0.00130240,0.01214513,0.10127133,-0.00733944
-0.00317734,-0.00022207,-0.00054090,-0.00455676,0.00125287,0.00094269,-0.00005219,-0.00103606,-0.00021686
0.01813743,-0.01881191,0.01472377,0.03704506,-0.11813239,0.04764228,0.06999566,0.02492218,0.06227385
-0.03670114,-0.03509378,0.00201188,0.03775685,0.23241028,-0.01487160,-0.05479909,0.00747243,-0.05470921
-0.04629910,0.02521347,-0.02560273,-0.04775286,-0.05737492,0.07037958,-0.07101925,-0.01307467,-0.06140234
-0.11264545,-0.01903319,0.00387515,-0.09003961,-0.06210690,-0.02270170,-0.00981745,0.03407186,-0.01516969
0.03723850,0.01552809,0.00891470,0.04353678,0.03091993,0.01288288,0.03063042,0.00876329,-0.01369569
-0.01759526,-0.04343177,-0.03114405,-0.01392031,-0.06146691,-0.05602282,0.04567786,0.03616266,-0.02773758
0.00333365,-0.07893548,0.07590542,0.03359348,-0.16152489,0.06614167,0.03158702,-0.04159314,0.00039406
-0.00856143,-0.00474440,0.00566789,-0.00822510,-0.00255905,0.00452510,-0.01197056,0.00122583,0.00631005
-0.09246974,-0.01567652,-0.07092665,0.07850325,0.18683994,0.00541131,-0.03955099,0.05169804,-0.03705136
-0.01116820,0.00670572,-0.03169318,-0.00226475,0.01505721,-0.06058858,-0.01437344,-0.00674246,-0.07226894
-0.03613542,0.01520849,0.03420126,-0.04129205,-0.02947025,0.06972609,-0.07951511,-0.06209904,0.00979302
-0.02316366,0.01546437,-0.03292799,-0.03239287,0.04152686,0.01556334,-0.04146446,0.03391283,-0.00461949
-0.15260163,-0.10493112,0.01596625,-0.12642595,-0.05566409,0.00712985,-0.09262621,-0.01259340,0.03155524
0.01228370,0.02005544,0.01670326,-0.01988523,-0.00541413,0.00258353,-0.03477766,-0.03524436,-0.03404283
-0.03669530,0.05335301,0.04741137,-0.07069271,0.04351743,0.04862089,-0.10413234,-0.01565421,0.01400010
-0.05666002,-0.00169117,-0.01437749,-0.00499210,0.08300576,-0.03542215,-0.04884865,-0.01991677,-0.01593654
-0.06894152,-0.02638453,-0.00005329,-0.03991931,0.01136799,0.00773154,-0.01251489,-0.01287605,-0.01774759
-0.09602410,-0.03030402,-0.05230004,-0.08213940,-0.04997671,-0.05411483,-0.05165806,-0.02147622,-0.07818451
0.08301898,0.04971908,0.03784076,0.10757630,0.05602022,0.08344205,0.07662553,0.02074074,0.02722558
-0.02016576,-0.00090849,0.02290393,0.00835415,0.06121831,0.05279539,-0.00035643,0.03552461,0.01118851
0.02347195,0.08706862,0.09309759,0.03484811,0.02895141,0.11660970,0.03065503,0.02526220,0.04654735
0.01997617,-0.00377467,-0.03498179,0.02499766,-0.02204647,-0.03878121,0.02191808,-0.03156913,-0.07885075
0.00207942,-0.02841195,-0.02014713,0.02587295,0.23046567,-0.11710338,-0.05600575,0.12284017,-0.09656344
-0.03740887,-0.00486800,-0.02203746,0.00278630,0.01394951,0.01062295,-0.03724501,-0.01248800,-0.00910817
0.05233785,0.04336587,0.05472317,0.03069788,-0.01982306,-0.02481677,-0.02175408,-0.01334747,0.00273468
-0.02407706,-0.00039245,-0.01107003,0.00238026,-0.02636039,0.01335383,0.04383865,0.05139962,0.04570178
-0.00124790,0.00191709,-0.00803918,-0.00017657,0.00147572,-0.00178115,0.00100740,-0.00876072,-0.00362607
-0.04389807,0.00389508,-0.02895568,-0.01924495,0.05092721,-0.01180696,-0.02027174,0.02723256,-0.02170566
-0.01164271,-0.00694508,-0.03541651,0.01435287,0.04842404,-0.01091093,0.03609080,0.08322763,0.00101461
0.04436869,-0.03837136,0.01370261,0.07311093,-0.03547955,0.01350819,0.06780104,0.00722172,-0.02825792
-0.04378431,0.01452157,0.06311200,-0.01517295,0.02397747,0.05934434,-0.03454306,-0.08577182,0.00961565
0.01208246,0.01878801,0.04646099,-0.01210583,0.00859496,0.01075609,-0.08091581,-0.06326370,-0.04782659
-0.04487288,-0.01965103,0.07136349,-0.00412231,-0.06803317,0.00701585,0.01042069,0.01723338,0.01961067
0.01851417,0.00034805,0.04321209,-0.03204117,-0.00955928,0.02892786,-0.07046391,-0.02370332,-0.02415259
0.03034237,-0.02609419,0.01036635,0.05570969,-0.00763371,0.05734025,0.02653871,-0.05097359,-0.00837462
0.00931392,-0.00152574,-0.02975253,0.00173853,0.04000567,0.04616074,0.00602326,-0.01232154,-0.02084632
0.01792460,-0.03743648,0.02099964,0.00751688,-0.04819102,0.03493536,0.01717295,-0.03699644,-0.02625721
0.07060044,0.03380859,-0.00675128,0.05645161,-0.03128320,0.01671974,0.04285672,0.00332496,-0.01925719
-0.02611484,0.00873897,-0.01433859,-0.01441862,0.02070935,0.01390959,-0.03707643,-0.01521384,-0.05280329
-0.05649203,0.02323256,-0.01620230,-0.05041263,0.06296156,-0.01503517,-0.05493587,0.03186272,0.00136056
-0.01808506,0.02144886,-0.03388394,-0.00444074,-0.02132945,0.02073058,-0.02772104,-0.03310554,-0.02873632
-0.03340605,0.02149513,0.04193134,-0.03904836,-0.04596591,0.04312803,-0.05967525,-0.04524261,-0.02824377
-0.00319374,0.01326049,-0.01649177,-0.00975912,0.00644994,-0.03787684,-0.00814475,-0.00052450,-0.05398689
-0.01655412,-0.01199436,0.00303050,-0.01834404,-0.00430330,0.00355169,-0.01348355,-0.00609250,0.00198929
-0.09927735,-0.01823079,-0.02672583,-0.04252416,0.05778729,-0.01199557,-0.07100432,0.03540243,0.05264707
0.00984887,-0.03635569,-0.03062621,0.03839198,-0.01900983,-0.01276158,0.00439478,-0.03514078,-0.01472687
0.01564251,0.00476809,-0.01799368,0.00355236,-0.00207321,-0.00973160,-0.00709579,-0.01949874,0.00315480
-0.02167720,-0.01382474,0.01528536,0.00259956,-0.01275176,0.00398130,0.01679581,0.00185025,0.00632379
0.00399965,0.00065583,-0.00833058,-0.01826500,-0.01989179,-0.02092742,-0.01963923,-0.02496992,-0.01863556
0.01662317,-0.01606778,-0.03602618,0.03773513,-0.00545409,-0.02205030,0.04779270,0.00636150,-0.01329482
-0.01802713,-0.00731133,-0.02126710,-0.03934480,-0.00429740,-0.00274507,-0.06261698,-0.02105414,-0.02094939
-0.01536817,-0.04786084,-0.07040684,-0.03788995,-0.03330068,-0.06194495,-0.01029237,0.03219186,-0.00083613
0.00799942,0.00146390,0.01379808,0.00405174,-0.01112607,0.00038945,0.01593861,0.00184223,0.00122246
-0.00654363,-0.00841417,-0.00678658,-0.01070683,-0.04074010,-0.04334505,0.00854321,-0.01564444,-0.02969807
0.01309986,-0.02402266,-0.02590992,0.00038312,-0.03677027,-0.00973547,-0.02990612,-0.04293059,0.00189363
0.03194196,0.01903468,0.01876064,0.01817958,0.01744562,0.01731257,0.00471832,0.00563069,0.00098414
0.04442956,0.00464836,-0.00814927,0.05009124,-0.00009679,0.00634893,0.04609967,-0.00283370,0.01547217
-0.02714033,-0.01635487,0.01979272,-0.01363197,-0.01131681,-0.01029452,-0.00889220,-0.01143298,-0.03354070
-0.00507839,-0.00388537,-0.01238209,0.00855772,0.02741815,0.02574949,0.01087931,0.03307693,0.03855416
-0.01037406,-0.01353783,0.00115249,-0.01409461,-0.02237184,-0.00431427,-0.00956058,-0.01544333,-0.01406555
0.01754262,-0.00935790,-0.04272000,0.03882821,0.01772460,-0.00175279,0.01754216,0.00547657,-0.00173283
-0.01389047,0.03294558,0.03784708,-0.01754205,-0.00060810,0.01810103,-0.00462756,-0.01239407,0.01174508
-0.01162950,0.05217471,0.12523235,-0.08892204,-0.11934941,-0.04670164,-0.06275290,-0.12664433,-0.02774758
-0.00086909,0.00010879,-0.00167867,-0.00027369,-0.00460614,-0.00209242,-0.00249300,-0.00301683,0.00407727
0.03794194,0.01401687,-0.01620357,0.01645971,-0.01443449,-0.01316500,0.00373750,-0.03171399,-0.00362035
-0.03691803,-0.03128390,0.00095421,-0.03804443,-0.03538867,-0.02798265,-0.01615232,0.00055143,-0.02459016
0.03004596,0.01987157,-0.03110803,0.06252230,0.02735868,-0.03705433,0.03548563,0.00758866,-0.02915847
0.08154336,0.12245841,-0.07135542,0.08851800,0.13351159,-0.07850132,0.03836156,0.03314969,-0.12096170
-0.00898074,-0.01014287,0.00875839,0.00996585,-0.00200148,-0.01103751,0.01393172,0.01313612,0.00412881
-0.00452149,-0.02863682,-0.03215949,-0.00097008,-0.01137141,-0.04187088,0.03396821,0.01366697,-0.00960973
-0.00744350,0.05607295,0.06480806,0.02038363,0.03856065,0.03800341,0.03093448,0.00950521,0.02022878
-0.00786136,-0.00264871,0.00121437,-0.00070897,-0.00426135,-0.00421973,-0.00397330,-0.00061619,0.00186224
-0.00250225,-0.03437452,-0.02721987,-0.00529127,-0.03098256,-0.01692106,-0.01265455,-0.01323786,-0.01280408
-0.00203360,-0.00974030,-0.00983785,-0.00579960,-0.01199869,-0.00028622,-0.01218427,0.00507166,0.00952265
-0.00457135,-0.00337376,-0.01702085,0.01540708,0.00411269,-0.02581087,0.00451272,-0.00227989,-0.01142816
0.03939123,0.07763486,0.08083218,0.01783336,0.05286374,0.05545750,-0.02291503,-0.01485115,0.01363188
0.00907903,0.00454283,0.00270761,0.00169630,-0.02518773,-0.02314050,-0.00118871,-0.04489168,-0.05298460
-0.05817479,-0.05237563,-0.05744410,-0.03276766,-0.02640786,-0.04334596,-0.01116161,-0.01172488,-0.01619822
-0.01975893,-0.04331504,0.00256839,-0.00756912,-0.01684244,-0.00215756,-0.00813518,0.00024068,-0.01027071
-0.03978191,-0.02904519,-0.02148267,-0.01037147,-0.01125169,-0.02280502,0.02699346,0.02507439,-0.01833131
-0.01487376,-0.01268621,-0.01055206,-0.00928954,-0.01798021,-0.02149763,-0.04851559,-0.03594480,-0.03088379
-0.03047505,-0.04977353,-0.04957216,0.02161570,-0.00966047,-0.03048493,0.04577143,0.01395652,-0.01111529
0.01843450,0.01167715,0.03558957,0.01648474,0.00034091,0.05490660,-0.02316434,-0.01904704,0.06130172
0.01699261,0.03562723,0.06303288,0.00095028,0.01341752,0.01755039,0.02800642,0.03281403,0.03851603
0.01083971,0.00895186,-0.02280786,0.02353450,0.00934407,-0.00397731,-0.01682034,-0.02858066,-0.01747245
-0.00447412,-0.02222049,0.00152958,0.01114574,-0.01630882,0.01817326,0.01650169,-0.00353160,0.01715642
-0.05107427,0.01569360,0.09731208,-0.06824779,-0.00423136,0.07285190,-0.06337225,-0.01789111,0.01659313
-0.00964757,0.04630702,0.09507772,-0.02943144,-0.01342258,0.00007495,-0.02355598,-0.03168557,-0.04261243
0.00522871,0.01269884,-0.00254897,-0.01181606,-0.00627281,-0.00571200,-0.00761771,-0.00719192,0.00881874
-0.04382403,-0.04417874,-0.05526669,-0.03554736,-0.02097557,-0.04421258,-0.02546027,0.00845472,-0.00174053
-0.00722901,-0.00357771,-0.00397733,-0.00068526,-0.00746437,-0.00361730,-0.00505910,-0.00316495,-0.00391885
-0.04913612,0.00027893,0.01917408,-0.02842763,-0.00209555,0.02208002,-0.00464036,0.00697966,0.00485426
-0.00073139,0.01174989,0.01519537,0.00997988,0.02306494,0.02262273,-0.00082224,-0.00241886,-0.00686733
-0.01581705,-0.02622669,-0.01775144,-0.00018746,0.01129519,0.03503815,0.04467719,0.05132656,0.08390074
-0.04862564,-0.05650910,-0.05145916,-0.00050923,-0.03000645,-0.05313718,0.02475227,-0.00079207,-0.02136023
-0.03136537,0.01622708,0.05589985,-0.02008594,-0.02078789,0.00997660,-0.00826150,-0.03892549,-0.00872888
-0.04050759,-0.04190924,-0.02872354,-0.00578201,-0.04718661,-0.04425560,0.05050606,-0.01606255,-0.04208790
0.01919714,0.07431933,0.11317407,-0.02096770,-0.00232203,0.04947633,-0.04811550,-0.04245934,-0.01332505
-0.00018552,0.00195972,0.01289187,0.00797824,0.03330164,0.02078220,0.02725927,0.07134196,0.04792269
-0.03225980,-0.01929940,-0.00864535,-0.02030793,-0.01343601,-0.01595699,-0.02466239,-0.00124590,-0.01531720
0.05167058,0.00598557,-0.02393772,0.03518479,-0.01138652,-0.03978916,0.01854053,-0.01822659,-0.02212239
-0.00101186,0.01586963,0.02228466,-0.02505175,-0.00300512,0.00632980,0.00291006,0.01154505,0.01921070
-0.04789346,-0.01792503,-0.00101873,-0.06443304,-0.04393439,-0.02745341,-0.02595359,-0.02940964,-0.02086869
0.01214308,0.05175442,0.03046346,0.01255895,0.05050858,0.02752358,-0.01287655,0.01778219,0.00185060
-0.00645328,-0.00763342,-0.00318414,-0.02051459,-0.03189836,-0.03546237,-0.00778459,-0.00346733,-0.00768232
-0.04526881,-0.01072830,0.00596731,-0.02413209,-0.02883754,-0.02160387,-0.00763594,-0.01852951,-0.00906075
-0.09380265,-0.06735672,-0.01936553,-0.08497594,-0.05719556,-0.00772881,-0.07428550,-0.04773749,-0.00484521
-0.00148251,0.00185850,-0.00469506,-0.00140579,-0.00329906,-0.00469466,-0.01392129,-0.00702978,-0.00477287
-0.06441352,-0.03829826,0.02616061,-0.01201236,-0.01170283,0.02607580,0.05726295,0.04918598,0.03225014
-0.00107395,0.00118768,-0.00297970,-0.00525847,-0.00730492,-0.00266705,0.00005603,-0.00096895,-0.00075328
-0.00019774,-0.00492462,-0.00266049,0.00406121,-0.00220284,-0.00281584,-0.00118037,0.00055968,-0.00205525
0.00409543,-0.00628966,-0.00131553,0.00266049,0.00232453,-0.00031349,-0.00033226,0.00399114,-0.00019294
0.00073082,0.00147676,0.00116776,0.00592708,0.00192937,-0.00090579,0.00042305,0.00145013,0.00005611
0.00337783,-0.00262351,-0.00287752,-0.00250118,0.00151857,0.00404793,-0.00234358,0.00276689,-0.00367532
0.00142202,-0.00091131,-0.00269064,-0.00141211,0.00282413,-0.00475382,-0.00026476,-0.00473500,-0.00024988
0.00285886,-0.00092049,0.00100394,-0.00642773,-0.00083243,0.00117450,0.00133951,0.00166551,0.00054863
0.00117180,-0.00248311,-0.00128348,-0.00016253,0.00188175,0.00126380,-0.00727999,0.00649516,-0.00558114
-0.00075906,-0.00383595,0.00007124,0.00356359,-0.00089533,-0.00124803,-0.00689206,-0.00208918,-0.00419733
0.00804350,0.00010658,0.00340095,-0.00090085,-0.00248517,0.00348738,-0.00079713,-0.00056769,0.00064572
-0.00274902,-0.00041635,0.00183304,0.00074566,0.00068205,-0.00470665,-0.00029269,-0.00266735,-0.00171589
0.00140780,0.00148829,0.00315650,-0.00303145,0.00398999,-0.00081628,-0.00582072,0.00436264,0.00056886
-0.00346574,0.00286981,0.00137646,0.00099072,-0.00426885,0.00720233,0.00293684,0.00547209,0.00132623
0.00286998,0.00017828,-0.00442159,0.00217702,-0.00149900,0.00109110,-0.00090400,0.00188807,0.00167540
-0.00393135,0.00107468,0.00166874,0.00511457,0.00584888,0.00068965,-0.00257824,0.00231126,0.00411773
-0.00136721,0.00206811,-0.00313983,0.00008673,0.00120521,0.00961201,-0.00037210,0.00089601,0.00318754
0.00098188,0.00011201,-0.00361131,0.00105664,-0.00043091,-0.00019261,-0.00077695,-0.00278988,-0.00281755
-0.00507922,-0.00006297,-0.00304328,-0.00003273,-0.00025667,-0.00462509,-0.00111389,-0.00035171,-0.00232953
0.00029543,0.00236151,-0.00267420,0.00109057,0.00124941,0.00325123,-0.00106960,0.00315096,-0.00070250
-0.00331388,0.00031920,0.00235751,0.00334573,0.00093024,0.00530388,-0.00162022,0.00202409,-0.00446044
-0.00264247,-0.00352997,-0.00128836,-0.00406396,0.00101221,0.00249753,-0.00289797,-0.00121458,-0.00311420
0.00864502,0.00497998,0.00040259,0.00212720,0.00682210,-0.00163240,-0.00497526,0.00466467,-0.00245586
-0.00328702,-0.00259908,0.00423218,-0.00128719,-0.00710236,-0.00141721,-0.00014566,-0.00090131,-0.00235605
-0.00009342,0.00015989,0.00314349,0.00033369,0.00085779,0.00186073,-0.00274230,-0.00282284,0.00074282
0.00443154,0.00540828,-0.00183281,0.00165521,-0.00305160,0.00162071,-0.00135621,-0.00010810,-0.00413861
-0.00206200,0.00002554,-0.00229634,0.00250271,-0.00296501,0.00274846,0.00633534,-0.00209013,0.00154673
0.00354714,0.00309284,0.00192541,-0.00247760,-0.00305837,-0.00211730,-0.00564244,0.00105726,-0.00473987
0.00375912,0.00448197,0.00014747,0.00228861,0.00138708,-0.00381840,0.00018828,-0.00069156,-0.00129019
-0.00008752,-0.00299100,-0.00219399,-0.00080936,-0.00318218,-0.00226175,-0.00206402,0.00123883,-0.00281022
-0.00427196,-0.00297617,-0.00553772,-0.00131298,-0.00337726,-0.01018133,0.00267818,-0.00357447,-0.00245479
-0.00017629,0.00152913,0.00016849,0.00054593,0.00118230,0.00339330,0.00265834,0.00017737,0.00363804
-0.00287456,0.00217510,-0.00554602,0.00284034,0.00317050,-0.00366534,-0.00053606,-0.00213627,-0.00506767
0.00067690,-0.00301931,-0.00661266,-0.00490647,0.00264984,-0.00667370,-0.00374215,0.00000233,-0.00270776
0.00684803,0.00049026,-0.00092927,0.00092035,0.00604730,-0.00313231,-0.00063092,-0.00177906,-0.00239202
0.00550710,-0.00291852,-0.00533140,0.00323957,-0.00498222,0.00370873,0.00017345,-0.00375025,-0.00024720
0.00290775,-0.00293393,-0.00197190,0.00971966,0.00733983,0.00414106,0.00276957,0.00672633,0.00019396
0.00216405,-0.00249834,-0.00091094,0.00032705,0.00161269,-0.00435729,0.00266755,-0.00541111,0.00191314
-0.00250337,0.00119008,-0.00064514,-0.00146183,-0.00451826,-0.00001028,0.00098846,0.00016066,-0.00682437
-0.00072772,-0.00430157,0.00254256,-0.00088478,0.00368508,-0.00032407,0.00139499,-0.00067712,-0.00335671
-0.00680315,0.00264366,-0.00302909,-0.00430525,-0.00222601,-0.00570393,0.00197358,0.00037931,-0.00107110
-0.00015249,0.00060707,-0.00215401,0.00302022,-0.00073689,-0.00183407,0.00249474,-0.00160583,-0.00151399
0.00670103,0.00327332,-0.00163429,0.00529950,-0.00238189,-0.00316713,0.00167036,0.00042956,0.00331616
0.00257595,-0.00417096,-0.00497792,0.00006905,-0.00333469,0.00107308,-0.00264922,-0.00068828,0.00264309
-0.00293035,-0.00271648,-0.00005639,0.00222057,0.00271241,0.00013328,-0.00280341,0.00415507,-0.00470674
-0.00275380,-0.00309113,0.00243266,0.00406171,0.00645491,0.00260043,-0.00238094,0.00226938,-0.00287807
-0.00053731,0.00172827,-0.00175387,0.00365622,0.00221140,0.00518670,-0.00146496,-0.00111661,0.00045328
-0.00070156,0.00070500,-0.00392992,-0.00256861,-0.00772084,-0.00336869,0.00109125,-0.00324054,0.00242609
-0.00007157,0.00140329,-0.00535385,0.00598517,-0.00340982,0.00238328,-0.00529479,0.00252947,-0.00135271
-0.00627396,-0.00085169,0.00110679,-0.00125794,-0.00027566,-0.00189001,-0.00137851,0.00427195,-0.00418582
-0.00095090,0.00022452,-0.00271655,-0.00312576,0.00003266,-0.00184105,-0.00107523,0.00286698,0.00319873
-0.00335977,0.00549853,-0.00322372,0.00430356,-0.00496627,0.00145209,0.00233369,-0.00190367,-0.00334898
0.00354267,-0.00131320,0.00075954,0.00084061,-0.00128087,0.00452099,0.00250685,0.00043920,-0.00214941
0.00019747,0.00666225,0.00038804,0.00189726,-0.00472712,-0.00248694,-0.00120145,-0.00409463,0.00110974
-0.00751170,-0.00029114,-0.00345099,-0.00180792,-0.00015110,-0.00182212,-0.00066380,-0.00545537,-0.00464806
0.00579787,0.00121894,0.00277018,0.00290526,-0.00218315,0.00090974,0.00259103,-0.00054490,-0.00408624
-0.00127863,0.00485135,0.00336929,0.00171770,-0.00316940,-0.00424882,-0.00620356,-0.00273848,-0.00515312
-0.00162522,0.00341532,-0.01048239,-0.00378775,-0.00632974,-0.00365565,-0.00306299,0.00415019,0.00016493
0.00137362,0.00746954,0.00225421,0.00263537,0.00179465,0.00279303,-0.00668641,0.00046954,-0.00114296
0.00227085,0.00389376,0.00202734,-0.00030611,-0.00186686,0.00305260,-0.00212194,-0.00158377,-0.00059191
0.00303445,-0.00148281,-0.00796866,-0.00032514,-0.00156961,0.00405123,-0.00390233,-0.00230779,-0.00189007
-0.00068479,-0.00673602,0.00257406,0.00217480,0.00074919,-0.00008426,-0.00256449,0.00347086,-0.00029353
-0.00065450,-0.00315431,-0.00518889,0.00070969,-0.00018284,0.00060003,0.00421297,0.00042074,-0.00318012
-0.00447645,-0.00055305,-0.00346238,0.00699465,0.00087501,0.00674920,0.00220549,0.00001390,-0.00123138
0.00242633,-0.00088499,-0.00509535,-0.00173729,-0.00034689,-0.00068334,0.00615617,-0.00114403,0.00300929
0.00698594,0.00467980,0.02652625,0.05915161,0.04651707,0.04288528,-0.04661067,-0.01278645,0.03608501
-0.03743414,-0.02017468,-0.03604225,-0.03696711,-0.02196832,-0.03744575,0.02131712,0.04384710,-0.00673528
0.01357891,-0.00247556,0.04445595,0.03536954,-0.00845475,0.04572276,-0.00139499,-0.03155982,0.03509386
-0.01055561,-0.00707186,0.04029969,-0.02615445,-0.02407101,0.03062196,-0.00703244,-0.00817770,0.00860830
-0.04791363,0.01463145,0.06482723,-0.00229200,-0.03065203,0.01703094,-0.02665924,-0.00231112,0.05528978
-0.04716920,-0.01968755,0.01730394,-0.02878352,-0.04828332,-0.00880971,-0.00315672,-0.00442835,0.01099966
-0.00502111,0.02852831,0.03860128,-0.01930783,0.02705530,0.02467147,0.04266294,0.05586651,-0.04008320
0.00182431,-0.02475156,0.01800237,0.04095329,-0.01903088,0.01886360,0.00463936,-0.02922534,0.01749680
-0.04471009,-0.04813639,-0.03432349,-0.07641614,-0.07027426,-0.03323662,-0.07427970,-0.04964698,0.00920068
0.00946724,-0.00156844,0.03295929,0.05125581,-0.07535287,-0.04420849,-0.00893784,0.00654073,0.02013563
-0.01807488,-0.01822846,-0.00607248,-0.00901696,-0.00289166,0.00682096,-0.00601390,-0.00211278,0.00832166
-0.00671741,-0.03543847,0.07097705,-0.00190821,-0.04820733,0.07857868,0.01158071,-0.04817344,0.07225742
0.04420822,0.01411671,-0.04181612,0.06736354,0.01528027,-0.00670884,0.06103072,0.02042884,-0.01010519
-0.02450210,-0.02396004,-0.03242030,0.01153150,0.03584906,-0.00517795,0.03021907,0.02124602,-0.01704899
-0.01450866,-0.00076457,-0.01984804,-0.01646331,-0.01248950,-0.01436211,0.00697538,0.02422078,-0.02659215
0.01452439,0.03418053,0.06577734,0.07315737,0.01226620,-0.00021210,-0.05786505,-0.05361505,-0.00379288
-0.03979263,-0.04278792,-0.04306998,-0.04493445,-0.04890722,-0.02666781,0.00304951,-0.00681278,0.01370539
-0.05380777,-0.08494482,0.02856533,-0.08211534,-0.07671744,0.01634732,-0.03576274,0.00052382,0.09002224
0.00205426,0.00285758,0.00098553,-0.00247171,0.00140597,0.00126770,-0.00037262,-0.00446507,-0.00176489
0.00155307,-0.02102123,0.08573837,0.11376680,0.01276028,-0.02665962,-0.05674302,-0.11198021,-0.04036335
-0.00349155,-0.00707053,-0.04874284,-0.06715664,-0.02339268,0.08146477,0.07611796,0.09495118,0.00150005
-0.01001805,0.00889425,0.05750497,0.12751994,-0.03857500,-0.01927856,-0.03665673,-0.05556956,0.02549368
0.00400150,0.07257763,-0.00586151,-0.01754865,0.10516599,-0.01971182,-0.00249917,0.03785757,0.00207242
-0.00434496,-0.00490833,-0.02689954,-0.01033705,-0.01449920,-0.02458688,-0.00049546,0.00192369,-0.00423068
0.00102201,-0.03423981,0.01416261,0.02458505,-0.02154600,0.00833245,-0.01305623,-0.02442672,0.01634843
-0.03518567,-0.06611603,-0.02246451,0.06709260,0.00349260,-0.02804924,-0.00318816,-0.02824025,0.02113273
-0.00283611,-0.00090580,-0.00267703,-0.00329516,-0.00040530,-0.00005096,0.00126355,0.00122915,-0.00127241
0.00945944,0.03301850,0.00607269,-0.01400006,-0.00630725,-0.03943765,-0.02689049,-0.00270177,-0.04562444
0.00764305,0.01341532,-0.01280493,0.00134964,0.02438605,-0.00649372,0.01380841,0.04317545,0.00519234
-0.03092965,0.01416639,0.02451293,-0.00721245,0.03806594,-0.01138583,-0.01570374,-0.01044530,-0.04011168
0.00285876,-0.02596837,-0.02073014,0.01445382,-0.02054700,-0.00001603,-0.03460687,-0.02102299,0.02118059
0.03411620,0.03005610,-0.04226138,0.01646757,0.01855429,-0.03954497,0.02040922,-0.01847864,-0.05956493
0.01908710,0.01071088,-0.01019445,0.01508909,0.02332187,-0.00026501,-0.01119509,-0.00135782,-0.01672157
-0.05176518,-0.00914609,-0.02739836,-0.02571204,-0.00201314,0.01760072,-0.00619191,0.01810531,0.05214659
0.01232822,-0.00350187,-0.04788141,-0.03409089,0.02504335,0.05560998,0.07978895,0.05749603,-0.02608484
0.01106133,0.01148210,0.00537805,-0.03826652,-0.03126770,-0.01687506,-0.03309576,-0.03600485,-0.04682450
0.00458956,0.00354341,-0.00532801,0.03200724,0.00810847,-0.01602565,-0.02356353,-0.00856320,0.01102526
-0.02148493,-0.00510955,0.03077882,-0.00769128,0.00712038,0.05450733,-0.02212746,0.01612607,0.07998729
0.05072407,0.06927919,0.10898159,0.00613963,0.03264577,0.08104920,-0.02425987,0.01289858,0.06959280
0.01688331,0.01331556,0.01389666,0.06951268,0.02191448,0.03006159,0.01171775,0.04239592,0.09107754
0.00604123,0.04075852,0.00914921,0.02011884,0.03998593,0.00033014,0.01816724,0.02836398,0.00123510
0.05389106,-0.00645548,-0.09801653,-0.05569762,-0.00206205,0.03249060,0.02702985,0.05688912,-0.01486843
0.01136886,0.01198705,-0.01079939,0.00645708,0.02176219,0.00944189,0.00889444,0.00855338,0.01586275
-0.02336738,-0.01131252,0.02411226,-0.02475951,0.04095559,0.05184359,-0.02648099,-0.05025382,-0.02520486
-0.01131716,-0.02981632,0.00503059,0.02071737,-0.00981379,0.00070177,-0.02331897,-0.03675127,-0.02756214
-0.00305969,-0.00509202,-0.00094369,-0.00791070,-0.00091721,-0.00148594,0.00362644,0.00030040,0.00261847
-0.02640718,-0.04521719,-0.10793325,-0.03352063,-0.02740105,-0.04724420,0.00253362,0.00604059,-0.03919797
-0.00446620,-0.00801868,-0.03834423,0.00236950,-0.01509559,-0.01399200,-0.00543352,-0.00148908,0.00190473
-0.01282572,-0.04203504,0.00381612,0.04040933,-0.00777450,-0.01760279,0.02866740,-0.00586631,0.01444631
0.02508775,0.01776796,0.01444248,-0.01577494,-0.01513968,0.02476259,0.04675655,0.01103530,-0.04545963
-0.03883455,-0.04747634,-0.04247748,-0.04293489,-0.06061019,-0.02206633,0.04890572,0.03224654,0.02702194
-0.00958039,0.02657971,0.02402268,0.01938721,0.00842415,-0.01981369,0.00909737,-0.06627795,-0.03685871
0.00748305,0.00539894,0.06591874,-0.01094622,-0.02951762,0.06321684,-0.04225735,-0.05407052,0.04201306
0.01982049,0.07102948,-0.01643879,-0.02213925,0.05111818,0.00900001,0.00993281,0.07155242,0.07443704
-0.02556632,-0.02445669,-0.01358846,-0.00244750,-0.06776886,-0.01585793,-0.04369940,-0.02992152,-0.00522550
-0.01158689,0.01696078,0.00569707,0.02519130,0.02445448,-0.00161746,-0.03044045,-0.00306750,0.01061380
0.02524679,0.01783755,0.04337860,0.03271524,-0.00651480,-0.01071688,-0.04009593,-0.05618359,0.00710064
-0.00307701,0.01206352,-0.02055628,0.00311572,0.00578139,-0.04755602,-0.01278148,-0.01189519,-0.01393966
0.00735110,-0.03899935,-0.03659221,-0.01516708,-0.03584788,0.00706340,0.01621182,-0.00789375,0.00991624
-0.03455361,-0.01629380,-0.04859713,0.02164829,0.03063547,0.00880221,-0.04625155,-0.01600639,0.00646217
-0.02780754,-0.01925524,0.00137368,0.01003475,-0.01578192,-0.01217067,-0.01990600,-0.03381136,0.01503672
0.02539475,0.01450068,-0.02707596,-0.02925798,-0.01602039,-0.02055305,-0.05585711,-0.03402546,-0.01475391
-0.02899709,-0.03669765,-0.01877142,-0.00463416,-0.02167689,-0.01225977,-0.01028224,-0.02680418,-0.02450839
0.03180398,-0.00491139,-0.03231319,0.00329987,-0.01653603,-0.02120405,0.06693865,-0.00062602,-0.03581901
-0.00564769,0.01367132,0.01581148,-0.00882349,-0.03073301,-0.01874265,0.00009369,-0.05348500,-0.00692134
0.00384602,0.01280874,0.03176003,-0.02638672,-0.05546421,0.00774687,-0.02002825,-0.03949992,-0.00136787
0.01420785,0.00315077,-0.01218229,0.04625204,0.03791542,0.02754774,0.03981169,0.06084914,0.03913876
0.01061138,0.00213628,0.05257853,-0.00946727,-0.00592396,0.04046849,-0.03457739,-0.01754446,0.03145694
-0.03670289,-0.03342673,-0.03323439,0.01792901,0.01152105,0.02223580,0.07535314,0.09665293,0.06849920
0.01029035,0.08837584,0.07770000,-0.03083552,-0.02847925,0.01131434,-0.03087620,-0.08152808,-0.05969839
0.03919004,0.05364720,0.07574432,0.01724508,0.00958515,0.03875176,-0.00982598,-0.03842211,-0.00054074
0.04046076,0.02276075,-0.00513548,0.02457241,-0.02203932,-0.03425936,0.03338652,0.02063566,-0.00782275
0.05040713,0.03052568,0.00264477,0.06601001,0.08572496,0.01835258,0.04245959,0.07074043,0.02149800
-0.04606516,-0.04073706,-0.00681979,-0.07956114,-0.03371543,0.07853361,-0.03031710,0.05812306,0.13791659
0.01347042,0.02000701,0.00181479,0.01332834,0.02137886,-0.00439108,-0.01389927,-0.01300691,-0.03233276
0.00214615,-0.06772216,-0.01170000,0.02893580,-0.00043595,0.02077915,0.00535069,0.03486853,0.03323543
0.04599769,0.04909099,-0.01293182,0.01146503,0.02953179,-0.00843702,-0.05189713,-0.05027873,-0.02999548
0.03705093,0.04559883,0.01482159,0.02845620,0.00684733,-0.02308029,0.01455207,-0.02150744,-0.04522987
0.01679247,0.00695531,-0.03484856,-0.00077844,0.01144866,-0.05635089,0.01246468,-0.00274566,-0.06601125
-0.06304262,-0.03785831,-0.03480104,0.01536488,-0.01646967,0.01913135,-0.01105738,0.00580368,0.03158834
-0.03365659,-0.04315916,-0.04794193,-0.00115697,-0.01216523,-0.04309786,0.00467619,0.02198000,-0.03844807
0.03915644,0.00188560,0.09647191,-0.01035460,-0.02804935,0.01557336,-0.05439392,-0.02768314,-0.08230232
0.00223403,-0.00295942,0.00089866,-0.00348289,-0.00197491,-0.00534247,0.00422265,0.00442550,0.00438756
0.00035834,0.08487085,0.05858321,-0.08300142,-0.08427472,0.02144895,-0.10004679,-0.03142370,0.12791650
-0.04428222,-0.08566511,-0.01604822,0.02676156,0.09619884,-0.00165659,0.06754980,0.08062089,-0.00203343
0.02131568,0.04667737,0.01702403,-0.04019237,-0.02831057,0.02601592,-0.03583636,0.02363151,0.07869737
-0.04389181,0.00580022,0.05399494,-0.06398609,-0.06301393,-0.02128231,-0.04209308,-0.02408035,-0.02236247
-0.00456845,-0.01748436,-0.03361859,0.02014480,0.01411112,-0.00000760,0.00940906,0.01521232,0.01616349
-0.04100549,0.00194083,-0.01002735,-0.03508500,0.00704092,0.02345847,-0.06982462,-0.02628866,-0.02279313
-0.04019696,-0.00689320,-0.05619227,0.02045998,-0.04000748,0.00126278,0.06255911,-0.00374878,0.08628830
-0.04958526,-0.00826894,0.00226508,-0.02064326,0.03614147,0.04673373,-0.01614868,0.03545868,0.04983819
0.08705977,0.02791705,-0.04422338,0.01947940,0.00461764,-0.06520046,-0.01045508,0.00959643,-0.02739048
-0.01189153,-0.02320446,-0.04259988,-0.01592326,-0.03289441,-0.05060267,-0.01459100,-0.01331810,-0.03897061
-0.08426249,0.02697722,0.04101132,-0.09250336,-0.01719302,0.07052293,-0.08651380,-0.02873869,0.18743622
0.06170302,0.06265728,0.05747393,-0.02790035,-0.01633082,0.01226457,0.00960453,-0.01917651,-0.00785489
-0.03221231,-0.03895843,0.06275319,-0.05634268,-0.08426416,0.02950867,-0.04037282,-0.02963954,0.04831295
-0.01772123,0.02332410,0.05377321,-0.06719510,-0.00699465,0.08374517,-0.01604206,0.02673301,0.11055383
-0.04138870,0.00255599,-0.00621282,-0.03567611,0.04166453,-0.00653632,0.03561751,0.08451182,0.00466755
-0.03643670,-0.07734603,-0.06176820,0.11864351,0.12377995,0.04298928,-0.01643012,-0.00333902,0.00169871
0.00533543,0.01838877,-0.01248858,-0.02427164,-0.00061223,-0.02034962,-0.04239354,-0.03145503,-0.00683711
-0.00981312,0.01657756,0.04409997,-0.03762146,-0.04158123,0.04017508,0.01231972,0.01327142,0.08814365
0.04948393,0.03455506,0.02188714,0.01434946,-0.01450409,-0.01538744,0.02496028,-0.01272496,-0.04414627
-0.02728914,-0.05834166,-0.03620715,-0.03917038,-0.05690467,-0.04353143,0.02174930,0.00335676,0.00345057
0.03371799,0.08855079,0.02150001,-0.06023381,-0.04638853,-0.04592820,-0.03694956,-0.03587930,-0.06088088
-0.02222250,-0.01179808,-0.04221157,-0.01548054,-0.01455548,-0.02921779,-0.01086806,0.00725963,-0.00906129
-0.05704382,-0.14445263,-0.00547027,0.00337893,0.01078427,-0.01611512,0.08059337,0.06294215,-0.06786470
0.02988447,0.04430845,0.04640032,-0.03661232,-0.04667502,-0.00196479,-0.03587816,-0.02283431,0.01366485
-0.00524165,-0.01342461,-0.01009753,0.04797842,-0.01115711,-0.05407887,0.03647740,0.01314016,-0.02935153
-0.03067904,-0.04117240,-0.07205683,0.01571558,-0.04465735,-0.06300063,0.00026536,-0.02956248,-0.03455974
0.00236204,-0.00389476,0.00153308,-0.00118637,0.00094152,-0.00566441,0.00569549,-0.00006425,-0.00743088
-0.00917417,-0.03582579,-0.03047677,0.01689873,-0.00482231,-0.00086712,0.01119670,-0.01392970,-0.02231235
0.04076954,0.00679724,-0.02021505,0.03009451,0.00790417,-0.02348755,0.03908601,0.00734748,-0.03751377
-0.01702322,-0.00098948,-0.02451289,0.02448191,-0.01233427,0.01838558,0.04675086,0.02136390,0.01319529
-0.04074045,-0.05100545,-0.10323324,0.04768256,0.04460454,-0.00254556,0.07266593,0.02611180,0.08248390
-0.04577165,-0.04790493,0.01963602,-0.05567287,0.01686270,0.11000453,-0.08616918,0.02955616,0.12413513
-0.00740170,-0.00220271,-0.09349713,0.01843533,-0.01448196,-0.05972372,0.00782924,0.00082049,0.01082340
0.00534052,0.00753040,0.05998623,-0.05505344,-0.06199418,0.03596786,0.00760210,0.03423130,0.04942814
0.00405419,-0.02861763,-0.00231239,-0.02166050,-0.02806378,0.02950560,-0.00776383,0.00632260,0.02995962
0.01172699,0.02295655,0.00098721,-0.00612665,0.02076199,-0.01818942,0.00230623,0.01408618,-0.04042916
0.04668749,0.02620442,0.00729049,0.04302575,0.01521564,0.00195159,-0.01964614,-0.04230492,-0.06415261
0.05554027,0.02266445,-0.03626467,-0.00619471,-0.05356564,-0.06465255,0.02239510,0.08405069,0.09481885
-0.05072644,-0.01796949,-0.03859419,-0.03601535,0.02649586,0.04158310,-0.02118245,0.05297045,0.10874023
0.00779929,0.00630288,0.05754291,0.00826058,0.00557548,0.02586561,-0.00006996,-0.01640926,0.01134293
-0.00351810,-0.01257567,-0.05872387,-0.05547044,-0.03644731,-0.06780940,-0.00686753,0.02924541,0.01804485
-0.02677661,0.00415439,-0.02944329,0.00178705,-0.01789431,0.00462322,0.04537086,0.05407026,0.10044896
-0.03854005,-0.03276137,-0.02665517,-0.02579495,-0.03264924,-0.03127189,-0.01277622,-0.01830479,0.00133730
-0.02659148,-0.01576791,-0.01279711,-0.02065311,0.00321486,0.00157477,0.00869667,0.03118427,0.02898280
0.05321247,-0.02392646,-0.03785942,0.06378451,-0.02694544,-0.04352349,0.03841697,-0.03626841,-0.03648713
-0.06374436,-0.00996939,-0.00604162,-0.00838822,-0.02109027,-0.02188943,0.03545174,-0.02989284,0.00802835
-0.02760073,-0.00160003,-0.02286341,0.00912720,0.01751496,-0.02385515,0.01886467,0.03399562,-0.00414157
0.02326106,0.04078152,-0.03763340,0.04840352,0.01724928,-0.03200122,0.02421498,-0.00304546,-0.04285312
0.02936128,0.01246063,0.02502166,0.00710350,0.01900858,0.02036080,-0.01529402,0.00689547,0.00680564
-0.00784957,0.02479382,0.01154796,-0.00924876,-0.04747798,-0.00713939,-0.00977553,-0.02420515,-0.00620391
-0.03570017,-0.04734745,-0.04443385,0.00184630,0.03515946,0.04121304,-0.03390167,0.01498829,0.01543254
-0.00086546,-0.04114172,-0.03679683,-0.07040711,0.01943883,-0.00016778,-0.06102487,-0.03556863,-0.00646187
0.01911497,0.04881690,-0.00149328,0.03514270,0.02714103,-0.00402896,0.03903023,0.00786566,-0.02997738
0.07213950,0.03787179,0.00470018,0.00992843,-0.02562698,-0.05343612,-0.00524533,-0.01451171,-0.04923479
0.02558027,0.07270674,-0.02280697,-0.02027889,-0.00544956,-0.03221307,-0.03236247,-0.02966686,0.03078966
-0.01179756,-0.01137882,-0.00901057,-0.01175900,0.01276417,0.00222475,-0.00010409,0.02238306,0.01501131
-0.04300454,0.03543115,-0.03921252,-0.01764883,0.02595235,-0.02326000,-0.01855350,0.00134356,-0.03921605
-0.07378177,0.00286291,-0.02305730,-0.06555414,0.04859942,0.01521279,-0.06112025,0.02163843,0.00710068
-0.00787779,0.03052947,0.00891683,-0.01494976,0.02841250,-0.00028453,-0.00755303,0.02619824,-0.01315464
0.00532579,-0.00829577,0.00783541,0.00246456,0.00635337,0.03462734,-0.00525002,0.04031736,0.01902405
0.01922716,0.15216067,0.00718497,0.08306366,0.03549284,-0.02228422,-0.01035338,-0.04322228,-0.01281289
-0.02551962,-0.04848975,0.00954968,-0.00529000,-0.00893353,0.00876665,-0.03669070,-0.01435775,-0.00957682
0.00468299,-0.01265291,0.02866002,0.14140713,0.07551092,0.08729405,-0.01979149,-0.01878492,-0.05027028
-0.00014634,0.00304664,-0.00149734,-0.00291974,0.00048902,-0.00056016,0.00622205,0.00265544,0.00057285
-0.07865995,0.22359982,-0.01205380,0.04030166,0.05096817,-0.11946724,-0.01097010,-0.14779697,-0.03081585
0.04796284,-0.10987557,0.02933609,-0.02631593,-0.04061993,0.05445092,-0.03716854,0.14352606,-0.03458841
-0.01306894,0.22302367,-0.01416031,-0.01276075,0.06055390,-0.08199403,0.01433415,-0.03267752,0.00667248
-0.01909914,-0.01273893,0.15849049,-0.01239010,-0.01757039,0.01707261,-0.01250318,-0.08127756,-0.10514381
-0.00947235,-0.02319319,-0.00066920,-0.01384442,-0.01743959,-0.00732255,-0.01298697,-0.00673832,0.00028095
-0.01470029,0.01588905,-0.00795391,-0.00413080,-0.02382560,-0.01170220,0.00100803,-0.03285055,-0.00666719
-0.00604894,0.17536727,-0.05065650,0.06260729,0.11252289,-0.08715805,0.01628342,-0.09607507,0.03925931
0.04867359,0.04182295,0.00466800,0.00918287,0.00862888,-0.01433167,-0.00801652,-0.01648406,-0.04615887
-0.00084096,-0.01446467,-0.01260391,-0.02700590,-0.00825682,-0.03237572,0.02186106,0.11220979,0.02822082
-0.03421519,-0.02255206,-0.05330103,-0.03749274,-0.04965343,-0.06901430,-0.02442662,-0.02327378,-0.07437491
0.01163174,0.08688898,0.04608464,-0.01373418,0.07314443,-0.07913976,-0.01127471,-0.02347765,-0.09292682
-0.05745963,-0.00421104,-0.03483727,-0.03277922,-0.01047354,-0.00767696,-0.02138965,-0.01185071,-0.02986565
0.03337748,0.01384803,0.02309340,0.03996044,0.06025208,0.03175990,-0.01578238,0.01642189,0.00276985
0.01509281,0.04482261,-0.04629871,-0.01048505,-0.03366593,-0.04621319,0.00561447,0.00859700,-0.02142450
-0.01217355,0.01411482,-0.01099137,-0.05716599,0.02450580,-0.00867099,-0.07199714,-0.01322289,-0.02479940
-0.03674227,-0.09303250,-0.03246082,0.02932160,0.08149794,-0.00361516,0.00896991,0.07652933,-0.03023643
-0.00934903,-0.01781635,-0.00301352,-0.03347424,-0.00313066,0.00528999,-0.06674034,-0.01084131,0.00736876
0.00341352,0.06058100,0.02915194,-0.00690919,-0.02622780,-0.03494006,0.02898894,-0.02364941,0.00621391
-0.01152317,-0.03193937,-0.00975237,-0.00143502,-0.00562531,0.01737055,-0.00129064,0.00811479,0.02112485
-0.00243607,0.02727116,-0.02721455,0.00101392,-0.03374194,-0.06290709,-0.02007927,-0.02698452,-0.07707378
-0.04356610,0.03390495,0.02627768,0.00118478,0.06631792,0.06523597,0.01331679,0.00249004,0.02271044
-0.03252694,-0.01682123,0.00652200,-0.02123675,-0.00477966,0.00701560,-0.02472682,0.00487068,0.02929290
0.00793563,-0.10449487,0.09593559,-0.01787878,-0.08726677,0.19187362,-0.05423278,0.11297058,-0.00446639
-0.04019636,-0.02755221,0.00794981,0.00946007,0.02991800,0.03068298,0.01989249,0.01833265,0.00478371
-0.03705534,-0.03636973,-0.00001896,0.01462683,-0.02029757,-0.03238710,0.02434979,-0.01621425,-0.02991098
0.03501247,0.03634179,-0.01106146,0.07594683,0.08571131,-0.01043748,0.02686064,-0.00721202,0.02022134
0.00279236,0.00546636,-0.00315695,0.00364348,-0.00088617,-0.00002802,0.00592903,0.00310733,-0.00216898
-0.00796837,-0.03358584,-0.04280228,0.00099933,-0.01164678,-0.04295199,0.01763426,0.03182906,-0.00503051
-0.01068696,0.01944649,-0.00386484,-0.00876551,0.00356358,-0.00843642,-0.01357435,0.00111929,-0.02017864
-0.03335625,0.09565334,-0.00295500,-0.00499243,0.01505962,-0.01502150,-0.03864047,-0.02309730,-0.00262743
0.02096785,0.03029526,-0.02773771,-0.00898411,0.10777956,-0.03413852,0.00939472,0.03414996,-0.03955358
0.01432696,-0.00767900,-0.01444299,-0.00454454,0.01312577,0.00393048,-0.07442472,-0.03690747,-0.04460075
-0.03307833,0.00631793,-0.00900325,-0.01679439,0.06651079,0.00866696,-0.07258738,0.00131459,0.05448650
-0.01325384,0.00993020,0.01652915,0.04300637,-0.04647167,0.03228987,-0.01957643,-0.03191656,0.00178076
-0.06785597,0.00248226,0.07178812,0.01810659,0.01698195,0.03034031,0.03946170,-0.03364170,-0.07239030
0.03044344,-0.00311901,0.00365750,0.00618344,-0.02443293,0.02020050,-0.01346770,-0.00668116,-0.00567878
-0.03128143,-0.01362992,-0.01440953,0.02565225,-0.00416718,0.00845204,-0.01092341,-0.01492037,0.03873153
-0.04755519,0.06313948,-0.01841795,-0.00917435,0.02831438,-0.06338056,-0.03689491,-0.04042054,-0.03703119
0.09596173,0.09792391,0.02234152,0.05375145,0.03003801,-0.03204409,-0.05122715,-0.05659616,-0.03968203
0.02973685,-0.01643560,0.03046094,0.03142633,0.00936956,0.02153035,0.04048309,0.01869652,-0.04070213
-0.01044639,0.02719378,0.01542132,-0.02411370,0.08795363,-0.00376791,0.00219842,0.00707942,0.01445777
0.03437051,0.06408051,0.01135223,0.03435521,0.03983393,-0.03888557,-0.00820446,-0.05800768,-0.01719812
-0.03339402,-0.00575136,-0.01937293,-0.00093868,0.01111783,0.00989164,0.03456615,0.02652862,0.03379431
0.03485901,0.01273638,0.00403260,0.04414222,0.02401938,0.00677791,0.04627639,0.01575478,0.00209603
0.00546508,0.00580282,0.02782024,-0.01243952,0.04502478,0.04891940,0.01255118,0.06067852,0.02268863
-0.01911103,-0.03598535,-0.05978339,-0.08050801,-0.07832460,-0.02034279,0.00036760,-0.01341922,-0.00564136
