-0.03059905,-0.01915429,-0.03040257,-0.03704830,0.01841919,0.02698516,-0.02868352,-0.04742838,-0.04545816
0.00091292,-0.00266682,-0.07097330,-0.04413593,0.00457647,-0.08384593,0.02290587,0.03213824,-0.06880777
0.02241021,-0.06162164,-0.05295441,0.05327867,0.04539041,0.02419062,-0.02070658,0.00269392,0.06230065
-0.00568025,-0.01032125,-0.01894160,-0.01813120,-0.04487870,-0.03796849,0.01768022,-0.04535499,-0.02265731
0.06442424,0.00076091,-0.04646164,0.06052822,-0.00146517,-0.02978943,0.01179934,-0.03364844,-0.01123604
-0.00055965,0.04961653,-0.05819287,-0.08710742,-0.02029912,0.00613027,-0.01031383,-0.05231630,-0.03132459
-0.01219013,-0.04439864,-0.05828372,0.06023764,0.01694436,0.03452212,0.01292497,-0.04896361,-0.00739584
-0.01118978,-0.00847756,-0.00445804,-0.00405674,-0.01707311,-0.03817245,0.04105661,0.00309003,-0.01490191
-0.00639118,-0.01461426,0.02999914,0.02478637,0.03013157,-0.02207096,-0.04170160,0.00346340,-0.01400880
0.00818172,-0.05305856,-0.02298874,0.02242774,0.00213026,0.00220061,-0.02563652,0.03520448,0.04773661
-0.01085281,-0.05975450,0.00677639,0.01337108,-0.00001725,0.01403854,0.01610607,-0.03639138,-0.06360520
-0.00528985,0.00532403,0.05145942,-0.01587636,-0.00885460,0.00589675,-0.05083558,-0.02823556,-0.03169234
0.11122493,0.06319245,0.03468513,0.02157435,-0.03810203,-0.01235970,0.03900320,-0.03175157,-0.06216129
-0.01080216,-0.01352668,-0.03087953,-0.02113965,0.00686988,-0.02741314,-0.01104353,-0.02093673,0.01292065
-0.05098208,-0.02473151,0.04276502,-0.00184701,-0.02830528,-0.01466339,-0.03967844,-0.08065359,-0.00283661
-0.04102327,-0.01387545,0.07486006,0.00703515,0.03517462,0.03600580,0.01190620,0.05200875,-0.03079643
0.06630257,0.01198993,-0.00210832,-0.07996766,-0.05824842,-0.01335442,-0.06843323,-0.03601725,0.01795855
0.01915628,0.00490691,0.00916084,0.02838422,-0.00799553,-0.03570956,-0.00554937,-0.02134544,-0.05845191
0.00124569,0.03783441,-0.03641929,0.01461921,0.04192640,-0.03400445,0.04811398,0.01119422,-0.03976237
-0.07432795,-0.02727844,0.07421328,0.02575327,0.04012034,0.02849096,-0.00573877,-0.05189668,-0.06888193
0.05869645,0.00512424,0.01827711,0.01773666,-0.01540762,-0.05074928,0.02540744,0.01369408,-0.00076043
0.01356703,0.03928103,0.02457182,-0.05192852,-0.03276406,-0.02592839,-0.06607611,-0.07258771,-0.10609851
-0.03612369,0.02853308,0.02264779,-0.02317393,0.06112760,0.03040501,0.03137134,0.06129981,0.07352099
-0.02554035,-0.01230058,-0.02390568,-0.00799901,-0.02908986,0.05314195,-0.00635252,-0.03895859,0.00219013
0.02245183,0.04526250,0.00388865,-0.01964725,-0.00408208,0.01771676,-0.01678377,0.05089176,0.01598830
0.00925951,-0.08091117,0.02725865,-0.01667258,-0.06243508,0.01722040,0.00761063,0.02668130,0.02790707
0.05197718,0.03147154,0.01582417,0.02025377,0.00658803,-0.01436873,0.02594878,-0.03645667,-0.04955578
0.03957267,0.04382615,0.04679612,-0.04885009,0.00731012,-0.00195340,-0.09126500,-0.01291923,0.06192756
0.03193589,-0.00498354,0.06402355,-0.00973187,-0.03704055,-0.02820387,-0.01363698,-0.03145038,0.00156382
-0.00481237,-0.01280737,0.04875996,-0.01071406,-0.02028355,-0.01578777,0.00462911,-0.02023040,-0.02013854
0.02577919,-0.02485484,-0.02232509,-0.04334310,-0.02092049,-0.00185659,0.06246348,0.00081118,0.00285522
0.03696828,0.06934557,0.08879527,0.02072424,0.00714948,0.00903400,0.00704088,-0.00086278,0.00713268
0.08601221,-0.01292031,-0.00897922,0.01992714,0.03595949,-0.03531652,0.03095114,0.00835830,-0.03103939
0.01333711,-0.00127691,-0.00038935,0.02545154,-0.04327961,-0.05969924,0.00881985,0.05113591,-0.05897684
0.03517750,0.01003005,-0.00902629,-0.01119474,0.01369376,-0.02812966,0.01482535,0.02175459,-0.00665481
0.02454015,0.00101986,0.04140221,0.06308453,0.02921256,-0.00334940,0.03183683,-0.03142445,-0.01769406
-0.05045813,-0.07313523,-0.06304523,-0.03920746,-0.06350397,-0.02428312,-0.09360907,-0.07098994,-0.05314001
0.05740510,0.00215077,0.04753151,-0.00558320,0.00330584,0.02160865,-0.00641095,0.00757406,0.04446544
0.04763392,0.05198976,0.03115085,0.02935496,0.03085873,0.08050292,0.04745124,0.06633383,0.04518071
0.04382018,0.02917860,0.05000955,0.03573290,0.01105695,-0.02890714,-0.02223902,0.08285432,0.01641140
-0.00044313,-0.02384218,-0.01496050,-0.03656627,-0.03042857,0.03991162,-0.03336442,-0.09095567,-0.03794472
0.04358466,0.04946367,-0.01735127,-0.02059183,0.11500872,0.04888712,0.03713289,0.03631249,-0.02158341
-0.01126497,0.00458566,-0.01483437,-0.06246233,-0.00158959,0.00914672,-0.07664751,0.00759324,0.00943961
0.00504352,-0.03795965,-0.01628742,0.02869415,0.03996387,0.05262233,-0.03313530,-0.02978662,-0.08787327
-0.01033137,-0.01369847,-0.02015013,-0.02138031,-0.01400784,-0.05062255,0.06290342,0.05896536,-0.02737631
0.01040358,0.01359846,-0.02947270,-0.02902262,-0.04856685,-0.06623701,-0.01385731,-0.00386525,-0.04147992
-0.04032076,0.03519554,0.02384305,0.00733270,0.02998877,0.04485495,-0.06505058,0.01796761,0.01163710
-0.04440081,0.06534770,0.03721286,0.00540921,0.07958978,0.03001852,-0.01531418,-0.08199684,-0.03447073
-0.04628935,-0.01549371,-0.09391843,-0.04937196,0.06570011,-0.01542180,-0.02316781,0.07646880,-0.04244658
0.03275476,-0.05995137,0.03636735,0.03417364,-0.02038634,0.04361089,-0.04990866,-0.00661621,0.08851387
0.03978011,-0.00905097,-0.01186239,0.04723410,-0.01559336,-0.01087164,0.03007617,-0.02812773,-0.03056985
-0.02280766,0.03440503,-0.02135979,0.00696795,0.02918524,0.01643508,-0.04693448,-0.03714859,-0.02781422
-0.00481017,-0.01830505,0.01704746,-0.08744922,-0.02504491,0.00635891,-0.06684292,-0.01599492,-0.01360275
-0.02077555,-0.02134347,-0.01510731,-0.01667085,-0.00485129,0.02314455,0.04027631,0.00508352,-0.00181349
-0.02444193,0.00433094,-0.01554150,0.01485345,-0.01274890,-0.03646198,0.02820387,-0.01240250,-0.00290823
-0.07201282,-0.03363325,-0.00071798,0.02662752,0.03350804,0.03330814,-0.01545636,-0.00851273,0.06821882
-0.07445248,-0.02397978,0.02278394,0.02427206,0.01740810,0.02418096,0.01602410,-0.03075535,-0.00711654
0.05550252,0.08582664,0.02327348,0.00600783,0.05871994,-0.01643794,-0.02787433,0.00067332,0.05718459
0.07332139,0.04068198,0.06911436,-0.05955310,-0.00597351,-0.01125876,0.00581152,-0.03455347,0.03110783
-0.07957387,-0.00405181,-0.01873423,-0.04754376,-0.03960215,-0.04635488,-0.07203835,0.02678079,0.01444565
-0.07611860,-0.04338655,-0.03951876,0.00724095,-0.01529258,-0.06816366,0.05870466,0.04219574,-0.08090953
0.02999290,0.02685656,0.00827090,-0.00411472,-0.06109656,-0.00060857,-0.03671262,-0.05000805,0.04627911
-0.04433729,-0.01904083,0.00120072,-0.07139895,-0.04581676,0.05093146,-0.00010401,-0.01784830,0.00560444
-0.03302427,-0.00122017,-0.02672892,0.02423699,0.00753050,-0.05831531,-0.01692915,0.00262968,-0.05202749
-0.02235275,-0.06251992,0.03659271,0.01104583,0.00711478,0.03206765,-0.05117565,-0.01722219,0.02617335
0.03969426,-0.01723208,-0.00025967,-0.00108291,-0.02813579,-0.02558339,-0.01104012,0.01119712,0.01235526
-0.01472500,-0.05686887,-0.04910251,0.02514095,-0.00874165,0.02047187,-0.01523097,-0.05780364,-0.03519901
0.01520452,0.04719006,0.02083796,0.01381292,0.03672096,-0.00150606,0.06709262,0.03406890,-0.01109819
-0.04956733,0.00175600,-0.03911081,-0.04169524,0.00443398,-0.00559905,-0.06878962,-0.02954885,0.01492469
-0.03158442,-0.03589534,-0.08674568,0.03562690,0.10500974,0.03786721,-0.06854779,-0.07695956,-0.02439305
0.03331992,0.05728478,0.02019174,-0.06978654,-0.01097312,-0.00286063,-0.04242601,-0.03301603,-0.01347771
-0.08419744,-0.00943786,-0.01038927,-0.06801798,0.00987642,-0.01929854,-0.02210475,0.02778639,0.00623754
0.05267300,-0.04054041,0.02166556,0.02166152,-0.02059397,0.00519893,-0.00082916,0.02320044,-0.03408692
0.04689821,0.04329490,0.02290515,-0.00463825,0.00377613,0.00463872,-0.05954804,-0.01242551,0.00029334
-0.06616482,-0.06784482,-0.02670160,-0.02820769,0.01233179,0.02660654,-0.02378109,-0.03958659,-0.03173083
0.09553003,-0.02143864,0.05160322,0.08778693,0.00642377,-0.00319761,0.06231432,-0.00951767,-0.02494592
0.06684132,0.02738688,0.04709353,-0.00053910,-0.01978640,-0.02214991,-0.02490579,-0.04559142,0.00113024
-0.02788024,0.00183412,-0.01812995,0.00279717,-0.01144863,0.01984162,0.01240922,0.02792050,0.01237123
-0.03660721,0.02009969,-0.04755542,0.01123425,0.03869159,0.00042426,0.04176676,0.01548870,0.01904964
-0.05099086,0.00551206,-0.04796568,-0.00368434,0.05144810,-0.01706905,-0.00281679,-0.01151252,-0.09130557
0.07409544,-0.02348530,-0.00912699,0.03277307,-0.02031897,-0.03664795,0.03509340,0.01387338,-0.04512825
0.00666831,-0.01996109,-0.04299745,-0.01190270,-0.01070218,-0.03082715,-0.00329894,0.02537067,-0.01978475
0.02702654,0.02274866,0.02796865,-0.02254552,-0.04774688,-0.01875296,-0.03646319,-0.04250090,0.05653013
0.02351411,0.02169774,-0.04207101,0.09328895,-0.01303277,0.00242667,0.07350209,0.02418822,-0.01453905
0.02376548,0.00883696,-0.03383761,0.03297267,0.05527638,0.03740273,0.02117362,0.00938039,-0.00905842
0.01928359,0.00751365,-0.01038168,0.00723426,0.01000017,-0.06111335,-0.08503822,-0.02797605,-0.02202519
0.00699698,-0.03158326,0.01189759,-0.02629212,-0.01079341,-0.02653695,0.00772478,-0.08638700,-0.02254834
-0.07338992,0.03415036,-0.01160800,-0.00633315,0.01638512,-0.04317362,0.09137028,-0.00476268,-0.02377175
0.07165961,-0.01811633,0.08917771,0.10706594,0.01853204,0.05953478,0.02807294,0.00388998,0.00561412
-0.00286542,-0.02983527,0.02376471,0.03795519,0.04803772,0.03890731,-0.00338775,-0.05236345,-0.01860102
-0.02390525,0.01762951,-0.02999770,0.00838578,-0.02947005,-0.00059875,0.00569544,-0.01082774,-0.02332011
-0.03021620,-0.01470389,0.01702693,0.03280864,0.01477959,0.07538109,-0.03718616,-0.02330493,-0.02800412
-0.02397978,-0.00552220,0.01227558,-0.00121472,0.00131671,-0.00720584,-0.03627584,-0.03288452,-0.00314351
-0.00140699,-0.01021760,-0.07362900,0.00009888,0.02183955,-0.04150904,-0.01148308,-0.00530284,-0.10714670
-0.03132973,0.01644461,0.02294153,0.00783262,-0.02116967,-0.01284316,0.01447060,0.07289282,0.02174058
0.01888925,-0.04384492,-0.04046175,0.06285032,0.04385625,-0.01004790,0.04779481,0.05183263,0.02575291
-0.01218690,0.01519395,-0.02494675,-0.01128867,-0.02625175,-0.01506135,-0.03601343,-0.02042619,0.03734834
-0.00184325,0.02234709,-0.05507603,0.07717823,0.05860786,-0.03722996,-0.00145695,0.00341220,-0.04876389
0.06891461,-0.00826861,-0.06564574,0.05832157,-0.02171109,-0.02344661,0.00287095,0.00556246,-0.01156493
-0.02770958,-0.03782173,-0.02038591,-0.01161459,0.00971455,-0.00511331,0.01414085,0.03780723,-0.00798900
0.01678526,0.00141300,0.00865786,0.06279280,-0.00811852,0.00703889,0.01554048,0.00436101,-0.05161954
0.01551812,-0.00450564,-0.04739365,0.00782215,-0.00868522,0.01683320,-0.00493730,-0.02997540,0.00323898
0.03963388,0.02158758,0.05536944,0.01773243,-0.01529537,-0.02953097,0.03132102,-0.04155330,-0.01014907
-0.00864186,-0.02899732,-0.06395987,0.00035680,0.01835639,0.02839012,0.02650761,0.04177758,-0.04629073
-0.02050975,-0.00092882,-0.00437408,0.00450099,-0.01865336,0.00451761,0.01656195,-0.02098380,-0.06865811
-0.04923844,0.02536919,0.04636082,0.09350357,0.06663903,-0.00581414,0.05958343,0.00154785,-0.04666454
0.01659202,-0.02280269,-0.00949562,-0.02028523,-0.05388542,0.01926006,0.02000261,-0.03209331,0.00046143
0.04119993,-0.01070900,-0.04065602,0.01183105,0.01850536,0.01677882,-0.01275076,0.02223837,0.00325771
0.01001402,0.01661573,-0.02822728,0.01399271,-0.01987236,-0.01746004,-0.01624523,-0.02271672,-0.01074022
0.04619466,0.04990540,0.00048291,0.00124666,0.01371496,0.00940781,-0.01346417,0.04103164,0.01711655
0.02919133,0.00725042,-0.00419172,-0.02601286,-0.03885338,-0.07009259,0.04787838,0.07223369,0.02952071
0.04992056,-0.03117905,0.03347363,-0.00970062,-0.02577201,0.04070042,0.01534096,-0.02341418,0.02146473
0.04094141,0.05705751,0.02078465,0.00414810,0.00393975,-0.03189749,-0.02122530,-0.01135109,-0.04192722
0.02230034,-0.05026092,-0.00731416,0.09121464,0.06643572,-0.00891476,-0.02342931,0.02460258,-0.02041808
0.00928925,-0.01434108,-0.00552816,-0.05714867,0.03967456,0.04092174,-0.01562845,0.00131401,-0.00385470
0.00325410,-0.06406661,-0.06660298,0.06152831,-0.00823523,-0.00921578,0.04303394,-0.05333273,-0.03512881
0.05756642,0.02442108,0.01316252,0.02400889,0.01578635,-0.05564382,0.00108542,-0.01473815,-0.08255746
-0.02034204,0.05553400,0.03656666,-0.02738119,-0.00513363,-0.00894956,-0.01904966,-0.02513739,-0.07157265
0.03715553,0.00814822,0.00927860,-0.02005995,0.02527755,0.04004909,-0.06647419,-0.04168734,0.00048066
-0.00855717,0.02101140,0.00015042,0.02014389,0.00251674,0.08261192,0.01307642,-0.00641917,0.03189059
-0.02673899,-0.01642163,0.00199761,-0.07956989,-0.02383372,0.03979354,-0.02654402,0.01699021,-0.01101537
0.03421162,-0.02224948,-0.00994116,-0.00389024,0.00981506,0.02374022,0.00178277,-0.03374682,0.01348008
0.02434230,-0.01566085,0.01954784,-0.04940718,0.03624580,0.00908833,-0.06228326,-0.03355893,0.00381434
0.04957717,-0.02140532,-0.01711239,-0.03600953,-0.00505592,-0.04420169,-0.02581383,-0.02389607,-0.01371694
0.00657410,-0.03974513,-0.00242715,0.07847929,0.00110539,-0.02800356,0.04773105,-0.05128087,-0.03594967
-0.01632405,-0.01995368,0.04930488,-0.00984964,-0.03244044,-0.04299196,0.00183731,0.00044969,0.03689736
-0.01921736,0.01472700,-0.03184634,0.00326245,0.03315119,0.03021780,0.01400847,-0.00100196,-0.08763361
0.00496192,0.02195163,-0.02309447,0.05039854,-0.01211449,0.03122221,0.01311168,0.00718119,-0.04395404
0.02800837,0.00193513,0.00286637,-0.01588866,0.01220288,0.05122412,0.01027078,-0.01633804,-0.02581924
0.03422282,0.02308374,0.01580999,0.03472466,-0.00987443,-0.03505501,0.10862133,0.02954858,0.00923081
-0.00678583,-0.00660144,-0.04371961,0.03313354,0.04613863,0.01901980,-0.03999481,-0.03233297,-0.03226583
0.00037994,-0.02917613,-0.05901254,-0.00303393,-0.00193784,0.07227772,0.01485048,-0.02777091,0.06957927
-0.03637258,-0.03989217,0.01345633,0.00500852,0.02303139,0.06235423,-0.02616013,-0.01029415,0.00955147
-0.09242035,-0.08553189,-0.07264329,-0.04751731,-0.01336567,0.02102769,-0.01313101,0.02484214,0.00520970
-0.06146708,0.01188496,0.00600136,-0.01709771,0.01758287,0.05666538,-0.04201246,-0.02552340,0.03388022
0.04415391,-0.01570082,-0.02651739,0.05188953,0.00492767,0.06344195,0.04542088,-0.03791403,0.07876664
0.03603407,0.03403414,-0.00041713,-0.02080364,-0.04153758,-0.02176797,0.02113821,0.04515898,-0.01529344
0.04322637,0.05351530,0.03099885,-0.00405357,-0.03387446,-0.00385412,-0.00108067,-0.02602497,0.03219095
-0.08159971,-0.05206213,-0.01169731,-0.02971784,-0.03232975,0.02732783,-0.01609406,-0.00443941,0.06823419
0.07360785,0.06597356,0.02714269,-0.01316721,0.00091782,-0.04727661,-0.03463687,0.01550746,-0.01621558
-0.00423967,-0.04477099,-0.02720697,-0.04029004,-0.02626835,-0.02540322,-0.02467585,0.01307079,-0.03632661
-0.00225401,-0.00697598,-0.03595992,0.05880636,0.00475294,0.00483431,0.00429951,-0.02745219,0.02761325
-0.02286980,0.00267126,0.01015188,-0.05671939,-0.05571648,-0.01510131,-0.05488808,-0.03601262,-0.03911683
0.04438021,0.01901081,0.00777854,0.00948552,-0.02134811,0.04803691,-0.01253049,-0.00205857,0.16218902
-0.01496362,-0.00069306,-0.01254063,-0.02548301,-0.01492282,-0.01818711,-0.01519019,0.00214764,-0.06917466
-0.02979802,-0.04637951,-0.06475396,0.04050203,0.03818122,-0.07095034,0.01088744,0.03375029,-0.06276299
-0.04589580,0.02645249,0.07217185,-0.04356240,-0.01842211,0.00440470,-0.03433719,0.03774165,0.04816327
0.00578102,-0.00653070,0.01212681,0.01044434,0.03781221,0.05453859,-0.01428569,-0.00457779,-0.00428520
0.01772823,-0.01556401,-0.01391956,0.00494025,-0.00803928,-0.00185371,0.05805016,0.03483412,-0.01052152
-0.00001913,0.01837301,-0.01573617,-0.02122957,0.01739379,-0.03539361,-0.03820650,0.01748014,-0.03374800
0.00969011,0.02787239,0.02604731,-0.01384949,0.00883535,-0.03887602,-0.03012555,0.01261025,-0.03543054
0.04191289,0.01987244,-0.00063266,-0.01434743,-0.03589623,-0.07932165,0.00942193,-0.01975678,-0.04172535
-0.11460114,-0.06428275,-0.02254639,-0.04389481,-0.03754757,-0.01483017,-0.02547799,-0.00413003,-0.07591362
0.00676981,-0.01104822,0.02879621,0.04093811,0.01540975,-0.01183677,-0.01490143,-0.02430270,-0.03055305
-0.06303565,-0.02059020,0.03006381,-0.02573399,-0.05289614,-0.03792233,0.07155108,0.00336029,-0.01152122
-0.00197216,0.01045171,0.00848401,0.02315930,0.00434182,-0.04317147,0.08636455,-0.02415636,-0.10551506
0.01832813,0.02526857,-0.04195907,0.02931460,0.04327668,-0.07979141,-0.02102342,0.03531383,-0.07986704
0.06012296,0.02974037,0.02210522,0.02747494,-0.02387925,-0.00512038,-0.03362359,-0.04035281,0.00916240
0.03471180,0.04578599,-0.02864216,0.03665107,0.01530100,-0.11404522,0.05800046,0.04702111,-0.08515938
-0.04157879,-0.00382430,-0.01050877,0.01949994,0.04655677,-0.01330387,0.00869036,0.01135258,-0.06120592
0.00060611,0.08255130,-0.02064065,-0.04372606,-0.00488083,-0.03781853,-0.04504798,-0.04051848,-0.03090286
0.00998103,0.00991931,-0.01949155,-0.01812227,-0.00284138,-0.05806566,-0.01365872,0.00926377,-0.04015654
-0.03924951,-0.01282567,0.02427950,0.03117538,0.03708128,0.05635427,0.06716164,0.07637873,0.07388056
-0.00391334,-0.01333222,-0.07084478,0.01434514,-0.00573539,-0.00656207,0.06816677,0.03348358,0.04590800
0.01307731,-0.01910714,-0.11030296,0.04798304,0.03254819,-0.01353661,-0.02170441,0.03357524,0.08717897
-0.07881982,-0.04014565,-0.04095866,-0.02913424,-0.04098591,0.03903689,-0.04461912,-0.03785759,0.11257146
-0.07689023,-0.05353703,-0.09549780,-0.02093803,-0.05725957,-0.03499681,-0.04891515,-0.05483003,0.04005736
0.01201513,0.02155737,0.01465642,-0.06496900,0.00749935,-0.02475553,-0.05426439,0.04583150,-0.00969590
0.01414384,-0.02642373,-0.00604437,0.00142076,-0.02580388,0.04057484,-0.00395096,-0.03678406,0.09547628
-0.03118006,0.06791718,-0.04773111,-0.06816096,-0.01716504,-0.07794268,-0.05676912,-0.01306509,-0.00355197
-0.04267784,0.08500065,0.09381439,0.01161915,0.07379293,0.05628593,0.02960491,0.05986289,-0.04361423
0.02777941,-0.00979335,-0.02020903,0.02392414,-0.02248073,0.06441111,-0.03522668,-0.01557367,0.02378014
0.01520119,-0.00388285,-0.02462465,0.04090122,0.02036923,0.00507055,-0.03647715,-0.03414500,-0.04211100
-0.09655411,0.03674795,0.12646957,-0.10211509,0.01707852,0.02505314,-0.05982804,-0.00683191,0.01891114
0.01837969,0.00130824,0.05190288,-0.02607198,-0.06359351,-0.04765871,-0.02003464,-0.00912825,-0.01407236
-0.01479822,0.02661408,-0.03374353,0.01202571,-0.00370573,-0.04047092,0.02079329,0.03088835,0.02567157
-0.01802152,-0.01087324,0.00116702,-0.00388189,-0.01981040,0.00460044,0.00452630,0.06366466,0.04215883
-0.02294575,0.03288242,-0.04673645,-0.05236277,0.05129044,-0.00453682,-0.01441307,0.02310929,0.01701753
-0.05576599,-0.04172105,-0.07620730,0.00484558,-0.00046693,0.00836032,-0.00141068,-0.03886107,-0.01984222
-0.01128907,0.00674356,0.01596539,0.00753242,-0.01172799,0.01490567,0.01723104,-0.01353239,-0.03252969
0.01105790,0.02882705,0.02183295,0.02159922,-0.03135579,-0.04071505,0.02852434,0.02358794,0.03122609
-0.05056374,-0.04581717,-0.03897740,-0.05187843,-0.03676569,-0.01974575,-0.07892404,-0.03823628,0.05349578
0.01555236,-0.02763685,-0.07184681,-0.00853324,-0.04096246,-0.04592659,0.01130398,-0.02430720,0.01718452
-0.01887748,0.00972262,0.02452806,0.06098797,0.06682448,0.06038689,-0.00305485,-0.02364509,-0.02519515
-0.02650695,0.00113367,0.03181247,0.00726668,-0.02890858,0.07856230,0.05586894,-0.00169606,0.03861815
-0.08319309,-0.00481042,0.03557962,-0.00641094,0.03363001,0.01075409,-0.00369640,-0.01857726,-0.05520919
-0.02133988,0.04319293,-0.01778560,-0.00991097,0.01762174,-0.03776760,-0.03028127,0.01508685,-0.00031691
-0.05289933,0.02612893,-0.07033756,-0.01999868,0.05301648,-0.01341410,-0.03288819,-0.02594247,-0.07422650
0.11451639,0.03255606,-0.01298042,0.05220057,0.03947673,0.08356196,0.00725090,-0.00105749,0.08454577
-0.01151888,0.06154979,0.01220019,-0.01940696,0.00485911,-0.03873123,-0.01827029,0.00701473,-0.04191730
-0.02286701,0.02020803,0.04336738,0.01272906,0.01758233,-0.00772345,0.00588963,0.03580052,0.00673233
0.03854977,0.04023994,-0.02555203,-0.03117367,-0.00536433,-0.03487975,0.00392554,0.00686758,-0.02102894
0.01142470,-0.00784683,-0.00203295,-0.02504214,0.00027366,0.01230943,0.00652815,-0.04325788,-0.04554853
-0.03579712,-0.01808189,-0.03505132,-0.01938536,-0.01090644,-0.00273994,-0.00728246,-0.01560972,-0.00376791
-0.00614015,-0.05316101,0.01317198,-0.00061422,0.03056039,0.02415865,-0.03221625,-0.01520019,0.00502114
-0.00361136,0.01409629,-0.02179482,-0.03629008,0.00821558,-0.01566166,-0.05317419,0.01911137,0.02566917
0.03466689,0.01778433,-0.04010075,-0.00249241,0.01307331,-0.07744337,-0.03793135,-0.00195721,-0.05465002
-0.03279720,0.00212219,-0.10069853,0.00676036,0.05725745,-0.08156392,-0.03855823,-0.07155707,-0.07669860
-0.02937943,-0.03459499,-0.03102574,0.01792751,-0.00401423,-0.01085569,0.03055056,0.01887914,-0.03094398
-0.09168745,-0.00953265,-0.02759402,-0.01980162,0.02379316,0.00463267,-0.01967092,0.00473559,0.06617393
-0.02053858,0.01838218,0.05668319,-0.02609254,0.01988486,0.00625198,0.02343477,0.04072943,-0.00985448
0.01178289,-0.01491258,-0.03027146,0.04779021,-0.01156544,-0.03379948,-0.00092457,-0.04457529,-0.01764933
0.10625607,-0.00919625,-0.04960861,0.03887301,0.00282045,-0.05800245,-0.00610860,0.01564322,-0.01269234
-0.08140052,0.00423655,-0.03253289,-0.02288883,0.02394348,-0.03413839,0.00447372,0.02538029,0.00678867
0.03127601,-0.01929907,0.01546287,0.02090833,0.00298219,-0.00018446,-0.01711942,-0.00449592,0.00157550
0.04290079,0.04308325,-0.00511081,0.02289625,0.03815581,0.00289652,0.04179136,0.03101234,-0.02581924
0.00824878,-0.01245674,-0.00978240,0.00753694,-0.03100503,-0.00167092,-0.02912628,0.00429567,0.02131073
-0.05332638,0.03018866,-0.01430194,-0.00410077,0.03441386,-0.03135552,-0.06545801,-0.02086579,-0.04772886
0.00812157,-0.00999599,-0.00873203,0.07379683,0.05099938,0.02809732,0.02308168,0.00027869,0.08951667
0.00417293,0.00161051,-0.06989097,0.04196233,0.02793745,-0.05230822,-0.00640639,-0.01805313,-0.03951302
0.01606079,0.03308259,0.01114954,-0.03755812,-0.00256658,-0.00390978,-0.01139833,0.00122112,-0.04341115
0.02190282,0.01213109,0.03760650,-0.00766787,0.00581528,0.01012306,0.01821325,-0.03794101,0.02454082
0.04101891,-0.02232565,-0.03910978,-0.02598426,0.00667597,-0.01271215,0.02417953,0.04573407,-0.00034763
0.11265983,-0.03571812,-0.02280704,0.08274083,-0.00385957,0.00352189,0.04412705,-0.01344678,-0.06683434
-0.00874751,0.00644778,0.02095440,-0.02173757,-0.02549009,-0.00172919,-0.01602091,0.01050551,0.01979821
-0.01271691,-0.00849857,0.02392437,-0.01658268,0.00147929,0.00557664,0.06267937,-0.03811038,0.06378415
-0.04193884,-0.01109996,0.05476085,-0.00168638,0.01492016,-0.01166582,-0.04274495,0.03763564,0.01666626
0.04286079,0.04105866,0.04106021,-0.00686597,-0.01691214,0.02788920,0.05591211,-0.00121709,0.00911146
0.08069956,0.00671470,-0.00221915,0.02442791,-0.02703977,0.00230509,0.10946286,-0.02566228,0.01439606
-0.02736105,-0.00046254,0.04721128,-0.03879934,0.01957859,0.02268130,-0.02217433,-0.01784765,0.02897834
0.01792444,-0.02049029,0.00314669,-0.00059425,-0.01112835,-0.01144252,-0.01164263,-0.00092695,0.05288239
-0.03721732,-0.02314777,-0.01439136,0.01458187,-0.01775806,-0.03071424,-0.00922272,-0.04539751,-0.03814089
-0.02096439,-0.00041890,-0.00139499,-0.00765315,0.02613115,0.00794575,-0.00838216,0.00371262,-0.04116388
0.00964048,0.07150479,-0.07141615,0.00810136,-0.04363848,-0.05193653,0.04524751,0.08945355,-0.00243989
0.01484674,-0.03394356,-0.07462668,-0.01844328,-0.00091581,-0.04490689,-0.02363106,-0.08080491,-0.04526424
-0.01324917,0.03399441,-0.10735989,0.04470894,0.02931166,-0.08863616,-0.02599507,-0.02274605,-0.09002498
0.01644822,0.02033915,-0.02244530,-0.00197697,-0.01299674,-0.05595974,0.01448551,0.03083296,-0.07742170
0.01527633,0.01815128,-0.04165294,-0.01367258,-0.01049859,-0.02105654,0.00180800,0.03738931,0.04637190
0.01232314,0.00216236,0.00412842,-0.04104304,0.01008344,-0.00831713,0.00286566,-0.01070544,-0.05427531
-0.03523963,-0.01905450,-0.03858961,0.00140973,0.03739893,-0.04076838,-0.05979564,0.08952161,0.04518868
-0.08385056,-0.01646747,-0.12157176,-0.06485433,-0.02163105,-0.07095956,-0.06568853,-0.00045420,-0.09633490
-0.00597103,0.02393646,-0.02528019,-0.01795077,-0.01871607,-0.03483880,0.02329714,0.04350166,0.03506704
-0.01219087,0.01083950,0.02947292,-0.00463892,-0.00754420,0.02735481,0.04210805,0.02141390,0.00159660
-0.03536085,0.01414465,0.06352869,-0.04164820,0.00411857,0.03964212,-0.00689610,0.05137664,0.04862056
0.04038361,-0.02856201,0.05034737,0.00372464,-0.03459582,0.04376397,0.00252452,-0.01979835,0.02255364
-0.02748950,0.01131742,0.00300196,0.02862645,0.02810502,0.02493256,0.01070599,-0.00822260,-0.03448270
-0.07805477,-0.08253401,-0.09523073,-0.03798513,-0.01691779,-0.04686185,0.05113469,0.01594418,-0.06850809
0.00581851,0.00292809,-0.03856400,-0.00139292,-0.00799611,-0.04023210,0.05048048,0.02572414,-0.04960080
-0.04317903,-0.01842975,0.04694784,-0.03449920,0.02112783,-0.02421423,0.01417784,0.02217958,-0.07853329
-0.00812038,-0.00445870,0.06361103,-0.00999098,0.00952332,0.07613738,-0.02898984,-0.00465170,0.08342856
0.01743405,0.02203074,-0.02139495,0.02357171,0.01690266,-0.00407983,-0.00714322,-0.03562630,-0.02044052
0.04230794,0.06801820,-0.01535178,-0.01626557,0.02724480,-0.03930166,0.14506237,0.04713497,-0.06290416
-0.01672507,0.01944856,-0.00815285,-0.00911791,0.07532164,0.02972835,-0.04784264,0.02955742,0.04695569
0.04671132,-0.00798155,-0.03170729,-0.01928062,-0.02595317,-0.05427717,-0.05668407,-0.02819356,-0.01965673
-0.00897161,-0.02852141,0.03789518,-0.01627948,0.00455587,0.01911268,-0.05657133,-0.01546871,0.03475391
-0.01327269,0.02703780,0.06665163,-0.01727221,-0.01904630,0.02275627,0.01347673,-0.04627930,0.02115455
0.01316259,-0.02100331,0.02704343,0.00285034,0.03322418,0.01478513,-0.03296188,-0.04469785,-0.01912936
0.09646478,0.04244272,-0.06050152,0.04250192,-0.02176957,-0.03414829,0.03955448,0.01885981,-0.05059923
-0.04405735,0.02456197,0.07484213,-0.04459522,0.04034052,0.03827719,-0.00746813,0.01018515,0.01261591
0.04814455,-0.00300792,0.04065436,-0.01981627,0.06204782,-0.01445630,-0.02928396,-0.00932668,-0.02510231
-0.08821370,0.01271874,-0.11618515,-0.00025408,-0.01502481,-0.06744253,0.09152898,-0.04291378,-0.09131495
0.04075912,0.02482861,-0.00987381,-0.01213714,0.02088621,-0.00971894,-0.02229439,0.01042683,0.01184685
0.02769063,-0.02361986,-0.02036390,0.03960141,-0.00303008,0.01325467,0.08762047,-0.02425371,-0.04546626
-0.00325328,-0.02181396,0.04428738,0.02166305,-0.01734467,0.03132030,-0.00916332,-0.04916865,0.02874569
0.01690921,-0.02255951,-0.00206310,0.02177784,0.00442981,-0.00212311,0.02077904,0.00537516,0.01722100
-0.00843027,0.02470904,-0.00818896,-0.05501145,0.00350608,0.02396103,-0.01084748,-0.00064878,0.03908721
0.02305902,-0.02132191,0.02564301,-0.02026447,-0.06489267,0.02821308,0.00276565,0.00586272,0.04634120
-0.02954598,-0.01030055,-0.01508923,0.01126244,0.00898427,0.00030042,0.00830389,0.03265650,0.00856623
-0.04372625,-0.01640771,-0.00393997,-0.00667347,-0.00315848,-0.04011814,0.00310623,-0.00129576,-0.00660295
-0.05958294,-0.06277453,-0.07847373,0.09384606,0.07693479,0.00069683,0.09152978,0.04078659,-0.02099960
0.01037299,0.03366195,0.03295819,0.02065651,-0.01234009,-0.01009004,0.00252166,-0.01507339,-0.00366071
0.08964138,0.02495183,0.03446437,-0.03835121,0.02345482,-0.02438682,-0.02298587,0.06488431,0.02284223
-0.04552451,0.00754857,0.02908287,-0.01509162,-0.00514159,0.07270128,-0.06322712,-0.04988439,0.02981507
0.01222947,0.04554136,0.01219584,-0.01044855,-0.04135753,-0.05069121,-0.02866463,-0.03509616,-0.01266322
-0.06020265,0.04845496,0.05007313,-0.01716394,-0.01975786,0.07156529,0.02589639,0.06173847,0.03751135
-0.00207679,-0.03882337,-0.00228066,-0.08561780,0.02637675,0.05293474,0.01453668,0.02111340,0.09221881
0.04894937,0.02967010,0.02672632,0.00908143,0.02145093,0.01023967,-0.02428880,-0.04805157,0.01788700
-0.01538518,0.01380616,0.00038678,0.08221298,-0.03455390,-0.01143869,0.10197817,0.07391872,0.00405725
0.02928747,0.02945643,0.00784881,0.00396588,-0.02966602,-0.01784538,-0.00151701,-0.02827644,-0.06979799
0.03084902,0.05382192,-0.00885614,-0.04762480,-0.04119170,-0.00591955,-0.00965765,-0.00440930,-0.01969040
0.00177487,0.04726060,0.00796619,-0.03079193,-0.01781888,0.00609330,0.01571354,-0.00334982,0.00148274
-0.01404083,-0.02526440,-0.03459749,-0.03032940,0.00124317,-0.02503929,-0.02469620,-0.00302170,0.00206160
-0.06118034,-0.05088786,-0.04457899,0.04738553,0.00887337,-0.04470315,-0.00094183,-0.02621906,-0.02657312
-0.04369044,-0.01603926,0.00167511,0.02861483,-0.04008726,-0.05069647,-0.00477714,0.00017459,-0.04498214
0.03149315,-0.01820059,-0.04110038,-0.00404430,-0.00738940,-0.02000041,-0.00084628,-0.01294636,-0.03726806
-0.10114836,-0.03625856,0.05562750,-0.01432076,0.02743051,0.02473561,0.01344162,-0.00594147,-0.01165604
-0.00282618,0.03853993,0.03061161,-0.03199382,-0.06809643,0.01442727,-0.00993943,-0.05044948,0.04324991
0.01605926,-0.03569049,0.03858418,-0.00486089,-0.02796582,0.01295485,0.02933663,-0.01358356,-0.01402863
0.00984803,-0.00864236,0.00936243,-0.01684182,0.00345743,-0.02610654,0.00992750,-0.01985904,0.03351006
0.00877695,0.00440093,-0.01657163,-0.01139864,0.02984001,-0.02393776,-0.07568187,-0.00770818,-0.02872720
-0.01189662,0.00004243,-0.02123675,0.00060955,-0.05867840,-0.01640677,0.05060828,0.01882767,0.04551385
-0.03003928,-0.07432506,-0.04063747,-0.02195930,-0.01478973,-0.04880723,-0.01714290,-0.02175910,-0.04070394
-0.00668114,-0.00677599,-0.02340892,0.01190435,-0.02868677,0.02559307,-0.00953807,-0.00097374,-0.00965368
0.01830221,0.05540964,-0.04117898,-0.01113620,0.01923265,0.00807669,-0.05824296,0.00763477,0.05851883
0.04273057,-0.00069364,0.03606808,0.01056113,0.05984677,0.00830340,0.02183207,0.00198352,0.03620210
0.06120929,0.03929054,0.02135970,-0.01437263,-0.03181871,0.01563797,0.00570535,0.00950160,-0.00484342
-0.02971321,0.02465970,0.01750205,0.02209361,-0.06900898,-0.00753754,0.01996518,0.00668581,0.03471817
-0.02194780,0.02794469,0.02965229,0.05006781,0.00050368,0.01265793,-0.00684756,-0.04165906,-0.06598065
0.00317634,-0.01863464,0.03274989,0.01787680,0.03454965,0.03358202,0.00156021,0.02290410,0.01116052
0.00562609,0.06035752,0.06175114,-0.01985503,0.03389004,-0.01450535,0.02735434,-0.02281417,0.00386251
-0.07980674,-0.03965682,-0.03754189,-0.00099151,-0.03619312,0.02207287,0.02354260,-0.02900711,-0.01313854
-0.01684981,-0.05282644,-0.04113704,-0.04211394,0.00211394,-0.01423533,-0.02583166,-0.00330106,0.00281926
0.00598761,0.00815881,0.04644345,0.00116786,0.00294670,0.00658725,0.08471977,0.00761418,0.01102468
-0.09570372,0.02704436,-0.04414517,0.01881691,0.03207030,-0.00472610,-0.04967857,-0.01503396,-0.02791937
-0.01984038,-0.00528759,-0.01488619,0.04340341,0.05019886,0.02670723,0.01594315,-0.00009606,-0.04949565
0.00503961,-0.00598382,-0.00340263,-0.04220928,-0.05071941,0.02075065,-0.03314173,0.00611210,0.04648865
0.01753016,0.02157594,-0.04922834,0.03289747,0.01047918,-0.00240664,-0.02039718,0.02203538,0.06036659
-0.07164955,-0.03886344,-0.02685082,0.14343971,0.05014962,0.01734814,0.00497437,-0.00090430,-0.00195951
0.00173365,0.01401413,-0.00909528,-0.03240894,-0.00654052,-0.02590479,-0.05139152,-0.00507673,0.02223111
0.02449708,0.02088609,-0.01114859,-0.02035568,-0.03133117,0.00042045,0.01636707,0.01421138,0.02163882
-0.02882463,-0.01522487,-0.08560142,0.01096882,0.05504264,0.07629435,-0.01889558,-0.03833909,-0.05759956
-0.00595661,-0.00410647,0.00506282,0.01132267,-0.02578923,-0.01629945,0.11156210,0.05054580,0.03390235
0.02146313,-0.00611798,0.00862934,-0.02059338,-0.03527618,0.01341977,0.01365999,-0.02801580,-0.01391738
0.02708151,-0.01928950,-0.03229078,0.04472077,-0.00016817,0.02738366,0.00345174,-0.00600916,0.00317165
0.03794403,0.06085264,0.03668977,0.08642969,-0.03955175,0.04880456,0.09206755,-0.00987549,-0.00823187
-0.06465085,-0.06560028,-0.02679411,0.03798557,-0.00197631,-0.00210085,0.06115655,0.00471436,-0.01954373
0.00511844,-0.03600401,0.00804781,0.02223668,0.00105397,0.00995001,0.07129523,0.02911187,-0.03845701
0.01312727,0.00807899,-0.00634563,0.04458862,-0.02056565,0.06994083,-0.00019205,0.04027817,0.00611830
-0.03155596,0.02960463,0.03469659,-0.03709738,-0.05646983,-0.04552450,0.02676593,-0.01547022,0.00460992
-0.05656747,-0.00451424,-0.00104329,0.01564339,-0.01131182,-0.02043299,-0.02867791,0.00273653,0.00309649
0.01797826,0.00552806,-0.02082051,-0.03694540,-0.01339933,-0.03645905,-0.06730196,0.01083506,-0.07445285
-0.01352274,-0.03460157,0.01278072,-0.05041704,0.04258012,-0.00513915,-0.00331076,-0.00363130,-0.04408164
0.07884841,0.02884672,-0.01062302,-0.01787934,-0.02350983,0.01173646,-0.06171680,-0.00688466,-0.00531367
-0.00453800,-0.04450394,0.03156093,0.00339081,-0.00815710,-0.03600863,0.00838395,-0.00869714,-0.03851756
-0.00677903,-0.06376301,-0.00886402,0.13766253,0.07061308,0.14961728,-0.01298596,-0.04598636,-0.03141295
0.04948143,-0.00381217,0.00790256,0.02465779,0.01302867,0.05560268,0.06235436,-0.03307727,-0.02438783
0.01145832,0.01466413,0.01311890,-0.00639460,-0.01305766,-0.01342689,0.01774012,0.00366585,0.01649770
-0.02722172,-0.03219028,0.02069690,-0.04011376,-0.03730965,-0.00142278,-0.05800752,0.00130945,-0.01042077
0.00244579,0.02806658,0.05177729,-0.00997266,-0.06531435,0.00064771,0.03318244,-0.00609703,-0.02705834
0.01493939,0.04402308,0.01092458,0.00691797,-0.02931963,-0.01439630,-0.01405358,0.01465015,0.03651689
0.02826908,0.03072704,0.02634958,-0.01794005,0.03241661,-0.00404424,-0.01898586,0.01964064,0.02746265
-0.03270759,-0.01987485,0.02956672,-0.01288169,-0.00172337,0.03197041,-0.05515569,-0.01263415,0.01553031
-0.03124791,-0.04888070,-0.04567560,-0.00004584,-0.01487608,-0.03124594,0.00754097,0.04143006,0.02371967
0.00982443,0.03508295,-0.00520275,0.01573472,-0.00286113,0.01113741,-0.05786707,-0.02823621,-0.01306257
0.06215954,0.05658018,0.06249783,0.00363497,0.02461236,0.01186582,-0.07409297,-0.00949228,0.00888786
0.06982324,0.07388454,0.09683704,0.00128194,0.01084155,0.00284420,-0.01894850,0.07410595,0.11927585
-0.06990275,-0.06001567,-0.09617200,0.02340129,0.02838136,0.00064019,-0.00293171,0.00326950,-0.07874040
-0.03567253,-0.03794851,-0.05833260,0.00114777,-0.01941231,0.05901558,0.02714372,-0.02251866,-0.00501562
-0.03827938,0.00814768,0.01478312,-0.00406510,-0.00272010,0.01469915,-0.07063741,0.00867911,-0.03110212
-0.01617788,-0.01047113,-0.01897191,0.00234083,0.01296053,-0.03518613,-0.04088003,-0.07146610,-0.05663449
0.01803604,-0.04372961,-0.02160442,0.01191855,-0.03496046,0.02160425,0.05619447,-0.01793607,-0.01022826
0.02247423,-0.01609808,0.01362294,-0.02004702,-0.01082628,0.01799632,-0.01498022,-0.00622293,0.03018637
-0.01025245,-0.03426498,0.01976135,0.00742489,-0.03373393,-0.03883699,0.02513979,0.04433322,0.02776624
0.09233332,0.03615907,0.05533648,0.07363215,0.02120485,0.00461252,0.03586220,0.03325258,0.07163772
-0.00244157,-0.02887782,0.01469512,0.01132744,0.00956131,0.00724624,-0.01576626,0.01164991,-0.05341671
-0.02850546,-0.07807086,-0.10663179,-0.00006870,-0.04737524,-0.03488719,0.01249402,-0.05288211,-0.03678253
-0.03923991,-0.03097124,-0.02505369,0.01811530,-0.00966818,-0.00636868,-0.03793371,-0.01838236,-0.00411729
0.00095315,0.00606926,0.01416309,-0.02186846,0.03744428,0.00852924,-0.02848492,-0.01107634,-0.01375899
0.03280116,0.01554464,-0.01756576,0.02687325,-0.00054949,-0.03447280,0.06303380,-0.04813545,-0.06979816
-0.05759940,-0.05936333,-0.05917355,-0.02172337,-0.00425923,0.01187616,-0.03278622,0.02789241,-0.00138235
0.00373139,-0.04883444,-0.03659791,-0.01648032,-0.03404198,-0.04468353,-0.01086160,0.01187039,-0.04997318
-0.00834717,-0.00142930,-0.02238870,-0.01894294,-0.02764861,-0.02198232,-0.04579142,-0.05578699,-0.04691853
0.00169811,0.01859144,0.01113265,-0.01877939,-0.04985376,0.00469629,-0.04773764,-0.02795218,0.02717249
0.06620453,0.00083270,0.03112819,0.05240618,-0.05051018,0.00808832,0.10834485,0.02313775,0.00860332
0.04097963,0.05630585,0.09585533,0.01063011,-0.02089489,-0.00278641,-0.03533322,0.00103249,-0.00761305
0.04116929,0.03682837,0.00210439,0.03695023,0.04917514,-0.00060311,-0.01457504,0.00916113,-0.03106575
0.03744478,0.05210178,-0.01053694,0.03481178,0.01955836,-0.04658905,0.10797310,0.03341115,0.02728949
-0.01263177,0.01777436,-0.03156849,0.00099787,0.03479555,-0.03276107,-0.01374534,0.01288759,-0.04810397
0.01264365,0.01773086,-0.01240529,-0.01076983,-0.05789773,-0.05410850,-0.00975802,-0.03953711,-0.05692525
-0.00715286,-0.03691339,0.02360565,0.07689053,-0.02489623,-0.01280339,0.00559518,-0.04779553,0.06924596
-0.03800604,-0.04985033,0.02961006,-0.04218989,-0.03364989,0.03838331,-0.01830941,-0.03103299,0.02778573
0.03510260,-0.00752411,-0.06145018,-0.00085403,-0.00740117,-0.05393546,0.03143284,-0.04653995,-0.05759734
-0.02527140,-0.02256411,0.01184256,-0.05172055,-0.03891460,0.00711276,-0.04826740,-0.03976867,-0.00056141
-0.04369625,-0.05345421,-0.04195474,-0.10535245,0.01453887,-0.00706815,-0.08573240,0.00006164,-0.04828857
0.02350772,-0.01844419,-0.07721419,0.04425113,0.01848101,-0.03597165,0.01861045,-0.02250622,0.00596363
0.00344313,-0.00237465,-0.02783826,0.00386767,0.00581520,0.00843308,0.00679131,0.01684131,-0.00643374
0.01664720,0.01617001,-0.00544737,0.01113388,0.05174496,0.00284884,-0.08756102,-0.00640534,0.02257374
0.00622286,-0.00284113,0.02224456,0.00030223,-0.01232582,0.02615838,0.00978666,0.02139232,0.05557813
0.04570896,0.08601034,0.01048956,0.10978744,-0.00494786,0.01871110,0.10364674,0.09764531,0.05661003
0.06631938,0.00289541,0.07787358,-0.00217188,-0.01204578,-0.05288703,-0.03213270,0.02794863,-0.06459700
0.01770939,-0.01017329,-0.03529409,-0.00567835,0.03558974,-0.02662671,-0.00796492,0.01710198,0.00160430
-0.06684785,-0.00788920,0.02056476,-0.01514212,0.06603540,0.00959574,-0.00850229,-0.00886766,0.04095618
-0.03251094,0.03097711,-0.02874716,-0.02466729,0.03705271,-0.00366869,0.01487143,0.05970122,0.00190024
0.05960143,-0.07951932,-0.08635175,0.00971827,-0.02534103,0.00246274,-0.00732129,-0.03176780,0.01335974
0.01029557,-0.00190730,0.01331318,0.01938933,-0.04183729,-0.03505381,0.02916272,0.01635117,-0.01833871
0.10270190,0.03389193,0.00689304,0.03556590,0.00887392,0.06675895,-0.00716209,-0.02996456,-0.01352631
0.01657482,-0.06638599,-0.06664996,0.00714479,-0.03027018,-0.00327794,-0.01763538,-0.03906345,-0.06108066
-0.00595872,0.01825404,0.02860210,-0.05910091,-0.01630866,-0.01510032,0.00777021,0.06316579,0.01246880
0.01258399,0.02471500,0.01738701,-0.05530138,0.00133886,-0.05466878,-0.05674301,0.01192742,-0.01293017
-0.03010067,0.01555371,-0.06382813,-0.01110985,-0.00434603,-0.10829797,-0.03610484,-0.03450409,-0.06486191
0.03015827,0.03335999,-0.01145783,-0.04869657,-0.03907402,0.00139184,0.02452474,0.01739545,-0.00718428
-0.04849674,-0.02864933,-0.02304791,-0.02607778,-0.00747799,-0.02937595,-0.00978092,-0.00269618,0.03281660
-0.01427190,-0.05632876,-0.01776768,0.02293560,0.04541362,0.04946376,-0.01593170,-0.00430097,-0.00266085
-0.04889474,0.03247225,-0.01263396,0.02893667,0.07468834,0.04909446,0.01265659,0.03977173,0.04019733
-0.01457195,-0.03126747,-0.01348112,0.04183138,-0.02978780,0.01190757,0.01682845,-0.07163111,0.02552824
0.00533639,0.02703645,0.01371799,-0.00246421,0.02160400,0.02180746,-0.05444076,0.01790972,0.00329646
-0.02122507,-0.02858126,-0.01810769,-0.04955808,-0.03324880,0.01644724,-0.02854799,-0.02026262,-0.00249116
-0.06580864,-0.00197346,-0.00524865,-0.00688896,0.04625156,0.04671595,-0.04117864,-0.02080832,-0.03465692
0.02989197,0.03108296,-0.01656687,0.01087764,-0.00884242,-0.05384340,-0.01102119,-0.02221690,0.02444226
-0.01893743,0.05266876,-0.02006491,-0.00649386,0.00862597,-0.00969995,-0.03641426,-0.00428808,-0.02703191
-0.05212482,-0.00997626,0.02376718,-0.01569276,0.01357087,0.03785490,-0.03691358,0.02361237,-0.01098599
-0.00326735,0.00337273,-0.02087069,0.01127389,-0.03114617,-0.01872564,0.00714494,-0.01706493,-0.06798851
0.00496876,-0.01585834,0.03978477,-0.01360301,-0.00306512,-0.01450641,0.01934662,-0.00002918,0.01514939
0.01847264,0.00793034,-0.02021103,-0.00794898,0.00533162,0.05088644,-0.05032253,-0.04725466,-0.02384302
-0.05329441,0.01364165,-0.00905904,-0.04341118,0.05531748,0.00223123,-0.06354535,-0.02141686,-0.01708513
0.00625616,-0.01501311,-0.01118721,-0.00253857,-0.02304502,-0.03613791,0.02633195,0.01413213,-0.00359285
-0.04680584,-0.05996074,-0.03428965,-0.01584074,0.04585657,0.00646040,-0.03911789,0.05436094,-0.01722111
-0.03142979,-0.04048764,-0.09189323,-0.05905006,-0.02296399,-0.06006172,0.03992437,0.01225989,0.01021150
-0.02234722,0.00527389,-0.01650834,-0.03006103,-0.00190658,0.01501732,-0.07087708,-0.04256369,0.00468867
-0.03004970,-0.06422299,-0.08117825,0.04858952,-0.00372704,0.02567293,-0.05041064,-0.06675150,0.00575171
-0.01888910,-0.01152086,-0.01747045,-0.01065361,0.02250208,0.00169898,-0.11086675,-0.06483541,-0.04959881
-0.06068879,0.01720749,0.03214908,-0.04672820,0.03306749,0.08619491,-0.06491565,-0.04417541,0.01680895
0.00791353,-0.02248973,-0.03394413,0.01433958,0.02232751,0.01044447,-0.00669687,0.00648325,0.03825083
-0.03578910,-0.03383520,0.01001243,0.05819516,0.03505481,-0.02939126,0.01563347,0.01443397,-0.01323385
-0.03960197,0.00696567,0.01587761,0.00402674,-0.00360808,-0.02455296,-0.01775927,-0.02315462,-0.00069073
-0.01957564,0.03542585,0.03364453,0.00868948,0.01423342,-0.02892838,0.03403717,0.01482325,-0.01263071
0.04262519,0.02622003,0.01780248,0.03014542,0.01858435,0.01441490,0.02288239,-0.04719257,-0.00876694
0.02198051,0.05270584,0.04515666,0.08391611,0.12910660,0.07033596,0.04913484,0.04878227,0.04158106
-0.00897818,0.00614801,0.03117788,0.05050993,0.00477819,-0.04764720,0.03251485,-0.02258390,-0.05463740
-0.01320474,0.02445612,-0.03506634,-0.01746418,0.07021183,0.06337282,0.01486981,0.10913506,0.07593211
0.04575611,0.02746003,-0.01141389,-0.04170062,-0.04048653,-0.09871652,-0.03595627,-0.04919498,-0.00695615
-0.08083898,0.00845876,-0.00927605,-0.01600389,0.06847944,-0.01355251,0.05789153,0.03342061,0.03445642
-0.01693742,-0.00486240,-0.06502492,0.00961332,0.04684850,-0.03224927,-0.04147227,-0.02274939,-0.03569604
0.00467255,-0.04328570,0.02884175,-0.00310922,0.01271274,-0.00573862,-0.03182880,-0.03251411,0.05085201
-0.01955176,-0.03956842,-0.00562539,0.01640205,-0.03733820,-0.04628088,-0.00072924,-0.03377233,-0.05468349
-0.01997982,0.01341738,-0.01818519,0.02030850,-0.02618651,-0.05403961,-0.04538700,-0.03905850,-0.03500533
-0.01638179,0.00005210,-0.02756237,-0.05636726,0.07673337,0.00669438,-0.10399511,-0.01157612,-0.00682468
-0.03413685,0.00389663,0.01097083,-0.02232343,0.01906919,0.05906651,-0.07297990,0.01488193,-0.02104275
-0.05758722,0.04538082,0.10678433,-0.05145837,0.09246812,0.02720308,0.04222172,0.05329524,-0.10898560
-0.02768053,-0.05938474,-0.02426421,0.00389846,-0.04886405,0.03334324,0.06168420,0.02763297,0.03139633
-0.02858862,0.03452022,0.06979042,-0.02935063,-0.02441090,-0.02461760,-0.04878554,0.00153158,-0.03850339
-0.02940550,0.00141216,-0.00817454,-0.05524907,-0.00292179,0.01583296,-0.08329851,-0.04890710,-0.05567298
-0.00229919,-0.05558201,0.00986517,0.01077859,-0.05692409,0.02232418,0.02302704,-0.01311565,-0.03185267
0.02239771,-0.01740805,-0.01648899,0.04896930,0.00221790,-0.00450617,-0.03609765,-0.02075548,-0.01013805
-0.03656411,0.01075968,0.00523048,-0.05359163,-0.00574965,0.01668305,-0.02491099,0.00302185,-0.01168499
0.02594673,0.01373716,-0.11584199,-0.00012797,0.04935886,-0.00435465,0.03963480,-0.01353353,-0.05784251
0.04388061,-0.03646228,-0.01043430,0.06160263,0.02557743,0.01628530,-0.00102130,-0.03770433,-0.01964961
0.01404155,-0.07061318,-0.05627206,0.07248816,-0.04026104,0.01582875,0.06638654,-0.01802667,0.00445131
-0.08138324,-0.05936356,-0.01440659,0.06083203,0.01026584,-0.00313887,0.04473097,-0.02657869,-0.03663827
-0.05103207,0.01560958,0.03686328,-0.06311669,-0.05231263,-0.00932270,-0.03236394,-0.04387780,0.03305317
-0.04260690,-0.01200108,0.03458417,0.03089825,-0.00252550,-0.00722481,0.07955831,0.03115492,0.11084582
-0.01180909,0.00810448,-0.06745567,-0.01858908,-0.00367675,-0.06568991,-0.05795452,0.08179595,-0.06666908
0.00775178,-0.00801786,-0.07941154,-0.05268581,-0.01073158,-0.03924740,-0.06255855,-0.05111469,-0.01051300
-0.00322788,-0.02541955,-0.04174994,0.01698810,0.02828294,-0.02480766,-0.01161620,0.02150139,-0.00186758
0.01615750,0.04447845,0.02907565,0.04696119,0.02702357,-0.03588134,0.11938439,0.03137732,0.01334082
0.11771031,0.04858184,0.11908743,0.01585797,0.00444024,0.10941300,0.04206400,0.04062974,0.14863612
0.00521794,0.01698367,0.05325695,0.03186680,-0.00430513,-0.01218091,0.01306742,0.01504374,0.02916599
0.00996625,-0.05362078,-0.08354905,0.00056508,0.06832592,0.04306854,-0.06333058,-0.01139104,-0.00984157
-0.00215567,-0.09073111,-0.11335550,-0.07752293,-0.11230133,-0.03587412,-0.00690507,-0.02622266,0.01049776
0.02387484,0.02127272,0.01581014,-0.01495697,-0.02740936,0.00761028,0.00273110,-0.09752157,0.03380712
-0.02165497,-0.02479137,0.09435211,-0.00400423,-0.04801106,0.07115370,-0.02211815,-0.03025504,0.06511446
-0.06406102,0.00778939,0.03805395,-0.02595342,0.03296966,-0.00609596,-0.01994348,0.03632465,0.02650488
-0.05056731,0.01530727,-0.02753529,0.02323481,0.08958591,0.00457384,0.01219322,-0.00157617,0.01136458
-0.04240323,-0.02786334,0.07298077,-0.07778859,-0.03926877,-0.02938712,0.06860653,0.07379212,0.11577566
-0.03220457,-0.03568139,-0.03126186,0.02827986,-0.06895620,-0.02646359,0.06567170,-0.00546326,-0.00567183
-0.02342806,0.03435022,-0.02832410,0.04160129,0.04910829,0.02196910,0.06704621,0.06315786,0.08498900
0.00264951,-0.00132586,-0.04394048,0.00895202,-0.03949852,-0.04463011,-0.05764040,-0.02576637,-0.01662632
-0.02076804,0.05145585,0.00544163,-0.03541512,0.03482788,-0.02910877,0.00643795,0.00019721,-0.02982568
-0.03015784,-0.01975579,-0.04901563,0.03914164,-0.04744128,-0.02288553,0.01244164,-0.00121478,-0.04878444
-0.00980330,-0.06066301,-0.00676664,-0.03846769,0.03423227,-0.03391985,-0.00679137,-0.00146221,-0.03142117
-0.03846597,-0.04604754,-0.02778751,-0.01689636,-0.03077424,0.05079594,0.01773361,0.02587308,0.00288211
0.00665812,0.09416703,0.01546501,-0.04311373,0.04522844,0.01715701,-0.04365305,0.00149016,-0.02938922
-0.06745291,0.03625157,-0.03271495,-0.02666994,0.01729485,-0.05829430,0.04662590,-0.04015478,0.06616050
0.04617152,0.03595181,0.01538674,0.00006583,-0.03498604,-0.02217416,-0.02416989,-0.01400625,-0.05532008
-0.00326661,0.01583016,-0.03101857,-0.08605801,-0.01960746,-0.07451293,-0.01271042,0.03408162,-0.02132410
-0.02447660,-0.01691763,-0.00138520,0.00369714,-0.04420272,-0.04110942,-0.05798857,-0.12565847,-0.01148946
0.03150575,-0.00633178,0.00162727,-0.01276326,0.01776103,-0.00188096,-0.03195477,-0.04361422,-0.01886689
-0.02714263,0.03290750,-0.00695604,0.01188880,-0.05073310,-0.05221831,-0.01715426,-0.01904852,-0.04168696
-0.04882542,-0.03030019,-0.06937602,-0.01534485,0.01260726,0.02972112,-0.02550963,0.01689920,0.09350809
0.01560587,0.02700941,0.07342745,-0.03493772,0.01419242,0.00796416,-0.01566714,0.03366777,0.04524784
-0.01292600,0.03962035,0.07661589,-0.01689777,-0.02413201,0.03815753,0.00369316,-0.00975798,0.00325787
0.02328943,-0.04747606,-0.01591186,-0.03973048,-0.07599211,-0.09355817,-0.03926791,0.03079423,-0.02050682
0.04949412,0.03172468,-0.00930434,0.00969885,-0.00684490,-0.03295528,0.00299852,0.01996477,0.02780204
0.08255789,-0.02214093,0.03864744,0.07103767,-0.00343843,0.02970731,0.02906165,-0.06782704,0.09871739
-0.00602847,0.02808226,-0.04193398,0.02234332,-0.00292611,-0.01253719,-0.00010952,-0.02245800,-0.03147343
-0.00078286,0.01101114,-0.02091099,0.03280364,0.01495749,-0.05888026,0.03320545,-0.00572751,-0.04980122
-0.02276472,-0.01616576,-0.00599563,-0.00464972,-0.01340047,0.01026687,-0.02168145,-0.01285926,0.01163956
-0.02150427,-0.03169810,0.00010884,-0.02668016,-0.00103306,0.01144061,-0.04438977,-0.03278218,0.03530857
0.01205423,-0.05239639,-0.06428114,0.00005872,-0.00849430,-0.02981581,-0.00950339,-0.01769039,-0.04129085
0.01914880,0.02646402,0.01924225,0.03780089,0.06621803,0.07746477,0.01607123,0.03613715,-0.04532840
0.02663360,-0.04246945,-0.03164488,0.03581502,-0.05599673,0.00492714,0.01868044,-0.05881548,-0.01563712
-0.02598169,-0.01558041,0.02114675,-0.02285378,-0.01924362,0.00883019,0.03763847,-0.00626836,-0.02377633
0.03863392,-0.04987847,0.02604448,0.02388906,0.02401842,0.00646039,0.03144906,-0.00938269,-0.04262697
0.10896722,-0.01934662,-0.04159889,0.04898614,0.00827527,0.01003713,-0.01941075,-0.02220516,0.09357369
0.00085455,-0.00838046,-0.00470323,0.05709981,0.03731387,0.03138152,-0.00313449,-0.01328714,0.03960558
-0.02150860,0.03336673,0.00880991,0.00899257,0.02476891,-0.02341664,-0.02345078,0.00028472,-0.00862116
-0.03741855,-0.02171124,-0.06887119,0.02582333,-0.02016494,-0.05426000,-0.04268955,-0.05191114,-0.03515586
0.06414803,-0.02974615,0.04545300,0.04371500,-0.01239067,0.00700032,0.06717511,0.00847325,0.03071958
-0.03752367,-0.02748212,0.02177932,0.00796660,0.00598744,0.00291503,-0.03458465,-0.00825252,-0.00547882
0.02796585,0.02030781,-0.01037454,0.04479498,-0.02629082,-0.01794254,-0.00103864,-0.01919502,0.00464984
0.00788538,0.00179338,-0.03302801,0.02684431,0.00173965,0.04897591,-0.01675190,-0.03876615,0.00963569
-0.06224665,-0.00430562,0.01510534,-0.00526393,-0.05618465,0.01539091,-0.00648493,0.00033677,0.05517807
-0.01703639,0.04893044,-0.03424978,-0.01120287,-0.01013370,-0.01968811,-0.02517438,-0.01054825,0.02594203
0.01917491,-0.01123985,0.01518473,-0.01559095,-0.03250312,-0.03566698,0.03394859,0.00861989,0.01208335
-0.02098291,-0.02197198,-0.04835439,-0.00334740,0.01373572,-0.02010964,-0.04350731,-0.03186839,-0.05263968
-0.06987093,-0.00729074,-0.01839526,0.00553446,0.05280530,0.02932641,-0.00417580,-0.00338812,-0.02528766
-0.04153186,-0.02375835,-0.03893114,-0.02234229,0.02613840,0.00142134,-0.02320140,-0.03511700,-0.02315855
0.02738098,0.01663789,0.00772360,0.02361860,-0.04188555,-0.00900479,0.01494669,0.02534579,0.02257939
-0.00348614,0.01483081,-0.02363501,0.02500001,-0.00040399,-0.02053271,-0.03339526,-0.03027548,-0.00907883
-0.04287579,0.00147052,-0.04170637,-0.01781161,0.00999071,-0.01736078,-0.00329052,0.02274264,0.01421104
-0.02447835,0.00069600,0.00775088,0.02962310,-0.00129088,0.00074140,0.02542660,0.01017596,0.08111074
-0.07575249,-0.01860923,-0.05646223,-0.04155994,-0.04672360,-0.03410285,-0.04065138,-0.06743921,-0.01076239
0.03506923,0.00790084,-0.01920105,0.01659645,0.02812389,-0.00391512,0.00897241,0.05053741,0.06083205
0.00586833,0.00434983,0.06079020,-0.05653312,-0.01765182,-0.01412610,-0.00202465,-0.03769823,0.00118553
0.02122811,-0.00098134,-0.02546302,0.00370488,0.02559669,-0.05240424,-0.00369805,-0.02262739,-0.05680091
-0.01211478,-0.04045803,-0.03016566,0.08419386,0.02759652,0.01648930,-0.01851863,-0.05759673,-0.05337757
0.01662979,-0.00725921,0.02345225,0.03160050,-0.04786089,0.04033386,0.06269936,-0.04031193,-0.00403905
-0.03692368,-0.04294804,-0.10723779,-0.02534717,-0.03210991,-0.08357739,-0.04818147,-0.08608197,-0.07213882
-0.01311839,0.02710163,0.02582579,-0.01307166,-0.01016739,0.02544368,-0.00194614,-0.04559442,-0.00719734
0.01243409,0.00232691,0.02205873,0.04451443,-0.05791679,0.03895427,0.02575217,0.04620994,0.02766801
0.00734604,-0.02464284,-0.03694458,0.06009682,0.02735410,0.03391161,0.00005105,-0.02513210,-0.00908143
0.00187796,-0.05738448,0.00688709,-0.00468462,0.00131278,-0.03255237,-0.01144080,0.01974622,0.02728721
-0.03130491,0.01639614,-0.04252768,0.00364744,0.00471382,-0.00871932,-0.03302712,-0.02884720,-0.04692180
0.01055698,0.00384102,-0.03286542,-0.01170997,-0.07240393,0.05836649,0.03180216,-0.01698119,0.07810994
-0.03074662,-0.01581299,-0.06330459,0.00509430,0.00171373,-0.01301462,-0.00578492,-0.01477394,-0.04958624
0.03605596,0.04443488,0.02029690,-0.02873862,0.02183370,0.02274698,0.02431080,-0.01560420,-0.02701983
-0.00365450,0.08588373,-0.02622977,-0.02963732,0.02570257,-0.04872412,-0.02990538,-0.02141857,-0.04124076
-0.07276878,-0.01902699,0.09387238,-0.03687429,-0.00754280,0.05312162,-0.07409737,-0.06677410,-0.00928825
0.01806699,-0.05037977,0.01619097,0.06120162,-0.02723726,-0.04469316,0.00461026,-0.04317326,-0.03655982
-0.03764738,-0.01827363,0.01806813,-0.05845937,-0.01333065,-0.07546722,-0.06352840,-0.01688593,-0.02140421
-0.01247587,-0.05853875,0.00442515,-0.01259120,-0.07020546,-0.03976779,-0.02083017,-0.00331853,0.04388494
0.04807050,-0.03843215,-0.05470032,0.04118054,-0.04787104,-0.05914279,-0.02148722,-0.06144770,0.00557513
-0.03960152,-0.00631311,-0.01537984,-0.07127269,0.01727140,0.00858559,-0.05741915,0.06585001,0.03828380
0.05301592,-0.09533876,0.05505279,-0.00138927,-0.09100178,0.00586512,0.03725541,-0.08344101,0.00738978
0.07396442,0.03036641,-0.00515985,-0.02207026,-0.02144014,-0.05827923,0.02677988,0.04742242,0.01744851
-0.01167071,0.02108272,0.01082939,-0.01281773,-0.01455750,-0.03574038,0.03423818,0.03264671,0.01795575
-0.06214996,0.00179368,0.00814401,-0.03180669,-0.02004403,0.11618932,-0.05600638,-0.02245215,0.03955562
-0.04457968,-0.05332886,0.00559051,0.00779943,0.00747200,0.05203871,0.02508024,0.01871767,-0.01896187
-0.01434927,-0.01047970,0.06761958,-0.03731832,-0.01738377,0.01257246,0.01281658,-0.01210839,-0.06079131
-0.06634516,0.00026269,0.00567313,-0.05323468,-0.05514422,-0.01361250,-0.00807808,0.04230165,0.02343919
0.00804482,0.00859775,-0.02499929,0.01532351,-0.05196407,-0.00561687,-0.03788831,-0.01699246,-0.01485238
0.01346579,0.02759496,0.01778566,-0.01081989,-0.00665435,0.00862849,0.01507866,-0.02873976,-0.02609790
0.05070099,0.03608925,0.05856624,0.01706228,0.03153447,-0.03664009,0.05497657,0.03245468,-0.02151717
-0.03966646,-0.02624587,0.01428009,0.03485288,0.02441891,0.05198612,0.00427509,-0.01649659,0.00674784
0.00705931,0.04914129,-0.04137642,-0.03656426,0.00900758,-0.01945273,-0.01641924,0.04177425,0.01488834
-0.01302893,-0.02375697,0.00643467,-0.02533214,-0.02296887,-0.01992900,-0.02279525,0.00433558,-0.01999433
-0.09380379,-0.03626487,-0.01400259,0.03348715,0.01247000,0.03791859,0.07929397,0.00043271,-0.04883704
-0.08412751,-0.07465105,0.00936959,0.03383664,0.02588605,0.07496831,0.02363854,-0.02761795,0.03020921
0.01333749,-0.02953857,-0.06068445,0.02973871,-0.01292092,-0.02695820,0.02075342,-0.01431823,-0.04420055
-0.04412753,-0.02721923,0.01674304,0.02636087,0.00461232,0.02360060,0.03747371,-0.01266895,0.02274139
0.03365513,0.02721442,-0.00972410,-0.01200422,-0.01903670,0.00029333,0.04264686,0.03803955,0.04469862
0.05766325,0.03483856,-0.00322991,-0.02804470,-0.00193981,-0.05782397,0.01147088,0.01759696,-0.08711416
0.02258976,0.00438295,0.05771586,0.03456749,0.01234112,-0.00059872,0.07716349,-0.03866252,0.03053582
0.02580324,0.00737246,0.03763435,-0.01104979,0.00112402,0.06061471,-0.01253811,-0.07167026,-0.04363047
-0.02665037,-0.00596924,-0.01625244,0.02317162,0.06236735,0.06161132,0.01197354,0.02048507,0.01885792
0.01909849,0.02684241,-0.05030667,0.02008357,0.05648983,0.01889376,-0.03140495,0.02044164,-0.02200631
-0.02720485,0.00085905,0.02180275,-0.01150130,-0.05297657,-0.04105965,-0.01337889,-0.06831330,-0.03432067
0.01698157,0.00309776,0.00138088,0.02523865,-0.01176868,0.00044849,0.03585578,-0.02590323,0.04417521
-0.05044892,-0.02440245,0.07597645,0.01298529,0.01685842,0.05000069,0.04530683,-0.00224604,0.00346179
-0.05174876,-0.09345691,-0.04371322,-0.01696536,-0.00271195,0.11321399,0.05732789,-0.01860650,0.10942087
-0.00115638,-0.02568203,0.03518626,0.01481364,0.01155134,0.08483455,-0.01579824,-0.02115541,0.03207946
-0.01118028,-0.02936360,-0.07871138,0.05138346,0.00334410,-0.00896104,-0.03487954,0.01950843,-0.04979668
-0.06392303,0.03885669,0.00889563,-0.04360413,0.04932264,-0.01128662,-0.05037773,-0.05058491,-0.03350076
-0.04309952,-0.04549052,-0.03137223,-0.04886686,-0.04001260,0.07477462,0.01835332,-0.04465324,0.04450060
-0.00527885,-0.01311620,-0.04002391,0.00700281,-0.01990815,-0.05196181,0.00865012,-0.02743824,-0.01504154
0.03163394,0.05264182,0.08206506,0.00980746,0.02826709,0.03619267,-0.03307627,0.00438210,-0.04274557
0.00982490,0.00521799,-0.00426918,-0.02862375,-0.03012826,-0.00130152,-0.03654854,0.00584467,-0.01412159
0.04284051,0.01346087,0.02027481,0.00026720,-0.02535799,0.00477807,0.02156899,0.05810593,0.07012402
-0.04288597,0.00445937,0.01990074,-0.02471090,0.00634424,0.03218963,-0.00031928,-0.01980276,0.00152663
-0.01909032,-0.03216057,-0.00800978,-0.04607937,0.03373067,-0.01850654,0.01892691,0.01804496,-0.00727090
0.02541110,-0.04212859,-0.00120933,0.01299578,0.00085825,-0.00882015,-0.02565759,0.00425537,0.02145176
0.03949114,0.04246634,-0.11089655,-0.00342280,0.02500514,-0.02175361,0.00129079,0.01791469,-0.00138000
-0.02082778,0.01435960,-0.03415272,0.03876923,0.04347149,-0.06154419,-0.03627376,0.07194090,-0.03205726
0.00498461,0.01357418,-0.04878836,0.00032619,0.06204882,-0.00899840,0.05833413,-0.01367213,0.02094066
-0.04739212,-0.03219511,-0.00423743,0.03855394,0.00867666,0.00155704,-0.01921030,-0.00862121,-0.02922178
-0.07412823,0.00902254,-0.08917119,0.03012247,0.06191757,-0.06442498,-0.06291600,-0.00314264,-0.03966384
0.00543581,0.02085469,0.00416211,-0.00858075,0.00003897,-0.03275196,-0.01783969,0.04419626,-0.03564628
0.06716122,0.00062598,-0.04022512,0.05560971,-0.00373879,-0.01437165,-0.03103796,-0.01066372,-0.02067067
-0.02233542,0.01165436,-0.02765918,-0.01637130,0.02467003,0.05370329,-0.01205609,-0.01118985,-0.03088213
0.01091557,0.02501254,0.09317598,-0.04159664,-0.00139361,0.05882935,0.01987316,0.03171494,0.09992600
0.04466851,-0.05393299,-0.06010114,0.10762846,0.01945019,-0.06084822,-0.03218528,0.03349854,0.03772911
-0.00034514,-0.01010321,0.00860173,0.06467587,0.02090249,0.02212653,0.09352662,0.00754918,0.06924031
0.02760792,0.01692645,-0.00676444,0.02966709,0.03900979,-0.01037640,0.03601453,0.03936630,-0.02502885
-0.02687825,-0.04665820,-0.03942491,-0.01491956,-0.00392167,-0.02643582,0.03677712,-0.04089813,-0.02405186
-0.02311037,-0.01940587,-0.03938305,-0.02533595,-0.00992028,-0.00935829,0.00148072,0.01755696,-0.04322384
-0.02003243,0.02565361,-0.01330689,-0.02308307,0.02073313,-0.01588720,0.02806506,0.08929794,0.02544396
0.03097606,-0.02645372,-0.06842364,0.00011043,-0.04459477,-0.02355997,0.01419422,0.03555721,0.02695973
-0.06815141,-0.01589253,-0.00408075,-0.00275971,0.00718867,0.01582927,0.04420687,0.00340034,-0.00170591
-0.04049568,-0.01000859,-0.03223312,0.03420052,-0.01212924,0.05625769,-0.01407757,-0.02875729,0.06125985
0.00687742,0.04009767,0.06921528,0.01212490,0.05472262,0.06714763,0.00172068,0.00355994,0.02185343
-0.02907982,-0.06379907,-0.05041609,-0.03633754,-0.00749072,0.00401564,0.01294908,0.04103353,0.02638086
-0.03020357,-0.01290324,-0.03876575,-0.04223731,-0.01556815,-0.02985059,0.03592324,-0.02368980,-0.04879443
-0.05926477,-0.05092392,-0.03150715,-0.02826296,-0.02856800,-0.01992623,-0.00432058,0.01342813,-0.03406066
-0.09488498,-0.02697898,0.01340498,-0.07560062,-0.05208420,-0.02221024,0.00653070,-0.00295433,-0.03285204
-0.00712520,0.05345261,0.03728369,0.02073985,0.01546006,-0.00254422,-0.00312317,-0.00293407,-0.01494643
-0.00443869,-0.03447744,0.02236381,0.00909636,0.00254018,0.04770435,0.00810965,-0.00114046,0.04035413
-0.04787306,0.01478066,-0.09749126,-0.01747160,-0.01829187,-0.03275507,-0.03117776,-0.01325441,0.05331856
-0.01995107,0.05518599,-0.02194473,0.02602475,-0.01642119,-0.03862768,0.01948067,-0.02346200,-0.02430264
-0.02675002,-0.02417085,-0.07037119,0.02201289,-0.00413907,0.02584909,0.00673061,0.00891763,0.03357898
0.00538662,-0.02502930,-0.00820926,-0.03678196,-0.01137922,0.03039283,-0.00518454,0.04671063,-0.02152216
-0.00978740,-0.02814978,0.03460221,-0.04052547,0.01006658,-0.05205613,0.00416245,0.01504764,-0.03358070
-0.05648675,0.00824227,-0.01041679,-0.02230371,-0.00916139,-0.01232775,-0.00186343,0.01751964,0.05075597
0.05548638,0.06224265,0.06691273,-0.04265343,-0.02073910,-0.00137969,-0.01544652,0.03249734,0.02389528
-0.07990458,-0.06985929,-0.02379589,-0.04546649,0.01656209,0.03499257,-0.04104469,-0.03576662,-0.00395568
0.01771880,0.02989034,-0.00811343,0.02380916,0.03011909,-0.02174919,0.06230345,0.03658573,0.00862743
0.01098442,0.05345459,0.08173961,-0.04038121,0.00996826,0.02675752,0.01939615,0.00243157,0.01570035
0.04089324,-0.01467129,0.04055740,-0.01015679,0.02417683,-0.01453110,0.01589079,-0.01461895,0.03161507
-0.01895120,0.00331513,-0.03487510,-0.01754392,0.01235286,-0.00032880,-0.03724902,-0.01196154,0.01528804
0.01817852,0.01122266,-0.02151444,0.01320408,0.02021887,0.02131994,-0.00485758,0.00835907,0.01843130
0.00750441,-0.01630827,-0.01561038,0.05049016,-0.01219272,-0.01623828,0.02055025,0.00053807,0.01328667
-0.01513279,-0.00147320,0.02850932,0.02388647,-0.01129793,0.00961887,-0.02148434,0.00997013,-0.01899473
0.19186021,0.19310060,0.50288188,-0.07586343,-0.01190489,-0.08286117,0.08770168,-0.01453223,0.00475350
0.00220966,0.01435439,0.04932025,-0.06035575,-0.05212224,0.03357729,-0.01655519,-0.03214645,0.03735686
-0.00970538,-0.01605897,0.03329458,0.00886477,-0.03436686,-0.01518582,-0.03828856,-0.03225878,0.00542914
-0.01344507,0.03696674,0.02653979,-0.02410778,0.00172828,-0.03905855,-0.00505615,0.04992130,0.01524150
-0.01394948,-0.00511055,0.00476627,-0.00420151,0.03583196,0.02726358,0.01678996,-0.01464167,0.00223250
-0.01174020,-0.01554828,-0.08401979,-0.05583008,-0.01064443,-0.04316209,-0.01080648,-0.01623041,-0.00648784
0.00449712,-0.01909166,0.03522620,-0.00922611,0.01867795,-0.01117900,0.02820103,-0.01226732,0.02415774
0.00489060,-0.00517018,0.00015944,-0.00263455,-0.01394294,-0.02189202,0.01301373,-0.01250222,-0.02124793
0.04377354,0.01258650,0.01679330,0.02326272,-0.00563849,-0.01944337,0.00998266,0.00450697,-0.01112585
-0.00299264,-0.01689592,-0.03342067,0.00292200,-0.01864321,0.02168569,0.00259675,0.08187947,-0.00646909
-0.04139780,0.02235528,-0.04002060,-0.00681103,-0.02470775,-0.00244317,0.00907283,0.02452599,-0.01933402
-0.12610240,-0.15541443,-0.14012751,0.12814504,0.10243665,0.02355465,-0.01027608,-0.03431844,-0.04452541
-0.02937428,-0.02571979,-0.02767309,0.00563819,0.01657176,-0.01862349,0.00079655,-0.01102952,-0.00236258
0.00217649,-0.00937155,-0.01203140,-0.01133996,-0.01667532,0.01377142,-0.01130606,0.04045717,-0.04787616
-0.03305392,-0.06278574,-0.04942142,-0.00959892,0.01161902,-0.00881521,0.00852901,-0.01681448,-0.00931953
-0.01940619,-0.02186326,-0.02348850,-0.08344110,0.00877009,-0.07137871,0.00525760,0.01254903,-0.00895515
-0.01088343,0.01504262,-0.00464439,0.01219549,0.03566521,0.00655696,-0.01570013,-0.00064202,-0.01379120
-0.01279061,0.01798416,0.03021665,-0.01171178,-0.03572935,0.01285774,0.00502028,-0.00485548,0.03245163
0.00989101,0.00253276,0.00242580,0.03113912,0.02647950,0.01345087,-0.02710048,0.03982164,0.02381100
0.00605895,0.03562165,0.00368907,0.00693117,0.02061769,-0.02287834,-0.01460033,0.01925209,-0.06481493
0.00594468,-0.01603226,-0.01744869,-0.00502199,-0.03924786,-0.01856371,-0.00420315,0.03627706,0.00489103
0.00404963,-0.03226912,-0.00581448,0.03767847,0.03057369,0.00881454,-0.00852978,0.03260797,-0.01900272
-0.00074279,-0.00826727,0.02309101,-0.00868162,0.01102604,-0.01596365,-0.02479996,0.03414549,0.00967795
-0.00069485,0.00967198,0.01191407,-0.01893560,0.01469044,-0.01691877,-0.02241096,0.00303299,0.00690330
0.02323463,0.00591107,0.05081957,-0.03342235,-0.00201245,0.02085127,0.01654832,-0.00672456,-0.01424507
-0.00222143,0.00890810,-0.00539755,-0.01204288,0.05546603,0.00008757,-0.02628069,-0.00509359,-0.03617598
-0.02451379,0.04813428,0.04468284,-0.06546698,-0.00349224,-0.01645081,-0.01355246,0.01381518,-0.03576775
-0.01438108,-0.02158546,-0.02583087,-0.03668406,0.01113893,-0.08539327,0.01994846,0.03103880,0.02453203
-0.00974524,-0.04096051,-0.00061613,-0.05283301,-0.01047256,-0.08964530,0.01605183,0.01187195,-0.00734424
0.01782616,0.01693488,0.01933145,0.00432896,-0.00397306,0.02630810,-0.00404850,-0.00238608,0.01251286
0.00338560,0.02798469,-0.03713685,0.02553585,0.02383523,0.02593650,0.00153180,-0.04209750,-0.02700356
-0.01854947,-0.02421930,-0.05403858,-0.00742743,-0.03421370,-0.00385087,-0.01449845,0.00299396,-0.01576208
-0.01542922,-0.01364113,0.00336275,0.01683839,-0.00331138,0.00178419,-0.00019062,-0.04077109,-0.01462665
-0.00735573,-0.01684876,0.00547975,0.04236113,-0.01070560,0.06386338,0.01647162,-0.02386373,-0.01278886
0.01235756,-0.08807367,0.00614539,-0.00295868,0.08503224,-0.00079906,-0.03246424,-0.02043552,-0.00259606
-0.02845600,-0.00550816,0.01207983,-0.02351448,0.00900113,0.01816104,-0.02631084,0.02563022,-0.02732236
-0.01025003,0.03252973,-0.03750034,0.03892684,-0.03640703,0.09264269,0.00941933,0.06724654,-0.01408834
-0.04209061,-0.04358717,-0.09034888,-0.01232966,0.00199566,-0.05845267,0.02518356,0.00663132,0.00412262
-0.03876759,0.00017049,-0.01182642,0.01459292,0.00539354,-0.00592660,0.01655350,0.00436165,0.03814932
-0.04244160,-0.09069961,-0.03434882,-0.02388269,0.01748856,0.05192553,-0.01004519,-0.03701334,-0.01639164
0.02678517,-0.03340360,-0.06357452,0.00416820,0.01135052,0.03597482,-0.03929504,-0.00552451,-0.00092443
-0.02608719,-0.03306751,-0.01524755,-0.04719633,0.02084961,-0.07213710,-0.00760462,-0.02950742,-0.02967484
-0.01152588,-0.00282223,0.03874768,0.00005746,-0.00511854,0.00909807,-0.00129526,0.00028538,0.00692814
0.02988391,0.06746334,0.02224694,-0.01391432,-0.02947246,-0.02357634,0.00754210,0.00843332,0.01042868
-0.04007218,-0.04068908,0.00210348,0.00515116,0.02452254,0.04686733,-0.02137434,0.01418612,0.04464741
-0.03782465,0.01137226,0.00441947,0.02525595,-0.02262502,0.02615553,0.01315579,0.01010386,0.01309125
-0.01040207,0.03137817,0.01387362,-0.01860541,-0.01344539,-0.03847754,-0.02150379,0.03474155,0.00331710
-0.03783593,-0.09695774,-0.05122895,0.00562111,0.01167467,0.02125498,-0.03791131,-0.03553277,-0.02514345
-0.01537083,-0.02065526,-0.00494764,-0.05831669,-0.01506024,-0.01248843,-0.02044112,0.01021143,0.02134784
0.00514205,-0.00758705,-0.01277892,-0.02793069,0.00387901,-0.03886366,0.02420068,0.00260755,0.02265156
-0.00263912,-0.03588127,0.00248813,0.02108361,-0.00398320,0.01693108,0.01735802,-0.11585476,0.04421542
0.01159999,-0.01707767,-0.01864496,-0.10073017,-0.02441900,-0.07470476,-0.00423043,-0.00461162,-0.00895459
-0.04661110,-0.01566228,-0.00213236,-0.01822975,0.04002469,-0.05709917,-0.00424731,0.02620536,-0.00324848
-0.00336475,-0.00355019,0.00218184,-0.10370935,0.04732603,-0.01539599,0.01148733,-0.06665027,-0.02990884
-0.00251490,0.00601591,0.05300594,0.03198301,-0.00162109,-0.02179090,0.01793539,-0.01937685,0.02560932
-0.01815745,-0.00154544,0.00362366,0.01132914,0.00920729,0.02821174,0.01852109,0.00364117,0.02235806
-0.01127026,0.00232378,-0.00111916,-0.02366371,-0.03342025,0.01115892,-0.01761622,-0.00618610,-0.03355896
-0.00330576,0.02842400,0.00714801,0.01672091,-0.01281995,0.00612331,-0.00449787,-0.02312963,0.02417358
-0.04184136,-0.01379775,-0.02676952,0.01207054,-0.00105760,-0.01761120,-0.03262032,0.03247402,0.01725752
0.04361763,0.07293057,-0.03209806,0.00786104,-0.01000656,-0.06130284,0.05281423,0.08112495,-0.05397161
-0.00612012,-0.01891754,-0.04579734,-0.00471783,-0.03374945,-0.08393153,0.07083994,0.02783521,-0.00089376
0.03314383,-0.03286100,-0.08756634,0.06284769,0.04056146,0.00516540,-0.00526992,0.03376967,0.02894718
-0.03679203,-0.07038152,0.01356688,-0.06632234,-0.00830605,-0.01605005,0.19757494,0.09194878,-0.04105615
0.00464368,0.02727949,0.02772305,-0.02272355,0.02295260,0.00032930,0.05093610,0.02083733,-0.07586204
-0.03595358,-0.02022724,-0.05709253,-0.01663123,-0.00671611,-0.03904493,-0.02811247,-0.01657747,-0.06255890
-0.00822269,-0.02235228,-0.06031694,-0.01743432,-0.00735187,-0.01242445,-0.06441158,0.02979533,0.00322949
-0.04189316,-0.09113255,-0.04530478,0.00596327,-0.03267717,0.01662927,-0.00830945,0.01450375,0.01269979
-0.04176835,-0.03327098,-0.02219958,0.00112188,-0.03548184,-0.04322865,0.01837031,0.00176864,-0.02019762
-0.05811517,0.01243075,-0.07002009,-0.05689286,0.01771287,-0.03935334,0.01587225,0.12918894,0.02682564
0.03571593,0.03500237,-0.00709365,-0.06110470,-0.03276847,-0.10619006,0.09143379,0.10403658,-0.01344465
-0.01062459,0.00416671,0.02170094,-0.03439524,-0.04715201,-0.01942106,0.00524960,-0.00514515,0.06725599
-0.00686895,0.00629180,-0.00430893,0.02711706,0.00213885,0.02428379,-0.03568811,-0.08669551,-0.01255047
0.02766986,0.00170566,-0.02558192,-0.04525233,-0.07404847,-0.08004369,0.03721804,0.00552930,-0.02841811
-0.04122563,-0.02286413,-0.01252625,-0.07845882,-0.04464598,0.02892425,-0.08160207,-0.03926278,0.02221363
-0.05572168,0.02550655,0.06274478,-0.02370203,0.01343963,0.01779054,-0.00311115,0.00203450,0.00038725
-0.00430223,0.00716990,-0.00172439,-0.13248730,-0.09894994,-0.10233670,-0.02373031,0.13530727,0.05244737
0.02758153,0.00460952,0.02019872,-0.00716954,-0.01430874,-0.00194858,-0.01229412,-0.06279475,-0.05839103
-0.02051254,-0.01082966,-0.03437449,0.00622365,0.03649782,0.04225156,-0.14611670,0.01269401,0.04405619
-0.02753227,-0.05263496,-0.07396848,-0.02146353,-0.04544715,-0.00101055,-0.00196207,-0.02325058,-0.01113619
0.01525423,0.03807201,-0.02823138,0.02491231,0.06070559,0.00958243,-0.06657036,-0.01191989,-0.02833349
0.01015076,0.04140714,0.05450681,0.00807220,0.01280662,0.02488653,-0.03429493,-0.03495201,-0.02123800
-0.02848863,-0.04993458,-0.03657082,-0.06160723,0.00889575,0.07012205,0.02439466,-0.00779255,-0.03308547
-0.01690569,0.01344445,0.00942708,-0.02153833,0.00905302,0.00255756,-0.11363541,-0.02306515,0.05358642
0.01365866,0.00355482,-0.02115318,-0.00009910,-0.00029232,0.02458048,0.02610109,0.00900094,0.07246971
0.03780689,0.05551009,0.01294443,0.00625845,0.01185118,-0.01655127,-0.03309608,-0.03067417,-0.06719813
0.00114358,0.03255415,0.01676472,0.01431560,0.01474723,-0.01842492,-0.07432765,-0.08534941,-0.07832915
-0.00407079,-0.04555680,-0.02253684,0.04014149,-0.00260301,0.00948734,-0.01003137,0.03395466,0.01370953
0.05288566,0.03841219,0.00596697,0.00021677,0.01230562,0.02114698,0.09450421,0.01438077,-0.00947974
0.05977729,0.00869312,-0.00390336,0.02942386,-0.01173073,-0.01347731,0.02888925,0.03682271,0.04575864
0.02512670,-0.01086317,-0.04510507,-0.01844057,-0.01002771,-0.04401267,0.01719926,0.05892704,0.01891900
-0.02685692,-0.02544076,0.01406368,-0.02787904,0.06625258,0.01078352,-0.01621034,-0.02227849,-0.00230694
-0.03674762,-0.05230865,0.00252741,0.02052346,0.02054601,-0.01683127,-0.00346409,-0.02486358,-0.00441152
0.00065318,-0.02348207,-0.00548672,-0.03356442,-0.00035058,-0.04000238,0.06894202,0.09151448,0.05231725
-0.09065779,-0.04386754,-0.03999816,-0.01213684,-0.01642460,-0.00680081,-0.00673960,0.00219249,-0.00584342
-0.01352307,0.01579105,-0.02042414,-0.00213612,0.04248304,0.02930598,-0.02382307,-0.05025982,-0.05715998
-0.01154234,-0.00838203,-0.00786052,0.00155197,-0.06157039,-0.03811274,0.00899992,-0.04295136,-0.09056401
0.08847284,0.01900832,0.01004242,0.02183617,0.03592581,0.01818594,-0.05306081,-0.06895415,-0.05129721
-0.02731621,-0.03517453,0.00712905,-0.04945762,-0.03683762,-0.01252720,-0.04592052,-0.01908696,-0.06266294
-0.04319756,0.04047235,0.00585674,-0.04676773,0.00336214,-0.01742852,-0.11114050,-0.04694139,-0.03482280
-0.06830224,-0.04616295,-0.03231023,-0.03455005,-0.02262384,-0.00674834,-0.04733606,-0.08298603,-0.01366545
0.00059468,0.00928369,-0.01094081,-0.00750921,-0.05434689,-0.02145213,0.19377473,0.18244112,0.15431032
-0.00414344,0.06937296,0.04879153,0.00728279,0.01501132,0.01552868,-0.02225674,-0.03607267,-0.00365428
-0.01404553,-0.00892828,-0.04845552,-0.01111890,-0.02787152,-0.08148094,-0.00165626,-0.02874701,-0.04720807
-0.06907626,-0.03555772,-0.05384085,-0.03412639,-0.06000799,-0.04004647,-0.01704210,0.02404003,-0.04363804
-0.00520506,0.00520106,-0.02952802,0.01619217,-0.01022374,-0.02050806,0.05863150,0.07362745,0.08815335
0.01572155,0.01992046,-0.02184053,0.03326287,-0.04048325,-0.03980300,-0.06013073,-0.05689986,-0.06566335
0.03104288,0.00928882,-0.05660192,0.01328997,0.01325515,-0.01180008,0.04362635,0.01388787,-0.01630511
-0.03424686,-0.01024691,-0.06059891,0.02670176,0.00224087,-0.04723300,0.01678206,0.00662598,-0.00439846
-0.01375700,0.01041226,-0.02420513,0.02164618,0.04742182,-0.00474839,-0.00446275,0.10002173,-0.02493295
0.01954949,-0.01627987,-0.00139907,-0.00462381,-0.02298676,0.00223077,0.07066104,0.02134483,0.05072648
0.01262795,-0.00025375,0.00014673,-0.00678277,-0.01077454,0.05193980,0.00075520,-0.04119368,-0.01553539
0.05613420,0.00546872,0.01788202,0.06112171,-0.01559710,-0.02174472,0.04684074,0.00124765,-0.04605281
0.01001184,-0.01981134,0.01751812,-0.02637643,0.00167436,-0.01341321,-0.01609356,0.05106858,0.04046606
0.01319945,0.05927811,-0.07268370,0.00174589,0.05506234,-0.00386901,-0.01604957,0.01860130,0.00740584
-0.06683773,0.01675694,-0.00646731,-0.02698033,0.00959931,0.01423845,-0.05938309,-0.06235684,-0.09092864
0.01394017,0.00103396,-0.00083375,0.07614471,-0.05654045,0.04377167,-0.06496695,-0.08663266,-0.06071360
-0.01409590,-0.04028894,-0.04461185,-0.03304579,0.00767044,0.00117969,0.03877822,0.05288406,0.01848754
-0.06670745,-0.11566468,-0.06970766,-0.02500474,0.12334008,0.07010744,-0.02950670,0.04926798,-0.02748538
-0.00018912,0.00180987,-0.03415790,-0.01627119,0.00423785,0.03822865,0.04707062,0.02654601,0.02160744
0.00213161,0.03847908,0.05448862,-0.07469096,-0.06111428,-0.06633171,-0.08404917,-0.05686391,-0.03632252
-0.03181321,0.01606510,0.05267875,-0.05438854,-0.01218907,-0.01373954,-0.03013047,0.01094669,0.03380622
-0.00742230,-0.02123224,0.05861115,0.03405777,-0.03666113,-0.02132176,0.02794889,0.03054827,0.03348584
-0.01117744,-0.00217225,-0.07182840,0.01308602,-0.02101529,0.00534772,-0.06434576,-0.06118249,-0.03241755
-0.04258692,0.00270486,0.00495105,-0.01604303,-0.01738824,0.03163390,0.02539992,-0.04789075,-0.05551463
-0.06403147,-0.06855846,-0.04292936,0.02415852,0.00950096,-0.00773172,0.03261041,-0.01492928,-0.00609679
-0.02841546,0.05771203,0.04673230,-0.01929846,-0.00188883,-0.03171570,0.02874761,0.04642262,0.02950659
0.01099883,0.00525982,0.04943300,-0.02968166,-0.05575541,-0.04216851,-0.03733966,-0.07685914,-0.08893831
-0.00891671,-0.00152207,0.04388129,-0.03279248,-0.02909345,-0.03848896,-0.04067733,-0.01229064,0.00275642
-0.02411782,0.02301644,-0.00490143,0.09031674,0.01198658,-0.00706303,-0.09089491,-0.08744153,-0.02436835
0.09528761,0.01646698,-0.05824519,0.01700194,-0.01033258,-0.01418569,0.06537867,0.01148654,-0.03777708
-0.07995611,-0.02058110,-0.00063316,-0.01837472,-0.04025843,0.00919216,0.08420514,0.07464650,0.02161120
0.06817681,0.02788004,0.01237862,-0.00182516,0.05492197,0.02273203,-0.11318402,-0.01712870,-0.02056422
-0.05019141,-0.04058691,-0.00172860,0.00363783,0.04135180,0.06754921,-0.06249033,0.00526287,-0.00475494
0.01210567,-0.01846660,-0.00130834,-0.04589669,-0.06501659,-0.02881347,0.00934301,0.01352885,0.02208545
0.02732117,-0.00701351,0.01575035,0.05761559,-0.00026981,0.00023583,0.02356093,0.01702286,-0.00514565
-0.03083130,0.02268170,-0.00124428,-0.04037135,-0.00359959,-0.06700019,0.05595484,0.06070386,0.00977392
-0.00347116,0.01683567,-0.03167634,-0.00090565,0.02789205,-0.03961870,-0.03407473,-0.00536787,-0.01080064
-0.03414926,-0.05263838,-0.01119395,-0.02262306,0.04018238,0.00086965,0.01648265,-0.02213037,0.00554455
-0.02228053,-0.02087198,0.01737006,0.00050587,0.00049080,0.00280878,-0.00126764,-0.00961610,0.03657177
-0.04582541,0.01988512,0.02444093,-0.02387712,0.03441609,0.07891005,-0.03903204,-0.00318091,-0.06325699
0.01109809,-0.05659617,-0.01537824,-0.01252445,-0.04191731,-0.02275413,-0.00089973,0.00656488,0.01961997
0.02109520,-0.04278324,0.03080175,0.02973995,-0.01361538,0.02871827,0.03194508,0.05449196,-0.03931737
-0.06570507,-0.04959674,-0.02642417,0.02117985,0.00919892,-0.00205558,-0.03616179,-0.01202098,0.01508262
-0.00052822,-0.04000730,-0.00429258,0.01766582,-0.04785343,-0.00189052,0.03885880,0.01537060,0.03494148
0.00937888,0.01460484,-0.00439116,-0.03582725,0.02989062,0.01387882,-0.05533859,-0.03726759,-0.00708832
0.03879701,0.00917951,0.00131904,-0.02689167,-0.01991487,-0.01378301,-0.02078691,-0.05480685,0.01033541
0.01464770,0.03076632,-0.03631375,0.07491063,0.03576736,-0.00475429,0.05334099,0.03495383,0.00235535
-0.03649527,-0.03107472,0.02125682,-0.00497860,-0.03877090,0.02076240,0.01255216,0.04812575,0.06209007
-0.00415971,0.03619300,-0.01026312,-0.04458427,-0.01234911,-0.05819304,0.00516246,0.02363098,0.03665168
0.04532408,0.00814775,0.01147794,-0.00116916,0.00015983,0.00074816,0.14995375,0.04459387,0.03331890
-0.05955325,0.05504266,0.08453371,-0.06155228,-0.03734206,0.01345614,0.00600005,0.00300362,-0.00418588
-0.01148701,0.01031401,-0.04111145,-0.03243475,-0.02527683,-0.05219336,0.00761565,-0.00525150,-0.03436332
-0.03705722,0.00334226,0.06735280,-0.01920425,0.00006987,-0.02636338,0.03973209,-0.01449700,0.02711715
-0.00192839,-0.05819442,0.01154045,-0.02567105,-0.01541978,-0.02642545,0.07102721,0.02803199,-0.05001258
0.03143190,0.07969948,0.08316353,-0.01450613,-0.04301938,-0.05643164,0.01934326,0.00576488,-0.02248301
-0.02878235,-0.03782151,-0.03139983,-0.00735861,0.01981253,0.01006649,-0.03854115,0.00521260,0.05852905
-0.03367849,0.01572703,0.07934798,0.00871571,0.01918008,-0.01420423,-0.03810047,0.00313616,-0.00631456
-0.04277067,-0.03995789,-0.00983376,-0.01336138,-0.02719019,-0.00891652,-0.00762055,0.00451501,-0.01899876
-0.01244571,0.05336012,-0.00687945,-0.00097094,0.00524691,-0.02169198,0.01576744,-0.01922358,-0.03574762
0.03488699,0.01327917,0.04547935,-0.06333762,0.02919002,0.06857350,-0.02763031,-0.01922337,0.01440563
0.00596495,-0.01115460,-0.03710838,-0.01937215,0.00874382,0.00162281,-0.03931855,0.06505077,-0.00272490
-0.03525715,0.00232983,-0.07396786,-0.01097082,0.09402181,-0.02760800,-0.03417106,0.01400286,-0.00820864
-0.01745715,-0.04788978,0.02932727,-0.00930648,-0.03844355,-0.00948335,-0.07313722,-0.06736901,-0.07562317
0.00825080,0.05640066,-0.04337102,0.01604317,0.05753384,-0.03357028,0.02332731,0.02520170,-0.00538812
-0.01299183,0.00987943,0.06976967,0.00184297,0.01158830,0.05633528,-0.02829974,-0.03363022,0.00750855
0.01041566,-0.00243958,0.01389719,0.05526656,0.02849086,0.01946795,-0.05683003,-0.07364234,-0.02988893
-0.00565119,-0.00965645,-0.08519093,-0.04890795,0.01668792,-0.04426201,-0.01634854,0.00288073,-0.03622063
0.01380408,0.03690035,0.01246079,0.00324436,-0.00262573,-0.03034272,-0.05803869,-0.03811010,-0.13238479
-0.04518202,-0.00757285,-0.01188292,-0.06936030,0.01578727,0.03507878,-0.03682748,-0.01761158,-0.00823839
0.03169140,-0.00956540,-0.00110528,0.00787105,-0.07076871,0.01732360,0.01475542,-0.04225289,0.00002929
-0.03176702,-0.03347373,-0.04271881,-0.03599849,-0.02485100,-0.04669010,0.00249809,-0.02148561,-0.01708682
-0.01656900,-0.03843376,-0.03403073,-0.01558614,0.02582898,0.01296007,-0.01125103,0.07467001,0.06858834
-0.04244034,-0.01303455,-0.00489561,0.00490080,0.01154390,-0.00421184,-0.05221557,-0.01432644,0.06600026
-0.03692354,0.01491970,-0.04015872,-0.03269563,-0.00772445,-0.03689210,0.04100367,0.03405278,0.02006773
-0.04291644,-0.03198491,-0.06101181,-0.01994349,0.03872901,0.00026238,-0.01043716,-0.04286160,-0.03424332
-0.00272197,-0.05419714,-0.04714750,-0.02360550,-0.02645604,-0.01736606,0.09164566,0.07134729,0.00891938
0.00301273,-0.03395698,-0.00325486,0.00815033,0.01130944,0.00563082,-0.00033722,0.02466428,-0.03804637
0.02103697,-0.01157444,0.00033208,-0.02444333,-0.05947667,-0.04040845,0.11502917,-0.01551461,0.04956203
-0.00827861,-0.04560612,-0.01150276,-0.03407452,-0.02409190,-0.00057327,-0.05014825,-0.02369555,-0.00116931
0.02344420,-0.00579639,0.01092604,0.00209484,-0.03316321,-0.02324277,0.11035844,0.00848266,0.03789297
-0.04886590,-0.03406031,-0.10506336,-0.05287452,0.01327692,-0.05161367,-0.14032772,-0.03679609,-0.01725267
-0.02049906,0.02899596,0.03813388,0.03309108,-0.00893852,-0.00325419,-0.06016367,-0.03665186,-0.05717837
0.01491410,0.03396511,0.03961216,0.04350012,-0.00702999,0.05049202,0.01245038,-0.05341460,-0.01104190
0.01987151,-0.00573337,-0.01847440,0.03726618,0.00727334,-0.04537983,-0.00121216,0.07266064,0.09034789
-0.02581141,0.01343603,0.02931387,-0.00023875,-0.00931500,-0.02193068,-0.02880637,-0.03701011,-0.05194926
-0.01253280,0.01421130,0.00844182,-0.05864153,-0.01277394,0.00539387,-0.00723030,0.03532853,0.06694854
-0.05966974,-0.07303006,-0.00762631,-0.02055806,0.00502632,0.03306889,-0.04237779,0.00573646,0.06978997
0.02889529,0.01636438,0.01644302,0.04840174,-0.00875324,0.00562315,-0.01979807,0.00665528,0.00979393
-0.01213781,-0.02360515,-0.05813929,0.00704072,0.04893278,-0.03234696,-0.00219262,0.04513128,-0.05912391
-0.00173964,-0.02041749,-0.01856893,0.04798426,0.01344469,0.00258432,0.00839388,-0.00881326,-0.05319024
0.00902194,-0.01590984,0.04899168,-0.00536059,-0.00310873,-0.01157597,0.10814197,-0.03545596,-0.05123653
-0.04344023,-0.03209034,-0.00701285,0.02234165,0.01377535,0.01320264,0.00462515,0.02758805,-0.00572073
-0.02986900,-0.04290280,-0.03906732,0.05678549,0.00077110,0.00784910,-0.03700191,-0.07607413,0.00372750
-0.00651873,-0.07241919,-0.08742509,-0.03524013,-0.05874437,0.00035598,0.03285758,0.08551341,0.12786326
-0.02521438,0.04075923,0.02801722,-0.07997628,-0.02215648,-0.00254479,0.01564600,-0.00038725,-0.01918554
-0.03170566,-0.02640224,-0.00878737,0.02804950,-0.01222084,-0.00059783,0.00520754,-0.01586783,0.02284245
-0.01417196,-0.05068178,-0.01847399,-0.03147890,-0.02079075,0.02376703,0.00723962,0.05258043,0.02614095
-0.00726281,-0.01434808,0.01436213,-0.01117651,0.01855998,0.01047415,0.00822997,-0.01130392,-0.00328920
-0.12300136,0.01356758,-0.01285086,-0.05380796,-0.00106008,0.03367252,-0.06159786,-0.02212029,0.01359880
0.01555053,-0.01432070,-0.00393910,-0.02785733,-0.05225611,0.00926127,0.02568575,-0.00120754,0.00233178
0.01584212,0.02546762,0.01058731,-0.03576811,-0.04284864,-0.03343523,0.00876928,-0.01441079,-0.01292169
-0.03790518,-0.02523912,-0.10494944,-0.02934254,0.00170805,-0.00257080,0.03034872,0.02061991,0.00270873
0.06108471,0.02884431,-0.01987250,-0.00121839,-0.01411589,-0.00718531,-0.00858582,0.02588960,-0.01593033
-0.02207988,-0.02452120,0.01203904,-0.05005050,-0.03423169,-0.03139908,0.02469837,0.04232446,0.03613039
0.01760353,0.01403932,-0.03834699,-0.00506777,-0.00569685,-0.04166959,0.00269302,-0.04172996,-0.01998427
0.03285956,0.00135685,-0.08100200,0.04748685,0.00110767,-0.02679899,-0.02129413,-0.00701100,0.04835290
-0.01836896,-0.03281665,-0.05377268,0.04105767,0.00432133,0.06056935,-0.00943923,0.05582641,0.05320824
-0.00964478,-0.05398365,-0.02795347,-0.00025502,-0.01245032,-0.03891844,-0.00275227,-0.03506617,-0.02516206
-0.04441234,0.01508501,0.04686725,0.03147081,-0.00893071,0.03058074,0.05748272,-0.05292484,0.00561187
0.02019277,0.12912014,0.03092687,-0.07316211,0.05863174,-0.02030994,-0.00073514,0.07772562,0.00347210
0.05529034,0.04404054,0.00512317,-0.01037152,0.02895647,-0.01341557,-0.02720709,-0.01536159,0.04298423
-0.04895591,-0.00486369,-0.05420052,-0.03735964,-0.00178599,0.02313414,-0.06494282,-0.06221252,-0.03285943
0.00961683,-0.01507920,0.06020676,-0.04319803,-0.04035421,0.06877911,0.01247402,0.00355737,0.04522532
-0.01562278,0.01629041,0.04899840,-0.00869622,0.03572366,-0.00135941,-0.07065508,-0.02978798,-0.01790744
-0.00746096,-0.02307237,-0.04563112,0.04675298,-0.01987731,-0.01486146,0.10250866,0.03361255,-0.01631339
-0.08348044,-0.01214414,-0.00698022,0.00646621,0.04901285,0.00896466,0.02658151,0.01018837,-0.02955268
0.01306760,-0.01883902,-0.03650803,0.05013843,0.01159090,0.02668396,0.02613784,0.00504427,-0.01353348
0.03291145,-0.00572611,-0.02028091,0.03739667,-0.03789828,0.00028987,0.00800070,-0.03230302,0.00744671
-0.01538621,-0.03704712,-0.04200568,-0.03175531,-0.07304090,-0.02072112,-0.04482693,-0.02257803,0.09928644
-0.01025694,0.00403690,-0.07722576,-0.04300308,0.00003247,-0.06854576,0.00236813,0.01191492,-0.05677666
-0.05796953,-0.02549384,-0.02665131,0.00558434,-0.00436896,0.01039960,0.05162007,0.04779777,0.06277810
-0.03728292,0.02131682,0.00215446,-0.02059050,-0.00174908,0.00065235,0.05497438,0.05680261,0.04391332
-0.05013185,0.00819859,-0.02103516,-0.00929677,0.03839520,0.03978857,0.01202663,-0.05639359,-0.01521710
0.01401312,0.01512562,-0.00041683,-0.01628346,0.00090367,-0.02037686,-0.10795020,-0.03269928,-0.02303864
0.00064658,-0.02444141,0.02110368,-0.00025814,-0.03846497,0.01776005,-0.03876813,-0.07200599,-0.02969050
0.04866548,-0.02133425,0.00124381,0.03223534,-0.01338837,-0.03897983,-0.01895285,-0.04636530,-0.02954690
-0.03364923,-0.03187386,0.01271227,-0.00027171,-0.07241492,-0.00981981,0.05122943,-0.04412568,-0.06381066
-0.01637089,-0.03045816,-0.01689383,0.02785926,0.00350465,0.02923705,-0.04162925,-0.04453141,-0.04308177
0.01956461,0.02026953,0.05534851,-0.04873515,-0.00146303,0.01624662,0.01611235,0.01316682,-0.00555634
0.00799258,0.03752108,0.05134978,0.02781815,0.06240679,0.03748161,0.00083550,-0.02623202,-0.03680418
0.02777913,-0.03942763,-0.04018333,-0.01455277,-0.04123635,-0.03578601,-0.03514401,-0.03481599,-0.02738726
0.01933756,0.01670119,0.00931370,-0.04638881,-0.05347145,-0.04077777,-0.01557310,0.01749929,0.03879917
0.00537777,0.00274958,0.03777821,0.02057315,0.00734934,0.04975996,-0.00415547,-0.02174220,0.01823970
-0.04136291,-0.02534875,-0.01392086,-0.00546203,-0.04599309,-0.00216328,0.00727261,-0.00419797,-0.00106278
-0.02811165,-0.01112153,0.01450577,0.01063665,0.00782801,0.02689882,0.00755981,0.00097246,-0.01158979
0.03432067,0.03021837,0.00386045,0.04900935,0.02272887,0.04214235,0.01162831,-0.01772014,0.02519920
0.00537423,-0.05262440,0.03502253,-0.00798364,-0.04280277,-0.02405712,0.01665244,0.02473097,-0.00695811
-0.04355395,-0.03223890,0.06650522,-0.00793211,-0.01432359,0.01156382,0.03812746,-0.00604752,0.00637489
0.00241278,0.03100909,0.01175869,0.03468013,0.04302392,0.01641401,-0.01216409,0.03921572,0.00965572
0.01514710,0.03457020,0.02434410,0.02288853,-0.07185393,-0.06351724,-0.06401064,-0.03783669,-0.06637616
-0.03883706,0.03406570,-0.07400654,-0.02430029,-0.02044231,-0.02021628,0.02052856,-0.03018608,0.02969939
0.01511456,-0.04359225,0.07194372,-0.01365883,0.02056625,0.04789258,0.02068865,0.05663469,0.02225741
-0.01386788,0.02183724,-0.02036998,0.02875937,0.05848819,-0.00624914,0.06162859,0.05121055,0.01807038
-0.01406654,-0.01383623,-0.01247063,0.00457639,-0.01504429,-0.00847012,-0.01367310,-0.01333652,0.00746883
0.01477134,0.00833573,0.05852982,0.00493137,-0.00728933,-0.01286761,0.00351060,0.00571511,0.01316474
0.08225022,0.01205978,0.02832546,-0.09744737,-0.06342548,-0.03758651,0.02000676,-0.00737698,0.04042777
-0.01425355,-0.01486663,0.02294900,-0.03749314,-0.06254770,0.00279322,-0.00308802,0.02624041,0.02774818
-0.03075702,-0.03797533,-0.03832030,0.01825064,-0.00442437,-0.00271469,-0.00608668,-0.01135997,-0.02235817
-0.07218011,-0.04066729,0.00720370,-0.05833113,-0.04515466,-0.00856847,0.01829542,0.01805057,0.02259146
-0.02521391,0.01052255,-0.01895023,0.00279533,0.04246449,-0.00473773,-0.01866567,0.00777906,-0.00476241
-0.05276760,-0.06970150,-0.05090112,-0.01981560,-0.00709011,-0.03558128,-0.04705543,-0.00539748,-0.00711030
-0.02953389,-0.03164598,-0.05717478,0.01175574,0.00544360,-0.05368118,0.04262701,0.04717480,-0.01812381
0.08119632,0.00198080,-0.00857495,0.02568718,-0.02689937,-0.01067327,0.03618026,0.02654693,0.06477761
-0.04562386,-0.02784971,-0.03627703,0.00246013,-0.00752059,-0.02022210,0.03194273,0.04418300,0.04044853
-0.03410742,-0.01004327,-0.05322067,-0.07025638,-0.03107477,-0.05749718,-0.00327380,0.01326756,0.00088478
-0.04291882,0.00454485,0.03142453,-0.03843413,-0.01512570,0.02719498,-0.07799969,-0.01416906,0.04642316
-0.07221910,-0.00042478,0.03826489,0.04373457,0.00356421,-0.04421182,-0.06008988,0.02988417,-0.02668496
0.00387462,-0.02506940,-0.01932305,0.00764099,-0.01664938,-0.02498545,0.01794427,-0.01293811,-0.01122484
0.00923781,-0.00173379,-0.01036570,-0.00602952,0.00523788,0.01083315,-0.03093112,-0.05251542,-0.00096386
-0.02273509,-0.03947470,-0.07456180,-0.00030263,0.03981480,0.01267547,0.04488957,0.01083734,-0.02323312
-0.04673831,-0.06993122,-0.01620259,-0.02921059,-0.05478931,-0.00416661,0.03824746,0.02104560,0.03465451
-0.00813762,-0.01059774,-0.00110679,-0.05059541,0.02112634,-0.03217682,-0.00192421,0.05522392,-0.02077116
-0.03628998,-0.01081246,-0.03366197,-0.00218503,0.04386743,-0.00327483,-0.00473464,0.02350614,-0.01411213
-0.03147973,-0.02908756,-0.01940873,-0.03332414,0.04340997,0.00866963,-0.02714477,0.00876047,-0.04713495
-0.01567768,0.00501503,0.00626911,-0.01266818,0.02832293,0.02046253,-0.00053795,0.00527647,-0.00325347
-0.08097093,-0.04793969,-0.03815153,-0.07210647,-0.03272252,-0.04643083,-0.04842727,-0.00682127,-0.01163499
-0.01438472,-0.00062588,-0.08370504,-0.02509670,0.00577600,-0.02103740,0.02906693,0.05645123,0.00370646
-0.01645583,0.00470608,0.01978634,-0.00411494,0.02265042,-0.00590938,0.02388845,0.03125555,0.03355755
0.01616195,-0.01692029,-0.00515135,0.01454635,0.05629819,0.09380367,-0.05535790,-0.00520305,0.03395821
0.02836914,0.02612369,-0.01096042,-0.00083598,0.04098289,-0.00131816,0.02036693,0.02017058,0.00989272
-0.04041812,0.03163296,0.01918324,-0.04578110,0.00232095,0.00614899,0.00032434,0.08297241,0.06635676
0.00107873,0.02599446,0.02353526,0.01614013,0.03082952,-0.00984955,0.02161995,0.00409975,-0.04679985
0.00132485,-0.01275221,-0.00052079,0.05228322,0.02127770,0.01382390,0.01586740,0.01399215,0.02654699
-0.04612228,0.01672462,-0.01172302,-0.02666499,0.02889142,0.00876157,0.02200064,0.05042088,-0.00945473
-0.00042267,0.00367836,-0.03500310,-0.00782839,0.00793227,0.02518362,-0.00257264,-0.02397109,-0.01718048
-0.03254486,-0.02121245,0.01474709,-0.03422321,-0.05618434,-0.03377253,0.03684855,0.02830424,0.00927005
0.00199037,-0.02690638,0.01659998,0.03882892,0.00979701,0.03483095,0.05169461,0.00305167,0.04356587
0.00972888,-0.00969061,-0.02236421,0.01938780,0.01092732,0.01308161,-0.01841896,-0.00144162,-0.02992254
-0.02976222,-0.05848663,-0.09263949,-0.01225469,-0.01415327,-0.08305594,0.04341841,0.02573268,-0.01859774
0.08126764,-0.01027206,0.03587506,0.05783998,0.02275119,0.01007197,0.03190261,0.01035183,0.00319782
-0.00189363,-0.05115051,-0.03378987,0.05962938,0.03190155,0.01596280,-0.03175773,0.00608928,0.03377840
0.01320425,-0.02867522,-0.03522535,0.03014389,-0.03215484,-0.03112609,0.06005355,0.05055317,0.07746890
0.02938960,0.04541593,0.01676107,0.00755524,-0.01689664,-0.01687414,0.01240038,-0.02826742,-0.01197258
0.01904804,0.01839257,0.03735671,0.03526343,0.03109555,0.03098652,-0.02692803,0.01131600,0.00971135
-0.00586849,-0.04808631,-0.01577060,0.01088765,-0.02179302,-0.01987720,0.02108193,0.05548580,0.01474261
-0.02406435,-0.02226041,-0.00771524,-0.01283009,0.00040702,0.00270360,-0.00964230,0.03903932,0.05897566
-0.01622375,-0.00019802,-0.02763601,-0.03522778,-0.04384363,-0.03467824,-0.01044396,-0.00195898,-0.00600812
-0.06186013,-0.00195690,-0.02040241,-0.04182503,0.00614871,-0.05126052,0.01609806,0.02700789,-0.04012112
-0.03368910,-0.04838713,-0.00661261,0.01332946,0.02031988,0.02153381,-0.01756155,-0.03618284,-0.04142474
-0.03071086,0.00746875,-0.02901677,-0.01516363,0.02547164,-0.02142560,-0.03284340,-0.01033816,-0.04950581
-0.03432705,-0.03243520,-0.02451876,-0.06733570,0.01006427,0.00625900,-0.01857762,0.00923409,-0.02977574
0.00155193,0.02979270,0.06655680,-0.01196762,-0.00596526,-0.00246550,-0.02734247,0.01157545,-0.02132474
-0.05561526,-0.06042616,-0.04494965,0.00046247,-0.04483093,-0.03711224,0.06589536,0.18471929,0.06373759
0.02893419,0.02357262,-0.00654007,-0.01012570,0.02267409,0.00042541,-0.02371566,0.00676189,-0.02317729
0.03967066,0.02624236,0.02651885,0.04332432,0.02053794,0.00402892,0.00976720,0.03266335,-0.01165039
-0.03050766,-0.02114665,-0.05974861,-0.05013590,-0.03507550,-0.01094464,-0.00802249,-0.01413032,-0.02842610
0.00014761,0.04527798,0.02025406,-0.00569565,0.01094610,-0.00261288,0.01090737,0.06007823,0.06305721
0.01280343,0.03611504,0.05096478,-0.00363553,-0.02871088,0.06081597,0.02131015,0.00192604,0.01857871
-0.03408537,-0.04254149,-0.00943653,0.07655261,0.06073060,0.03431106,0.02782836,0.00898867,-0.02600727
-0.02455728,0.03664834,0.03481719,-0.01003138,0.08500147,0.02687931,0.02173104,0.06601962,0.07259002
-0.05921160,-0.02504551,-0.02569323,0.04268960,0.05593388,0.02868931,0.05696916,0.04078237,0.03712597
-0.01547179,-0.04341631,-0.03732241,-0.01341368,-0.01791832,0.00885263,-0.03056560,-0.03907318,-0.02930435
0.01878412,0.00176972,0.02933886,0.02810860,0.01041275,0.04058512,-0.00039244,0.00980759,0.01367216
-0.03129550,0.00056362,-0.00548716,0.02380657,0.04647532,0.00142270,0.08652691,0.11413548,0.06332601
-0.00939064,-0.00548482,-0.03767547,-0.00516599,0.02121804,-0.02142584,-0.03693313,0.01744982,0.01170183
0.00110272,-0.03456341,-0.05350562,0.01996402,-0.01926426,0.01570087,0.06318548,-0.00336250,0.01554420
0.00708192,-0.02114528,-0.04579699,0.01888539,-0.02933603,-0.04799000,0.01003699,0.00106186,-0.04354056
0.03160433,0.03062010,-0.03486507,-0.01837462,-0.00387364,-0.01909070,-0.00310983,0.02920403,0.01721829
-0.03994250,-0.02123286,-0.01275405,0.01680602,0.04034655,0.10399226,0.07408260,0.05116998,-0.00598923
0.00954749,0.03233039,0.02408140,-0.01499202,0.01193321,0.01885294,0.01643874,-0.01168148,-0.04260179
0.00896542,-0.02312419,-0.05611103,0.04554092,0.01580467,-0.03769532,0.01719604,0.02317514,-0.00850175
0.00488259,0.00170401,-0.00141847,-0.01934600,0.00888323,-0.02247650,0.01484117,0.04058272,0.02456590
-0.04396940,-0.02771735,-0.02654235,-0.01217345,-0.01751516,-0.02123745,0.00846208,0.00323276,0.01583322
0.01053727,-0.00380868,0.02031700,-0.00570394,0.01102569,0.04302498,-0.04231708,-0.02376007,-0.05807948
-0.04996996,-0.01157589,0.00475404,0.02377696,0.02757204,0.01637935,0.00964993,0.01939588,0.02733147
-0.00644549,0.02406598,0.03492595,-0.00640751,-0.01985987,-0.01070549,-0.02573440,-0.04196718,0.00016530
-0.04912110,-0.04457680,-0.06759391,-0.01989579,-0.00448498,-0.01609097,-0.03122175,0.00892833,0.00062882
-0.04293048,-0.00972605,0.02637307,-0.04286502,-0.00331541,0.04727917,0.01407146,0.02655603,-0.00481557
0.10007606,0.02969050,-0.00707464,-0.04379540,-0.04217461,-0.00038244,0.05411102,0.01972765,-0.01072122
-0.03026087,0.01210871,-0.06549761,-0.09438784,0.01012478,-0.04888409,-0.04736065,0.00719136,-0.03001954
0.03673292,0.02659070,-0.02181570,-0.08151818,-0.04505441,-0.09314797,0.00697946,0.01306062,0.02350765
0.00654470,-0.00075481,-0.02201623,-0.03021791,-0.03744558,-0.05881687,-0.04033149,-0.01354761,-0.02134536
0.01550071,-0.02295892,0.00493972,-0.01783766,-0.08889954,-0.00035397,0.01324463,0.00042753,0.04834214
-0.01202346,0.00290226,0.00824845,-0.12634943,-0.01969633,-0.02010913,-0.09738728,0.00006640,-0.01924224
-0.02138720,-0.07529769,0.01075781,-0.00867302,-0.04328933,0.01491762,-0.01148862,-0.01105080,0.01654692
0.03503836,-0.00659413,0.06254928,-0.04923298,-0.01418708,0.01621429,0.01004013,0.03874685,0.01730942
-0.00558542,-0.01138918,-0.11055616,-0.00729713,0.01929041,-0.00745175,-0.01835669,0.04998151,0.02397098
-0.07002617,-0.05876036,0.02921750,-0.01761098,0.00616359,0.04715269,0.02299302,-0.01003960,0.03617985
-0.04736019,0.00059231,-0.01620262,-0.00682711,-0.00458399,-0.02369372,0.01842511,-0.00098099,-0.04477421
0.00319308,0.01552824,0.01710461,0.02126529,0.00710317,0.00041416,0.02092163,0.00536997,0.00255431
0.05868596,-0.00261352,-0.05024676,-0.00228544,-0.01377170,-0.03108354,-0.02672059,-0.02202594,-0.01252194
0.11508606,0.04796323,0.00764838,0.00496641,-0.00887945,-0.02030449,-0.04507209,-0.03400216,-0.02721094
-0.01993927,-0.00805349,0.02162869,-0.02846162,0.01911982,-0.02018732,0.00281532,0.00923810,-0.05512168
0.01035716,0.01679966,-0.03120673,0.03628383,-0.03183232,-0.03543349,0.01574078,-0.01254702,0.01668559
0.01421748,0.10578651,-0.07131015,0.02217854,0.03821199,-0.03463317,0.05663447,-0.00847577,-0.02418076
0.01903224,-0.01873982,-0.01286949,0.00942208,-0.01881045,-0.01555885,0.00109381,-0.00068462,-0.00478396
-0.00894115,-0.00400348,0.02661100,0.00317634,0.00959512,0.01195574,0.01297286,0.05813908,-0.02857777
0.02717074,-0.03940896,-0.02835625,0.01718094,-0.00282509,-0.01837474,0.01105078,-0.03266297,-0.03137961
-0.03820575,0.01930804,-0.06343064,0.03006389,0.02439703,-0.03097819,0.01869685,0.06979483,0.05887248
-0.00816349,-0.01384283,0.04255081,0.00847844,-0.01519892,0.03951937,0.02882730,-0.00002335,0.04870474
0.00511702,0.04511716,0.03519736,-0.02409991,0.02011507,-0.00645158,-0.00420440,0.01435196,0.02332762
-0.05652626,0.03608419,0.00976828,0.01792530,0.01386740,0.00918157,0.03222573,0.01585328,0.00810957
-0.05426728,-0.00188522,-0.00936818,-0.04234926,0.04130205,0.01548544,-0.05300867,0.06454623,0.00174421
-0.00572738,-0.01106046,0.00236547,0.01914881,0.02991780,-0.00584064,0.00805316,0.02999868,-0.02061470
0.02256957,0.00371048,-0.00159049,-0.02958553,-0.05137980,-0.05069340,0.03962949,-0.00653245,-0.04997280
0.00149230,0.00098401,0.03563228,-0.02943774,-0.06769665,-0.02350998,-0.01342147,0.01085938,-0.01626899
0.02701997,0.00193757,0.01979765,-0.03140825,-0.04752324,-0.01166777,-0.00924292,0.01432425,-0.02789894
-0.06734742,-0.07701499,-0.06436497,0.01945182,-0.01527250,0.02584679,0.02906111,0.00988905,0.01925004
-0.02511590,-0.04121054,0.03735467,0.01329831,0.00714464,0.00773007,0.02330421,0.00508057,0.05258983
-0.03740908,-0.00389178,0.01152659,-0.03400119,-0.00449875,0.00788397,-0.03097629,0.03208373,0.08131226
-0.04222372,-0.03153348,0.00596827,-0.06503709,-0.01348239,-0.01034814,-0.00934061,0.00077375,0.00528952
0.03188296,0.02985210,0.06871464,0.01021507,-0.03644802,0.01490337,0.07819678,0.01920684,-0.03087378
0.06149674,0.02203157,-0.04850645,0.02851038,0.01640852,-0.02814049,-0.03273080,-0.02268471,0.00003048
-0.04274260,-0.00595297,0.01645047,0.04991372,0.01933378,0.04667882,-0.01250346,-0.02187520,-0.02572740
-0.01958926,-0.00114504,-0.00942528,-0.00835923,-0.04975097,-0.00154197,0.00365308,-0.04712697,-0.07697550
-0.06995528,-0.03348671,-0.04469352,-0.04294633,-0.02702975,-0.01004533,-0.03842464,-0.01380574,0.00962659
0.00434350,0.01630131,-0.09687579,0.01900869,-0.00118096,0.02617831,-0.02125786,-0.04049244,0.03720550
-0.05709054,-0.01526796,0.04467687,0.00775309,0.02608919,0.05407692,-0.04167862,-0.02968493,-0.01386008
-0.01085989,-0.01496660,-0.03998489,-0.01419824,-0.03544717,-0.01941110,-0.02683629,-0.00229114,-0.00574925
-0.04611042,0.00296642,0.00150531,-0.01569705,0.00051236,-0.00875262,-0.02827202,-0.02643049,-0.03768374
-0.09289972,-0.03844709,-0.01842458,-0.01260941,-0.05851326,-0.04209404,-0.00303795,0.00329903,-0.04664041
-0.04846844,-0.05867134,-0.08732782,0.03735452,0.02810601,-0.00822881,0.03365092,0.04018022,-0.01475632
-0.00468687,0.06022527,-0.01557545,-0.04292348,0.02404286,0.01319277,-0.00878377,-0.00388993,-0.02034988
-0.03824076,-0.00377667,-0.05398067,-0.02213101,0.01581816,0.03609219,-0.02464498,-0.01310996,0.00997395
-0.02889645,0.02349857,-0.00443040,-0.00017522,0.00182920,0.07726774,0.03508925,-0.04206359,-0.00324225
-0.04141163,-0.00494436,0.00905685,-0.00694272,0.03035877,-0.04243938,0.00170720,-0.04184796,-0.05860467
-0.04026121,0.01184749,0.02479888,0.01072305,-0.01005804,0.02249405,0.01789753,0.03037238,0.04712342
-0.01674267,0.00074580,-0.01487341,0.00398848,0.02326818,-0.01609300,-0.05865183,-0.01277114,-0.07524562
-0.01977566,0.03048782,-0.01479828,-0.04170248,-0.01699532,-0.02435299,-0.01649534,-0.00238080,0.01009958
0.01991124,-0.00268694,-0.06822623,0.01429650,0.04089715,-0.00760182,0.03850935,0.06547365,0.05564234
0.03938119,-0.01565185,0.03728720,0.00120535,0.01206521,0.07250936,0.04870961,0.00749409,-0.01341801
-0.02039000,-0.01680204,0.03087344,-0.00152736,-0.02886017,0.02570269,0.04843938,0.03197993,0.02835316
-0.00166955,0.02361990,-0.06576097,0.00864827,0.06014169,0.00228198,-0.04083690,0.00633386,0.02883794
-0.04195627,-0.04131078,-0.06186958,0.06725193,0.02727231,0.01713713,-0.06420217,-0.02911326,-0.06152012
0.10700841,0.00643139,0.03606759,0.02588361,-0.04158245,0.00280910,0.08614109,-0.01255850,0.04057310
0.00805610,0.03975390,0.02278917,-0.01739844,0.04591746,0.09897751,-0.00297345,0.03943044,0.04516055
0.00331081,0.02907123,0.03135558,-0.03939996,-0.02571245,-0.01856282,-0.04305896,0.01719441,0.00700801
0.02297991,-0.01057878,-0.02746129,0.06927379,0.02840252,0.00548296,0.04705934,0.01475471,0.04137818
-0.03513790,0.02878856,0.03429299,0.02080068,0.01349874,-0.00148006,0.03121845,0.05942079,-0.01701257
-0.12522057,-0.05844869,0.02067829,-0.03741521,0.02506622,0.00875190,-0.08335647,-0.00193404,-0.01697394
-0.00956267,0.07091738,0.04335654,-0.05898775,0.00075997,-0.01916861,-0.00869491,0.03151171,-0.00521927
