0.02209809,0.02579304,0.03554929,-0.00573912,0.01398227,0.06122630,0.04094481,-0.02022563,0.03953896
-0.00260197,0.00760115,0.00924690,-0.01242088,-0.00763662,-0.02853255,-0.00518790,0.01152217,-0.02726990
0.00421602,0.00084590,0.03042034,-0.04850128,-0.05779607,-0.03865023,0.02455526,0.02693160,0.03510299
0.00350197,-0.02330187,-0.03116221,0.03902796,0.08447340,0.06915232,0.03370005,0.04986262,0.02249992
0.01416470,-0.01404912,-0.01364868,-0.02155970,-0.03449843,-0.04544779,0.00030055,-0.02199748,-0.00731507
0.01495187,0.03764844,0.00951546,-0.06988602,-0.00758186,-0.02875978,-0.06483176,0.04270605,0.00149112
-0.00050486,-0.03662214,0.00064807,-0.00185027,0.03195122,0.01522444,0.01705556,-0.02091114,-0.02577430
0.08111597,-0.05124567,-0.00442084,0.06826054,-0.04952082,0.04432191,0.08159199,-0.08099464,-0.04740081
-0.09681261,-0.06389339,-0.04289018,-0.06266751,0.04738284,0.13962887,0.01709155,0.07058953,0.01543922
-0.07549702,-0.06410316,-0.03651288,-0.04002808,0.00328573,0.04474667,-0.01841761,-0.04413756,0.03742129
-0.05086735,-0.02533989,0.01422030,-0.08984720,-0.08428094,-0.00267946,-0.07455277,-0.03513728,-0.02270182
0.01856894,0.07376218,0.04620336,-0.03645293,0.02649222,0.06778838,-0.07679277,-0.04947028,-0.04052222
0.00085443,-0.04106505,0.05827447,-0.03541481,-0.08153582,0.07032768,-0.01474723,-0.10963089,-0.04102122
-0.06427240,0.00655113,0.09899306,-0.07704953,0.04534879,0.06959020,-0.09395072,-0.00608012,-0.04830305
-0.01738237,-0.08633608,-0.01827621,0.01205431,-0.04189447,0.02603162,-0.01932642,-0.02674380,0.08804128
-0.09894706,-0.07235297,-0.04603956,-0.06427474,-0.02097272,0.02949116,-0.05188597,-0.02449528,0.01799064
-0.01928727,-0.06743567,-0.06144729,-0.03252695,-0.05862684,0.02422330,-0.01642726,-0.04084929,0.00613677
0.00632029,0.01742257,-0.03040391,-0.02776434,0.01231852,-0.01769594,-0.00071128,0.01784220,0.00507660
0.04635024,0.08170033,0.06688945,0.06174910,0.05695193,-0.01265877,-0.03920084,0.00318040,0.01496777
0.08907247,0.07852998,0.01768377,0.01089086,0.03618591,-0.00235852,-0.00858247,-0.03296979,-0.04231500
0.00146670,-0.00810373,-0.04452046,0.02605853,0.00460988,0.03390110,0.04113253,-0.03503672,-0.06531592
-0.01150763,-0.01413590,-0.04502081,-0.04869070,-0.03244938,-0.00955161,-0.02406296,0.04126473,0.00681649
-0.04487404,-0.00900719,-0.07171962,0.02626349,-0.03863488,-0.03395405,0.03618909,-0.01608812,-0.00045005
-0.05220255,0.00118437,-0.02473312,-0.05049485,-0.01245818,-0.01251075,-0.03319189,-0.00492982,-0.05225476
-0.00546371,0.00079974,0.02651345,0.04063434,0.03484765,0.07262807,0.00675402,-0.00372916,-0.03491651
-0.10553017,-0.09507042,0.00429406,-0.03105503,-0.05038017,-0.00988887,0.02196972,-0.02243627,0.04427447
0.02001000,0.01003504,0.08565240,0.05763429,-0.02252652,0.00687487,-0.02605466,-0.02827111,0.04592436
0.06455510,-0.00824762,-0.01626516,0.07106910,-0.03418749,-0.09117709,0.08072827,-0.01397826,-0.09878183
0.04915149,-0.01204674,0.00431427,0.02621418,0.00577428,0.08320020,-0.00001021,-0.05671217,0.07073822
-0.04155256,-0.01157335,-0.02730214,-0.09767995,0.01438142,-0.02810481,0.06888193,0.08662394,-0.06374444
0.10296936,0.02622730,0.00464783,0.02437345,-0.04075022,-0.05869939,0.01229265,-0.04152974,-0.03394537
0.06354132,-0.07776047,-0.02303067,0.05803834,-0.06435138,-0.00331741,0.07012785,-0.02503984,0.03106217
0.05472301,0.00812005,-0.01933873,0.01044009,-0.01685078,-0.03378798,0.03381075,0.00427360,-0.04770582
0.02862934,0.04724858,0.04268395,0.03538391,0.02916954,-0.01335734,0.04335885,0.01325431,0.01989786
-0.03055873,-0.02458991,-0.03548675,0.05578655,-0.00057558,-0.00077830,0.00927477,-0.02831044,0.00584438
-0.03061299,0.07552769,0.05241994,-0.06048853,0.04806176,0.03463747,-0.08394475,0.00602940,0.03835154
-0.02978399,0.03535979,0.05291529,-0.05964832,0.01220096,0.04291248,-0.07305276,-0.00162225,0.00608099
0.00388323,-0.00651225,0.04555523,0.01288418,0.02089813,0.02116428,-0.04581136,0.00533824,0.01093849
-0.03832733,-0.00438647,-0.01951231,-0.00262468,0.03044086,0.05337690,0.00102442,-0.00295687,-0.02425538
0.03748421,-0.01796216,0.03108285,0.04270070,-0.02539454,-0.00353604,0.07400537,0.01750396,0.07115839
0.03079782,0.02615722,0.08196120,0.06485524,0.05215241,0.03099357,-0.03794565,-0.02369738,-0.05050680
0.06353238,0.00743819,0.01372281,0.01801625,-0.02062119,-0.00538334,-0.02565005,-0.02817013,-0.00744998
0.02925234,0.00163602,-0.00358633,-0.01033834,0.02588752,0.01315861,0.04779584,0.02976134,0.09455589
0.00947046,0.02867120,0.07528654,-0.08993273,-0.07937461,-0.05444385,-0.06012873,-0.11326319,-0.09384612
-0.07342733,0.02011052,-0.00735698,-0.03854805,0.07244296,0.10772407,-0.08737312,-0.04771289,-0.04139271
0.01899440,-0.05763174,0.04571667,0.10377350,-0.01435839,0.01721517,0.06261262,-0.01134129,0.03643754
0.02666580,0.01813811,0.01777368,-0.02284402,-0.02548715,-0.03240021,-0.05782334,0.03539068,0.03871090
-0.06773483,-0.03896601,0.01826466,0.01144607,0.04936347,0.09766141,-0.06739540,-0.04625739,-0.03998493
0.01592415,-0.03042251,-0.03898157,0.01708422,0.01500120,0.05035979,0.00086314,-0.03881457,0.07428637
0.05058898,0.03348179,0.03345788,-0.02870323,-0.04032889,0.00485628,0.00364734,0.00272425,0.05255311
-0.05399426,-0.03872536,0.04484417,-0.10042300,-0.06534882,-0.01077871,-0.04178872,-0.03913333,0.00586553
0.03365680,0.00543707,-0.00598882,0.05634389,0.04691932,0.04855754,0.01836612,0.00772019,-0.00557883
-0.02220067,-0.04502362,-0.03288690,0.01053975,-0.04869642,-0.02330235,0.02100419,-0.04694701,-0.06027885
-0.03567534,-0.02575917,0.02017053,-0.02215916,-0.01818626,0.06665259,-0.03890458,-0.02762349,0.05161922
-0.02143150,-0.02649424,0.01536923,-0.05319292,-0.04827075,-0.02612583,-0.02687753,0.00293540,0.02181898
-0.04945719,0.01197583,0.01133539,-0.05398981,-0.05042674,-0.00317782,-0.07226274,-0.07186043,0.00323162
-0.01225706,0.01601296,-0.02702788,-0.04993903,0.03315339,0.00290383,-0.05286540,-0.00782041,-0.05431369
0.05350930,0.04209859,-0.00466307,-0.02453654,-0.00381511,-0.04190798,-0.00409269,-0.02562989,-0.07029071
0.00688840,-0.03664457,-0.07212640,-0.03582682,-0.05880654,-0.09224577,0.01990304,-0.03857933,-0.07621723
-0.03144979,0.02143288,0.04086640,-0.01148385,0.01767078,-0.02369556,0.02361937,0.04141400,0.03715829
0.02889444,-0.00098415,-0.00027498,0.00001745,0.01258616,0.02180366,0.03638377,0.03269988,0.03236468
0.01403204,-0.03223097,-0.00160800,0.09158416,0.02277642,0.06228660,0.03146350,-0.03333521,0.01636496
-0.03342541,-0.02736951,0.01706203,-0.01322653,-0.03597242,-0.01199514,-0.05422226,-0.05520296,-0.00258706
0.03762569,-0.00044299,-0.02505211,0.01683920,-0.01804097,-0.01123575,-0.01661018,-0.03178787,0.00062937
-0.01037022,-0.00293891,-0.03245125,0.05136674,0.01165161,-0.02159236,0.00856109,-0.02793893,-0.02679789
-0.10298164,-0.06134266,-0.00335321,-0.05329637,-0.01196395,0.01562668,0.02932588,0.01021990,0.00378820
-0.05331546,-0.06063053,0.03680631,-0.04147861,0.00396351,-0.02536444,-0.05645279,-0.05590581,-0.00874106
-0.00122157,0.03483820,-0.01636050,-0.01568593,0.01842098,0.01351734,0.03091823,0.04015498,0.04197723
-0.02239753,-0.04660805,-0.03873043,-0.01337523,-0.00684669,-0.02577940,-0.01923748,0.02030360,-0.08487400
-0.01591089,-0.01100889,0.03468940,-0.00611309,-0.04482303,0.10296816,-0.00811864,-0.04035284,-0.04243641
0.04041950,-0.08203559,-0.05205166,0.00701833,-0.06495745,-0.08887863,0.07199508,0.02335470,-0.05105067
0.00515984,0.00505417,0.03094412,-0.00642331,-0.06704595,-0.01388063,0.00123126,-0.02323421,0.01154030
0.03574021,-0.03573248,0.06727749,0.05025752,-0.06477603,0.04679229,0.09178004,-0.03175377,0.03891957
-0.06209023,-0.03218419,-0.06986568,-0.03701399,0.03105967,0.04529603,-0.04005500,-0.04450836,-0.06147605
0.10245723,0.00888571,0.06105588,0.02954661,-0.00458306,0.00886716,-0.03567951,0.06820790,0.00011233
-0.05460969,-0.00553165,-0.04082976,-0.04557820,0.04697703,0.02471669,-0.09347480,0.03976184,0.00986919
-0.11707763,-0.02142028,0.00164808,-0.11169806,0.05427720,0.00469666,-0.04507840,0.03633448,0.07898401
-0.02324359,-0.00377727,-0.07702098,0.12037835,-0.01561160,-0.04301378,0.05861128,0.03180169,-0.02783998
0.04334160,0.01173326,0.10463937,-0.02391987,-0.00734637,0.04747617,0.03503990,0.01068208,0.02883225
-0.04652983,0.03499220,-0.04829701,0.00371855,0.03552182,-0.02294678,-0.00315804,0.02277692,-0.02842143
0.05271975,-0.04297666,0.06940643,0.05974394,-0.02969655,-0.03744588,0.02929017,-0.00979546,-0.01454694
0.09951925,0.01560851,-0.02882393,0.07998644,-0.00583792,0.01253517,0.08241220,-0.03754484,-0.03385575
-0.01933043,-0.00289202,-0.01338777,0.02830257,-0.01905090,0.02336065,0.03130434,-0.00591289,0.00113291
-0.00390343,-0.04145432,-0.03918785,0.09638400,0.06107320,0.02904625,-0.09724847,-0.07579485,-0.06094123
0.00906082,0.05021954,-0.01652007,0.07657444,0.08958814,0.00659570,-0.01875875,-0.01102932,-0.03625821
0.05129695,-0.07334182,0.10844059,0.12031033,-0.05726340,0.13084258,0.06304341,-0.06488342,0.08531130
-0.05220757,0.06298935,-0.02355541,-0.01323412,0.10671486,-0.04019147,0.02207329,0.04190234,-0.05307626
-0.00016933,0.02841583,-0.02749305,-0.01725386,-0.00171141,-0.05835228,0.02859533,0.04391709,-0.00350345
0.09426171,0.04734437,0.02768002,0.04625563,0.00365814,0.01537235,-0.01146381,-0.04683448,0.02331734
-0.04837956,-0.09417526,-0.02790882,0.01725741,-0.01090306,0.00092348,-0.00665322,-0.04990372,0.01466286
0.08436053,0.02899574,0.01173076,-0.00867251,-0.03015037,-0.04448892,0.05117375,-0.00729919,-0.03042392
0.00884613,0.01214708,0.04960020,0.00390594,0.02083584,0.04344290,0.01087535,0.01147409,-0.03695004
-0.01827341,-0.04666957,-0.00255705,-0.06120049,-0.04026450,-0.02600968,-0.00212216,0.03597855,-0.03388709
0.04472484,-0.03310760,-0.00056901,0.10907764,0.00666778,0.00299216,0.09505714,-0.01364956,-0.05268459
-0.00125176,0.02280205,0.01231872,0.00267356,0.02354111,-0.03019525,-0.02093578,0.01198579,-0.02685097
0.03235509,-0.03620764,0.03782401,0.04847649,-0.03647603,0.04638974,0.04378430,-0.03689241,0.04437327
0.01794316,0.00775287,-0.02637912,0.02715341,0.04163112,-0.02664111,-0.00618786,0.00265610,-0.03075050
0.01331051,-0.03873708,-0.02094951,-0.00042448,-0.01843576,-0.03061052,-0.07534252,-0.10180641,-0.04325181
0.04376760,-0.05467285,-0.03189415,-0.01286720,-0.05323297,0.00164247,0.02101359,-0.01262419,0.04021943
-0.10457151,-0.03852631,-0.08600736,-0.02176053,0.01700258,-0.05304890,-0.02965919,0.10179795,0.05154227
0.04817266,-0.00887302,-0.06263762,0.02224264,0.01584316,-0.05824620,-0.02788555,-0.01172139,-0.07975605
-0.05226671,0.00267015,-0.02741392,-0.06136913,-0.03739658,-0.02289223,-0.10128526,-0.04155008,-0.00779046
0.03782500,-0.05629893,-0.02432873,0.01790494,-0.05075696,-0.01015197,0.17130139,0.06554993,0.03823964
0.00774453,-0.05688399,-0.12594745,0.05125695,0.02030780,-0.05452178,0.07016673,-0.00425993,-0.05873171
0.03753962,0.00303013,0.00514771,-0.02041854,-0.05116968,-0.02498636,-0.06716543,-0.07923310,-0.06950126
0.00503203,0.00419668,0.00879985,0.03940650,0.00074569,-0.01960872,0.02510688,-0.00789239,0.00240101
-0.12558752,0.08512603,-0.01401609,-0.10280556,0.09131894,0.01422304,-0.10708140,0.07056327,-0.05752131
0.00443953,0.06150794,-0.04031557,0.01288477,0.05961573,-0.00342886,-0.08839040,-0.00231128,-0.00952652
-0.01216610,-0.06209863,-0.01217746,0.08574301,0.02973554,0.02843073,0.00254105,-0.03270301,-0.02109353
-0.05197080,-0.04693499,0.03093534,-0.02897064,-0.03899560,-0.00222241,0.01651513,-0.01235040,-0.00974889
0.05687660,0.03768018,0.03081519,0.01181261,0.01363305,-0.00488600,0.00772689,0.03929330,0.04525133
-0.05021840,0.01255650,-0.02345838,-0.03818955,0.03168615,-0.03712297,-0.03830762,0.04513988,-0.03483247
0.05359668,-0.01163427,-0.02284347,-0.00839515,-0.04610306,0.00201688,0.00861504,-0.02559803,0.01545191
-0.05245723,0.02845931,0.04276308,-0.05146587,0.06299364,0.07220925,-0.08628262,-0.00522189,0.05304887
0.08166470,-0.01655478,-0.01735774,0.02838124,-0.07923803,0.00772975,0.09525950,-0.04105828,0.04644000
-0.02847493,-0.00335349,0.01987500,-0.00313410,-0.00052429,-0.00272305,0.01877801,0.00797022,0.00980390
0.02547980,0.00354019,0.01477148,-0.03290822,0.01750606,-0.02553112,-0.03078751,0.01373653,-0.02993236
-0.07076496,-0.05326123,-0.01962030,-0.02305199,-0.04525628,-0.02198317,0.06414195,0.01894313,0.02031246
-0.04866838,-0.01629390,-0.03642114,-0.02239469,-0.01758005,-0.03956834,0.00890318,0.06002847,0.01930597
0.07577144,0.03988905,0.01044641,-0.02282871,0.00119977,-0.02986526,0.06517289,0.00286056,-0.03589705
-0.05840177,-0.04810532,-0.03925886,0.07846990,0.05504412,-0.00832396,-0.03241519,-0.01572355,-0.00182126
-0.04812563,-0.02402312,0.00479269,-0.03028987,-0.05072086,0.00923441,-0.04584407,-0.00694010,0.04596352
0.09524170,0.04132486,-0.00582703,0.01225021,-0.00714869,-0.07097793,0.04591009,0.00023495,-0.02905180
0.01265664,-0.01117984,-0.07353950,0.01973082,0.07225259,0.03902516,-0.01452399,0.01327458,-0.02522209
0.03585650,0.03872628,0.01639855,0.04469564,-0.04398489,-0.05399016,0.07052089,0.02386903,0.03188603
0.05876599,0.02388238,0.07697353,0.05957726,0.00195245,0.00945177,-0.06565531,-0.04944850,-0.06895959
0.04385049,-0.08726431,-0.13527949,0.04710018,-0.02584513,-0.05012480,0.07375881,-0.00063451,-0.00037309
0.03129707,0.00342783,0.04512492,-0.02149377,-0.02120238,0.00711905,0.05997203,-0.01414691,0.01479758
-0.00721928,-0.03200094,-0.00311899,-0.02393729,-0.01855012,0.00662297,-0.02229086,-0.03317381,-0.02276531
-0.02276703,-0.05362148,-0.03189072,-0.01809074,-0.03359994,0.00322230,0.07519630,0.06707114,0.07074744
0.01815754,-0.04895399,-0.05734888,0.03698262,-0.04895676,-0.03146381,0.02032240,0.02929212,0.01931592
-0.00389711,-0.01569070,-0.01634381,-0.01484131,-0.01864837,-0.03697203,-0.01512216,-0.00236372,-0.02630560
-0.06591688,-0.05392241,-0.05305484,-0.06016873,-0.02201381,-0.04076578,-0.02570078,-0.02904184,-0.01554984
0.03955451,0.00802573,-0.02586177,0.03801507,0.03367766,-0.04205493,0.00889639,-0.03458580,-0.09624650
0.04221436,-0.01453580,-0.01858919,-0.04012429,-0.02709661,-0.02009745,-0.06298783,-0.02042743,-0.01493507
0.07128856,0.01194372,0.02847315,0.04776713,-0.00461127,0.02849683,-0.04879443,-0.03092182,0.00497038
-0.03556968,-0.02987654,-0.04519058,-0.01648319,-0.02382722,-0.03942126,0.04337427,0.00776383,-0.01036203
0.03235261,0.01811923,0.01222677,0.04878304,0.00275436,-0.00097993,0.00636800,0.03727205,0.00921211
-0.01841872,0.05598461,-0.00415454,-0.03738442,0.03174692,0.00871938,-0.05070706,-0.01990648,0.01699026
-0.02991390,-0.03331311,-0.00067685,-0.01275282,0.01658265,-0.02533489,0.03998920,0.03678418,0.00264637
-0.01282114,-0.08604231,-0.13839725,0.02951018,-0.07616910,-0.04567070,-0.01907318,-0.12515585,-0.08928441
0.02771050,0.08435518,-0.05620368,-0.05099643,0.03219564,-0.08679907,-0.05660864,0.01726976,-0.09060567
0.10252833,0.01445758,-0.05415883,0.02803406,-0.02291160,-0.00919383,-0.03212603,-0.04241150,-0.03721549
0.01205401,0.01957123,0.02258440,0.04696802,0.06044251,0.01385839,0.02856640,0.01742209,-0.00348298
-0.01010453,0.01654430,0.07504470,-0.03714177,0.03636464,0.08913735,-0.03866913,0.02096221,0.06389128
-0.01688654,-0.02917277,-0.02367228,-0.01222662,-0.02602491,-0.01686156,-0.00142059,-0.02909619,-0.01705092
-0.07305110,-0.01988133,-0.02823988,0.04659466,0.07567256,-0.02890594,0.06748854,0.07015618,-0.04290916
-0.12289575,-0.08698326,-0.02920862,-0.04611996,-0.00216992,0.01766148,-0.02675974,-0.01277133,0.01285456
-0.04803318,-0.02740520,-0.08240817,-0.01896697,-0.00511007,-0.04681987,-0.03481377,-0.02971444,-0.05049121
0.02876043,-0.02806382,0.00672016,0.03066226,-0.01290350,-0.01406771,-0.01232032,0.01966215,0.05058181
-0.04738794,-0.02399457,-0.07771657,0.00119843,-0.07085015,-0.06559352,0.10480237,-0.08859280,-0.07965705
-0.01994113,-0.01720576,-0.00892269,0.02367033,-0.01478560,0.01254121,0.04303972,-0.05201367,0.01050149
-0.04000758,0.04663585,0.10039581,-0.01150857,0.02373053,0.01270766,0.08465352,0.04657196,-0.01543579
0.03267511,0.01017290,-0.06083827,0.03250704,0.00852657,-0.02426144,0.03477225,-0.02000178,-0.01369479
0.01050521,0.05632156,0.06154493,0.00253928,0.05934251,0.03381136,-0.01725104,0.01721099,-0.00282293
0.03810698,0.02962566,0.02290282,-0.02239775,-0.04273372,-0.00729633,-0.00573202,-0.03280617,0.01718814
0.02149401,0.03961391,0.08720094,-0.09910232,-0.03749155,0.06555564,-0.00188031,-0.02661679,0.01658052
-0.09830122,-0.01394653,0.04390481,-0.05097527,-0.01882756,0.02955604,-0.05124365,-0.03414939,-0.01897218
-0.00065338,-0.04749076,-0.06040155,-0.00752360,-0.00155046,-0.05196434,-0.01241539,0.00969318,-0.00531825
0.04179789,0.02437438,-0.01897229,0.03271737,0.04400512,-0.01050184,-0.00394557,0.00731665,-0.02935885
-0.03666781,-0.04361130,-0.05655470,0.02213320,0.00120349,-0.01228441,0.03704483,-0.00147124,-0.02730153
0.00294503,0.01139930,-0.00615671,0.03198108,0.05269798,0.05417017,0.04223153,-0.00267808,-0.04908970
-0.05790070,-0.06071216,-0.03064968,0.01958725,-0.03008400,-0.00254666,-0.02983333,-0.07889160,-0.02328194
0.01491091,0.04990916,0.06252686,-0.02408334,-0.00387716,0.04699108,0.01959649,0.02048077,0.06314185
0.01904988,-0.04544172,-0.00651718,0.00757194,-0.05271795,0.04858960,0.06386765,0.01430597,0.10997672
-0.00452032,-0.06734138,-0.00942241,-0.00291601,-0.02064382,-0.05718386,0.02245093,0.03348808,-0.05843212
-0.00680174,0.04036789,0.09452253,0.01591815,0.01776986,0.03992116,-0.02967929,-0.05790268,-0.02659479
-0.02304278,-0.05104168,-0.04715719,-0.04092527,-0.02621576,-0.03310055,-0.01977806,0.04588659,0.06621059
0.02721501,0.01461226,0.04878915,0.00904830,-0.00984463,-0.00456388,-0.01254412,-0.01762594,-0.05214463
0.02393872,-0.01610503,-0.02104996,0.05085346,0.01605739,0.00819666,-0.00688332,-0.05536963,-0.08565857
0.01422135,0.01364153,-0.04368007,-0.04509828,-0.03209765,-0.03337456,-0.07034729,-0.00791614,-0.01288677
0.04524310,-0.00018390,0.03408260,0.02119535,0.09738994,0.05532357,-0.06858469,0.00633927,0.02396348
-0.04220902,-0.01131184,0.02172739,0.03483100,0.02505200,0.08638241,0.04610284,0.00049375,0.05859089
-0.01475571,0.04446934,-0.01483445,-0.02445344,0.02451119,-0.03234034,-0.09075969,-0.05019925,-0.01095445
-0.00845254,0.00007501,0.00529658,0.06021852,0.05815685,-0.02229314,0.01285693,0.03546754,-0.02188156
-0.00577810,-0.02744949,-0.03518179,0.10200519,0.00583669,0.00333167,0.10030790,0.04177356,-0.00013287
0.00870043,-0.00537529,0.00445509,0.01877589,-0.01965975,-0.06419540,-0.02810388,-0.02529385,-0.05177221
-0.03730249,-0.01358659,-0.03524129,-0.03529422,0.02509655,0.01125124,-0.02790183,0.02543730,-0.02942806
0.02134885,-0.11054464,0.01116846,0.04943129,-0.09006125,0.07989530,0.06801560,-0.06028668,0.08753271
0.00400071,0.02355189,0.00090314,0.03401411,0.04004880,0.02549771,0.01526220,0.01203135,0.01140201
-0.01128752,0.02220606,-0.05061346,-0.03523052,0.04295306,0.04717007,-0.02829503,0.04547478,0.07152172
-0.01186244,-0.03925296,0.00961028,0.04486297,0.03111338,0.04409305,0.04305185,-0.02191275,-0.01515299
0.01679434,-0.00867897,-0.04902275,-0.01468742,0.00660664,-0.02313468,-0.04025496,-0.01040976,0.00405439
0.05254009,0.01592994,-0.01697225,0.00093596,0.03814453,0.02615264,-0.03238188,0.08980658,0.08153467
0.03325130,0.01658209,-0.02509497,0.08102097,0.03198214,-0.02001447,0.08470003,0.05581503,0.00657885
0.00463580,-0.04674581,-0.00851331,0.04659364,-0.00654724,-0.03246652,0.00999548,0.01287721,-0.06762475
-0.00915057,0.01174603,-0.00314145,-0.03326904,-0.00610203,0.00275198,-0.06394527,-0.07213249,-0.07403382
0.00647557,0.00270544,0.00629650,-0.03342716,-0.00447991,0.02567570,0.03874800,0.03333228,-0.00051437
0.03311060,0.01658520,0.05182435,0.00094318,0.02282602,0.07211579,-0.01423473,-0.00909104,0.03820256
0.01858142,-0.07981756,0.00387538,0.08953261,0.02817292,0.10851935,0.08668443,0.05843982,0.02724418
-0.02245201,-0.03676522,0.00562845,-0.04039058,-0.02183114,0.04874613,-0.01600645,0.07397042,0.09701038
-0.00579385,-0.00714403,-0.00114705,-0.00099904,-0.03246290,-0.06367854,0.07443592,0.03216656,0.06147403
0.04091986,-0.02187984,0.00467283,0.04021233,-0.02645754,0.00882154,-0.00803502,-0.05602195,0.00536440
-0.03949515,-0.01214106,-0.00531850,-0.03628872,-0.00669935,-0.02318053,-0.04998493,-0.00964647,-0.04816626
-0.01765890,0.04030097,-0.01188267,-0.01189973,0.01564330,0.03574362,-0.03986428,-0.04842602,-0.02380098
-0.03302210,0.01490430,-0.03080506,-0.00716154,0.03796904,0.02405084,0.05067345,0.03213997,0.01604598
-0.00638920,-0.03653098,-0.00476338,-0.00674666,0.00136942,0.01402572,-0.00936488,0.06224743,0.03548022
-0.01241036,-0.03556278,-0.03426463,-0.00669009,-0.00927657,0.00545775,-0.02011839,0.02199559,0.02333457
-0.01472875,-0.02104161,-0.03152934,-0.04657676,-0.01548108,-0.01513392,-0.03861395,-0.02236860,0.02348942
0.01627547,0.04140006,0.01490244,0.01457052,-0.00172371,-0.00451572,-0.01329120,-0.00214666,0.03018485
-0.00266050,0.04114322,0.00884159,-0.00134776,0.07614978,0.04025852,0.02593985,0.09839421,0.04642607
-0.01124626,-0.01380893,-0.10873184,-0.02460839,-0.03143512,-0.01615472,-0.04142331,-0.02480011,-0.03619812
0.13073587,0.13330050,0.04625572,-0.01472670,-0.00219436,0.03400006,-0.03928338,-0.05067024,0.09950532
-0.10305305,-0.01620778,0.05371878,-0.11934469,-0.01000924,0.05484562,-0.15147300,-0.14017056,-0.05757541
0.02650768,0.04554628,0.01932136,0.04461344,0.01385627,0.01550672,0.09384619,-0.00414027,0.06970053
0.10422078,0.16078088,-0.01006518,0.06511903,0.11568929,0.01228420,-0.03261875,0.04226227,0.01453305
0.01927230,-0.02916184,-0.00570817,0.00247775,-0.07358449,-0.01327207,0.05990041,-0.07219440,-0.04327541
-0.06912676,-0.01554185,-0.00597344,-0.04171554,-0.01693723,-0.00665114,-0.02716010,-0.00386722,-0.00679316
-0.05207559,-0.00605120,0.00935681,-0.06868149,-0.01394715,-0.01714519,-0.02601824,0.00151330,-0.02223205
-0.04107036,-0.01522186,-0.01012478,-0.03710289,0.00441623,-0.03045578,0.01026362,0.03546613,-0.04373287
0.01510022,-0.05156484,-0.03212854,0.00925300,-0.00873343,0.01781366,0.01643483,-0.00126556,0.03714441
-0.03584185,0.01099875,0.02611687,-0.10042128,0.01359543,0.05200487,0.03598599,0.01994349,0.00317286
-0.03670271,-0.00243181,-0.03180125,0.02744853,0.04916861,0.03360263,0.07012127,0.03106354,0.03612141
-0.07207984,-0.05642457,-0.01140717,-0.00708609,-0.07219868,-0.04481988,0.02325597,-0.05751464,-0.03860622
-0.01362262,-0.06026750,-0.00542425,0.02585394,-0.04494675,-0.05662451,0.04784951,-0.03557955,-0.01374727
-0.03166846,-0.01570212,-0.05571416,-0.04058044,-0.01418231,-0.03715516,-0.07452523,-0.01062368,-0.04300295
0.04132770,-0.00110859,0.01399257,-0.00064854,0.01115259,0.04060500,-0.02031244,0.01491168,0.01234455
0.02266457,0.06219411,-0.04849552,0.04009533,0.02296988,-0.06699548,0.08741393,0.05413610,-0.03369370
0.07966676,0.01710660,-0.00427784,0.00929835,-0.00549308,-0.03089036,-0.04202195,-0.05875385,-0.03005178
-0.04849821,-0.00548248,-0.00835667,0.01426351,0.01912180,-0.01047835,0.01700260,0.01465969,-0.01717109
0.04924008,-0.02218388,-0.03555235,-0.00746154,0.00054851,0.04158294,-0.00032319,0.00338797,0.03599154
-0.02951666,-0.02875631,0.00475185,0.03271445,0.05759669,0.01274496,0.03588960,0.11109021,-0.03736861
-0.01615371,-0.00367785,-0.00660724,-0.03062407,-0.05314383,-0.06603912,-0.03885078,-0.03134945,-0.05654392
-0.02608585,0.00443935,0.06593199,-0.00278494,0.01787482,0.07127778,0.00533970,0.00473328,0.04882572
-0.04143826,-0.02110397,-0.01271536,-0.00312062,-0.00425679,-0.01281810,0.02353370,0.00438792,-0.01468871
-0.04373521,-0.02310117,-0.02330704,-0.02467456,-0.01317128,-0.00323301,0.01569489,-0.03410295,0.02103481
0.08378249,0.00961273,-0.04103297,0.02924900,-0.01992608,-0.04464831,0.02134450,-0.00446560,0.01117913
-0.02869799,-0.06098982,-0.04526101,-0.01106472,-0.03214947,0.02110165,-0.04300710,-0.02364950,0.05992724
-0.05554512,-0.00102354,-0.02538420,-0.01932419,0.04397125,0.02169827,-0.03945544,0.03024072,0.04687779
0.06668843,0.04783818,0.10875553,0.01945601,-0.03360465,0.00638810,0.01648710,-0.01658191,-0.01511600
-0.03317666,0.02349495,0.01771890,-0.06933875,0.01730636,0.03508631,-0.09349295,0.02959492,0.01140864
0.01418614,0.00981167,-0.02891576,-0.04218382,-0.00170708,-0.03599209,-0.03657100,-0.00547400,-0.01285938
0.06216643,0.06338628,0.03751844,0.07702751,0.07881255,0.02953290,0.02841320,0.04533493,-0.00682897
-0.03660094,-0.05027329,-0.02249335,-0.02521840,-0.02901843,-0.02235573,-0.03657881,-0.00951609,-0.01062441
-0.02178686,-0.02392036,-0.07911979,0.06188921,0.10012184,0.08384713,-0.04038581,-0.02447909,-0.03584502
0.02268031,0.04513833,0.00930079,-0.00731271,-0.01603986,0.00229479,-0.03847107,-0.08123147,-0.07789638
0.00909172,-0.00863406,0.02080624,0.02600722,0.02475569,0.03105619,-0.01503459,0.00621112,0.00034634
0.00163189,0.02615183,-0.02371424,0.03806138,0.01666982,-0.01771411,-0.00664232,0.01933589,0.00402171
-0.01430115,0.02397759,-0.02305990,-0.00658651,-0.00409708,-0.00405598,-0.05843111,-0.00392115,0.03416826
0.04090270,-0.01947584,-0.04253657,-0.00072122,-0.02633205,-0.05183923,0.01388368,0.00745514,-0.05614295
-0.02153803,-0.02120503,0.02940399,0.04096447,0.05158034,0.02464567,-0.00015445,0.02220870,0.02448061
0.03969646,0.03968952,0.01603170,-0.01583432,0.01905281,-0.04252639,-0.06615920,-0.02172473,-0.02318375
-0.08853453,-0.04452511,-0.11909825,-0.09020396,-0.09017642,-0.09690335,-0.07420292,-0.09052735,-0.07628091
-0.02857999,-0.00056400,0.01018413,-0.02004164,-0.00394191,0.01078051,0.02290502,0.06151063,0.07234035
-0.05072993,-0.06863147,-0.02985923,-0.07124889,-0.06616525,-0.02336737,-0.08889833,-0.04559837,0.02998989
-0.06461645,-0.07158178,-0.13139415,-0.01420923,0.01402489,-0.00617274,-0.05388541,0.00994228,0.02583332
-0.04257106,-0.03534994,-0.02060396,-0.02219667,-0.06425287,-0.03272873,0.01363056,-0.04872784,0.00044276
-0.03347332,-0.01508972,-0.00227492,-0.07236712,-0.05394840,-0.04860491,-0.08756316,-0.04845443,-0.00259326
0.01041915,-0.03669333,-0.07077376,-0.03809235,-0.04215843,-0.08001103,-0.06056286,-0.02390596,-0.08597280
-0.04069758,-0.01810531,-0.03921146,-0.01655516,0.01349333,0.01883103,-0.01552654,0.02977397,0.05752807
-0.01877936,-0.00076858,-0.03689542,0.00236538,-0.01798139,-0.05183474,0.03300457,-0.01594578,-0.04191656
-0.02436416,-0.00561919,0.01455866,0.04805213,0.04153867,0.03913574,0.08552466,0.07033694,0.02433440
-0.03893011,-0.02627522,-0.01660322,0.02742260,0.02625154,-0.00553778,0.01290287,-0.03976195,-0.05259997
0.00019955,-0.03225768,0.00061437,0.01601925,-0.05506941,-0.05211609,0.15397327,-0.01738627,-0.07046587
-0.08512706,-0.06877014,-0.11025670,-0.03480519,-0.02965688,-0.09758896,-0.04868307,-0.04147497,-0.11317116
-0.04662062,0.02085959,0.03104330,-0.06453693,-0.00822912,0.01728575,-0.03419942,0.00618872,0.07023411
-0.06675059,0.04173584,0.15454981,-0.05355806,-0.00119891,0.10342816,-0.03740761,-0.05671521,0.02784910
-0.03762457,-0.03201563,0.00168072,-0.03311304,-0.04207203,-0.01075232,-0.00995653,-0.01601238,-0.00212855
-0.00967046,-0.04386164,0.01104565,-0.01592265,-0.03368002,0.01949581,0.00423263,0.00366376,0.02449750
0.03856150,-0.00151171,0.00458937,0.03368276,0.03918134,0.02106245,0.02980840,0.02329222,0.01468348
-0.00440910,-0.02073493,0.01628260,0.02705743,-0.00415644,0.03319966,-0.01548480,0.00083804,-0.00753616
0.00240355,0.00863512,0.02107909,-0.02803760,-0.02669260,-0.00999699,-0.04338864,-0.00605060,0.00001676
0.06386099,0.03111726,-0.03773215,0.05142383,-0.04727124,-0.01069510,-0.01107119,-0.02730056,0.01060345
-0.01231576,-0.01812096,-0.02466235,0.01963533,-0.00158283,0.01222857,-0.02410758,0.01451184,0.04779718
-0.04851010,-0.01884790,0.05031203,-0.06388858,-0.04408303,0.01958731,-0.06026048,-0.05685327,-0.00520274
-0.01846753,-0.00419527,0.03214987,0.00170910,-0.01388260,-0.00513583,0.08089091,0.05283549,0.02313690
-0.08665823,0.10376216,0.02731806,-0.10443949,0.08677311,0.11693685,-0.08746679,-0.03591193,0.03338161
-0.05050048,0.00002108,-0.02565804,-0.08453052,-0.00330396,-0.04651732,-0.03407007,0.01836042,0.01110938
-0.00029523,0.01412818,0.04852658,-0.02118942,-0.01301157,0.06049149,-0.02403103,-0.03000594,0.02763074
-0.00603178,0.00526622,-0.05287240,-0.00043219,0.00882956,-0.09621782,-0.00840838,-0.00102691,-0.10381038
-0.01173871,0.01258520,0.00381027,-0.03134708,-0.03918897,-0.02179711,-0.03346155,0.03399648,0.07659319
0.00928956,-0.00041237,0.03626715,-0.05371791,-0.04840482,-0.01577165,-0.03536449,-0.05153223,-0.05819694
0.01247693,-0.01680884,0.02033576,-0.00594608,-0.03266603,-0.03391680,-0.02179710,-0.00557485,-0.05443952
-0.01778733,0.00836450,0.03437145,-0.05368862,0.00533878,0.01653222,-0.02787204,0.01547518,0.00228565
0.09062046,0.08298502,0.00270562,0.02104286,0.05443494,-0.03746687,-0.02641468,0.07032274,-0.04189714
-0.04510023,0.04934170,-0.03847784,-0.03698078,0.01717741,-0.03258097,-0.04530602,-0.05586581,-0.03081136
-0.05071089,0.01557347,-0.04357323,0.01967732,0.06513306,-0.00217110,0.05475373,0.05213411,0.03967599
-0.03297910,0.03589029,0.03151057,-0.03608599,0.01377911,0.02615769,0.00128445,0.05053423,0.02063796
-0.06071272,-0.00669428,0.01669712,-0.03441701,-0.01818736,0.04446273,-0.06378767,-0.02822614,0.06090821
-0.01371381,0.05253024,0.02532731,-0.03272967,0.01918798,-0.01589354,-0.00383238,0.01580797,-0.01211795
0.00805538,-0.00652674,0.05839161,0.00446184,-0.00408270,0.02001481,-0.02184479,0.00602812,0.02910721
-0.05679717,-0.05471089,-0.01428386,-0.02967163,-0.02368458,0.01760379,-0.01695492,-0.00997012,0.03029273
-0.01762136,-0.02245763,0.00852447,-0.00863020,-0.02549744,0.00588294,-0.05297200,-0.01690361,-0.00785910
-0.04115960,-0.04582508,-0.03011145,-0.07170209,-0.07440082,-0.05663974,0.01907853,0.01314736,-0.00124119
-0.03541521,0.02444229,0.00279328,-0.09133467,0.03526192,-0.01031481,-0.08706214,0.01151415,0.03321249
-0.01925270,-0.03990987,0.01362847,0.02297421,-0.00021067,0.04217833,-0.01539668,-0.03094656,-0.00617247
0.02137096,0.05663263,0.01717126,0.04745312,0.02541970,-0.00968696,0.02009522,-0.01267753,-0.03442199
0.03225710,0.01452972,0.04462306,0.02725631,-0.01595240,0.01628039,0.03457270,-0.02884020,-0.01591202
-0.02928378,-0.04418332,-0.05490685,-0.00095483,-0.01317167,-0.02449262,-0.00355959,-0.01209986,-0.00739224
-0.00237017,0.03415411,0.00067811,0.03211249,0.06832024,0.02593170,-0.00853952,-0.00012525,-0.01346941
-0.00385564,-0.04018199,-0.02005713,-0.00569979,-0.04345807,0.04116677,-0.00423929,-0.03020425,0.03472834
-0.00097152,0.02590491,0.03901326,-0.00504812,0.00935775,-0.00865499,-0.02323966,0.03120374,0.04624468
-0.01916736,-0.05465970,-0.02272362,-0.00270042,-0.01986052,0.03256199,-0.03427658,-0.04497070,-0.00985830
-0.05415768,0.02861903,-0.02091752,-0.04825936,-0.00299464,-0.03044836,-0.00701909,-0.00769961,-0.02734794
-0.01846112,-0.02017270,0.00881877,-0.00767537,-0.01303869,0.01111429,-0.02044057,-0.01822425,0.05571707
0.06592342,0.00431505,-0.02987485,0.07431448,0.03385934,0.00669019,0.04526359,0.03579125,0.05387844
-0.00143952,0.03729786,-0.01622525,-0.03119559,0.00011629,-0.01416565,-0.05390821,0.01833791,0.03269534
-0.05901071,-0.03550086,-0.00029281,-0.02892372,-0.01599073,-0.01438295,0.02120751,0.04357300,0.05739262
0.01366347,-0.01126514,0.01289221,-0.01407467,-0.05238521,0.06317618,0.01870930,-0.00793253,0.07008274
-0.10956903,0.02677452,-0.02680544,-0.07900650,0.00651365,0.00765877,-0.05841509,-0.02136977,-0.01845296
-0.03730909,-0.04813941,-0.01568712,-0.01429289,-0.01788689,-0.00108319,0.00365141,0.00845919,-0.00429131
0.05234689,0.09490059,0.02906000,0.01558733,0.04350027,-0.01102206,0.05012135,0.08748752,0.01182444
-0.05973085,-0.01604766,-0.03882150,-0.02772919,0.03402212,0.00178264,-0.04806099,-0.00733278,-0.03493724
0.00087267,-0.00885380,0.00822275,-0.04809417,-0.03874539,-0.02380497,-0.00047849,-0.04394373,-0.03997603
0.00970003,0.00859955,-0.03732833,-0.00648277,0.01578586,-0.07902031,-0.00708282,0.01929885,-0.03433302
0.04185946,0.00575488,0.06853314,0.02866767,-0.03511058,0.03494222,0.06994619,0.01817169,0.09867775
-0.06619602,0.01966432,-0.01031174,-0.09179819,0.01097687,0.03262312,-0.07636641,0.01045943,0.03582850
-0.00723157,-0.00930459,-0.00634451,0.01879112,0.00092474,-0.00605848,0.01042681,-0.00000456,0.00088479
-0.01599774,-0.00852699,0.03336573,0.04298790,0.02911118,-0.00904399,0.03814728,0.03881480,0.00809252
0.00243134,0.03021991,0.05123051,-0.02830477,0.02207360,0.06212362,-0.05428278,-0.03770937,-0.00058037
0.00785416,0.03849149,-0.02696459,0.01152891,0.05788089,0.01866899,-0.03731918,0.00742802,0.00954383
-0.03864189,0.04356820,-0.02083456,0.00587266,0.03756016,-0.01571434,-0.01406674,0.03400480,0.01061748
-0.03479959,0.00526468,0.01735137,-0.01438154,0.00645038,0.01357452,-0.01639064,0.00495544,-0.00087531
0.00396870,-0.03213646,-0.05222106,0.01940037,0.00327080,-0.00970976,0.02561628,0.00366153,0.02484807
-0.02510926,-0.01227988,-0.03334523,-0.00181328,0.04605874,0.03838957,-0.01306927,-0.01772777,-0.05736565
0.00605430,0.04351286,-0.03268470,-0.03176194,0.06369501,0.03098034,-0.03210171,0.05942715,0.02136132
-0.05167091,-0.00988359,-0.01415356,-0.02921687,0.02383907,-0.02695758,-0.02327783,0.02133247,-0.01602824
-0.02810495,-0.00561606,-0.00326612,0.01214039,0.02718394,-0.03080690,-0.04576533,0.01681964,-0.03189941
-0.02474553,-0.02938202,-0.05359986,-0.03326065,-0.01807190,0.02395190,-0.04765533,-0.03192786,0.07061258
-0.05050188,-0.06542344,0.03259686,-0.01990134,-0.06482513,0.06307104,-0.01869724,-0.03092255,0.07573334
-0.01655094,0.04923344,-0.01667784,-0.00194206,-0.00494452,-0.02851813,0.01705651,0.00083633,-0.00724317
0.05300666,0.01904432,-0.01226683,-0.02045045,-0.04215861,-0.06781460,-0.02045806,-0.02247499,-0.02993877
-0.02539648,-0.02587863,0.02770494,0.05277521,-0.01225446,-0.01033580,-0.01490141,-0.01587187,0.09191113
-0.01913730,-0.03255745,-0.01172207,-0.04941444,-0.05062411,-0.05622761,-0.01727999,-0.01911736,-0.00993847
0.02228845,0.01799412,-0.03754871,0.03522439,0.05760247,0.00952169,-0.02978748,0.00917951,0.00869713
0.01764589,-0.00980649,-0.00522180,0.00295446,-0.01628324,-0.01328166,-0.01291245,0.00367061,-0.01456734
0.01345637,0.00048164,0.01707042,-0.01390338,-0.03920123,-0.00627175,0.01959062,-0.01891763,-0.01340826
0.02604054,0.04006544,-0.02176272,-0.01879976,-0.02885848,-0.04907453,-0.04613223,-0.04473512,-0.03234621
-0.02033509,0.01043136,0.00478770,-0.03816899,-0.01778569,-0.01395711,0.04275651,0.00399565,-0.01193542
0.04454810,0.03039883,0.07306021,-0.03264746,-0.10129860,-0.12675633,-0.03934642,-0.00448743,-0.00880678
-0.03992136,-0.04733669,0.00804484,0.00673970,0.02354304,0.04236694,0.03971728,0.12575719,0.07111321
0.00246562,0.00151790,-0.00492158,0.00035658,0.06511761,0.02913988,0.04154101,0.09804893,0.10203988
0.00089314,-0.00693548,0.02096909,0.06484206,0.01208604,0.03771405,0.00719970,-0.02751652,-0.03250838
0.05651274,0.06800176,0.01156909,0.04741351,0.04360626,0.03365385,-0.04549934,0.00492069,-0.04566273
-0.00049248,0.00611835,0.03240061,-0.11190489,-0.06540801,-0.04623713,-0.09011374,-0.05896436,-0.05117315
-0.02248907,-0.00938552,-0.00686767,-0.02236944,0.02264656,-0.03285501,0.01247041,0.06097450,0.00490819
0.01635375,0.01879380,-0.01920043,-0.02475807,0.01333043,-0.03642630,0.06172087,0.10382785,0.11734968
-0.05833030,0.00938425,0.01442530,0.04309978,0.05778673,0.02872732,0.03204172,0.04505808,0.00990355
0.09022629,0.07063861,-0.02893133,0.02839234,0.07296145,0.01864899,-0.02188268,0.05805751,-0.00131653
0.02614166,0.01320127,0.04868541,-0.02082973,0.06666479,0.00016021,-0.03277484,-0.01226733,-0.03182241
-0.01105042,-0.04090573,0.00823888,-0.00441974,-0.04668223,-0.03703563,-0.01348664,-0.02813487,-0.02477002
0.03865572,0.03757229,0.04667334,-0.01782170,-0.02795511,-0.00146342,-0.02651295,-0.03338563,-0.07609361
0.03711673,0.05160410,0.00782557,0.02163572,-0.01497706,-0.00488327,0.04556800,-0.03690334,-0.05873403
-0.00773890,-0.00938265,-0.00533712,0.01492810,-0.01095778,-0.00173652,0.04703596,0.07282740,0.06455085
0.05058023,0.05861140,0.05109705,0.03597886,0.06711224,0.06107039,-0.00190598,-0.02099632,-0.02327158
-0.07047726,-0.05313100,-0.03234830,-0.00967809,0.01619400,0.02227697,0.05465436,-0.02966460,0.00573380
0.00409609,0.00443986,-0.03474929,-0.01541115,-0.03532135,0.01851454,-0.03036450,0.00461521,-0.00550861
-0.02041557,-0.04326119,-0.01942676,-0.04006791,-0.06924863,-0.04589491,-0.06873126,-0.08755066,-0.03557135
0.00924432,-0.01215952,0.04309633,-0.00552016,0.00189009,-0.02864849,0.06103539,0.13454881,-0.02223407
0.01752402,0.01371690,0.07059551,-0.07036479,-0.06923028,-0.03328851,-0.01570464,-0.03388654,0.00085020
-0.02877266,-0.00538639,-0.02614990,-0.00568264,0.04573925,-0.01658564,-0.00263403,0.04371602,0.02492263
-0.00087470,0.01210288,-0.03905435,-0.03910922,0.01445120,-0.04167406,0.00725859,0.06578737,-0.00589998
0.00550173,0.02721579,-0.01126801,0.02710087,0.07700242,-0.00471708,-0.00044777,0.06223774,-0.01512147
0.04171092,-0.01362256,-0.04000189,0.02694932,-0.00555277,-0.02334482,-0.00011548,-0.04482605,-0.05778269
-0.04974099,-0.03782400,-0.08794795,-0.06159168,-0.08720259,-0.06788734,-0.05255029,-0.05767230,-0.09119444
-0.01060953,-0.00379503,0.04577646,-0.03883748,-0.01981314,-0.04419423,0.03712779,0.07093223,0.11131444
0.00595583,-0.02121114,-0.04897325,0.06640060,0.03713533,-0.01731176,0.04321599,0.04108823,0.03530638
0.02654964,0.01751554,0.00055795,0.00111766,0.00318596,-0.00771332,0.02717920,0.02133521,0.00516608
0.01735850,-0.00224590,0.01413940,0.05086742,-0.00446600,0.00155674,0.02380190,-0.02197526,-0.02926009
-0.00344488,0.02669510,0.04810104,0.00768154,0.00509677,0.03667558,-0.06399051,-0.01657787,-0.01870167
-0.01401868,0.02950465,-0.01645562,0.01343728,0.02452171,-0.01522204,0.03183697,0.00753671,-0.02593682
-0.01798685,0.00015664,0.00052491,-0.04265093,0.00030436,-0.01897436,-0.03124936,0.01408133,-0.00137867
0.11999069,0.06414926,0.02577395,-0.09805504,-0.06444608,-0.00963825,0.01268980,-0.03245910,0.00554157
-0.06030438,-0.00152347,0.01812267,-0.03451290,-0.05064784,-0.00383444,-0.09120884,-0.11870764,-0.10463516
0.04832657,0.01116663,-0.06067925,-0.06003650,-0.00344605,0.01661818,-0.05151306,0.00679440,0.03164512
0.05326142,0.01899849,0.09852467,-0.01532229,-0.01599197,-0.02648362,-0.00002010,0.01649057,0.00802388
0.00195493,0.07330663,0.03945512,-0.10588332,-0.10272043,-0.01773958,0.05000958,0.15931681,0.02712249
-0.07575508,-0.02573154,-0.02023758,-0.02143349,0.00343009,-0.01409473,-0.03055537,-0.00235837,0.01178225
-0.05460892,-0.07149480,-0.06379604,-0.01559981,-0.02026955,-0.03589684,-0.04228809,-0.01421900,-0.03789243
0.00312215,-0.02661112,0.00641069,0.01300708,0.00752055,0.06929767,-0.09922772,-0.05990709,-0.01245438
-0.00184884,-0.02835893,-0.00648740,-0.03547526,-0.02212863,-0.02637224,0.00258166,-0.00156071,-0.07217278
-0.00277230,-0.01337587,-0.01919077,0.00911697,-0.00771796,-0.00305574,-0.00142923,-0.00646843,-0.01541322
0.04458686,0.04598209,0.01756881,-0.01757929,-0.03103786,-0.00308097,0.01516466,-0.04000229,0.10700382
-0.00036160,-0.00232649,-0.05988031,0.00426227,0.00130279,-0.04060363,-0.02523939,-0.04446284,-0.05957880
-0.00219091,-0.00043087,0.02649218,-0.03305325,-0.02950813,-0.01287928,-0.03481663,-0.01105067,-0.00152222
-0.07846411,-0.01574658,-0.04166114,0.05709982,0.07841603,0.06239434,-0.03708802,0.02510065,0.00292944
-0.04953972,0.00121770,0.00291343,-0.03840425,-0.08027643,-0.09577782,-0.05499921,0.01495066,0.14701024
-0.00533055,-0.05105294,-0.01136385,-0.00848223,-0.08489390,-0.02662887,0.02245703,-0.04675429,-0.03788404
-0.01087528,0.03117387,-0.06334136,-0.00089888,0.02130930,-0.05641413,-0.00522550,0.00374159,-0.06537459
-0.10711828,-0.05097315,-0.10871203,-0.03195203,-0.00023525,0.02638694,-0.02440711,-0.00461785,-0.03383281
-0.04138055,-0.00737185,-0.01543130,-0.07188620,-0.01158784,-0.01363059,0.01579810,0.03825896,0.00818409
-0.07229690,-0.08753662,-0.03326908,-0.04137482,-0.06736680,-0.09348691,-0.02857671,-0.10139988,-0.04949293
-0.00947271,-0.01082670,-0.01052832,0.03355418,-0.03112962,-0.02555645,0.02539076,-0.00529259,-0.02041459
-0.06024085,-0.04891335,-0.01395900,-0.02386630,0.05031122,0.04577506,-0.10762133,0.02505219,0.00840002
-0.05237834,-0.05695353,-0.00782135,-0.06835042,-0.05859877,-0.02571929,-0.05855578,-0.03200290,-0.01279238
0.06705178,0.01620930,-0.02681069,-0.02912130,-0.03949590,-0.00931352,-0.08804771,-0.03935222,0.00256257
0.05829966,0.04010119,0.03130465,-0.02277933,-0.02618026,-0.02118407,-0.02758883,-0.01170015,0.01180907
0.03498627,-0.00821066,-0.05422682,0.03886328,0.05862450,0.04866076,0.01577366,0.01975364,0.01271110
0.05061271,-0.05239134,-0.00350225,0.03452254,0.00327698,0.00870392,0.05182058,0.02209786,0.00888710
-0.12680131,-0.06684816,0.02678715,-0.13613692,-0.09093649,-0.01451254,-0.10178714,-0.08835264,-0.02492194
0.00824035,-0.04164036,0.02904453,0.02660760,-0.04063478,0.00196570,-0.01599782,-0.02447012,0.02403526
0.04836508,0.03206278,-0.03562043,0.04948686,0.03843524,0.04309150,0.02622741,-0.01397298,-0.00806637
0.10074494,0.03429912,0.06558654,0.03018927,-0.01680984,0.02714748,-0.04917990,-0.01298562,0.10601884
0.00338699,0.00405053,0.06472912,0.06072138,0.03263108,-0.02752776,0.00597443,0.00223765,-0.04169150
-0.06738120,-0.08056717,-0.02845948,-0.07708587,-0.07203040,0.04308198,-0.03130630,-0.00421493,-0.03139083
0.01415087,-0.04704076,0.00763623,-0.06649077,-0.04008920,0.00703416,-0.09207219,0.01396148,0.07286903
0.00136948,-0.02849058,0.02848900,-0.03454613,-0.02980071,0.00430429,0.02841325,0.02757677,0.04310232
-0.09912295,-0.01176969,0.04113038,-0.05214499,0.02409682,0.12686133,-0.06883243,0.03309862,0.04470619
-0.05909343,-0.01986524,0.00162658,-0.03088769,0.02146912,0.02743716,0.00727975,0.02602376,0.09882399
-0.07552359,0.00294941,0.00348074,-0.06314737,0.03040971,0.03865387,-0.01955610,0.03175084,0.03226969
-0.06336109,-0.05362435,-0.03531858,-0.02938009,0.00251156,0.01983491,-0.03096193,-0.01253978,0.00611871
0.00635788,-0.00035697,0.01701210,-0.05839958,0.00876812,0.02679405,-0.04625265,-0.01287279,0.00696130
0.00365940,-0.01093747,-0.01754788,0.03024217,0.02781033,0.02588782,-0.01752309,-0.04462280,0.00414337
0.07940450,0.03117668,0.00447772,-0.01062793,0.00660964,0.00085824,-0.00738606,-0.01959881,0.00394720
0.03430233,-0.07210691,-0.00332927,0.02553849,-0.04200772,0.05855741,0.06176724,-0.01159074,-0.01085720
-0.09915604,-0.02946276,-0.03323968,-0.10748499,0.00665507,0.01362689,-0.06241041,0.04957083,0.01967675
-0.09168132,-0.02030696,-0.00790384,-0.08166135,-0.04840544,-0.01250293,-0.05933613,-0.04116094,0.03150035
-0.06831695,-0.03717271,0.00482214,-0.06261321,-0.02234784,0.01690836,-0.10050973,-0.03691430,-0.01085036
-0.01006723,0.00693682,0.03258575,-0.06809839,-0.02828094,0.02494135,-0.04215112,-0.00911071,0.04742642
-0.00274119,0.03040509,0.06793633,-0.03459884,-0.02213588,-0.00547312,-0.02182315,-0.04065898,-0.05124114
-0.05989692,-0.01333143,-0.01064716,-0.03847671,-0.00128826,0.06321978,0.03312074,0.01245779,0.10626691
0.02096434,0.00753595,0.03824938,-0.03914632,-0.00752279,0.02306496,-0.03653203,0.02702966,0.04843856
-0.02236120,-0.03640423,0.03235020,-0.08050903,-0.04968728,0.00767471,-0.03533757,-0.01975009,0.00036872
0.11074755,0.07426082,0.01258968,-0.00397829,-0.03539391,-0.04280788,0.00721518,0.01180190,0.09960846
0.02574082,0.07409173,0.08358601,0.00611358,0.01440087,0.07603315,-0.03741878,-0.03566102,-0.00587631
-0.02899204,-0.04635182,-0.01324550,-0.05982088,-0.04408490,-0.02049531,-0.05135921,-0.03858125,-0.03106287
-0.00842377,0.02371806,0.00201402,0.04687880,0.04290165,0.02457495,0.03971959,0.00721110,0.00492499
0.03056897,-0.03143311,0.03902103,0.06099097,-0.00552557,0.08109500,0.03745894,-0.05535115,0.03165474
0.02274870,0.01303076,-0.03356512,0.03855667,0.03676578,-0.01942131,0.08477744,0.05995281,0.02277300
-0.04406082,-0.02617072,0.04483669,-0.03673706,-0.02407019,0.01088593,-0.10532716,-0.02474874,0.05324338
-0.02037076,-0.04999538,-0.08095948,0.01699864,-0.02000519,-0.08898248,-0.01712670,-0.02906055,-0.07929707
-0.00669127,-0.02187953,-0.01301298,-0.00744834,-0.00607257,0.00878635,0.05378185,0.01174757,-0.00725909
-0.12876438,-0.04691624,0.01980557,-0.08519839,0.01247978,0.10219085,-0.12487018,0.00266559,0.07221188
0.07515294,0.04446117,0.00762561,0.08001113,0.03829677,-0.00877323,0.00222465,-0.01909581,-0.06276403
-0.00790328,0.00954556,-0.01621019,-0.04023670,-0.01876829,0.02235025,-0.10001562,-0.08601684,-0.04109874
0.01799785,0.00409376,-0.01975431,-0.02077495,-0.03152809,-0.06106208,-0.02527189,-0.03159709,-0.04608131
0.00639288,-0.04018138,0.05020842,0.06670690,0.01488299,0.05409972,-0.03896638,0.00519430,0.03074553
-0.12852210,-0.11208899,-0.02409111,-0.06562038,-0.07986934,0.08078048,0.02167258,-0.04948517,0.04000819
-0.03467957,-0.01936715,-0.00961537,-0.07055750,0.01438818,0.00791820,-0.03789496,0.06750634,0.00452270
0.01950456,-0.05882419,0.07960939,0.05063507,-0.04900300,0.05302066,0.05502786,-0.01396660,0.03930469
-0.06527057,-0.04352682,0.02487870,-0.00431449,-0.00309637,0.06643748,-0.02711796,-0.01491743,0.02474474
-0.01538536,-0.01143934,-0.01449997,-0.06702226,-0.06646325,-0.04548761,-0.02103500,-0.02605259,-0.01920480
0.04469322,0.03583435,0.03357962,0.04748818,0.01977996,0.01201692,0.00886004,0.00073013,-0.04076048
0.00389574,0.01381501,0.01754783,-0.00592386,-0.05502809,-0.02405497,0.06311164,0.04035513,0.03856312
-0.06427486,-0.01570215,0.02689701,-0.06452785,-0.02797139,0.03837069,-0.03289025,-0.01425219,0.08597987
0.01847476,-0.00045945,-0.00228218,0.00103943,0.01046649,0.03105044,-0.03057482,-0.01077973,0.00207403
-0.01821480,-0.01595058,0.05939956,0.02069499,0.00251284,0.02287959,-0.04663577,-0.09189498,-0.07070941
0.03304429,0.02779645,0.05983708,0.04666049,-0.00532059,0.01094680,-0.02113866,-0.04619576,-0.00714331
0.00254533,-0.02267855,-0.00845294,-0.01420170,0.00181763,-0.00147017,-0.10777017,-0.03159606,0.00458543
0.06610569,0.04913745,0.02010961,0.10773542,0.05444980,0.03015140,-0.02876587,-0.00818078,-0.00613087
-0.09127411,0.04164430,0.07864132,-0.11309576,0.02141130,0.05090384,0.01451247,0.03509904,0.02657730
-0.00251238,0.03965913,0.03339451,-0.04726028,-0.00338300,-0.00647331,-0.02533862,0.04053986,0.06609073
-0.04801045,-0.02958598,-0.00088115,-0.07242580,-0.04166348,-0.03511407,-0.01768136,0.01963645,-0.01655355
-0.08253419,-0.02266977,0.03942693,-0.03738981,0.00172019,0.02184788,-0.05160860,-0.03027023,0.01658453
-0.07910402,-0.01400690,0.05586706,-0.07749312,-0.01330993,0.06256296,-0.02039155,0.02186674,0.06697336
0.02348162,0.01995080,0.03137068,-0.02796054,0.04769223,0.11023372,-0.06291714,-0.02143921,0.04050582
-0.00379279,0.07171270,-0.03056402,-0.03729005,0.04252898,-0.03716037,-0.02606822,-0.00563445,-0.07021546
-0.01104472,0.00409223,0.07122893,-0.04408395,-0.04966665,-0.02870088,0.04850272,0.01833181,0.00131225
0.07833040,-0.05743937,0.05365154,0.15792346,-0.07855330,0.01666573,0.07877794,-0.05410001,0.03546634
-0.04100233,-0.04417837,-0.00623928,0.02088088,-0.02864313,-0.03002304,0.04760186,0.01666032,0.00690255
0.06512496,0.01507741,0.02656266,0.05576696,0.00678889,0.04315553,-0.01360449,-0.03390925,0.01183118
-0.01296298,-0.01736835,0.03243209,0.00741392,0.01786632,0.00925667,0.01569139,-0.00431936,0.03616454
0.00599250,-0.06061887,0.05839927,-0.03935770,-0.01447251,0.01405921,-0.04587963,0.03939524,0.02199266
0.03357863,0.07669773,0.07718366,-0.03387123,0.05143540,-0.01195928,-0.02384914,-0.04993383,-0.05390882
-0.00736682,-0.00315428,-0.01926822,0.01381492,-0.04638850,-0.00594594,0.01907787,-0.01113778,-0.04705635
-0.02422951,-0.00140753,-0.01455925,0.06292548,0.05847775,0.09416316,-0.04146433,-0.05799986,-0.00387131
-0.00073720,-0.02244560,-0.01659616,-0.02828652,0.00875072,-0.06932294,-0.02886481,0.06570610,-0.11810456
-0.00789937,-0.02271118,0.00306189,-0.01991866,-0.02561834,-0.00584797,0.05100998,-0.04606530,-0.07159018
0.07463659,-0.04864521,0.05756359,0.01628720,0.02636790,0.05940709,-0.02229648,-0.02567829,-0.03283898
-0.00070442,-0.01625066,-0.11592665,0.03411636,0.01478137,-0.04413017,-0.05876769,-0.09007587,0.06221341
-0.02518554,0.02261492,-0.05163819,0.07983562,0.00182097,0.00005543,-0.08449394,-0.03435389,-0.00224961
-0.04426018,-0.12142352,0.16402787,-0.02687554,-0.10915381,0.18426064,-0.01805253,-0.10222726,0.09262018
0.01490491,0.04495998,0.07549700,0.01746324,-0.02133587,0.01543631,-0.04379973,-0.07152978,-0.05617097
0.01525267,-0.01852118,0.02061159,0.02067894,-0.01972821,0.02431720,0.01490168,-0.00373762,0.01929454
0.02557707,-0.04577742,-0.06393301,0.06546228,0.02403930,0.03097582,0.00041372,-0.05748305,-0.01743041
-0.00347910,0.01474977,-0.00255068,0.07160179,0.06576622,-0.00500216,0.00445430,0.02363462,-0.01800264
0.02758647,0.00879300,-0.00558728,-0.03262908,0.00908083,-0.02219146,-0.10967709,0.01842236,0.03171902
-0.02704535,0.00803209,-0.06637549,0.00263736,0.03038098,-0.01948563,-0.00138834,-0.03262314,0.06384487
-0.01294484,0.00681338,-0.00286846,0.00192267,-0.00144640,-0.02056331,0.00967340,-0.01746801,-0.04596652
-0.03188670,0.06734650,-0.05699864,-0.06431793,0.09144673,-0.04922415,-0.03854283,0.12882572,-0.07187147
-0.13367152,0.00240788,-0.02206926,-0.01370785,-0.08232938,0.03952168,-0.04875549,-0.07219416,0.03642514
-0.01369535,-0.05499710,-0.02013085,-0.06040877,-0.07601251,0.01558920,-0.01619193,0.00688965,0.13509041
0.02339723,0.03514250,-0.01564261,-0.02475315,0.01941304,0.00447005,-0.00765018,0.03442511,0.06380536
0.01129319,0.03179615,0.00195063,0.04434276,0.02603504,0.03066271,0.02902829,0.00565038,-0.00450387
0.01482312,-0.01840918,0.00472177,0.02868462,0.01577146,0.03264092,0.01090617,-0.01723893,-0.01959284
-0.04266437,0.03116381,0.06227710,-0.06731511,-0.02164436,-0.00691326,-0.08222206,-0.02492703,0.00886406
-0.00005252,0.04686750,0.05949173,0.02406276,0.04804635,-0.02515530,0.01475025,0.06644049,-0.04061909
-0.04119613,0.00202826,-0.04676140,0.02137737,0.06950078,-0.01744204,0.01246777,0.02392683,-0.07773754
-0.01807425,-0.00420243,-0.02700686,-0.01089681,-0.00578300,-0.06703469,-0.03014322,-0.03057568,0.03916946
0.02647210,0.02923580,-0.04288072,0.00850096,-0.01482244,-0.05395043,-0.04858095,-0.06729364,-0.06642747
0.02217814,-0.00160452,-0.00235848,0.00595351,-0.01209509,0.00904047,0.00515833,-0.03697361,-0.01519878
0.07308011,0.04322897,-0.03780206,0.02127753,-0.02208798,-0.03347486,-0.03244421,-0.01356469,0.01077481
-0.03551238,-0.02307808,-0.02468578,-0.01989527,0.01190586,0.01705165,0.05144231,0.01468270,-0.00237185
0.05462980,-0.02832025,-0.07357166,-0.00411158,-0.02437549,0.00687888,0.04735909,-0.04120026,0.08618253
0.00736005,0.01058991,-0.01511616,0.00371961,-0.00667618,0.02726803,0.03727709,0.02500997,0.03842513
0.06930737,0.02985191,-0.01849600,0.02473546,0.00993826,-0.03175503,0.08088712,0.06887875,0.01427484
-0.01680846,-0.00793316,0.00479404,-0.00244291,0.03449171,0.06235461,0.00303411,0.00793368,0.00855802
-0.02549708,0.02833520,0.00978163,-0.01727963,0.02499836,0.00040509,0.01923250,0.03129766,-0.05470376
-0.01475877,0.04321012,0.05210402,0.00792408,0.01264351,0.02012758,0.02723173,-0.02000688,-0.05162136
0.02342976,0.00819952,-0.01394850,-0.05810929,-0.02690596,-0.02271159,0.01628177,0.03123276,-0.01887122
-0.02472171,-0.01778834,-0.00696716,-0.06687026,-0.03227758,0.06102755,-0.02028795,-0.05632002,0.00929795
0.01695631,0.03102197,0.01393638,-0.02676679,-0.01293417,-0.02416638,-0.02425852,-0.03395043,-0.09923362
-0.04617143,-0.03805090,0.00442453,-0.03978617,-0.02958059,-0.02839065,-0.00939606,-0.02114913,-0.02917040
-0.02421978,0.00056983,-0.06591523,-0.01404534,0.02040021,-0.03053186,-0.04723044,-0.00406930,-0.06956314
0.04715985,0.04255292,-0.03815686,-0.04141892,-0.05424722,-0.05858931,-0.02352757,-0.02373066,-0.01322589
0.00910390,-0.02058292,-0.02916452,-0.03222495,-0.01597755,-0.01220595,-0.04128990,-0.00415487,-0.00216699
-0.01344577,-0.02266815,-0.00419450,0.00500375,-0.04780415,-0.02542917,0.07347010,0.00824001,-0.01252468
-0.00108284,0.00820044,-0.00022881,0.01598947,-0.00601766,0.07055026,0.01714383,-0.02589008,0.05886389
0.00937668,0.04673720,0.04506123,-0.01694959,0.07040285,0.05585440,0.04928573,0.07763927,0.02114473
0.00110075,0.01167770,0.01239339,0.00873671,0.01021648,0.00359322,0.00179352,0.01149710,0.01159548
0.05183019,0.05611310,0.00804345,0.00027677,0.02390241,0.01026014,0.00914478,0.04023147,0.03269792
0.00089790,0.02823652,-0.00653886,-0.00352825,0.01414136,-0.02028082,0.02192399,0.02937820,-0.03956110
-0.01597690,0.01470359,0.06764384,-0.06767504,-0.05397627,0.05069972,-0.03323439,-0.04794294,0.05143668
0.04011752,0.01943798,-0.02194771,-0.02063133,-0.00235479,-0.06428231,-0.03361973,-0.02968933,0.01774022
-0.02406360,-0.02782761,-0.02578579,-0.01047250,0.04895936,0.02669203,-0.01380821,0.03913660,-0.00061814
-0.04497899,-0.02592578,-0.03469230,-0.01697049,0.04317572,0.00967857,0.03986356,0.11866362,0.01997559
-0.02303367,-0.07614414,0.02772697,0.09353322,-0.08975217,-0.00110369,0.02712438,-0.02690087,0.08417161
-0.02284624,-0.06273383,0.03473215,-0.01585461,0.00844565,0.07796708,0.00340116,0.02504529,0.08606468
-0.02816726,0.04894704,0.06181266,-0.02375398,0.03626853,0.00373611,-0.01848032,0.03647730,-0.00524269
0.03494456,0.00621695,-0.02106615,-0.00861819,-0.03009174,-0.03721911,-0.05079290,-0.07525534,-0.03557339
-0.07997729,-0.02653426,0.00176513,0.04345204,-0.00600732,0.03211527,0.10094452,-0.02135984,0.00213756
0.06332392,0.00464283,-0.06220700,0.12935647,0.04248939,0.01874149,0.09139425,0.05542962,0.04737446
0.05975492,0.06075653,-0.01016148,0.01649029,0.01888147,-0.01109491,-0.03993431,-0.02180880,-0.08241814
0.00474983,0.00316458,0.00316512,-0.02227470,-0.00805335,0.05155931,0.03448189,-0.01426248,0.03381902
-0.03671273,0.02158178,0.02013424,-0.00569054,-0.00653919,-0.02317076,0.04095574,0.01724077,0.01568613
-0.05514216,-0.05665965,-0.00465943,0.00340940,-0.01202544,0.03465005,0.03692753,0.01169486,0.03760801
-0.00101303,0.00912442,0.05489624,0.00438036,-0.02815928,-0.01609088,-0.04398510,-0.04786902,-0.02279012
-0.00684921,0.02273108,0.00357915,-0.01914482,0.04364318,0.01756900,-0.01486021,0.08216248,0.03888666
-0.02763536,0.01239678,-0.04022424,0.01455641,0.00326022,0.00396180,-0.00719062,0.00468325,0.05542259
-0.03882704,-0.01801408,0.03492125,0.01159144,0.00015853,0.01596183,0.00972678,-0.00038673,-0.04522190
-0.03816900,-0.04883147,-0.09697317,0.00012314,0.00535087,-0.02370752,-0.01959195,-0.03594013,-0.05643203
0.01262721,-0.03637794,-0.05331523,-0.02631293,-0.05812691,-0.05884403,-0.02043280,-0.00060202,-0.00190862
-0.00904297,-0.05016722,-0.03914380,0.03763022,-0.06759067,-0.05353175,0.00856030,-0.06198247,-0.03272478
0.02578153,0.02869405,-0.04544678,0.03981973,-0.02162365,-0.08056582,0.08053295,-0.01552779,-0.06164082
0.02251303,0.01299773,0.04750478,0.02252676,-0.06395059,-0.07991780,-0.01941119,-0.06762353,-0.00426049
-0.02919334,-0.06160953,0.04102801,-0.04615528,-0.09495897,-0.03165499,-0.11181554,-0.07728729,-0.00630039
0.05733491,0.03088457,0.01310735,0.00459964,0.00873169,-0.02221796,-0.01799220,0.02517654,-0.03044971
-0.00162639,0.03250529,0.09941033,-0.02570802,0.00271403,0.02854884,-0.01397563,-0.01275869,-0.03451692
-0.06014081,0.01442246,0.03315609,-0.01856725,0.02037287,0.07380201,-0.09899123,-0.02401264,0.03905563
-0.04287387,0.01419981,0.06110040,-0.00337397,0.05195546,0.10775584,-0.00100811,-0.01416435,0.04089979
0.12774786,0.01122614,-0.06809540,0.04039032,-0.01639038,-0.06575107,0.00577028,-0.00031335,-0.01791507
-0.05016692,0.00300907,-0.00771803,0.04745365,0.05831733,-0.02811332,-0.04373709,-0.04831554,-0.03131164
0.04299220,0.02486892,-0.02900995,-0.02524082,-0.02151688,-0.04609998,-0.02634408,-0.02337609,-0.03877740
-0.06228016,0.02965113,0.08324234,-0.01405705,0.04426920,0.07089513,0.02322241,0.05221193,0.01117508
0.01413442,0.00340039,0.09901448,-0.00071304,-0.01245155,0.08226471,-0.06814031,-0.00813147,0.00325723
0.03271788,0.09020818,0.06144656,-0.01511369,0.04107506,0.03641377,-0.03686953,0.02791256,0.02413202
0.01933731,-0.03446884,-0.02327018,0.04253836,-0.06302165,-0.09671288,-0.04167293,-0.07089366,-0.05307018
-0.04092367,-0.01810985,0.03385999,0.02315073,0.01757525,0.03706901,0.02027171,-0.04115756,-0.04665831
-0.03938874,-0.03541296,-0.07833130,-0.00648967,-0.00657470,-0.02766681,0.07002456,-0.03640050,-0.04651003
-0.05304286,-0.01945855,0.02488789,-0.06217166,0.02323936,0.11744232,-0.01995139,0.02187440,0.08809061
-0.00700974,-0.04536853,-0.05317301,0.00641945,-0.01554229,-0.04628580,-0.01522878,-0.01278545,-0.03075260
0.00632336,-0.04744798,-0.08602501,-0.01809851,-0.00019176,-0.03987110,0.02948416,0.00283351,-0.04363271
-0.02166260,-0.02809809,0.02370516,-0.01717625,-0.00501788,0.07096080,0.01067043,0.01638656,0.11944441
0.01323248,-0.00491693,0.00022425,0.01035268,0.02510031,0.02970258,0.03262262,0.03886712,0.04684081
-0.03974931,-0.02346433,-0.03072554,-0.03178011,-0.03059909,-0.04437615,-0.03524132,-0.04495393,-0.03549769
-0.03020902,0.00589274,-0.04990553,-0.01835604,0.00143601,-0.01467750,-0.01143993,0.00759369,0.02395784
0.02663476,0.03727616,-0.00855626,-0.04768932,0.02736845,-0.03733018,-0.04936990,0.03821553,-0.02267614
-0.01305164,-0.02401117,0.02766707,0.01280743,0.01192601,0.05104280,-0.01379729,-0.03136108,-0.02284007
0.00513568,0.00035305,-0.01163384,0.02770273,-0.00912437,-0.04348841,0.08241587,0.05495173,0.04135448
-0.03210015,-0.05023962,-0.00270614,-0.03607121,-0.01902257,0.04005683,0.00394451,0.00186549,0.10213929
0.01122016,-0.01075887,-0.02025140,0.02267529,-0.00239499,-0.04215863,0.02974295,0.01561198,-0.02695474
-0.03678467,0.03062867,0.06476960,-0.00310779,0.01353819,0.00450750,0.02871516,0.04939609,0.02645667
-0.03521337,0.01878719,0.00672400,-0.04577833,-0.00105976,-0.04070707,-0.02911458,0.00459923,-0.01863874
-0.01749933,0.01388010,0.06130306,0.00168717,0.04567079,0.07448608,-0.02890211,-0.00296412,0.00812163
-0.02317729,0.03813374,0.05324984,-0.01290348,0.05650316,0.06674172,0.01402222,0.01739749,-0.05595563
-0.05956920,-0.05466435,-0.02465123,0.02636035,0.00574025,0.01112855,-0.04715805,-0.09833620,-0.06857868
0.03029805,-0.03848398,-0.00898201,0.02505817,-0.01535521,-0.00100058,0.05846073,0.05184708,0.02250873
-0.01807751,-0.00798948,0.00255283,-0.01528192,0.01122958,0.04919601,-0.03256788,-0.04477235,-0.01473599
-0.00924520,-0.01667908,0.01993200,-0.01808898,-0.00745516,0.05220142,-0.02620991,-0.01968726,-0.01841505
-0.01590151,-0.02119558,0.01875567,0.02955236,-0.00778548,0.02114507,0.08167656,0.01141610,0.04143595
-0.00479836,0.00910014,-0.01896687,-0.03418259,-0.00740762,-0.00056208,-0.01011557,0.04497199,0.03817722
-0.01353443,-0.05720414,0.07563596,0.01583231,-0.02652481,0.05738801,0.02930744,-0.06296437,-0.04106205
-0.11154667,-0.05073789,-0.06066090,-0.03748412,0.05956632,0.00170341,-0.10685404,0.03222027,-0.03216111
-0.01836865,-0.03245139,-0.03847824,-0.02635288,-0.04442190,-0.04785368,-0.03960987,-0.04888183,-0.03527143
0.00762027,-0.00443993,-0.01196670,-0.01097066,-0.04175896,0.01674234,0.03079455,-0.00320080,0.05783688
-0.01899625,0.01049447,0.00892306,-0.00099836,0.00665186,0.05177793,-0.07021321,-0.03793361,0.03477321
-0.04595692,0.00296808,-0.03204540,0.02302424,0.04454878,-0.03238616,0.09700467,0.13025452,0.01865211
-0.05221132,-0.03315512,-0.04707634,-0.00131887,0.00179536,0.08467621,-0.02686097,0.02781942,0.06820475
0.00013353,0.03769359,0.02801864,-0.03834676,0.00891827,-0.01551825,-0.01646508,-0.01675289,-0.00622931
0.02981677,-0.03265420,-0.00638868,0.03606845,-0.02821690,-0.01174574,0.04615803,0.03851420,-0.02287602
0.01077671,-0.01239366,-0.01308744,0.03374264,0.02460273,0.01102982,0.06194151,0.03520206,0.04880693
0.03697189,-0.01035491,0.10134656,0.04326250,0.01372159,0.06270425,0.08180334,-0.01127803,-0.00207376
-0.04508493,-0.03170559,-0.06444236,0.02225750,0.03287826,-0.03422894,-0.00383860,0.04199766,-0.04561972
-0.06725231,0.05155168,0.02377607,-0.03414985,-0.03168730,-0.05746859,-0.05228629,0.09524662,0.15677857
-0.01148237,-0.03589690,-0.11964522,0.04456907,-0.00391512,-0.05984459,0.01237556,-0.00946713,-0.04684078
-0.00414097,-0.02185844,0.04267413,-0.03202704,-0.00743047,0.01122876,-0.06356222,0.01755464,0.05581166
-0.03932348,0.01154938,-0.00484078,0.01087680,0.06021788,-0.01782612,-0.01348856,0.03435490,0.00280057
-0.02996868,-0.00975941,0.01310573,-0.06428934,-0.05467238,-0.08775511,-0.07636014,-0.10134171,-0.15388420
0.05375874,-0.02046617,-0.04479863,0.03322165,-0.02350029,-0.06654155,0.04312229,-0.02084979,-0.03485089
-0.01925225,-0.02980516,-0.02878767,-0.04947193,0.00336583,0.01064104,-0.04008643,0.00235866,0.00408397
-0.05637637,0.05522797,-0.00980595,-0.06083611,0.08367895,0.02450353,0.00486901,0.10249180,-0.02022584
-0.04672920,0.03335455,-0.00850441,-0.00378227,0.02824107,0.08690596,0.06771196,0.05693269,0.00751760
0.00959345,0.04454876,0.05335826,-0.00776818,0.00667198,-0.01452709,-0.03408711,0.00999926,-0.01301622
-0.01635038,-0.01560796,-0.06223246,0.00736796,0.02508497,-0.00033569,-0.04071679,-0.01431616,-0.04204798
-0.06135917,-0.06184299,0.01449945,-0.01416186,-0.01380274,0.06381347,-0.02301112,0.08530556,0.15402476
-0.01022237,-0.00746332,0.04400148,0.03030447,0.04076463,-0.00500585,0.02774714,0.13974489,0.04582036
0.05925372,0.02713347,0.03434457,0.02131981,-0.00938972,0.02946269,0.03405288,0.03118019,0.00204266
-0.01089482,0.00195402,-0.07114128,-0.05762452,-0.01143404,-0.05908145,0.03879009,0.05299258,0.02053086
0.01556160,-0.00914493,0.00192249,0.00982444,0.02531759,0.00539787,0.00861619,-0.05687261,0.02268635
0.04804578,0.02118412,0.02861983,0.06809288,0.03190785,0.00015679,0.06194286,0.02368487,0.01080357
0.00436222,-0.01751713,0.00227513,0.01185657,-0.01154628,-0.01944412,0.06536841,0.02426069,-0.00565153
-0.08101149,0.01578797,0.06778030,-0.05892222,0.00868927,0.01352703,-0.03671994,-0.01826174,0.00310455
-0.02721608,-0.03480429,-0.05588840,-0.00648997,0.01958503,0.00746567,-0.02743449,-0.00468752,-0.08245474
-0.00032888,0.11387645,0.05760795,-0.00066200,0.16351357,0.08063845,-0.00628589,0.14084964,0.03662271
-0.02341901,-0.04164321,-0.10397509,-0.01314992,-0.03805812,-0.07981040,-0.03982513,-0.01530135,-0.03144231
-0.11273310,-0.08083287,-0.05496612,0.02726473,0.00825135,-0.00386506,-0.03934663,-0.03208984,-0.02984489
-0.03466406,-0.01342541,-0.01285995,0.00387846,-0.00273058,-0.03830928,-0.02209434,-0.02419174,-0.07056812
0.00194008,0.05896400,0.07000218,-0.00807977,0.02525802,0.06148744,-0.02791810,-0.05486742,-0.03278382
0.01182356,-0.04022770,0.01043769,-0.01762879,-0.05918741,0.00539523,-0.08025552,-0.09098984,0.02599193
-0.00032115,0.06664062,0.08259258,-0.03652718,-0.01219306,0.01424211,0.03154229,0.02898267,0.05980299
0.08015791,0.04026377,-0.04566108,-0.01951000,0.00071422,-0.03874096,0.04291023,0.05295698,0.01272725
0.12394803,0.04232898,0.09251291,0.04233890,0.02220293,0.07200800,-0.04995643,-0.04752411,0.06226161
-0.00657881,-0.04665344,-0.08285666,0.03168103,-0.00210445,0.02777791,0.07448298,0.04704388,0.04238305
0.07897139,0.04308708,-0.00233066,0.03983494,-0.00315869,-0.02947997,0.00287679,-0.01703746,-0.01848832
0.02028644,-0.05260259,-0.00332116,-0.02217822,-0.03277771,0.00909625,-0.00389625,-0.02800724,-0.00547387
-0.02578317,0.00038522,-0.01953924,0.00369316,-0.02027661,-0.01589217,0.05850289,0.02183578,0.02713037
-0.11802737,-0.06429021,-0.04152668,-0.00506031,0.00722873,0.03912043,-0.00527455,0.02339962,0.00686445
0.01845429,-0.05889744,-0.06317106,0.00225703,-0.02351898,0.00140520,0.01252477,0.01595253,0.02371074
-0.05603668,-0.02900756,-0.02737754,-0.05410707,-0.02441373,-0.01625774,-0.00891489,0.01801579,0.00138178
0.00818996,0.01646905,0.02933351,0.02535076,0.01654447,0.03747645,-0.01040624,-0.04116268,0.02825698
-0.08403841,0.03061781,0.00683490,-0.08272247,-0.00729246,0.01378290,-0.03901017,0.01380986,-0.02168874
0.04126022,0.02278995,-0.06204062,0.06985080,0.05228149,0.00867173,-0.02332569,0.00373117,-0.01925026
-0.03233473,-0.02782631,-0.12978134,0.00990340,0.01987914,-0.08180583,-0.00190665,0.01368083,-0.09868125
0.03990196,0.00363618,-0.01858984,0.00315541,0.00442861,-0.06560944,-0.01301919,0.04690354,-0.05130019
0.07259596,0.04670310,-0.03871489,-0.02328180,0.00404907,-0.01006394,-0.05878736,0.00227128,0.02463515
-0.07918829,-0.00106776,-0.03305431,-0.06706466,-0.00996485,-0.06748093,-0.07753283,-0.02954443,-0.08874270
-0.01298001,0.05821047,0.04499448,0.03997409,0.03892107,-0.00177358,0.05185047,0.06774247,0.04188116
-0.00144252,-0.03289331,-0.00818801,-0.00923920,-0.01468887,-0.00105044,0.01829856,0.02094833,0.03937665
0.01557181,0.07189462,-0.01753077,0.00885738,0.03824547,-0.03173300,-0.06486973,-0.00689786,-0.08120982
-0.04176668,0.01887034,-0.04785693,-0.00138863,0.00598862,-0.05307392,0.01393975,0.00058544,-0.02571538
-0.02728403,-0.02875303,-0.04444140,-0.01655644,-0.00525526,-0.05682687,-0.02221065,-0.02082514,-0.07203677
-0.06557571,-0.03090834,-0.03381987,-0.03455186,-0.00074416,-0.00634117,-0.00104903,0.05226212,-0.03160350
0.02299351,-0.00217584,0.04351038,-0.02475342,-0.01062263,0.04580942,-0.00705028,-0.00947556,-0.02344058
0.04914368,0.01300369,-0.03788485,0.03487276,0.03578938,-0.02508126,0.00765393,0.02417607,-0.06884269
-0.04743737,-0.01975043,-0.00425202,0.00140010,-0.01865970,-0.01329413,-0.01433535,-0.01640960,-0.00468866
-0.04851252,-0.02708955,0.08845981,-0.01345029,0.00854983,0.04378553,0.00658335,0.03179286,0.05889070
-0.05384369,-0.06204276,-0.07300550,-0.02569361,-0.01622097,-0.03201963,0.02032573,0.03238209,0.01477815
0.01581630,-0.00546039,-0.01730589,0.00582711,-0.00048616,-0.00123053,-0.04014917,-0.03185255,-0.01051033
0.00921645,-0.01195972,0.00203424,0.01336695,-0.00344986,-0.01196020,-0.02021780,-0.02843822,-0.05172623
0.00739431,0.04740625,0.06168821,-0.00703443,0.04036259,0.07461648,-0.01007627,0.01728032,0.06045328
-0.04006206,0.04869165,0.00988548,-0.02844167,0.04105597,0.00540339,-0.06328875,0.04080287,0.02206985
-0.04614471,-0.03392233,-0.05596568,0.05756569,0.04264588,-0.01714743,0.06777325,0.03550400,-0.02701760
0.02584591,0.02603776,0.03644104,-0.02558425,0.03745650,0.05334781,0.09760521,0.09148118,0.09626668
-0.05499443,-0.05883070,-0.06468662,0.03043853,-0.00102982,-0.03697578,0.02335630,-0.01846322,-0.02119872
0.00045903,0.09105094,0.00569760,0.01873659,0.12358465,0.03030966,-0.00737243,0.01959811,0.04588940
-0.01804553,-0.00707399,0.05866205,-0.03199502,-0.04667060,0.05844773,-0.02289018,-0.02332288,0.07614906
-0.04109814,-0.09140860,-0.04356508,-0.04644173,-0.05620847,0.00921039,-0.02609953,-0.01281215,0.02919690
0.00538013,-0.02777796,-0.00559039,-0.02033586,-0.03202500,-0.03401104,0.09404215,0.02642857,-0.01529514
-0.08988694,-0.02114046,-0.07513711,-0.06279580,-0.01600493,-0.02440986,0.02524257,0.01827459,0.03330367
0.10304846,0.08526786,0.00871887,0.03539393,0.03947013,-0.03453008,-0.03221336,0.00292606,-0.03153604
-0.01085563,-0.00984648,0.00089871,-0.00421479,-0.00610465,0.00311305,-0.00715397,-0.01867265,-0.01974161
-0.03110192,-0.02533657,-0.06144790,-0.01329584,-0.00378821,-0.05361158,-0.01659913,-0.01518921,-0.03378499
-0.01958579,-0.07061455,-0.04361770,-0.00294251,-0.05387575,-0.03276614,0.01916733,-0.02894346,-0.04058509
0.02508252,0.01840659,0.01937400,0.06853388,0.04739373,0.05762222,0.06753628,0.02593658,0.02778740
-0.00364554,0.01467680,0.03661310,-0.01091790,0.04633590,0.03616513,-0.00333049,0.04903109,0.03345836
-0.00572892,-0.01494225,0.01280831,0.09667075,0.00187450,-0.01056064,0.09701286,0.01835288,0.03165226
-0.01577590,-0.03275692,-0.04229072,-0.02803617,-0.01941896,-0.04489394,-0.03908050,-0.02482048,-0.02069921
0.03474460,0.03481814,0.06524862,0.00469320,0.00770010,0.05393440,-0.05883168,-0.03217437,0.00104930
-0.06083030,-0.00558962,-0.02486708,-0.01555846,-0.00029787,-0.04190828,0.03107966,-0.02929508,-0.09171301
0.04750291,-0.04710141,0.07122029,-0.00609751,-0.09365756,-0.01982536,0.01249310,-0.05101912,-0.05178002
-0.04720319,-0.06694391,0.02984691,-0.04163033,-0.07099190,-0.00450176,-0.03304294,-0.03381204,0.00892171
-0.02500468,-0.06203783,-0.04919776,-0.05888831,-0.08862831,-0.05950524,-0.01907645,-0.08537298,-0.04310758
0.05924925,0.04309447,-0.04329424,0.03329360,-0.01213411,-0.07751053,0.04168771,-0.03616897,-0.08299303
0.03374694,0.17368032,-0.11411273,0.10883836,0.30973008,-0.06329683,0.04595577,0.28175241,-0.06619073
-0.00602953,-0.01120663,-0.01868855,-0.02814482,-0.05103432,-0.05541331,0.05873099,0.00880652,-0.01370458
0.00736848,0.00311990,0.03441797,-0.03109644,-0.01014940,-0.02016942,-0.01692767,-0.00976515,-0.00414935
0.03671604,0.04040355,0.01831828,0.06124817,-0.04837586,-0.06699771,0.14361662,-0.07217993,-0.11135232
-0.00799454,-0.03256303,-0.01417544,0.04446908,-0.00215655,-0.00285899,0.02281515,0.01828262,0.01764498
0.04191269,-0.02733149,0.05464752,0.06803029,-0.04992469,-0.03520775,0.05898031,-0.04134492,-0.06106841
-0.00498804,0.03078609,0.00412212,-0.03033482,-0.01925163,-0.03555736,0.01257735,0.00587212,0.01584799
0.00030048,-0.01919192,0.01108371,0.03221884,0.04051759,-0.00948411,0.00427230,0.10303701,0.04685317
0.06579845,-0.05918778,0.02028957,-0.01789360,-0.03895090,0.00872989,-0.00812789,-0.02672172,0.02368945
-0.00099381,0.00861768,-0.08170848,0.02264856,0.04356251,-0.04087553,-0.00862318,0.01098210,-0.07362267
-0.02869195,-0.00972899,-0.01912951,0.01658726,-0.00723026,-0.00519961,0.03803346,-0.01093187,-0.02168397
0.03460659,0.00118575,0.05912777,-0.00790134,-0.08671969,0.00097179,-0.01235403,-0.09784371,-0.02666656
0.00530920,-0.02339306,-0.00598025,-0.01097140,-0.03146966,-0.00069726,-0.01555535,-0.00058713,0.01481320
0.02057322,-0.00664280,0.01333733,0.05366652,-0.04804808,-0.05113471,0.01366001,-0.13622624,-0.13664302
-0.06622867,-0.10027391,-0.08816803,-0.01663051,-0.08674775,-0.09392560,0.09929603,-0.00025947,-0.04841529
-0.07648154,0.16018070,0.01784754,-0.10281287,0.09853213,0.02312854,-0.04582048,0.01612021,0.06499729
-0.04972680,-0.02965378,0.00145732,-0.02551696,0.00868093,0.01868833,-0.03425270,0.02116486,0.05575804
-0.02495785,-0.03846773,-0.08055527,-0.00999956,-0.03730903,-0.08070112,-0.02682225,-0.02913709,-0.01878158
-0.00564373,-0.11969686,-0.02951227,0.10635076,-0.10130511,-0.03659806,0.08000831,-0.06491408,-0.00631406
0.06360590,0.04290376,0.01244034,0.05549524,0.01554999,-0.01163383,0.04124624,0.00365802,0.02582440
0.02976811,0.02521648,0.02214192,0.06315550,0.05361721,0.02131309,0.05567498,0.04391646,0.05210332
-0.10567197,-0.09642523,-0.06745668,-0.02198201,0.00239038,0.00713231,0.03908680,0.03883386,-0.00246589
-0.00920805,-0.01148295,-0.01702855,0.01830991,-0.00511438,-0.02222912,0.02364755,0.01026545,0.00621661
0.07568571,0.03727511,0.09716753,0.00127202,-0.01953608,0.10528026,0.05108587,-0.01536364,0.09784501
-0.02419589,-0.05047998,-0.07514530,-0.04335562,-0.05178074,-0.05523383,-0.04026188,-0.05413697,-0.03811508
0.07234297,-0.05104476,-0.05387646,0.09421979,-0.03483369,-0.08955697,0.10557231,0.00118791,-0.09571231
-0.04470826,-0.02570775,-0.05377239,-0.05061069,-0.03864957,-0.07126072,-0.00023237,-0.02651583,-0.06570487
0.02093288,0.05247809,0.08144807,0.00008963,0.02960068,0.09262347,0.00951408,0.00263858,0.04835235
0.02565263,-0.01838881,-0.02707546,0.03484745,0.01879008,0.00992236,0.03760621,0.03607090,0.03914824
-0.03377349,0.00832777,0.02359305,-0.01013319,-0.01278562,0.01093022,-0.01162975,-0.00252901,0.03249995
-0.04536025,-0.09107462,-0.08505966,-0.06459583,-0.09423406,-0.10892754,-0.03443773,0.00098990,-0.04079697
-0.03413993,-0.03986558,-0.00345291,-0.04701680,-0.08348162,-0.04946957,-0.05383461,-0.08735017,-0.04486477
0.02293017,0.02894546,0.01436878,0.00324894,0.00208522,-0.01113983,0.02088749,0.02969358,0.06042071
-0.00194112,-0.07152878,-0.05979468,0.05746041,-0.01589489,-0.01556274,0.01387582,-0.01790242,-0.01524180
-0.05539452,-0.02442720,0.01719172,-0.04731364,-0.04630608,-0.02577579,-0.02416785,-0.03520863,-0.02815660
0.04160316,-0.12620948,-0.07497600,0.17049694,0.00662584,-0.00774308,0.00252009,0.03953641,-0.01352213
-0.04437073,-0.02427663,0.00235540,-0.04043813,-0.01515578,0.00342284,-0.04800925,-0.01652423,-0.02258704
-0.01957904,-0.07455065,-0.02114652,-0.03285416,-0.07604230,-0.06095764,-0.05247247,-0.05210557,-0.07892862
0.03568875,0.02873044,-0.01635342,0.02197733,0.02636421,-0.00679570,0.00473090,0.00474249,-0.00967417
-0.00517790,0.07057267,0.08309419,0.00371674,0.10246027,0.07269243,-0.00463206,0.02924921,0.03401959
-0.00198455,-0.00020190,-0.01562454,0.01676732,-0.00639702,-0.03458821,0.03645835,0.00320384,-0.03198169
-0.00468612,-0.03418179,-0.02914596,0.01081778,-0.01796874,0.00142438,-0.00023091,-0.01644377,0.01222215
0.00727374,0.02155750,-0.00664343,0.01231909,-0.00057779,-0.02649461,-0.05027419,-0.03544253,-0.03342984
0.03051005,-0.00200176,-0.03023896,0.06870554,0.04298606,-0.01997642,0.05006874,0.00459154,-0.07533847
-0.00664806,-0.10100226,-0.04266776,-0.01128392,-0.11392179,-0.05237487,-0.03909099,-0.09835587,-0.07333163
0.01500062,-0.00511182,-0.03119512,0.00159247,0.03385224,0.00146565,-0.00886713,0.02478519,-0.00076536
0.01796840,-0.02734066,-0.05582608,0.04634319,-0.01306309,-0.07050736,-0.06034333,-0.03772917,-0.06789136
-0.02697105,-0.05421263,-0.03637249,0.01301214,-0.03511928,-0.02912492,-0.00303575,-0.05317335,-0.07331612
-0.01757463,-0.00358745,-0.02640911,0.02067523,0.01741917,-0.01774130,0.00251268,-0.03441327,-0.00206410
0.00430315,-0.01563831,-0.03268049,-0.00513209,-0.02838822,-0.03525363,0.03168393,-0.04609665,-0.04749161
-0.01496116,-0.03482259,-0.07263062,0.01531040,0.01177734,-0.06556644,-0.01875719,-0.01751809,-0.08663969
-0.01219019,-0.04349786,0.00577441,-0.00297689,-0.01690669,0.02900398,-0.02280287,-0.02102763,-0.02700535
0.00914563,-0.04701633,-0.02910435,-0.02073592,-0.02700685,0.00889669,0.03683768,0.02077610,0.04806050
-0.00766868,-0.02697677,-0.00646755,0.01323582,0.00122506,-0.04265548,0.04323939,-0.02223419,-0.04149249
0.01089555,-0.00737795,0.00610867,-0.01248776,0.01776592,0.05424273,-0.04097470,-0.03981091,-0.03356076
-0.04261718,-0.06373943,-0.01117530,-0.03903373,-0.06993767,-0.02294139,-0.00200657,-0.05228838,-0.01639592
0.07083300,0.01662223,-0.02010591,0.03258451,0.00927384,-0.05743958,-0.01874928,-0.03061684,-0.08719844
0.00790770,-0.02435764,-0.01051233,-0.03277398,-0.00501291,-0.02587526,-0.03088065,0.00010192,0.00662342
0.02959717,0.01169728,0.00852334,-0.03773740,-0.01053084,0.04733197,-0.00421915,-0.01468893,-0.00727732
0.03464183,0.04047563,-0.01658267,0.01431552,0.01102835,0.00757290,-0.03810128,0.01521027,0.03717467
0.00434288,0.05854202,-0.01807049,-0.00145254,0.07009601,-0.02789433,0.03294531,0.05185014,-0.04898948
0.07029818,0.10664216,0.04885843,0.00581070,0.00817585,0.01666451,0.00666686,0.01411982,-0.06857476
-0.06604447,0.04644402,0.02472382,-0.03364189,0.01564912,-0.06011969,-0.03797713,0.00634059,-0.11258585
0.02451758,0.01347971,-0.05000725,0.04064181,0.00324784,-0.03952185,0.01623544,-0.06919059,-0.07019095
-0.00173287,0.07369356,-0.04731243,-0.03706484,0.01715714,-0.05870765,-0.07410305,0.06794655,-0.04418197
-0.01368545,0.01766128,-0.02409373,0.01858357,0.03406883,-0.06046849,0.05244877,0.02833916,-0.05157421
0.06265379,0.02957516,-0.03116556,0.02355466,0.08236201,0.00877882,0.05323332,0.10543223,0.00960463
-0.01317913,-0.01160836,-0.04442928,-0.02728229,-0.01567710,-0.06098195,-0.00030854,0.00459131,0.00771750
0.04178508,0.03642599,-0.00595082,-0.00001922,0.01869183,-0.02159206,-0.00520159,0.00786470,-0.01958510
-0.03708321,-0.01456499,-0.02032005,0.01497342,0.01043862,0.00363786,-0.01838697,0.00290608,0.00710433
-0.04038530,-0.03548434,0.02095868,-0.08893044,0.01715036,0.02900025,-0.02266127,0.04965642,0.04293703
0.03106314,0.02622122,-0.00725728,0.01448921,0.00573753,-0.01243182,0.04816175,0.05135870,0.03601118
-0.05933317,-0.06370930,-0.02579992,-0.08731153,-0.05163725,0.01893865,-0.08615182,-0.05935283,-0.01752493
0.02894829,0.06200499,0.00189331,0.03933224,0.05083582,-0.08766828,0.03732513,0.01683875,-0.08820531
0.00632843,0.03901361,-0.02615763,-0.00534698,0.02787465,-0.03695627,-0.07015907,-0.00508053,-0.02684050
0.03048575,0.01121202,-0.03828999,0.00977567,-0.01322974,-0.03403030,0.03702369,0.01300562,0.00393776
0.12392071,0.02823373,-0.02348492,-0.01013946,-0.05585951,0.00150889,-0.03442495,-0.11285538,-0.09095624
0.07258307,0.04601238,-0.04346984,0.04140994,0.03939811,-0.00573905,-0.04484272,-0.06689769,-0.01937180
-0.00058533,0.03403719,0.00147850,-0.02797941,0.04276016,0.01478637,-0.04867409,0.00582921,0.00629432
-0.08389104,-0.10800350,-0.02942976,-0.08567118,-0.08745445,-0.01145825,-0.08860290,-0.05390043,-0.01569664
-0.07509836,-0.01663943,0.00264229,-0.11506554,-0.05878174,-0.08105646,0.08551580,0.04289006,-0.03854291
0.02422857,0.05079830,0.09250262,-0.11103763,0.00912359,0.05592686,-0.15625775,-0.01494952,0.05985744
-0.03322317,0.01042549,0.08097492,-0.05820993,-0.03152544,0.03692261,-0.03789559,-0.03927948,0.00734697
-0.02923043,-0.04361777,-0.03275488,-0.02681669,-0.04021094,-0.01929918,-0.03778588,-0.06189443,-0.08362172
0.05287943,-0.01213104,-0.06266946,0.08464590,0.04367173,-0.00669999,0.02683236,-0.07868461,-0.02720347
-0.03132082,-0.00913493,0.03095593,0.03339906,0.00209868,0.00445254,-0.05805958,-0.01027139,0.03189368
-0.06127045,0.02114772,-0.00233861,-0.08231512,-0.00296142,-0.01160127,-0.04503144,-0.02443989,-0.04765279
0.09960137,0.01904453,-0.01090807,0.04421098,-0.00219310,-0.03621505,0.03818912,0.01908016,0.00992891
0.16308652,-0.00730091,-0.00541995,0.07652728,-0.01797954,-0.01538701,0.01606426,0.05951071,0.07366665
0.09986152,-0.01255919,-0.07459117,0.12208880,0.00339633,-0.01312769,0.00178542,-0.05060189,-0.04181772
-0.06806596,0.03427334,0.04229570,-0.00472824,-0.01250199,-0.00602579,0.07852081,0.03113164,0.01137580
-0.01834485,0.04819861,0.02192598,0.00929247,0.05138800,0.01417005,-0.02639169,0.00575037,-0.04464911
0.05766203,0.02985631,0.02773980,0.02561590,0.00021220,0.00841232,0.01421488,0.00250351,0.00119791
-0.05610925,0.02669688,0.04171283,0.00574843,0.00215879,-0.00237163,0.27186865,0.10290855,-0.04006347
-0.03207350,-0.04497964,-0.04430552,-0.00318486,-0.00858166,0.01233976,-0.01985713,0.03344199,0.08078695
0.05210194,0.00901581,0.07718413,-0.01532670,-0.03287317,0.07053442,0.05448932,0.00518066,0.05946467
0.07764600,0.03654281,-0.08867414,0.05379297,-0.03714241,-0.07877316,0.01149332,-0.00261316,0.03755587
-0.02374570,0.03282393,-0.02704965,0.02771776,-0.00294245,-0.00650075,-0.00553435,-0.02102907,-0.01255984
0.07886016,-0.00922835,0.02060059,0.05749051,-0.05492071,-0.02183821,-0.05663752,-0.08683277,-0.03788051
-0.03103512,0.00989505,0.05960219,0.01048768,-0.00470574,0.09191310,0.02610230,0.00148651,0.03652303
0.06757510,0.08135001,0.00867319,0.04783619,0.08109444,-0.00313213,-0.04149435,-0.01766810,-0.09636199
-0.05199847,-0.03910146,-0.00325439,-0.04701667,-0.01763628,-0.01806039,-0.02131506,0.00462358,-0.01166578
0.02455499,0.01726918,0.00442940,0.03779794,0.02707624,0.02418411,0.01714415,0.03084916,0.02190439
-0.02639468,0.00392072,-0.00993439,-0.01154070,-0.01289378,-0.00960426,0.01204059,0.00738665,-0.00368674
-0.03755887,-0.06258019,-0.05785386,0.03183115,0.03162565,0.00724281,-0.01755212,-0.01401149,-0.00020642
-0.04859946,0.00938061,0.04961725,-0.08594085,-0.00453259,0.00272801,-0.07031664,-0.00703150,0.01208774
-0.03145631,-0.06951939,-0.01018541,-0.09222341,-0.09226617,-0.04728508,-0.02562241,0.05778548,0.12071685
0.07533250,0.04733364,0.00789262,-0.01751558,0.00652836,-0.05580674,-0.05232879,-0.00567491,-0.02622933
0.02243646,-0.00926098,-0.05015758,-0.00788292,-0.05577984,-0.07634642,0.02569905,-0.02458039,-0.06054385
-0.03879816,-0.07057580,-0.00775899,-0.00239564,-0.02604665,-0.00392787,0.02750155,-0.03533803,-0.01746004
-0.03447842,-0.01111293,-0.03775648,0.05366032,0.08121137,0.04540748,0.04122735,0.01046425,-0.03162796
-0.03425733,-0.01017572,-0.09071915,0.00218166,-0.00220380,-0.04258338,0.04239366,-0.00882695,-0.10978492
-0.00331798,0.03844373,0.00720518,0.00633395,0.04373678,0.01810405,0.04311293,0.01484725,-0.02056699
-0.05462861,-0.03904343,-0.09565623,0.00253898,0.01008229,-0.07467183,-0.01912282,0.02780786,-0.04380115
0.11862426,0.03705791,0.01008292,0.09324607,-0.02793276,-0.03310490,0.07988184,-0.04176747,-0.04239716
-0.07041725,0.00558682,0.03816731,-0.06056447,0.06122627,0.03038193,0.04596923,0.01285513,-0.07935298
-0.01576445,0.04754455,-0.02772881,-0.02546267,0.03127611,0.03674557,-0.04221756,-0.00548073,0.01414829
0.02608707,-0.01590044,0.06118568,0.02525623,-0.02997717,-0.00336791,-0.01161610,-0.04764837,0.02871489
-0.00615696,-0.02265292,0.01512287,-0.01931700,0.02983197,0.03373143,-0.03586233,-0.02073525,-0.00320755
-0.06109434,-0.01849114,-0.01424174,-0.06338415,-0.01136945,0.04998184,-0.06631679,-0.05904665,0.00542893
-0.06200167,-0.00323711,0.00503643,-0.00824709,0.00780324,0.05542833,0.09285477,0.04365350,0.03081907
-0.04243727,-0.00282287,-0.00769267,-0.01801270,0.05422082,0.01614827,-0.01206098,-0.04732137,-0.01461926
-0.10763084,0.01604656,-0.01763258,-0.03078209,0.04512928,0.04831290,0.00220735,0.00937395,0.06458560
0.05305430,0.05367089,-0.02223241,0.02919524,0.00030721,-0.02821852,0.04434564,0.09062729,0.00552087
0.05017313,0.01237980,0.01651990,-0.01004091,0.00879683,0.04979707,-0.03575356,-0.01848178,0.00144216
-0.02035352,-0.01638119,0.01636835,-0.05489236,0.04603507,0.08946277,-0.03154314,-0.05987518,-0.10909695
-0.04631118,0.00469605,0.00630690,-0.06391903,0.00098170,-0.02777657,-0.04386263,-0.03375050,0.01907894
-0.10096347,0.02821404,-0.04945445,-0.01464426,0.14306538,-0.02856423,0.03244719,0.08039823,-0.01275438
-0.01160648,-0.01133707,0.01101589,-0.08964574,-0.05049525,0.05181133,0.02054728,-0.00139625,0.02721947
-0.00882710,0.01779768,0.07126997,-0.03301778,-0.01931572,0.04662622,-0.00121543,-0.01817209,-0.00853946
-0.05099711,-0.01274973,-0.01862162,0.02019206,-0.00382207,-0.02241571,0.02479824,-0.01660238,-0.00631536
-0.02974378,-0.01726508,-0.03991908,-0.01037672,-0.00047093,-0.03924202,-0.02860048,-0.03127024,-0.07959166
-0.02230996,-0.03211795,-0.01217968,0.01396761,-0.01461515,0.01559973,0.06120187,0.02832391,0.05312112
-0.01821163,0.01572301,-0.05266191,-0.01652757,0.03385203,-0.00172061,-0.06297333,0.00779131,0.04063818
0.03461057,-0.03604464,0.01887009,0.00684457,0.00454369,0.08008187,0.02859081,-0.02332534,-0.03706248
0.01079673,-0.02242767,-0.05787104,0.00768958,-0.03939374,-0.04229534,-0.03002470,-0.06260469,-0.00896381
-0.12315753,0.01237853,-0.06008759,-0.04380900,0.05477110,0.01039243,0.06814837,0.08474358,0.01932059
-0.01894660,0.02062287,-0.00332345,-0.03862160,0.04743205,-0.03047930,-0.05323481,-0.00607416,0.03577920
-0.01121875,-0.02978438,-0.04548580,-0.01650341,-0.01928252,0.00108210,-0.02380099,0.11893152,0.15708628
0.10459864,0.08095872,0.02847320,-0.00528922,-0.01288335,0.00387120,-0.04280559,-0.01656204,-0.04019837
-0.00243572,-0.02427600,0.04980330,0.00004553,0.00976763,-0.02220526,0.04078439,0.01446027,-0.06269714
0.11349899,-0.02146163,-0.04350217,0.02892585,-0.05878090,-0.02789994,0.03361946,-0.04548976,-0.00137360
-0.08310604,-0.00249825,0.06636608,-0.00207358,0.02412628,0.01502268,0.04279086,0.03395137,-0.00743048
-0.00718745,-0.02218457,0.00238136,-0.01486651,-0.02339783,-0.01433616,0.00967179,-0.02285425,-0.01967981
-0.04773796,-0.03627047,0.01825661,0.00889162,0.01881222,0.05525194,0.09852804,0.06168198,0.04522299
-0.02210144,0.01095902,0.03670199,-0.03062857,-0.02471187,-0.02199907,-0.03198619,0.01277266,-0.05745825
-0.03967280,-0.02724986,0.00047615,-0.07666019,-0.02641187,0.01531912,-0.04403787,0.03949334,0.04530818
-0.01768342,0.00129283,0.03558750,-0.00944634,0.02181515,0.04943654,0.02043339,0.06621180,0.04924037
0.02619004,0.01925162,-0.02388441,-0.01037644,-0.01696296,-0.02056829,0.08870502,-0.00382116,0.01808591
0.00848211,0.02461998,-0.02694306,-0.01358355,0.02715501,0.02906428,-0.00545799,0.07416779,0.00000756
0.02217224,0.00637151,0.01886352,-0.00730275,0.01258416,0.04644511,-0.09516507,-0.02115660,0.03588740
-0.04567726,-0.05568280,-0.08415961,-0.01466034,-0.01873000,0.00151297,-0.01858085,-0.01419566,-0.01770391
0.00210451,0.00127172,-0.01310928,-0.02531403,-0.03580768,-0.02863013,0.00362494,-0.06494693,-0.07098126
0.00256938,0.06701761,0.00747880,0.03802892,0.01758689,-0.01083103,0.00510525,-0.01245800,-0.05136171
0.10216944,0.04940069,0.03668777,-0.01722815,-0.02652541,-0.04694450,-0.04782044,-0.06679615,-0.07335091
-0.02383514,-0.03205633,-0.00096669,0.02940091,0.02300035,-0.00775457,0.09793402,0.09072714,0.00047639
-0.02460755,-0.02228108,0.01806570,-0.01332816,0.00143518,0.03572784,-0.00962408,0.05556969,0.05378870
-0.03522382,0.02477954,0.00892946,-0.04014993,0.04749120,-0.04825377,-0.01246709,-0.00985496,0.09815186
-0.05885162,-0.04729614,0.10465302,-0.07169607,-0.05280255,0.16925904,-0.04388465,-0.04119470,0.09356156
0.00369502,-0.01355995,0.06185149,-0.01753683,-0.03685907,0.06925116,-0.04753419,-0.09088192,-0.02701355
-0.04653562,-0.07264791,0.03953301,-0.02528928,-0.04015061,0.12080393,-0.04527737,-0.05432984,0.11685450
0.05654298,-0.00681929,0.03754587,0.02044933,-0.03446912,-0.02880648,0.00605208,0.00569708,-0.05192505
0.02093645,-0.01812852,0.04023981,-0.02136715,-0.04344434,0.03269163,0.06630222,-0.00109550,0.03879332
-0.05372228,-0.01224258,-0.02191992,-0.04318108,-0.03487781,-0.07242686,-0.00995218,0.02799210,-0.03190229
0.01780510,0.01863781,-0.00028500,-0.02817749,0.03416152,-0.00562747,-0.03335800,0.06253088,0.03115188
-0.01668859,-0.01670954,-0.06897837,0.00372662,0.05584475,0.00959449,0.04239799,0.05304718,-0.02346393
0.00426911,-0.00105608,-0.00435688,0.01567723,0.00785016,-0.00554363,0.01584302,0.00261024,-0.02460327
-0.00594092,0.04462929,0.04065045,0.00998017,0.03290690,-0.03537922,-0.07989356,-0.06001579,-0.10893023
-0.03554495,0.01161963,0.04521743,-0.00606238,0.00572419,-0.02662750,-0.00323744,0.01364588,0.02181523
0.02941991,-0.01330581,0.07023397,0.00965316,-0.00948925,0.06460242,-0.02487957,-0.02650442,0.02397770
-0.00060283,0.03823605,0.07242377,-0.04041092,-0.02342165,0.01470126,-0.04961801,-0.05067214,-0.04126016
0.05877709,-0.00093378,-0.05062108,-0.01311865,-0.03823355,-0.04031799,0.12442076,0.04166412,-0.04366166
-0.04243854,-0.06329591,-0.06246459,0.03078947,-0.00326873,-0.00224767,0.03443121,-0.02827909,-0.04356338
-0.01246329,-0.01926548,-0.00280009,-0.03776842,0.01722230,0.03549045,0.05784111,0.06599782,0.04467849
-0.03361359,0.00909696,0.01309233,-0.01080872,0.01704997,0.01979636,-0.01471275,-0.01346454,0.02419585
0.08751281,0.06848029,0.03058818,0.03087027,-0.02884641,-0.07543396,-0.03999130,0.01028411,-0.04157622
0.01882398,0.04021502,-0.05821588,0.03018673,-0.00338975,0.01508729,0.00020579,-0.04813801,0.01561998
-0.10318979,-0.01785186,0.00088593,-0.01230764,0.01602483,0.03276361,0.05934797,-0.01627213,0.01183819
0.05247766,-0.04382207,0.00969829,-0.00562449,-0.08804381,-0.00072092,-0.00058543,-0.04291566,0.06817110
-0.00814976,0.01552446,0.00316572,-0.00153614,-0.00623594,0.01565279,-0.01883846,-0.03201248,0.03455530
0.02801370,-0.01214200,-0.02605547,0.01354486,0.00033385,-0.01729702,-0.01185213,-0.01802772,-0.01347696
-0.08041895,0.01820028,-0.00946529,-0.03652539,-0.04593349,-0.02826100,0.00758052,-0.00385131,-0.01186301
-0.00883494,-0.01550833,0.02081157,-0.02692027,-0.02898951,-0.06938885,0.03045812,-0.03472361,-0.03034726
0.00330998,0.04770209,0.03195255,-0.05125843,0.05758480,0.04015480,-0.01457145,0.02028636,0.02517815
0.03981724,0.02276491,-0.04807160,-0.04244479,0.00570480,0.04325001,-0.00580837,0.00438988,-0.05846950
0.02937326,0.02784228,-0.02831039,0.01523952,-0.00014155,-0.02330761,0.01779279,0.00139166,-0.01065246
0.02959699,-0.02775929,0.03779229,-0.05218031,-0.11077121,0.02674519,0.04249717,0.01098157,0.07030474
0.04258953,-0.00103899,-0.03154168,-0.02353167,-0.02697190,-0.04459458,0.03219100,-0.00383687,0.01155780
0.01912569,-0.03661125,-0.02307644,-0.01049665,-0.03846174,0.03917083,-0.00930807,-0.00820677,-0.06213764
0.01894840,-0.06949163,-0.01478034,0.02324582,0.05459946,0.05632066,0.05772706,0.02116060,-0.05957283
-0.04437453,0.04343724,0.03570442,0.05933939,0.08150298,-0.06981983,0.02593651,0.11123051,0.02699091
-0.01783825,-0.08711278,0.00229302,-0.01427574,-0.05117179,-0.04189812,-0.01159726,-0.01246448,0.09918108
-0.07256770,-0.01663579,-0.02198808,-0.06079796,-0.02236160,0.02116464,0.01875224,0.07397631,-0.02237097
-0.10495394,0.03731454,0.02715607,-0.10936081,0.00461823,0.14280303,-0.05763009,-0.07402909,0.06531385
-0.01169218,-0.00973787,0.02240643,0.00453815,-0.02045911,-0.02810053,0.05108789,0.02010142,-0.02120375
0.01906756,-0.01490233,-0.04575232,0.06762788,-0.06161147,-0.12345945,-0.02652075,-0.07385498,-0.01193972
0.02568464,0.00093943,-0.05904606,0.03785466,0.10391476,0.00113697,-0.00328656,0.04824074,-0.02501174
0.04798988,-0.06030031,0.05353634,-0.01488951,0.00463122,0.14134279,0.05488686,0.00703492,-0.00274248
-0.00674579,0.01221094,-0.05954345,0.09439358,-0.01969577,-0.17458631,-0.04406507,0.06360032,0.03761027
0.04476939,-0.01934357,0.03341439,0.08115306,-0.02522969,-0.02482364,-0.06918634,-0.06668936,-0.00889918
0.02021395,-0.09401881,-0.08826362,0.05671478,0.03071918,0.02325769,0.02829504,0.03719012,0.07674173
0.01291743,0.01994455,0.00876340,0.03479737,-0.00748416,-0.09495977,-0.00060961,-0.07026488,0.05831026
-0.02853375,-0.00180980,-0.04381837,0.02711293,0.02530973,0.01094350,-0.00869221,-0.00293960,0.02586064
-0.04076066,-0.07449419,-0.05481258,0.03170330,-0.02289669,0.01769394,0.03543937,0.00585479,0.02559994
-0.01301798,0.01574167,-0.01521421,0.05729136,0.01060108,-0.06898866,0.04446432,-0.00410230,0.03325767
-0.01209341,-0.01149285,-0.06151376,-0.03878663,-0.00320782,0.02534689,0.02697517,0.00208631,-0.01267321
0.00295824,0.00295843,0.03391840,-0.05706424,-0.02466776,0.02302233,-0.05469216,0.00601031,0.01740846
-0.06762438,-0.02810752,0.06899434,0.00760942,0.00026004,0.01097653,-0.02567450,-0.00992902,-0.02979438
-0.01617989,0.01057186,-0.02283609,-0.04133665,-0.03257335,-0.01804144,-0.05739329,-0.10208753,-0.06767618
0.04221980,0.00745932,-0.01607618,0.09998401,0.07416364,0.00104037,-0.08133250,0.07159194,0.04929237
-0.03853899,-0.01108660,-0.01139353,-0.01837196,0.05688543,0.06849955,-0.02470355,0.00382415,0.00382013
-0.04210321,-0.03603069,-0.05213403,0.01441625,0.00663981,0.00170214,0.05885867,0.02453819,0.01341472
0.01637721,0.06489449,-0.01839200,0.10281759,0.04694839,0.03238809,-0.02768009,-0.01011873,-0.00879794
0.04449299,-0.03259413,-0.07595061,-0.02123720,0.00391766,0.10380725,0.04671203,-0.02872119,-0.04053300
0.08678150,-0.00859405,0.01053750,0.02874984,-0.00222968,0.05202680,0.04650172,-0.02725877,-0.02346405
0.03109470,0.02057738,0.02471367,0.00931400,0.03042546,0.02472025,0.00132808,-0.00582159,-0.01171460
-0.03152956,-0.01198555,-0.07260437,-0.00816411,-0.00497318,-0.05461582,0.02531233,0.01479719,-0.04882044
-0.03138667,-0.11406727,-0.06712190,-0.01091938,-0.03476933,-0.00074878,0.04129483,0.04368668,0.01145611
-0.03706232,0.02474156,-0.00081306,-0.06544375,0.02491604,-0.02352611,-0.01822087,0.03022352,-0.07219529
-0.04049830,-0.00518979,0.00097979,0.01356339,0.01450745,0.00850977,0.03369290,0.01816457,0.00608972
0.02076906,0.00540201,-0.02612537,0.04499130,0.03228721,-0.00333652,0.02831472,0.04603322,0.04032397
-0.03964610,0.01335684,-0.06836028,-0.01055337,0.08338221,0.01974500,0.00022204,-0.01277172,0.00132897
0.00074959,0.03275448,-0.01486850,-0.05666508,-0.06725433,0.00160312,-0.06902590,0.07364235,0.08555131
-0.03414880,-0.01908273,-0.02169898,-0.04840393,-0.02023411,0.03033777,0.06394172,-0.00302494,-0.05913736
0.01677299,0.07877311,0.01266046,0.00813017,0.00572157,0.02945602,-0.06012757,-0.01136329,-0.00612410
-0.01405099,0.01181023,0.02351508,-0.06619594,0.04759327,0.04838506,0.02617273,0.05979269,0.01770693
0.03117989,-0.01532663,-0.06181713,0.00641374,-0.02545985,-0.01510822,0.09631171,0.05924205,-0.03261676
0.00676114,0.03113829,0.00130166,0.03873603,0.05715505,0.05639572,-0.00869064,-0.00634348,-0.00090752
-0.01156576,0.00702041,0.00500184,-0.03123521,-0.01507914,-0.04014726,-0.09464343,-0.03359600,-0.01934036
-0.08274581,-0.03952760,-0.04490168,-0.02329480,0.03755735,0.05130146,0.01161810,0.01800117,0.08291722
-0.01732172,-0.00214831,-0.02122298,-0.02420381,-0.00809619,-0.04728514,-0.05567968,-0.00293746,-0.02638748
-0.06020976,0.01143212,0.03468237,0.02237744,0.08244403,0.05482231,-0.02234400,-0.02235049,0.00064063
-0.06406967,-0.02540666,-0.06831640,-0.00753642,-0.00298051,-0.01042003,0.01077476,0.02311928,0.04688064
-0.06731091,0.00884034,-0.04601521,-0.06493170,0.00596585,-0.05820141,0.00956297,0.13217543,0.06197489
0.00566362,0.00230423,-0.04690143,-0.00102288,0.04657135,-0.01971585,-0.00669031,0.07921036,-0.00558613
-0.03501272,0.00302327,0.01764020,-0.01074223,-0.01708737,0.04050170,0.06408947,0.08253554,0.05545312
-0.04389167,0.01139145,0.01631350,0.00883474,-0.03811074,-0.02440742,0.04662557,-0.03342505,0.00651468
0.04009493,0.03421363,0.06634212,0.05635824,-0.00534272,-0.10003281,0.00154337,-0.02121037,-0.02488220
0.04185778,-0.00089403,0.02932518,0.04968284,-0.01433909,0.02460148,-0.00675564,-0.03470221,-0.01189580
0.00365012,-0.01884078,0.01824901,-0.03893866,-0.04059643,0.03432655,-0.03862543,-0.02722082,-0.00944025
0.02319032,0.03166244,0.01424784,-0.04677305,-0.07871417,-0.00974091,-0.08386922,-0.06591667,0.12448496
-0.07993792,-0.00853980,0.05006072,0.01270046,0.02149001,0.01070485,-0.06804176,-0.02097446,0.02818464
-0.08203131,-0.02543739,-0.02631818,-0.03719836,0.02483692,-0.05690035,-0.07942041,0.06305228,-0.00117413
-0.01944873,-0.07076123,0.05375718,-0.00116309,-0.03558838,0.05704595,-0.00579121,-0.03253313,0.04398439
-0.04230832,-0.02123859,-0.07342330,-0.03029180,0.00202802,-0.06714437,-0.01863012,-0.02503367,-0.06677797
-0.03074180,-0.02394742,0.00343713,0.06092535,0.01007021,-0.00222364,0.00761682,-0.05164412,-0.03839784
-0.01153622,-0.02415121,0.01072550,0.03571864,0.01257173,-0.00067415,0.00074254,0.00845159,0.04058960
-0.02065652,-0.04440152,0.00822071,-0.00085078,-0.01707936,-0.00936591,0.02493792,0.04039102,0.03227992
-0.03980700,0.01958857,-0.04608935,0.02924785,0.01245219,-0.11187531,0.05825689,0.07886361,-0.04631324
0.00261220,-0.04659441,-0.06631346,-0.03057530,-0.01146410,-0.06021636,-0.04422861,-0.02643496,-0.06443496
-0.05934104,-0.01811411,-0.03184729,-0.02048949,-0.00010784,0.03515096,-0.05372684,-0.03324786,0.02033979
-0.03689276,0.03250051,0.05924447,-0.00927526,0.01573189,-0.00983190,-0.08330555,-0.02667077,-0.03168878
0.05356102,0.00746672,0.02253897,0.08096673,0.03412480,0.02337113,0.06557554,0.02885722,0.01019616
-0.01569165,-0.07855808,0.02098314,0.09839814,0.00064142,0.05000878,-0.02163857,-0.02479619,-0.05858664
0.05010502,-0.04267794,0.10525016,0.01375079,-0.02550252,0.06926887,-0.12136796,-0.06781772,0.07030068
-0.02912494,0.02248859,0.03186070,-0.03494857,0.01980310,0.01379075,0.04610173,0.06962042,0.05670060
-0.02752631,-0.08010296,-0.05978087,0.04169506,-0.12305166,0.01688331,0.08629210,-0.03185706,0.13698527
-0.01029742,-0.07508858,-0.05272014,0.07311385,-0.04244830,-0.00982040,0.10280387,-0.00435151,0.00745588
-0.03487542,-0.00015961,-0.05257577,-0.00621292,0.03238149,0.00450851,-0.07513513,-0.02523058,-0.00920375
-0.01756409,-0.04466673,-0.09039616,0.03066520,-0.01008526,-0.12843044,-0.04540356,-0.07019106,-0.17891613
-0.01531002,0.02379274,0.02219090,-0.08537940,-0.02268600,-0.04647532,-0.03483750,0.01874137,-0.02247738
0.08767410,-0.10895737,0.04877684,-0.02409471,-0.08835164,0.07388132,0.05013576,0.02535096,0.11962821
0.04405956,0.03729120,0.01852086,0.05990583,0.04871560,-0.04290167,-0.03748982,-0.04663669,-0.01619206
0.00885958,-0.06307630,-0.04686918,0.03483044,-0.00337840,-0.04676519,0.00431333,-0.01694709,-0.01133775
-0.09536322,-0.02337835,-0.09237721,-0.03346080,-0.01962521,-0.04308254,-0.03943485,-0.07027967,-0.07582687
-0.06407144,0.06664284,0.05631625,0.03315568,0.07350164,-0.05855278,-0.04365605,-0.02600430,-0.07450657
-0.03261255,0.07931869,0.04373209,-0.03602412,0.07063680,0.03400805,-0.04714080,0.02951590,-0.02785319
-0.00799534,0.03120301,0.01822455,0.04353802,0.04310867,0.01528133,-0.01750383,0.01382119,0.02402028
0.01664530,-0.05002290,0.04509510,0.06923939,-0.03589351,0.07294483,0.06861307,-0.06110711,0.06930336
0.03010515,0.01083970,-0.01859616,-0.05705682,-0.03853334,-0.00804698,-0.01289917,0.02176889,0.07360878
-0.03191240,-0.03808785,-0.00867522,-0.01894601,-0.03728612,-0.02044147,0.01497458,-0.01165832,-0.02178832
-0.05557771,-0.03634306,-0.05895892,-0.05216884,-0.01941721,-0.04902362,-0.01982904,0.00256392,-0.06202359
-0.05743711,-0.03396660,0.00841657,0.00564645,-0.01068574,-0.04049423,-0.00745509,-0.04469250,-0.07564694
-0.01099921,0.01611546,0.05338642,0.00194250,0.02208228,0.02946153,-0.05855543,-0.05054688,-0.07020386
0.00131902,-0.01154021,-0.01597402,0.04683686,0.01923119,-0.02201284,0.08253743,0.04154983,-0.01568068
-0.10797978,-0.02785282,-0.02347096,-0.07579189,0.01701830,0.03517283,-0.03796130,0.00497388,0.02628824
0.04041779,0.00219272,-0.02256276,0.05959550,0.06911367,0.02627660,0.00252360,-0.01604176,-0.00466656
0.16653614,0.03330112,-0.06994543,-0.04208458,-0.09528859,-0.08540522,0.07556692,0.01412065,0.00522073
-0.00959562,-0.00228513,0.05772746,-0.02503075,-0.03618690,0.03284167,0.01134368,0.00664473,0.06235185
0.03704408,0.02248472,-0.00866010,0.01638396,0.00518137,0.01352642,0.05193242,0.01041813,0.01434057
0.15520942,-0.03436812,-0.01385885,0.13210276,-0.03558205,-0.04829875,0.13289057,0.01721348,-0.00452963
-0.08883217,-0.12353390,-0.12739195,-0.00395504,0.00170589,0.01534079,0.00590045,0.05501026,0.04243784
0.07620172,0.07317758,-0.04143102,0.03097555,0.00487707,-0.05113610,0.04280609,0.10965551,0.01072448
0.03792784,0.03644524,0.04730541,0.03071039,-0.01337156,0.02047442,-0.05595777,-0.06228033,-0.00173776
0.01199239,0.03083035,0.01121624,-0.00271064,-0.00014736,-0.02947735,-0.00648424,0.00173002,-0.02544119
-0.08019298,-0.03856034,-0.08706683,0.03045168,0.03547004,-0.03733162,-0.01538044,-0.00702796,-0.05594221
-0.05511459,-0.05721703,-0.06201837,0.05453664,0.02997470,0.05832018,0.02198327,-0.01800747,0.02250494
0.03954754,0.02785100,-0.00501362,0.00126333,-0.02776998,-0.04013456,0.03242526,-0.03002187,-0.04464733
-0.03185391,0.01086641,-0.04009373,-0.09844014,-0.07674756,-0.10125313,-0.03365131,-0.05223153,-0.06094970
-0.08874819,-0.07549785,-0.05009416,-0.02961932,-0.02175776,-0.02953922,0.03008139,0.05709502,-0.00575138
-0.07582021,-0.04412650,-0.01996667,-0.06707171,0.00256063,0.03418276,-0.00288071,0.00902535,0.00585176
0.07795453,0.03362762,0.00055539,0.01279723,0.01906594,-0.05044147,0.00817793,0.05841389,-0.04562540
0.08505719,0.00913229,0.08119594,0.05998456,-0.02712267,0.02570903,0.06584017,-0.03587585,-0.04253921
-0.00609135,-0.04492481,-0.05071573,0.00739449,-0.04434741,-0.03695970,0.02262929,-0.03902592,-0.02121623
0.00745489,-0.00036868,0.01238141,0.02884374,0.00690155,0.01401461,0.02528093,0.01320212,0.02271539
0.06988195,-0.04760322,0.05520146,0.01688833,-0.06133662,0.07742357,0.08907349,0.01229117,0.13777681
-0.06340016,-0.07793411,-0.02533977,-0.02738840,-0.02482041,-0.03096230,-0.08473834,-0.07567054,-0.14192158
0.08725125,0.02938299,-0.00915149,0.05312915,0.01289352,0.00661301,-0.00723928,-0.01004111,0.05985727
-0.10298745,0.01831164,0.03885287,-0.06963813,0.04171482,0.14164484,0.03683390,0.00655968,-0.02394023
-0.04309954,-0.06962729,-0.05275552,0.03373785,-0.02432431,-0.01456539,0.04830645,-0.01186844,-0.03777105
-0.11422095,-0.03826304,-0.01056551,-0.05609759,-0.00557710,0.01299693,0.00168784,0.06028940,0.01695632
-0.06568319,-0.04565087,-0.01108295,-0.02518535,0.01377237,0.05582927,-0.00097560,0.01137877,0.03694297
-0.04328762,0.01117746,0.01125150,-0.01776928,0.02050129,-0.01384088,0.04155369,0.03077254,-0.07127412
-0.04816328,-0.06424603,-0.10126052,0.04117744,-0.04638385,-0.13515249,0.02771087,-0.03995444,-0.11798429
0.00720567,0.08217134,0.07024103,-0.04261681,-0.02120493,-0.02655887,-0.04494635,-0.04883193,-0.07769327
-0.08897281,-0.04989416,-0.16152084,-0.05447565,-0.02140998,-0.07479571,-0.05592425,-0.04994252,-0.09377430
-0.08454877,-0.04041512,-0.02189475,0.00287265,0.03276007,0.05424284,0.11094091,0.05273189,0.02032418
-0.00846535,-0.01743249,0.00064874,-0.03500125,-0.02230490,-0.02265545,-0.00151082,0.07666522,0.01139651
0.02635814,-0.05568186,-0.02267958,0.08339366,-0.01985139,-0.03844522,0.03922145,-0.03062267,-0.03561265
