-0.00217084,0.01231932,0.00647863,-0.00401365,0.02812114,0.00221866,0.00617729,0.01826102,-0.00164760
-0.00967047,0.02646823,0.00797933,-0.00458570,-0.01554398,0.00226232,-0.00955775,-0.00064553,-0.00103598
0.00722259,-0.00412039,0.00446161,-0.00715235,0.00034390,-0.00112912,-0.00103176,-0.00558235,-0.00003113
0.02231207,0.01616771,0.02075019,0.00946907,-0.00269910,-0.00388963,-0.01081371,-0.01395296,-0.02887649
-0.01946989,-0.00326596,0.00013954,-0.01558729,0.01641791,0.02026305,0.00419506,0.03226596,0.02849184
0.00556153,0.00086069,0.00072697,0.00266168,0.00207198,-0.00096033,-0.00165493,-0.00190864,0.00244818
0.01234013,0.01264007,0.01521917,-0.00562535,-0.00119665,-0.00207772,-0.01027853,-0.00267635,-0.01057541
0.00057832,0.01590238,0.00554082,-0.00607488,-0.00680679,0.00573461,-0.00713239,-0.01109653,0.00930920
-0.01808412,-0.02467114,-0.01251616,-0.02305881,-0.00227249,0.00490678,0.01196086,0.02136529,0.02896293
0.02996016,-0.01957574,0.08022341,-0.02091485,-0.01200417,0.02002984,-0.02173368,0.06137830,-0.07445575
0.01517502,0.03207794,-0.00843116,-0.00885681,0.01185013,-0.02200415,-0.00819189,-0.03274212,-0.02964166
0.00135510,0.00685169,0.00341460,0.00144247,0.00423309,-0.00458573,0.00306718,0.00239356,-0.00001900
0.01968591,0.04346769,0.04208896,-0.02103078,0.01416018,-0.00344565,-0.04951293,-0.04299242,-0.04001411
-0.01219121,0.17530087,0.01098095,0.00445467,-0.02365177,-0.02865299,-0.02152493,-0.11409648,0.01340948
0.01324119,0.01462340,-0.01325073,-0.00678366,0.01959575,-0.01032059,-0.01074977,0.01949496,0.00179853
0.00884189,0.01036805,-0.00233330,-0.00882769,0.00990715,-0.00498605,-0.00062710,0.00806506,0.00091765
0.00770427,0.02844817,0.01496166,-0.01046225,0.01239482,-0.00448957,-0.01780718,-0.00638186,-0.01278669
-0.00812147,-0.00040512,0.00019917,-0.05066918,-0.04567881,-0.05006834,-0.03520719,-0.02270260,-0.03051131
0.02797703,0.00609365,0.02025252,-0.00139932,-0.00695808,-0.00237897,-0.03730287,0.01810985,0.00460488
0.00901729,0.01167362,0.02209341,-0.03233071,-0.02000296,-0.02578745,-0.01501249,0.01029479,-0.03123677
0.00135333,0.01551264,-0.00419446,-0.00096690,0.00370591,-0.00594472,-0.00471619,-0.01148448,-0.00240577
-0.02492406,-0.01579834,-0.02008741,-0.00713124,-0.00051784,-0.00088607,0.01908879,0.02015733,0.01870373
-0.00568812,-0.01493433,-0.02727028,-0.01772938,-0.01970549,-0.02840909,-0.01531887,-0.00992265,-0.01434409
0.00119543,0.00047667,-0.02515760,-0.01029554,-0.02360015,-0.05151154,-0.01073859,-0.00549885,-0.02172519
0.01029656,0.00988328,0.00615661,0.00262168,0.00991624,0.00313088,-0.00044059,-0.00525970,-0.00588918
0.00699026,0.04942641,0.01193156,-0.00729522,0.00129879,-0.00724401,-0.00185628,-0.01992304,-0.00283316
-0.00074187,0.00780102,-0.00903203,-0.00127909,0.00006080,-0.00254792,0.00277600,0.00934671,0.00931095
0.03327236,0.05409890,0.03168969,0.01422495,-0.00402069,0.00119056,-0.01243513,0.00033356,-0.03366489
-0.00434630,-0.00743110,-0.01547910,-0.00075677,0.00076467,-0.00490559,-0.01085367,0.03652044,0.01076452
-0.00052320,0.02764734,-0.00203285,-0.01661671,0.00767497,-0.00375670,-0.01251988,-0.00678721,-0.00674254
0.01230262,0.01035505,-0.00380135,0.00026111,0.00095060,0.00011230,-0.00050637,-0.00560814,-0.00458858
0.02195894,-0.00001155,0.00996428,-0.01326755,0.02405082,0.00148766,-0.01497845,0.01778903,-0.00476569
-0.00048815,0.00677502,0.02460958,-0.00264146,0.02510744,0.00777543,-0.00523066,0.03717135,-0.00368127
-0.00603731,-0.01159621,-0.00581963,-0.02526770,-0.00866935,-0.03673141,-0.01383400,-0.00126367,-0.02309420
0.00097714,0.01070392,0.01907928,-0.01655405,-0.00473064,0.00331859,-0.01097101,0.00279990,-0.00492599
0.02745762,0.17392658,0.04722467,-0.00121014,-0.00204965,-0.00803983,-0.00830857,-0.09370133,-0.01078243
-0.00149780,-0.00250948,-0.00030174,-0.00643543,-0.01337919,-0.00984324,-0.01080939,-0.01081037,-0.00705021
0.03035766,0.27014261,-0.02641194,0.02660464,0.01281964,-0.07897584,0.00024599,-0.21492542,0.01318395
0.00112948,0.04305074,0.01319887,-0.00942797,0.03476992,-0.01143708,-0.03196682,0.03332967,-0.00817971
-0.00204395,-0.00297255,-0.00056657,-0.00157194,-0.00240887,0.00372645,-0.00174470,-0.00290538,-0.00219232
-0.00078266,-0.00522535,-0.00423184,-0.00520473,-0.00344806,-0.00177518,0.00716102,0.00745837,-0.00262405
0.00153531,0.00019297,0.00332908,-0.00135333,-0.00299055,-0.00415417,-0.00309207,-0.00011667,-0.00722321
0.03913768,-0.07742172,0.09632348,-0.05531411,-0.00314731,0.04363011,-0.07637621,0.15486868,-0.04114666
0.02511314,0.02509866,0.00169634,-0.01139736,-0.00773678,-0.01029773,-0.00311654,-0.00133518,-0.00311951
-0.00273102,0.00112978,-0.00966900,-0.00330852,0.00603716,-0.00113574,0.00168212,-0.00193906,-0.00659878
0.00794548,0.01393914,0.00489274,-0.00193876,0.00165052,0.00188642,-0.00555311,-0.00134868,-0.00395944
-0.00452551,-0.00557305,-0.01644977,-0.00107604,0.01221916,0.01238252,0.00126180,0.03215977,0.02996341
-0.00905815,0.00267792,-0.00611494,-0.00746566,0.01293754,-0.00309098,0.00011813,0.03966788,0.00821039
0.02294281,0.03527401,0.03732716,-0.04803537,-0.01604930,-0.00916268,-0.02701466,0.01518797,0.01770684
0.01607664,0.05924080,0.00650536,-0.01663771,-0.01123648,-0.01903462,-0.02255245,-0.05614483,-0.00897112
-0.07904888,-0.06776024,-0.02350974,-0.02244857,-0.00948200,0.00574383,0.04529225,0.02999868,0.03058138
0.00093441,0.00548604,0.01425443,-0.01984268,-0.00255230,-0.00020384,-0.01933427,-0.00381609,-0.03056409
0.02731578,-0.01785163,0.02252484,-0.00783840,-0.01274883,-0.00408967,-0.02297616,0.00056423,-0.01325348
-0.00258846,0.00473797,0.00769315,0.00009339,0.01058120,0.00585872,0.00296505,0.00651746,0.00737865
0.02128478,0.01762277,-0.00347686,-0.00337477,0.01409848,-0.00180315,-0.01798295,0.01425061,-0.00082721
-0.00010499,-0.01357734,-0.01686818,0.02106344,-0.00054497,0.00406415,0.02954516,0.04290766,-0.01310220
0.00367317,0.00833517,-0.00130953,0.00432883,-0.00235798,-0.00573725,0.00004693,-0.00106918,-0.00091064
0.02083573,0.01922248,0.00612972,-0.00391660,-0.00414283,0.00089752,-0.01058510,-0.01608268,-0.01090445
0.00480793,-0.00032833,0.01034687,-0.00547675,0.00879674,-0.01024841,-0.01480820,0.00302322,-0.01891810
0.03279947,0.04571652,0.02001180,-0.00875579,0.00040478,-0.01115412,-0.02202657,-0.02848348,-0.02508086
-0.02199393,-0.00722707,-0.02867407,-0.01054242,0.01030919,0.01311078,0.00891262,0.03737295,0.01835526
-0.00058259,-0.00518633,0.00377784,-0.00121249,-0.00051849,-0.00158331,0.00086325,-0.00353468,0.00417432
0.02417083,0.24201517,0.00053609,0.01208134,0.00026697,-0.04326028,-0.00423066,-0.17827640,-0.02181872
-0.00136546,0.00465284,-0.00476157,-0.02564152,-0.01059659,-0.02223767,-0.01997244,0.00321150,-0.00795697
0.00668962,-0.05939248,-0.01414446,-0.00110117,-0.06001287,-0.02564075,0.00350908,-0.05434434,-0.02056027
-0.00018098,0.00718227,-0.02168041,0.02053004,0.02316719,-0.01123756,0.00254786,-0.00630360,-0.00176620
-0.00159354,-0.00397037,-0.00086580,0.00562327,-0.00167192,0.00207573,-0.00154802,-0.00423667,0.00112384
-0.00066477,-0.02477529,0.00952857,0.00837356,-0.02241220,0.00443518,-0.02165178,-0.04771646,-0.01135904
-0.00201706,0.01360929,0.04167151,-0.00887688,0.01462628,0.03558732,-0.02003184,0.00005033,0.02110457
-0.00071658,-0.00415065,0.00313066,-0.00050288,-0.00299684,-0.00175974,0.00321522,-0.00340363,0.00075085
0.01970235,-0.00838992,0.00362320,0.00625108,-0.01736456,0.01439191,0.00222025,-0.03765418,-0.00848620
0.00169953,-0.00215532,-0.01380166,0.02598860,0.01393926,-0.02385231,-0.00088350,0.00183071,-0.00760983
-0.01212797,0.01161884,0.04443604,-0.02154044,-0.00285425,0.03255592,-0.03031685,-0.01313799,0.01793810
-0.01997273,-0.00732625,0.00437932,-0.06565192,-0.01615324,0.10709032,-0.05455911,-0.06869313,0.04232670
0.00371696,0.00231941,-0.02054964,0.03152038,0.04297316,-0.02777816,-0.00422996,0.02107371,-0.02398415
0.00048917,-0.00403616,0.00059659,-0.00325675,0.00185316,-0.00463432,-0.00082496,0.00256346,0.00366526
-0.01636024,-0.04628893,-0.06030008,0.00822270,-0.01949240,-0.05745579,-0.01923516,-0.04476595,-0.05387377
0.05031745,-0.03266476,-0.09599861,0.15640181,0.10241156,-0.10650091,0.00919420,-0.04061505,-0.05400896
0.01994763,0.00805357,0.00524294,0.02599107,0.00525407,-0.00231680,0.02012072,0.01811982,-0.00202237
0.00230633,-0.00441805,-0.00758994,0.00113746,-0.00316830,-0.00440747,-0.00783604,0.00233490,-0.00774375
-0.00223732,-0.00571801,-0.02237481,0.01325708,0.00671500,-0.01429024,0.00385392,0.00194678,-0.01641299
0.00319153,-0.00082477,0.01233104,0.03923954,0.02211056,0.01410065,0.00448729,-0.00532636,0.00727831
-0.02292439,-0.00072051,0.02472957,-0.01711594,-0.04987573,0.01374476,0.00355624,-0.03723842,-0.01104697
0.01887256,0.00267485,0.05037215,0.02337605,-0.00695028,0.03982510,0.00166782,-0.05359088,0.00351379
0.00226059,-0.01451749,-0.00741674,0.00508284,0.00411610,-0.02241425,-0.00610115,-0.01033579,-0.01436632
-0.00482145,0.01715601,0.04047033,-0.01354245,0.02527289,0.04423061,-0.03325664,-0.00330629,0.01985029
-0.02469416,0.00477553,0.02686674,-0.03025998,-0.00690123,0.01952495,-0.02348796,0.00021258,0.02210139
0.01322387,0.00806792,0.03182644,-0.01691674,-0.00451629,0.02393166,0.00439294,-0.01156934,0.02018029
0.00822991,0.00023410,-0.02221483,0.00011870,-0.00553038,-0.01917735,0.00877190,0.00694737,-0.01501706
0.00662861,-0.02011014,-0.02167891,0.03351009,0.03707459,-0.04103447,-0.00543549,0.00228551,-0.02416812
0.00678325,0.00319232,0.02576537,-0.00280489,-0.00069848,0.01251111,-0.00544988,-0.00487018,0.00898751
-0.01217330,-0.03130202,-0.06329970,-0.04884180,-0.04046807,-0.03882259,-0.05773781,-0.06473523,-0.01847560
-0.01182760,0.00761612,0.00211703,-0.02516003,-0.01653486,0.01196309,0.00199452,-0.01903734,-0.00079894
0.01413673,-0.00114405,-0.01373667,0.04685020,0.01840319,-0.02161338,0.01585299,0.02192026,-0.01088969
-0.00190206,-0.00851387,-0.00904612,0.01030457,0.01079650,-0.00754788,-0.00767694,0.00229934,0.00066801
0.00616213,0.00988391,0.00891224,-0.02084914,-0.03083569,0.00195812,-0.00480150,-0.01435434,-0.02790266
0.00176299,-0.07845737,-0.02745423,0.00244768,-0.08293591,-0.04404465,0.00731566,-0.08360263,-0.04628764
0.01231492,-0.00160818,0.01433849,0.00326707,-0.00580339,-0.00538767,-0.02829228,-0.02500667,-0.01795433
-0.02861018,-0.01099503,-0.01494428,0.00610962,-0.02911376,-0.02445506,-0.01496947,-0.01653775,-0.01294813
0.03698194,-0.05121368,-0.10805401,0.13452348,0.09243899,-0.10661140,-0.02991364,-0.03341753,-0.06629588
0.00799524,-0.00002613,0.00241360,0.00755473,0.01816071,0.00459460,0.00623668,0.00634169,-0.00530579
0.09859205,-0.04157164,-0.16304497,0.24613935,0.14602883,-0.22446764,0.04649976,0.00485805,-0.13669184
0.01156321,0.01835866,-0.00529830,-0.00123691,0.01558686,-0.01197784,0.03583809,0.01487284,-0.01676684
-0.00120488,0.00013365,0.00197515,-0.00012182,-0.00236364,-0.00160450,0.00330554,-0.00237330,0.00254750
-0.00272771,0.00287742,-0.00045256,0.00435190,-0.00155425,0.00162570,0.00331370,-0.00127646,-0.00301721
-0.00458299,-0.00968525,-0.01299408,-0.00590634,0.00437992,0.00320217,0.00937534,0.00715815,0.01256413
-0.04481783,-0.00244608,0.07525584,-0.10661311,-0.09300594,0.13154788,-0.06560611,-0.10002467,0.02547824
0.00307011,0.00324777,0.01361371,0.01000049,0.00778588,-0.02006093,-0.00727869,0.00303185,0.00660069
0.00785100,0.00808298,0.00323132,0.00365623,-0.00539963,0.00034456,0.00009897,-0.00217274,-0.00954583
0.00478340,0.00520330,-0.00671017,0.00280357,0.00149792,0.00015695,-0.00666376,-0.00125393,-0.00618590
-0.00698450,0.00214593,0.01293022,-0.01282671,-0.00632261,0.01015949,-0.00933573,-0.01147784,0.00442614
0.00548058,-0.04645240,0.01205045,0.00157254,-0.05027420,0.00250954,0.00831949,-0.06474406,0.00194231
-0.00187367,-0.01167951,0.00518293,0.02704951,0.01071693,0.02204237,-0.02059799,-0.00432604,-0.00266887
-0.00934430,-0.04106008,-0.03501398,0.05188104,0.01350656,-0.06478904,-0.01110441,-0.01348215,-0.03878565
0.18068014,0.02449283,-0.08686627,0.29032180,0.10821234,-0.07869530,0.17051442,0.05547864,-0.06967738
-0.01332860,-0.02928573,-0.01480111,0.01502553,0.01384426,0.00730268,-0.01266039,-0.01506426,0.01271866
-0.02874675,-0.02182409,0.00796527,-0.01364075,-0.03177472,0.02428721,-0.00722386,-0.02769209,0.01425572
0.00506073,-0.03110628,-0.01674908,0.00358643,-0.02759645,-0.01724041,0.00223340,-0.02602713,-0.00724862
0.02567029,0.00809829,-0.00023633,0.02792864,0.01672602,-0.00031272,0.01762033,0.00564270,-0.00159468
0.00005560,-0.02279692,0.08599733,-0.00922121,-0.02283107,0.08211187,-0.02090271,-0.08032624,0.02381002
0.00140950,0.00020644,-0.00243136,-0.00287960,-0.00093552,0.00043505,0.00406604,-0.00839108,0.00140717
-0.00574998,-0.00638919,-0.00789921,0.02562712,0.01316870,-0.02462783,0.00013743,0.00110752,-0.01819198
0.00615662,-0.04447830,-0.00621468,0.02938199,-0.02486943,0.00875912,0.02426877,-0.04627146,-0.01847479
-0.01883394,-0.02867235,-0.04166351,-0.00762819,-0.02421932,-0.04230503,-0.04761502,-0.04067818,-0.03545626
-0.01671820,0.01348334,0.04271849,-0.01531476,0.01733032,0.05765693,-0.02725285,-0.00379037,0.02621581
0.00032180,0.00220727,0.00009671,-0.00471142,0.00335055,-0.01135946,0.00084026,0.00161405,-0.00513280
0.07100294,-0.05036244,-0.15365113,0.19482143,0.11722158,-0.17241563,-0.00556009,-0.00641826,-0.08755816
0.00223404,0.00771367,0.00221499,0.01679098,0.00152006,-0.00336996,-0.01340328,-0.00548405,-0.00941444
0.00029818,-0.01435399,-0.00579842,0.00234848,-0.01851869,-0.00457862,0.00186530,-0.01506153,-0.00360216
0.00278630,0.00038693,-0.00793071,0.00892684,0.00125179,-0.00462183,0.00600024,-0.00170950,-0.00085642
0.00003615,0.00404281,0.00061612,0.00106402,0.00211531,-0.00089314,-0.00035395,-0.00381384,-0.00438090
0.01769306,-0.01226964,-0.01627107,0.01221165,-0.01731467,-0.01209038,0.01249469,-0.01248616,-0.01401994
-0.02475500,0.01237800,0.04886900,-0.02695378,0.00382711,0.04215544,-0.05325470,-0.02105873,0.01674665
0.00296767,0.00086629,-0.00086674,0.00088216,-0.00000732,0.00096181,-0.00395583,0.00347993,-0.00113606
0.00786919,0.00301593,-0.00791545,-0.00006873,-0.00680047,-0.00864195,0.00707080,-0.00397791,-0.00156926
-0.00139043,-0.00559326,-0.00104412,0.00148039,-0.00131628,-0.00382754,0.00477977,-0.00102919,-0.00558855
-0.03636834,0.00939151,0.04594211,-0.03594561,0.00428980,0.04825490,-0.05157176,-0.01256686,0.02188840
0.03100075,0.02140606,-0.01547473,0.02797558,0.00956846,-0.01633422,0.02202324,-0.00438322,-0.02445372
0.02338067,-0.01669613,-0.01931687,0.02392723,-0.01833497,-0.01821194,0.02133901,-0.01687646,-0.01827190
-0.00295029,0.00196717,-0.00091498,0.00018561,-0.00361504,0.00232044,-0.00016064,-0.00218282,-0.00149761
0.02046851,-0.02505103,-0.03469210,0.02473334,-0.02731604,-0.05884925,0.01658083,-0.03607900,-0.06850128
0.06073535,-0.03044464,-0.04793061,0.08624229,-0.01327967,-0.05540255,0.07241973,-0.00625889,-0.05032292
0.00611180,-0.00177013,-0.00119095,0.01564507,-0.00349990,0.00057380,0.01002939,-0.00778925,0.00021876
-0.00077013,-0.00264616,0.00075564,0.00013336,-0.00091647,-0.00029439,0.00121605,-0.00640423,-0.00207242
0.00608337,-0.00803664,-0.00820803,-0.00215766,-0.00430737,-0.01261780,0.00633235,-0.00509703,-0.00696480
-0.00164861,0.00152130,0.00025736,0.02302611,0.01454677,0.00484868,0.01330271,0.00719984,0.00792352
-0.00199936,-0.00341914,-0.01602819,0.00486558,-0.00532027,-0.01158750,0.00693207,0.00556366,-0.01373420
0.00206449,-0.00988737,0.00348469,0.00017391,-0.00691839,0.01813954,-0.00931041,-0.01598866,-0.00274380
-0.00131319,-0.00961248,-0.00599488,0.00056617,-0.00681547,-0.00804374,0.00547529,-0.00232664,-0.01059185
-0.02095033,0.00674355,0.03155822,-0.02847509,0.00208864,0.04278933,-0.04472419,-0.00955421,0.02442972
-0.01482004,-0.00670733,0.02097136,-0.01827127,-0.00211190,0.02934119,-0.01913029,-0.00423111,0.02023665
0.00329569,-0.00068430,-0.00067800,0.01068223,0.01808789,0.02446840,0.02642291,0.01643514,0.01535016
0.00383565,-0.00419222,0.00064620,0.00380386,0.00262301,-0.00305778,0.00274627,0.00140745,-0.00255521
0.01739922,-0.00740538,-0.00431419,0.01855177,-0.00859200,-0.01503886,0.00805181,-0.01015296,-0.01527801
0.00270829,0.00796968,0.01781674,0.00464227,0.01302024,0.01863477,-0.00470406,0.00361538,0.01701092
0.02786302,-0.02580045,-0.05630684,0.02844996,-0.02928458,-0.06627242,0.04755166,-0.02053517,-0.06194473
-0.01220903,-0.01160370,0.01321999,-0.01263893,-0.00418366,0.01575888,-0.01946982,-0.01409949,0.01755777
0.00316665,-0.00719078,-0.00747430,0.00243817,-0.01379799,-0.00902920,0.00136928,-0.01454730,-0.01231535
0.00134845,-0.00318329,-0.00125049,-0.00497577,-0.00412804,-0.00224604,0.00097537,0.00161531,-0.00014116
0.01152699,-0.00215545,-0.00533497,0.00897706,-0.00741835,-0.00609869,0.00607766,-0.00073360,-0.01044403
-0.00408561,-0.03455662,-0.01925365,0.00000844,-0.03261534,-0.01754714,0.00136958,-0.02600919,-0.01810938
0.01220482,-0.00232020,-0.01159888,0.00386874,-0.00321720,-0.00645023,-0.00004962,-0.00143819,-0.00598629
0.00023905,-0.00176751,-0.01622396,0.00210443,-0.00535739,-0.01759333,0.00561054,-0.00787597,-0.02140850
0.07152941,-0.03598253,-0.05795128,0.08764617,-0.02825797,-0.06727325,0.07125730,-0.02827873,-0.06778527
-0.00035734,-0.00044165,-0.00108987,0.00858870,0.00524723,0.00428901,0.00498608,-0.00095912,0.00311627
0.10783829,-0.02000941,-0.03615849,0.14614762,0.01216127,-0.04946591,0.11214621,0.00951030,-0.05565506
0.00111140,-0.01881242,-0.02529873,0.00895025,-0.02151912,-0.01786066,0.01585160,-0.01864234,-0.00999665
0.00182571,0.00317323,-0.00165420,0.00284870,-0.00107190,-0.00263205,0.00133936,-0.00672799,-0.00110110
0.00263606,0.00076827,-0.00376173,-0.00439091,-0.00095440,-0.00269653,0.00034224,0.00454524,0.00385187
0.00580494,-0.00422707,-0.00975847,0.00427416,0.00020765,-0.00047917,0.00606323,0.00772543,-0.00465237
0.01522559,0.02388056,-0.00338204,0.01030032,0.00087647,-0.00817175,0.01391515,-0.02082793,-0.03765825
0.01864005,0.00148590,0.00872909,0.01057831,0.00374282,0.00220433,-0.00138937,0.00409961,-0.00329521
0.00369372,0.00127187,0.00369080,-0.00093925,-0.00287635,-0.00187147,-0.00009518,-0.00065852,0.00015957
0.00217015,0.00043811,0.00024052,-0.00091001,-0.00818341,-0.00030185,0.00293133,-0.00180604,-0.00505823
-0.02435095,-0.00490253,0.02340661,-0.02220936,-0.00710132,0.02164225,-0.03729609,-0.02353768,0.00304119
0.00922720,0.00771470,0.01269565,0.02073448,0.00305081,0.02003218,0.01067983,0.00861090,0.02010782
-0.01581012,-0.02248676,0.00217928,0.00427717,0.00037473,0.02330950,-0.01759017,-0.01575636,0.00453848
0.02397858,-0.00889023,-0.02945667,0.02628513,-0.01082783,-0.03273637,0.02710614,-0.01496509,-0.02725250
-0.14902568,-0.02600905,0.00288767,-0.16926184,-0.04944707,-0.00416094,-0.15975626,-0.07092802,-0.01547489
-0.00221795,0.00330832,-0.00358469,0.01076337,0.00505667,0.00601817,0.00399799,0.00291070,0.00095233
-0.00046941,0.00817782,-0.00774610,-0.00439510,0.00318469,0.00399033,-0.00998447,0.00651199,0.00627352
0.00152712,-0.00548917,-0.00421566,0.00523720,0.00078294,-0.00739394,0.00191432,-0.00490562,-0.00794059
0.00884744,0.00261672,0.00015018,0.00955454,0.00443012,0.00547702,0.01661686,0.00541460,-0.00175989
0.03372065,0.00259050,0.02308557,0.03650069,0.00516428,0.03754995,0.01715778,0.00279414,0.02796013
0.00069720,0.00205586,0.00252048,-0.00147467,-0.00222995,-0.00295361,0.00341658,-0.00623741,0.00184502
-0.00092096,-0.00683955,-0.01400485,0.01018702,-0.00027730,-0.01245545,0.00180227,-0.01337290,-0.02058489
0.00198159,-0.02859263,-0.01231540,0.01463562,-0.01721532,-0.00768515,0.00785854,-0.01500849,-0.00493516
0.03579614,-0.01685157,-0.04742697,0.03468146,-0.02674853,-0.06746379,0.03452544,-0.02563696,-0.06735650
-0.03495996,0.00302132,0.03843091,-0.04102046,-0.00318647,0.04379968,-0.05074621,-0.01866651,0.03660077
0.00077183,-0.00245231,-0.00030761,0.00087347,0.00136153,0.00406644,0.00414439,0.00018960,0.00526826
0.10433355,-0.02216426,-0.04983867,0.13846585,0.00418881,-0.06510400,0.10595534,0.00036517,-0.06174117
-0.00472852,-0.00709329,-0.01195144,0.00627501,-0.00392479,-0.00945209,-0.00210936,-0.00461724,-0.00994946
-0.00937836,-0.03144746,-0.02215051,-0.00050317,-0.03523445,-0.03289810,-0.00328658,-0.03670885,-0.02724064
0.00385431,-0.00130816,-0.00902849,0.01773956,-0.00237060,-0.01225772,0.01762188,-0.00099010,-0.00830355
0.00254668,-0.00310067,0.00171199,-0.00126494,0.00294995,0.00185049,0.00485922,-0.00509357,-0.00216114
0.00337535,-0.02728860,-0.02536023,0.01909056,-0.00736164,-0.01774901,0.00272210,-0.02015340,-0.02016495
-0.02488655,-0.00292771,0.02153182,-0.01437228,0.00811103,0.02892395,-0.03099062,-0.01223178,0.00304978
-0.00248153,-0.00381429,-0.00593474,-0.00276977,-0.00237905,0.00323578,0.00071362,-0.00142835,0.00161715
0.00134092,-0.01200377,-0.01806508,0.00724336,-0.00116616,-0.00606853,-0.00120110,-0.00597690,-0.00326564
0.01240995,-0.00881223,-0.00351277,0.01015699,0.00452252,-0.00251076,0.01112447,0.00024495,-0.00158066
-0.02099881,-0.00583765,0.01427185,-0.00885159,0.01057096,0.02734715,-0.01697044,-0.00744735,0.00660738
0.01857052,-0.02271224,-0.08932218,0.04564065,-0.00332675,-0.04190147,0.05045394,-0.02452112,-0.05585540
0.02128828,-0.01991906,-0.02613317,0.04162611,-0.00109318,-0.01921559,0.03509618,0.00569567,-0.00848363
-0.00026817,-0.00560274,-0.00029108,-0.00407794,-0.00261601,-0.00659142,0.00453479,0.00104453,-0.00432277
0.05874909,0.01082704,-0.08133378,0.09117970,0.01487762,-0.08838328,0.09063610,0.01942383,-0.08547046
0.08012288,-0.01184335,-0.08420835,0.10988195,-0.00347546,-0.13430849,0.06236589,0.00946777,-0.05159160
0.02177546,-0.00858748,-0.00381779,0.03155679,-0.00627853,-0.00497223,0.02148028,-0.00095035,-0.00067053
0.00671617,0.00007514,-0.00413985,0.00329038,-0.01342635,-0.00513076,0.01031768,-0.00575347,-0.00163269
0.03006460,0.00434748,-0.01425874,0.03103901,0.00320704,-0.01020882,0.03065070,0.00272145,-0.01816139
-0.01000580,-0.01170512,0.00089388,0.02287288,0.01481032,0.00451410,0.03755281,0.02193961,0.00623636
0.00770175,-0.00480769,-0.01408330,0.02345068,-0.00785068,-0.00939019,0.02450840,-0.00033852,-0.02259983
-0.00785219,-0.01591533,0.00017869,0.00916578,-0.00463401,-0.00004073,0.02004990,-0.00546443,-0.00607728
0.00810585,-0.00419036,-0.00006036,0.01424684,0.00196989,-0.00598019,0.01637286,0.00576366,-0.00065650
-0.02369417,0.00067922,0.02843124,-0.02197098,-0.00017978,0.03069855,-0.02381630,-0.00757266,0.01732192
0.00173601,-0.00124475,-0.00884583,-0.00447563,-0.00789913,-0.01297764,-0.00193419,-0.00338037,-0.01184789
0.00429766,-0.01331605,-0.02061239,0.01272265,0.00484749,0.02195273,-0.01328149,-0.01092183,0.02193875
0.00874722,-0.00772612,-0.01332087,0.01187280,0.00328600,-0.00226653,0.00296317,-0.00047960,-0.00530774
0.02105008,-0.01473126,-0.01885651,0.04161432,0.00310980,-0.03770133,0.02875868,0.00812304,-0.02384716
-0.01999958,-0.00933738,-0.00851709,-0.00714072,-0.00741964,0.00047777,-0.01170779,-0.01952689,-0.00703331
0.06499255,-0.00132488,-0.08735247,0.07626142,0.01857340,-0.06271752,0.08361858,0.02298692,-0.03869308
-0.01959600,-0.00509964,-0.00318707,-0.00597820,0.00260120,0.00166375,-0.00479152,0.00972068,-0.00167962
0.02681902,-0.01189518,-0.01500151,0.03462309,0.00141870,-0.01848361,0.03023200,0.00370764,-0.01773066
0.00424452,-0.00272220,-0.00380153,0.00629982,0.00523367,-0.00024315,0.00296077,0.00094805,-0.00199189
0.00527568,-0.00728064,-0.01397282,0.02290641,0.00843697,0.00337584,0.01663263,-0.01355710,-0.02054491
-0.00249139,-0.04118220,-0.02836004,-0.00765227,-0.04171147,-0.03413760,-0.00317774,-0.04495057,-0.03999796
0.01551616,0.01275219,0.00496935,0.01850218,-0.00004308,-0.00154554,0.02320439,0.00026865,-0.01393661
0.01107277,-0.00113250,-0.01411885,0.03119130,0.00112080,-0.01912185,0.02297411,0.00171182,-0.02695464
0.08098454,-0.01287909,-0.10420508,0.12242571,0.01161015,-0.12626560,0.07719771,0.02345225,-0.07283282
0.00550934,-0.00397307,-0.00119582,0.01043829,0.00950671,0.00068848,0.01221459,0.00804316,-0.00016234
0.06756347,-0.01404254,-0.04537607,0.11324850,0.02704554,-0.09097899,0.04674337,0.03663463,-0.02200519
0.02225344,-0.02336607,-0.02284236,0.02290545,-0.02138204,-0.02182959,0.02416240,-0.01313483,-0.01068627
0.00293166,0.00069982,-0.00104358,0.00477566,0.00161224,-0.00124065,0.00043413,-0.00084311,-0.00071421
-0.00294241,-0.00177679,-0.00402409,0.00220098,0.00005409,-0.00030294,-0.00792175,0.00486432,-0.00348102
0.01010163,-0.00247260,-0.01543444,0.00449672,0.00831395,0.00391316,-0.01106346,-0.00695067,0.00121612
0.05119511,0.01658974,-0.08609235,0.08176660,0.02819493,-0.02282198,0.09255614,-0.00236346,-0.08616394
0.01104739,0.00897966,0.00603177,0.04531794,0.03433067,0.02213364,-0.00437735,-0.00217611,-0.00548069
0.00029117,-0.00050886,0.00292555,0.00076801,0.00229794,0.00194305,0.00233466,0.00215708,0.00069396
0.00982212,0.00691110,-0.00312400,0.00546523,-0.00093176,-0.00515865,0.00811655,0.00659752,-0.00786031
-0.02390727,0.01052129,0.01788057,-0.01336262,0.02017907,0.03322937,-0.02570801,0.00913030,0.02034201
-0.00624334,-0.04348955,-0.03349461,0.00146091,-0.03420443,-0.04158970,-0.00104045,-0.04003014,-0.04041214
-0.01922354,0.00623795,0.01068592,0.02270681,0.02794484,0.02407665,0.01744560,0.01714616,0.01587935
0.02947837,-0.00910709,-0.04339896,0.06578135,0.01047475,-0.05361063,0.06412051,0.02030640,-0.03864719
0.06635691,-0.03111094,-0.05588107,0.12055513,-0.00880397,-0.05980448,0.06140570,-0.03310722,-0.06211216
0.00675168,-0.00224950,-0.01238578,0.02756404,0.00561270,-0.00646669,0.03249827,0.00046125,0.00139373
0.00213024,0.00816355,-0.01758724,0.01426621,-0.00556891,-0.00385981,0.00883654,-0.00515939,-0.01015862
0.00306897,-0.01559759,-0.00825969,0.00309318,-0.01743840,-0.01067015,0.00153070,-0.01655549,-0.01295748
0.01841202,-0.00266549,0.00092651,0.02343413,0.00298216,-0.00136682,0.02426053,-0.00081704,0.00296970
-0.01427873,-0.06954449,-0.06309535,0.01589814,-0.04129329,-0.04580652,-0.00936999,-0.06664167,-0.07338916
0.00466694,-0.00095542,-0.00446153,0.00301799,0.01198015,0.00092931,-0.00406904,-0.00203125,0.00261814
0.01424142,-0.00407904,-0.02198004,0.03224021,0.00441612,-0.01931761,0.03251809,0.00572592,-0.02503585
-0.00313023,-0.03499871,-0.03082941,0.00674066,-0.01815490,-0.02356270,0.00432487,-0.01859920,-0.01715446
0.05597158,-0.00730661,-0.06880956,0.08125896,0.00110689,-0.08624153,0.08672402,0.01621374,-0.06369317
-0.03601826,-0.01349196,0.01450335,-0.01219628,0.00416469,0.03243366,-0.02947618,-0.00982246,0.00572673
-0.00154964,0.00204685,0.00308374,-0.00006384,-0.00286521,0.00097178,-0.00037634,-0.00339247,0.00595352
0.08205783,-0.02108404,-0.07923803,0.13528505,0.03185753,-0.11356445,0.05786082,0.02695299,-0.03980755
0.00811819,0.00330497,-0.00369886,0.01194139,-0.00118502,-0.00647984,0.01596514,-0.00102408,-0.01425317
0.00032037,-0.07837748,-0.01654272,0.00615638,-0.05191673,-0.03517146,0.00223647,-0.04079872,-0.00622946
0.00631983,-0.01409819,-0.00836895,-0.00654153,0.04123499,-0.01294763,0.01920092,-0.04614477,0.01099363
-0.00045358,-0.00237093,0.00597576,0.01248668,-0.00158029,-0.00327644,0.00513639,-0.00151162,0.00117601
-0.01743230,-0.02146940,0.04268034,-0.00551281,-0.01732424,0.03654971,-0.02201866,-0.00880797,0.04372748
0.01230556,0.00651706,-0.01533286,0.01599273,0.01157079,-0.01676468,0.01435427,0.01950672,-0.01767104
0.00187828,0.00234314,-0.00219225,-0.00071071,-0.00450562,0.00446204,0.00491183,-0.00444176,0.00346289
-0.00100007,-0.01374703,0.02242007,-0.00228405,-0.01056585,0.01833035,-0.00697483,-0.01361419,0.02203257
0.01056159,-0.01197316,0.00473616,0.00451391,0.04214994,-0.02280413,0.00414203,-0.01534340,0.00884962
-0.01835909,-0.01987172,-0.03026174,-0.00727735,-0.01546438,-0.04009894,-0.00008692,0.00613940,-0.03617250
0.01118409,-0.01022678,-0.04337543,0.01208460,-0.21163870,0.18809699,0.04971989,-0.12854554,0.10967147
-0.00453757,-0.07554991,0.00366483,-0.03629088,0.01444792,0.01847736,0.03659127,-0.04742799,0.00142352
0.00040936,-0.01176661,-0.01038577,0.00462216,-0.00302998,-0.00462940,0.00329014,-0.00663722,0.00904608
-0.01441708,-0.00265073,0.03462501,-0.01798782,0.00358097,0.01084666,-0.00840998,-0.00727535,0.01678003
-0.00717660,-0.02339270,-0.04757556,-0.10655922,0.44413894,-0.15261102,0.01362418,0.00567211,-0.14040262
-0.01269729,-0.03971944,0.03033420,-0.01894552,-0.00440984,0.03174416,-0.00201005,-0.02563053,0.03533847
0.00427297,-0.01444206,0.00814877,-0.00290829,-0.00299035,0.01397679,0.00184758,-0.01749344,-0.00274371
0.01001927,-0.04541095,0.00099259,-0.01161406,-0.00562610,0.00484649,0.00581086,-0.01769965,0.00308373
-0.01010875,-0.01267676,-0.01499579,0.01045846,0.00517000,0.04519502,0.00869864,-0.00536444,0.01929875
-0.02866950,0.02417179,0.04426885,0.06607904,-0.04825412,-0.00953843,0.01022272,-0.01287705,0.00529423
0.00490292,0.01870660,0.00950911,0.01360911,-0.01055049,0.00999979,-0.00844658,-0.04223428,-0.01115233
0.00813310,-0.02440166,0.01903224,-0.01054359,0.03760084,-0.01827115,0.00960348,0.00100556,0.00707306
0.00089604,-0.01352076,-0.00364196,0.00021343,-0.01678593,-0.00302406,0.01066817,-0.01570727,-0.01641184
-0.01173532,-0.01163885,-0.05134264,-0.01583231,-0.01439877,-0.05728190,-0.01651178,-0.02291220,-0.06477525
-0.00217225,-0.03021541,0.03139386,-0.00971130,0.02965841,0.01801798,0.02396468,0.01648403,-0.00247528
0.00147104,0.00518888,-0.01260647,-0.00735310,0.00569554,-0.01509272,0.00276155,0.01900480,-0.00982034
0.03520199,-0.06066576,0.01780132,-0.04542692,0.07351903,-0.00519037,0.04503866,-0.03162532,0.00965568
-0.00541348,-0.03486808,-0.00232492,-0.00828653,-0.02483683,-0.02093729,-0.00172846,-0.02133590,-0.00746777
-0.01567260,-0.00869464,-0.01629112,0.00403736,-0.01459002,0.01656052,0.03333942,-0.03501141,0.06625087
-0.00489637,0.05391398,-0.00411350,0.01751313,-0.00904679,-0.00174176,0.03443968,0.00820359,-0.01748291
-0.01510352,-0.07208512,0.00900128,-0.02824588,-0.00826393,-0.00131540,0.00660526,-0.05581429,0.00752664
0.00088672,-0.01825056,0.01773625,0.01553284,0.02088377,-0.01921608,-0.00197939,0.00260986,0.00244702
0.02059264,0.00954554,0.01041113,0.04211691,-0.05926907,0.03092258,0.00067596,0.01165892,0.00361611
0.00202607,-0.08702238,0.01948458,0.00825403,-0.08157101,-0.02867749,-0.00631538,-0.09728651,-0.00639840
-0.00696482,0.00450337,0.01222686,-0.00189790,-0.00561630,0.03275185,0.02079198,-0.04258614,-0.00123097
0.00564363,0.00970234,0.02113228,0.04573058,-0.01818378,-0.00339023,0.01083470,0.01243291,0.02880206
0.04238250,-0.05330325,-0.03462735,-0.09581953,0.31849751,-0.12431473,-0.00488072,0.00033974,-0.05304271
0.00330107,0.00407327,-0.00214688,0.00085056,0.00520311,-0.00213827,0.01052742,0.01490140,0.00665300
-0.04033232,0.07061362,-0.12080789,-0.18663512,0.83906490,-0.32098314,-0.13013867,0.32169697,-0.26749438
0.02006789,0.02111232,0.02835817,-0.01313938,-0.00747692,0.09327667,0.06499781,0.01998073,0.07358372
-0.00426207,0.00790588,0.00404483,-0.00200381,-0.00211231,-0.00493004,0.00181531,-0.00046768,0.00307368
0.00145835,-0.00014216,-0.00034539,-0.00190263,0.00537862,-0.00479989,0.00407024,0.00188203,-0.00107335
0.01141862,0.00440996,-0.00390284,0.00941017,0.00236692,0.00539419,0.00318623,0.00529713,0.00947247
0.05891540,-0.00817459,0.04780646,0.20058830,-0.47053805,0.25230688,0.13793851,-0.19535081,0.20172085
-0.00280733,-0.01405688,0.01105284,0.00477326,0.03359814,-0.00502376,-0.01578182,-0.01183394,-0.00383524
0.00240462,-0.00040432,0.00083857,-0.00665839,-0.00610637,0.00039757,0.00069457,-0.01374069,-0.00621269
0.00216562,0.00220674,-0.00461030,0.00273104,0.01014652,0.00007575,-0.00564437,-0.00208920,-0.00557242
0.00561628,0.02959206,0.01310825,0.02979320,0.01876813,0.01472262,0.03661833,0.03239632,0.01466024
-0.01756636,-0.06829964,-0.01952604,-0.02266085,-0.06883542,-0.05371090,-0.01559267,-0.10939210,-0.00227714
0.05109574,0.07143764,-0.01070988,0.04380628,0.04827716,0.01920419,0.01481721,-0.02621456,-0.00696126
0.02910915,-0.04994791,0.03292559,0.00281411,0.08769166,-0.06303580,0.02452682,-0.01787434,0.01409612
-0.03224736,-0.02353020,0.00504638,0.03307799,0.02709924,-0.01784929,0.02772140,0.00684053,0.01555909
0.03020894,-0.01897005,-0.00358798,0.03045822,-0.05716527,0.06342204,0.03329192,-0.01307335,0.05730034
-0.01641064,0.00923883,0.01755534,0.04493732,-0.10834213,0.03047635,0.00950021,-0.01665903,0.01777359
-0.00146350,-0.03992316,-0.02520066,0.00669683,-0.02269808,-0.01590982,-0.00264015,-0.02229088,-0.00146329
-0.04533918,-0.04091594,-0.00455851,-0.03007206,-0.03616819,-0.00183662,0.00662681,-0.07192640,-0.00969506
-0.02935067,-0.07001952,0.09364792,-0.01124460,-0.03651468,0.08635160,-0.01925761,-0.07780647,0.09086338
-0.00257974,-0.00123531,-0.00662585,0.00142571,-0.00173911,-0.00284149,-0.00206522,-0.00325894,-0.00295407
-0.00220716,-0.01824919,0.01785715,0.00370795,0.01882506,-0.00702953,0.01273832,-0.00169653,0.00827183
0.01675230,-0.04598750,0.03491350,0.03778645,-0.05507077,0.01818099,0.01535506,-0.05960493,0.03012041
0.00997310,-0.03294456,0.03357189,-0.00647439,-0.01329680,0.01881165,-0.00433461,-0.03057749,0.03932807
0.00383846,0.02440868,0.00035321,0.01399040,0.03409953,0.00048653,-0.00211888,0.01484982,-0.02282305
-0.00374502,0.00147427,0.00086886,0.00129280,0.00082600,-0.00060952,0.00296243,-0.00190573,0.00342121
0.02476690,-0.04119906,-0.10053251,-0.11040994,0.59041536,-0.21198425,-0.07214393,0.11565936,-0.14875713
-0.01206087,0.00655178,0.00487473,0.00124516,-0.00620420,0.01732638,0.01215041,-0.02609541,0.01395953
-0.00035310,0.01122307,-0.00862671,-0.00602859,0.02254877,0.00748738,-0.00722020,0.01973628,0.01761314
0.01354732,-0.00347778,-0.00369996,-0.00908248,-0.00631986,-0.01490848,0.00110584,-0.00017518,-0.02312512
-0.00176592,0.00328011,0.00470076,-0.00137858,0.00259667,0.00391757,-0.00521366,0.00176541,-0.00241758
-0.01663148,-0.00414701,-0.01322621,0.00119624,0.00413904,0.00771366,0.00615210,0.01397954,0.02160381
-0.00576360,0.00689168,0.01149721,-0.00202123,0.00059336,0.00588210,-0.01804771,-0.00265405,0.00292733
0.00174985,0.00130238,-0.00071707,0.00007479,-0.00196441,-0.00310159,0.00166999,0.00345733,0.00006008
-0.00793630,-0.00677365,-0.00522617,0.00068647,0.00056054,-0.00177956,0.00351170,-0.00007003,-0.00584477
0.01481527,0.00523638,0.00364543,-0.00849634,0.00287877,0.00521065,0.00795410,-0.00091841,-0.01487478
-0.02132581,-0.00032957,0.00606450,-0.01087243,-0.00148814,0.00777167,-0.03025994,-0.00668044,-0.00037594
-0.07094345,0.04367671,-0.03684328,0.02682436,-0.03112838,-0.09809688,-0.02826130,-0.05406861,-0.03049732
-0.01115824,-0.00080732,-0.01523949,0.00571235,-0.00225724,0.00042878,0.00165979,0.01931333,-0.00904169
-0.00070886,0.00221932,-0.00169438,-0.00311323,0.00104903,0.00338647,-0.00219287,-0.00410773,0.00031555
0.01562083,0.00021923,-0.02478940,0.03010963,0.01491762,0.00068137,0.01995201,0.00350222,-0.02732132
0.05272021,-0.07587511,0.01402837,-0.13289952,-0.00017982,0.15048350,0.05562844,0.07708609,-0.10432795
0.00889301,0.03102433,0.00186636,0.00195633,0.01754195,0.00184730,-0.00956583,0.02062037,-0.00243626
0.00437291,-0.00860659,-0.00162495,0.00550561,-0.00552213,-0.00229201,0.00605740,-0.00014955,-0.00327447
-0.00075409,-0.00393879,-0.00882911,0.00456386,-0.01019478,-0.01651692,-0.00103031,-0.00503501,-0.00705533
-0.01704595,-0.02312147,-0.01827248,0.02946638,0.02766430,0.02460713,-0.00666358,-0.00708612,0.01122058
-0.02570404,-0.00848216,0.00572860,0.01133148,0.01814849,-0.02473912,-0.00168324,-0.01713534,-0.02865994
-0.00352062,0.02057279,0.01355797,0.02898475,0.05581318,0.05793780,0.01175196,0.02048181,0.04590028
0.00338179,-0.00678405,-0.00905310,-0.00509334,-0.00531129,0.00092942,0.00516071,0.00155355,-0.01538596
-0.01179354,-0.00522593,-0.00770096,-0.01547376,-0.00065393,-0.00176087,-0.02548489,-0.00596532,-0.00851949
-0.00743672,-0.00315933,-0.00375272,-0.01364490,-0.01501532,-0.01682094,-0.02131887,-0.02096591,-0.01849652
0.00099737,0.03314083,0.00507376,0.03275834,0.02719862,0.01890787,-0.00552085,0.01982924,0.03184412
0.00169714,-0.00127833,0.00333338,-0.00398950,-0.00271478,-0.00250403,-0.01767026,-0.00336675,0.01014222
0.01981327,0.00662019,-0.00238512,0.01266115,-0.00178650,0.00015961,0.01046123,0.01895587,-0.01591035
-0.01072523,-0.00133330,-0.00857937,-0.01394154,0.00467374,0.00172541,-0.01796692,0.00117487,-0.01317115
-0.02923984,-0.01377182,-0.02675368,-0.00989797,0.00341600,-0.04653796,-0.03933615,-0.02764396,-0.03120629
-0.02040350,0.01138175,0.00453599,0.01038982,0.00650203,0.00440711,-0.02138761,-0.00868508,-0.00530530
0.00641273,0.00997272,0.00557666,-0.00579100,0.00703382,0.00973924,-0.00267057,0.00740995,-0.00668269
-0.00699044,-0.00661333,-0.00387639,-0.00614258,0.00409070,-0.00025331,0.00657147,0.00526525,-0.00053414
-0.01449214,0.02719284,0.00344752,0.03067383,-0.00307613,-0.01183940,-0.01393983,-0.01041766,0.02299554
0.00293895,0.01929246,0.00391290,-0.00292629,0.02298088,0.00304138,0.00571924,0.02952609,0.00481231
0.01439718,0.01615343,0.00325172,0.02121467,0.02716071,0.03292227,0.00560760,0.01217173,0.02100136
0.00367470,0.01208359,0.01062729,0.00251358,0.01448962,-0.01488598,0.00509645,-0.00674189,0.00342647
0.03032150,-0.06084942,-0.02863467,-0.07564062,-0.01801890,0.07491241,0.02886011,0.03149701,-0.07280632
-0.00393079,-0.00422939,-0.00048432,0.00041872,0.01019364,0.00893069,0.00421657,-0.00067303,-0.00494948
0.01166185,-0.16762006,0.03410516,-0.15356378,0.02395495,0.33034575,0.06157964,0.18461947,0.03833963
0.02547725,0.07513436,0.03087870,0.02266321,0.06999394,0.04238091,0.00235075,0.07584480,0.05556431
-0.00142754,-0.00345306,0.00183415,0.00120202,0.00326121,0.00051976,0.00241178,-0.00129131,-0.00460153
-0.00503394,0.00436360,0.00356560,0.00408568,0.00440554,0.00075656,0.00157199,0.00120343,-0.00056597
-0.00356340,0.00055384,0.00030489,0.00857068,-0.00588850,-0.00070588,-0.00951910,-0.00585656,-0.00374272
-0.09625129,0.11489787,-0.01496472,0.11286383,0.03559341,-0.21062528,-0.04094007,-0.10534014,-0.05168373
-0.01878638,-0.00434826,0.02613232,0.02283129,0.00027434,-0.02174201,-0.00367597,-0.00636204,-0.01145982
0.00520655,0.00683311,0.00269897,0.00147532,-0.00051219,0.00739654,-0.00066864,0.00462995,0.00644925
-0.00329893,-0.00252715,0.00049596,-0.00188695,-0.00401287,-0.00003503,-0.00780553,-0.00614044,-0.00522596
0.00190029,0.00446003,0.01294915,0.00439980,0.00964120,0.01308904,-0.00580917,-0.00208726,0.01610463
0.00127616,0.02513966,0.01402080,-0.00205131,0.03719611,0.00661208,0.00936940,0.03546679,0.00737019
-0.01153675,-0.00826986,0.01020297,0.04047662,0.06264488,0.08475015,-0.01068861,0.01228559,0.02766502
0.02450044,-0.01461287,-0.00628170,-0.00754249,0.00987991,0.00815706,0.02992615,0.00843731,-0.03396569
0.05281438,0.03276144,-0.00329265,0.04614319,-0.03963936,-0.07953802,0.02986979,-0.06387544,-0.06027005
0.00753475,0.01002579,-0.01148661,0.02072416,0.01600502,-0.00628373,0.00973855,-0.00732216,0.02450384
-0.01799650,0.02359635,0.01339264,0.01828942,0.00616124,-0.03657776,0.00971354,-0.01624789,-0.00290492
0.00188925,0.00610920,-0.00911906,-0.00197169,0.01241784,-0.00168486,-0.00599655,0.00345471,0.00682234
-0.00129692,0.00594952,0.00003860,-0.00032175,0.01552775,-0.00586252,0.00656128,0.01067660,-0.00397925
-0.01670612,0.04550151,0.01179356,-0.01284128,0.04699310,0.01265463,-0.01569598,0.06050624,0.02895236
0.00034203,-0.00467104,0.00102658,0.00108844,0.00059165,0.00569756,0.00053417,0.00384635,-0.00013079
0.01303226,-0.00014555,0.00207282,0.00088263,0.00166998,0.00426730,0.00792753,-0.00173500,-0.00957178
-0.00761937,0.01903143,0.01297190,-0.00977311,0.01521431,0.00462048,-0.01098266,0.02657246,0.00940345
0.01035939,0.00602385,0.00865277,0.00094526,0.00010496,0.00187760,-0.00386862,-0.00971655,-0.02234187
-0.01259905,0.00524304,0.00257746,-0.00722475,0.01039054,0.00768124,-0.02141189,0.00282280,-0.00661919
0.00269086,0.00092665,0.00052496,-0.00203060,-0.00142060,0.00128910,-0.00091746,0.00407447,-0.00495554
0.01341575,-0.11371469,-0.00274933,-0.14306895,0.01685895,0.22012424,0.04725577,0.12106686,-0.02328447
0.00773593,-0.00214386,0.00993542,0.01394381,0.02509116,0.01913105,0.00491357,0.00203665,0.00493706
0.00028441,0.00190957,-0.00358226,-0.00209626,0.00568121,-0.00577258,0.00048619,0.00086010,-0.00986967
0.00000314,0.00246981,-0.00456949,0.00329522,-0.00092860,-0.00291988,0.00183664,0.00080748,0.00105436
0.00315181,-0.00239896,0.00214864,0.00426712,0.00038566,-0.00417872,0.00013679,-0.00011799,0.00303838
-0.00450698,-0.00437238,0.00337666,-0.00317778,-0.00035246,0.00081798,0.00225455,0.00299955,-0.00054534
0.00581063,0.00550344,-0.00009913,0.00653873,0.01216388,0.00258532,0.01412836,0.01376874,0.00994642
0.00247812,0.00285782,-0.00192876,-0.00501950,-0.00308725,-0.00173484,0.00015476,-0.00182271,0.00129520
0.00145507,0.00028440,-0.00073636,-0.00135621,0.00369414,-0.00049289,0.00016940,-0.00012574,-0.00317688
0.00128742,-0.00287876,-0.00407846,-0.00017610,0.00608586,-0.00251383,-0.00026884,0.00369835,-0.00038285
0.00508785,0.00032579,0.00170926,0.01861502,0.00487371,0.00663972,0.01657116,0.00785087,0.00563427
-0.00140673,-0.00461261,-0.00779205,-0.00346588,0.00077961,-0.00320049,-0.00578916,-0.00274886,-0.00137614
-0.00051947,0.00251347,0.00136968,-0.00289351,-0.00033892,-0.00079195,0.00095531,-0.00498583,-0.00387308
0.00098945,0.00011380,-0.00153083,0.00215216,0.00396754,0.00189393,-0.00123550,0.00008565,0.00314816
-0.00074395,-0.00859865,-0.00284536,0.00275923,-0.00205740,-0.00090768,0.00820112,0.00381635,-0.00217012
-0.00715413,-0.00647469,-0.00383345,0.00602128,0.00619295,-0.00609085,0.00843420,0.00599984,-0.00216559
0.00128780,0.00264105,-0.00021669,-0.00409727,-0.00030711,-0.00092698,0.00281646,0.00408426,-0.00035767
0.00087383,0.00504310,0.00084485,-0.00143922,-0.00154038,-0.00184492,0.00446695,-0.00124849,-0.00020626
0.00072730,-0.00327898,0.00247545,-0.00074417,0.00358063,-0.00159201,0.00356535,-0.00131618,-0.00258452
-0.00018216,0.00406253,0.00054358,-0.00222173,-0.00158562,-0.00275225,-0.00361093,0.00011283,-0.00630179
-0.00091869,0.00452357,0.00047600,0.00336747,-0.00137759,0.00795023,0.00350756,0.00028023,-0.00360068
-0.00651649,-0.00831280,-0.00416920,-0.00436865,-0.01015902,-0.00472405,-0.00725925,-0.00434685,-0.00399542
0.00298782,-0.00323796,0.00077941,0.00236736,-0.00317916,-0.00095005,-0.00077454,0.00115932,-0.00738691
0.01224769,0.00319959,0.00467320,0.01230757,0.00446680,0.00700647,0.01656568,0.00651628,0.01323857
0.00408395,-0.00398459,-0.00052273,0.00293126,0.00109314,-0.00095356,0.00706858,0.00475468,0.00634468
-0.00238718,0.00348107,0.00342426,-0.00561390,0.00062389,-0.01110753,-0.01996278,-0.00958426,-0.01514949
-0.00138307,0.00581588,0.00056981,-0.00014192,-0.00097923,0.00608950,0.00200637,-0.00460996,-0.00280931
-0.00073338,-0.00232649,-0.00034396,0.00060464,-0.00200948,-0.00145636,-0.00290411,-0.00018104,-0.00529992
-0.00112873,0.00434426,-0.00277762,-0.00091571,-0.00174145,-0.00234751,0.00025896,-0.00068743,0.00013176
-0.00288021,0.00025427,-0.00176805,0.01166702,0.00745196,-0.00713809,0.00197511,-0.00632136,-0.00494302
0.00386123,-0.00256991,-0.00066639,0.00365421,-0.00182746,0.00241379,0.01012827,0.00307415,0.00895432
0.00271123,-0.00421890,-0.00044556,0.00576701,-0.00228508,-0.00437099,-0.00001838,-0.00019874,0.00331350
0.00118160,-0.00334011,-0.00293209,-0.00236837,-0.00264920,-0.00365020,0.00430636,0.00103040,-0.00109049
-0.00372525,0.00297221,0.00002006,-0.00158886,-0.00187115,0.00178619,-0.00031002,-0.00372810,-0.00202419
0.00267465,-0.00575723,-0.00113816,0.00543856,-0.00066499,-0.00298800,-0.00183033,0.00374205,-0.00096191
0.00025115,-0.00163003,-0.00033621,-0.00672676,0.00090576,-0.00383895,-0.00556372,-0.00466212,0.00342553
-0.00075819,-0.00019782,-0.00122787,-0.00165231,-0.00179537,-0.00243476,-0.00135429,-0.00053833,-0.00637559
-0.00475322,-0.01031841,-0.00557369,0.00548288,-0.00275289,-0.01118348,0.00764848,-0.00258626,-0.01118457
-0.00510999,-0.00549301,0.00214455,-0.00157958,-0.00041152,0.00050941,0.00075328,-0.00344319,-0.00881301
-0.00308356,-0.01034558,-0.00565295,0.00549357,0.00545520,-0.00272692,0.01608908,0.01099216,-0.01154377
0.00099176,-0.00841074,-0.00317415,0.00024032,0.00019020,-0.00430535,-0.00539973,-0.00551579,-0.00048001
0.00347358,-0.00457889,-0.00185976,-0.00142427,-0.00431612,-0.00349100,0.00359137,-0.00363194,-0.00367776
-0.00020200,-0.00027799,0.00319557,0.00071230,-0.00172175,-0.00415191,-0.00217565,0.00026970,0.00388928
0.00035516,0.00364126,0.00462244,0.00353735,0.00321071,-0.00001642,-0.00048572,-0.00229612,-0.00484403
0.00094194,0.00323317,-0.00431059,-0.00738985,-0.01070253,-0.01013434,-0.00963477,-0.01400650,-0.01437225
-0.00171428,-0.00433129,0.00120936,-0.00352646,-0.00378765,-0.00727049,-0.00034212,-0.00132084,0.00172139
-0.00591433,-0.00043904,0.00284788,0.00318191,-0.00416151,-0.00567043,0.00125825,-0.00031714,0.00476357
-0.00291188,-0.00187792,-0.00225246,0.00037335,0.00543281,0.00447212,0.00050308,-0.00244201,0.00104355
0.00610972,-0.00119999,0.00779106,0.01122470,0.01063513,0.00022888,0.00758436,0.00723410,0.01301564
0.00550937,0.00306150,-0.00646943,0.00352253,0.00274422,-0.00288862,-0.00404778,0.00216542,-0.00856525
-0.00577326,-0.01143407,-0.00256041,0.00399702,-0.00454492,-0.00349321,-0.00234126,-0.00414589,-0.00824738
-0.00412449,-0.00324192,-0.00093983,0.00074445,-0.00010726,-0.00173868,-0.00031677,-0.00253579,-0.00342393
-0.01907988,-0.01327392,-0.00031315,-0.00017017,-0.00530360,-0.00183405,0.01440166,-0.00257462,-0.00392659
-0.00561410,-0.00045083,-0.00256974,-0.00337856,0.00016734,0.00280695,-0.00337588,-0.00272572,0.00005325
-0.00344056,0.00010308,-0.00014651,-0.00173615,0.00078241,-0.00139505,-0.00105689,0.00002429,0.00378952
-0.00124838,0.00039088,-0.00093345,-0.00448340,0.00035420,-0.00269047,-0.00187033,-0.00034979,0.00086729
0.00016519,-0.00231734,0.00294654,-0.00317325,-0.00875800,-0.00155099,0.00209650,-0.00030835,0.00004844
-0.00456402,-0.01227205,-0.00814002,-0.01219041,-0.00170482,-0.00425442,-0.00912120,-0.01093947,-0.00782481
-0.00035245,0.00432533,-0.00551117,-0.00490184,-0.00259478,0.00164658,-0.00226929,-0.00378669,-0.00364084
0.00279829,0.00252636,0.00008996,0.00064251,0.00105095,-0.00168720,0.00306188,0.00730696,-0.00076100
-0.00241473,-0.00380488,-0.00300524,-0.00301203,-0.00470468,0.00204688,-0.00124148,0.00043511,-0.00974612
-0.00333322,-0.00049778,-0.00672442,-0.00301655,-0.00191639,-0.00370752,0.01306045,0.00662671,-0.00293685
0.00674798,0.01108247,0.00466695,0.00788342,0.00290981,0.00966319,0.01086360,0.00700834,0.00833391
-0.00584289,0.00366950,0.00529046,0.00044636,-0.00140199,-0.00068963,0.00141078,-0.00469553,-0.00179900
-0.00444668,-0.00996122,-0.00194062,0.00357440,0.00851833,-0.01087669,0.01534708,0.00292782,-0.00222246
0.00081968,-0.00432840,0.00266145,-0.00498168,0.00331650,-0.00289302,-0.00773413,-0.00386129,0.00311816
0.00730236,0.00365509,0.00192495,0.00174414,0.00554061,0.00574590,-0.00470820,0.01256251,0.00243061
0.00389925,-0.00286687,-0.00155624,-0.00267569,-0.00204213,-0.00195262,0.00214750,-0.00219377,0.00252623
0.00832718,-0.00542459,0.00018764,0.00261804,0.00459413,-0.00095197,-0.00305943,-0.00384790,-0.00302378
0.00408892,-0.00062906,-0.00238248,-0.00266403,-0.00233067,0.00033048,0.00052903,-0.00357398,0.00020196
0.02178728,0.04136708,0.03476707,0.01409918,0.02513756,0.01610661,-0.01038760,0.00404819,0.00182778
-0.00088886,0.00261480,-0.00273973,-0.00053109,0.00339800,-0.00033266,0.00071540,0.00016695,-0.00035528
-0.00109676,-0.00294330,0.00215150,0.00167518,-0.00077565,0.00327776,-0.00272727,-0.00187800,-0.00111060
-0.00093636,-0.00048360,0.00217598,0.00158986,-0.00476140,-0.00309799,0.00228815,-0.00426828,0.00294528
0.01350152,0.03390192,0.03707173,-0.00377598,0.01844200,0.01859965,-0.01389721,0.00040789,-0.00149263
-0.00031260,0.00635951,0.00252451,0.00616040,0.01056802,0.00168169,-0.00131671,-0.00209906,-0.00777364
-0.00559629,-0.00400641,-0.00363033,-0.00209249,-0.00190690,-0.00279459,0.00138845,-0.00124455,-0.00275858
0.00093379,0.00056525,0.00389714,-0.00482552,-0.00144246,0.00172472,-0.00564658,-0.00103861,0.00118517
-0.00880110,-0.00003628,-0.00305542,-0.00461176,-0.00541224,-0.00014064,-0.01313230,-0.00009234,-0.01157591
-0.00415101,-0.00936439,-0.01828696,-0.00606243,-0.01266691,-0.02448603,-0.00547626,-0.00756633,-0.01942754
-0.00096925,0.00319388,0.00636519,0.00047760,0.00386925,-0.00474383,0.00825479,0.00196127,0.00224769
0.00211397,0.00057273,0.00561558,-0.00138083,0.00298512,0.00217370,0.00398213,-0.00170932,0.00064247
0.00253868,-0.00029332,0.00173798,0.00472264,-0.00043915,-0.00001849,-0.00304921,-0.00098154,0.00158703
-0.00280134,-0.00330238,0.00269484,0.00216344,0.00353641,0.00151771,-0.00353463,0.00083071,-0.00339931
-0.00446026,-0.00229465,0.00350838,-0.00789916,0.00412593,0.00037869,0.00420463,0.00129451,-0.00360039
0.01068431,0.00825476,0.00644438,0.00776999,0.00258868,0.00316029,-0.00077063,0.00402872,0.00396671
-0.00060108,-0.00137849,-0.00735301,0.00025340,0.00602401,-0.00337566,-0.00219463,0.00047406,-0.00072539
0.02423815,0.03071888,0.02897837,0.01250910,0.01576191,0.01884893,-0.01477755,0.00262846,-0.00038311
-0.00046130,0.00647599,0.01111032,-0.00207149,0.00038420,0.00796480,-0.01035578,-0.00982044,-0.00910607
0.01850156,0.02295233,0.01709475,0.02288043,0.03904897,0.02937494,0.04103610,0.04898328,0.04622907
0.00244205,0.00218417,-0.00789628,-0.00453091,0.00230327,0.00128718,0.00154331,-0.00087248,0.00352669
-0.00080457,-0.00450407,-0.00033778,0.00206017,-0.00211178,-0.00388943,0.00210608,-0.00386234,-0.00333715
0.01161225,0.01905039,0.01431446,0.01463214,0.01940883,0.01588058,0.00982771,0.01722656,0.00615450
-0.00855178,-0.00369672,-0.00046781,-0.01185610,-0.00530573,-0.00306767,-0.01132831,-0.01567450,-0.00056151
0.00233387,0.01961019,0.02483089,-0.00272281,0.00997235,0.01983009,-0.00728044,-0.00794524,0.00142175
-0.00094071,0.00478261,-0.00299549,-0.00094896,0.00071111,0.00287198,-0.00330843,-0.00150417,-0.00002767
-0.00197727,-0.00014058,-0.00065090,0.00047460,0.00815045,-0.00345671,-0.00185069,-0.00293744,0.00011506
0.00264946,0.00036638,-0.00467983,-0.00630477,0.00092180,-0.00284114,-0.00291657,-0.00201274,-0.00329257
0.00390107,0.01077439,0.00171646,0.00131413,0.00547327,0.00384324,0.00205225,0.00870722,0.00234826
-0.00159035,-0.00189032,0.00068115,-0.00321091,-0.00137837,-0.00775441,-0.00233529,-0.00393822,-0.00485135
0.00029405,-0.00420031,-0.00491717,-0.00204491,-0.00212586,-0.00054304,0.00221202,0.00032112,-0.00497850
0.00236199,0.00021985,-0.01971461,-0.00049989,-0.00519051,-0.02368881,-0.00548735,-0.00951455,-0.01149729
0.00072648,-0.00019954,0.00030780,-0.00033898,-0.00364537,0.00396440,0.00031547,0.00453363,-0.00172218
-0.00617132,-0.03165457,-0.03236610,-0.00485581,-0.02244614,-0.04304991,0.00617122,-0.00729137,-0.02185121
0.00261520,0.00347510,0.00162588,0.00581540,0.00878465,0.00275148,0.00407386,0.00842090,0.00632423
0.00949543,-0.00061348,-0.00476349,0.00123068,-0.00060170,0.00122495,-0.00126120,0.00570771,0.00203606
0.00285375,0.00323049,-0.00199908,0.00332571,-0.00334100,-0.00212169,0.00076309,0.00208277,0.00475777
-0.00114291,-0.00217546,0.00326665,-0.00332195,-0.00059950,0.00071588,0.00855201,0.00603329,0.01102680
0.00657851,0.02971427,0.00782969,0.01025849,0.03168191,0.01219854,0.00605037,0.00973562,-0.00348581
0.00580504,0.00372001,-0.00349491,0.00141146,-0.00286460,0.00197098,-0.00262086,0.00347165,-0.00017743
-0.00406279,0.00114210,0.00035205,-0.00204053,0.00400236,0.00099063,-0.00038936,0.00133562,0.00398176
0.00186942,0.00107353,-0.00364969,-0.00007407,-0.00758544,0.00276761,-0.00020399,-0.00051776,0.00327452
0.01007988,0.01860561,0.02208647,0.00555036,0.01777233,0.01725964,-0.00706630,-0.00261221,0.00520738
0.00731288,0.02933396,0.01984356,0.00727899,0.02643032,0.02051439,0.00679686,0.02467511,0.01723542
-0.00071509,-0.00285409,-0.00242727,-0.00654738,-0.00659828,-0.01137554,-0.01694495,-0.02020705,-0.02154887
-0.00128191,-0.01048973,-0.00348923,-0.00780680,-0.00628179,-0.01452906,-0.00727440,-0.01188698,-0.00661287
-0.00276665,-0.00140121,0.00060537,0.00046563,-0.00335663,0.00334580,0.00145476,-0.00175114,0.00093502
0.00138757,-0.00251647,-0.00630851,0.00240441,0.00483610,-0.00054174,-0.00483804,-0.00339318,0.00026570
0.00210113,0.00196218,0.00353534,-0.00326789,0.00589255,0.00337850,0.00521009,-0.00101967,0.00238349
0.00228498,0.00276921,-0.00456214,0.00721186,-0.00359777,0.00217898,-0.00019235,0.00044334,-0.00047717
0.00396353,-0.00077464,0.00380228,0.00891828,0.00483459,0.00502379,0.00213367,0.00525104,0.00337928
0.04324875,0.04627015,0.03906662,0.03882105,0.04330681,0.02483073,0.02881113,0.02577770,0.01933732
-0.00165670,0.00140167,-0.00040142,-0.00168450,0.00432917,0.00278979,-0.00173920,0.00107860,0.00219024
-0.00416151,0.00311252,0.00109267,-0.00446698,-0.00296813,-0.00400414,-0.00746589,0.00530791,-0.00040670
0.00253402,0.00136856,0.00596025,0.00232610,-0.00198555,-0.00094129,0.00049136,0.00148189,0.00271558
-0.01368855,-0.00536150,-0.01468140,-0.01716780,-0.00726039,-0.01253175,-0.01476250,-0.01545351,-0.01515420
0.02977133,0.03814121,0.03891008,0.01651440,0.03737481,0.02154249,-0.00871088,0.00187747,-0.00320928
0.00281961,-0.00027826,-0.00283912,-0.00742988,-0.00017236,0.00678706,-0.00174743,-0.00166340,0.00162699
0.00131863,-0.01899885,-0.03788174,-0.00350817,-0.01570910,-0.03104918,0.00168440,-0.00557933,-0.01595367
-0.00560418,0.00264695,-0.00050379,0.00140391,-0.00062030,-0.00086915,-0.00076848,-0.00294733,-0.00269011
0.00182979,-0.00393583,0.00123579,-0.00364927,-0.00014433,0.00769212,-0.00286457,-0.00373781,0.00960931
-0.01003931,0.00169813,0.00284938,-0.01026615,0.00191290,0.00039615,-0.00417054,-0.00382385,0.00430355
-0.00251715,0.00400270,-0.00382052,-0.00028578,-0.00033574,-0.00039850,-0.00251036,-0.00626860,0.00040785
-0.00691612,0.01460262,0.02193824,-0.00618807,0.00783931,0.02616037,-0.00314525,0.02399934,0.02904632
0.02674327,0.01871668,-0.00738694,0.02031026,0.02275893,-0.00741378,0.00702771,0.00545158,-0.00732724
0.00564985,0.00127492,-0.00073619,-0.00383722,0.00419410,0.00126361,0.00533244,-0.00355972,-0.00370059
-0.00405641,0.00522156,0.00780093,-0.00692632,0.00437932,0.00743630,-0.00174090,0.00774950,0.01248265
-0.00160568,-0.00106150,0.00210475,-0.00165225,-0.00052398,0.00202066,-0.00313594,0.00037169,-0.00284010
0.01717051,-0.00101728,-0.02056370,0.02419342,0.00734285,-0.01993798,0.02097172,0.01100271,-0.01017392
-0.03480516,0.00938282,0.00906390,-0.00794348,0.00868680,0.00594555,-0.01143090,-0.00239855,0.02631263
-0.01530977,-0.00932366,0.00073054,-0.01847366,-0.00250247,0.01439833,-0.02861763,-0.00666000,0.01155641
-0.00041846,0.00059993,-0.00130065,-0.00245034,-0.00109327,-0.00186976,-0.00064572,-0.00449956,-0.00385009
-0.00234683,-0.00396419,-0.02185884,-0.03050958,-0.01247645,0.01031094,-0.03858695,-0.00634704,0.01878227
-0.04401778,-0.05731136,0.01737533,-0.08651286,-0.01195467,0.10398952,-0.03937694,0.02124172,0.05892470
-0.01645566,-0.00669667,0.00352208,-0.01709961,-0.00575522,-0.00567532,-0.02053394,0.00330867,-0.01016459
-0.00957640,-0.00680751,-0.00059583,0.00051175,-0.00551674,0.00094372,-0.00884914,-0.00188267,-0.00230846
-0.01175482,-0.00884263,0.00335970,-0.02243113,-0.00892559,0.00396013,-0.02497455,-0.01262015,0.01116383
-0.01502211,-0.00810173,-0.01199157,0.01442292,0.02140508,0.02471740,-0.02086537,-0.01806385,-0.00474728
-0.02801066,-0.00411661,-0.00117028,-0.01700892,0.01166098,0.01004915,-0.01217298,-0.00708396,-0.00193091
-0.00798741,0.00676567,0.00589315,0.00389874,0.01122799,0.00465161,-0.01792357,-0.01770580,-0.01398099
-0.00568892,-0.00299965,0.00057608,-0.00730212,-0.00441922,0.00617106,-0.00522064,-0.00618240,-0.00103244
0.01665385,-0.00101235,-0.02478486,0.01208220,0.01130367,-0.02738836,0.00636748,0.00183319,-0.03327681
0.00716463,0.01117084,-0.00887037,0.01247995,0.01119854,-0.00231109,0.00756011,0.00793267,-0.00144645
-0.03998430,-0.03148413,-0.03887037,0.00383696,0.00791128,-0.01725434,0.02095547,0.03126509,0.01303684
-0.00411148,-0.00035016,0.00993315,-0.00649249,0.00165683,0.01035687,-0.00508328,-0.00503994,0.00747586
-0.01500433,-0.01568121,-0.01307106,-0.02677938,-0.01625652,-0.00401480,-0.01799009,-0.00443242,0.00085433
0.00208635,-0.00233072,-0.01319101,0.00604368,-0.00425079,-0.01038851,-0.00403662,-0.00359923,-0.01047802
-0.03751788,-0.02529149,0.00218917,-0.01787058,-0.00217565,0.01673346,-0.00085562,0.00538357,0.01819279
0.01318030,0.00536281,-0.02053357,0.01166479,0.01470395,-0.00554168,0.01381165,0.00899192,0.00226565
-0.01362789,-0.00783659,0.00521690,-0.01571194,0.00200994,0.01018966,-0.01312044,-0.00059896,0.01609657
0.00235857,-0.00205659,0.00218846,-0.00337818,0.00001569,0.00908791,-0.00175060,0.00227500,-0.00195163
-0.00505484,0.00731556,0.00934171,-0.00500339,-0.00272440,0.00100534,-0.01411744,-0.01442987,0.00499937
0.00143121,0.00198012,0.01079062,0.00404343,-0.00161456,0.01099615,0.00291912,-0.00069516,0.01767140
0.01136107,0.00096201,0.00457714,0.00509569,0.00282719,0.00265967,-0.00669929,-0.00047018,0.01215649
-0.01156732,-0.01292634,-0.00411301,-0.01462099,-0.00032016,0.01181441,-0.00849324,0.00172662,0.01793366
-0.05478868,-0.04845689,0.02638175,-0.06869579,-0.00605194,0.09457512,-0.03813797,0.01615201,0.06349230
0.00491789,-0.00267988,-0.00099123,0.00921343,0.00262976,0.01094259,-0.00346709,0.00207945,-0.00177709
-0.02885950,-0.05667215,0.04980252,-0.07604723,0.00369808,0.15638088,-0.02464663,0.06299384,0.10153615
-0.03312678,-0.00241323,-0.00297925,-0.02516008,0.01344772,0.00901756,-0.02410325,0.01227116,0.01191272
-0.00502304,0.00401473,0.00692306,-0.00187246,-0.00596058,0.00113562,0.00417272,-0.00034128,0.00320325
0.00265344,0.00653585,0.00069900,0.00210410,0.00040591,0.00111399,0.00077631,0.00108736,-0.00325708
-0.00684235,-0.00121520,0.01640235,-0.00654939,0.00076636,0.00634588,-0.00495974,-0.00593876,-0.00046952
-0.03849400,0.03114476,0.00238266,0.01145641,0.01129111,-0.02746635,-0.02261199,-0.03435514,-0.01061293
-0.03023469,-0.02891994,-0.01994964,-0.00707825,-0.01453313,-0.00541143,-0.00460292,-0.00751800,-0.00642704
-0.00577169,0.00094922,-0.00221869,0.00061890,-0.00122280,0.00201759,-0.00288625,-0.00394988,-0.00282511
-0.00895555,-0.00364158,0.00249345,-0.00628379,0.00285500,0.00188582,-0.00549904,-0.00206982,0.00793707
0.01531603,0.00664565,-0.00203715,0.01148429,0.00303848,0.00064673,0.00379379,0.00158827,0.00181548
-0.00479794,-0.01797274,0.01350948,-0.00303207,-0.01055740,0.00749236,0.00635613,-0.00512665,0.00526531
-0.00925442,-0.00498197,0.00302162,0.00495260,0.02497704,0.02825049,-0.04233157,-0.02839965,-0.02611308
-0.01182339,-0.01376701,0.00854368,-0.03184429,-0.00567462,0.02708896,-0.02981109,0.00009851,0.02400059
0.04910798,-0.00032382,0.03879689,-0.02805956,-0.00525080,0.03536495,-0.01168567,-0.04162527,-0.02779610
-0.00250020,0.00090043,-0.00366482,0.00244893,0.00969180,0.01155184,-0.01091663,-0.00759186,0.00973278
-0.01378002,-0.00125986,-0.00180051,-0.01316201,-0.00130868,-0.00172712,-0.00626463,-0.00318176,0.01207632
-0.00475424,-0.00512888,-0.00023277,0.00134648,-0.00278662,0.00717242,0.00616908,-0.00496512,0.00235972
-0.01480280,-0.00838274,0.00282479,-0.01626644,-0.00233917,0.00169972,-0.01397662,-0.00146212,-0.00025615
-0.00853579,-0.01981798,-0.03288217,0.00711585,-0.01276725,-0.03008845,0.00101346,-0.00536560,-0.02738848
0.00256923,0.00254417,-0.00236254,-0.00503627,-0.00306350,-0.00426845,0.00411820,-0.00237460,0.00082474
-0.00157553,-0.00053529,0.00953336,-0.01154983,0.00251652,0.01060332,-0.01363078,-0.00568935,0.01268443
-0.00864185,-0.00066185,-0.00296495,0.00085802,0.00089318,0.01076801,-0.00702336,-0.00817908,-0.00004874
-0.03058372,-0.01258895,0.00215630,-0.03090371,0.00201598,0.02909766,-0.02091375,0.00779211,0.03680083
0.02020214,0.00773175,-0.02447940,0.02418130,0.01881324,-0.01494629,0.01344549,0.01083011,-0.01971133
-0.00189734,0.00347727,-0.00836665,0.00110184,-0.00393668,0.00182617,-0.00299724,0.00021090,0.00202949
-0.03189215,-0.03777466,0.04962555,-0.07251016,0.00399575,0.13563794,-0.02430384,0.05419167,0.09654346
0.00200872,-0.00492445,-0.00318461,-0.00153136,-0.00008687,0.00824257,0.00029212,-0.00297578,0.00114172
0.00426647,0.00988427,-0.00571180,-0.00193079,0.01050944,-0.00172385,-0.00057417,0.01075777,0.00565291
-0.00280342,0.00643120,-0.00293076,-0.00670325,0.01439277,0.00508651,0.00497319,0.02518197,0.00408717
-0.00109985,-0.00137250,-0.00065795,-0.00711998,-0.00244433,0.00292677,-0.00411999,-0.00053652,-0.00239611
-0.00232356,0.01121001,-0.01078146,0.00466216,0.01560012,-0.00151325,0.01026202,0.01997733,0.01539128
0.03085131,0.04237713,0.03882187,-0.00079272,-0.00026844,-0.00468107,-0.03286703,-0.02131332,-0.01921526
0.00546369,-0.00931836,-0.00095954,-0.00056704,-0.00135069,0.00040661,0.00164029,0.00271578,0.00412106
-0.00513108,-0.00047025,-0.00927281,-0.00148269,0.00322571,-0.00161552,0.00240344,0.00600412,0.00063147
-0.00624129,0.00018409,-0.00504362,-0.00244644,0.00621527,0.00189186,0.00402515,0.01282627,-0.00537636
0.02006007,0.04031591,0.02906087,-0.00620736,-0.00799434,-0.01081119,-0.03456478,-0.02807554,-0.02366600
-0.00609135,0.05343211,-0.02357660,-0.01012406,0.02691886,-0.01840818,-0.00825343,-0.02120866,0.00416311
-0.00150962,0.01301879,0.00323633,-0.00260664,0.02505432,-0.00008148,0.01125750,0.04783497,0.01320942
-0.00001597,0.00068528,-0.00007040,0.00060672,-0.00273336,0.00115725,0.00135333,-0.00257216,0.00201498
-0.01974794,-0.02601645,-0.03777527,0.00493260,0.01496836,-0.00533488,0.02367225,0.05157644,0.02255501
-0.07006185,-0.13443190,-0.08670091,-0.01151352,0.03244745,0.02826189,0.04493088,0.12314445,0.03885794
-0.00347103,0.02650185,0.00481357,0.00340684,0.02255537,0.00208775,-0.00232658,0.02870797,-0.00518805
0.00086295,-0.00715713,-0.00037099,0.00073630,0.00227187,0.00213633,-0.00041083,0.00588228,0.00245741
-0.01251677,-0.00275998,-0.00368895,-0.00508832,0.01253396,-0.00445743,-0.00264526,0.02220538,0.00374257
0.00002859,0.00055102,-0.00234213,0.00512513,0.00466853,0.00163261,0.01369674,0.00838167,0.00775255
-0.00789251,0.00450438,0.01812432,0.00367468,0.00162985,0.00640944,0.01330166,-0.00265328,-0.00597598
-0.01097247,-0.02287268,-0.03194205,-0.00703700,-0.01780655,-0.03089476,0.00227959,-0.00651963,-0.02865900
0.00170250,-0.00283881,-0.00499896,-0.00238464,0.00154515,-0.00073330,-0.00240849,0.01025108,0.00693957
0.02928307,0.03093038,0.02800344,-0.00745544,0.00496255,0.00162509,-0.02941377,-0.02074294,-0.02185831
0.02585080,0.02507476,0.01237122,0.01136300,-0.00727527,-0.01121915,-0.01778210,-0.02896882,-0.03635569
0.03275013,0.05948228,0.02444978,-0.00829422,0.00241435,-0.03224837,0.04338893,0.03258936,0.02211209
0.00534842,0.00722622,0.00823463,-0.00184350,-0.00205417,-0.00356867,-0.00194555,0.00175914,0.00078021
-0.00292071,-0.00273959,-0.00447298,-0.00692372,-0.00314719,-0.00852862,0.01945850,0.03254721,0.01250983
0.02166726,0.01857034,0.00512837,0.00432198,0.00194603,-0.00190346,0.00009087,-0.00756317,-0.01554989
-0.01768891,-0.00675939,-0.01537673,0.00929474,0.03508405,0.01877623,0.02088221,0.02387964,0.01868399
0.01308464,0.03578704,0.02366942,0.00237400,-0.00030960,-0.00411352,-0.01933030,-0.02354478,-0.02898059
-0.01419893,0.00571553,0.00043121,-0.00530512,0.02069352,-0.00510679,0.00270082,0.02967337,-0.00355274
-0.00369224,-0.00131254,0.00490755,0.00259226,0.00135816,0.00472226,0.00204578,0.00903696,0.00711450
-0.01150442,0.01766413,0.00365706,-0.01825098,-0.00510586,-0.01336559,-0.01837247,-0.00040929,0.00276313
0.00332819,0.01034590,-0.01950907,0.00912776,0.01179166,-0.00878825,0.00159040,0.01324777,0.00519356
-0.00542339,-0.00356996,-0.01017458,0.00287119,-0.00061912,-0.00343957,0.00118111,0.00149956,-0.00366299
-0.01474418,-0.02093647,-0.00915181,-0.01390254,-0.00831102,-0.00311647,0.01746494,0.01785976,0.00711200
-0.03746341,-0.08480951,-0.06185180,-0.01070478,0.02762301,-0.00554508,0.03571651,0.13063042,0.04690056
0.00241633,-0.00188018,0.00103823,0.00545158,-0.00334706,0.00154868,0.00732272,0.00184182,0.00581809
-0.05555024,-0.18638489,-0.09433818,-0.00163000,0.00598740,0.02056648,0.05036034,0.18989713,0.06978998
-0.01283629,0.04570923,0.01946166,-0.03103740,0.02859990,-0.01627436,-0.00098141,0.03675593,-0.00882580
-0.00112036,-0.00190450,0.00168608,-0.00391151,-0.00378464,0.00022335,-0.00170024,0.00129468,0.00169720
-0.00164740,0.00340830,-0.00002066,-0.00256107,-0.00615318,-0.00244660,-0.00085595,-0.00205386,-0.00661045
0.01630046,0.01411156,0.01182702,-0.00977019,-0.00382864,-0.00927947,0.00085890,0.00702811,0.00162128
-0.02368898,0.11998142,0.05490656,-0.03636827,0.01738692,-0.01263213,-0.02183518,-0.05880859,-0.00555414
-0.02247743,-0.01836247,-0.01634060,-0.06370687,-0.06605548,-0.06639968,0.00831972,0.00266163,0.01234806
0.00453741,0.00516233,-0.00142098,0.00075742,0.00464334,0.00065771,-0.00004478,-0.00086322,-0.00167944
-0.00636192,-0.00251980,-0.00075925,-0.00193246,0.00107422,0.00552179,0.00094352,0.00179768,-0.00075003
0.01572092,0.04463430,0.04607282,-0.00031463,0.00673436,0.00518949,-0.02916765,-0.02663541,-0.02172948
-0.00785594,0.00893968,-0.00426692,-0.00830834,0.00422584,-0.00263767,-0.01827291,-0.01300716,-0.00368323
-0.01627827,-0.02461700,-0.02363668,0.00093410,-0.00850288,0.00199589,-0.01014804,-0.01434340,-0.00632288
-0.01341548,-0.02427821,-0.01391259,-0.00741390,-0.00113049,-0.00189520,0.02946875,0.04856646,0.00665132
-0.04459607,-0.08340207,-0.04264210,-0.00750987,-0.00316344,0.01858705,0.02362033,0.09633170,0.10050758
-0.00607085,0.00170046,-0.00419301,-0.00802693,-0.00237495,-0.00746312,0.01398042,0.00281701,0.00758100
-0.01145013,0.01093518,0.00788018,-0.01111067,-0.01210963,-0.00766817,0.00929034,-0.00049600,0.00537904
0.00316265,0.00792788,-0.00189725,0.00201659,0.00552608,0.00331110,-0.00394443,0.00147527,-0.00086477
-0.00353965,0.02091743,0.00221627,-0.00311975,0.02449990,-0.00498323,0.00362959,0.03587345,-0.00207266
0.02336827,0.02611506,-0.03214335,-0.00933156,-0.01125956,-0.02767496,-0.02812609,-0.02341979,-0.03765000
0.00230110,-0.00014857,0.00364737,0.00592379,0.00418680,0.00117699,-0.00585312,0.00331736,-0.00002716
-0.01713897,-0.01155322,-0.00508219,-0.00668749,-0.00311718,0.00124253,0.00643971,0.02396395,0.00183551
0.00548606,0.00215698,-0.02220218,0.00641264,0.01548102,-0.00783916,0.00572188,0.01467679,0.00553591
-0.02907480,-0.02998809,-0.02819254,0.00066033,0.00417615,-0.00882879,0.03957895,0.06359340,0.03439300
0.04220638,0.04923973,0.04331484,0.00109075,0.00954399,0.00284517,-0.03625550,-0.03117207,-0.02888217
-0.00430245,-0.00075156,-0.00367174,-0.00374719,-0.00077452,0.00159454,0.00020342,-0.00029909,0.00146276
-0.06072782,-0.15472355,-0.10214768,0.00043627,0.03076172,0.01457542,0.04438102,0.16185535,0.06424214
-0.00174932,-0.00047425,-0.00207800,-0.00215625,0.00279962,0.00136738,0.00666756,0.00845755,0.00508242
-0.00054226,-0.01222949,-0.01945558,-0.00136343,-0.01421458,-0.01877289,-0.00311886,-0.02445492,-0.01707770
0.00408090,0.01066128,-0.00034313,0.00415933,0.01783562,-0.00318161,0.00512037,-0.00463654,-0.00369032
-0.00462401,0.00083209,-0.00437461,0.00215976,-0.00332058,0.00191454,-0.00489431,-0.00555312,-0.00158348
0.00404794,-0.01449085,-0.01847762,0.01719865,-0.00807570,-0.02395252,-0.00691485,-0.01630136,-0.01054943
0.00223196,0.01534718,0.00553798,0.00790895,0.02992240,0.01798885,-0.00579465,0.01435181,0.00592972
-0.00025949,-0.00027759,0.00416593,-0.00553646,0.00093496,-0.00121015,0.00589113,-0.00023076,0.00486947
0.00585791,-0.00629193,-0.00735723,0.00546692,-0.00085359,-0.01119314,-0.00027775,-0.00705282,-0.00652689
0.00322479,-0.00104629,0.00130005,0.00031808,0.01561662,-0.00453547,0.00234683,0.00230792,-0.00638503
-0.00457382,0.00287121,-0.00328413,0.00428645,0.02643395,0.00531960,-0.00431380,0.01339495,-0.00055933
-0.00963500,0.01980147,-0.03030506,0.01935017,-0.01467168,-0.00017795,-0.00532284,-0.03875200,0.00567343
0.01902453,-0.00620334,-0.00867501,0.01613771,0.02342893,-0.00025813,0.01251509,0.00613311,-0.00073562
-0.00267851,0.00436447,0.00052355,0.00350317,-0.00240874,-0.00128456,0.00499058,-0.00088678,0.00290666
-0.00356221,0.03147211,0.00338291,-0.00759384,0.01963139,-0.00418986,-0.00906133,0.01197568,-0.00619648
-0.00404911,-0.01275163,-0.01488829,0.00485622,0.15055934,0.02459658,-0.00836297,0.06076951,-0.03117257
-0.00074874,-0.00831968,-0.00950446,-0.00111536,0.00657227,-0.01041119,0.00175742,-0.00429331,-0.00122404
-0.00071431,-0.00593350,0.00194468,0.00211015,0.00714321,-0.00199270,-0.00091571,0.00326642,0.00088917
0.00676045,0.00444962,0.00107021,-0.00472491,0.00860518,0.00295197,-0.00865047,-0.00402207,-0.00635545
-0.01080505,-0.01249348,-0.00923258,-0.00168607,0.00353497,0.00463023,-0.01024379,0.00004563,0.00118964
-0.00396748,0.00338731,0.00319183,0.00371548,-0.00158520,0.00454855,-0.01036223,-0.01080254,-0.00617847
-0.01261780,0.00298453,-0.00894978,-0.00028052,-0.00744576,-0.00948680,-0.01459839,-0.03372307,-0.03200115
0.00353627,-0.00295360,-0.00211969,-0.00362876,0.00843363,-0.00146400,0.00159164,0.00525417,-0.00985394
-0.00817447,-0.00432182,-0.00852757,0.01314631,0.01617884,0.00419390,0.01290858,0.01015386,-0.01361426
0.01852006,0.01233274,0.00813000,0.01953790,0.01857248,0.01285005,0.02399507,0.01945472,0.01406350
-0.04771435,-0.05329976,-0.04562818,-0.06806799,-0.05368511,-0.06473558,-0.02929613,-0.02045921,-0.02234079
0.00154486,0.00632646,0.00816964,-0.00232242,0.00127867,0.00347158,-0.00815034,-0.00355152,-0.00371405
0.00890788,-0.00229874,0.00224435,0.00507445,0.03174197,-0.00009819,0.01349531,0.01010049,-0.00007960
-0.00478781,-0.01042054,-0.01546252,0.00874053,-0.00126513,-0.01535963,-0.00125271,-0.00608827,-0.01858342
0.02380016,0.03094720,0.01940515,0.00700932,0.01950939,0.00051283,-0.03439805,-0.02113759,-0.01102931
-0.01065473,-0.00752783,-0.01765113,-0.00919667,0.00544575,0.00176855,-0.01087233,0.00760008,0.01518655
0.00871476,0.00612842,0.00171926,0.00520288,0.02462089,-0.00030432,0.00742930,0.00398236,0.00048578
-0.00029198,0.00433214,0.00723022,-0.00011086,0.00399909,0.00192595,0.00632905,0.00253335,-0.00319211
0.00531971,0.02507688,0.00742353,-0.00021103,-0.00489679,0.00118640,-0.01023459,-0.02023476,-0.00915533
-0.00312685,-0.02322384,-0.03566600,-0.00274863,-0.01317377,-0.03319504,-0.00393603,-0.03436166,-0.02487702
0.00342556,0.00863111,-0.00159450,-0.00801113,0.00882685,0.00348496,-0.01125246,-0.01494753,0.00218662
-0.01552121,0.00179254,0.00584060,0.00746664,0.01258002,0.00926300,0.00446145,0.00971941,0.00510138
-0.01294936,-0.01391561,-0.00882495,-0.02250208,0.09367733,-0.01037286,-0.01372843,0.03508667,-0.04551082
-0.00070751,-0.00628617,0.00105642,0.00199484,0.00038130,-0.00231178,-0.00356759,0.00106439,0.00090829
0.00002933,-0.01924001,-0.05073266,-0.01710762,0.19114013,-0.02341367,-0.06441147,0.10633329,-0.07203910
-0.00648349,-0.01293777,-0.02433321,-0.01072759,-0.01559861,-0.00106090,-0.00147795,-0.03033015,-0.00772654
0.00404665,-0.00587326,-0.00351997,-0.00257580,-0.00076712,-0.00315699,0.00051197,-0.00182197,0.00572818
0.00062911,0.00130106,0.00244326,0.00234900,-0.00238942,-0.00581008,-0.00425794,-0.00267141,-0.00124058
-0.00340079,-0.00178044,-0.00315002,-0.00778397,-0.00426007,-0.00343683,-0.01341824,0.00207614,-0.00479347
0.01511462,0.09254605,0.02390092,0.03880136,-0.02728458,0.04249126,0.00132950,-0.05802203,0.03040783
0.00557058,0.01409606,0.01937831,-0.03469741,-0.02650349,-0.03284737,0.00091517,-0.00344418,-0.00519881
0.00013576,0.00281979,0.00311701,0.00166774,0.00351603,0.00382444,0.00210983,0.00156825,-0.00528367
-0.00551109,0.00254984,0.00482872,-0.00157367,0.00515810,0.00120087,-0.00275205,0.00188356,-0.00356337
-0.01590958,-0.00277838,-0.00732524,-0.00568840,0.01999599,0.02037923,-0.00917405,0.01219054,0.01778246
0.00243030,-0.00031418,-0.01287460,0.00970621,0.00317997,-0.01220072,0.00868354,-0.01908991,-0.01139801
-0.01662338,-0.00021065,-0.01406972,-0.01252489,0.00894925,0.01482520,-0.04502576,-0.03890915,-0.02596801
0.01078146,0.02431599,0.00796162,0.00554515,0.05843524,0.00957599,0.01654491,0.03834004,0.00571057
-0.07877879,0.03723750,-0.07039573,0.04540252,0.15943171,-0.00453944,-0.00712698,0.11071608,-0.03074485
0.00873093,0.00332310,-0.00255517,0.00999841,-0.00326487,0.01237258,0.00257065,0.00344525,0.00923763
-0.00995228,0.00082595,-0.00274203,-0.00278709,-0.01415728,-0.00141228,-0.00630090,-0.00688690,-0.00459497
-0.00028063,-0.01124059,-0.01220174,-0.00006641,-0.00716660,-0.01068515,-0.00060268,-0.01350180,-0.01265325
0.00786052,0.00245321,-0.00211213,0.00943466,0.01178894,0.00265178,0.01348033,-0.00313144,-0.00142170
-0.01604583,-0.02182867,-0.04929819,0.02362769,0.00840392,-0.06117190,0.01964915,-0.01925812,-0.09258704
-0.00001366,0.00148090,-0.00259117,0.00278652,-0.00346438,-0.00533143,0.00250061,-0.00269773,0.00094166
-0.00377543,-0.00027254,0.01108716,0.00276107,0.01010480,-0.00302236,0.00083819,0.00180260,-0.00506520
-0.00346084,-0.01898018,-0.03115400,0.00205055,-0.01228418,-0.02061175,-0.01510317,-0.02674770,-0.02688059
0.00849215,0.03465171,0.00706776,0.00852194,0.04036734,0.01224454,0.01586123,0.02185231,0.00950396
-0.02763039,-0.01782134,-0.01905271,0.00435799,0.02548465,0.01216765,-0.01136693,0.01280849,-0.01024456
-0.00023162,-0.00228181,-0.00001131,0.00012224,-0.00414334,0.00086632,0.00054390,-0.00549857,-0.00196929
-0.01212823,-0.04248725,-0.05081864,-0.01803801,0.14598893,-0.01937043,-0.03274438,0.05580148,-0.06381828
-0.00150401,-0.00552094,-0.00339076,-0.00399504,-0.00393686,-0.00054479,-0.00196963,-0.00696030,-0.00049589
-0.00028953,-0.00386073,0.00093760,-0.00077970,0.00664190,0.00738344,-0.00123859,0.00053184,-0.00140987
-0.00479562,-0.00218282,0.00591184,0.00272275,-0.00072268,-0.00066412,-0.00428171,0.00093320,0.00062553
-0.00447868,-0.00644841,-0.00471389,0.00229214,-0.00046055,-0.00069220,-0.00268500,0.00150193,-0.00268072
0.00195501,-0.00023910,-0.00190439,-0.00390416,0.00176801,0.00686124,-0.00041130,0.00174077,-0.00117663
0.00142211,0.00081328,-0.00067681,0.00464295,-0.00414642,-0.00146936,-0.00235920,0.00036097,-0.00421687
-0.00521655,0.00126302,0.00260854,-0.00221369,0.00260374,0.00094104,0.00441740,0.00174526,0.00345193
-0.00062332,-0.00269625,-0.00229838,-0.00369647,-0.00017596,0.00365701,-0.00220142,-0.00373303,0.00075652
-0.00188489,-0.00038531,0.00404730,0.00148276,0.00014336,0.00105094,0.00205444,0.00022308,-0.00563371
-0.00331398,0.00099795,-0.00568398,-0.00114221,-0.00537294,0.00044956,0.00367517,-0.00113285,-0.00050291
0.00043545,0.00074598,0.00346942,-0.00238307,0.00188674,0.00059601,-0.00633556,-0.00031399,0.00059851
0.00446480,-0.00289242,0.00123407,-0.00338698,-0.00077116,0.00471935,-0.00210398,-0.00530447,-0.00109665
0.00147739,-0.00240850,0.00253452,0.00115503,-0.00289006,-0.00195556,0.00339887,0.00047289,-0.00446836
-0.00612420,0.00149707,-0.00212399,-0.00107816,-0.00056986,-0.00394824,-0.00103907,-0.00428231,-0.00029251
0.00213620,0.00241663,-0.00284546,-0.00143944,-0.00276821,0.00059052,-0.00298498,-0.00137290,-0.00255577
0.00608527,0.00031889,-0.00272730,-0.00086122,0.00023842,0.00209659,-0.00066635,0.00491268,-0.00278912
-0.00458632,0.00308318,0.00269074,-0.00333843,-0.00108632,-0.00039330,0.00280287,-0.00278529,0.00189917
-0.00234127,0.00538878,-0.00249903,-0.00282362,-0.00060699,0.00041522,-0.00083459,0.00015118,-0.00548376
-0.00032505,0.00204074,-0.00084810,-0.00026809,0.00716646,0.00262560,-0.00536173,-0.00199783,0.00990289
0.00382752,0.00107933,0.00161444,-0.00463686,-0.00460648,0.00100140,0.00259159,-0.00306890,0.00375368
-0.00001738,-0.00083673,0.00270669,-0.00374377,-0.00384039,-0.00112281,-0.00198334,-0.00494409,0.00203558
-0.00561177,0.00022789,-0.00008173,-0.00147572,0.00448737,0.00262258,-0.00598023,0.00519743,-0.00737935
0.00014985,-0.00063494,-0.00832406,0.00197067,-0.00177573,-0.00320869,-0.00411222,0.00461593,-0.00032074
-0.00561081,-0.00098835,0.00394463,-0.00068130,0.00050348,0.00469861,0.00626470,0.00144970,-0.00149201
-0.00190691,-0.00468464,-0.00491059,-0.00471829,-0.00604957,-0.00518438,-0.00150104,0.00038068,-0.00474131
-0.00265393,0.00053683,0.00104820,0.00095539,-0.00652950,0.00091978,-0.00563358,-0.00178604,-0.00142194
-0.00009053,0.00495219,0.00149864,-0.00258991,0.00367954,0.00166359,0.00366330,-0.00322921,0.00150968
-0.00077965,-0.00049935,-0.00416056,0.00077050,0.00463460,-0.00147260,0.00006192,-0.00181465,-0.00410121
-0.00077872,0.00035527,-0.00260912,-0.00145739,-0.00405325,-0.00750094,0.00343862,0.00037792,-0.00389073
0.00368568,-0.00018876,-0.00327741,0.00103636,-0.00235418,0.00123228,0.00169517,-0.00212679,-0.00785220
-0.00198028,-0.00127314,0.00323898,-0.00013147,0.00074948,-0.00523534,0.00330132,0.00121813,0.00445970
-0.00070201,-0.00214270,0.00475188,0.00160313,-0.00305392,-0.00057366,0.00250844,0.00113890,0.00262506
-0.00011828,-0.00360302,0.00368084,0.00295133,-0.00133343,-0.00461077,0.00343708,0.00495584,0.00175980
-0.00463250,0.00633138,-0.00544503,0.00474050,-0.00338821,0.00220309,0.00136294,-0.00683008,-0.00087103
-0.00075471,-0.00336335,-0.00346030,-0.00526923,0.00318450,0.00286334,0.00188134,0.00235860,-0.00007744
-0.00055064,-0.00249366,-0.00245376,0.00104772,0.00170668,0.00282048,0.00035267,-0.00264841,-0.00590890
-0.00279179,0.00404801,0.00160795,-0.00450420,0.00029144,-0.00224620,-0.00249415,-0.00190516,-0.00096798
0.00817469,-0.00319184,0.00104826,0.00157934,-0.00454492,0.00047728,-0.00342094,0.00367744,-0.00155381
-0.00411563,-0.00024992,0.00118920,-0.00173573,0.00087414,0.00633429,-0.00094106,0.00130699,-0.00241803
-0.00343562,0.00523135,0.00009797,0.00107825,0.00271400,-0.00115552,-0.00173032,-0.00622761,-0.00206475
0.00114817,-0.00443470,-0.00030555,-0.00198352,0.00538882,0.00112333,0.00473082,0.00323262,0.00172934
0.00046638,0.00124340,-0.00460476,0.00531333,-0.00071232,-0.00104338,0.00166907,-0.00286876,0.00593446
-0.00218152,-0.00637841,0.00126612,-0.00013206,0.00280459,0.00201823,0.00282547,-0.00359523,0.00098313
-0.00573155,-0.00092521,-0.00547527,-0.00156816,0.00212133,-0.00171219,-0.00150916,0.00257532,-0.00422537
-0.00288850,0.00251089,0.00033278,0.00127993,-0.00078556,-0.00260122,0.00517539,0.00248856,0.00500993
-0.00008582,-0.00073448,0.00382915,0.00539973,-0.00013706,0.00230345,-0.00157956,-0.00216513,-0.00577985
-0.00112156,-0.00382687,-0.00001352,0.00488782,0.00359609,-0.00457384,0.00042302,-0.00261163,0.00546363
0.00043211,-0.00258725,-0.00207841,0.00383571,0.00017637,0.00442612,0.00073326,-0.00354804,-0.00440061
-0.00171301,-0.00524258,-0.00159805,0.00430317,0.00149235,0.00410639,-0.00235569,-0.00114492,-0.00702722
-0.00497644,-0.00183146,0.00053157,-0.00127382,0.00394068,-0.00467668,0.00190700,-0.00057963,-0.00289186
-0.00121846,0.00211225,-0.00028747,0.00043483,-0.00032415,-0.00195658,0.00175119,-0.00359680,-0.00317761
-0.00182428,0.00099555,-0.00021244,-0.00401345,0.00793170,-0.00043213,-0.00408030,-0.00367269,0.00049207
0.00105406,0.00087712,0.00145853,-0.00326146,-0.00030534,0.00374666,-0.00272017,-0.00158479,-0.00189493
0.00179083,0.00495237,-0.00013372,0.00320691,-0.00313413,0.00449103,-0.00443468,0.00093929,0.00056001
-0.00085789,-0.00083084,-0.00031583,-0.00015483,-0.00217732,-0.00073231,-0.00051773,0.00107481,-0.00190716
0.00367353,0.00091121,0.00377863,0.00086871,-0.00016232,0.00099516,0.00117345,0.00094634,0.00041166
-0.00699557,0.00071681,0.00196451,-0.00381775,-0.00254825,-0.00061892,-0.00202344,-0.00330295,-0.00558321
0.00034737,0.00058074,0.00225360,-0.00080736,0.00291462,-0.00162714,-0.00029950,0.00043348,0.00059249
0.00102788,-0.00265335,-0.00621950,0.00548023,0.00439777,0.00261216,0.00216701,-0.00029931,0.00200240
0.00129958,-0.00192422,0.00175137,-0.00209383,0.00111129,0.00181910,-0.00052881,-0.00062385,0.00276035
0.00543836,0.00047515,0.00100962,0.00145900,0.00298799,-0.00391397,0.00132967,-0.00573118,-0.00051286
-0.00286302,0.00533850,0.00248169,0.00368224,-0.00209828,0.00194220,0.00279385,0.00274556,-0.00118869
-0.00028533,0.00001811,0.00153282,-0.00310466,0.00368459,0.00049454,-0.00070771,0.00054678,0.00003656
0.00120632,-0.00162906,-0.00142418,0.00017012,0.00245122,0.00255558,-0.00421941,-0.00464697,0.00146198
-0.00147878,0.00340727,0.00616281,-0.00032507,0.00138637,-0.00279028,-0.00309659,-0.00203190,-0.00360531
-0.00145761,0.00131477,-0.00491935,-0.00414496,0.00506727,0.00468230,0.00175166,0.00263110,0.00745729
0.01090289,0.01488895,0.00755875,0.00734505,0.00084602,0.00229076,0.00088271,-0.00159990,-0.00164018
0.00393118,0.00818945,0.00054035,-0.00026604,0.00318962,-0.00465024,0.00174788,0.00043135,-0.00182362
-0.00400530,-0.02204894,0.01193031,0.00056212,-0.00900797,-0.00212807,-0.02050665,-0.01804038,0.00065016
-0.00513927,-0.00070684,-0.00972033,0.00264357,0.00551288,-0.00066917,0.00100907,0.00578383,0.00463950
-0.00450588,0.00029708,0.00451193,0.00124503,-0.00140422,0.00072719,0.00225041,0.00362331,0.00241177
0.00607060,-0.00509122,0.00456473,-0.00286918,-0.01009892,-0.00458805,-0.00001885,-0.00325949,0.00012216
0.00651734,0.00292737,0.00734236,0.01050804,0.00362243,0.00181085,-0.00509127,0.00167013,-0.00245321
-0.00874287,0.00228483,-0.00028309,-0.00652604,-0.00470391,-0.00335681,-0.00435314,-0.00506871,-0.00837130
0.01298149,-0.00528247,-0.01448052,0.00325911,-0.00055732,-0.01832503,-0.02751569,-0.00792644,-0.03298451
0.01612866,0.01361078,0.00289742,0.01273352,0.01877783,0.00955849,-0.01479026,-0.00405978,-0.00080309
0.00243413,-0.00084515,0.00179184,0.00238088,0.00673454,-0.00200435,-0.00343661,0.00229135,-0.00069196
-0.00791827,0.01434609,0.00924043,-0.00097798,0.02242900,0.00761920,-0.02792905,-0.01086228,-0.01936299
-0.00686669,0.03165459,-0.00608188,0.04416315,0.06950857,0.02414057,-0.03739839,-0.02392215,-0.03637456
0.00726242,0.00530732,-0.00391428,0.00858362,0.00820423,-0.00286197,-0.01352565,-0.00936530,-0.00853855
-0.00008228,-0.00482134,-0.00051255,0.00160748,0.00945203,-0.00155391,0.00066051,0.00478112,-0.00491188
0.02009480,0.02466466,0.01863195,0.00952423,0.00759052,0.00701314,-0.00707624,-0.00472415,-0.00943298
-0.00390705,0.00071959,0.00058409,0.01420000,0.02000477,0.01521612,-0.02025483,-0.01437899,-0.01009601
0.02356398,0.01046042,0.00388583,0.00744142,0.00626075,0.00534739,-0.00983805,-0.01385369,0.00303984
-0.00266237,-0.00214085,-0.00752015,0.00279117,0.00120304,-0.00487707,-0.01488623,-0.02323906,-0.02303503
0.00680741,0.00968846,0.00037480,0.00787327,0.01287564,0.00020742,0.00260613,0.00141299,-0.00313604
-0.00747232,-0.01115054,-0.00907234,0.00030859,-0.00266351,-0.00232823,0.00815500,-0.00360968,-0.00894201
-0.00423598,0.00067556,0.00272960,-0.00306195,-0.00421455,-0.00374517,-0.00057346,-0.00861358,-0.00135906
0.01037701,-0.00278154,-0.00371073,0.01113246,0.00704585,-0.00401863,-0.00585674,-0.01351095,-0.00732892
0.00493292,0.01250140,0.01236176,0.00465552,0.00204676,0.00097379,-0.01064698,-0.00941534,-0.00793015
0.01192646,0.02229645,0.00311188,0.02276196,0.02581236,0.00686570,-0.01449528,-0.00880311,-0.00365094
0.00267080,-0.00472631,0.00443537,-0.00869181,0.00235937,-0.00798504,-0.00230339,-0.00203012,-0.00391389
0.00470126,0.02182581,0.02373992,-0.00524622,0.01052734,0.00966872,-0.02507223,-0.00589267,-0.00892890
0.00528770,-0.00309174,0.00440186,-0.00416913,-0.00506819,-0.00441380,-0.01530471,-0.00653372,-0.00703656
0.01483225,0.01717362,0.00248194,0.01355766,0.01307186,0.00052257,-0.00588356,-0.00797888,-0.01156196
0.01429674,0.01332677,0.00441535,0.00512937,0.00994156,0.00282452,-0.00385315,-0.00007062,-0.00261689
0.00826943,0.00289756,-0.00582299,-0.00397708,-0.00416112,-0.01395194,-0.00765245,-0.01255364,-0.01525580
-0.00062160,0.00270065,-0.00326417,-0.00909313,0.01279557,0.00707976,-0.00093038,0.00870703,0.00356537
-0.01559219,0.00520552,-0.01573976,-0.01968030,0.00069575,-0.01474360,-0.01139700,-0.00699551,-0.01624279
0.00149487,0.00612931,0.00026852,0.00890140,0.01716992,0.01168531,-0.00676670,-0.00771331,0.00160726
-0.00899407,0.02772554,0.00853036,0.02250884,0.04668007,0.00837155,-0.03511546,-0.03807355,-0.05721853
0.00785991,-0.00268800,-0.00003336,-0.00067495,0.00203030,0.01010947,-0.00517212,-0.00139586,-0.00613074
-0.03311631,0.02676436,-0.01382251,0.02106497,0.06841460,0.00366878,-0.04378630,-0.04612490,-0.06510067
0.00432614,0.01491554,0.00667340,-0.00575733,-0.00001303,0.01163429,-0.01237531,-0.01294775,-0.00027647
0.00315690,0.00219490,0.00893433,-0.00525219,-0.00209146,-0.00194874,0.00192636,-0.00096164,0.00404080
0.00242081,-0.00365634,0.00201225,-0.00097184,-0.00245391,0.00465189,-0.00374382,0.00219364,0.00127008
0.01454221,0.01277100,0.00696187,0.00349685,0.00795839,0.00548144,-0.01130181,-0.00002718,-0.01108262
0.04455535,0.02282637,0.00156316,0.00168129,-0.00112657,-0.01108817,-0.01907542,-0.00422729,-0.01867053
0.03195979,0.02659199,0.00048450,0.01057977,0.01110081,-0.00335671,-0.00150182,-0.00103441,0.00121388
-0.01066116,0.00132904,-0.00031015,0.00083521,-0.00119379,-0.00670384,-0.00510044,-0.00126126,-0.00477093
0.00906756,0.01258291,0.00242757,0.00473852,0.00023495,-0.00096758,-0.00089759,-0.00789976,-0.00517727
-0.00409046,-0.00929295,-0.00402623,-0.00055106,-0.00147973,0.00105954,0.00411638,0.00460893,0.00469002
-0.00351870,0.00033495,0.00425950,0.00319468,0.01653234,0.00263053,0.00578745,0.00837404,0.00407913
0.00390845,0.01421168,0.01380590,0.00662603,0.02193383,0.01492337,-0.02898671,-0.01791550,-0.01222748
0.01870162,0.03132114,0.00798724,0.01278639,0.02641915,0.00970082,-0.01185470,-0.01597741,-0.02124511
-0.02289664,-0.03292283,-0.04919041,0.07706252,0.06655204,0.02072378,0.04035294,0.03934038,-0.02507260
0.01362819,0.00844921,0.00090817,0.00917933,0.01428188,0.00402081,0.00488981,-0.00178864,-0.01681059
0.02251729,0.01741957,-0.00373669,0.00499148,0.00737999,-0.01274046,0.00429102,0.00292073,-0.00562514
0.00457553,-0.00190228,-0.00182977,-0.00023831,-0.00145464,0.00147064,0.00098315,0.00184291,0.00146170
0.00830686,0.00776260,-0.00034279,0.01545230,0.01101285,-0.00095446,-0.00772992,0.00045189,-0.00492451
-0.00847747,-0.00212048,-0.00257084,-0.00494281,0.00305990,0.00061900,-0.00621345,-0.01113075,-0.00794159
0.00471431,0.00184332,-0.00514361,-0.00092729,0.00375107,-0.00035380,-0.00217711,-0.00230876,0.00327719
0.01176063,0.01143380,0.00786526,0.00848525,0.01594359,0.00522179,-0.00767974,-0.00881161,-0.00507852
0.00580717,-0.00381495,-0.00301289,0.00114934,0.00950130,0.00123267,-0.00932526,-0.01016311,-0.01096783
0.00761786,0.02359890,0.01474394,0.00816216,0.02229430,0.01461050,-0.01118119,-0.01049230,-0.00874868
-0.00657829,-0.00861036,-0.00593269,-0.00061635,-0.00047729,-0.00406571,-0.00470711,0.00365689,-0.00086964
0.00738099,0.00178707,-0.00081153,0.00286513,-0.00252068,0.00097513,-0.00342913,0.00407464,-0.00528321
-0.02046042,0.02745649,-0.00518015,0.03702603,0.05986875,0.00108794,-0.03540780,-0.04344573,-0.06361273
0.00400603,0.00955532,-0.00268463,-0.00377372,0.00765875,0.00404313,-0.00747975,-0.00337508,-0.00825284
-0.00212060,-0.00182161,0.00280727,-0.00166811,0.00542591,0.01374932,-0.00398505,0.00371448,0.01246370
0.00399591,0.01425802,-0.00481960,0.00345415,0.03431271,0.00205536,0.00330087,0.00220911,0.00661996
-0.00546617,0.00518449,0.00008880,-0.00015225,0.00103606,-0.00837749,-0.00238856,-0.00724907,0.00030379
0.00340296,0.01270803,0.00548903,0.02058746,0.02405675,0.00772289,0.00144150,0.02278095,0.01264853
-0.02788861,-0.00467681,-0.01184911,-0.02409183,-0.01026440,-0.01671000,-0.03879793,-0.02667512,-0.02111831
0.00210581,0.00027759,0.00089573,0.00521101,-0.00520573,-0.00017721,-0.00116550,0.00456784,0.00038401
0.00170836,0.00908261,0.01143747,0.00717150,0.00920420,0.01246370,-0.00544968,0.00694263,0.01078758
0.00206230,0.00111749,0.00284506,0.01087299,0.01758287,-0.00282307,0.00489381,0.00905284,0.00063623
-0.01508920,-0.00464140,-0.00305367,-0.01613426,-0.01056549,-0.00983382,-0.01181076,-0.00607325,-0.00892901
-0.00102615,0.01400735,-0.03934624,-0.00594941,-0.00184038,0.00971542,0.00254097,0.00570778,0.01432116
0.01299297,0.00256767,-0.00535652,0.01960646,0.03260700,0.00157886,0.02593676,0.02821406,0.01634698
0.00557420,0.00066939,0.00525247,0.00085564,0.00776209,0.00237778,-0.00452230,0.00449057,0.00286542
0.06523567,0.11717912,0.03795769,0.08654893,0.13982865,0.06800786,0.08407443,0.14701900,0.06633892
-0.07946357,-0.01690985,-0.02596802,0.01892163,0.20635273,0.05131159,-0.08084276,-0.00932196,-0.04009768
0.00447323,-0.02826791,-0.00973520,0.00936964,-0.01573573,-0.00600913,-0.00197722,-0.03339162,-0.01013766
-0.00481636,-0.01660815,-0.00513833,-0.00283191,0.00139702,-0.00683813,-0.00138041,0.00390484,0.00191087
0.01061425,0.00818525,-0.00761285,0.01689758,0.03196235,0.00804539,0.00667206,0.02441940,0.00359337
-0.00744073,-0.00676572,-0.00745299,-0.01443237,-0.01133611,-0.00009442,0.00110391,0.01800566,0.03307270
-0.00508582,0.01154393,-0.00270510,-0.00173809,-0.00640824,0.00806834,-0.01111011,-0.01350514,0.01301886
-0.01786822,-0.02873609,-0.02847764,-0.02636160,-0.03201371,-0.01313133,0.01019576,0.00443403,0.03561118
0.00168217,-0.00162117,0.00482741,-0.00174620,0.03147740,0.01156277,0.00054867,0.02028173,0.00699079
-0.02064056,-0.01052913,-0.01334193,-0.01481313,-0.00614500,-0.00909053,-0.01783170,-0.00918307,-0.01587041
-0.00086415,0.00165425,0.00260412,0.00435598,0.00227375,0.00172000,-0.00188154,-0.00231747,-0.00052177
-0.03822457,-0.02296594,-0.00887252,-0.02693196,-0.01238743,-0.02670182,-0.04635967,-0.05101672,-0.04261073
-0.00291564,0.00320611,0.00821238,-0.00737092,0.00140345,-0.00450229,-0.00079101,0.00598695,0.00214955
0.01415293,0.00860308,0.00382528,0.01554176,0.07369106,0.01531031,0.01832649,0.02537180,0.00797862
0.00231027,0.00228759,-0.00003614,-0.00386479,0.00178432,-0.00484531,-0.00166486,-0.00148290,-0.00227576
0.04625849,0.06955160,0.02747436,0.04361849,0.07071336,0.02528970,0.01666623,0.03386382,0.00945583
-0.00918202,-0.00378324,-0.00111979,-0.00359959,-0.01448038,0.00728699,-0.00984931,-0.02214251,0.00565533
0.00720845,0.00641551,-0.00228711,0.00828440,0.03106383,0.00202480,0.01480016,0.01154707,0.00997249
-0.00111301,0.00856912,0.01147107,-0.00257299,0.01826978,0.00344673,-0.00337228,0.00759013,0.00234434
-0.00320040,-0.00558483,-0.00581034,-0.00866275,-0.02299396,-0.00523646,-0.00361717,-0.01172802,-0.00401562
-0.00069922,0.00255343,-0.00347300,0.00949540,0.01785387,0.01034365,0.00321908,0.00538875,0.01839263
-0.00106339,-0.00755819,-0.01215142,-0.00074095,0.00789790,0.00310260,0.00763588,0.00468668,0.00489002
0.00826568,0.01169262,-0.00699026,0.02051442,0.02293543,0.00417640,0.01005604,0.01534398,0.00447947
-0.03247567,0.01536443,-0.01681731,0.01505352,0.16853689,0.03037078,-0.02642449,0.03540971,-0.00021274
-0.00156030,0.00116242,-0.00735246,-0.00634427,-0.00412383,-0.00030242,-0.00290941,0.00565667,0.00613311
-0.13765505,-0.07332721,-0.04113113,-0.06357405,0.18498278,-0.01111455,-0.13414416,0.00436996,-0.10453503
-0.00723705,-0.05184349,-0.03483558,-0.02143162,-0.05823768,-0.02915498,-0.00166295,-0.07114141,-0.02642882
0.00184774,0.00353229,0.00418829,-0.00172520,-0.00144246,0.00423666,0.00090456,0.00052162,0.00347539
0.00482342,-0.00173678,-0.00354064,-0.00257959,0.00356593,-0.00635541,-0.00145195,0.00060876,-0.00088032
0.00292870,-0.00151581,-0.00447317,-0.00381155,0.00686844,-0.00143834,-0.00498965,-0.00458495,-0.00744400
-0.01014826,0.00900787,-0.03306753,-0.03379126,-0.06314111,0.01373973,-0.00093066,-0.01939661,0.03681644
-0.00924969,0.00780242,-0.00099939,-0.00645038,0.00862471,-0.02033561,-0.00173920,-0.00203892,-0.00792112
0.00050140,-0.00292625,0.00361588,-0.00011870,0.00277438,0.00200498,0.00089229,-0.00509238,-0.00202982
-0.00145745,0.00468477,0.00139902,0.00079441,0.00428659,0.00616356,-0.00188517,0.00880740,0.00642101
-0.03923795,-0.01456067,-0.01122701,-0.02400309,-0.01037168,-0.00192560,-0.02296920,-0.01996117,0.00131524
-0.00059173,-0.00692620,0.00765746,-0.00200997,0.00123778,0.01290359,0.00286561,-0.01818056,0.02909493
-0.01471466,-0.03162365,-0.01298760,-0.04691766,-0.04843148,-0.03245432,-0.00490415,-0.00642830,0.02431648
0.00074665,0.02458239,-0.01005301,0.02441756,0.09026773,-0.00530525,-0.00175562,0.04307184,-0.01187100
-0.13364580,0.05677523,-0.04524960,0.04436031,0.28722933,0.19185717,-0.08465133,0.07580616,-0.03534012
-0.00047174,-0.00257428,-0.00286437,-0.00721612,-0.00875220,0.00043551,-0.00267285,0.00736164,0.02317668
-0.01478537,0.00526700,-0.00381104,-0.00623413,-0.02484226,-0.00290599,-0.01275687,-0.00843637,0.00378570
-0.00116592,0.00090664,0.00796225,0.00197934,0.00918423,0.01296663,-0.00404852,0.00276796,0.01175920
0.00255815,-0.01204383,-0.00493262,0.00305294,0.01069302,0.00121521,0.00091835,-0.02020245,-0.00432992
-0.00634356,-0.00934251,-0.00720248,-0.01370784,-0.00049742,0.00010263,-0.02266714,-0.00865568,0.00166329
-0.00238058,0.00554431,0.00367085,0.00077051,0.00164519,0.00031760,-0.00091013,-0.00064981,0.00240099
0.01249285,0.01946651,0.00237318,0.02257470,0.03875381,0.00807303,0.01797198,0.02050349,0.01139449
0.00005676,0.00738867,-0.00587295,-0.00265721,0.01036653,0.00245623,-0.00252192,0.02127183,0.02227812
0.03697733,0.06445105,0.00910666,0.05144265,0.09195585,0.02280470,0.02452621,0.05023949,-0.00466682
-0.02359786,-0.01044786,-0.00852184,-0.01006347,-0.00291533,-0.01045899,-0.02003695,-0.00817059,-0.00331798
-0.00479264,0.00327920,-0.00305835,-0.00074934,0.00049106,0.00048278,0.00255923,-0.00235622,-0.00203095
-0.09705069,-0.03839670,-0.05593464,-0.01394323,0.19125503,-0.00191776,-0.11382271,-0.01232087,-0.09106755
0.00259112,-0.01002456,-0.01185866,0.00425641,-0.01212704,-0.00500693,0.01802048,0.01276925,0.00498977
-0.00685687,0.01903547,0.01362852,0.00003494,0.01894337,-0.00004006,0.00310655,0.01349106,-0.00522909
-0.00370665,0.02523667,0.01081605,-0.00817081,-0.00695861,0.00361175,-0.00376362,0.00605346,-0.00718621
0.00785414,-0.00285584,-0.00419670,-0.00441575,-0.00084317,0.00083181,-0.00125625,0.00048806,-0.00375429
-0.00394066,0.00424590,0.01841682,-0.01621861,-0.01488523,-0.01718750,-0.01663893,-0.02737694,-0.04181729
-0.01699498,-0.00425216,-0.00223365,0.00846475,0.01829469,0.00677296,0.01306049,0.01947296,-0.00213348
-0.00293427,0.00145938,0.00321717,-0.00442803,-0.00157067,-0.00363787,0.00295644,0.00601283,-0.00248419
0.01047630,0.01499892,0.01699204,0.00491981,-0.00563099,-0.00713528,-0.00332600,-0.00128013,-0.00961123
0.00463140,0.01743576,0.00415848,-0.00451893,-0.00713656,0.01126556,0.00230990,-0.00286904,-0.00606449
-0.02596987,-0.00960516,-0.00435284,0.00527772,0.01868939,0.00799353,0.01269652,0.00833660,0.00717385
-0.01777181,-0.01954142,0.07903930,0.03640387,0.04976825,-0.00210481,0.02855532,0.00923793,-0.07222237
0.02915254,0.02868120,0.00401755,0.02097828,0.01223269,0.01154472,-0.02071381,-0.01898707,-0.01983393
-0.00413327,0.00262606,-0.00161158,0.00085859,0.00050197,-0.00675184,0.00096297,0.00055951,-0.00186498
0.03026493,0.05451304,0.03777142,-0.00609900,-0.00675727,-0.02926785,-0.03278081,-0.04501489,-0.08127754
0.08436522,0.21655974,0.00984005,-0.07904523,-0.18585402,-0.06770743,0.01979923,0.05945640,0.10004872
0.03155672,0.00076927,-0.00403966,0.01145423,0.01063378,0.00036673,-0.00719193,0.00080668,0.00124579
0.01074649,0.00549211,-0.00393675,0.00782029,0.00434910,-0.00336830,0.00080389,0.00024075,-0.01221183
0.01215531,0.02256409,0.01320180,-0.00517553,-0.00695858,-0.00186350,-0.01479128,-0.01298285,-0.01163291
-0.00106657,0.00031016,-0.00784374,0.00381005,0.01276086,0.01489927,0.00786213,-0.00028311,-0.01260467
0.01749580,-0.00646773,0.00571768,-0.01023484,0.01431665,0.02821320,-0.02106770,0.00103596,-0.02860644
0.00979465,0.02715703,0.01573255,-0.01568063,0.00053610,-0.00205573,-0.02134180,-0.02571413,-0.02839904
0.00405866,0.01633610,-0.00153549,0.00555974,0.00698778,0.00109888,-0.00307945,-0.00700465,-0.00632456
-0.01733656,-0.00812777,-0.01965474,0.00724846,0.01089624,-0.00449267,0.01242379,0.01232059,-0.00666449
-0.01867552,-0.02544542,-0.02850756,-0.01944254,-0.02302232,-0.02982252,-0.01463898,-0.01492060,-0.02407756
0.06529708,0.08261013,0.06690359,0.00350742,-0.00300294,-0.02166349,0.02936990,0.04688793,0.05391864
0.01063621,0.00986795,0.01199952,0.01349021,0.01536211,0.00828235,-0.00389697,-0.00883773,-0.00793419
0.00105635,0.04074458,0.01662432,-0.00223526,-0.00371439,0.00333866,0.00112559,0.00077329,-0.00779501
-0.01001098,0.00214043,-0.00734734,-0.00356213,0.00687813,0.00041577,0.01353085,0.01085896,0.00841593
0.02230775,0.01530762,0.01315080,0.02541283,0.02123051,0.00727737,0.01445705,0.00825226,-0.02803694
-0.00312140,-0.01826892,-0.01553463,0.00575101,0.00372536,-0.00421600,0.01763229,0.02734755,0.00508776
0.01569059,0.01914941,0.00470703,0.00999589,0.01862876,0.01631624,-0.00900535,0.00252718,-0.00101102
0.00596144,0.01266186,-0.00784414,0.00032951,-0.00131112,-0.00597700,-0.00611617,-0.00618927,0.00094951
0.02367804,-0.00543308,0.00891138,0.02112494,0.04878060,0.01097781,-0.04027617,-0.04229676,-0.05628978
-0.00316198,0.02746220,0.02437399,-0.00723527,0.02862185,-0.00777672,-0.00278733,0.02192546,-0.02342658
0.01310092,0.01196333,-0.01735569,0.00172146,-0.00103910,-0.02630509,-0.03567657,-0.02860318,-0.03990956
0.02841393,0.02515573,0.02280524,-0.00037600,0.00894556,0.00497626,0.00467779,0.00334351,-0.01343530
0.05135606,0.17217366,0.01312556,-0.05288303,-0.10269443,-0.04113576,0.00897998,0.01512326,0.02119343
0.00243516,0.00597396,-0.00069188,0.00216615,0.00181046,0.01084697,-0.00991178,-0.00140725,-0.00100557
0.11591531,0.27293444,-0.02763203,-0.13266322,-0.22473848,-0.09766135,-0.02695920,-0.02514883,0.13347273
0.03141538,-0.00311145,-0.00570087,0.00288159,-0.01939421,-0.01889430,-0.00704551,0.01268118,0.02136662
-0.00065403,0.00630332,0.00146935,-0.00080760,-0.00079413,-0.00388494,-0.00168487,0.00359339,0.00336648
0.00018317,-0.00076940,-0.00397315,-0.00179885,-0.00158546,-0.00026464,0.00377756,0.00090265,0.00247051
0.00311324,0.00319752,0.01304357,0.00959231,0.00978001,0.01418658,0.00668581,0.00477602,0.00771465
-0.03176809,-0.11516903,0.03330539,0.09382733,0.18348888,0.05413070,0.00227243,0.04215027,-0.17749074
0.00729237,0.02052859,0.01434026,-0.01767539,-0.01229326,-0.01310167,0.00305409,0.00082003,0.00102016
0.00032218,-0.00182768,0.00401697,0.00561169,0.00287469,-0.00313215,0.00452479,0.00327327,0.00442200
0.00925021,0.00227280,0.01130803,0.00748212,0.00283485,0.00380073,-0.00619860,-0.01049555,-0.00479838
0.00037228,-0.01388770,-0.01383282,0.01723285,0.02269316,0.01465717,0.01582278,0.03098346,0.02184155
-0.01554910,0.01109340,0.01332585,-0.00633952,0.02427931,0.01335139,-0.00016451,0.03027070,0.01330389
0.04081495,0.04355884,0.03512843,-0.00424240,0.00813782,0.01376453,-0.00534344,-0.01061226,-0.01825299
0.03769252,0.05529488,-0.00093736,-0.02094389,-0.03006362,-0.01918095,-0.01344436,-0.01183032,-0.02205616
-0.03482128,0.01028562,-0.03508536,0.00262340,0.05599954,-0.00608059,-0.03712251,0.02861842,0.04594301
0.00961589,0.01591003,0.01029922,0.00449636,0.01788478,0.01120409,-0.00356645,-0.00770243,-0.02851044
0.01232107,-0.01719263,0.01867856,-0.01113692,-0.01327962,-0.01223452,-0.00302718,-0.00712641,-0.02063380
-0.00198144,0.01136122,0.00304291,-0.00269621,0.00966076,-0.00504266,-0.00231339,-0.00365813,-0.00192921
0.03143347,0.00704332,-0.00317231,0.01269858,0.01003273,-0.00006988,-0.00409287,0.00800173,-0.00061311
-0.04624980,-0.00394633,-0.00909933,0.00008556,0.01963284,-0.00915453,-0.01608323,0.01226316,-0.01287783
0.00383103,0.00760140,-0.00118601,-0.00357315,0.00112916,-0.00375580,-0.00314164,0.00463580,-0.00005718
0.01891463,0.02711197,0.01488679,0.00114270,0.00547526,0.01309855,-0.01173480,-0.00593061,-0.01568083
-0.00249702,0.01459730,0.02825532,0.00095526,0.01678798,-0.00971689,-0.01152990,0.01573658,-0.01943051
0.02054948,0.04078418,-0.00669386,-0.00521750,-0.00093770,-0.01588642,-0.01635205,-0.01499372,-0.03784503
-0.02477811,-0.01393145,-0.01586913,0.00315089,0.01673282,0.01388476,0.02433547,0.03001480,0.00513915
-0.00170659,0.00030819,0.00210795,-0.00056866,0.00216674,0.00175325,-0.00205147,0.00093698,-0.00141639
0.09117097,0.26785189,0.01549597,-0.15193088,-0.22194344,-0.10079020,0.00115624,0.00687381,0.08875722
0.01030893,-0.00202088,-0.01216977,0.00639943,0.00157369,-0.00594303,-0.00786267,-0.01413978,-0.02350208
-0.00204277,0.00478957,0.02107315,0.00108328,-0.00040378,0.00877109,-0.00520853,-0.01248284,0.01333369
-0.01202203,0.00507646,0.00405853,0.00839934,0.00784147,0.00402964,0.00813732,0.01896659,0.00087514
0.00053435,0.00303902,-0.00210436,-0.00622678,-0.00254412,0.00329900,0.00128657,-0.00492261,0.00039020
0.01133671,0.00934070,0.01873249,0.01158095,0.00047435,0.01900623,0.00466209,0.00547368,0.01576533
