0.08588078,0.09292170,-0.00130029,-0.01194014,-0.04765198,-0.03225164,0.00899166,-0.07300411,-0.02513135
0.02306951,-0.08932806,-0.07872076,0.05618646,-0.01567768,-0.04327689,0.01988205,-0.02288350,-0.01743251
-0.02712506,0.11011413,0.14667967,-0.05016454,0.06910770,0.06809846,-0.01780720,0.01092526,0.01046370
-0.00673462,0.06305301,0.02390594,0.01231690,0.01555611,0.00424823,-0.02819636,0.00915474,-0.00280844
-0.03242214,-0.00342227,-0.02675029,0.02946488,0.03986332,-0.04364288,-0.00155812,-0.00702788,-0.04864419
-0.01461786,-0.02932313,-0.01905441,0.00865007,-0.01541359,0.00677764,-0.03315952,-0.01155533,0.02029679
-0.10329057,-0.04245267,-0.04770046,-0.03796118,-0.04598935,-0.05905862,-0.06114308,-0.02542051,0.01668512
-0.02535988,-0.00432136,0.01558028,-0.00554278,0.00392561,0.01011239,0.00915444,0.00263690,0.00950741
-0.03281223,0.02888913,0.00582098,0.00229319,0.04335623,-0.02695475,-0.00314612,0.03405889,-0.02126489
0.03179240,-0.01974603,-0.04274774,-0.00060685,-0.06354971,-0.02499009,0.07688708,-0.00475073,0.03344332
-0.03631856,0.00175220,-0.05716027,-0.02637187,0.02529521,0.00106211,-0.03554706,0.02438290,-0.00802776
-0.06917065,0.06461186,0.07388035,-0.04058257,0.00887531,0.03860000,-0.05335255,-0.01455830,-0.05604742
0.01426183,0.04165677,-0.05714127,0.01637375,0.03208203,-0.03410012,0.00606305,-0.01651567,0.02419815
-0.01737454,-0.06483013,-0.01232056,0.03310454,-0.02811517,-0.00402463,0.05260611,-0.05665017,-0.01422232
-0.04845939,-0.01524095,0.05193134,-0.01450482,-0.00561946,0.07890412,-0.00326499,-0.02819665,0.08724071
0.02787812,0.01323746,0.02616100,0.00972612,0.01207430,0.05167349,0.02407529,-0.03627303,0.03718554
-0.01186713,-0.06508887,-0.08436893,0.00576118,-0.01472835,-0.00011730,-0.02463743,-0.01952996,0.01795956
0.09155062,0.07250658,-0.01196542,-0.00923669,0.01790064,0.00285220,0.00132233,0.00344426,0.03143105
0.08276605,0.07308622,-0.04785913,0.03909374,0.04233495,-0.01620116,0.07689820,0.04986663,-0.02059462
-0.09285032,-0.00711707,-0.01344691,-0.01747520,0.00743904,0.01746020,0.04373855,-0.03867254,0.03457814
0.07024139,-0.01413851,-0.04166389,0.05364888,0.00403112,-0.03693371,0.05505289,0.00430117,-0.05527065
0.03240262,0.01906247,0.05846257,-0.00659041,-0.01690233,0.03363732,-0.01541184,-0.05086458,-0.00587442
-0.10475308,-0.01157834,0.07060857,-0.08095641,-0.00795401,-0.02740682,0.00017174,-0.00775029,-0.03197768
0.02275423,-0.01855519,0.04265522,0.00274346,-0.02988731,-0.00622319,0.03465547,-0.00175094,0.02394731
-0.12143847,-0.05155783,-0.08226797,-0.01975671,0.00768394,-0.09457100,0.05732485,0.03286632,-0.05935562
-0.04130441,0.02648248,-0.00801121,-0.02017212,0.02967904,-0.02939559,-0.05878708,-0.00561574,-0.06756558
0.01667565,-0.03532054,0.00607900,0.07762332,-0.04330797,-0.04174038,0.06344854,-0.04734199,0.00934924
0.00633889,-0.03024291,0.05057321,-0.03132956,-0.00370497,0.02548032,-0.01078311,0.00108637,-0.02918595
-0.04003483,0.08787643,-0.01030130,-0.02200468,0.10816026,0.04788337,-0.05930846,0.01745288,-0.04777602
-0.06216828,0.00276581,-0.03275517,-0.01639444,0.01832729,-0.02031741,-0.01618629,0.00384681,-0.02631979
0.02130280,-0.00981398,0.08543647,-0.04586451,-0.04790058,0.00512780,0.00204286,-0.02686887,-0.01609749
0.02714428,0.06048683,0.03532362,-0.02840185,0.02452705,0.00368191,0.01731946,0.03613336,0.00334487
-0.00793193,-0.12090077,-0.05545015,0.02468469,-0.06602821,-0.03853145,-0.02445065,-0.08394094,0.00871214
-0.05514057,-0.05993500,-0.03677813,-0.00989791,0.00338966,0.01226988,-0.04670904,-0.02403677,-0.01109420
-0.06461241,-0.02680583,-0.08587984,-0.00841372,0.02098224,-0.02013251,0.01076047,0.02662425,-0.02320206
0.01745856,0.01835461,0.00478457,-0.04124050,-0.02501794,-0.04078839,-0.08277567,-0.04440655,-0.07197611
0.03355870,0.06801062,-0.01696790,0.02795761,0.01728751,-0.00741536,0.04764611,0.03988947,0.05606088
0.10776189,0.06777535,0.04301210,0.06492935,0.00154317,-0.02445525,0.05796501,-0.03206407,-0.04620448
0.04817423,0.00203196,-0.06759868,-0.02422165,-0.02495091,-0.02640384,-0.00915171,-0.01035393,0.02066330
-0.00251748,-0.01653873,0.06343299,0.03180474,0.03104139,0.05844922,-0.05278346,0.01182653,-0.01562888
0.00340733,0.04051740,0.05426068,0.04951493,0.02936226,0.03171994,-0.02105440,-0.04001595,-0.01489343
0.06055937,-0.00294104,0.00617249,-0.01989799,-0.05411927,-0.04885825,0.00594741,0.00968843,0.03959174
0.01878302,0.05242280,0.00318799,-0.00132863,0.01562976,-0.00327572,0.00438455,0.02660146,-0.02242935
0.01905693,-0.07220855,0.02361727,0.00286240,-0.00804238,0.01437276,0.01127220,0.04601292,-0.03184580
0.03816962,-0.01671091,-0.09194258,0.03531667,0.03998152,-0.03158274,-0.03047066,-0.02719989,-0.10628484
-0.03181352,-0.10906497,-0.03192830,0.05581532,-0.02567884,0.00950093,0.08573280,-0.03344467,-0.05473852
0.00839361,-0.08817577,0.01626392,0.01371824,-0.05003129,0.08044877,0.02884210,-0.00204529,0.03283728
0.00063696,-0.04417828,0.07774986,0.00399402,0.02848350,0.08639574,0.00967391,0.05243070,0.01607390
0.02173803,0.04750829,0.06971900,-0.01365405,0.00542746,0.04720598,0.02738647,0.01244401,0.01093854
0.03506008,0.04882231,-0.06466030,0.03029901,0.04312577,-0.06556353,0.00711492,0.03414109,-0.05132222
-0.09900083,-0.00546939,0.02206356,-0.06498791,-0.03533700,-0.01802142,0.01814163,-0.01722255,-0.02983556
0.01796241,0.04072594,-0.00156143,0.02538176,0.00178892,-0.00880390,-0.00946304,-0.06620803,-0.01167722
-0.09399805,-0.02310134,-0.00489056,-0.02726680,0.00623389,-0.01167213,0.03808260,0.04750796,0.07998809
0.09148459,0.03271506,0.07149972,0.01639415,0.02072038,0.03007921,-0.02263375,-0.00365811,0.02537761
-0.07382608,-0.02382008,-0.02186003,0.02772021,0.00844216,0.01338684,0.04422997,-0.00679611,0.02016976
0.12823920,0.03057539,-0.02055283,-0.00843172,-0.04561038,-0.04811558,-0.03916032,-0.06058925,-0.07853899
0.00922915,-0.01245975,-0.01275343,-0.05119220,-0.04725776,-0.00418661,-0.06089154,0.01942568,0.11389527
0.11051188,0.02591123,0.01527758,0.02245435,0.00578135,-0.00831219,-0.09152607,-0.01670357,-0.05778030
-0.09411071,0.01280555,0.01048184,-0.07528413,0.00772711,-0.00337858,-0.10744291,-0.00940516,0.01344503
-0.02892657,-0.08155723,-0.06345943,0.01499969,-0.02193124,-0.02341687,-0.02716124,-0.04099117,-0.10529935
-0.07657077,0.02647283,-0.00628109,-0.00942601,0.03430118,0.01304186,0.00045543,0.02910751,-0.00247887
0.12946521,0.00784708,-0.10337375,0.04364038,0.00203920,-0.04334518,-0.01501054,-0.01934979,-0.07115090
0.10140987,-0.00028053,-0.06968632,0.03033189,-0.01594774,-0.00729339,0.05818265,0.00594637,0.05772476
0.05533060,-0.03031583,-0.01684118,0.10017171,0.00719696,-0.04795774,0.04615586,-0.06749368,-0.09431318
-0.09624206,-0.03511239,0.00646442,0.05129240,0.00743168,0.10116570,0.00444772,-0.02886941,0.02027053
-0.03670640,-0.00777963,-0.00019563,-0.00534036,-0.00676335,-0.00622767,-0.04815577,-0.01280803,-0.03460406
-0.03833621,0.00636805,-0.05553856,-0.01586366,-0.01438517,-0.00450242,0.00713153,-0.01185005,-0.04016987
-0.04526491,0.00732186,-0.01320348,0.01536412,0.03934500,-0.00996036,-0.00570171,0.01701038,0.01972875
-0.01707790,0.00299239,0.05596295,-0.06312106,-0.03176611,-0.06271952,0.04080795,0.02909641,0.03097888
-0.01757121,0.03802463,-0.02868840,-0.01469827,0.04401804,0.04651904,0.03335896,0.01180556,0.03851986
-0.03075433,0.05407485,0.02669557,-0.09342787,0.01617751,-0.01372898,-0.06161521,-0.01539900,-0.06500228
0.02877460,0.04732404,0.03261615,-0.04910585,-0.04316220,-0.13510603,-0.06867863,0.01273658,-0.00070379
-0.05660604,-0.08584908,-0.07091910,0.02776080,-0.01051651,0.01623178,0.03353553,-0.04123773,-0.01553398
0.00479198,-0.00907055,0.03815526,0.02776023,-0.00298166,0.00296937,-0.08835200,-0.06459796,0.00785610
-0.04823029,-0.00321327,0.04658767,-0.09580886,-0.02488526,0.01223584,0.01029740,0.03368781,0.00846947
0.00466965,-0.00389090,-0.03488752,0.08189327,0.04291115,-0.00801925,0.05277869,-0.04707941,-0.02820337
0.03614616,0.02836400,-0.02398252,-0.01277161,-0.04635311,-0.07550288,0.02781359,0.04851126,-0.00711981
-0.03479578,0.00730731,-0.05878696,-0.04770746,0.04813194,-0.05805972,-0.02620670,0.02424242,-0.06901909
-0.00578668,0.03223998,0.02266977,0.02846099,0.01223107,-0.01919612,0.04437990,0.01137267,-0.01240130
-0.03031980,-0.00504929,0.06213996,0.06520627,0.01636474,0.01593006,0.05328157,0.05137366,0.09264191
0.00321279,0.02957962,0.03795727,0.04208682,0.07488886,0.06426848,-0.00885913,0.00201610,0.02360856
-0.04469567,-0.05637906,-0.06050795,-0.04759381,-0.07289279,-0.02503646,-0.03294017,0.00248903,0.10889502
0.06621996,-0.01435603,-0.01942677,0.01237605,-0.01997859,-0.00426426,0.03558227,0.01634816,0.02235966
-0.04595232,-0.01714455,0.02923772,-0.05577275,-0.11755586,-0.14455883,0.00603557,0.02080829,0.02498860
-0.08124630,0.00197426,0.02785369,-0.05347519,0.01235475,-0.00149384,-0.11260992,-0.02398758,-0.00964554
-0.02001246,-0.02008812,-0.02465693,0.05730558,0.01347344,0.03509357,0.02497624,-0.04046529,0.00275349
-0.02393161,-0.01487499,0.01703084,-0.05332097,0.01495524,0.06879500,-0.03177978,0.00586758,-0.00729276
0.00584146,0.00259452,-0.02792620,0.02917726,0.01966244,-0.00973314,-0.04232642,-0.00572224,-0.04353987
0.01326292,-0.00909905,-0.02811430,0.02378918,0.01964875,0.07678772,0.04082916,-0.00439237,0.03310195
-0.07379127,-0.09307396,0.03925917,0.06307607,-0.05865098,0.12068697,-0.03686381,-0.04966221,0.04110516
0.02697455,-0.02814808,-0.06861701,0.01467870,0.02314963,-0.00696432,0.05422977,0.02763428,-0.01934893
-0.00923224,-0.01344914,0.01236759,-0.03319423,0.01067606,0.00898492,-0.04522935,-0.04080461,-0.05526143
0.07106517,-0.03935200,-0.01061325,0.05539567,0.00807034,0.00360183,0.00823284,-0.00696187,0.04798533
-0.03797821,-0.02017166,-0.00762595,-0.01926808,-0.00638998,0.03098581,-0.02366439,-0.01230678,0.07198064
-0.02158253,0.00169946,-0.07564287,0.01203463,0.02995669,-0.03731843,0.06298782,0.08997338,-0.02589988
-0.03287001,-0.04271654,0.01507617,-0.05762076,-0.01784525,0.04261772,-0.02787709,-0.00921006,0.01469135
-0.04384635,-0.02172110,-0.04100684,-0.04229933,-0.02117701,-0.06666596,-0.05121090,0.00273571,-0.01479468
0.00382803,-0.00214250,-0.06184495,-0.01021508,-0.03955631,-0.09876323,0.01254206,0.00229380,-0.06412587
0.00377294,0.04441532,0.08464891,-0.00648426,-0.03383585,0.03490503,-0.01067523,0.00303693,0.03203764
-0.03362015,-0.01970335,-0.04914646,0.00888385,-0.02516350,-0.02452320,0.00054888,0.02335578,0.01862040
0.02127906,0.02110013,0.00681480,-0.01427891,-0.03317733,-0.08256391,-0.06235203,0.04599361,-0.03563450
0.05067785,0.00480025,-0.04856827,0.13837904,0.09239937,0.13476288,0.14553608,0.07602425,0.08115806
-0.01760457,-0.03343169,0.00936085,-0.00296121,0.00283389,0.02793858,-0.03438903,0.07031446,0.05550049
0.00002013,-0.01474102,-0.06671734,-0.01732669,-0.03437247,-0.00661476,0.00972413,0.02970668,0.04318720
-0.03022338,-0.00862194,0.02015808,0.00012749,0.00901731,0.01778038,-0.03333823,-0.00726570,0.04700680
-0.06237681,-0.03053945,-0.07119776,-0.01268288,0.03502469,0.08168665,-0.02837295,-0.01017462,0.03714146
-0.05033771,-0.00200208,-0.01646238,-0.01899793,0.06726089,0.05467936,-0.02794594,0.03584858,0.03714714
0.03369713,0.04379265,-0.01461114,-0.01913824,0.01564111,0.02514228,0.04868592,0.01190743,-0.00831714
0.01556263,0.01260246,0.03646500,0.03108292,-0.04804694,-0.01485982,-0.02134381,-0.04856110,0.03932175
-0.06925053,-0.01409995,-0.07474999,0.02164343,0.04791356,-0.03932148,-0.01466830,0.03246075,-0.00661114
-0.02846602,0.03400561,0.00173726,0.03079951,0.00978803,-0.02569727,0.01625042,0.04802743,0.01670777
0.00349014,0.03177492,-0.01280803,-0.01163948,-0.02155866,-0.01823267,0.07082663,0.02086223,0.01228105
0.02112954,-0.02408070,-0.09406374,0.10128540,0.05978226,0.04617512,0.04899566,-0.03070367,0.03716971
0.06980775,0.02135608,0.04338013,0.01781255,0.05541961,0.09050483,-0.00252194,-0.03161707,0.02835250
-0.02064894,-0.00796189,-0.03957591,0.01884455,-0.01279128,-0.04342046,0.00692411,0.00949637,-0.00049503
-0.02972761,-0.00149204,-0.00043249,-0.00697392,-0.02734139,-0.04201021,-0.01916019,-0.03154787,0.00830073
0.08674173,0.01077852,-0.04461829,0.06327142,0.05587782,0.00819858,0.01347363,0.06817730,0.02731377
0.02119682,0.00884699,0.00155219,0.02336887,-0.08463358,-0.08333357,0.03333515,-0.03672299,-0.04555907
0.04575996,0.01575684,0.02950533,-0.00747106,-0.05471282,-0.03832364,0.00442860,0.00042699,0.04054643
-0.01821735,0.00582918,-0.02456102,0.00799047,-0.02314803,-0.05217123,-0.06870304,-0.07032918,-0.08000384
0.00581845,0.00439447,-0.07066200,0.00442359,-0.02054477,0.01015326,0.02355743,-0.07755412,-0.08788704
-0.04898265,0.02097270,-0.01063122,-0.02301585,0.00627410,-0.04640586,0.04823317,0.05738203,0.07749551
-0.01611923,0.01195635,-0.02920051,-0.03780906,-0.06296810,-0.01527492,-0.01033744,0.04639919,0.04785168
-0.08012644,-0.04139915,-0.08307997,0.00792569,-0.01234297,-0.04860104,-0.00511015,-0.06876647,-0.05921593
-0.02855045,0.03369557,-0.01685573,-0.04736780,-0.02377457,0.01041875,0.00397524,0.05247774,0.06795026
0.02704540,0.05037630,-0.01008514,-0.01240382,0.00941738,0.04078830,0.00516578,-0.03163807,-0.02771530
0.07767903,-0.00432531,-0.03052332,0.08021089,-0.00873252,-0.02293824,0.07000628,0.03707131,-0.02930844
-0.01979288,0.03024242,-0.07606052,0.00575156,0.07337072,-0.02852785,-0.07977122,-0.00253962,-0.10540380
-0.03221754,0.01490049,0.01177514,-0.03012693,-0.01703986,0.00434577,-0.01227561,-0.02396396,-0.03586761
0.04799363,0.01787315,-0.00757075,0.03898621,0.00779507,-0.00519179,-0.03855709,-0.04889953,-0.03299518
-0.03191804,-0.02111031,-0.04974333,-0.05056839,0.00332806,0.03652528,-0.06411136,-0.03788022,0.03064072
-0.00366922,0.04655105,0.02991683,-0.02281536,0.01743805,-0.02189913,0.03848715,0.03907792,-0.05226715
-0.02023512,0.02415550,-0.05170150,0.03271832,0.00292516,-0.10590808,0.00838142,0.03404343,-0.03110569
0.05728045,0.02423519,0.00838885,0.00489359,-0.02507920,-0.04141199,0.01411459,-0.02690940,-0.10023045
-0.02534670,-0.01346983,-0.01122531,-0.02948330,-0.05185671,-0.02955250,-0.01699828,-0.04357238,0.03030797
-0.01724454,0.01847271,0.07373842,0.00789821,-0.00010788,0.04203429,-0.00649169,0.00571944,0.04871909
-0.00873216,-0.01599621,0.02286616,0.04599760,0.01794906,0.05175328,-0.04764054,-0.02947114,-0.02531944
0.01520767,-0.00090954,-0.01480261,0.00138521,-0.00806277,0.01499465,0.02361665,0.00140827,0.00782827
0.03033050,0.03843023,0.02782785,0.02138279,0.00653178,-0.02675177,0.02899269,0.03167612,0.03172379
-0.02179565,0.01738304,-0.05200505,-0.01545047,0.00003923,0.01267084,0.03904548,0.00936395,0.00768305
0.06188723,0.07510772,0.05219018,0.02767171,0.02584399,0.01861677,0.00118711,0.01697878,0.00171668
-0.04979344,0.00209297,-0.00793345,-0.05016903,0.02083065,-0.03706697,-0.01970032,0.07958528,0.03206610
-0.00177151,0.01861013,0.03029564,-0.04227849,-0.00899254,0.01961852,0.01472543,0.01975016,0.05338532
0.03175262,-0.03497037,-0.07639749,0.01348220,-0.01270852,-0.02092972,0.02390989,0.01236705,0.02260786
0.05579779,0.04303274,0.06083924,-0.02560198,-0.03831673,-0.03106839,0.00326433,-0.00596655,-0.03195962
0.09248263,0.01208294,-0.00056681,0.05622681,-0.00620694,0.02437926,0.05049445,0.00988678,0.05455966
-0.07741079,-0.04312596,-0.02499995,-0.01600045,0.01678993,0.02028517,0.01344147,0.00876914,0.05076891
0.02965084,-0.06993411,-0.04834105,-0.01028258,-0.03543745,0.00838395,-0.03260754,-0.04946392,-0.01141659
0.06531810,0.04922708,0.02140469,0.07158860,0.07781156,0.02977627,0.04719154,0.03657803,-0.06201067
-0.00128230,0.00433625,0.01936991,0.00242807,-0.04164180,-0.02450630,0.05151604,0.04471406,0.09811924
-0.07233435,-0.01391176,0.09222295,-0.02377830,0.04125381,0.08129176,-0.05566884,-0.07302547,-0.02076697
0.02180909,0.02792813,0.03532860,-0.04529075,0.00609976,-0.00052061,0.00251226,0.05036449,0.02913634
-0.01436010,0.01904911,-0.00517724,-0.02970384,0.01199616,-0.01895111,0.00700902,0.02724844,-0.00917965
0.01857584,-0.02176451,-0.04240315,0.04708732,-0.00273408,0.00412448,-0.00147764,0.00250295,0.05773275
-0.01379963,-0.01621217,0.01046235,-0.05173096,-0.02914207,-0.01472117,0.02158341,-0.00095853,-0.02506702
-0.08037631,-0.07541349,-0.06797919,-0.01459938,-0.06736691,-0.06240489,0.06495031,0.00920862,0.00705287
0.02805240,-0.02937759,-0.01644215,0.00504585,-0.03164635,0.01563855,0.01128436,-0.03805863,0.00292233
-0.03805615,-0.01167366,-0.01462396,0.00806473,-0.01107506,0.01373860,0.04122698,0.01022675,0.08260166
0.02393749,0.03141277,0.02959616,0.01936679,0.06005792,0.07226990,-0.02596369,-0.03039632,-0.04356614
0.02335932,-0.00409350,-0.06770054,-0.03503281,-0.00443315,-0.03798459,0.00374769,0.04977217,0.02607307
-0.00561438,0.01419588,-0.04218264,-0.00162415,0.08687324,0.02129035,0.01387356,0.07599406,0.01629841
0.03279842,-0.01745123,-0.00446223,0.06160972,0.01633426,0.04703826,0.01279282,-0.01925680,0.00423307
0.01887033,0.01437472,0.05972212,-0.04777071,-0.01744531,0.02862035,-0.04961998,-0.02632255,-0.02184566
0.00175646,-0.03995795,-0.07528012,-0.00066377,-0.00935816,-0.00845580,0.01265697,0.02856378,0.09276563
-0.03333865,-0.02380998,-0.10876250,-0.00823919,-0.00700177,-0.08419587,-0.04401534,-0.01129746,-0.02765137
0.04150416,0.02302976,-0.00539626,-0.01710997,-0.01956731,-0.01797019,-0.03407186,-0.09018917,-0.01394721
-0.01140956,0.00030697,-0.02332874,-0.06243520,0.00603356,-0.00454288,-0.06036551,0.03434150,0.06450571
0.05959805,0.04657091,-0.02064510,0.00777813,0.00956216,-0.06818333,0.01790961,-0.00091374,-0.05794318
0.03851064,0.03705201,0.00830691,0.08678185,0.07176717,0.02960704,0.06697945,0.06482299,0.05143763
-0.06087644,-0.02193978,-0.05000627,-0.01888164,0.02790951,-0.02025069,0.02249987,0.03983988,0.01087296
-0.04134122,0.03095958,0.00617460,-0.03126204,0.02827708,-0.00716749,-0.03642209,0.00355792,-0.06179523
-0.05655598,-0.02239048,-0.00424465,0.02622725,0.04418314,0.03516970,0.01751291,0.03583928,0.03256928
-0.04951412,-0.06056946,-0.08664943,-0.02286257,0.00389915,-0.05168740,-0.01088081,0.02716904,0.00234489
0.02404387,-0.03823112,-0.09409600,0.00170433,-0.01065282,-0.05107317,-0.00567653,-0.00431739,-0.04470203
-0.05643544,-0.06169673,-0.06501914,0.00408307,-0.03931123,-0.06836262,-0.00281687,-0.04523470,-0.00362617
0.02864440,0.04648181,0.02696541,0.00594925,0.03908273,0.03563772,0.01904152,0.06069124,0.05414108
-0.05190071,-0.01132312,-0.04201691,-0.04618490,-0.02228258,-0.03416117,0.01441303,0.03294003,0.03897305
-0.04494414,-0.02266823,-0.02605491,0.01076296,0.00916753,-0.05332879,0.06335285,0.03903975,-0.05992416
0.06794610,0.03475868,0.02003808,0.05883686,0.02778811,0.00158324,-0.02021168,-0.02640742,-0.03174601
-0.03407447,-0.06780170,-0.05257667,-0.02182878,-0.01500360,0.00605011,-0.01028872,-0.01433289,0.01033181
0.01122879,0.00583083,-0.04636727,0.04240438,0.04457957,-0.01373424,0.05516378,0.05851131,-0.01855037
-0.04702950,-0.06760468,-0.00487265,-0.08253817,-0.05987591,0.00998475,-0.04392118,-0.02378609,0.01502260
0.01530089,0.00785362,-0.04190442,0.02497709,0.00382804,-0.02449575,0.01225347,0.01561950,0.02726914
0.05450022,-0.01837950,-0.06441310,0.04225837,-0.01271272,-0.03809482,0.05325063,0.01267748,0.00978553
-0.04177926,-0.01262508,0.00867379,-0.07488783,-0.03417698,-0.01417041,-0.05061384,-0.00600069,0.01309337
-0.02324954,-0.01590235,-0.03259811,0.02312779,0.02715385,0.03196055,-0.00894721,-0.01775704,0.00083327
-0.03097992,-0.04253541,-0.04585561,-0.02709883,0.02974448,0.04619900,0.01603123,0.03077093,0.04524181
-0.05225741,-0.01466495,-0.03374210,-0.03725136,-0.00481581,-0.03915564,-0.00629152,-0.01538639,-0.06040110
-0.03415767,-0.00336932,-0.05490575,-0.02194350,0.03378375,-0.01803491,-0.00043460,0.09554676,0.06343452
0.07555337,0.03113439,0.06750766,0.06251087,0.01748144,0.02579405,0.02507135,-0.02882164,-0.04708546
-0.03536301,-0.03964843,-0.03166833,-0.05372347,-0.06431866,-0.03211143,-0.03014085,-0.03041379,-0.02970765
0.01805044,0.03930713,0.05713955,0.02113699,0.03579784,0.04991625,-0.01622301,-0.00206525,0.01833469
0.05156931,0.03136018,-0.02905047,-0.02251927,0.00995554,-0.03567329,0.02271834,0.09441488,-0.00423194
0.05487956,0.03456429,0.04985766,0.03845027,0.03192635,0.02875992,-0.02840863,0.01480964,0.07009659
0.05298913,0.02966930,0.00808467,0.01632977,-0.02223822,-0.03610070,0.02758504,0.00184017,0.05884215
0.05392176,0.05470231,0.12172055,0.02265451,0.01671223,0.08709726,0.06499770,-0.00347678,0.02637644
-0.08638986,-0.03430957,-0.02490623,-0.05489422,-0.00414824,0.12587309,-0.07130409,-0.00675500,0.03416017
-0.06231942,-0.01397637,0.04663827,-0.12485992,-0.04732364,0.00824257,-0.05143453,0.00134771,0.02814603
-0.03524668,-0.04178290,-0.05797092,0.04206708,0.03072110,0.01080125,-0.00766497,-0.00338868,-0.00486949
0.04652609,0.09402378,0.09004502,0.04409662,0.09717343,0.04404252,-0.06388222,-0.03016812,-0.02920474
0.04492106,0.03079699,0.05400584,0.03989419,0.02888348,0.01041432,0.05411566,0.04296266,0.06664943
-0.06392094,-0.03639282,-0.03671873,-0.03393106,0.01061425,0.00936113,-0.01820442,0.03388358,0.10516758
-0.01792259,0.05259366,0.08097930,0.00707006,0.02004319,0.05093587,-0.02768245,-0.02405508,-0.00003640
-0.06518439,-0.07369616,-0.09882154,0.03136437,0.04421676,-0.01485426,0.01802407,0.02466752,-0.06766675
0.00255311,-0.01587904,0.02354750,-0.02437896,0.00375861,0.02717727,-0.05432210,-0.03029456,0.00404055
0.03127242,-0.01145765,-0.02784351,0.00659037,-0.03976745,-0.02813831,0.04890539,-0.01164322,0.05010260
0.02511213,-0.01270811,-0.03389095,0.00987395,0.01084115,-0.00201340,0.00472128,-0.02543583,0.01539540
0.01480249,0.05352475,0.08971912,-0.11411485,-0.08103836,-0.05085801,-0.01339367,0.00311079,0.03118796
-0.00044760,-0.03623810,-0.02258735,-0.04212096,-0.03716661,-0.01202121,-0.04253456,-0.01935719,0.01243538
0.02756533,-0.01404997,0.02735501,0.01011988,0.00542931,0.04306004,-0.01627339,-0.00231425,0.08520368
-0.13012271,-0.09922243,-0.06491393,-0.07173506,-0.03019517,0.04689407,0.06588525,0.09523895,0.16818787
-0.07465772,-0.04243109,-0.05341415,-0.05545960,-0.04393376,-0.01787203,-0.02353894,-0.03752669,-0.06951501
0.06365272,0.01490138,-0.02405382,0.04699269,0.04030977,0.00556000,-0.04562186,-0.06581105,-0.07307614
-0.02189669,-0.01359900,0.00844532,-0.01945526,-0.02910946,-0.02516025,-0.02346870,0.02070417,0.01076240
0.04296708,-0.03299986,0.02910582,-0.00276528,-0.05113510,-0.00759893,0.04650467,-0.02911473,0.06792844
-0.02408506,-0.05444980,-0.06561344,-0.04402895,-0.04938309,-0.03457709,0.02057053,0.04574895,0.06895193
0.03630657,0.02125715,0.00220434,-0.00448227,-0.00351482,0.00864514,0.03458847,0.01944806,0.00314092
0.08301818,-0.10255651,-0.00586623,0.05607404,-0.04784232,0.05091076,0.06128547,0.02172425,0.09065069
-0.05765677,0.03848200,-0.00428880,-0.05116451,0.03577364,-0.01905590,-0.04654495,0.00375938,-0.02633152
-0.00055648,-0.02830757,-0.03926928,0.00046301,-0.03509106,-0.01208877,0.03683408,0.04982808,0.01636420
-0.02691529,-0.07686376,-0.03348960,-0.03847936,-0.01499092,0.03043972,-0.03355626,0.02303541,-0.01322797
-0.06213371,-0.03820454,-0.03300617,0.01387952,0.00312450,-0.01281277,0.02527906,0.01560970,0.02430771
-0.05129195,-0.04692239,-0.06233756,-0.07810528,-0.01969484,-0.04485493,-0.00105585,0.04231480,-0.01333099
-0.00854947,0.00481275,0.01351472,-0.09010109,-0.05622383,-0.04226914,-0.00270500,0.05106010,0.02539719
0.00615713,0.02503123,0.08651727,0.02127271,0.01372508,0.12441391,0.05585265,-0.01972013,0.12763375
0.07551993,0.00528613,0.06066467,0.01385385,-0.01888725,0.01693749,0.06001300,0.01053609,0.01362416
-0.03635152,-0.01544302,-0.05727371,-0.01583002,0.01241942,-0.03622035,0.01216986,0.00791322,-0.05515295
-0.06920647,-0.07082798,-0.08172403,0.02097186,0.00684897,0.00021409,-0.06059996,-0.03290195,-0.01129462
-0.05848954,-0.05099072,-0.06468796,0.03543231,0.04369447,0.01152993,0.00338265,0.00052730,-0.02357958
0.00326847,0.04261765,0.12167232,-0.08744926,-0.07756688,-0.09539348,0.10424943,0.06437778,0.05213317
-0.05450589,-0.07195477,-0.15535828,0.00512382,0.01062227,-0.04901735,-0.03247106,0.02654460,0.01547100
-0.03722271,-0.00569962,0.01064654,0.02746931,0.02252785,0.01636820,0.00627630,-0.01463141,-0.08909944
0.00435845,-0.02980577,-0.00054558,0.01424935,0.01052318,0.02954814,-0.00817493,-0.01720725,-0.05036596
-0.07113031,-0.06455889,-0.06720249,-0.06454992,-0.06743885,-0.01557294,0.04258466,0.05381474,0.16015655
-0.05477869,-0.01611019,-0.02884000,-0.04585100,-0.01907934,-0.01967749,-0.05046154,-0.01553753,-0.03470521
-0.09815533,0.00657239,-0.02578774,-0.01231092,0.01828069,-0.01198256,-0.06308392,-0.02621762,0.02092401
-0.01275639,0.01565123,-0.00413647,-0.04981695,-0.03205651,-0.03009795,-0.01931006,0.00319220,-0.04918881
0.00535834,0.00099877,-0.12655215,-0.01431563,0.03802165,-0.04154062,0.02363905,0.05579184,-0.05367018
-0.05787495,-0.08766848,-0.17829029,-0.02673900,-0.07878931,-0.08873233,-0.00788163,0.03040045,-0.00263819
0.03283742,-0.01965388,-0.01596532,0.05010346,0.00675313,0.01050526,0.04817281,0.02208724,0.00806197
-0.09837580,-0.07534524,-0.09105611,-0.02219765,0.00683078,0.00202781,-0.02499566,0.01496669,0.01157643
-0.05116327,-0.01884242,-0.00111874,-0.03449623,0.01703240,0.07267103,-0.05698003,-0.01118416,0.01742627
-0.00023651,-0.04631698,-0.05717355,0.05206212,0.01406928,-0.01314746,-0.01221636,-0.00598562,0.00856670
0.01614246,-0.06913574,-0.08603155,0.02910472,0.01263648,-0.05172774,0.05425999,0.15051952,-0.00627082
-0.00939470,-0.02275940,-0.03149888,0.01086818,0.03632266,-0.00181196,0.03994758,0.06612690,0.02026681
-0.07305406,-0.08181633,-0.07107456,-0.06647973,-0.08363748,-0.05804722,0.01336305,-0.00023489,0.05582068
-0.02498172,0.01829657,0.02974069,-0.04270798,0.00207933,0.03236949,-0.05710019,0.00037748,0.02882938
0.01638892,0.01439799,-0.03196796,-0.03761157,-0.01559738,-0.05099194,-0.01962641,0.05092567,0.01871429
-0.02373453,0.00061135,0.03221778,0.01305187,-0.00974291,-0.00999029,0.00183580,-0.02167924,0.01126035
0.03263018,0.00186688,-0.01149879,0.04921903,0.06973901,-0.00741215,-0.03461925,-0.00322417,-0.10463496
-0.02224318,0.02542131,0.04393267,-0.00514962,0.01932556,0.06428058,0.05805958,0.03665117,0.01249684
-0.10413560,-0.03198767,-0.03709091,-0.05379250,-0.01779823,-0.02518978,-0.02381275,0.01373063,-0.04241779
-0.01856522,-0.03254401,-0.00860641,-0.02917999,0.00340326,0.01578059,-0.02150497,0.01148414,0.04287488
-0.08691107,-0.00924200,0.01301853,-0.06802203,-0.03790727,0.04386641,0.01549657,-0.00884406,0.09626994
-0.08486894,-0.04406716,-0.03494566,-0.04388402,0.02143185,-0.04026984,0.02791409,0.10987049,0.04688757
0.00526284,0.01486811,-0.04460257,-0.01177127,0.01989013,-0.01353225,-0.04539193,-0.01852005,-0.02339779
-0.00422467,-0.02164323,-0.08100530,0.16720748,0.13149297,0.05305549,0.00383595,-0.11398799,-0.03652710
-0.02597144,-0.00692165,-0.00742826,0.02409282,0.02588595,-0.04347933,-0.05389857,-0.01029100,-0.00524590
-0.02450631,-0.03962862,-0.02175259,0.01403392,0.01859444,0.01088783,-0.00539576,0.03961403,0.03777797
-0.08863764,-0.02790056,-0.02001750,-0.03069015,-0.02606933,-0.02731267,0.01116027,-0.01247959,0.01340937
-0.03172022,0.02453571,-0.04364483,-0.04457226,-0.01389093,-0.05269271,0.06953032,0.09739593,-0.01778347
-0.06267507,-0.00352119,0.02668798,-0.01769064,0.01372721,-0.05353112,0.04500546,0.00548984,-0.01978892
-0.02538033,-0.06410733,-0.05471267,-0.07288329,-0.09089949,-0.04946785,0.03574649,0.01421632,0.04302195
-0.08552321,-0.09260596,-0.06950556,0.02381214,0.03372969,0.06211345,0.10436398,0.10208739,0.00700004
0.02500307,-0.04342636,0.00079219,0.03228120,0.03294669,-0.01327508,0.02851412,0.01665261,-0.00854058
0.00197355,0.00995266,0.01456245,0.07050122,0.01392529,0.00144266,0.00001130,0.00256661,-0.01417441
0.01014597,-0.05062758,-0.01402075,0.01097354,-0.02409908,-0.02482461,0.02278912,-0.01789467,-0.05927577
0.03206525,-0.03580274,-0.02965088,0.05820379,0.02684881,0.03285199,-0.05377320,-0.03140792,0.00193879
-0.13372175,-0.05765163,-0.10008748,-0.08038323,0.03152978,-0.03507056,-0.06927185,0.01653160,-0.04856096
0.05840818,-0.05657493,0.05268109,0.02331460,-0.10352915,-0.00708094,-0.02093518,-0.11489500,-0.04360835
-0.05115648,-0.03745401,0.02255479,-0.04628614,-0.02598543,0.01203177,-0.03014214,0.00538536,0.01737358
-0.06692832,-0.02094641,0.00846308,0.03784279,-0.00859623,-0.06152335,0.10307319,0.04275408,-0.03382921
-0.03152646,-0.04588172,-0.03182428,0.02791411,-0.02074071,-0.01772243,0.00342468,-0.03210776,-0.02568176
-0.11863702,0.04101937,0.03610853,-0.06016340,0.04580178,0.01685500,-0.08803306,0.02954803,-0.04601527
0.09956722,0.02077249,0.01099072,-0.00968357,-0.02433251,-0.01715550,0.04280579,0.02985123,-0.03551698
0.05848960,0.06535548,0.04279458,0.05090123,0.02170290,0.00212867,0.01558865,0.01256050,-0.01593663
-0.11574077,-0.00358095,0.07518134,-0.01604446,0.02695843,0.02278685,0.07345162,0.13553758,0.07684413
-0.05362342,-0.03214255,-0.01713069,-0.06107990,-0.01859226,0.03308105,-0.01769862,-0.04048041,0.06617778
0.07348049,0.06584178,0.03591882,-0.04390991,-0.01674908,0.09348474,-0.01005182,0.04283703,0.03810133
0.01919959,0.03522046,0.10573495,0.00635546,0.00924379,0.02709139,-0.04478061,-0.01882470,-0.06366337
0.06627338,0.01082477,-0.01229966,-0.01279314,-0.02865596,-0.03285803,0.00063723,-0.01343162,-0.04059479
-0.05435469,0.04078729,-0.00548915,-0.11882804,-0.00121330,-0.02833506,-0.09452372,0.02767658,0.03393430
-0.02999799,0.04680462,0.04353668,0.04899811,0.03562748,0.01852587,-0.01032660,-0.07016341,-0.07053225
0.09704444,0.01072185,0.05224644,0.03599945,-0.01434918,0.05166712,-0.01717321,-0.07020136,-0.03369934
-0.06742748,0.04865986,0.01390212,-0.04776609,0.02785702,0.06969053,-0.10318683,-0.00710118,0.12007547
0.00180819,0.05190012,0.02373940,-0.04717373,0.02348672,0.03488152,-0.02145055,0.04021953,0.04318643
-0.05827338,-0.07012661,-0.00503241,0.06103154,0.15293485,0.14755699,-0.08262384,-0.02039726,-0.03655228
0.05497370,-0.00623780,-0.00708359,0.06761245,0.00982958,0.07707009,0.03124776,0.02996067,0.08990471
0.04974340,-0.02851178,0.02624921,0.03913747,-0.04049464,-0.05807094,0.02645644,0.03441157,-0.00851672
0.00904783,0.01233043,-0.01930674,0.02032867,-0.04963533,0.00531701,-0.07676158,-0.11534692,-0.05996794
0.00109220,-0.00307033,0.02585292,0.09281693,0.02098319,0.07292985,0.00967590,-0.07253059,-0.00397126
0.01212082,-0.02779251,-0.03619637,0.01960504,-0.02616064,-0.10928220,0.01515431,-0.01351685,-0.06713445
-0.02284859,0.02832262,0.01613473,-0.03978069,0.01302628,-0.05981688,-0.05865472,-0.05540006,-0.11403377
0.02576912,-0.00325666,-0.03232959,0.09420146,0.04978426,0.04620283,0.07579710,0.03694315,-0.01824927
0.01716183,0.00786461,0.05793725,-0.03045185,-0.00208069,-0.00027194,0.00644564,0.05572600,0.02805916
0.06266200,0.08440907,-0.00610490,-0.02691532,0.00147898,-0.08371516,-0.03384506,0.01889194,-0.04156147
-0.03694302,-0.00756207,-0.01336116,-0.03405626,0.00749667,0.00476715,-0.09581561,-0.08381718,-0.05983166
-0.06965263,0.05890936,-0.00746632,0.02353832,0.04410245,0.07480822,-0.07594439,-0.02340368,0.08302850
-0.03591192,-0.04272726,-0.01468013,0.04448384,0.01933109,0.08782130,-0.05331409,-0.04340111,-0.01979086
-0.02275973,-0.01488446,0.02863332,-0.04853989,-0.02644510,0.03755403,-0.08121009,-0.05172241,-0.01507164
-0.09065419,-0.05254608,-0.01424340,-0.07329580,-0.03143518,-0.04866599,-0.07275161,0.04801051,-0.02152564
-0.05202711,-0.03587288,-0.07411537,0.00334861,-0.01001503,-0.06518818,-0.05729124,0.00473610,0.01018577
-0.02028322,-0.00411939,0.03572917,0.02241207,0.05440885,0.05230341,-0.00473204,0.02777528,0.00657320
-0.00625644,-0.03292401,-0.05826384,0.00794248,-0.01842867,0.02899382,0.04796371,0.02342817,0.12647232
0.00343207,-0.01412950,-0.02394046,0.05439405,0.04887365,0.05681981,-0.08045833,-0.05086857,-0.02188968
0.01313064,0.06694252,0.02624688,-0.03707010,0.00304231,-0.04809438,-0.00750432,0.06822065,-0.00134769
-0.03455006,0.01212515,0.03704287,-0.05582502,-0.01662116,0.02104353,-0.03729425,0.01998574,0.05244345
-0.04115354,-0.00612290,-0.06868944,0.04434286,0.00995109,-0.04184609,-0.00217184,0.02349198,0.03171974
0.01486752,0.03829547,-0.02514497,-0.03179844,0.00279656,0.04287867,-0.03182019,-0.01971855,-0.04035636
-0.05875326,0.03738577,-0.03020579,-0.02585250,0.03114781,-0.05272898,-0.06053321,-0.00108888,-0.02354293
0.00579017,-0.02144848,0.00506732,0.04950019,-0.02298587,0.05635249,0.04099493,-0.02552344,0.04876444
-0.05229576,-0.00213010,-0.03274493,-0.05107735,0.00748283,-0.07518642,-0.06811640,-0.04606642,-0.13969670
0.00035259,0.06841698,-0.07543072,0.03602337,0.00686703,-0.07915973,0.00170761,-0.02235417,-0.06161687
-0.01416529,0.03724345,0.00785911,-0.04542959,-0.02487495,0.00255433,0.02154911,0.08294649,0.01818212
-0.00994451,-0.01135345,0.08885787,-0.04390741,-0.03878376,0.01436869,0.01168979,0.03217201,0.13800059
0.01964016,0.09255404,0.02921866,-0.04081659,0.00336635,0.03669056,-0.06383549,-0.07693435,-0.01425753
-0.08458261,-0.05490467,-0.01385182,0.01356325,0.00773972,0.02921131,0.03965754,0.04366364,0.05421736
0.00833807,-0.00555880,-0.05792113,0.03083624,0.01519233,-0.00830019,-0.01612324,-0.00676734,-0.04443621
0.04207198,-0.00485012,0.00416979,0.08672833,0.04440306,-0.00839815,0.03801023,-0.00541949,-0.09131154
-0.00540071,0.00431387,0.05682550,-0.09312155,-0.09550151,-0.11277290,0.12545809,0.08058252,0.06867722
0.02590001,0.03081289,0.01390316,0.01345304,-0.02622394,0.02313213,0.04624766,-0.00997051,0.01040405
-0.01945814,0.03456481,0.05496700,-0.02604846,-0.00957668,0.03848445,-0.07452305,-0.05183404,-0.00197412
-0.08494874,-0.02513374,0.05073597,-0.03928698,0.01120195,0.06324233,-0.02128752,0.04632771,0.03085601
0.02343032,-0.02353060,-0.07577723,0.02946434,0.02862668,-0.02298370,0.07110228,0.03376766,-0.02538188
-0.05554648,-0.04527829,-0.08288114,-0.04426262,-0.06755675,-0.05456368,-0.03680427,0.04627312,0.01165851
-0.02992008,0.02148588,-0.06975407,-0.01016219,-0.02070615,-0.12006064,-0.05657451,-0.06275529,-0.08489560
0.03871903,0.08767863,0.06795921,0.02930693,0.06465974,0.03536703,-0.01700251,-0.00185181,-0.07564779
0.00161582,0.01583973,0.01870758,0.03983372,0.01846011,0.00312869,0.01897236,0.04467154,0.06889032
-0.01824510,0.01372779,0.01069959,0.02920418,0.03466888,0.04001879,0.07543089,0.08910461,0.05652863
0.02084016,0.06696095,0.03300022,-0.02820854,-0.03023379,-0.03423445,0.01454733,-0.00677379,0.03877503
-0.02889464,-0.02230185,-0.00438029,-0.07478049,-0.05437803,-0.03845907,0.00778783,0.00218535,-0.02478869
0.01414455,0.01058233,0.02834433,0.00848379,0.01753738,0.01319376,-0.03412073,-0.02036189,-0.01814499
0.02995612,0.01124727,0.00072039,0.04144903,0.02271287,-0.02738869,0.01724505,0.04129273,0.03882607
0.00061155,-0.01307256,0.00891882,-0.04555563,0.03931256,0.05132736,-0.02812953,0.01473631,0.13663144
0.00684225,-0.00786173,-0.02092906,0.01029094,0.03068942,0.02629548,0.06235301,0.09176017,0.09868412
-0.06681442,-0.07439023,-0.08830301,0.01147049,-0.02754813,-0.08198112,0.00765802,0.03798193,0.04125453
0.11255412,0.07326455,0.04257602,0.03781405,-0.01621390,-0.03990057,0.08210722,0.04330837,0.01883123
-0.07192754,-0.02975884,0.01418025,0.01404653,0.00276134,0.08049341,0.05127125,0.03946915,0.05933562
0.02102637,-0.01631195,0.02670414,-0.01199463,-0.02211364,0.02574765,0.00613586,-0.02488936,-0.03760210
-0.02335147,-0.01491693,0.00262333,0.01245445,-0.01779313,-0.00767261,0.02108382,-0.02377484,-0.07674275
-0.03892089,-0.01071297,-0.01791567,-0.00147629,0.00817491,-0.03711313,-0.10138335,-0.03503677,-0.02534026
0.00316886,0.00418143,-0.03146073,0.08858571,0.04307748,0.07206421,0.02716586,-0.02337257,0.02475076
-0.02511891,-0.02477888,-0.00038337,-0.02222120,-0.01471917,-0.00661551,-0.02709094,-0.00163314,-0.04443882
-0.06236410,0.01071839,-0.01425972,0.00323769,0.05726055,-0.01658614,0.01779576,0.10396541,0.03213040
0.01052646,0.02742838,-0.01949398,-0.04789587,-0.00116683,-0.06143466,0.00959669,0.06647602,0.05038312
-0.05656081,-0.06096487,-0.02724293,0.02866917,-0.00461717,0.05854991,-0.01517374,0.00530278,0.03184668
0.01763367,-0.01100558,-0.01822099,0.00032896,-0.04084543,-0.03418890,-0.03065533,-0.06757684,0.01275626
-0.03687643,-0.02600653,0.00114638,-0.02231532,0.02216321,0.12561019,0.03436104,0.04439101,0.09450441
-0.02768744,0.00594664,0.04791588,0.01181739,0.00766040,0.04148445,-0.04067912,-0.01817393,0.03298998
0.01454502,0.00371364,0.07390019,0.04718747,0.05089396,0.12799087,0.03702062,-0.03060812,0.05699174
0.04325263,0.08058703,0.00821364,-0.05224570,-0.04040547,-0.08050761,-0.02150971,-0.02100303,-0.00321283
-0.00074728,0.03953191,0.04328229,-0.07073161,-0.03518290,-0.03182204,-0.09410900,-0.06303744,-0.08090597
0.01276873,0.02456168,0.02166509,0.00268780,0.00572313,-0.01503727,0.03313089,0.04004953,-0.06339388
-0.01464268,-0.04780411,-0.05357495,-0.02346210,-0.01485028,0.03105594,0.03912617,0.06114442,0.04644681
-0.00452802,-0.06739634,-0.05750747,0.02600585,-0.03800322,-0.01388846,0.00504983,-0.05519605,0.00204233
-0.01903673,-0.03766286,-0.02745581,0.01033509,0.01058472,0.02203041,-0.03046034,0.03121443,0.05221106
0.04206728,0.09314816,0.03662011,0.00045967,0.05550414,0.02646302,-0.09675545,-0.01993469,-0.01465952
-0.00214055,-0.00925582,-0.00180163,-0.00200162,0.01858056,0.00474617,-0.07338956,-0.04421980,0.05062748
-0.01112823,0.02202824,-0.01856851,-0.02247799,0.01529133,-0.08803000,0.02721560,0.07612622,-0.01235160
-0.00674837,-0.01227554,-0.06544610,-0.01379532,-0.05116132,-0.05940790,-0.05587351,-0.06082380,-0.00880759
-0.04735464,-0.01984311,-0.08398741,0.00549045,0.02922625,-0.00036215,-0.04778345,-0.02032669,0.02006706
-0.00884009,-0.02898084,-0.02334265,0.00774248,0.02027521,0.01112162,0.02801088,0.00387108,0.01170966
-0.02530088,-0.00567498,0.02146820,-0.03161853,-0.00642900,0.01086096,0.04816345,0.01723383,-0.07356055
-0.04017017,-0.03472371,-0.14703868,0.03195238,0.03418871,-0.00314720,-0.03680271,-0.06833909,0.00682207
-0.09779818,-0.03289737,-0.03668456,-0.04700289,-0.04921906,0.00525850,-0.05680811,-0.00986348,0.01538112
-0.02098782,0.01264735,-0.03440047,0.02303598,0.02259316,-0.02867260,0.03273486,-0.00355828,-0.03375046
0.00717323,-0.02725832,-0.07318994,0.00428282,0.00333681,-0.06024892,0.08725429,0.06715017,-0.05712807
-0.08184361,-0.00377843,0.02323174,-0.06875739,-0.00343874,0.02869578,-0.00565455,0.06512862,0.09072100
-0.02385100,-0.00573159,-0.01653972,0.08164270,0.06063394,0.01178147,-0.06051208,-0.05150142,-0.03343937
-0.01847654,-0.03571718,-0.08882810,0.01205957,0.02105787,-0.03075437,0.02367999,0.05415386,0.04915585
-0.04694667,-0.02827877,-0.05637955,-0.03682654,-0.04571471,-0.13560390,-0.01651607,0.02904074,-0.06349305
-0.03562560,-0.06752636,-0.10685517,-0.00288291,-0.02785220,-0.06592911,0.00336228,-0.03879326,-0.02819508
0.12219063,0.07189667,0.08902705,0.01238050,-0.02028152,-0.03125304,0.01915658,-0.02325808,-0.10287223
-0.07376897,-0.04786555,-0.00108627,-0.04096355,-0.01060976,-0.01721730,0.01864479,0.01458805,-0.00875779
-0.06710170,-0.00996934,-0.01721697,-0.00260526,0.03073963,-0.04245764,-0.01479290,0.01346339,-0.06333823
-0.00802867,-0.04822772,0.02444589,0.03700281,0.01796065,0.11901338,-0.02759120,-0.04147312,0.04735126
0.04568718,0.02222753,-0.01396149,-0.02531843,-0.01403454,-0.01410214,-0.05274232,0.00067321,-0.03562210
-0.00216572,-0.04118796,-0.00025785,-0.02169445,-0.01862634,-0.01323170,-0.07231268,-0.03693419,-0.05418891
-0.00343805,0.04299089,0.00151686,0.03311234,0.00416187,-0.03521253,0.02987716,-0.05229684,-0.04239771
-0.04180271,0.01424497,-0.00859385,0.01072995,0.06022302,0.04848422,0.02668325,-0.00885621,-0.03338822
-0.03317354,0.04425004,0.02324202,0.00842259,0.04335284,0.00711793,-0.02524859,-0.01628484,0.01093616
0.02289239,0.05158605,0.05040759,0.03677959,0.03537302,-0.00781519,-0.04640627,-0.00112402,-0.03465638
0.08278535,0.04792948,0.00928798,0.02082245,0.01214221,0.00450400,0.03119479,-0.06391537,-0.06449263
-0.03966764,-0.02661037,0.06008115,0.01888310,-0.02934978,-0.00021335,-0.00290155,0.00011807,0.14275086
-0.03927354,0.03396190,0.06196964,-0.03228131,0.00712158,0.06214422,-0.03400170,-0.03155435,0.02478533
0.05546945,0.05746095,0.10950114,-0.00612029,-0.02607869,0.05049021,0.03998962,-0.03958884,0.02272386
-0.04849203,0.01231380,-0.04417802,-0.01085930,0.01869601,-0.05598095,0.04658470,0.03801217,0.03649834
0.02748580,0.07464223,0.03092285,-0.07421760,-0.02872354,-0.04773121,-0.04604016,-0.04081221,-0.03288095
-0.05298353,-0.06459399,-0.02783545,-0.10034840,-0.03609922,-0.05435486,-0.01330781,-0.01118434,-0.03981850
0.00317272,-0.04937060,-0.04024325,-0.01242032,-0.06006376,-0.01045211,-0.02834961,-0.06908924,0.00985610
0.03172231,-0.02256036,-0.02875507,0.01920430,-0.00386159,-0.02661562,-0.03753655,-0.02212655,-0.00808094
0.07333391,0.08062156,0.07633317,-0.03511428,-0.03814578,-0.04296750,-0.03671761,-0.02288151,-0.05848068
0.02415808,0.03351874,-0.00018145,0.00901376,-0.00749522,0.00835964,0.04024095,0.03122547,0.07465562
-0.05855208,-0.05047273,0.00813608,-0.04038818,-0.03683225,0.02575504,-0.02913947,-0.04089217,0.01996455
-0.02585322,-0.04076448,-0.03969490,0.03015456,-0.00299457,-0.00939612,0.01856608,0.00629403,-0.00054848
-0.01561522,-0.00302880,-0.01120185,0.01347101,-0.04259449,0.05535193,0.01761888,-0.05857615,0.03855277
0.02948046,0.08040047,0.07991958,-0.01425548,0.01168601,-0.01484816,0.02487730,0.04775713,0.02265050
0.04944207,0.04976884,0.01829900,0.04640040,0.05465711,0.04571686,0.07408073,0.05014180,-0.01240261
0.02252129,-0.00748880,-0.01582525,-0.00894013,-0.00823465,0.03993765,-0.08194035,-0.03354706,0.01421419
-0.00559429,-0.06297373,-0.02041445,0.01927058,0.02911504,-0.03474404,0.00881948,0.06868148,-0.01120325
-0.03682189,-0.02581267,0.00023977,-0.03445767,0.00398464,-0.00642821,-0.04232754,0.08286501,-0.00156639
0.00133300,-0.03481818,0.03347499,0.02876241,-0.02341748,0.01401100,-0.02410781,-0.05805525,-0.01110099
-0.06670781,-0.03555684,-0.01041924,-0.07050211,0.00945371,0.01217174,-0.05809730,0.02923566,0.01892895
-0.04541594,-0.04602031,-0.02122303,-0.05659877,-0.04887390,-0.02883727,-0.00871281,0.02067018,-0.00955045
0.01808575,-0.03105876,0.05053725,0.04254711,-0.00384302,0.04532047,0.02575085,-0.01992764,-0.00555378
-0.02672349,-0.00376413,-0.00647941,-0.01577386,0.02300470,0.07958514,-0.02066223,-0.02511665,0.02559078
-0.03924848,-0.00836338,-0.02532303,-0.04580704,0.00593365,-0.00608345,-0.01812855,0.01293901,-0.03968064
-0.02866809,-0.04189418,0.00675371,-0.02188672,0.00212564,-0.00604706,-0.06595823,-0.03625934,0.03118159
-0.01792872,0.00556681,0.03657348,-0.02167922,-0.00946559,0.05010522,-0.06858251,-0.06848581,-0.05811388
0.02065193,-0.02721550,0.11375241,-0.00128330,-0.01576319,0.06593455,-0.00419833,-0.00518862,0.05972635
0.00801887,-0.02762551,-0.05883509,-0.03360329,-0.01571142,-0.00834304,-0.00359245,0.00990932,-0.01127498
-0.00002445,0.01903417,-0.03879377,-0.04958189,0.00747717,-0.01373218,-0.04088342,0.00403867,-0.02633387
-0.07994290,0.02006925,0.02266842,-0.01992523,0.02859304,0.03489969,-0.02994692,-0.02319504,0.00473994
-0.00510856,0.00609324,0.01786253,0.01898815,0.00504791,0.04990999,-0.00125059,-0.03281892,0.02393069
-0.05425579,-0.02373781,-0.03481142,-0.04124581,0.01446425,0.03463934,-0.02185268,0.01186212,0.06808409
-0.03967998,0.00628501,0.00214100,-0.00500420,-0.00333982,0.01030415,-0.03971943,-0.02235346,-0.02853096
-0.04132743,0.01082451,0.03390518,0.00925515,0.00139206,-0.01473479,-0.00155322,-0.01017955,0.01523106
0.02755191,0.00274734,0.04007054,-0.03015740,-0.02227783,-0.00725564,-0.04076184,-0.01988017,0.00992438
-0.00988081,-0.02641709,-0.03565797,0.01245115,0.01071441,0.01328447,0.03099632,0.04282199,0.06136520
-0.05919367,-0.03299907,-0.06088237,0.00211528,0.04479665,-0.00459478,-0.00748277,0.02830351,-0.02963784
0.00485617,-0.00938020,0.02732852,0.01074014,-0.01783188,0.01155661,0.02091279,-0.00721522,-0.06380371
-0.05814834,-0.02797550,-0.00230066,-0.03435928,0.02996654,-0.01630226,0.08846682,0.15758242,0.10475712
-0.04077887,0.02652593,-0.00724492,0.00881452,0.07444543,0.01363211,0.02607613,0.06494574,0.04063217
-0.06390055,-0.04830455,-0.03130575,0.01558746,-0.02375904,-0.05120396,-0.05519314,-0.06480117,-0.10571090
-0.01914043,0.04308403,0.06552140,-0.02363617,0.01459505,0.05369541,0.04759920,0.01161632,0.03861970
0.04789694,0.04541490,-0.03077411,-0.03537493,-0.01462899,-0.03260233,-0.03106097,0.01122298,0.03168544
-0.03242009,-0.03560713,-0.09247839,0.01126946,0.00383619,-0.02213679,-0.00614907,0.01932697,0.03868216
-0.08446693,-0.01616504,-0.00998389,-0.03182631,-0.01004875,0.03161265,-0.04609332,-0.02068273,0.05947015
-0.08855040,-0.02555926,-0.00501494,-0.05623090,0.05522103,-0.01377701,0.02102422,0.08637135,0.03194886
-0.02189499,0.01965390,0.00285442,-0.01827284,0.04438399,0.05433406,-0.01375346,0.00356524,-0.01079269
-0.03086567,-0.05850495,0.03929984,-0.06159987,-0.05520064,0.05896264,-0.07382679,-0.00718982,0.06257301
0.01518361,0.03082184,0.04524541,-0.00954644,0.01199392,0.00374348,-0.01097552,0.03169942,0.02885781
-0.00143694,-0.01073002,-0.02274542,0.00641800,0.02257432,0.05150867,-0.02607388,-0.00110581,0.03000023
-0.05053530,0.00089169,-0.03308971,-0.04936764,-0.00546156,-0.02343751,-0.05490224,0.02993378,0.02969724
0.04944412,0.05608039,0.03174826,-0.03204420,-0.03194804,0.00070647,-0.01229832,-0.05443368,0.00961127
0.03489899,0.07456088,0.09542143,0.02369770,-0.04365722,-0.00734544,0.03615271,0.00607266,0.01420747
0.00059377,0.01752916,0.05501011,-0.04558795,-0.02327540,0.04028296,-0.00815732,0.02536196,0.03046036
-0.06721969,-0.04589286,-0.01884414,-0.04782924,-0.02255811,-0.02393752,-0.04504782,0.02786017,0.02281916
-0.02779529,-0.02879712,-0.05534667,-0.01448874,-0.00529643,-0.01242330,-0.02479166,-0.02362851,-0.00973625
0.03078679,0.03087415,0.02631966,-0.03063741,-0.00922743,0.03085863,-0.06259409,-0.04938585,-0.02993709
0.00341061,-0.04676146,-0.02702444,0.00405447,-0.00097455,-0.01671482,0.02229479,-0.02454812,-0.03457445
-0.01489685,-0.05013119,-0.00326794,-0.06317873,-0.03361505,0.02712460,-0.00999626,0.04291782,0.06375687
0.04887973,0.00732216,0.04002976,0.02494335,-0.00483501,-0.00034898,-0.00648098,-0.00825698,0.03699016
-0.00615803,-0.00340132,-0.05105761,0.03800982,0.00471193,-0.00458341,-0.02076931,-0.02912816,-0.00134578
0.03321973,0.00222592,-0.04039787,0.01315628,-0.00054803,0.01322079,0.01803476,0.00781873,0.05541891
-0.00143175,0.01137608,0.01632519,0.02365340,-0.01939161,-0.01757264,0.02568215,-0.02058383,0.02291653
-0.05253371,-0.03299219,-0.01317302,-0.03231624,-0.03438437,0.01652030,-0.03547583,-0.05769245,0.01187179
-0.03695420,-0.00802354,-0.04148365,-0.02544743,0.01534420,-0.01891884,-0.02824839,-0.02403755,0.00694921
-0.08769494,0.04633834,0.00479069,0.04801092,0.05430276,-0.01869777,-0.03288877,0.01898848,0.02539202
0.06753359,-0.00893782,0.01275400,-0.00484559,-0.02862253,-0.02897718,-0.03604949,0.01502931,-0.00691163
0.02103585,-0.00354220,-0.04455249,-0.02963383,-0.04403891,-0.09550317,-0.02324878,-0.03437419,-0.11755966
0.02359136,-0.07071644,0.12177166,0.13248417,0.00711536,0.16798691,0.08477109,-0.03413499,0.10037345
0.03613020,-0.00803943,0.05321031,-0.00430993,-0.01436578,0.07262672,-0.00073925,-0.02729828,0.02374558
0.00273400,0.07149585,0.04783756,-0.02401359,0.02482053,0.01648872,-0.03223858,-0.04398257,0.03967655
-0.04786657,-0.12069705,-0.08414133,0.00761938,-0.05518184,0.03095037,-0.01503433,-0.04708796,0.04144138
-0.05654114,0.00666792,0.00782691,-0.02060547,0.00593378,-0.01109659,0.06991466,0.02639860,-0.03602027
-0.03211220,-0.01326140,-0.05225953,-0.00480680,-0.02438912,-0.03537110,-0.01495120,-0.04945304,-0.08454951
0.06382097,-0.02835793,0.01198406,0.05394636,-0.01839750,0.03937886,-0.01410699,-0.06537086,-0.01372437
0.01083646,0.02924822,0.02241231,0.00619110,0.03260672,0.03966704,-0.05201279,-0.01144363,0.03124172
-0.01716752,-0.03868559,0.00892078,0.01494258,-0.02280434,-0.00454369,-0.01591451,-0.01407722,0.01324582
-0.02850823,-0.06326599,0.00188072,0.01096718,-0.05330748,0.04206240,-0.00367582,-0.02540259,0.05355646
0.03211839,-0.02178754,-0.11436503,0.03632735,-0.04358073,-0.12409510,0.02166462,-0.00673869,-0.13318983
-0.04553646,-0.07218752,-0.09255847,-0.04498868,-0.08078753,-0.07064268,-0.01490669,-0.06196342,-0.05305097
-0.02690025,-0.00621487,-0.00364439,0.01527122,0.05343475,0.00418259,0.00092877,0.03209522,0.00534994
0.07744333,0.05476024,-0.03167765,0.03329708,0.02810273,-0.03927007,0.06237304,0.02212082,-0.05135122
0.00721735,-0.02665166,-0.14115055,0.01256408,0.01662587,-0.12183961,0.04264269,0.02783556,-0.07670072
0.00840586,0.02893328,0.07977913,-0.04668677,-0.05125678,-0.07325204,-0.01159922,-0.01219274,-0.05975400
-0.06386247,-0.01581641,0.01878370,0.00630668,-0.04816643,-0.03176516,-0.02679071,-0.02812836,-0.04411034
-0.00810229,0.05083943,0.04252702,0.05746668,0.14277549,0.05568864,-0.01044363,0.08745927,0.01782434
0.03691978,0.03338248,0.01237598,0.01130396,-0.01084394,-0.02470780,0.00058739,-0.01399211,-0.00513250
0.03598122,0.01243969,-0.12202922,-0.02892117,-0.05970142,-0.12392941,-0.01076679,-0.05753120,-0.12287861
0.02905382,0.02880831,-0.07137210,0.01095601,0.03010540,-0.05528789,-0.06566358,-0.04675459,-0.09444764
0.00582823,-0.02014852,-0.02489758,-0.01721589,-0.03282009,0.02446387,0.02101748,-0.01167808,0.03447156
-0.00064983,-0.02217535,0.00253007,0.01151208,-0.03110464,-0.01585123,-0.00085464,-0.05849146,-0.08690578
0.01003430,0.00983227,-0.07158165,0.02580087,0.02962716,-0.05704756,-0.00334455,-0.00214401,-0.08240837
0.01045760,-0.00250758,0.08062037,0.01954571,0.01100610,0.13410129,0.02332136,-0.04259510,0.04946308
0.04030078,0.02353022,0.04967185,0.02963507,-0.02835499,-0.00464147,0.02360792,-0.05045500,-0.03900443
-0.00171008,0.02169497,0.02483070,0.00762088,0.01491135,-0.00043426,-0.00887727,-0.06075025,-0.10084885
0.03167098,-0.00730020,-0.05120725,0.10382592,0.00697078,-0.02139901,0.02673690,-0.04980208,-0.05608940
0.02151672,0.07632472,0.09796109,-0.05482429,-0.03021135,0.00359807,0.04409346,0.01074582,0.00847388
0.01742703,-0.00763947,-0.10844059,0.00979840,0.01697489,-0.09342044,-0.00726471,-0.01212382,-0.08412167
-0.00897417,0.00423372,-0.00155865,-0.07211532,0.00394200,0.01393670,-0.07556041,0.00427724,0.02963779
0.05904182,-0.06461529,-0.08545711,0.05663538,-0.06138176,-0.11777154,0.10684061,-0.01231528,-0.04025443
0.03078066,-0.02470381,-0.02295017,-0.00693308,-0.09603427,-0.09136393,-0.05608458,-0.10288993,-0.15773423
0.04646895,-0.01415238,0.00000534,0.04813020,-0.02078663,-0.01592373,0.07871186,0.03444363,0.02719391
0.11518329,0.22478624,0.18028782,0.15684465,0.15902740,0.15479834,0.04576951,0.03067219,-0.01194301
0.08157109,-0.03026225,-0.13573898,0.04233519,-0.06133061,-0.15643574,0.03128125,-0.05112654,-0.12818885
-0.05482990,-0.04572038,-0.04703787,-0.00173670,-0.00207395,0.07062108,-0.05176654,0.01229819,0.10811119
-0.08782551,-0.08073413,-0.07047035,0.04033919,0.00886388,0.02783226,0.04289386,-0.01794199,0.04706200
0.02989863,-0.10189562,-0.05634035,0.13224313,-0.00897472,0.03421876,0.04276279,-0.13273400,-0.12546334
0.09019212,0.00487639,0.00140796,0.06381393,-0.00289082,-0.00856397,0.01960810,-0.05799568,-0.02510748
0.03983160,-0.02302881,-0.03147464,-0.01273494,0.00314554,0.02229976,-0.04477194,0.00230965,0.05788515
-0.06525177,-0.05809907,-0.01748239,-0.01630157,-0.05682753,-0.03719520,-0.03530072,-0.05734446,0.00467857
-0.00274853,-0.04739585,-0.02858894,0.05700132,0.00625784,0.04158858,0.00111811,0.00160299,-0.00731146
-0.01708787,0.03810326,0.03287991,-0.02966332,-0.02581520,-0.08305613,0.00538886,-0.04130391,-0.12631771
-0.01994197,-0.00540059,-0.02199431,0.01011772,-0.02426040,-0.08652341,0.04515572,-0.00122787,-0.07885076
0.00788535,-0.05855409,-0.05535928,0.13319165,0.01465554,0.02137025,-0.00301899,-0.00892507,0.01898560
0.03597560,-0.00657143,0.06845266,-0.01921386,-0.05597731,0.02947709,-0.00759325,-0.02670629,0.09292239
0.00002115,-0.01403513,0.02381220,-0.00057669,-0.01458831,-0.00699269,0.02650394,-0.00854892,-0.03587308
-0.04366998,-0.06243590,-0.01698573,0.12155240,-0.00473486,0.03139297,0.07968394,-0.01347909,0.03069754
-0.01895026,0.07226277,0.02141429,-0.03703644,0.03217721,-0.04199143,0.02713643,0.05997171,-0.03233531
-0.00337921,-0.09375136,-0.01871575,0.02070041,-0.08174315,-0.00170955,0.02490184,-0.04298489,-0.01789016
-0.00655055,0.00116167,-0.03995295,-0.06383769,-0.08163057,-0.08148525,-0.02369856,-0.02976534,-0.05035902
-0.04836329,-0.01115430,0.02521690,0.01352706,0.00413333,0.05902846,-0.06229677,0.00064650,0.07651170
0.02084556,-0.08201906,-0.04999087,0.05901124,-0.01654498,-0.00458434,-0.01742057,-0.05667969,-0.04434277
0.05984056,-0.02597413,-0.05463181,-0.00133834,-0.00476993,-0.04743046,0.02377410,0.03340051,-0.04418629
-0.00355766,-0.01757693,0.01707842,-0.01344257,-0.05674820,-0.01770263,0.06712849,-0.01137173,-0.00294525
0.08879414,-0.02490897,0.02357591,0.02185456,-0.02737474,0.01248307,0.07598861,0.06140712,0.12844153
-0.01953271,-0.02145897,-0.00760553,-0.02298721,-0.06358878,-0.02222927,-0.02447774,-0.05477978,-0.00917403
-0.06065510,-0.01274613,-0.05253352,-0.01779467,-0.01191142,0.00802158,-0.12178360,-0.07090830,-0.01200568
0.13421896,0.03534049,-0.02047599,0.11172132,0.00900704,-0.03531187,0.05964798,-0.00316753,0.02331700
-0.05278100,-0.00489507,0.02366177,0.02490453,0.03447222,0.04236258,0.06092891,0.01625042,0.03227301
0.00328795,0.03411251,0.06248843,0.07750832,0.06503818,0.08565473,-0.02260999,0.02633271,0.01803948
-0.02414973,-0.01436524,-0.01880326,-0.00742758,0.00811352,0.00719759,-0.00939646,0.01491951,-0.02232948
0.03034791,-0.04192637,-0.07790381,-0.01669860,-0.04047690,-0.04833409,-0.04606742,-0.05011335,-0.06333993
-0.02457003,0.02104499,0.00480095,0.00636392,0.00085493,0.02976196,0.05763038,0.02188189,0.04597399
-0.04467099,0.02339436,0.00590724,-0.04803216,0.02833316,0.01030473,-0.04427182,0.04396964,0.03904697
0.05184030,0.00391765,0.04105267,0.10859221,0.05037769,-0.02230779,0.02197782,0.00109329,0.00209562
-0.02784712,-0.01921564,-0.01337626,-0.06763905,-0.04894311,-0.02782630,-0.00945968,0.03216268,-0.03705388
-0.06440272,-0.07212859,-0.04428156,-0.04900240,-0.05845978,-0.02987599,0.01858741,-0.02210617,-0.00691024
-0.01104446,-0.00268555,0.00061251,-0.03392611,-0.04426296,-0.07428158,-0.04727280,0.01179223,-0.06455619
-0.00970218,-0.00468919,0.01368148,-0.00896268,-0.05623250,-0.04816765,0.00074178,-0.07887486,-0.02970070
0.07065795,0.07124547,0.02414442,0.01230210,0.05325323,0.01230835,-0.02322567,0.02567384,-0.00413162
0.02635830,-0.01905097,-0.02791456,0.01391750,0.00216363,0.04055215,-0.05438943,-0.02579868,0.05050121
0.03423810,0.06003034,0.01671032,0.06235794,0.03517535,0.00134541,0.00734443,-0.00589579,-0.02965922
0.00925673,0.04294335,-0.07527180,-0.04075869,0.05785886,0.01475779,-0.04720668,0.07511137,0.01173860
-0.10377156,-0.09578147,-0.05655427,-0.04719665,-0.02351698,-0.04725114,0.01454083,0.04176905,-0.04294420
0.03338640,-0.01448402,-0.01307949,0.03752108,0.02085907,0.03147187,0.00271115,0.00651693,-0.01183598
-0.02795650,-0.05861833,-0.07748625,-0.03822265,-0.06081660,-0.04402161,-0.06290101,-0.01077844,0.00298919
-0.03675291,0.01901532,-0.00623583,-0.00909079,0.00844506,-0.00390814,-0.09319225,-0.04392476,-0.07724070
-0.00064969,0.07569268,0.00258656,-0.02855080,0.02379525,0.03697380,-0.01303449,-0.01051849,0.03758691
0.01964787,-0.00855227,-0.02040890,-0.00362449,-0.03742340,-0.05900398,-0.02154717,-0.04008265,-0.06576633
-0.06846430,-0.02811804,-0.02624206,0.00477304,0.01342044,-0.02964753,-0.01662390,0.01257257,-0.01552657
-0.03861172,-0.03121739,-0.09460398,-0.00080383,-0.03651086,-0.04156098,-0.00680328,-0.00012185,-0.01018933
0.07277966,0.02935045,-0.02681097,-0.00794058,-0.03462305,-0.01875070,0.01742979,-0.05217348,-0.08919486
0.00514551,0.01129984,0.01703413,0.00901651,-0.00625811,0.05970115,-0.00367833,-0.03942416,0.02378503
0.00700988,-0.01659752,-0.01143186,0.01884493,-0.01066979,-0.00822427,0.03870250,0.02952374,-0.00517643
-0.04680394,-0.07775517,-0.01402416,-0.04782878,0.00358506,-0.01569861,0.03053479,0.04765496,0.02915094
0.02588186,-0.01128680,-0.02704752,-0.00051723,-0.02028211,0.00415144,-0.03089342,-0.02744182,-0.02197492
0.07075755,0.03602486,0.00968861,0.00392924,-0.01117711,-0.01866902,-0.04167627,-0.01034191,-0.03177360
-0.03794714,-0.02652821,-0.01312100,-0.05891753,-0.00266570,0.01001060,-0.05747270,-0.00979972,0.01961840
-0.04236851,-0.04154534,-0.02363057,-0.01914295,-0.00567149,-0.01101648,0.01990826,0.00491483,-0.01541872
0.07912757,0.02979764,0.02496837,-0.03505666,-0.05201391,-0.04083081,-0.02964835,-0.04492655,-0.05747111
0.02479135,-0.02758360,-0.07121174,0.04434673,-0.00012535,-0.04151661,0.03984916,-0.00082191,-0.00425365
-0.02146136,0.01114351,0.01312160,0.00242044,0.01659856,0.01231688,-0.00027416,-0.03964130,-0.02324194
0.01039869,0.02006005,-0.00522433,-0.02212253,0.02563637,0.02063845,-0.03322107,0.00527301,0.03160954
-0.04021481,-0.03946106,-0.02936388,0.01063748,0.00014225,-0.03224693,0.01091402,0.00736785,-0.05254947
0.01078885,-0.03598699,0.00632310,0.01720996,-0.00801787,0.02721839,-0.01904267,-0.00978518,-0.01852584
-0.00328984,-0.00182792,-0.05324605,0.01928624,-0.00167758,-0.06657751,0.04032020,0.04766465,-0.01424555
-0.01901056,-0.07752808,0.02737879,0.00756767,-0.14310861,0.14127354,-0.05402654,0.04304805,0.18672267
-0.04533861,-0.07415731,-0.02757634,-0.04024050,-0.04652958,0.01238210,-0.07136912,-0.00531820,0.05747557
0.05710586,0.00435228,-0.03306333,0.03683638,0.00232300,-0.05282046,-0.00196174,-0.00006782,-0.04684342
-0.05482563,-0.03497180,0.06274631,-0.00602208,-0.01316417,0.03875627,0.07349755,0.00017712,-0.02294276
0.11610445,0.03755829,0.01836456,0.08438157,0.02511245,0.02969793,0.01633875,-0.01290858,-0.00407840
0.02715753,-0.02449458,-0.04129098,0.05323195,0.05094492,0.07576650,0.03913585,-0.00250838,-0.00607253
-0.00144363,-0.03170719,0.06983498,0.03287511,-0.00654110,0.04104535,0.08085197,0.03628545,0.02787907
-0.05710666,0.02371139,0.04108240,-0.03978707,0.02131313,0.02690715,-0.02721286,0.00843839,-0.01129070
-0.03953882,-0.01067177,0.03524699,-0.09939176,-0.01767648,0.01713849,-0.04567800,0.04235252,0.05178507
-0.01609478,-0.01753773,-0.06736334,-0.02835775,0.07882623,-0.05132902,0.02337940,0.33677450,0.04623350
-0.03857796,-0.01510600,0.01523657,-0.04358478,0.01762653,0.06174918,-0.05075124,-0.02840024,-0.01077310
-0.00849281,0.01982153,0.01937972,-0.03266913,-0.01304401,-0.02637783,-0.04541303,-0.00631087,-0.01698388
-0.00947905,0.00808841,-0.01639850,-0.00911026,0.02192434,0.00986618,0.12781775,0.07485293,0.03888606
0.01683662,0.06556311,0.00905592,-0.04577790,-0.01050202,-0.03441785,0.01051803,-0.01362008,-0.02069537
0.07057030,0.08937071,0.03253091,0.07419030,0.02128129,0.00729914,-0.01170966,-0.01162002,0.03890550
-0.05728238,0.00897626,-0.00722435,-0.05035602,-0.04125365,-0.05182210,-0.07393800,-0.00818846,-0.00063396
0.03921454,-0.00548294,-0.00880479,0.03698095,-0.00036664,-0.01835764,0.02480312,0.02927369,0.03275366
-0.03812724,0.03358962,0.00800836,-0.03742056,0.02188899,0.01140443,-0.02114275,0.00950791,0.01619058
0.00281647,-0.01854904,-0.02782539,0.01545070,0.01459490,0.01048597,-0.02874628,-0.06245140,-0.03309990
-0.06867024,-0.03605656,-0.02909983,-0.06839186,-0.03140664,-0.00603804,-0.00890405,-0.04346416,-0.02205970
-0.02112174,0.02666862,0.00586952,-0.02576035,-0.00738755,-0.02726118,-0.07964284,-0.05889809,-0.00180208
0.04575442,0.00793833,-0.00243524,0.06097600,0.00721717,-0.01023787,-0.01402999,-0.01718600,0.01885053
-0.02877752,-0.00963476,0.00586977,-0.05172648,0.03200701,0.05800474,0.00568348,0.05589830,0.06587912
-0.02486463,-0.01638277,-0.03846131,0.03101898,-0.01861918,-0.07484424,0.01702737,-0.00095039,-0.03365603
0.05484919,0.06713164,0.04731358,0.04721057,0.02365161,0.03943519,0.00553498,-0.01663099,0.03797056
-0.00154051,-0.01646369,0.00967304,0.02629352,0.01210617,0.04264051,0.02283478,-0.01495950,-0.01810600
-0.00522534,0.00791861,-0.06661063,-0.00674395,-0.05542150,-0.02809234,0.06012953,0.06331288,0.05461286
-0.06632120,0.00580224,-0.08012713,-0.04892257,0.02627090,-0.05877620,-0.00894365,0.03754454,-0.06246895
-0.04984696,0.09271771,0.06715527,-0.09249743,0.02139818,0.01945958,-0.07510944,0.02246758,0.02388386
0.04085625,-0.06384700,-0.00127851,0.09553441,-0.01374846,-0.02974346,0.11595787,0.04658099,-0.00170995
0.01018541,0.04130545,-0.06003036,-0.00944390,0.01042734,-0.04997097,0.03364891,0.03931482,-0.01188939
-0.00992674,0.00971069,-0.01894901,0.02057754,-0.03917004,-0.03628915,0.00134486,-0.03696376,-0.05310119
0.05127779,0.01759046,-0.00259795,0.10119811,0.03395770,0.01740830,0.03957599,0.04154437,0.07956617
-0.04343352,-0.06449793,-0.06506597,-0.04066028,-0.07003004,-0.07114271,-0.02774622,-0.04315659,-0.01472554
0.01083248,0.03572100,0.01399492,-0.01950102,0.02814655,0.02185508,-0.03314995,0.01851103,0.00340223
-0.02139044,0.02709230,-0.00808889,0.00371317,0.08852782,0.03270461,-0.01293205,0.10743998,0.03404482
-0.08877910,0.00455334,-0.02971334,-0.07938462,-0.01159944,-0.05510034,-0.02076671,0.02354944,-0.02110684
0.01876228,0.01393776,0.03391401,-0.03348614,-0.04458743,0.01237289,-0.03958103,-0.07378244,-0.03607102
-0.00636920,-0.04332578,-0.05973773,0.03166997,0.02704497,-0.01739341,-0.05876945,-0.05103898,-0.04335864
0.06500277,-0.08315262,-0.07791167,0.03333892,-0.08071692,-0.07244426,0.00790698,-0.02699568,0.06643579
-0.04479640,-0.01120902,-0.10117131,0.00457244,0.03267547,-0.04914644,0.00433468,0.00075476,-0.06924811
-0.10058824,-0.00927516,0.02159832,-0.07733576,0.00704343,0.06003725,-0.08750652,-0.00948296,0.09461017
0.01098596,0.00175941,-0.04528535,0.00935944,0.03183533,0.01716495,-0.03322915,0.00611885,0.03746979
0.01940088,0.02036294,0.01805253,-0.09395766,-0.01418680,0.02242702,-0.14243186,-0.05911919,-0.04785473
-0.05262488,-0.09283105,0.03244380,-0.04050345,-0.01331957,0.08419217,-0.09191126,-0.07034386,0.08225686
-0.02521850,0.03501352,0.05131882,-0.05734622,0.00411127,0.03059478,-0.14517547,-0.05835513,-0.04878555
0.00694759,0.01528719,-0.05345592,-0.01566716,0.01180171,-0.10454667,-0.00051402,0.02751995,-0.06036760
0.05757234,0.01554195,-0.01010117,0.06963566,0.00269553,-0.00769275,0.09396404,0.02130180,0.04723664
0.02058041,0.01889786,0.02960695,0.00600560,0.02618595,0.00363980,-0.04830109,0.01588535,-0.01352199
0.01131984,-0.09497925,0.00276811,0.07987376,-0.03211656,0.00014701,0.07776561,-0.05141452,0.00211144
-0.03209615,-0.06266116,-0.03211011,0.01276953,0.01445001,0.04229528,0.00198405,-0.00170574,0.04580938
0.07653315,-0.01185202,0.00230191,0.03543814,-0.04107926,-0.03225102,-0.01732817,-0.06879543,-0.04843098
-0.02363620,0.00441863,0.00029969,-0.01313404,-0.01221836,0.06102164,-0.00887237,-0.02658106,0.08674446
-0.01210770,0.06022217,0.04672717,0.02291663,0.09864277,0.04140577,0.00509949,0.08491957,0.01217787
-0.06270958,-0.04151252,-0.03317278,-0.00126777,0.02346279,-0.01507674,-0.08703244,-0.05117440,-0.05663927
-0.01788925,-0.00683719,0.04309630,-0.03918284,-0.05710325,-0.01556538,0.00002758,-0.06559852,-0.01010802
0.02507587,-0.03801230,-0.03348082,0.05436258,0.00265199,-0.00714200,0.01708129,-0.05245347,-0.07718291
-0.08451222,-0.03259043,0.00910585,-0.10409317,-0.03012896,0.01132261,-0.03348514,-0.01950975,0.00341371
0.01237265,0.02742725,0.02585145,-0.01291324,0.03093467,0.09882841,-0.04347574,-0.04149376,0.04281360
-0.02695149,-0.01781802,0.00223756,-0.00414566,-0.01742763,0.01864701,-0.00268840,0.00365125,-0.01716007
-0.00558898,-0.03165346,-0.07422996,-0.01207742,0.00163155,-0.02749607,-0.00412840,0.01873055,0.04478265
0.00961316,-0.01503025,0.00730953,0.02166155,0.01252218,0.06145297,0.01413244,-0.01675593,0.02767094
-0.10075983,-0.05234434,-0.04451585,-0.03862107,-0.00705629,-0.05735385,0.01879382,0.03183311,-0.01155815
0.06558001,0.09831849,0.03560898,-0.02438140,0.02874745,-0.02546686,-0.07718673,-0.01518445,-0.03823775
0.08494795,0.11982659,0.13246569,0.03512613,0.12050682,0.06212704,0.06180868,0.04468215,0.09346420
-0.03620261,0.01271337,0.03531125,-0.01276014,0.02903197,0.05007312,-0.01428360,0.01618090,0.03893564
0.01057329,-0.04220787,0.00766884,-0.03163135,-0.07355314,-0.01609205,-0.02197558,-0.10843639,-0.04993561
-0.00587104,-0.02287516,-0.03838720,-0.02180693,-0.05567253,-0.01562464,-0.04616753,-0.00290157,0.02673989
0.02692502,-0.03026370,0.00488775,0.00925856,0.00977742,0.03888308,0.05339808,0.04429049,0.03995600
0.02230249,-0.02760804,0.04575232,-0.03560750,-0.03147629,0.04408479,-0.07905282,-0.01864353,0.05963483
0.04450309,0.00543936,0.01211702,0.03975198,-0.04369281,-0.01268547,0.02214007,-0.04142034,-0.04115783
-0.02307702,0.08384884,0.09585570,-0.04189136,0.00543348,-0.02006439,0.01472674,-0.03917099,-0.01395968
-0.04265371,-0.00063268,0.00037418,-0.06357628,-0.00427376,-0.01291422,0.00156496,-0.00261454,0.00097852
-0.00996104,0.23765855,-0.07136222,0.00052212,0.39295819,-0.00340474,-0.02645073,0.34625891,0.01555617
-0.01855943,-0.01234734,-0.00299943,-0.00419234,0.00719582,0.03127663,0.04047162,0.00017628,0.00593287
-0.03887983,0.01224527,0.00766471,-0.04903698,0.00308619,-0.00490153,-0.06227120,-0.04961403,-0.01923090
0.05042364,-0.01355924,0.02781660,0.03489910,-0.02386339,0.02625600,-0.04893929,-0.10730837,-0.08446251
-0.05383332,-0.04485505,-0.00266012,-0.04892972,-0.03683071,-0.00604386,-0.10973225,-0.03940502,-0.00392004
0.07909174,0.05702046,0.03500120,0.00435277,-0.01732165,-0.03302249,0.04776622,-0.02008806,0.00970640
-0.11046126,-0.01471957,-0.02568423,-0.09488256,0.02782430,-0.00209416,-0.11513807,0.02470684,-0.00895411
0.03524267,-0.05018932,-0.00183508,-0.00128069,0.01172676,0.01697240,-0.02899026,-0.05115059,-0.05261145
-0.05251154,-0.01920824,-0.00712066,-0.09726113,-0.05926324,-0.06612949,-0.06821970,-0.03126414,-0.01700458
-0.01523135,-0.00146973,0.01264794,0.02980583,0.00963426,0.05010376,-0.03122683,-0.05722781,-0.01424395
-0.03804532,-0.00884757,-0.05962115,-0.06202050,-0.02552895,-0.04373484,-0.06737944,0.02492218,-0.01488334
-0.07805825,-0.03881425,0.02339962,0.00681819,0.01374344,0.04409688,0.09305067,0.09218248,0.10449079
0.06021234,-0.03899492,-0.04373564,0.00786255,-0.04926763,-0.04194492,-0.02695036,-0.10327176,-0.03027224
0.01036298,-0.01171394,0.05569024,0.04085741,-0.03970776,-0.00612419,-0.03810398,-0.10061246,-0.07984319
0.02966902,0.01702742,0.03381559,0.01368834,0.02962488,0.01333148,-0.04617591,0.01861994,0.00135232
0.03976749,-0.03856120,-0.03294155,0.10981423,0.08588019,0.03947563,0.10125498,0.04253885,-0.01549779
-0.02614067,-0.00700235,-0.00086658,0.00301674,0.00224840,-0.00541650,-0.07281230,0.01282774,-0.00332802
0.04581868,-0.02828266,-0.03557219,0.00234792,-0.05044471,-0.03568545,-0.02798784,-0.05578955,0.00336522
0.00167235,-0.06862780,-0.01400731,0.05903324,0.02505050,-0.01189696,-0.04081669,-0.04127062,-0.03607779
0.05683660,0.02551456,-0.00461656,-0.00215981,-0.01477995,-0.01845196,-0.01388669,-0.01105312,0.02572047
-0.01998599,-0.01656699,0.00918977,-0.00756093,0.06257062,0.05995267,0.05504062,0.06976338,-0.04622987
0.03397813,-0.03261419,-0.00782545,0.00291056,-0.01444231,-0.03074043,0.01787504,0.01737836,0.02530439
0.03893689,-0.02150018,-0.01525954,-0.03322827,-0.03578857,-0.02979027,0.01022817,-0.04125170,-0.06829341
-0.00592001,0.00043166,0.05005043,-0.02715932,-0.00389063,0.06246899,-0.01219032,-0.00055757,0.04365794
-0.03582761,-0.02403179,-0.00676829,-0.00410113,0.02316348,-0.00583630,-0.03527237,-0.01680989,-0.04411396
0.05145059,0.07230724,0.03513893,-0.10015673,-0.05586428,-0.03789980,-0.03542520,0.01366867,-0.00828071
-0.01827112,-0.05903535,0.01435758,0.10848777,-0.00136602,0.03938915,-0.01454224,-0.06969066,-0.01899023
-0.02564093,-0.01853187,-0.11275443,-0.01306182,-0.01637204,-0.04293325,-0.04447059,0.04014758,0.02444405
0.00949754,0.05377721,0.04855948,-0.02567738,0.01453972,0.04008621,-0.00346649,-0.01566402,-0.01667028
-0.02884678,0.00796214,0.05559505,0.01268667,-0.03126742,0.02853630,0.07019694,-0.03123906,0.04208122
-0.03102311,-0.07844438,-0.03384169,0.04965160,-0.06909505,-0.01846705,0.10523344,0.02864034,0.01373210
0.04272844,-0.02158345,0.06732794,-0.05408148,-0.03502944,0.06111220,-0.04250365,0.03291342,0.07010244
-0.03713556,0.00502359,0.05024425,0.02730851,0.01315450,-0.02141409,0.04087998,0.02591660,-0.03427745
0.05135995,0.01106769,-0.02454753,0.03426596,0.03626167,0.01591179,0.05765158,-0.06669805,0.02378953
-0.08288451,0.00017346,-0.01898788,-0.07238322,0.01591314,-0.03331667,0.08057163,0.08504144,0.04718285
-0.06820136,-0.01912371,-0.04491503,-0.03206359,0.01316001,-0.09109634,-0.00342415,-0.01513282,-0.07072221
-0.04893285,0.00720026,0.00450243,-0.00874672,0.00593739,-0.02095719,0.05946989,0.01362565,0.06082521
-0.03332660,-0.09023017,-0.03583332,-0.01012413,-0.05657135,-0.04729896,0.01158805,-0.02122603,-0.04626198
0.01414252,-0.00836768,0.01655747,0.04659496,0.03002785,0.03649708,-0.06717347,-0.08457507,0.00217680
-0.07335629,0.00233221,-0.05599484,-0.05574000,0.03952485,-0.05228855,-0.06331303,0.07610789,-0.05327192
0.04628240,0.05871239,0.07907220,0.00482698,0.02437881,0.05411989,-0.04941824,-0.02041503,-0.06407177
0.05112158,0.04791938,0.07130668,0.06014578,0.02026082,0.02487928,0.06194736,0.01216400,0.03599411
0.07376987,0.08287889,0.04379409,-0.04865713,-0.05735776,-0.07322728,-0.06681929,-0.03899478,-0.03139928
0.00664290,0.02842177,0.01406711,0.00924326,0.01624107,-0.05715926,0.05085998,-0.03044171,-0.09781916
-0.02360579,-0.02021166,0.00679249,-0.03515634,-0.02808709,0.04673012,0.02488131,0.06022060,0.01102615
0.00463090,0.00622150,-0.01786313,0.04282587,0.01093099,-0.02978746,0.00819784,-0.06110755,-0.02110278
-0.01788777,0.01554036,-0.02924472,-0.00839786,-0.00392101,0.00968635,0.03047071,0.00874863,-0.02349893
-0.01498028,0.04216123,-0.06161790,-0.05138860,0.02573432,-0.06235922,-0.08711315,-0.02115427,-0.05284195
-0.08328792,-0.01192390,0.02971780,-0.00898505,0.03889291,0.01890024,0.01433721,0.00728005,-0.07977638
0.02265248,0.05775696,-0.00433465,0.02294267,-0.02522568,-0.06083413,0.06911645,0.02258733,-0.03466757
-0.06041773,0.03624944,0.05250790,0.01445674,0.07882529,0.07641508,-0.02575887,0.03031645,0.02351481
-0.04817509,0.01237905,0.03253553,0.00286287,0.05335942,0.08030067,-0.01120161,-0.05599026,-0.01697970
0.04243254,-0.00452044,0.02165273,-0.01534054,-0.04018279,-0.01266379,0.05468452,0.00972765,-0.05606553
0.04628197,0.01365767,-0.07755148,-0.00348708,0.03042278,-0.01578253,-0.07474689,-0.12458077,-0.13198103
-0.03440769,-0.01088874,-0.06393281,-0.05419452,-0.05137180,-0.08243105,0.01930727,-0.03381273,-0.08203524
0.03662108,0.10040531,0.12867752,0.00917063,0.00721815,0.02659547,-0.02488981,-0.04445716,-0.01570474
-0.05997169,0.00718617,-0.01601569,-0.01224042,0.04774881,0.05999267,0.01793816,0.01564907,0.07871331
-0.03474308,0.03509684,-0.05247035,0.00201006,0.05402397,-0.01680675,-0.01762190,0.00660558,-0.03593981
0.01841106,0.04088145,-0.00923545,-0.02884270,-0.02249051,-0.00856801,-0.02257979,-0.00294987,0.03728493
-0.01067276,-0.04396725,0.01333387,0.00238552,0.02924072,-0.01588147,-0.00050509,-0.01110735,-0.07489622
-0.02162923,0.00554946,-0.00170647,0.06505605,0.01165268,-0.01752565,0.02090630,0.03113347,-0.00734673
-0.00441601,-0.02555566,0.01879320,0.02623205,0.02848326,0.03378023,0.06069480,0.03446953,0.02141689
0.03718179,0.05027537,-0.05835348,0.04125207,-0.01610853,-0.05551300,0.01977985,-0.00246799,0.01362493
0.04414396,0.01334393,-0.01218683,0.05608812,0.03251816,0.06592940,-0.01223293,0.00048873,-0.06026461
-0.01527409,0.03734477,-0.00674248,-0.01974841,0.08809434,0.05491095,-0.03508050,0.03667367,0.06495097
-0.00033969,0.03566672,-0.05576815,-0.00897942,-0.01744865,-0.05139872,0.04755855,-0.00868232,-0.00116080
0.05657761,-0.04706032,0.07236756,0.09108410,-0.02152848,0.07034528,0.01090209,-0.08541956,-0.00357181
0.10054670,0.05986578,-0.00745990,0.02092813,0.01707093,-0.05854935,-0.00992972,0.01892776,-0.12319846
-0.08092662,-0.03340955,-0.09115316,-0.00567127,0.01334274,-0.07751670,-0.01933848,-0.00435855,-0.06887779
0.00913725,0.01991594,-0.01635692,0.00750749,0.00454458,-0.01222618,0.02607602,0.01086581,0.02506893
-0.04905491,-0.00742208,-0.04572339,-0.01917908,0.05759268,0.02993768,0.02459702,0.08332197,0.00312579
-0.04179064,0.00353520,-0.02189182,-0.00403069,0.01448685,-0.01509184,-0.04749676,-0.01021245,-0.00111807
-0.03294084,-0.06490751,0.00995487,-0.00788776,-0.00903162,0.07282440,-0.03645224,-0.04248761,0.02484112
-0.01659044,0.02285734,0.01459155,0.00865224,0.05011323,0.01602692,0.04640826,0.04833745,0.03954674
0.04516701,-0.01321714,-0.07565315,0.03327166,0.03330242,-0.01598197,-0.05317580,-0.05531414,-0.01457561
-0.03551183,0.03863081,0.08149306,0.00119700,0.01680713,0.05391264,0.04652809,0.00954876,-0.02009678
0.08288409,0.06818347,-0.02980808,0.01671998,-0.01016539,0.06386273,0.04042066,-0.02868099,-0.00092629
-0.00200570,-0.02644302,-0.03811625,0.06283899,0.05063254,0.04094154,-0.02507086,-0.02978125,0.03841886
0.07854678,-0.05402638,-0.02982380,0.06689515,-0.07375972,-0.02904600,0.02039545,-0.02094468,-0.03794342
-0.15381870,-0.12337520,-0.07563803,-0.03462692,-0.02462235,-0.01890881,-0.04006761,-0.04286125,-0.02408926
-0.03517295,0.01320017,0.00565951,-0.01761883,-0.03297222,0.01998470,0.01635014,-0.00295336,0.01298848
0.00954420,0.02209514,0.02961338,0.01571866,0.07936031,0.05790547,-0.03839180,0.03238638,0.01300388
0.01334463,0.04817246,-0.04808007,0.01070748,-0.00455707,-0.04265729,-0.00889807,-0.02621522,-0.05691282
0.00676643,-0.01532607,-0.01695311,-0.01220886,0.00480287,-0.00592389,-0.01740832,0.02341353,-0.01877161
-0.00854166,-0.00307060,0.01294655,0.01905036,0.00412983,-0.01818790,0.07937217,0.02881393,-0.03218749
0.01545279,0.01632069,-0.04676231,-0.00119006,0.02430993,0.01624604,-0.01461086,0.00815718,-0.02082510
0.00336524,0.02132662,-0.01063677,0.00791357,0.06228569,0.03341736,-0.05547948,-0.02116463,-0.01681832
0.00373552,0.02954332,0.00044923,0.01183247,0.02262246,-0.00030132,-0.00348064,-0.01031884,-0.02461988
0.03758912,-0.02909598,-0.01731096,0.04839104,0.02522585,-0.02388111,-0.00235884,-0.02601984,-0.01763590
-0.00527217,0.01453273,-0.03106288,-0.01677997,0.02207570,-0.05681507,-0.00815257,0.01717118,-0.03681101
-0.01852630,0.05826868,-0.01768241,-0.02650648,0.04096980,-0.02936107,-0.03106828,0.00236239,-0.01672340
-0.04943510,-0.05187416,-0.02775130,-0.06819150,-0.06036913,-0.04034421,-0.05464463,-0.03548555,-0.03006793
0.00545153,0.00555535,-0.03255201,0.02346351,0.02956176,-0.01471612,-0.00922589,0.02537129,-0.01492871
0.02261320,-0.01477010,-0.03548835,0.03433215,-0.01567354,-0.02665847,0.04266448,-0.01620621,-0.01105443
0.01187226,-0.01474155,-0.03435763,0.03761423,0.00976088,-0.04987008,0.06289442,0.02274096,-0.03157865
0.07871372,-0.02357464,0.00239262,0.04239950,-0.04566520,0.01718933,0.02191048,-0.02615616,0.02361351
0.02029581,0.03133076,-0.00337647,0.05027413,0.01474892,0.00258197,0.04101684,0.01500079,-0.00437256
-0.03147098,0.02460841,-0.04232629,-0.00057908,0.04765473,-0.02872592,-0.00856380,0.00759556,-0.03303177
0.00032759,-0.03762709,-0.01200265,-0.02762185,-0.02118085,-0.01576103,-0.01403614,-0.02373002,-0.02295278
-0.00712936,0.00309306,-0.01221684,-0.00504063,0.03305314,-0.02383595,0.00273221,0.04367726,-0.03567031
-0.02259228,-0.03043678,-0.04910311,-0.02013535,-0.01536484,-0.02611367,-0.02927266,-0.02229167,-0.03083565
-0.03769659,-0.02934746,-0.07097092,-0.00873125,-0.01050524,-0.04388933,-0.00014386,-0.01548433,-0.02930409
-0.01887395,0.02409018,-0.01577558,-0.06068294,-0.00321987,-0.01528464,-0.06485851,-0.00936897,-0.04095884
0.01208090,-0.00385329,0.01217811,0.00414168,-0.00308514,0.02216009,0.02306106,-0.01269906,0.01082170
-0.00756662,0.01510932,-0.02408916,0.02581379,0.03141320,-0.04908809,0.02937999,0.02739478,-0.03392985
-0.04047013,0.00876089,-0.00203919,-0.05693410,0.03608980,-0.00272347,-0.02365041,0.02381184,-0.01682069
0.01759916,0.00001362,-0.01508499,0.00497206,-0.00807971,-0.04255325,0.01770914,0.00843392,-0.02285280
0.02851691,-0.03499559,-0.05544376,0.05604589,-0.01756556,-0.07460631,0.05983570,-0.01081165,-0.06991105
-0.02617671,-0.05072386,-0.08263624,-0.00244388,-0.04346489,-0.04434599,0.03267526,-0.03888959,-0.03556306
0.01880493,0.04125653,-0.00534185,0.05169282,0.10009148,0.03884000,0.04030516,0.05958211,0.02284563
-0.05421376,-0.01457368,-0.04715499,-0.00074778,0.00627474,-0.02855651,0.02889372,-0.01294594,-0.05136257
-0.02211382,0.01878907,-0.02223385,0.00833232,0.02163621,-0.02226239,-0.02110757,0.01492991,-0.01471808
-0.01630154,0.02071241,-0.03183034,-0.01500424,0.00308275,-0.01471581,-0.03415336,-0.04327920,-0.01584668
-0.01040196,0.04042637,-0.03162685,0.01614023,0.06314353,0.00181680,-0.00766257,0.02708592,-0.00907830
-0.00560137,-0.02322709,-0.03627189,0.06643608,0.02384228,-0.02660810,0.09182122,0.06519531,-0.02139162
0.01920271,-0.05196004,-0.04230141,0.03552385,0.00026307,-0.01367131,0.00492240,0.00223501,-0.02079991
0.01021105,0.01004421,0.00681953,0.04324070,0.00828590,-0.00750622,0.01731651,-0.03076586,-0.01791485
-0.04005452,0.00448032,-0.01310298,-0.05296602,0.03073201,-0.00796318,-0.02174274,0.03333424,-0.02297129
-0.01831776,0.04004767,-0.04849929,-0.02133663,0.04585882,-0.04562968,-0.00733904,0.00055264,-0.06173031
0.02188620,-0.01898814,-0.04978061,0.16846967,0.08806000,-0.05215375,-0.00565852,-0.04140825,-0.07134583
-0.00894750,0.04190283,-0.02565243,-0.01602167,0.04459930,-0.04249561,-0.03122803,0.01069731,-0.04811604
-0.02770422,0.02608742,-0.04827893,-0.01310572,0.05309401,-0.04018661,-0.00497834,0.02750657,-0.03771226
0.02492159,0.03474650,-0.02560505,0.03238503,0.02130506,0.02151893,0.00554425,-0.02085259,-0.00283796
0.06369514,0.02341363,-0.06542718,0.00455004,-0.00088738,-0.05064637,-0.01621654,-0.01610792,-0.03955378
-0.01489029,-0.03662789,-0.01468225,0.01459370,-0.02331581,-0.03006940,0.02696634,0.00973270,-0.03394803
0.05420277,-0.00314425,-0.01652962,0.07273677,0.00507933,-0.00063148,0.04898956,-0.02919939,-0.02689155
0.02879020,-0.01109428,-0.00304554,0.05064919,0.02795330,-0.01787058,0.01594168,0.02218967,-0.02559581
-0.01159428,0.01866576,-0.03583140,-0.04113574,0.00171519,-0.02311773,-0.05096235,-0.01463631,-0.00807690
0.03869730,-0.00954219,0.00506859,0.03088427,-0.00091790,-0.02482690,0.02272289,0.03221275,-0.01911173
-0.00970092,-0.00061065,0.00629066,0.02886101,0.03329165,0.01620806,0.02138081,-0.00434175,-0.01632489
0.02382528,0.01523224,-0.03725136,-0.00479388,0.00043796,-0.05373171,0.01192113,0.00887612,-0.04528759
-0.02084187,-0.02566323,-0.02817669,0.01566844,-0.01070248,-0.00473624,-0.02259116,-0.00678699,-0.00926770
0.02501828,-0.02086403,-0.03461066,0.05209302,-0.00527003,-0.04222978,-0.01538603,-0.05323753,-0.04102657
0.01950696,0.04599397,-0.03866909,0.05076788,0.04949292,0.01609860,-0.01494973,-0.03314906,-0.03123950
-0.04145396,0.02992814,-0.03188209,-0.02849275,0.00631143,-0.05780936,0.00472439,0.03281342,-0.03986660
-0.03293154,0.02273699,-0.04087970,0.03814359,0.05475063,-0.04523935,-0.00328498,0.02900149,-0.04574574
-0.01676564,-0.00051644,-0.00845116,-0.04602785,-0.01068800,-0.02895526,-0.00675285,-0.00140564,-0.02631455
0.00745263,0.01778852,-0.04539786,-0.03353294,-0.00199219,-0.02139906,0.09026932,0.07794496,0.01282878
0.04405873,-0.01120820,-0.04179252,0.04074840,-0.00672772,-0.04700541,0.03944468,0.01083231,-0.03210086
0.00131438,-0.00109806,-0.05233578,0.02228242,0.02439866,-0.04183323,0.01813273,0.02441894,-0.02680964
0.02136276,-0.00593155,-0.04408688,0.00983673,0.03290219,-0.00141842,-0.01654867,0.02250042,-0.02186573
0.01144337,-0.00093459,-0.03965970,0.01147641,-0.00187306,-0.03677848,-0.00637256,0.00226399,-0.02438051
-0.03807118,0.08789532,-0.03857372,-0.00785939,0.13548826,0.00000460,-0.00162127,0.07802631,-0.02954283
-0.06580523,0.02269002,-0.02842313,-0.01237222,0.04045307,-0.01449319,-0.03514196,0.03495694,-0.00198213
-0.01274495,0.06636120,-0.04312700,-0.01220492,0.07741116,-0.02519601,-0.01391740,0.01848051,-0.00216155
-0.02736136,-0.02225749,-0.00712244,0.00048474,0.03838583,0.02007970,0.01858682,0.02599841,0.02392624
-0.02038609,-0.00475240,0.03871762,-0.02704377,-0.01541333,0.02301687,-0.03929171,-0.05180736,-0.03136976
0.00857576,0.00330086,0.01087969,-0.02922302,0.02537918,0.01084281,-0.03115209,-0.03304794,-0.04037413
-0.00714576,-0.02164529,-0.04726230,-0.01143568,-0.02611050,-0.03424156,-0.03379021,-0.03489289,-0.05665991
-0.00671388,0.00725541,-0.00224623,-0.03306215,0.02313912,0.05569741,-0.06773017,-0.04514633,-0.05053309
-0.01269816,-0.02462327,0.04040657,0.01311759,0.00464190,0.02875876,0.00359626,0.01754379,-0.02400171
-0.00737119,-0.01757922,0.02437163,0.03565060,0.00442862,0.04206600,-0.00483732,-0.03551336,-0.03342651
0.02896923,0.03543402,0.00515286,-0.01273718,0.02992732,-0.01195886,-0.00769991,0.07520000,0.03941369
0.00642758,0.03018786,0.02439274,-0.05601016,-0.04018619,-0.03440594,-0.04809567,-0.06049145,-0.03846433
-0.01150224,-0.01284614,0.00645515,-0.04834592,-0.02790214,-0.00336179,-0.04275160,-0.02914568,-0.02261307
-0.01781805,0.01318429,0.04732053,-0.04216580,-0.01508549,0.03853445,-0.04058928,-0.01650651,0.03378533
-0.02356437,-0.03410453,-0.01626310,0.04021071,0.04438731,0.05592466,0.07659380,0.07402824,0.04213050
0.07186540,0.05024782,0.01709074,0.02842933,-0.01471177,-0.05517864,0.01183520,-0.02436659,-0.02629437
-0.03745628,-0.02291198,-0.02128194,-0.01319361,0.03273363,0.04589577,0.00007122,0.07482877,0.04252248
0.01554728,0.02812129,0.01303231,-0.03069555,-0.00997807,0.01199228,-0.03864013,-0.02026008,0.01805314
0.03702949,0.01049726,-0.03720653,-0.00760063,-0.00903403,0.00450788,-0.03410259,-0.02611115,-0.03473538
0.08160290,0.00569822,0.01105260,0.10594701,-0.00388910,-0.01702909,0.08302773,0.05146512,0.02687044
-0.03020877,-0.06275546,-0.05809310,0.00946661,-0.01210156,-0.03695283,0.01500739,0.02316134,0.01881491
-0.04198729,-0.03665082,-0.01248247,-0.01180114,0.01633572,0.00488755,-0.04630253,-0.00555652,-0.00229581
-0.04615538,-0.03772158,-0.03675965,-0.01709810,-0.00785636,0.01164305,0.00731996,0.02670876,0.07404636
0.01835670,0.02668873,0.01917192,0.00963000,0.01306398,0.03944478,0.01774097,-0.02275231,0.01362917
-0.00204406,0.00594809,-0.00445520,-0.01248460,0.00143654,0.00014733,-0.03529884,-0.03104705,-0.04242485
-0.01716252,0.01800234,-0.01482005,-0.02656280,-0.00691901,-0.01946905,-0.03116596,-0.00888997,0.00370038
-0.02865045,-0.01383686,0.03162981,-0.01818444,-0.01529130,0.06503204,0.00987715,-0.03188743,0.03723973
0.02740191,0.00520033,0.01648830,0.01049964,-0.04488074,-0.02951573,0.01500917,-0.00397059,-0.00623766
-0.01574441,-0.00831089,-0.00719401,-0.01771347,-0.00593581,0.01333746,-0.01526337,-0.01304008,-0.00929023
0.09014779,0.01408840,0.03761945,0.06854971,0.01078362,0.03171025,0.01278868,0.00243585,0.01937530
-0.05405456,0.00285639,-0.00196373,-0.02362559,0.01680307,0.00216476,-0.00305462,0.01156669,0.00779028
-0.02087030,-0.02623402,-0.03287015,0.04497631,0.00833060,0.02785324,-0.00509761,-0.01363960,-0.02833617
-0.02687638,-0.04417647,-0.07578144,0.01930458,-0.00660857,-0.03378772,-0.00581239,-0.01046213,-0.01739500
-0.02702961,-0.02360463,-0.02721633,-0.01766019,-0.02745196,-0.02775827,-0.02190026,-0.04253107,-0.04713104
-0.00856623,0.00270848,-0.00760174,0.00388554,-0.01980045,-0.00566396,-0.00423614,-0.01912784,-0.02276173
-0.00309062,-0.00145543,0.00534589,-0.03424727,-0.03733320,-0.03061430,-0.04066415,-0.05591793,-0.03483349
-0.02958429,0.02605784,0.01402451,-0.01794197,0.02084839,0.04743294,-0.05360847,0.01439960,0.01029640
0.04819218,0.04692549,0.05162863,0.04558355,0.00284588,-0.00272289,0.03143761,-0.03131969,-0.05337789
-0.02290067,-0.00590885,-0.03925055,0.00970528,0.01037309,0.00204933,-0.00679488,-0.00008913,0.01402639
-0.01755223,0.00763017,0.01863317,-0.03759552,0.00245704,-0.00732791,-0.02020723,-0.01109368,-0.01958708
-0.02149535,-0.02138822,-0.00157725,-0.01025088,-0.03310474,-0.01149035,-0.00697222,0.01092556,0.03941205
0.03788320,0.00750250,0.00895730,0.01886787,0.00560415,0.01179024,-0.00473846,0.04221961,0.01845024
0.00003174,-0.00495129,-0.00846999,0.00134881,-0.03387934,-0.06318004,0.03680788,0.04351570,0.01801920
-0.02934340,-0.05054889,0.00647146,0.03615002,-0.02312974,-0.01502982,-0.00750089,-0.06671382,-0.05974730
0.06201645,-0.04051253,-0.03372175,0.09368154,0.13646345,0.10227700,-0.01204172,0.01175394,0.04373313
0.01304795,-0.02646167,-0.06517356,0.02433595,-0.02737112,-0.01797257,0.06172370,0.02445168,0.02420320
-0.05851520,-0.04053569,-0.03675268,0.01506528,0.00473366,-0.00747977,-0.04066220,-0.04976324,-0.06278657
-0.01320351,-0.04002121,-0.07709739,0.02345181,-0.03020720,-0.04908822,0.03397246,0.00197016,-0.02439627
-0.01440134,-0.06327459,0.01831803,-0.00643535,-0.06203484,0.03444575,0.05608875,0.02167347,0.05856443
-0.00569184,-0.02433087,-0.00155590,0.01939090,0.01882247,0.00084505,-0.03648238,-0.05326609,-0.08277549
-0.02480694,0.00929110,-0.00368372,-0.08439002,-0.07202008,-0.07106501,-0.03643173,-0.02363452,-0.01706653
-0.02317920,-0.03665097,-0.02234335,0.01120685,0.00966444,-0.01625146,-0.04720105,0.00567666,0.01538614
-0.03316953,-0.04588899,-0.07039639,-0.05248756,-0.02491558,-0.02290095,-0.03152878,0.00786459,0.01908435
-0.00719463,-0.00603152,0.01180107,0.00721208,0.00125078,0.02672948,-0.02841076,-0.01127983,-0.00801853
0.05046966,0.00317508,0.01090424,0.01587847,0.01804499,0.03015210,-0.00713458,-0.01650114,0.01455260
-0.00261992,0.05161437,-0.04059522,0.07910292,0.30103076,0.31061625,-0.03923046,-0.09548886,-0.01813208
0.01678834,-0.02019636,-0.02098549,-0.00959536,-0.01112010,-0.02385190,-0.01565023,-0.02063213,-0.03038879
0.01809486,0.02681738,0.01090976,-0.00059734,-0.02262084,-0.02194521,-0.02124761,-0.02397423,-0.02193291
0.02416743,0.01668812,-0.00748138,0.00611642,0.03749452,-0.00880460,-0.05072345,0.00052060,-0.00034904
0.01410297,0.00285684,-0.02037282,-0.02127207,-0.01911140,-0.01116511,-0.04116428,-0.04769516,-0.05971386
-0.01620508,-0.03147182,-0.04784871,-0.02424591,-0.04538682,-0.00025974,0.03199409,-0.04247699,-0.05555372
0.00176565,-0.02312043,-0.05627873,-0.03614567,-0.01459804,-0.01467416,-0.03381442,-0.01141263,-0.01576516
-0.02378731,-0.00724006,0.03138858,0.00642164,-0.02029202,0.00954007,0.04091556,0.00363846,0.02181455
-0.03727502,-0.00131771,-0.03213312,0.00364140,0.00353398,0.00472698,-0.05189624,-0.04032880,-0.03359123
0.01195292,0.01838845,0.03641104,0.04069944,0.04924028,0.03946273,0.00569659,0.00423679,0.01134096
-0.03074171,-0.03295577,0.01103823,0.03097322,0.00481754,0.05630931,-0.01792804,-0.02330697,0.02884619
-0.11730208,-0.04008110,-0.02780280,-0.07009587,0.03390155,0.06894364,-0.04462237,0.03176210,0.06539024
0.04928861,0.04340349,0.03576339,-0.01201603,-0.00839906,0.01393809,0.03812710,0.00795721,-0.03328919
0.03230315,0.03114600,0.02862107,0.05182646,0.03191203,0.00035840,-0.04380211,-0.00631668,-0.01730784
-0.00866636,-0.03505108,-0.04482307,-0.06539845,-0.04424264,-0.01075619,-0.05591913,-0.09122264,-0.05829150
-0.01909467,-0.00073735,0.09226345,-0.03077271,-0.00231497,0.08362591,-0.00402666,0.02618369,0.09762724
0.05950933,-0.03688344,-0.09706660,0.00778717,-0.05027466,-0.10082331,-0.02642757,-0.05168262,-0.09296133
-0.07271509,0.01007081,0.01273100,-0.02974358,-0.02535133,-0.04273843,-0.02118849,-0.01132027,-0.01606321
0.00197196,-0.01598383,-0.06305823,-0.03314531,-0.05909803,-0.08147846,0.00572425,-0.04749457,-0.05911288
-0.02353451,-0.04870251,-0.02762479,0.04860492,0.01674938,-0.02028948,0.04387029,0.01269550,0.00390194
-0.02168186,-0.03494001,-0.04497300,-0.03719708,-0.02553041,-0.05039490,-0.06747116,0.00330292,0.01378758
0.02724390,-0.01082158,0.03882351,-0.01207846,0.01453417,0.05474044,-0.06947774,0.02167159,0.05623015
0.06836858,0.06665710,0.03471395,0.06238898,0.03547013,0.04161777,-0.08089296,-0.01778404,0.06915954
-0.01466775,-0.00795985,-0.00881080,0.00466091,0.01686233,-0.01006079,-0.00902800,-0.00721884,-0.05090066
-0.03050179,-0.05676343,0.04186896,0.00948977,-0.02518928,0.07772861,-0.03244158,-0.02882987,0.05050793
-0.04197922,0.04173907,0.00301493,-0.06287820,-0.02543194,-0.01196149,-0.03047486,0.00889846,0.13091587
0.00214471,0.00564994,0.04243285,0.06109436,0.04974978,0.04257848,0.04064063,0.04169305,0.03137927
-0.01230592,0.00227577,-0.02722110,0.07687482,0.04304579,0.01959106,0.03562270,-0.03994612,-0.02303630
-0.00211630,-0.01463428,0.04103217,-0.00318693,-0.06617580,-0.03466715,0.03408927,-0.02091355,0.02268175
-0.02984966,0.00112329,0.03450450,0.04493165,0.06269972,0.08540864,-0.03235240,0.00394028,0.02118741
-0.06927449,-0.02573000,-0.00285761,-0.10673992,-0.02719403,0.03512124,-0.01686152,-0.03341065,0.00697988
-0.00331244,0.03362866,0.04161784,-0.05748153,-0.04916329,-0.00954765,-0.01833147,-0.01657551,-0.02618800
0.07262927,-0.01399240,-0.00720158,0.01949521,-0.01881987,0.01468048,0.03483677,0.00729941,-0.08165403
-0.00001995,0.01739797,-0.02477892,-0.02152025,-0.02770668,-0.00130367,-0.05750841,-0.07451194,-0.05732318
-0.00914523,0.00179596,-0.01630842,-0.05242931,0.02675617,0.04583985,-0.03764706,0.01364062,0.09625513
0.06842640,0.02666072,0.05704581,0.03699614,0.02758126,0.00585315,-0.00537578,-0.03642129,-0.02689770
-0.08788615,0.03011884,0.01491628,-0.03813654,0.12537563,0.07531574,-0.03301411,0.01679507,0.00008185
-0.04609362,0.00889739,0.01062907,-0.06998806,-0.03825396,-0.02297532,0.03199515,-0.02343257,-0.00168398
-0.08459230,-0.10582381,-0.01119581,-0.01319993,-0.04795462,-0.00878193,-0.06231126,-0.09795272,-0.06434506
-0.10396717,0.07153600,-0.05308641,-0.07433993,0.04366250,-0.00343329,-0.08100722,0.05888622,-0.02493272
-0.04748771,-0.00544420,0.01008429,-0.00562088,-0.00223596,0.01594738,-0.01409480,0.00079140,0.01556142
0.01313418,0.01034647,0.01270793,0.00763396,0.06955038,0.04868846,-0.04346235,0.01280655,0.05088166
0.01650495,0.00780261,0.01058412,0.01501434,-0.00139667,0.03530448,0.11172406,0.00428508,-0.01280567
-0.07689605,-0.02354716,0.08159430,-0.02159814,-0.02752979,-0.01515113,0.00423904,-0.01500841,-0.00858471
-0.06252611,-0.08634359,-0.09884880,-0.03379915,-0.03953256,-0.06263485,-0.01223791,-0.01357174,-0.02767554
-0.06883910,-0.02599556,-0.03747953,0.01245183,0.03924055,0.01755437,-0.03180882,-0.00125463,0.03290974
0.06690308,0.05641671,0.04177578,0.02632323,-0.05924412,-0.05395718,-0.00537160,-0.03962913,-0.04529274
0.01830268,0.00772595,-0.01122845,0.09428675,0.07761630,0.03441346,0.02410776,0.02311169,0.06509149
-0.00880438,0.01204412,-0.02060147,-0.04515762,0.00812889,-0.02597906,-0.06885444,-0.00312984,0.04329003
-0.03812325,0.01885331,0.03299578,-0.02894115,0.00188881,-0.02049557,-0.06626168,-0.09502871,-0.11529709
-0.01438592,0.01141996,0.00954667,0.01644836,0.06857561,0.01210892,0.16471209,0.16478877,0.10670957
0.00904312,0.05416432,-0.03569334,0.03717779,0.05945637,-0.02430788,-0.05760824,-0.06998223,-0.10366464
0.00864465,0.02728423,-0.01949487,0.01268374,0.01439805,-0.00963533,-0.00086270,-0.01500113,-0.05444587
0.02927503,-0.01751137,-0.02910955,0.00863929,-0.01851099,-0.01491145,-0.03025182,-0.02917337,-0.05060044
0.09694374,0.04865025,-0.06174066,-0.01736742,-0.02815980,-0.04852683,-0.07398058,-0.04772036,-0.01935948
0.00771467,0.01138230,-0.01070223,0.05117276,0.05335286,0.00232805,0.07441948,0.03403914,-0.00950309
0.01709502,-0.04118583,0.00437972,0.01966336,0.04030385,0.07941851,-0.10266222,-0.04549905,0.00566057
0.00473691,-0.05197238,0.02681040,-0.00346071,-0.02711962,0.05726217,-0.03343396,0.02076965,0.06130824
0.06573939,0.07616519,-0.01271962,-0.04371044,0.01218451,-0.02066872,0.03468721,0.06476454,-0.01808172
-0.00106220,-0.09977997,-0.06339282,0.04721949,0.05170404,-0.01332048,-0.02199475,0.00831872,-0.08550563
0.01371940,0.01995051,0.02904002,0.02488648,0.05660951,0.07551055,-0.01441818,0.02041556,0.10335935
0.03004669,0.02430580,0.01361904,0.01494353,0.07057537,0.05066728,-0.05080898,0.00232819,-0.07762461
0.02373162,0.01761108,0.00530443,-0.02901033,-0.00370431,0.03400679,-0.01214052,0.00374386,0.02904890
0.01965372,-0.02838820,-0.02469769,0.07519145,0.02933823,-0.03030696,0.06939621,0.05561920,0.00188901
0.01142122,-0.02633694,-0.03915268,0.04232792,0.01480456,-0.02716161,0.06346314,-0.04504415,-0.01395274
0.03270904,-0.00307671,0.06104602,-0.03551574,-0.05173487,-0.01400437,-0.08357319,-0.10745828,-0.04646040
0.00757560,-0.06475630,-0.03634017,0.06893409,-0.06350873,-0.05929669,0.11324782,0.00267511,-0.04166616
0.00299196,-0.00238598,-0.03932053,-0.00374820,-0.05926624,-0.11287539,-0.09380662,-0.10111711,-0.17034754
0.06966066,-0.00307808,-0.03675162,-0.01060603,0.01416031,-0.00350249,-0.08613511,-0.05601019,0.05563793
-0.02024531,0.00680007,-0.05489317,-0.03864971,0.00556892,0.02020056,-0.06203434,-0.03716227,0.02246259
-0.00764114,-0.00069946,-0.03965461,-0.02142839,0.03627500,0.00866492,-0.06161185,0.04515147,0.03525455
0.02152843,-0.01248351,0.06836544,0.01586768,0.00961065,0.09599748,-0.02731545,-0.03203147,-0.01911433
-0.01068053,0.00067854,0.01103009,0.06762353,0.04280115,0.01826392,-0.00845049,-0.03390323,-0.03170114
0.04269871,0.02440158,0.02119731,0.02071993,0.03518691,0.11058496,0.00960235,0.01109713,0.03030333
-0.03982404,-0.02992109,0.01128651,-0.00029618,0.00122200,-0.00336268,-0.01078623,-0.04404658,-0.06782078
0.09140564,0.02610412,-0.01639886,0.05152671,0.01129644,-0.02617222,0.01623504,-0.05272838,-0.03607898
-0.04034883,0.01868164,0.00898237,-0.05220151,0.10745153,0.06348950,-0.12372185,-0.02892011,0.07232641
0.02408613,0.03984079,0.09332886,-0.03775289,-0.02875481,-0.04736765,0.08807372,0.05103600,-0.04131878
0.03405030,0.01379051,0.00164391,-0.02117038,0.01802260,0.01114161,-0.04374871,-0.02977121,-0.02353187
-0.02742494,-0.09574309,-0.04194968,-0.01850208,-0.04109739,0.02341684,0.04146490,0.01596354,0.06141429
-0.00582877,-0.02835358,-0.01835359,-0.00081580,-0.01591704,-0.00472777,0.01231950,-0.00538291,0.00518235
-0.03369040,0.00991025,0.02085778,-0.05408076,-0.02164561,-0.00691912,-0.12848972,-0.04515420,-0.02859251
0.02447291,-0.00071900,-0.00455133,0.01242786,-0.00345006,0.02837305,-0.00435650,-0.03264454,0.01142714
-0.02190917,0.00759406,0.02425264,0.03330487,0.07294740,0.04235052,-0.02110188,0.01039122,-0.05731841
0.13341732,0.06138278,-0.01244778,-0.04654114,-0.00283370,0.00269438,-0.03838615,0.07711612,0.03961070
0.01265115,-0.00144835,-0.02500697,-0.00829627,0.02359777,-0.00814991,0.06290068,0.12838258,0.04117931
0.02851507,-0.00950180,-0.00357698,0.00046416,0.01640123,-0.01940267,0.05442302,0.09642532,0.02267253
0.01723139,-0.02298199,0.01586782,0.08624180,0.01256605,0.01414847,0.02168491,-0.01173088,0.02897662
-0.05300924,-0.03192669,-0.03467688,-0.07047857,-0.04484981,-0.03699680,-0.04704072,-0.00223822,0.04396487
0.00016891,-0.01711741,-0.02750427,0.03217382,-0.04357754,-0.03340289,0.09062371,0.05394961,0.02041787
0.06447865,0.01708758,0.02707241,0.02297058,0.02592326,0.01667999,0.05132867,0.07080804,0.01780869
-0.06688393,-0.02113661,0.00019441,-0.00709141,0.01575488,0.01614546,0.01125350,0.02216532,0.01254430
-0.01528354,-0.06935882,-0.07443012,0.10467887,0.03997143,0.01797266,0.06461154,0.00135123,-0.01152540
-0.00748551,-0.04279462,0.04856217,-0.01316480,-0.02754375,0.01572859,-0.04674569,-0.02687997,0.03241596
0.03052316,-0.01055515,0.00984011,-0.00360876,-0.05283680,-0.03099383,0.07712685,-0.03205041,0.04533490
-0.09437165,-0.10560184,-0.01591092,-0.00170721,-0.00084507,0.06660860,0.01504225,0.00065338,0.07090059
-0.06187309,-0.05875196,0.01898920,-0.01547880,-0.00508849,0.01441753,0.03014519,0.02983778,0.04658330
-0.00897919,-0.00020034,-0.00400324,-0.00897955,-0.00689980,-0.02564485,-0.01666800,-0.01418764,-0.06498399
0.04367940,0.01450050,0.03778162,0.03188179,-0.02842789,0.01460383,-0.00798987,-0.02412186,0.07140493
0.05922237,-0.01330727,0.01277560,-0.06758913,-0.03805117,-0.02132265,0.01370081,0.03733229,0.00070360
-0.01460875,0.01886744,0.00863951,-0.02213782,0.02237255,0.01953998,0.00655694,0.00815349,0.04947702
0.01808990,0.02786607,0.02167965,0.02569967,-0.02984549,-0.04720664,0.02240434,-0.05091807,-0.07693693
0.06970200,-0.02376493,-0.03830323,-0.00928687,-0.02882640,-0.03601475,-0.03380284,-0.03071305,-0.00097407
-0.01395799,0.04520363,0.00858410,-0.01078825,0.03358396,-0.03662359,0.04088336,0.09197447,-0.00455219
0.06410914,-0.00152943,-0.01380807,0.00266879,-0.01284570,-0.01183207,-0.09187178,-0.04384995,-0.00489630
-0.09324884,-0.01793277,-0.05218234,-0.01448808,0.07329201,0.09973093,0.00141184,0.07128128,0.08849204
0.00982771,0.03916035,0.05489670,0.00598931,-0.01560171,-0.02356838,0.05227247,0.01580812,-0.01006856
-0.00324517,-0.03435216,-0.01125426,-0.03000955,-0.04394082,-0.01959251,-0.05853354,-0.00966512,0.02308131
0.03380758,0.04126268,-0.01084753,0.01241526,-0.00425927,-0.02657631,-0.00428345,-0.02309129,-0.04334163
0.01360066,-0.03359427,-0.08160187,-0.01410269,0.00427409,-0.03667692,0.03951969,0.04092928,-0.06129862
0.04061428,0.02822771,0.04014872,0.02593230,-0.01052975,0.01921766,-0.02268133,-0.08652683,-0.08733921
0.04850158,0.05243897,-0.00164024,-0.00638349,-0.00038109,-0.04330277,0.09505555,0.07995991,0.01016277
-0.07078063,-0.02087146,-0.00980686,-0.00300805,-0.01986691,-0.04271657,0.04077782,0.01073826,0.06502502
0.00686198,-0.01818855,0.06581501,0.07894672,0.01208262,0.07751897,0.04119025,-0.04262694,-0.00843702
0.00248189,-0.02149400,0.03478942,-0.02495662,-0.02917702,0.03179454,-0.04807146,-0.00261673,-0.00572602
-0.03703941,-0.03582857,-0.01386458,0.06533390,0.02283217,-0.00727884,0.04918921,-0.03292292,-0.05864247
-0.01564679,-0.00633205,0.00306391,-0.02180351,-0.02399890,-0.02446135,-0.03153443,-0.05391696,-0.05207094
-0.06609856,-0.07463732,0.01017766,-0.02429358,-0.04524198,-0.00980755,-0.03201234,-0.06662416,-0.08694464
0.04814202,0.09860550,0.12118915,-0.09038687,-0.02530029,0.00529341,0.01470036,0.01522708,0.02562529
-0.00157441,0.03613126,-0.05486371,0.03220497,0.01868991,-0.04774568,0.05630582,0.08236303,-0.03425177
-0.06404945,-0.00448553,0.01628475,-0.02180223,0.04831640,-0.01669892,-0.03107788,0.01156277,-0.03725116
-0.09107894,-0.06286623,0.03977435,-0.04941399,-0.01370853,0.05746858,-0.05510404,-0.01489784,0.01793384
-0.00728616,0.05943557,0.04153338,-0.02848237,0.00454541,-0.02935221,0.00429255,0.00676404,-0.04538820
0.01672838,-0.02749808,-0.00597668,0.07293467,0.03266061,-0.02438120,0.05455095,0.00578400,0.01108698
-0.05716527,-0.00017652,-0.06330587,-0.04642873,0.04107557,0.00515541,-0.01757078,0.06890775,0.08137333
-0.08787137,-0.09644090,-0.05707211,-0.00712141,-0.04715936,-0.07558290,-0.00748435,-0.00745988,-0.02419226
0.02978958,0.08523816,-0.02166204,-0.00858329,-0.00579286,-0.04827190,-0.05688584,-0.04233602,-0.02893181
-0.03214975,-0.01018672,0.00127292,0.01377167,0.03894202,0.05617098,-0.05399520,-0.03144203,-0.03994324
0.04698012,0.10739920,0.08454911,0.00959611,0.01692093,0.02143788,-0.00631002,-0.06797743,-0.04386822
0.09977405,0.04051930,-0.06925260,0.01361334,0.00749600,-0.03405549,-0.03424903,-0.01943060,-0.04918298
-0.01895869,0.10331185,0.11471026,0.00088125,0.05252572,0.02745126,-0.04456070,-0.08695588,-0.09312534
-0.00427152,-0.02359040,0.01681069,-0.01597420,-0.00497441,-0.00270993,-0.01507953,0.04746720,0.05030235
-0.07947647,-0.07074904,0.03881057,-0.09506496,-0.06311501,-0.04457882,-0.06352251,-0.02802636,-0.01832426
0.02190943,0.06009017,0.11285644,-0.06380183,-0.01527128,0.02924282,0.03494396,-0.01854511,0.04445324
0.06977993,-0.01656377,-0.02942603,0.04314802,0.02206127,0.01292039,-0.04037661,-0.01785283,0.01112803
-0.06183213,-0.03595693,-0.03242151,0.00560573,-0.04022519,-0.02752401,0.02893819,-0.02978343,0.00474164
0.05445370,0.05029843,-0.02322392,0.05887929,0.03146799,-0.03292227,0.03443537,-0.03377785,-0.06961506
0.02346531,0.01713238,0.08496608,-0.06007782,0.01857388,0.05633797,-0.08865117,0.02665143,0.00220556
-0.03013256,-0.01172958,-0.01440770,-0.01038591,-0.05149340,-0.08313844,-0.00048835,-0.08599985,-0.06352303
-0.12390868,0.03057006,0.02722015,0.04319313,0.08136537,0.03270109,0.00832205,-0.00677207,-0.05933517
0.00048422,0.01748528,-0.05619993,-0.05642888,-0.02761857,-0.07104610,-0.10418708,-0.04645723,0.02118942
0.04416688,-0.00592907,-0.03333292,0.04910070,0.04970350,0.03069984,0.01974870,-0.02840905,0.00555451
0.04783356,-0.02351117,0.02202673,0.05321774,0.09762923,0.03424187,-0.02752934,0.05102747,0.06868664
-0.01992344,-0.01060012,0.01688663,-0.03584154,-0.00792646,-0.02881427,0.02279242,-0.00618021,-0.05202260
