-0.04471810,-0.07114416,-0.02746899,-0.02671616,0.00770590,0.02065765,0.00733128,0.06614244,0.05182133
0.03242791,-0.01084882,0.01735276,0.01369420,0.01796184,0.02201391,0.02354582,-0.03275011,0.01025114
-0.01374200,0.02286530,0.05043457,-0.01606101,0.01579797,0.05098147,-0.01572696,0.01226658,0.03471826
-0.00177335,0.00270722,0.01107752,-0.00277041,0.01679193,0.02833774,0.01653648,0.01902279,0.02339789
-0.01443721,0.03826229,-0.01858034,-0.02709406,0.12303229,-0.05355091,-0.01530829,-0.02621297,-0.03535423
0.01626110,0.03985844,0.02082359,0.05507372,0.00450201,-0.03464828,0.01824370,-0.01590083,-0.00577329
0.00956719,0.00332434,-0.00182857,-0.00418275,0.00313776,0.00156374,-0.00053804,-0.00458634,-0.00359126
0.00626765,0.01406535,0.00813482,0.00019468,0.00455811,0.01158921,-0.00681773,-0.00298935,0.00604950
0.03207095,0.02651540,-0.01162272,0.03567614,0.00623984,-0.03345354,0.01428335,-0.01917674,-0.03101283
0.01492949,0.00436059,-0.01610425,-0.00083056,-0.01134539,-0.01844505,-0.03381884,-0.03709081,-0.01999885
0.05126971,0.01180460,-0.02451548,0.02713373,-0.00626287,-0.05308885,0.02153088,-0.04377662,-0.03175237
0.00838346,0.00392781,-0.00379995,0.00314142,0.00235084,-0.00125534,-0.00132687,-0.00032943,0.00159834
0.01926709,-0.00731363,-0.00011680,0.00229372,-0.02460395,-0.04278529,0.00695375,-0.02174049,-0.03574760
0.03691647,0.01231584,-0.03540020,0.01565399,-0.00961206,-0.06638987,0.00067414,-0.04139422,-0.04400617
-0.01170200,-0.05683250,-0.05317884,-0.02336581,-0.03593684,-0.00429665,0.04307170,0.08537327,0.07094990
0.00333669,-0.00485962,-0.03559947,-0.01462585,-0.02794411,-0.00509854,0.01595372,0.00811331,0.01868885
0.00257592,0.00581965,-0.04742032,-0.01217223,-0.01253923,-0.05694482,-0.00445883,-0.01548707,-0.03836707
-0.00027770,-0.00048887,0.00536455,-0.00326058,-0.00125076,-0.00081605,-0.00236002,-0.00192932,-0.00631484
0.05803217,0.02904414,-0.02329501,-0.00535080,-0.02229823,-0.05285747,-0.05754817,-0.09019091,-0.07469367
-0.04218722,-0.04750910,-0.01460535,-0.01798752,0.00064737,-0.02190929,0.02243236,0.02370882,0.00714806
0.00212248,0.02809777,0.02226343,0.03371745,0.08287550,0.05134843,0.02325798,0.04538255,0.01908752
-0.02384839,-0.01213466,-0.01285508,-0.03556720,-0.04326314,-0.01341907,-0.01728104,0.00798855,0.00842122
-0.02049302,0.03400141,0.03048619,-0.03042586,0.07323441,0.03250167,-0.01097887,-0.08537834,-0.06202130
0.04626710,0.04345715,-0.00010773,-0.00388502,-0.02648973,-0.04141871,-0.04623992,-0.05456422,-0.05054205
-0.00168596,0.02202957,-0.04839845,-0.04170508,-0.03316746,-0.07964902,-0.06345263,-0.05742429,-0.05221552
0.00212040,-0.01709478,-0.02718537,0.01459934,0.00893589,-0.02056351,-0.00048359,-0.00880231,-0.00014486
0.00867875,-0.01107106,-0.00776666,0.00563534,-0.01382596,-0.01721496,0.00985445,-0.01094253,-0.00900469
0.01428419,0.00162916,0.00884479,0.01707520,-0.00407809,-0.00134315,0.01308849,-0.00297708,0.00648173
0.02593676,0.01580313,-0.02202358,0.02402111,0.00491218,-0.05107555,-0.00287312,-0.02478510,-0.04672111
-0.01863840,0.00461415,0.03635605,0.05826582,0.09936983,-0.06228365,-0.01436266,-0.06272338,-0.06545048
0.00602429,0.00455589,0.01645364,-0.01991255,0.07451692,-0.02529106,-0.00634424,-0.02767562,-0.01504924
0.00468360,-0.00186811,-0.00351477,-0.00159995,0.00029233,-0.00384428,-0.00375884,0.00060903,-0.00059001
0.01204737,-0.00061132,0.05789619,0.00463088,-0.01592673,0.05707031,-0.00474022,0.00095823,0.04678677
-0.01883956,-0.04249924,-0.00711893,-0.04391779,-0.06640445,-0.02425676,-0.04141366,-0.06723428,-0.01673244
0.00079127,0.00135542,0.00028679,-0.00572746,-0.00737537,-0.01498977,-0.01287266,-0.01297205,-0.01592028
-0.01022715,-0.01624186,-0.00010760,0.01406584,0.07937251,-0.02065007,0.00370269,0.01459436,-0.00517129
0.04428607,0.02805194,-0.03097005,0.03308990,-0.03750268,-0.06160272,-0.03032137,-0.02002612,-0.02391538
-0.02365792,-0.02228377,0.06669868,-0.02841886,-0.02285211,0.07930665,-0.02239655,0.00149772,0.06214941
0.00439809,-0.02830502,-0.00185671,0.00263847,-0.05225530,-0.01459683,0.03311233,-0.03596212,0.00390478
0.01216198,-0.00644504,-0.00820181,0.02367881,0.00246947,-0.02584148,0.01484854,-0.00567133,-0.01870721
-0.00969182,-0.00671008,-0.00493653,-0.01396620,-0.00599933,-0.01084555,-0.03020442,-0.02510252,-0.01217756
0.03844412,-0.01118861,-0.03106005,0.02421245,-0.00589016,-0.03474429,-0.00090971,-0.04106700,-0.02333387
-0.00083923,-0.00234967,0.00046295,-0.00230940,0.00086588,-0.00137354,0.00187098,-0.00457427,0.00024784
-0.00498818,0.00001143,0.00014247,-0.00510953,0.00071480,-0.00676538,-0.00683683,-0.00883313,-0.00735235
0.02546159,-0.03384441,-0.05560683,0.05212228,-0.00552443,-0.03763720,0.01645476,0.02898188,0.02257529
-0.00308230,-0.01166936,-0.00312025,0.00763480,0.01007505,0.03135885,0.00256435,0.01408368,0.02816545
-0.00021858,0.00361633,-0.00092204,0.00213284,0.00174059,-0.00108309,0.00618325,-0.00537243,0.00100809
0.00145501,0.00151120,-0.00342654,0.00055526,0.00773128,0.00338398,-0.00065610,0.00381679,0.00412583
0.06534433,0.08177733,-0.00500102,0.00115406,0.07916319,-0.02434685,-0.04329048,-0.11691442,-0.03740755
0.00392453,-0.00167782,-0.00576440,-0.01613923,-0.00773541,-0.01177401,-0.00555568,-0.00365362,-0.00491948
0.00351955,0.00705716,-0.02506759,-0.00185567,0.00126775,-0.02774534,-0.01618666,-0.03866893,-0.00958954
-0.00510930,-0.05859857,-0.02203743,0.01885179,-0.03929839,-0.01718573,0.04779945,0.07944250,0.01016502
0.00676059,0.00189411,-0.00159515,0.00005108,0.00359223,-0.00114042,-0.00707389,-0.00353708,-0.00866485
-0.08886547,-0.08722764,-0.04251554,-0.00522284,0.00590984,0.01194606,0.13405053,0.14868368,0.05748789
0.00208583,0.01046923,0.01052743,0.00802498,0.00458925,0.01338672,0.00162204,-0.00305643,-0.00054215
-0.01866894,-0.01351570,-0.01254269,-0.02667455,-0.01531756,0.01994465,0.00319059,0.00718717,0.02652993
-0.00235545,0.00027374,-0.00475229,0.00291598,0.00270474,0.00136117,-0.00313544,0.00073757,0.00142439
0.03437790,0.00003022,0.00050181,0.03730034,0.01972326,-0.02479071,0.05407257,0.00596835,-0.03149911
0.00291694,-0.00797393,-0.00320106,0.00985456,-0.00462384,0.00327277,-0.00644155,-0.00492014,-0.00464389
0.00031657,0.00305205,-0.00205734,0.05897018,0.02158137,-0.07694634,-0.01555047,-0.01061836,0.00965471
-0.00553646,-0.00066494,0.04596074,-0.01428776,0.01526319,0.05238781,0.02162345,0.01089706,0.04008596
-0.01249491,-0.01585308,-0.01441311,-0.02846138,-0.02167248,-0.06303735,-0.00149575,-0.01267828,-0.02388156
0.05877414,0.01312748,0.00821204,0.01898580,0.00846112,-0.04893063,0.05396286,-0.00589890,-0.04567996
-0.00277417,0.02210074,0.01877584,-0.01465923,-0.01319817,-0.00506713,-0.02788756,-0.04430924,-0.03459168
-0.01962313,-0.00227072,0.00706826,-0.03174283,-0.02263211,0.00302532,-0.03631469,-0.02059527,-0.01568173
0.01534518,-0.00689279,-0.00519164,0.00784918,-0.02667951,0.00832768,-0.00217321,0.03436624,0.06124479
-0.01341345,0.02320765,0.04559604,-0.02276140,0.01331923,0.05107814,-0.02665380,0.00731761,0.04522347
0.02767363,0.01434155,0.01749448,0.02113397,0.01656554,0.02128194,-0.00674153,0.00289511,0.02221326
0.05216222,0.02318537,-0.04262393,0.01808601,0.01918873,-0.03330082,0.05573084,0.08885742,0.00106133
0.02792244,0.01852764,0.01079112,0.00352157,-0.00384945,-0.01016665,0.01961136,-0.01109814,-0.02214981
0.00285675,-0.00308175,-0.00487942,0.00070256,-0.00069013,0.00063226,0.00878162,0.00445347,-0.00136635
0.00673150,0.00944918,0.00799143,0.00060387,0.00548698,0.01484135,-0.00485382,0.00743543,0.00863829
0.00012245,-0.01838061,-0.01588921,0.00853205,-0.03721994,-0.04394623,0.02733314,-0.01563483,-0.03356396
-0.00846068,0.00195387,-0.00352255,-0.00016125,0.01530767,0.02173302,0.01938343,0.04578305,0.06083069
0.01122173,-0.02597763,-0.04714999,0.01875686,-0.01218663,-0.04514572,0.06914261,0.03533485,0.00836742
0.00839369,-0.00490138,0.00300925,-0.00647077,-0.00469497,-0.00275325,-0.00412819,-0.00134456,-0.00489029
0.01452296,-0.01471210,-0.01740719,0.01122939,-0.01709444,-0.02069155,0.03142912,0.02230854,-0.00470485
-0.01490113,-0.03776166,-0.05894975,-0.00406721,-0.04837549,-0.04236978,0.06335375,0.02989885,-0.00246278
-0.02448748,-0.03509065,-0.02950758,0.01018902,-0.01089982,-0.01477359,0.00287896,-0.02614670,-0.03109079
-0.01004127,-0.02536853,-0.04067085,0.01506690,0.00322251,-0.00502457,0.02886455,0.02490933,0.03426291
-0.02761626,-0.02123188,0.00250043,-0.01037334,-0.02389071,-0.01687635,0.02075438,-0.00084810,-0.01192165
0.00140608,0.00944880,0.00519888,-0.00160806,-0.00127900,-0.00129622,0.00328740,0.00036868,0.00337023
0.04128080,0.00916901,-0.02098042,0.04103050,0.04015368,0.02393903,0.06214674,0.07607785,0.08250353
-0.01478275,0.00609195,0.02971218,-0.04547597,-0.04399140,-0.02798881,-0.00799487,-0.04481670,-0.05497177
-0.00387385,-0.00805501,-0.02459918,0.00861577,0.00040280,-0.03639976,0.02937382,0.01920026,-0.01243148
-0.02362826,-0.00875144,0.01568132,-0.02366112,-0.00953533,0.00854108,-0.01849221,0.00377152,0.03486998
-0.00044228,0.01547202,0.01725051,-0.02984527,-0.00907790,-0.00831979,0.00344364,0.08728964,0.05697537
0.02095528,0.00953391,-0.01033330,0.02051964,0.02513833,0.01162840,0.02231475,0.02591862,0.03628543
-0.03390105,-0.05876022,-0.03998849,-0.02248361,-0.05598951,-0.04640939,0.07936761,0.01048630,0.00391499
-0.00002903,-0.00135958,0.00585648,-0.06890228,-0.04078005,-0.01793950,-0.06398299,-0.00618233,0.02254761
-0.00766075,-0.01827946,-0.00653628,-0.00772861,-0.01684561,-0.00851057,-0.00353527,-0.02125189,-0.00668193
-0.00301336,-0.00092257,0.01511202,0.00065201,0.00130644,0.01238012,0.00544603,0.00293517,0.00611749
0.00735013,-0.03191220,-0.02959587,0.02180269,-0.03683445,-0.05428183,0.06430508,-0.01692596,-0.05349194
0.00269538,0.00085792,0.00588874,-0.02492045,-0.02174791,-0.01272428,0.05480241,0.04656626,0.00831074
0.00888610,-0.01832680,-0.04810116,0.00788628,-0.04215835,-0.07881575,0.02806128,0.00664349,-0.05473736
0.00187604,-0.00369577,0.00608958,0.00306162,-0.00197166,0.00305492,0.00165176,0.00448938,-0.00379067
-0.00461825,0.00162501,0.01737613,-0.01229605,-0.01267576,0.01763372,-0.00535718,-0.01838341,0.02632237
0.00291203,-0.01183001,0.00092850,0.00377754,-0.00123095,0.01652607,0.01180186,0.00442269,0.03544129
-0.01190579,-0.02803216,-0.02238626,-0.02396550,-0.03399010,-0.03529970,-0.01471740,-0.01287032,-0.01272238
0.00511380,0.00390141,-0.02690990,-0.02461019,-0.02543795,-0.05789346,0.01451041,0.01059702,-0.04709714
-0.00328757,-0.02593258,0.00553095,-0.00664763,-0.05239093,-0.02763435,0.03463558,-0.03877037,-0.01346180
0.01070732,0.02730656,0.05075851,-0.01799438,0.02048318,0.08976706,-0.03600551,0.01533832,0.10440756
-0.01590657,-0.03557284,-0.01686222,-0.01960607,-0.05382651,-0.01436765,-0.02057264,-0.04869898,-0.01299760
0.01466806,0.01448876,0.00624636,-0.00786338,-0.00487357,-0.00974822,0.00465592,-0.00322847,-0.02234054
0.00443108,-0.01547778,-0.00834100,-0.01002278,-0.00467546,-0.01273419,-0.00228315,-0.00983135,0.00035736
-0.03288187,-0.04144178,-0.03023453,-0.01654475,-0.04045427,-0.03487922,0.00988727,-0.00725913,-0.00597001
-0.00009649,0.00318211,-0.00335443,-0.00045592,-0.00337459,0.00031617,-0.00299349,0.00082895,0.00034678
-0.00047163,0.00151635,-0.00134154,0.00305747,-0.00346933,-0.00094630,-0.00034564,0.00076841,-0.00293905
-0.00746375,-0.04155415,-0.04888296,0.00027087,-0.04858755,-0.05224146,0.04528664,-0.02797441,-0.05889723
0.00190947,-0.00469204,0.00812423,-0.00257357,0.00587836,0.01118590,-0.00859703,-0.00635050,0.00450145
-0.00366127,0.00795590,-0.00271028,-0.00005644,-0.00019034,0.00342547,0.00260492,0.00667053,0.00337187
-0.00594552,-0.00279832,-0.00328928,-0.00850981,-0.00551214,-0.00819403,-0.00473706,-0.00337343,-0.00796208
0.01143941,-0.01360502,-0.05467361,0.02975439,0.00123701,-0.01815980,0.06157578,0.08799639,0.05226154
-0.00485856,-0.00315799,-0.01116650,-0.00384079,0.00169382,-0.00595622,0.00745147,0.00515927,-0.00010649
0.01444511,0.00737395,-0.00554900,0.00527671,0.01572654,0.01084597,0.01470226,0.02223340,0.02948670
0.00556421,-0.00828864,-0.01795156,0.02516795,0.01687902,0.01109573,-0.00576465,-0.02840476,-0.02200353
-0.00746926,-0.00477606,-0.00764607,-0.01412908,-0.00422820,-0.00577695,-0.00517274,-0.00293385,0.00527058
-0.00084133,0.04007439,0.06644052,-0.03035931,-0.00580285,0.03323741,-0.08018559,-0.11521747,-0.07788619
-0.00710790,-0.00700062,-0.00355738,-0.02477999,-0.01738937,-0.01123935,-0.00330890,-0.00823717,-0.00609000
-0.00414698,-0.00161606,0.03540593,-0.01753596,-0.02708939,0.03178418,-0.03639875,-0.02211037,0.03101898
-0.00261470,-0.00375083,-0.00203463,-0.00538401,-0.00480492,-0.00438806,-0.00370986,-0.00281247,0.00129784
0.01664126,-0.01442148,-0.03938245,0.01282723,-0.02666870,-0.06267274,0.04387453,0.01045413,-0.03560775
-0.01551757,-0.00612072,-0.01669556,-0.01652435,-0.01445019,-0.00864734,-0.02037201,-0.01326413,-0.01111416
0.00620923,0.01106794,0.01208956,-0.02154299,-0.01391701,-0.00212165,0.04838430,0.00187260,-0.00778427
0.03361075,0.02173172,0.02340840,0.01239086,0.00335370,0.03251022,0.00065994,0.01418091,0.04026231
-0.00413793,0.00456812,0.00640341,-0.03093571,-0.02771118,-0.02343643,-0.00246276,-0.00092188,-0.02326016
0.02312658,0.01098016,0.01560337,-0.01484173,-0.05161851,-0.04292951,0.01412241,-0.02780831,-0.04098896
0.01308803,0.04830773,0.09158029,-0.01937424,0.01300376,0.06659587,-0.03541702,-0.00297040,0.03807537
-0.01944616,-0.02256579,-0.01016622,-0.02240206,-0.00398500,-0.00537899,-0.03318660,0.00163412,-0.02335810
-0.00821890,-0.01879346,-0.03007411,0.00519075,0.00802607,0.00408220,0.00483428,0.01138898,0.02075903
-0.01469952,-0.02194428,-0.02232566,-0.01993667,-0.02259384,-0.02265445,-0.02556120,-0.04466563,-0.03514104
0.00277456,-0.01832229,-0.04064843,0.00621057,-0.00995136,-0.02215503,0.02130720,0.01405247,0.00203555
-0.03685153,-0.01901360,-0.04137253,-0.00605792,0.03179978,-0.03104713,-0.00087005,0.01504847,-0.02890852
-0.03769597,0.00116099,0.00178279,0.00282247,0.01329413,-0.01814405,0.00161859,-0.00329800,-0.00037936
-0.00242122,-0.00001375,0.00120225,0.00228432,0.00303473,0.00214316,0.00334332,-0.00426649,0.00300389
0.02758306,0.01853608,0.01544605,0.01302673,-0.00135155,0.00225047,-0.00020390,-0.00275946,-0.00434962
-0.01620576,0.02906735,0.02983473,-0.01552350,0.01645407,0.00385931,-0.03020539,0.00523923,0.00968202
-0.01243371,0.03021644,0.01569353,0.03834642,0.05507516,0.02756184,0.04597292,0.03776703,0.03416620
-0.03367962,-0.00495477,0.00345197,-0.01776535,0.02455666,0.00817552,0.00936484,0.03670061,0.01646934
0.00100777,0.00648610,-0.00184015,0.00013538,-0.00031245,-0.00031232,-0.00373352,-0.00061831,0.00484592
-0.00924965,-0.01600196,-0.02132309,-0.01053632,-0.01146197,-0.00524212,-0.00870127,0.00460351,-0.00131492
-0.05256484,-0.01690544,-0.00438984,-0.03238057,0.01907154,0.01735561,0.01208353,0.04826043,0.02587658
-0.03091327,-0.02455395,-0.03076902,-0.01401453,-0.02034596,-0.00514820,-0.03470030,-0.02053964,-0.02775563
-0.01942912,-0.00943882,-0.00058182,-0.01349335,-0.01551126,-0.00382710,0.01418984,0.01478406,0.02036606
-0.03904805,0.01750275,0.02986974,-0.03247919,0.01078670,0.02342692,-0.04324615,0.01957899,0.02211017
-0.00280110,0.00007496,-0.00023558,-0.00289147,0.00058801,-0.00123467,-0.00204046,0.00386859,0.00099601
-0.04152862,-0.00538277,0.00776473,0.03201656,0.05284135,0.04215355,0.07464721,0.05446119,0.07318368
-0.00001129,-0.00978088,-0.02235075,-0.02227314,0.00161240,-0.02094261,-0.05549471,-0.02045705,-0.02277873
-0.01710796,-0.01207200,-0.00980024,-0.00814550,-0.00499013,-0.00312897,-0.02364982,-0.01996084,-0.02216482
-0.00557766,-0.02714797,-0.02897771,-0.01633499,-0.03973551,-0.03868698,-0.00810440,-0.01211276,-0.01405287
-0.04737014,-0.02744041,0.00578231,-0.01884436,0.04410534,0.04139073,-0.01950279,-0.00135669,0.00753096
-0.00712260,0.02305653,0.00939611,0.02924745,0.02758116,0.01400280,0.02642098,0.01163637,0.01536483
-0.03979115,0.07951916,0.07374720,0.00039320,0.09587510,0.02152361,-0.02012674,0.05344818,0.00809265
-0.00428407,0.01129859,-0.00356150,0.07435261,0.05906822,0.01706118,0.06476147,0.05015150,0.03179077
-0.00903229,-0.00196226,-0.00448102,-0.01077504,0.00274456,0.00894753,0.00406756,0.01167667,0.01244011
0.02544990,0.01671711,0.02326051,0.00856429,0.00030359,0.00146239,0.00824256,0.00527972,-0.00201822
-0.04436362,0.01833056,0.02744113,-0.03406718,0.02638266,0.01501776,-0.03811787,0.00771085,0.01573670
-0.03147651,-0.02973882,-0.01071333,-0.02254025,0.03147833,0.00283556,0.00261954,0.01721308,-0.00781212
-0.01564754,-0.00452458,-0.03470481,-0.02643334,0.05127832,-0.02536488,-0.02590479,0.04027652,-0.04178983
-0.00179294,0.00055602,0.00133592,0.00186008,-0.00595587,0.00353804,0.00183777,0.00370217,0.00321901
-0.00746730,-0.02445542,-0.02933433,-0.01606364,-0.03479750,-0.02724977,-0.01058020,-0.02820140,-0.02728519
-0.01347096,0.00580936,0.00946130,-0.00884259,0.03110209,0.01892255,0.01169397,0.03399044,0.03090767
0.02587457,0.01515127,0.00118497,-0.01126147,-0.02393724,-0.01697481,-0.01319821,-0.01943174,-0.01038498
-0.02761602,-0.01508193,-0.02623322,-0.02979603,0.00248164,-0.02576344,-0.04346402,0.00270263,-0.02652525
-0.01962905,-0.00088234,0.04559416,0.01778971,-0.02844892,0.01603073,0.01177691,-0.04127260,0.02804677
-0.00787840,-0.03047071,-0.05429370,-0.00785320,-0.01186933,-0.03922462,0.00937484,-0.00383084,-0.02535316
-0.04034431,-0.02886325,-0.00804112,-0.04576976,0.00616293,-0.00814203,-0.01933782,0.02208825,0.00593793
0.00398392,0.01043451,0.01446962,-0.01663540,-0.00593643,-0.00118438,-0.02858698,-0.01028566,-0.01028884
0.00629934,-0.00822676,-0.01039789,-0.00646550,-0.01725274,-0.01740619,0.00551366,-0.00332831,-0.00326389
-0.02747323,-0.00761225,0.00487702,-0.00968178,0.01769934,0.01133521,0.01751917,0.03349071,0.03167198
0.00289390,-0.00004804,-0.00209331,0.00131838,0.00591911,-0.00051035,-0.00134811,-0.00262943,-0.00378593
-0.00324780,-0.00227270,-0.00220956,-0.00281729,-0.00144422,0.00269614,0.00567170,0.00138899,-0.00188559
-0.00204548,-0.00571481,0.00984134,0.00874992,-0.02466662,-0.02050583,0.00608472,-0.00556724,0.00104218
-0.00740396,-0.01166268,0.00014861,-0.00095725,0.00084857,0.00044917,0.00572353,0.01621625,0.00976513
0.01021158,0.00550685,0.00294296,-0.00360754,0.00362285,-0.00169692,0.00253913,0.00193535,-0.00534868
-0.00045424,0.00067717,-0.00575434,-0.00373963,-0.00046078,-0.00231756,-0.00091627,0.00275682,-0.00462812
-0.05565479,-0.01330932,-0.02884064,0.01568264,0.08077089,0.02127592,0.01419668,0.02308208,0.02042671
-0.00163053,-0.00044711,-0.00455912,-0.00276754,-0.00033191,-0.00075627,-0.00721781,-0.00356623,-0.00760796
-0.01879451,0.02579275,0.01511102,0.01683528,0.03825801,0.00756082,0.03372565,0.03046068,0.03272780
-0.01861159,-0.03107368,-0.01208745,-0.01696384,-0.03778339,-0.01862987,0.01738195,0.01657197,0.01024935
0.00103385,-0.00375423,-0.01698251,-0.00148274,-0.00191690,-0.01367736,-0.00526522,-0.00052821,-0.01276901
0.00939896,-0.01132527,-0.03612243,-0.00523799,0.00134437,-0.03346649,-0.04375137,-0.00999453,-0.03625247
-0.02014989,-0.00571573,-0.00280304,-0.00623778,-0.00055710,-0.01175671,-0.00211914,0.00032068,-0.00332275
-0.00405684,-0.01449665,-0.00218464,-0.00180699,-0.00608094,0.00869036,-0.01875146,-0.01077488,-0.00133399
0.00147762,0.00544237,0.00091330,-0.00139541,-0.00346849,0.00122767,0.00180026,-0.00433512,-0.00645242
-0.03509640,-0.01702867,-0.02720997,-0.04244286,-0.00328169,-0.00916108,-0.02901200,0.01661282,-0.00217421
0.00780294,0.01125864,-0.00826262,-0.00004246,0.00995160,-0.00929778,0.00238468,0.00979830,-0.00965020
-0.04505227,0.01377754,0.03415771,-0.00374588,0.03590962,-0.00444381,-0.01391621,0.00793228,0.01461530
0.01844346,-0.01621992,-0.03564682,0.00408791,-0.01378219,-0.02471824,0.00239373,-0.00840942,-0.01790951
-0.00242087,0.00242380,-0.01342889,-0.01237883,0.00540097,-0.01482478,-0.02832048,-0.00414277,-0.01452696
-0.03555026,-0.03828099,-0.01701019,-0.04334078,-0.02736344,-0.01249234,-0.04222127,-0.02296605,-0.00911983
0.05557030,0.05548935,0.05431818,0.06335222,0.04408858,0.04002377,0.00691028,-0.01222534,0.00050371
-0.00553230,0.00504020,0.01042811,-0.02058319,-0.02570151,-0.01727579,-0.03596203,-0.03331260,-0.01875241
-0.00980146,0.02126993,0.04168541,0.00099562,0.02333016,0.03175830,-0.03172087,0.00341063,0.00932506
0.01012111,0.00953857,0.00741783,0.00611354,0.01790811,0.00621793,0.00995125,0.01248411,0.00072471
0.01452048,0.02322348,0.04078708,0.00654614,0.00579741,0.01584877,-0.00603308,0.00165912,0.00494162
0.03670544,0.03154334,0.01797514,-0.00170876,-0.00205522,0.00731186,0.01848273,0.01797644,-0.01056826
-0.02529040,-0.01334297,-0.00587374,-0.01636645,0.00994771,0.01406741,0.03447114,0.01555847,0.01106458
0.00092940,-0.00428649,-0.00409747,-0.00344100,0.00099747,0.00068757,-0.00305691,0.00147505,-0.00617987
0.00771660,0.01087431,0.01106955,-0.00055128,0.00883607,0.01129117,-0.00362586,0.00180534,0.00383591
-0.01777415,-0.00401463,0.01899672,0.00161179,0.00229908,0.02100253,0.00892563,-0.00794398,0.01110100
0.00556401,0.01426046,0.02655124,-0.00114607,0.00435708,0.01862901,-0.01018810,-0.00408773,0.01532749
0.00193061,0.01983186,0.07077379,-0.01838438,-0.00400244,0.02540004,-0.03899750,-0.02173650,0.00636574
0.00115710,-0.00507531,0.00030736,-0.00191428,0.00502128,-0.00216259,0.00483603,-0.00385785,0.00205356
-0.00659542,0.01096290,0.03133209,-0.02517401,-0.01010417,0.00374449,-0.04342612,-0.02311248,-0.00820068
-0.01002362,0.03329659,0.10089834,-0.05645413,-0.02708401,0.03893026,-0.09474808,-0.04820637,0.01305493
0.00962768,0.02264916,0.04384333,-0.01807358,-0.00930565,0.00876969,-0.05755489,-0.06829320,-0.03145392
-0.00269246,0.01279553,0.04433666,0.00551041,0.00844779,0.01665519,-0.01963104,-0.01025924,0.01905384
-0.01993529,-0.01095400,0.00405870,-0.00612529,0.00402059,0.02170287,-0.01163316,-0.00899517,0.02242068
-0.00056692,-0.00315022,0.00024797,-0.00247403,0.00279802,0.00072966,0.00783633,-0.00150814,-0.00402838
0.02092811,0.01865024,0.01435595,0.03478882,0.02266859,0.03051993,0.03875498,0.04179573,0.03863163
0.00953561,-0.00678889,-0.02074562,-0.01393063,-0.02204313,-0.02033627,-0.01256870,-0.03528350,-0.03069758
-0.02649127,-0.03491741,-0.05026489,0.00458686,-0.00997571,-0.02565094,0.02973159,0.02471359,-0.01247096
-0.06632144,-0.07125500,-0.06243107,-0.05033603,-0.04993119,-0.05322302,-0.03459869,-0.03853675,-0.03262001
-0.01820436,0.00038813,-0.00646472,-0.02738202,-0.02627170,-0.01387123,0.02857047,0.08112999,0.05484504
-0.00502422,-0.01660762,-0.01293483,0.02348036,0.01824956,0.01128505,0.02286963,0.02228528,0.01044729
-0.01751071,-0.01979386,-0.00261006,-0.04144543,-0.03403475,0.00043534,-0.05362449,-0.05134333,0.00666541
-0.01761015,-0.01151452,-0.00854941,-0.03524872,-0.02670373,-0.02263923,-0.00092764,0.01335596,0.00279139
0.00574510,0.00985595,0.01863760,-0.00507623,-0.00347346,0.00774198,-0.01851556,-0.01330165,-0.00995429
-0.00422917,-0.01371064,-0.00123608,-0.00005379,-0.00798120,-0.01031601,0.00167231,-0.01075276,-0.01157741
-0.01151784,-0.01525499,-0.00266163,0.01004650,0.00429757,0.01494111,0.01640657,-0.00039772,0.01898470
0.00048547,0.01094584,0.01107597,-0.06478303,-0.04834250,-0.01300995,0.03149107,0.05614760,0.02768913
-0.00380885,0.03462244,0.04854726,-0.01866524,-0.02418890,-0.00592635,-0.01737563,0.01670529,-0.00096105
-0.00165618,0.00014005,0.00252788,-0.00055179,0.00291550,0.00543673,-0.00116907,0.00235494,0.00187922
-0.04655947,-0.02478178,0.00274343,-0.04955003,-0.02297895,-0.02183427,-0.03905764,-0.01408685,-0.01188571
0.01421727,0.00240325,0.02643409,0.00073155,-0.02175722,0.00710351,-0.00919191,-0.03736268,-0.01141445
-0.02348615,-0.03694965,-0.03356317,-0.01667439,-0.04181921,-0.04702337,-0.00077746,-0.01678478,-0.01351150
-0.00708248,0.02869785,0.04944206,-0.03171758,-0.02114234,0.01386097,0.00802332,0.00668654,0.01732262
-0.00036126,0.01830139,0.02826287,0.00616949,0.00670750,0.00696907,0.00423054,-0.00273726,-0.00212434
0.02846886,0.04641059,0.04990335,0.02643964,0.03764966,0.04427457,0.02179166,0.03881402,0.03887039
-0.03034306,0.00621997,0.04605749,-0.01286199,-0.01778518,0.03780308,-0.04705399,-0.06806991,-0.01247163
-0.01248486,0.03105487,0.04982927,-0.04460643,-0.00434950,0.03173833,-0.03918191,-0.00712554,0.02834524
-0.00862925,-0.00799720,-0.01042546,-0.01262803,-0.00828831,-0.01054070,-0.01101180,-0.00487585,-0.00467617
0.00535757,0.02491261,0.05714411,-0.03490507,-0.02123044,0.00505603,-0.05664239,-0.04863695,-0.01430464
0.00127204,-0.00050641,-0.00026836,-0.00246075,-0.00042935,-0.00095839,-0.00442332,-0.00010459,-0.00269344
0.00736891,-0.00141070,0.00266667,0.00225863,-0.00079512,0.00240583,0.00015153,0.00016911,-0.00356530
-0.00872623,0.02971878,0.02547138,-0.04949981,-0.00930416,0.01078057,-0.04480075,-0.05550389,-0.02341249
-0.02578380,-0.02879527,-0.02332761,-0.01857127,-0.01127652,-0.01283476,-0.00359697,-0.00570493,0.00451714
-0.00073066,-0.00086677,0.00478926,-0.00129725,0.00178179,-0.00343321,-0.00475748,-0.00184710,0.00459527
-0.00334588,0.00883778,0.00828469,-0.00037984,0.00220739,0.00383211,0.00791019,0.00245184,-0.00454773
0.02753288,0.02556548,0.03432455,0.01724775,-0.02244161,-0.00423745,0.05010386,0.06348465,0.03253252
-0.00184475,-0.00214085,-0.00447097,-0.00303915,-0.00394574,-0.00330780,-0.00996828,0.00200005,-0.00650149
0.01229404,0.01033356,0.03105571,-0.00816599,-0.00247347,0.01615158,0.00013675,0.00423831,0.02010835
0.00323521,0.03383084,0.04833493,-0.02465487,0.02274525,0.04707184,-0.08356355,-0.05995036,-0.00996819
0.00004183,-0.02077862,-0.01574775,0.00068955,-0.01814581,-0.01709067,0.00497912,-0.01262193,-0.00923739
0.00540975,-0.00015774,-0.00843591,-0.01970194,-0.00153795,-0.01137097,-0.02681302,-0.02988745,-0.02952738
0.00275909,0.00245081,0.00380388,-0.00667333,-0.00473666,-0.00622505,-0.00279332,0.00034690,-0.00550239
-0.00144319,0.02204707,0.03604676,-0.01766498,-0.00550072,0.00646104,-0.02561254,0.00474997,0.02471983
0.00486057,0.00512901,0.00326755,-0.00102592,-0.00379347,-0.00063563,-0.00057418,-0.00046438,-0.00772601
-0.00416087,0.03380024,0.07006872,-0.03183122,-0.01401517,0.03762240,-0.04111318,-0.00286784,0.01958621
0.01003625,0.01127988,0.00527563,0.01193675,0.01911994,-0.00519472,0.00337527,0.01078390,-0.00141707
0.00407091,0.02405628,0.04930716,-0.04271900,-0.00642257,0.05727554,0.01812241,-0.00559586,0.01564193
0.00835074,0.01777653,0.03882387,0.00316023,0.01260537,0.02095366,-0.01348743,0.00691807,0.00900849
0.00109024,0.00531369,0.00318956,-0.02423023,-0.01397594,0.00347887,-0.01788888,-0.01233695,-0.00042896
0.02347997,0.06156247,0.09520704,-0.04635598,-0.01242145,0.04193620,-0.07966615,-0.04615040,-0.00407989
-0.03185403,-0.02005871,0.00760374,-0.04432585,-0.04664432,-0.01157874,-0.02772515,-0.04832333,-0.03170425
-0.00711010,0.00079329,-0.00241367,-0.01686290,-0.00657305,0.01002565,-0.01620812,0.02249831,0.02024969
-0.00227854,-0.01123947,0.01211621,0.00266813,-0.01624770,0.01932589,0.00199922,0.00754238,0.01337148
-0.04212085,-0.01189078,-0.01955803,-0.04858587,-0.01567393,-0.01890741,-0.05148854,-0.02216103,-0.03619268
0.02667348,0.03523773,0.01828043,0.02048997,0.02033118,0.00159138,0.02793107,0.03482388,0.01215014
0.03466282,-0.02929607,0.02494657,-0.02226307,0.02559192,0.05476433,0.05320301,0.02229886,0.01586613
-0.00444960,-0.01607195,-0.01720696,0.00934444,-0.00159937,-0.04611691,-0.00521094,-0.04709750,-0.03923480
0.00763382,0.00352970,-0.00164981,-0.00107948,-0.00245885,0.00002244,0.00207281,0.00179034,-0.00444240
0.00167896,0.00440720,0.00424451,-0.00241241,0.00001624,0.00383375,0.00260018,-0.00080647,-0.00002088
-0.03602153,-0.01996473,-0.00625739,-0.03077310,-0.01595984,-0.00313031,-0.04173496,-0.02762622,-0.00092467
-0.02810767,-0.00192425,0.01894033,-0.00117825,0.02195641,0.02722818,0.03621139,0.03020455,0.03095978
-0.05256459,-0.01884436,0.04391663,-0.05456790,0.00442043,0.07504813,-0.01858246,0.01847324,0.08123761
0.00225739,-0.00423741,-0.00065235,-0.00167134,-0.00067948,0.00081765,0.00037792,0.00506030,0.00160696
-0.01777240,-0.02398167,-0.00442732,-0.00250975,-0.00627961,0.02498127,0.01370167,0.02070331,0.03257229
-0.06807941,-0.02786858,0.08060735,-0.07409838,0.01300736,0.14689681,-0.02112143,0.04470363,0.16366631
-0.04180859,0.00939490,0.03436794,-0.01513095,-0.02289461,-0.00712306,-0.03085547,0.00478087,0.04394707
-0.04685941,0.00995272,0.04545149,-0.03361808,-0.01866857,0.03133368,-0.00610952,0.02060293,0.06428346
-0.02950179,-0.01183805,-0.01125698,-0.02193587,-0.01866740,-0.01881267,-0.03712739,-0.02325926,-0.01336454
-0.00264225,-0.00443777,-0.00010500,-0.00171556,-0.00291827,-0.00376699,0.00294148,0.00238656,-0.00175085
-0.03261094,-0.01948116,-0.01514224,-0.00584622,0.02459457,0.02106261,0.03280499,0.03113636,0.02049845
0.00572843,-0.01457004,-0.01520484,0.01520311,0.01272817,0.01063920,0.01717953,0.00545766,0.00550979
0.00104336,-0.01372647,-0.05396325,-0.00360200,-0.00743544,-0.05186686,-0.01151029,-0.01721590,-0.06759119
-0.00697416,-0.02801178,-0.03050541,-0.00199237,-0.04265634,-0.05793660,-0.01126125,-0.02316468,-0.01683464
0.05866262,0.02788602,0.03508090,-0.07679024,0.00317740,0.05272958,0.01301967,0.03756381,0.00578502
-0.02504636,-0.02171820,-0.04059122,0.01495204,0.01579727,-0.00512119,0.02255931,0.00206072,-0.00751397
-0.08973484,-0.04815629,0.00200975,-0.07119136,0.00603895,0.02646019,-0.04925776,-0.00432026,0.03068382
-0.02224243,0.00837907,0.03457866,-0.01369990,-0.00934173,-0.01861818,0.04432064,0.03415459,0.01319467
-0.02943314,-0.01598095,0.01483440,-0.03756184,-0.00614053,0.04068709,-0.03482407,-0.00932292,0.02551021
-0.00686643,-0.00680341,-0.00527949,-0.01268003,-0.01193177,-0.01080251,-0.00647944,-0.01306130,-0.00895749
-0.03125448,-0.02774126,0.00617998,-0.03724108,-0.03046541,-0.00207401,-0.01603309,-0.02367007,-0.00873608
0.00662540,-0.04696783,-0.03007698,-0.02418212,0.06125166,0.05032701,0.01523072,-0.01390494,-0.02083424
0.01469647,-0.01889693,-0.02906251,-0.05150004,0.00595376,0.03718275,0.00666755,0.02170382,-0.01225989
0.00121695,-0.00235372,0.00372278,0.00460325,-0.00081857,0.00171774,-0.00200739,0.00759881,0.00424205
-0.01435164,0.00154747,-0.05298352,-0.02076677,0.01207979,-0.02195598,-0.01221922,0.03143588,-0.00951280
-0.01554786,-0.01545723,0.04301534,-0.02429610,-0.01639596,0.05967882,-0.03060651,-0.00864891,0.06566184
-0.01454361,-0.02114119,-0.02157309,-0.00616596,-0.02423725,-0.02839384,-0.00732095,-0.01738414,-0.00879178
0.00175539,-0.00959880,-0.01232363,-0.01733309,0.03346213,0.04161498,-0.00338699,0.00925627,0.01929136
-0.06845918,-0.01283377,0.04520596,-0.00844311,-0.00361668,0.01667991,-0.01650560,-0.03915057,0.03824389
0.03757086,0.05840281,0.06361557,0.04052623,0.05644549,0.06926946,0.03238547,0.05456026,0.06869966
-0.06322835,-0.00882782,0.08885810,-0.09150399,-0.04047888,0.11625492,-0.09208974,-0.04877546,0.10472585
-0.01914521,-0.01007844,0.01525040,-0.01698359,-0.00798452,0.01076345,-0.02938830,-0.01166870,0.02426336
-0.00004144,0.00199567,-0.00049453,0.00643458,0.00983102,0.00142360,-0.00366057,0.01295018,0.00848480
-0.05941822,-0.01184633,0.07766820,-0.07580665,-0.00466226,0.09837195,-0.02814621,0.00887852,0.07849091
0.00393445,-0.00699000,-0.00003691,0.00032155,0.00104113,0.00212563,0.00156223,0.00397389,-0.00447527
-0.00247472,-0.00068029,-0.00178072,0.00473351,0.00557502,0.00384477,0.00027630,0.00450857,-0.00110642
-0.06180633,-0.00461671,0.02103018,-0.03683960,-0.02936030,-0.01500692,-0.03389885,-0.02817470,0.03491376
-0.00496104,-0.01285654,-0.01308848,-0.00863698,-0.01578058,-0.01052492,-0.00632696,-0.00965952,-0.00646502
-0.00493088,-0.00100344,0.00140738,0.00166733,-0.00473591,0.00091064,0.00041315,0.00181682,0.00105807
-0.00243409,0.00626502,-0.00429504,-0.00226594,-0.00102569,-0.00208404,0.00101601,0.00243080,0.00437348
-0.03516828,-0.04705525,-0.01855163,-0.05430879,0.02909490,0.05651395,0.01982648,-0.02597600,-0.02210654
-0.00655186,-0.00318158,-0.00675946,-0.00470625,-0.00110160,-0.00536802,0.00544356,0.00397739,0.00143507
-0.00887830,0.01355322,0.04354103,-0.03205356,0.00017781,0.00933925,0.00041987,0.00085059,0.01863405
-0.02110646,-0.00476746,0.02221376,-0.01903293,-0.02103621,-0.00030551,-0.02830341,0.01751772,0.05311364
-0.00077467,-0.00370411,-0.00331110,-0.00304236,-0.00776281,-0.01137848,-0.00123903,-0.00622156,-0.01049504
0.02782363,0.01880019,-0.00144907,0.04172367,0.04347998,0.02256084,-0.00899735,0.02442317,0.03506606
0.02024022,0.01793911,0.02110266,-0.01536362,-0.01613930,-0.03063432,0.00121736,-0.00146929,-0.00397033
-0.01450620,0.03346464,0.02388955,-0.01687205,0.01242173,0.04657778,-0.01093269,0.02381386,0.02426370
0.00352222,-0.00196995,-0.00195313,0.00102715,-0.00450062,-0.00155808,0.00094459,-0.00261547,0.00249636
0.00416656,-0.02339764,-0.00037805,-0.02437713,-0.03735139,0.02299275,-0.02870190,-0.02789295,0.01248469
0.00454531,0.00978751,0.00328534,0.00271108,0.00237016,-0.00179776,0.00128835,0.00337565,0.00306388
-0.05993767,-0.03080656,0.02540292,-0.01066612,0.05887562,0.02868073,-0.00556985,-0.02763424,0.03108884
0.02413414,0.02586809,0.01510755,0.02207138,0.02413005,0.02926660,0.02526893,0.03238929,0.00908525
-0.02974725,-0.02340773,-0.01685134,0.00459732,0.01768371,0.02147381,0.00941618,0.00965674,0.03118268
-0.05383904,-0.02996350,0.01359154,-0.05545500,-0.00396004,0.07676475,-0.06714676,-0.00574412,0.07845438
0.01249896,0.00408909,-0.01224381,-0.00036960,-0.01544662,-0.02874501,-0.03649497,-0.04333051,-0.04872585
0.00363238,0.01087566,-0.00944074,-0.02497971,0.02503421,-0.01943680,0.01902527,0.04955474,0.02352641
0.01664400,0.02568663,0.05393337,0.02096879,0.00116440,0.04027028,0.03130341,-0.00810792,0.00098689
-0.02001495,0.00052626,-0.02022037,-0.01133768,0.00199994,0.00010022,-0.02381420,-0.01720925,-0.01957268
-0.05161641,-0.00761135,-0.03398383,-0.04427305,-0.00788519,-0.02278864,-0.03020275,-0.02988080,-0.02553280
-0.05784638,0.06255688,-0.01601005,-0.04920760,0.02866014,0.03361237,-0.03400769,-0.05901279,-0.02576706
-0.02819075,-0.04612507,-0.06820969,-0.00798105,-0.03449934,-0.03235632,-0.07128179,-0.06322271,-0.03847149
0.00684442,0.00642068,0.00139049,0.00396534,0.00268782,0.00611187,0.00352938,0.00054056,-0.00186352
-0.00973071,-0.01348974,-0.01471145,-0.00768190,-0.01193063,-0.01254582,0.00186624,-0.00714331,-0.01119588
-0.00098220,-0.01630636,-0.00484587,-0.00908060,-0.02600930,0.00687061,-0.04320482,-0.05054324,-0.00508640
-0.01373176,-0.02363676,-0.00570159,0.00121640,-0.02844993,0.00651281,0.01580164,-0.02063521,0.00157897
-0.04925247,-0.00116744,0.00061824,-0.06606291,-0.05666648,-0.01510402,-0.06182572,-0.06604394,-0.02909436
0.00271467,-0.00413449,0.00031589,-0.00486288,-0.00153805,0.00035460,0.00013042,0.00015236,0.00023577
-0.01545524,-0.00145537,0.00543778,-0.03072808,-0.00658990,-0.01722217,-0.02214411,-0.00397732,-0.01217201
0.01318434,0.02787470,0.02627363,-0.02627851,-0.02163567,0.01465077,0.00188824,-0.03127938,0.00482054
-0.02188011,0.01645853,-0.00553146,-0.04506661,0.02528378,-0.00977396,0.01798420,0.09797073,0.07590118
-0.05620711,-0.05399675,-0.02624085,-0.05449750,-0.06360763,-0.03560415,-0.02213754,-0.04578768,-0.04114717
-0.01020245,-0.02720211,0.02105648,-0.00679812,-0.01690902,0.03479612,-0.01545052,-0.02190439,0.03471324
0.00408770,-0.00741923,-0.00229023,0.00044376,-0.00084651,0.00523630,-0.00684890,-0.00109180,0.00390828
-0.03680105,-0.02683012,-0.02276694,-0.03521021,-0.03960708,-0.01910468,-0.03683775,-0.05722195,-0.03011199
0.03482617,0.05630490,0.00227091,-0.02656205,0.02522443,-0.03468378,-0.02956693,0.00652393,-0.02225999
-0.02337278,-0.00495447,-0.03135044,0.01130303,0.02934095,-0.00160010,-0.00391697,0.00776355,-0.00085750
-0.00555069,-0.02940470,-0.00828890,0.01414289,-0.05616272,-0.05137400,0.04094551,-0.00016759,-0.03039942
-0.05553204,0.00007282,0.00280298,0.04684466,0.03018613,0.07119217,-0.02709816,-0.09970278,-0.07295764
-0.01162307,-0.01263663,-0.01818561,-0.04222437,-0.04454988,-0.03066372,-0.01300520,-0.02651100,-0.00810496
0.10651022,0.05799190,0.04023566,0.08541626,0.08524765,0.09544801,0.02321526,0.05308098,0.12857392
0.00507711,0.01005939,0.01565523,0.00361481,0.00015597,0.00763470,0.02656693,0.01816673,0.01167000
0.00329572,0.00461906,0.01830946,-0.01942904,-0.02140732,-0.00459058,-0.00405594,-0.01486057,0.00036933
0.03669893,-0.02165368,-0.01996816,0.05120139,0.00222018,0.00022200,0.05028817,0.00641929,0.00264106
0.01667723,0.00461130,0.01462645,0.00374078,0.00320531,0.04369470,-0.03661451,-0.04519616,0.01641501
-0.00944534,0.02351360,-0.05590382,0.03784942,0.05864021,0.00533813,-0.04193626,-0.06270890,-0.04472839
-0.04019326,0.08641780,-0.02325972,-0.06622881,0.05581194,0.03453988,-0.06296033,-0.05589934,-0.02162658
0.00024612,0.00294200,-0.00108199,0.00302829,0.00166649,-0.00420895,0.00037432,-0.00436360,-0.00321294
-0.01037038,0.03331781,-0.00568316,-0.02433327,0.01610222,-0.01678704,0.02554885,0.05042848,0.00724994
0.00019243,0.00616782,0.01735870,-0.02616663,-0.04741858,-0.01024845,0.00739104,-0.01665920,-0.00637786
0.00649289,-0.02485254,-0.00787983,0.04601512,-0.01701342,-0.01999520,0.10032901,0.06672233,0.02480129
-0.06112985,0.04394531,-0.02662348,-0.10413203,0.01464411,0.01053509,-0.09991689,-0.07425642,-0.03231146
0.05724531,-0.03649244,-0.04405329,0.07335182,0.01177610,-0.01392345,0.01567132,0.02115319,-0.01879845
-0.05204120,-0.04773695,-0.07096548,-0.03449765,-0.01978981,-0.03996832,-0.01984910,-0.01843870,-0.02498314
0.00560777,0.01829627,0.05210812,-0.10117979,-0.10107448,-0.01359158,-0.04414332,-0.07460867,-0.00322757
0.00657170,0.03188596,0.02011938,-0.02601295,0.02005837,0.03573162,-0.04886324,-0.02996947,0.00151685
0.02838114,0.01027165,0.01463170,0.02732793,0.02802149,0.01997739,0.02849103,0.03958154,0.04247953
-0.01061675,-0.00129417,0.02872684,-0.02162983,-0.04284157,-0.00059809,-0.00495976,-0.02438483,-0.00187964
0.00183958,0.00103575,-0.00105642,0.00605159,0.00502528,-0.00317820,0.00210771,-0.00200865,-0.00385106
0.00381239,0.00047258,-0.00283698,-0.00614384,-0.01060896,-0.00310489,-0.00710619,-0.00258884,-0.00721400
0.02247710,-0.02426725,-0.05955011,0.00434103,0.05197666,0.00000473,-0.04275876,0.01963512,0.02238802
0.01214103,-0.02940632,-0.03864755,0.03199610,-0.00386581,-0.02508418,0.05804279,0.03325470,0.00099915
-0.00139494,-0.00380120,-0.00446292,-0.00011384,-0.00059129,-0.00581793,-0.00100381,-0.00334607,-0.00114295
-0.00260041,0.01148515,0.00571695,0.00045113,0.01207387,0.00248305,0.00441575,0.00524367,0.00890507
-0.06126814,0.02566565,-0.00975705,-0.01041922,-0.00590701,0.06848870,-0.04447177,-0.09351637,-0.04292478
-0.00508606,0.00301932,-0.00374232,-0.00150908,0.00882900,0.00506504,-0.00207019,0.00275538,-0.00538275
-0.02696873,-0.01672137,-0.02350621,-0.01484154,-0.02272285,-0.00406379,-0.04599313,-0.05428539,-0.03947236
-0.02303870,-0.04648257,-0.06945643,-0.00446476,0.00960215,-0.07267411,0.01399674,0.08762012,0.01990704
0.01739328,-0.00612547,-0.00522764,0.02458053,0.01198246,0.00470941,0.01806883,0.00785260,0.00418497
0.13873556,0.16575550,0.07091089,0.13945673,0.21139294,0.04945670,0.15701859,0.24488097,0.11995044
0.01133786,0.00678606,0.00209005,0.03105261,0.02911853,0.03683648,0.00571595,0.00324007,-0.00017529
-0.04709516,-0.01832775,-0.03626811,-0.04740911,-0.02315820,-0.03485106,-0.04364904,-0.02691066,-0.05637213
0.00656805,-0.00446538,-0.00490309,0.00112044,-0.00507814,-0.00054532,0.00325181,0.00545839,-0.00229833
-0.03033354,0.01743977,0.00079011,-0.05697956,-0.02106269,-0.02213550,-0.06350134,-0.07143530,-0.05729963
0.03291528,0.01643654,0.01188301,0.04080512,0.03371252,0.02617495,0.03693883,0.04588469,0.04301543
0.02289291,-0.01321929,-0.04730673,0.00538803,0.02268823,0.02363922,-0.09008694,-0.06809738,0.00970535
-0.03659579,0.02373180,0.01136516,-0.04229663,-0.02310324,-0.03314066,-0.01350886,-0.02649069,-0.04096415
0.03016083,0.06070378,0.03589541,-0.04535749,-0.00408865,-0.00198273,-0.05084812,-0.03901685,-0.02643255
0.01585502,0.07093494,0.05647906,-0.04948330,-0.00975802,0.01682120,-0.07231224,-0.07801932,-0.03477120
-0.03778144,-0.05223775,-0.04524982,-0.01311123,-0.02914432,-0.00306489,-0.00858888,-0.06123653,-0.03150513
0.02556977,0.09764363,0.02461135,-0.02929338,0.11483024,-0.00297704,-0.00763216,0.04424963,-0.00873646
-0.00722497,-0.00073670,-0.00810874,0.02445635,-0.01159638,-0.05680265,0.06546855,0.04194907,-0.04619760
0.01262783,0.01072696,0.01458197,0.02061260,0.00185971,0.00351458,-0.00769625,-0.01940795,-0.01029839
-0.01583353,0.01980597,0.03309347,-0.02833767,-0.00811842,0.00529807,-0.01234610,0.00298567,-0.00733399
-0.05120299,0.23571114,0.07884362,0.00014998,-0.08406828,0.01286162,0.03911642,-0.13417828,-0.00784318
0.06169486,0.03241637,-0.06198621,-0.03788874,-0.04369693,0.02620864,-0.05866900,-0.00547386,0.02582073
-0.00785345,-0.00880822,-0.00854772,-0.01818998,-0.01309943,-0.01170614,-0.01045679,-0.00241160,0.00274661
-0.01244687,-0.00565138,0.00696699,-0.00192682,0.01058261,0.01868002,0.00784806,0.03207929,0.03824435
0.02058812,-0.00290357,-0.02043113,-0.02780000,-0.02757461,-0.00668587,-0.03754880,-0.00395580,0.02214463
-0.05174599,-0.04880824,-0.03188693,-0.02755401,-0.03035512,0.00943021,-0.02841709,-0.04218604,0.00650863
0.03473635,0.06227855,0.02815521,0.02119331,-0.04124700,0.02070229,-0.02688872,-0.08252774,-0.01929830
-0.00670821,0.00093853,-0.00088386,-0.00002638,-0.00670956,0.00141523,0.00053653,-0.00568637,-0.00170726
0.02988621,0.03403974,0.01463313,-0.01587026,-0.02015843,-0.02494778,-0.03754532,-0.02840640,-0.03943952
0.07255889,0.10265187,0.01607519,-0.01799705,-0.03898540,-0.06446614,-0.05027915,-0.04621372,-0.01628316
0.00059975,0.00701186,-0.02324241,-0.03702949,0.12972575,0.06568789,-0.05401035,0.07975509,0.04030009
-0.04378331,-0.03932494,0.03265490,-0.00214977,0.00406013,0.02333160,-0.02815712,-0.01714962,-0.03119001
-0.01588528,0.00622620,-0.00211130,-0.03471050,0.01968222,0.00231600,-0.04288317,0.04006926,0.02021162
-0.00577315,-0.00078947,0.00232602,-0.00634850,-0.00031498,-0.00188926,-0.00150356,0.00407640,-0.00121153
-0.06716926,-0.10496788,-0.05729283,0.02061725,-0.05538224,0.01731690,-0.03906555,-0.10363220,-0.03303176
0.10382365,0.14024724,0.05335407,-0.00396829,0.05539547,-0.00014124,0.00264663,0.05535926,0.03352807
-0.02268120,0.04430348,-0.02050182,-0.01703540,0.02777200,-0.00019163,-0.02710149,-0.00047624,0.00236127
-0.00328238,-0.00619022,0.01015192,0.01504356,0.05477533,0.03361519,-0.00720870,0.04857300,-0.03007149
0.01229799,0.10868687,0.08421630,0.04246402,-0.13037175,-0.06797103,-0.00340147,-0.14043826,-0.06774339
-0.04917814,-0.06523429,-0.05078442,0.00642655,-0.03262520,-0.00519677,-0.02889778,-0.06232314,-0.01924827
0.13379729,-0.09498171,-0.06203466,0.06202089,-0.06380793,0.02444986,-0.04243230,-0.04351262,0.05783119
0.00244969,0.04737917,-0.00496136,-0.01800917,-0.01532620,-0.02417814,0.00449201,0.01717176,-0.00657360
0.00458089,0.03846693,0.02096868,-0.01646922,-0.00357910,0.00575154,-0.01414119,-0.01448502,-0.00944914
-0.02901810,-0.05999972,-0.07555205,0.01347656,0.01198251,-0.00697951,0.03612736,0.06077397,0.02515539
0.01186041,0.04478075,-0.01584706,0.00466918,0.01862454,0.00443047,-0.03591775,-0.02329492,-0.03836702
0.17916425,0.30299729,0.01515127,-0.09742939,-0.15407540,-0.13986091,-0.04704504,-0.05631594,0.02165548
0.03985509,0.20460114,0.03746266,-0.00771806,-0.05476479,-0.01592853,-0.02684822,-0.14349860,0.00952048
-0.00208926,-0.00260733,0.00139645,0.00067324,0.00210370,0.00181574,0.00147030,0.00069350,0.00321355
0.02954252,0.00070751,0.02410034,0.00235945,-0.00001855,-0.03421302,0.01833923,0.05446028,-0.00229931
0.00085457,-0.00479501,0.00070431,-0.00362813,-0.00147504,0.00755092,0.00644311,0.03559398,0.02487861
-0.01332257,-0.00912421,-0.00743263,-0.01753652,0.01593152,-0.01803631,0.00961023,0.06457193,-0.00089264
0.06607509,0.24300052,0.11237632,-0.05370010,-0.01406729,0.03336827,-0.05341071,-0.12172490,-0.02284999
0.06091175,-0.05118471,-0.00167761,-0.05511508,-0.02056622,0.01254457,-0.06619333,0.10375600,-0.00200254
-0.00030070,-0.02794783,0.00242779,-0.01284022,-0.01554617,-0.00400710,0.00301346,0.02994368,-0.00848418
-0.03505315,-0.03453130,-0.06830896,-0.00644259,-0.03856346,-0.02248803,0.08767951,0.05925691,0.06726839
0.03913225,0.06575813,0.02590254,-0.02963730,-0.00602267,-0.02967415,-0.01234295,-0.00382959,-0.02803422
-0.02643619,0.01591794,0.00651781,-0.03168411,0.01658958,0.00105594,-0.02872960,0.02344174,-0.01418280
-0.01245534,0.06314612,0.01261872,-0.00182913,0.01037649,0.01997130,-0.06932028,-0.02786496,-0.01356625
0.00134073,0.00777358,-0.00086251,0.00174590,0.00501165,0.00001044,0.00486458,0.00157993,0.00033773
0.00062164,0.00301235,-0.00053479,-0.01063841,-0.00616169,-0.01190562,-0.01144776,-0.00612261,-0.00913918
0.07707676,-0.02206669,-0.07698318,-0.02703186,0.08814085,0.07021327,-0.09018076,0.02585222,0.02672433
-0.00561520,-0.02787224,-0.01858262,-0.02328080,-0.00242875,-0.04008672,0.03919770,0.08939178,0.02459504
-0.00609594,-0.00138133,0.00519315,-0.00813667,-0.00072343,0.00215175,-0.00246698,-0.00331056,0.00104464
-0.00192571,0.00892030,0.01249015,0.00412347,0.00911913,0.00593130,0.00704523,0.00459979,0.00054913
-0.02614053,0.10091899,0.07325994,-0.02624011,-0.22697496,-0.02518347,-0.02514693,-0.11452304,0.03375711
-0.00413057,0.01237675,0.01106726,-0.01178723,0.00723272,0.00372838,-0.02554037,-0.00861123,-0.00664395
-0.02516748,-0.00718596,-0.01099609,0.00033431,-0.06861234,0.01291161,-0.01341106,-0.06821904,-0.01162441
0.01636860,0.01743210,-0.04609869,-0.03311591,0.16846383,-0.03442481,-0.06306851,0.06990398,-0.05921672
0.03965503,0.04406152,0.03265443,0.01739352,0.02827076,0.01440370,-0.00096270,0.00424826,0.00002490
0.12034518,0.13305949,-0.00456331,0.19825803,0.33321026,0.09200405,0.04317829,0.17556198,0.02628093
-0.00690369,-0.00495912,-0.01184104,0.00185923,0.00611236,-0.00273568,-0.00038846,0.00295414,-0.00155155
0.01654244,0.00162203,0.03656265,0.00290206,-0.00120256,-0.02725604,-0.03121642,0.01883935,-0.02052559
-0.00612203,-0.00204600,0.00056142,-0.00510207,-0.00123657,0.00545065,0.00033243,0.00360672,0.00709297
0.05439885,0.17574656,0.08241069,-0.03763993,0.01236659,-0.04526428,-0.04671713,-0.05066269,-0.05817064
0.00186356,0.02414162,0.02958123,-0.00924479,0.02493874,0.02276813,0.00356073,0.03569632,0.00864105
0.10198510,0.11762057,-0.04408917,-0.09692267,-0.05028210,0.06021469,-0.11193066,-0.05515216,0.01992336
0.02303507,0.01769349,0.03940441,-0.03449583,-0.05546134,-0.03382663,-0.00566420,-0.02832766,-0.00676599
0.03305177,0.04770795,-0.00947386,-0.06780155,-0.04421359,-0.04701095,-0.03244131,0.00183472,0.00448198
0.07017052,0.13130155,0.08366103,-0.03201106,-0.02062071,-0.03352348,-0.03494021,-0.06616265,-0.05609456
-0.07444359,-0.05215835,-0.09028747,-0.05524284,-0.04379210,-0.04098201,-0.04073321,-0.07348180,-0.02950959
-0.00152633,-0.03910689,-0.02105385,-0.02809344,-0.02186109,-0.01049961,-0.02489480,-0.00990214,-0.00077848
-0.00176274,0.00775937,0.04891957,-0.02016168,-0.00674242,0.09478176,-0.00915069,0.00380451,0.06330568
-0.00289873,-0.00614611,-0.01432102,-0.01227020,-0.00703235,-0.01325673,-0.01521352,-0.00233129,-0.01373710
-0.02949609,-0.03382023,-0.02925733,-0.03286154,-0.02342415,-0.01438687,-0.01763682,-0.02046914,-0.01052180
-0.03686412,-0.01697163,-0.00620448,-0.04805596,0.02517442,0.04422997,-0.01269821,-0.01847392,-0.00794130
-0.02967915,-0.02010744,0.00618122,0.00342681,0.00084483,-0.01949536,-0.00713824,-0.04887753,-0.02614254
0.00114692,0.00398312,0.00007979,0.00263960,0.00382372,-0.00216876,0.00083520,-0.00243485,-0.00238655
-0.00012569,-0.00278092,0.00358144,0.00033640,-0.00185822,-0.00171282,0.00914078,-0.00459181,0.00134507
0.01006113,0.01253542,0.01099306,0.02271743,0.01561371,-0.00366373,-0.00126392,-0.02610405,-0.01410611
-0.00690797,0.02936644,0.02399108,-0.00390038,-0.00255536,0.00766077,-0.01438252,-0.03213452,-0.02281059
-0.04668222,-0.00311071,0.03279839,-0.04312656,0.01177104,0.03698056,-0.03563289,-0.01301377,-0.00413399
0.00036115,0.00116942,0.00411999,-0.00615988,0.00116461,0.00119700,0.00054630,0.00043246,0.00288246
-0.02563704,-0.01901226,0.00552421,-0.02070220,-0.00847187,0.01482104,-0.01803325,-0.01348081,0.00452653
-0.04759973,0.01142945,0.04377310,-0.02789740,0.06347784,0.07824523,-0.02010292,0.03218003,0.03077492
-0.00542211,-0.01886958,-0.03793396,-0.03184944,-0.03083871,-0.03579917,-0.04266722,-0.01773972,0.00802711
-0.02209512,-0.00134696,-0.00074303,-0.01477161,-0.01221668,-0.00675419,-0.02087476,-0.01201794,-0.00286312
0.02658680,0.03087984,0.02855500,0.01984399,0.03370645,0.00805539,-0.00871827,0.00912796,0.00333253
0.00109320,-0.00086681,0.00115014,0.00151003,0.00340400,-0.00105935,-0.00033682,-0.00304897,-0.00111120
-0.01018052,0.02966056,0.04015425,0.00315653,0.02564576,0.03112909,-0.00661711,-0.01561651,-0.02033135
-0.00698799,-0.01293373,0.00106423,-0.02185627,0.00875375,0.02217787,-0.02919489,-0.01492400,-0.00309152
0.00069408,-0.00167866,-0.00035487,0.00173211,0.00460889,-0.01183085,0.00222058,-0.00887502,-0.02725057
-0.01010068,-0.02166844,-0.01519348,-0.00076039,-0.02342307,-0.02170195,-0.00640132,-0.01296715,-0.00900849
-0.06683144,-0.03995378,0.00502543,-0.04402269,-0.00129596,0.06142877,0.00159714,-0.02425992,-0.03910241
0.01137213,0.03272913,0.02531109,0.00882506,0.01652326,0.00283632,-0.00088394,-0.01630715,-0.01840023
0.11932345,0.11902086,0.03267846,0.15205652,0.13832934,-0.02648149,0.09232987,0.02156799,-0.05279956
-0.01853484,0.01128826,0.02697980,-0.02222567,-0.01045331,0.00558547,-0.02832148,-0.04567480,-0.03835421
-0.02244727,-0.00542439,0.01136812,-0.01450297,0.00830582,0.02201526,-0.01102139,0.00129437,0.01740321
0.00653317,0.00400551,-0.00042137,0.01679857,0.00780098,-0.00138010,0.02224654,0.01520595,0.01256617
0.00004628,0.00473061,0.01853534,0.01998675,0.02681514,0.00728163,0.00361906,-0.01992717,-0.01544265
-0.03287864,-0.03085317,0.00329485,-0.02927189,0.05532704,0.04955517,0.00346775,-0.02749945,-0.03587861
-0.03253112,-0.01735934,0.00386295,-0.05389883,0.02600113,0.03259418,-0.01653879,-0.00425348,0.00003242
0.00387979,0.00072570,0.00422859,-0.00256202,0.00453678,-0.00167900,0.00078759,0.00154607,-0.00053324
0.00512771,-0.00271909,-0.02944825,-0.00402367,-0.00443810,-0.03000749,0.00200825,-0.00169235,-0.02196248
-0.05016205,-0.02819494,-0.00225034,-0.03352153,0.00788491,0.05270160,-0.01107058,0.01616807,0.04687953
0.01765708,0.00319519,-0.00351550,0.01737509,0.00473409,-0.00492749,0.01135865,0.01353708,0.00560390
-0.03949834,-0.02519651,-0.01424519,-0.05309767,0.01965483,0.03509813,-0.03201290,-0.00413616,0.00994803
0.03063698,0.01834547,-0.01902672,0.05471959,-0.00851539,-0.05836323,0.01964321,-0.02772578,-0.05206685
-0.01021491,-0.01833578,-0.02381394,-0.01900211,-0.01680663,-0.00660445,-0.01267576,-0.00434796,-0.00290829
-0.11433825,-0.05436019,0.02168469,-0.09582375,0.02625643,0.11827874,-0.05815301,0.04149608,0.11144771
-0.00396539,-0.01233214,-0.00431003,-0.00737495,0.00211545,0.00740361,-0.00039350,-0.00254410,0.01246494
0.01736571,0.00137642,-0.00028963,0.03145953,0.00427796,0.00076755,0.01608042,0.00657644,0.00591391
-0.03568302,0.01105481,0.05816198,-0.02182305,0.02088075,0.05699685,-0.02702013,-0.00829738,0.01971862
0.00316117,-0.00666887,0.00202415,0.00097335,-0.00204882,0.00566702,-0.00611691,0.00221594,-0.00173647
0.00269858,0.00253709,-0.00096641,-0.00339403,-0.00325744,-0.00383173,0.00080292,0.00417408,0.00412621
0.01141883,-0.01573741,-0.04148959,0.00700055,-0.00841207,-0.04120262,-0.02519872,-0.02324418,-0.01033339
0.01498899,0.00240464,0.00722080,0.01556959,0.01379311,0.00572498,0.01271152,0.01361288,0.00801762
-0.00006768,-0.00403270,0.00684849,0.00153564,0.00433350,-0.00203626,-0.00020445,0.00224954,0.00080826
-0.00556001,-0.00169491,-0.00191408,0.00150697,0.00055382,-0.00513025,0.00014558,0.00468146,-0.00055330
-0.02558285,0.03722492,0.01736914,-0.05226883,0.00478959,0.02212176,-0.01833810,-0.06249794,-0.04057227
-0.00242623,0.00564446,0.00073499,-0.00130041,-0.00491451,-0.00206418,-0.00089023,-0.00259222,-0.00144681
-0.02336684,0.00583582,0.00455447,-0.00303004,0.01019551,0.00384628,-0.01609286,-0.02112520,-0.02032454
-0.01590667,-0.04518354,-0.00218165,-0.02453271,-0.03589281,-0.02647659,-0.03650795,-0.00209642,0.00745202
-0.00330500,-0.01187856,-0.01437750,-0.01096043,-0.01624913,-0.01701216,-0.01655554,-0.02125863,-0.01808990
0.00618257,-0.04080818,-0.03562812,-0.02876747,0.00481661,0.01956085,-0.03937120,0.02099411,0.05260347
-0.02015897,-0.01339324,-0.01718462,0.00072490,0.00033625,-0.00282309,0.00155205,0.00539183,0.00229323
-0.01713885,-0.01933415,-0.03275819,-0.03221311,-0.03387132,-0.01946071,-0.02340081,-0.01809412,-0.03111393
0.00274796,0.00309064,-0.00316367,-0.00463545,-0.00269292,-0.00143659,-0.00228920,0.00525795,-0.00610985
-0.05731238,-0.05834481,-0.00165321,-0.06074749,-0.03309273,0.04216118,-0.04135176,-0.02113837,0.02200202
0.01087460,-0.01450889,-0.00774911,0.00532253,-0.02025509,-0.00980910,0.00437962,-0.02163618,-0.01293266
-0.00792123,0.01517562,-0.00201784,0.01963232,0.07221174,-0.00409226,-0.00133617,-0.02038243,-0.02178468
-0.01481272,-0.01272953,-0.01276637,-0.03047291,-0.02518114,-0.00158640,-0.02191636,-0.01683566,-0.00633581
-0.00965374,-0.00218618,-0.00600210,-0.02086423,0.00867020,0.01563438,-0.01027871,0.00097447,0.01486980
-0.03768492,-0.02379928,0.00008696,-0.05183005,-0.00957584,0.01768434,-0.03206630,0.00357870,0.02512888
0.05020129,0.04259422,0.01744359,0.03652241,0.01509871,0.00691154,0.00388010,-0.00717578,-0.01883703
-0.00076255,-0.00756123,-0.02257343,-0.01871922,-0.04644267,-0.02042006,-0.04036356,-0.06121683,-0.01686251
0.01661924,0.00091637,-0.00765007,0.03667134,-0.01897987,-0.01106326,0.04892410,0.01620693,-0.00271805
-0.02096286,-0.01693321,-0.01848213,-0.01033481,-0.01644710,-0.02520014,-0.01242636,-0.00483914,-0.01612839
-0.03506212,-0.01242649,-0.00105194,-0.03648716,-0.00849213,-0.01077136,-0.03851486,-0.00170810,0.00056145
-0.03827707,-0.02256666,-0.00077992,-0.07076441,-0.04380200,0.00446263,-0.03536789,0.01152137,0.02266003
-0.08604449,-0.08865743,-0.03638570,-0.08261860,-0.03356883,0.02265731,-0.04354164,-0.00995839,-0.01905825
0.00615697,0.00789755,0.00241878,0.00489152,0.00920958,0.00400517,0.00899908,0.00783336,0.00556291
-0.00180470,-0.00655280,-0.00212624,0.01100727,0.00910181,0.01067097,0.00656028,0.00416787,0.00429904
-0.04793688,-0.05374445,-0.01559622,-0.03694928,-0.02388981,0.01361916,-0.01004842,-0.00223845,0.00006452
-0.03944778,-0.04416605,-0.00006159,0.00011544,0.00252817,0.03038318,0.04680092,0.05468475,0.03160583
-0.03541366,-0.04561234,-0.01617537,-0.03530839,-0.04189762,0.00149144,-0.02712785,-0.01696661,0.00606154
-0.00298923,-0.00181729,0.00055327,0.00268082,-0.00273708,0.00065385,-0.00601784,0.00027575,-0.00230225
-0.00041745,-0.00562153,-0.00719569,-0.00017412,-0.00499067,0.00305045,-0.01635272,-0.01844073,-0.00221373
-0.00652381,-0.02402366,-0.00919427,-0.00546755,-0.02328157,0.00007653,0.00263675,-0.00925716,0.01527913
-0.00470971,0.02263539,-0.01001303,0.00538438,0.00564986,-0.02008831,-0.04262987,-0.07643275,-0.06485853
-0.02796488,-0.01972081,-0.01289972,0.01180294,0.00697347,-0.01304643,-0.02350181,-0.02101560,-0.03613942
-0.08114193,-0.04310240,0.03605544,-0.06270908,-0.01973988,0.06792714,-0.05729065,-0.05608922,0.01599872
0.00158650,-0.00491933,0.00512678,0.00113667,-0.00205271,0.00032728,0.00284343,0.00056247,-0.00284760
-0.03849448,-0.04740968,-0.00729381,-0.01375196,-0.00980374,0.01247282,0.02130251,0.04685770,0.03227041
-0.00814737,-0.01038086,-0.01376369,-0.04958214,-0.04951400,-0.01072832,-0.05151882,-0.05139905,-0.02101083
0.00670048,0.00732944,-0.00125101,-0.00231774,-0.00030877,0.00206896,-0.00660051,0.01212861,0.01633990
0.03838876,0.04701801,-0.02308970,0.08387648,0.08976039,-0.00947294,-0.00481502,-0.00715623,-0.06096074
-0.03219791,-0.06455687,-0.03262109,-0.05348207,-0.08646949,-0.05233830,-0.03143713,0.00918440,0.01555835
-0.05174094,-0.04806869,-0.00855315,-0.01225134,0.00206297,0.02607924,0.02391035,0.05119810,0.02951851
-0.13652501,-0.06836633,0.30050340,-0.13528074,0.01943940,0.45791045,-0.07663099,0.02384840,0.32777682
0.01274417,-0.00715099,0.00371321,0.05453182,0.03881267,0.02862121,0.08305563,0.09316363,0.05029975
0.00312286,-0.00026046,0.00533266,0.00008923,0.00292573,0.00802447,0.00137305,-0.00574580,0.00372866
0.00015262,0.02015320,0.00692557,-0.00100291,0.02786694,0.01371788,-0.01597378,0.01345400,-0.00573122
-0.03782256,-0.04290417,0.01823439,-0.03238388,-0.01933853,0.04970292,-0.00454347,-0.00924626,0.01809449
-0.04834455,-0.06199630,-0.03723945,-0.09298114,-0.07279696,0.00174624,-0.04517262,-0.00304481,0.03601052
-0.03684857,-0.04318962,-0.00480056,-0.05258724,-0.06338318,0.00569456,-0.02625610,-0.00196677,0.03359034
0.00363843,0.00745521,0.00148077,0.00088540,-0.00359983,0.00022542,0.00454659,0.00274398,0.00487541
0.05706998,0.04833182,0.00860715,0.08147063,0.05739275,-0.00368331,0.03250457,0.02677234,-0.01352390
-0.00331259,-0.00701252,0.00013661,-0.00148153,-0.00535061,-0.00125535,-0.00283639,-0.00244561,0.00293448
0.09692872,0.15141486,0.05736121,0.16136751,0.22065826,0.08639127,0.06479690,0.09167501,0.02348619
-0.03321746,-0.01778516,0.00106689,-0.04859579,-0.03206541,0.01259758,-0.03064907,-0.00411335,0.01736834
-0.06745959,-0.04442414,-0.00538416,-0.04532120,0.05868388,0.04727082,-0.01442228,0.03099488,-0.00204778
-0.02464603,-0.03043812,-0.02457884,-0.02479971,-0.03989276,-0.04366055,-0.05726738,-0.04106241,-0.02393764
0.01448989,-0.00146119,0.00262007,-0.00034629,-0.01782420,0.00942725,-0.00101568,-0.01959340,0.01923693
-0.05266049,-0.06371684,-0.05058657,-0.05127710,-0.05558357,-0.04046458,-0.02983588,-0.03038090,-0.02099243
0.04599195,0.06337117,0.06894744,0.04353745,0.08492927,0.07607254,0.00675873,0.02414321,0.03253961
-0.00321567,-0.00845999,0.00580753,0.00603035,-0.00704883,0.01969142,0.01742787,0.01424085,0.02958694
-0.00228633,0.00337115,-0.00616143,-0.00776102,0.00371184,0.00255543,0.00740380,-0.00780322,-0.00184854
0.00417565,0.01016242,0.00980603,0.01210544,0.01403447,0.00763068,0.00945120,0.00685748,0.00818677
-0.03344404,0.03487828,0.03465430,-0.04158443,0.02195308,0.02321751,-0.02281787,-0.05008584,-0.05747331
0.03348044,0.04056340,0.01469934,-0.00100101,0.00650310,-0.02152755,-0.01608784,-0.02101092,-0.02930812
0.00777929,0.00696386,0.00668800,0.01177678,-0.00013842,0.00980488,0.00669318,0.00353156,0.00350680
0.00595407,0.00678417,0.00735914,-0.00329911,0.00137342,0.00339954,-0.00751447,-0.00005925,-0.00791982
-0.07917800,-0.08064451,-0.00792516,-0.06471433,-0.07670433,-0.00593121,0.02320962,0.03437591,0.00751727
0.00236110,0.00132755,0.00007506,0.00576898,0.01286650,0.00621241,0.00152653,0.00176963,0.00206568
-0.03441592,-0.01960157,0.02587423,-0.03133100,-0.01184687,0.03491558,-0.00987120,0.00380091,0.02001713
-0.00167413,0.01334309,-0.01271140,0.01197593,0.04270383,0.04075037,-0.04689616,-0.03494266,-0.00521095
-0.01693729,0.00638933,0.00202200,-0.01148032,0.01299365,0.02127959,-0.00987341,0.01268592,0.00445049
0.14178558,0.09427995,0.00948128,-0.02230233,-0.05585176,-0.01549293,-0.06156371,-0.09280329,-0.02049066
0.00386828,0.01351744,0.01766235,-0.00049511,0.00547525,0.01338181,0.00649744,0.00434650,0.01139770
-0.01975927,-0.03820585,-0.05729549,-0.01866349,-0.05584784,-0.06450216,-0.01456643,-0.03387750,-0.04439709
-0.00028369,-0.00102899,0.00899889,-0.00420088,0.00478919,0.00737614,0.00063342,0.00325442,0.00595260
-0.03103656,-0.04361973,-0.00045096,-0.04135801,-0.06681357,0.00309333,-0.03231693,-0.03885715,0.03211790
0.00188532,0.00717278,0.01171770,0.00857151,0.01445793,0.02481257,0.00620636,0.01666669,0.00891409
-0.05029170,-0.04539312,-0.00794220,-0.06872685,-0.03167221,0.02551698,-0.00361724,-0.01029527,-0.01359919
-0.03036749,-0.00389384,0.00354853,-0.02696588,-0.01397719,-0.00629523,-0.04031867,0.00570103,0.01931951
0.00931029,0.00090658,0.01219817,-0.00697102,-0.00725299,0.00678777,-0.00205607,-0.00197445,0.00943492
-0.02302085,-0.02752658,-0.03460240,-0.01293106,-0.01828381,-0.00727587,0.01033872,0.01444339,0.01976521
-0.02938255,-0.03714921,-0.01212079,0.08224636,0.10886540,0.04722832,0.15960830,0.20544122,0.07557529
0.05078365,-0.03912523,-0.00034530,-0.02345726,-0.01486405,0.00935200,-0.05817827,-0.00877473,0.02561284
-0.01637832,-0.02352377,0.03809224,-0.00578671,-0.00479603,0.06052596,-0.01545953,-0.02366497,-0.00065120
-0.02252296,-0.00537491,0.01428322,-0.02119297,-0.00301640,0.01071565,-0.00966760,0.00346254,0.00472611
0.00720318,0.00163568,0.02490707,0.00599916,-0.01023887,-0.00111812,0.02422394,-0.00703826,-0.00847890
-0.07963002,0.09092407,0.01298654,-0.21945053,0.19341680,0.08806682,0.00407725,-0.01790577,-0.02764913
-0.01654707,-0.03423658,0.00228148,0.07708085,0.03769452,-0.02002235,0.02932641,-0.08405179,-0.01041221
-0.00226059,0.00338982,-0.00902228,-0.00258943,0.00638408,-0.00586470,-0.00057603,0.00224379,-0.00123385
0.00382843,-0.00180369,-0.01299005,0.01439680,0.01135911,-0.00600398,0.01773278,0.01254180,-0.00059128
0.01557165,-0.00683226,0.01749138,0.04455943,0.00450718,-0.01231415,0.01775076,-0.04041275,-0.01654038
0.01370483,0.02384041,0.05386264,0.03790795,-0.00692625,0.00291881,0.02672714,-0.03019651,-0.01204665
-0.00528108,0.04968317,0.01794278,-0.01853111,0.04877767,0.02113724,0.00579432,-0.03049196,-0.01661624
-0.00611552,0.00137899,0.00191003,0.00008150,-0.00258572,0.00487603,0.00274662,-0.00321643,-0.00413862
0.01606038,-0.00031802,0.01499844,-0.00234431,0.00019313,0.00627969,0.00260530,-0.00025662,-0.00372361
0.02274258,0.03667630,0.01645686,-0.01026432,0.04658793,0.03586321,0.01001079,-0.02442577,-0.03768914
0.06269880,0.05726190,0.02346954,0.03000550,-0.02071431,-0.06903899,-0.07781859,-0.01792087,0.01563925
-0.02254005,0.04388994,0.06021868,0.01554058,-0.03114266,0.00893505,-0.01570474,-0.02265218,0.01614592
0.02116657,0.02862992,0.00324534,-0.00134646,0.00924769,-0.02506725,-0.03369579,-0.01618768,-0.02357008
-0.00670813,0.00233674,0.00126146,-0.00050748,0.00806081,-0.00129495,-0.00111141,-0.00105427,0.00224446
0.02074930,0.03542714,0.05694319,0.04777186,-0.01631511,0.01785701,0.05172658,-0.05512622,-0.02959055
0.02808892,-0.01040288,-0.01671549,-0.00699877,0.02444386,0.00469165,0.01228250,0.01157903,0.02504056
0.00509779,-0.00919765,-0.02177007,-0.00830266,0.02889390,0.01348387,0.02030554,0.01042953,-0.00080815
0.05780176,0.00266546,-0.03650958,0.07620873,-0.03630885,-0.08293247,0.04958874,0.01692127,-0.00338643
0.01230310,0.02890203,0.01749572,-0.07219855,0.00860359,0.12821706,0.12002280,-0.04127379,-0.06625087
0.00313995,-0.00667735,-0.01086990,0.05358208,-0.00269627,-0.01638991,0.04535154,-0.01722115,-0.01262770
0.02851804,-0.01068585,-0.00776150,0.02231192,0.00259575,-0.05830205,-0.03346177,-0.07916009,-0.07497083
0.00520206,0.01465674,-0.00011193,0.03375620,0.01009605,-0.01599613,0.03179498,0.02251231,0.03842266
0.01508413,0.00704128,-0.00702635,0.01390481,0.03905634,0.01883680,0.01372584,0.01529548,0.00480336
0.04394904,-0.00773768,-0.03049261,0.05202928,0.00013785,-0.03265476,0.03507717,-0.00686760,-0.03252972
0.01461196,-0.01023198,0.03363991,-0.00802312,-0.01220821,0.00414539,-0.01477859,-0.06050935,-0.00394872
0.02123845,-0.09102950,-0.05203975,-0.06748538,0.15967266,0.06391457,0.07478493,-0.03578380,-0.07233091
0.01024361,0.02267477,-0.05039945,-0.15091790,0.11192364,0.02563304,0.05900686,0.00006025,-0.04617099
-0.00272507,0.00073688,0.00083272,0.00104695,0.00223242,-0.00281675,-0.00544520,-0.00015891,0.00210797
-0.02980889,-0.05041033,0.00550102,-0.00501636,-0.04158859,-0.02079008,-0.00760822,-0.03606472,-0.03447895
0.02125381,0.04060256,0.03246137,-0.00727706,0.01952060,0.00743695,-0.00093701,-0.00001072,-0.02151893
-0.00288449,-0.01988891,-0.02715666,0.05002679,0.01013003,-0.01519353,-0.00699303,-0.00534403,-0.00814973
-0.01887196,0.00448505,-0.03522368,-0.12387487,0.12677546,0.04652266,-0.04158318,-0.00376343,0.00483932
0.08345828,-0.06900632,-0.00810187,0.21492776,-0.09211553,-0.07319474,0.09227556,-0.12093241,-0.07456127
-0.01687287,0.00691354,0.06657472,-0.00585638,-0.00659640,0.04653183,0.00317596,0.01372699,0.02995596
0.01483580,0.01373615,0.01736751,-0.01831873,0.04132588,-0.00680143,-0.05613919,-0.00773565,-0.07237484
0.01806482,-0.02833631,-0.02720831,-0.02592826,-0.00989537,-0.03316099,-0.00944698,-0.02435401,-0.00140047
0.03899010,-0.01002889,-0.00172394,0.03226718,0.00332603,-0.01007659,0.01128577,-0.01358944,-0.02397330
0.01574749,0.01235306,-0.00268481,0.02572548,0.02992403,0.00860196,0.02646702,-0.01077744,-0.01101950
-0.00006740,-0.00186774,0.00090825,-0.00544154,-0.00589260,0.00276553,0.00367709,0.00475602,0.00145285
0.00916240,0.00430082,-0.00249389,-0.00022148,0.00140477,-0.00226891,0.00723895,0.00467442,0.00302675
0.12747446,-0.03955989,-0.07275208,0.13124157,0.02157400,-0.07610455,-0.02539591,-0.06085948,-0.00868523
0.04413461,-0.01350790,-0.02397375,0.03703562,-0.01485063,-0.01453888,0.04037467,0.01474986,0.02229028
0.00552404,0.00159224,0.00603447,-0.00052431,0.00025248,-0.00201689,0.00409663,-0.00076919,0.00281822
0.00267782,-0.00235707,0.00104558,0.00245885,-0.00335430,-0.01546317,-0.00146388,-0.00474316,-0.00281655
-0.01712398,0.13381366,-0.03739994,-0.12623018,0.05120076,0.09376807,0.16902025,-0.11834873,-0.06753922
0.00081914,0.00912802,-0.00677522,-0.00648115,0.00619151,0.00016737,0.01323203,0.00512739,-0.00020555
-0.03636962,0.02755259,0.00167183,-0.00325417,0.01934525,-0.00525805,0.03105039,-0.03415027,-0.00424914
0.08406419,-0.03963600,0.05864765,0.08981817,-0.00418542,-0.04296514,-0.11335782,0.04526972,0.01736367
0.01206800,0.00980932,0.00667917,-0.00058508,-0.00426987,-0.01100847,0.01401620,0.00084547,0.00133811
0.04786720,-0.00327067,-0.01934473,0.03025459,-0.01374469,-0.03121463,-0.07015625,-0.05759566,-0.00360109
0.01478975,0.01714939,0.03779688,0.00508226,0.00099483,-0.01181628,0.00325977,-0.00425040,0.00691984
0.02259471,-0.00019068,0.00205706,0.00772465,-0.05198886,0.03354667,0.04948322,0.01213495,0.01089875
-0.00128944,0.00126490,0.00214355,0.00418508,-0.00339392,-0.00001119,0.00578679,0.00462850,-0.00076471
0.02287122,-0.01720344,0.00506378,-0.07616723,0.00357087,0.04201181,-0.02458541,0.00087443,0.00770991
0.00974299,-0.03951398,-0.00950988,0.00462651,-0.04205039,-0.00589150,0.00686240,-0.04532573,-0.00780799
-0.00382455,-0.03803022,0.01277878,0.02223343,0.15976754,0.02276062,-0.03391781,-0.10820453,-0.00390296
-0.00758560,-0.02035522,0.00107401,-0.00612604,-0.02896571,0.00210713,0.02621373,-0.00714248,-0.00848462
-0.00221823,-0.00309285,-0.01533001,0.00134281,0.03890356,0.01395743,0.00537795,0.00559456,0.03766836
0.02998996,-0.02824392,-0.03181571,-0.03047974,0.02168776,0.00902209,0.00192909,0.00924953,0.00040897
0.04563071,0.02859565,-0.00242576,0.07697870,0.03597535,-0.04024784,0.03505858,0.01761433,-0.03826456
-0.00373885,0.00723762,0.00942318,0.00322235,0.01671350,0.00477829,-0.00437609,0.01107778,0.00382331
-0.00070244,0.01025898,0.01263133,-0.00029275,0.00279078,0.01230236,0.01221983,0.00569772,0.01787543
0.01940909,0.01479291,0.01409897,0.01353864,-0.00126763,0.01113226,0.00982834,0.01026374,0.01041995
0.01578843,-0.00692963,-0.00474391,0.00061145,-0.00961683,-0.01127664,-0.00916186,-0.01535958,-0.00563513
0.00520228,0.02235457,-0.00935430,-0.00140339,0.00948834,-0.00562052,0.00359085,0.01184959,0.01148511
0.00784831,0.02029351,0.00683613,0.00661113,0.01676686,0.00288636,0.02028285,0.02028480,0.00272870
-0.00304628,0.00069497,0.00336707,-0.00428019,0.00602210,-0.00751797,-0.00030121,0.00190404,0.00365246
-0.00806877,-0.00899588,-0.00994735,-0.00914491,-0.00745755,-0.00090034,0.00241085,0.01174324,0.00734271
-0.00269776,0.01827124,0.00726347,0.00457237,0.00105159,0.00168365,0.00268607,0.00912558,-0.00083382
-0.01414948,-0.00920810,-0.01397254,-0.01092169,0.00056659,0.00565541,0.00864146,0.01493167,0.00831396
-0.01306281,-0.00217562,0.00137423,-0.02239197,-0.02074270,-0.01066020,-0.02551123,-0.01619501,-0.00650203
-0.00137397,0.00077445,0.00065490,-0.00327013,-0.00253776,-0.00146058,0.00098081,-0.00724496,0.00040930
-0.00734698,-0.00746181,-0.01148273,-0.01249619,-0.01321855,-0.00725888,-0.00858799,-0.01028028,-0.00826770
-0.01382149,-0.02326132,-0.02526889,-0.01022269,-0.01628320,-0.01358081,-0.00887179,-0.01970554,-0.01191178
-0.01281287,-0.01364665,-0.02396503,0.00954211,0.01991047,0.00139914,0.01010008,0.00983588,0.00039967
-0.01425792,-0.00779489,-0.00670145,-0.00047367,-0.00335712,-0.00353484,-0.01121297,0.00075801,-0.00379371
-0.01119035,0.00691173,0.01701498,-0.00422997,0.00858115,0.01324606,-0.01452091,0.00453535,0.01426244
-0.00478239,-0.00006447,-0.00087561,0.00017636,-0.00163824,0.00310043,-0.00058895,-0.00118923,0.00317001
-0.01721427,-0.01488154,-0.01848350,-0.00778835,-0.00504305,-0.00160436,-0.01564342,-0.01106838,0.00214129
0.02618891,0.03678601,0.03297014,0.01252904,0.01875206,0.00642511,0.00090463,0.01653140,0.00684613
0.01471944,0.02888165,0.01357846,0.01665825,0.03718147,0.02023927,0.02012775,0.03889537,0.01979771
0.02694067,0.03304847,0.03215017,0.04005237,0.04566797,0.03239596,0.06083702,0.05937925,0.04979134
0.00296592,0.03820492,0.04194636,-0.01727279,-0.00155073,0.00979060,-0.01329131,-0.00048300,0.00914805
-0.01326979,-0.00371842,-0.00969657,-0.00338405,0.00584268,0.00095952,-0.00547447,0.00093229,-0.00172415
-0.00942691,0.01551142,0.01011647,-0.00776474,0.00956795,-0.01725882,-0.00226076,0.01868094,-0.00513317
-0.01375672,-0.01200965,-0.00724354,0.01050027,0.00645055,0.01435984,0.00009477,-0.00101875,0.00984602
0.00148151,-0.00399696,-0.00456384,0.00502976,-0.00384364,0.00544737,-0.00179290,-0.00518016,-0.00609793
0.00919197,0.00214559,-0.00445147,0.01852287,0.01176613,0.00156223,0.02073389,0.03325484,0.01080484
-0.00737399,0.00918928,0.01142269,-0.01060147,0.00362966,-0.00945226,-0.00611470,-0.00519084,-0.00923511
-0.01785302,0.00751488,-0.01292967,-0.01132704,-0.00782521,-0.00961319,0.00527664,0.01766407,0.01143951
-0.00030519,0.02856632,-0.03381793,-0.00209008,0.01595380,-0.03859778,0.00830515,0.02827882,-0.01904775
-0.00050567,-0.00201993,-0.00004005,0.00351336,-0.00014822,-0.00376834,-0.00314986,-0.00353627,-0.00235188
0.00323421,0.02626397,0.02406519,0.00900979,0.03470132,0.01457091,0.00767113,0.03267313,0.02871689
-0.00276294,-0.00390788,-0.00093041,0.00294533,-0.00247072,0.00218707,-0.00551422,0.00082218,0.00214923
0.00052944,0.00707557,-0.00042962,0.01908726,0.02663877,0.02115592,0.01503260,0.02694797,0.01823201
-0.01762722,-0.00503009,-0.02624976,-0.01825819,-0.00729277,-0.02825445,-0.01487442,0.00631405,-0.00422159
0.00973702,-0.02075999,-0.00521782,0.00913112,-0.02687423,-0.01540849,0.01140287,-0.01988651,-0.02170672
0.00360168,0.01102998,0.01084388,0.01524995,0.00747127,0.01409937,0.00615943,0.00804496,0.01250868
0.00329355,-0.01102221,-0.00373673,-0.00302480,-0.00865468,0.00027600,0.00152838,-0.00999700,-0.00094596
-0.02104672,-0.02544754,-0.01392308,-0.02425628,-0.02301584,-0.01854720,-0.01572244,-0.01915233,-0.01922854
0.01201323,0.01075738,0.01259901,0.01094675,0.01616528,0.00852067,0.01172647,0.02294912,0.01109060
-0.00258199,-0.00151445,-0.00202379,0.00196234,-0.00927894,-0.00023200,-0.00109989,-0.00685847,-0.00315835
-0.00018090,-0.00157901,0.00349553,0.00530650,-0.00192629,0.00083515,-0.00075128,0.00010933,-0.00253533
-0.00299693,-0.00381751,-0.00940381,-0.00514509,-0.00324791,0.00160827,0.00097595,0.00300779,0.00592667
0.01188304,-0.00046617,-0.02113646,0.03179676,0.02042910,-0.00266641,0.02401134,0.01591443,-0.00021501
0.02523332,0.01690801,0.01156111,0.04261749,0.04621777,0.03422625,0.03824863,0.03855760,0.03442698
-0.00135817,0.00077400,-0.00461726,-0.00258042,-0.00121054,0.00189712,-0.00235056,-0.00225228,0.00448996
0.00001674,-0.00253742,0.00051288,-0.00054654,0.00019150,0.00196290,0.00198947,0.00404061,-0.00389883
-0.00963036,0.01002902,-0.01667913,-0.01281875,0.01422837,-0.00045488,-0.00021026,0.00505460,0.01351664
0.00101324,0.00408488,0.00483945,-0.00356579,0.00025892,0.00205160,-0.00043097,0.00646974,0.00155967
-0.01025933,-0.00793596,-0.01581562,-0.00717392,-0.00063448,-0.00618804,-0.00513929,0.00280535,0.00536757
-0.03041765,-0.02984421,-0.03237307,-0.00236329,0.00503069,-0.01169011,-0.00512806,0.00608891,-0.00416091
0.01823948,0.01930416,0.01802259,0.01395420,0.01475502,0.01302553,0.00818448,0.01374850,0.01763294
-0.02471479,-0.00960101,-0.00393764,0.01891064,0.02554960,0.01478359,0.01981750,0.02738672,0.01581603
-0.00060026,0.00027721,0.00280502,0.00489901,0.00309786,0.00335820,0.00433575,-0.00412079,0.00339334
0.00223786,0.00097961,-0.00294964,-0.00267780,-0.01108819,-0.00499854,0.00004436,-0.00627721,0.00240831
-0.00725401,-0.00068291,0.00281598,0.00117571,-0.00567750,0.00148302,-0.00419127,-0.00128614,0.00291629
-0.03343498,-0.01526344,-0.02708364,-0.03374337,-0.02526762,-0.02835405,-0.02636582,-0.01213383,-0.01296296
0.00052189,0.00927625,0.00271091,0.00440161,0.01173283,0.00200875,0.00494767,0.01050050,-0.00061822
-0.01470025,-0.01398245,-0.02817913,-0.01476440,-0.01571194,-0.02087676,-0.00330761,0.00029497,-0.02168984
0.01518532,0.00375121,0.00710005,0.00474699,-0.00953980,0.00150400,-0.00238162,-0.00805810,0.00477281
-0.01652329,-0.00774512,-0.00896086,-0.02303166,-0.02410156,-0.02305396,-0.02298987,-0.01346498,-0.01885943
-0.02555819,-0.03127154,-0.02703984,-0.03203365,-0.03580472,-0.03476379,-0.02158541,-0.02041181,-0.01507681
0.00147626,0.00467046,-0.00310541,0.00624413,0.01814402,0.01995255,0.00865784,0.01276369,0.01609340
0.03259511,-0.02608456,0.01878584,0.00418117,-0.02202797,0.01776190,-0.01795613,-0.00251590,0.01071973
-0.02960061,-0.01667394,-0.01925083,-0.03078637,-0.01171547,0.00619679,-0.03349830,-0.01020202,0.00947996
-0.03038244,-0.04105500,0.01326814,-0.03398164,-0.04724467,0.01437469,-0.02649373,-0.03833061,0.00676819
-0.06011088,-0.05294006,0.00404916,-0.06710205,-0.05644674,0.00115179,-0.04206522,-0.03670214,-0.00684288
-0.09735797,0.02087981,0.05568320,-0.15274549,0.10668920,0.05238308,-0.08441477,0.04246410,0.03842987
-0.00451613,0.00773961,-0.00306524,0.03306929,0.01883939,-0.01120282,0.04784232,-0.00995544,0.00251315
-0.00553033,-0.00076514,-0.00089194,-0.01140013,0.00141273,0.00101596,-0.01305362,-0.00233003,0.00232054
-0.00081912,0.01368872,0.00842724,0.00263122,0.00369036,0.01267670,-0.00275290,0.00030057,0.00430465
0.00296127,0.00710455,0.00525230,0.01367817,0.01286507,-0.00858805,0.00998264,-0.01561952,-0.01158188
-0.01254352,-0.00257839,0.01611898,-0.00212347,0.00027295,0.01738753,0.00414560,-0.02437112,-0.00173814
-0.03354935,0.04457159,0.03633971,-0.06688759,0.03801382,0.03473399,-0.06610403,-0.02740771,0.00331726
0.00096606,-0.00285105,0.00201423,-0.00387873,0.00112138,-0.00178382,-0.00237372,-0.00220660,0.00541827
-0.01008750,0.00240245,0.02521590,-0.01268041,-0.01139960,0.02378709,-0.02271820,-0.01628544,0.00716144
-0.02358987,0.03391403,0.06883188,-0.07941086,0.03482939,0.06470656,-0.08547576,-0.01644624,0.02417061
0.00809362,0.01385164,0.03741765,-0.00178022,-0.00223649,0.01179039,-0.04141866,-0.00760081,0.01173012
-0.02030372,0.00008684,0.04219391,-0.01515781,-0.00349485,0.05708980,-0.02713321,-0.02469348,0.04137496
0.02265130,0.01436185,-0.03857623,0.01190917,0.02613522,-0.02855416,-0.00137082,0.01733580,-0.01984924
0.00146071,-0.01176738,-0.00029439,-0.00245982,-0.00260034,-0.00108771,0.00344852,0.00240914,0.00049901
-0.03870614,-0.01165388,0.04610635,-0.01910269,-0.00228717,0.05818428,-0.00687419,-0.01777446,0.03602466
-0.00604512,0.00568513,0.05228323,-0.01990641,-0.00274027,0.03234535,-0.00552441,0.01587745,0.02428582
0.02044137,0.02190318,0.03505635,0.02346701,0.04092443,0.02590557,0.02340212,0.04007392,0.02716634
0.02250395,-0.01260994,-0.01504378,0.02796046,-0.01711454,-0.00513807,0.02288858,0.00374897,-0.00062586
-0.02428334,0.00413349,0.03892514,-0.05921803,0.02055753,0.05613691,-0.01412318,-0.03147931,0.00112562
-0.02012403,-0.02563038,-0.01727912,0.01086042,0.00518167,0.02182954,0.03456752,0.01051084,0.02432605
0.11795488,0.00582320,-0.13273603,0.17900456,0.05374654,-0.17267834,0.13358183,0.00674119,-0.15529364
-0.03416144,0.01042143,0.05294834,0.00004891,0.01563470,0.05344362,-0.00787418,-0.02578046,-0.01585458
-0.00452163,0.02698007,0.03488868,-0.01243283,0.03830067,0.04587683,-0.01370757,0.00802535,0.02512231
0.01832193,-0.00148670,-0.02668868,0.02946195,-0.00512762,-0.02227371,0.01673969,-0.00233062,-0.01918252
-0.02827232,-0.00075291,-0.00127627,-0.03493371,0.01228089,-0.00289160,-0.01459096,-0.00109448,-0.01010479
-0.03299723,-0.01483730,0.03690125,-0.07896500,0.04490255,0.02439070,-0.01975803,0.03843773,0.01081862
-0.00255599,0.00693484,0.02545114,-0.05963555,0.09524371,0.01569463,-0.02025356,0.05729054,0.02364765
0.00116969,0.00067608,0.00207976,0.00018707,-0.00025685,0.00312889,0.00310516,0.00252806,-0.00343518
0.00726555,-0.05458399,-0.03825817,0.00745741,-0.05149632,-0.02628680,0.01031866,-0.04019126,-0.03718958
-0.00251785,0.00530659,0.01929464,-0.02534826,-0.02091548,0.02632088,-0.02862167,-0.03158027,0.01345511
-0.00751158,0.00186603,-0.00246589,-0.01642149,-0.00176464,-0.00369030,-0.01330760,-0.00528442,-0.00351947
-0.03533253,-0.01058206,0.02410025,-0.08995759,0.06067513,0.05115411,-0.07166937,0.05573099,0.06222209
0.06045696,-0.06520322,0.00225269,0.11974119,-0.12582459,-0.00664904,0.09093812,-0.11624555,-0.01307103
-0.03489894,-0.05465950,-0.04064920,-0.03589097,-0.05900084,-0.05059173,-0.02639134,-0.04073628,-0.04614456
0.00930124,0.01558640,0.01266279,-0.03993449,0.00601904,0.03977509,-0.04269641,-0.02444294,0.03141020
0.01933246,0.01102763,0.01183362,-0.00315419,0.01460012,-0.00970098,-0.01446732,0.00633679,-0.01767098
0.00338766,-0.03171174,-0.01282454,-0.00000618,-0.03581613,-0.01684108,-0.00407758,-0.03243679,-0.01785510
-0.03521120,0.04243465,0.08180106,-0.04676860,0.04012200,0.06510424,-0.05325542,-0.02834425,0.02390280
0.00037696,-0.00373573,0.00197690,-0.00270148,0.00186269,0.00467169,-0.00163987,-0.00485199,0.00075036
-0.00243852,0.00415790,0.00195629,0.00802429,0.00195283,0.00693883,0.00365303,0.00294390,0.01430894
0.05163388,-0.04184740,-0.02093698,0.08564597,-0.02616193,-0.02798394,0.00921344,-0.01476735,-0.01324208
0.01950951,0.01615078,0.01463799,0.01453337,0.01088197,0.00625703,0.01143984,0.02080114,-0.00188381
0.00136160,-0.00060758,0.00643828,0.00441879,0.00157702,0.00128692,-0.00287302,0.00046228,0.00603089
0.00541515,0.00162664,0.00137491,0.00018431,0.00205117,0.00456179,0.00392038,-0.00014426,0.00300883
-0.03093339,0.08364202,0.02503880,-0.09234061,0.05677963,0.01917844,-0.03123291,-0.06644285,0.02411356
-0.00096493,-0.00091914,0.00030809,0.00432462,0.00049957,0.00069654,0.00486774,0.00088460,0.00347145
-0.04504846,0.01251133,0.00753530,-0.01920736,0.03230842,0.00247161,0.01187513,-0.00409320,0.02084517
-0.01902300,-0.04522463,0.05438810,0.00162411,-0.02646023,0.03414943,-0.04520692,0.01817642,0.00094028
0.01556063,0.01395139,-0.00022103,0.01424805,0.02271008,-0.00177906,0.00677149,0.01143006,-0.00369896
-0.03374130,-0.02065070,0.05940319,-0.05066240,-0.06321958,0.03669475,-0.05900008,-0.02646232,0.06479317
0.00962640,0.00952413,0.00414638,0.00416164,0.00745287,0.00323632,-0.00161292,0.00353443,-0.00588008
-0.00105523,-0.00555113,0.03136081,-0.01941200,-0.03147001,0.04482073,-0.01629520,-0.01466793,0.04883103
0.00289988,-0.00527541,0.00109761,-0.00344421,0.00286960,-0.00372132,-0.00147305,0.00176164,0.00214008
-0.01266603,0.00054103,0.04653655,-0.07092081,0.01223942,0.04752765,-0.06840733,0.01077285,0.01770525
0.01596069,-0.03232187,-0.02659687,0.01392295,-0.04806966,-0.03188268,0.01935241,-0.04510185,-0.03276523
-0.04013974,0.01009568,0.02833082,-0.00769335,0.04568136,0.01241205,-0.02195240,0.01177402,0.03668953
-0.02855401,-0.05022079,-0.01627801,-0.04766812,-0.06813166,-0.02316453,-0.05077448,-0.05845642,-0.02741897
-0.00222528,0.00694996,0.00985424,-0.02407906,0.01460292,0.02106850,-0.02499340,0.03316800,0.03888256
0.00714996,0.00865042,0.03945495,-0.04366041,0.01622961,0.02935151,-0.06800748,-0.00044921,0.02349626
0.01579209,-0.02765992,-0.01563028,0.00887681,-0.00545996,0.00164450,0.01735282,0.03123459,0.02437937
-0.05409686,-0.01700235,0.02097019,-0.06099590,0.02356951,0.06355663,0.00027716,0.04566395,0.08075628
-0.02500575,-0.02710824,-0.00123797,-0.00960958,-0.01650881,-0.01840490,0.00053299,0.00576199,-0.02000429
-0.00997274,-0.02106594,-0.02996973,0.00277286,-0.00031547,-0.01701276,0.02738791,0.02335733,-0.01338673
-0.05504178,-0.05601394,-0.03207495,-0.03153729,-0.03384797,-0.01131634,0.01004006,0.01130362,0.01705167
-0.06324580,-0.02711743,0.03551654,-0.00415829,-0.03717875,0.02108696,0.06615168,-0.01745821,0.00391234
0.03047124,0.03177709,0.03458421,0.02377958,-0.00563778,0.00277191,-0.01796860,-0.04201977,-0.03101272
-0.00689812,-0.00485262,-0.00523869,-0.00633200,0.00242052,-0.00919197,0.00024303,-0.00093180,-0.00509911
0.00297360,-0.00901144,-0.02274788,0.00785949,0.00056883,-0.00736922,0.00719523,0.01134605,-0.00062246
0.03129371,0.03980858,0.07219188,0.01070214,-0.00895847,0.03179884,-0.02327649,-0.07128079,-0.01625870
-0.00160782,-0.01680336,-0.00966610,0.04354941,-0.00201975,-0.01447823,0.03569745,0.01368447,-0.00214878
-0.03416492,0.00137621,0.04933964,-0.01239238,0.00209098,0.04401284,0.00998841,0.00841988,0.03227858
-0.00470756,0.00037324,-0.00318976,-0.00350830,-0.00705198,-0.00294641,-0.00354002,-0.00345726,-0.00247545
-0.02588521,0.00149660,0.02196338,-0.04487250,-0.00516523,0.01789743,-0.02642669,-0.00258453,0.01495239
-0.10518959,-0.04673708,0.05831074,-0.07886424,-0.03993869,0.05870306,-0.02068856,-0.00482659,0.05199979
-0.05510744,-0.04030373,0.01453191,-0.06878282,-0.02400453,0.05691315,-0.02038291,0.03241977,0.09643902
-0.02996006,-0.01636600,0.03573412,-0.01625807,0.00164067,0.03641106,0.00900337,0.03355394,0.03599397
0.04338197,0.04733060,0.07844357,0.00467751,0.01071762,0.03248314,-0.03641200,-0.05928250,-0.02703088
0.00124071,0.00079510,-0.00015126,-0.00053579,0.00051108,-0.00115132,0.00173763,0.00200800,-0.00095922
0.00599281,-0.00514526,0.00439829,0.05415923,0.00826022,-0.03005370,0.04175373,0.00964373,-0.05050465
-0.04876026,0.00830419,0.05204767,-0.06540168,0.02511433,0.09094465,-0.04361190,0.01287809,0.06628937
-0.02779873,0.01329361,0.01252764,0.00650541,0.03929182,0.03216873,0.02213871,0.01502965,-0.00523081
0.01904925,0.03089806,0.00946194,-0.00519148,0.03848916,0.02251310,-0.03195031,0.03822662,0.03256321
-0.04401423,0.01016997,0.05097467,0.06275834,0.03353253,0.01842609,0.02546709,-0.00728136,-0.03583925
0.06082871,0.02347800,0.00424198,0.05630265,0.00157165,-0.03324089,0.02672210,-0.01783916,-0.04720346
0.07581902,0.07966128,0.15965065,-0.00427082,-0.04954643,0.05704695,-0.09172036,-0.20093298,-0.09103525
-0.03207670,-0.02811563,0.00488332,0.00373952,0.00004101,0.00770948,0.04967574,0.04854720,0.05021000
-0.01499698,-0.01467122,-0.00883304,-0.00881553,-0.02148019,-0.01151570,-0.01431654,-0.01090458,-0.00829017
0.00789941,0.00401143,-0.01194781,0.00796286,0.01883391,0.01346534,-0.02017540,-0.00476298,0.00955399
0.03313754,0.04902402,0.09102633,0.00540162,0.00023115,0.05135038,-0.03825785,-0.06328073,-0.01787470
-0.06717619,0.03145097,0.06020710,-0.01623417,0.01027418,0.03530577,-0.01417358,-0.03811036,-0.03321188
-0.02346714,-0.00009844,0.07171055,-0.00708388,-0.04681368,0.04333037,0.02841385,-0.07506828,-0.01639705
-0.00001583,-0.00537536,-0.00311034,0.00066261,0.00201004,0.00243162,0.00000641,-0.00079243,0.00380976
0.01505652,-0.00908909,-0.01790917,0.00526921,0.00791840,-0.01062723,0.00408474,0.01459189,-0.03221521
-0.00806519,-0.00455095,-0.00139445,-0.00643243,-0.01225815,-0.01205312,-0.01078272,-0.01267638,-0.01575619
0.00236748,0.00980734,-0.00109034,0.01076453,0.04840137,0.03115324,-0.00450738,0.02873912,0.02540686
-0.08735575,-0.02931381,0.04881192,-0.06324383,-0.01763520,0.06926460,0.02169655,-0.00353727,0.03831126
0.03640458,0.05113471,0.03447225,-0.01092454,0.01026197,0.00499058,-0.07932592,-0.04298691,-0.02339136
-0.05680665,-0.06905620,-0.06094879,-0.00154742,-0.00620218,-0.02827443,0.04690812,0.04975300,0.00505500
-0.02822776,-0.02619261,-0.07043988,-0.04882688,-0.05228043,-0.08084086,-0.02395025,-0.03151958,-0.05654316
-0.02979953,0.00063242,0.03956265,-0.05148016,-0.01457125,0.03402901,-0.03594583,-0.01674864,0.01686068
-0.00014898,0.00322369,0.01274027,-0.00245201,0.01121107,0.02233809,-0.02172731,-0.01670946,0.00760964
-0.05191748,-0.04473418,-0.00765355,-0.03222703,-0.03282755,0.00171460,-0.00984636,-0.01432094,0.02416807
-0.00119378,-0.00112694,0.00272966,0.00062945,-0.00484297,0.00328627,0.00224722,0.00154213,-0.00124340
-0.00195115,0.00367562,0.00403463,-0.00636672,0.00663614,-0.00453618,-0.00598049,-0.00153150,-0.00165949
-0.01042513,0.01870175,0.02760525,-0.04917324,-0.00578693,0.05446435,-0.05455649,-0.03236639,0.03699527
0.00086139,0.01545642,-0.00338426,-0.00330590,0.02550736,0.02229045,-0.00474650,0.02630067,0.02801013
-0.00235460,-0.00599699,-0.00016608,-0.00122490,0.00036651,0.00016431,-0.00804888,0.00479204,0.00495124
-0.00168620,0.00022851,0.00036983,-0.00263224,-0.00136298,0.00072241,0.00507819,-0.00119889,-0.00265682
-0.01562446,0.00812896,0.06184517,0.03581912,-0.03967207,-0.00419293,0.04488332,-0.04480726,-0.06428196
-0.00511945,0.00727408,-0.00462786,-0.00570620,-0.00073637,-0.00091167,-0.00653387,-0.00461023,-0.00398370
0.00997613,-0.00001475,0.00888578,0.02862896,-0.00761368,-0.00356466,0.02338926,-0.00825687,-0.01108264
-0.03741414,-0.00205591,0.01123365,-0.06428244,0.00703994,0.02011767,-0.03986447,0.02476030,0.06347622
0.01845477,0.01193213,0.02493189,0.00890854,0.00506066,0.01742790,-0.00133403,-0.00205704,0.00626111
-0.14538623,-0.06632926,0.01488042,-0.15961270,0.00223834,0.11254247,-0.07059444,0.08159665,0.17382963
-0.00860806,-0.00490772,0.00397855,-0.00679263,0.00365248,0.00764551,0.00816964,-0.00443599,0.00091971
-0.03050814,-0.01203467,0.00098798,-0.02514282,-0.00374105,-0.00136050,-0.00148614,0.03218787,0.01062665
-0.00339985,-0.00114055,0.00228028,0.00272162,0.00148960,-0.00604612,-0.00500814,-0.00434764,-0.00131959
-0.05263600,-0.01359078,0.04833446,-0.04650576,-0.01154693,0.04051477,-0.00606930,-0.01401515,0.01517710
0.01308336,0.00677750,0.00981786,0.01020904,-0.00548376,0.00115653,0.00230629,-0.02216867,0.00380447
-0.01767028,0.02393407,0.06427598,-0.03049264,-0.01282341,0.06360014,-0.03380738,-0.04415007,0.01919805
-0.03731809,-0.03469402,-0.01092250,-0.03152917,-0.03067171,-0.02446022,-0.00894970,0.00410315,0.00115437
-0.03115283,-0.00945676,0.02041519,-0.07491873,-0.03825191,0.02931435,-0.06395603,-0.03304230,0.00948726
-0.04429051,-0.00035245,0.04960158,-0.07671134,-0.02172134,0.04093490,-0.03880500,-0.01643058,0.02314101
0.04807341,0.01668649,-0.02345327,0.02779490,-0.00331100,-0.05089307,-0.02401181,-0.00489686,-0.01544929
0.03891098,0.05404316,0.02104274,0.05087661,0.04086622,-0.01563911,0.02225110,0.01059347,-0.03233116
-0.02453624,-0.02423867,-0.03830424,-0.01147350,-0.00279103,-0.01639053,-0.02671402,-0.02866224,-0.01459641
0.01631950,0.03235639,-0.00122052,0.00173652,0.01622001,-0.01203243,-0.01307610,-0.00877416,-0.02037591
-0.00240188,0.01471698,-0.00638186,-0.01975750,0.00383981,0.00312566,-0.03519757,-0.02112482,-0.01381107
0.01848700,0.01919638,-0.01494707,0.03350483,0.01504790,-0.00834190,-0.04221039,-0.02340059,0.01183879
0.00063275,-0.00351167,0.01125869,-0.02092846,-0.00577177,0.05703764,-0.00850362,0.01910800,0.04979644
-0.00300631,-0.00473571,-0.00718915,-0.00415955,-0.00948589,-0.00699697,0.00395375,-0.00187047,-0.00160047
-0.02370289,-0.01824879,-0.01349655,-0.00786011,-0.01060110,-0.01442806,0.00196769,0.00190746,-0.00501493
-0.00681155,-0.02313571,0.00297991,-0.00956646,-0.00482050,0.02327731,0.00323521,0.00385950,0.02396076
-0.01491985,-0.01262242,-0.01064184,-0.02425192,-0.00805031,0.00457695,-0.01846476,-0.01043951,-0.00237748
0.00638103,0.00836803,0.00343756,-0.00468858,-0.00208136,0.01379333,-0.00983419,-0.00018555,0.01579647
0.00856944,-0.00207331,-0.00348854,0.00305991,0.00245200,-0.00611484,-0.00563624,-0.00486094,0.00357418
-0.00678775,-0.00556406,-0.00448034,-0.00238776,0.00690775,0.00664170,-0.00749502,0.00216995,0.01283577
-0.03216000,-0.02609490,-0.03370896,-0.01573153,-0.02113347,-0.02185822,-0.02771349,-0.01998262,-0.02603781
0.01656767,0.01761770,0.00673711,0.02631128,0.04591953,0.00568581,0.02914342,0.02960307,-0.00652263
0.02071936,0.01442617,0.00353491,0.01566245,0.02906319,0.02339876,-0.00793863,-0.01536935,-0.01533360
-0.00746669,-0.02159332,0.00422237,0.00982311,0.00182424,0.01943508,0.02260263,0.01767984,0.02214754
-0.00446865,0.00279603,0.00352313,0.00226153,-0.00101411,0.00041276,-0.00197028,-0.00416689,0.00020695
-0.01053841,0.00146702,0.00902352,-0.03361630,-0.01380862,0.01198504,-0.06688497,-0.04647557,-0.00893592
0.05631128,0.05987246,0.04279467,0.05785443,0.02097225,-0.01053037,0.04187246,0.04384692,0.03440185
0.00157158,0.01000155,-0.01821415,0.01549960,0.00742897,0.00035964,-0.00693226,-0.00491563,-0.00012094
0.01304405,0.02759975,0.02710867,0.02846857,0.05551378,0.04708187,0.03951695,0.04218485,0.01248365
0.01899277,0.03669041,0.01820679,0.03827225,0.03596485,0.03524344,-0.03993770,-0.03370046,0.00113661
-0.00850691,0.00509287,0.02146287,-0.03761156,-0.02822124,0.00336110,-0.04706984,-0.02966139,-0.00658927
-0.07392834,-0.10508452,-0.05045927,-0.03149039,-0.05737675,0.03097942,0.00619179,-0.00545249,0.05264619
0.00062111,-0.01101642,-0.00849690,-0.00204526,0.01111954,0.02464625,-0.00328482,-0.00817565,-0.00121442
-0.02063239,-0.01087718,-0.00713400,-0.00783517,-0.00283218,-0.00741725,0.00222333,0.00127313,-0.00226995
-0.02859231,-0.02394845,-0.01708725,0.00108757,0.00209183,0.00919964,0.01070175,0.01102051,0.00628286
-0.01066746,-0.02178292,-0.00453384,0.00284051,-0.00182123,0.01729221,0.01289561,0.00547876,0.02516993
0.00444535,0.02768959,0.00957922,0.04068931,0.01054513,0.02253075,-0.03639273,-0.01228340,0.03869317
-0.00421503,0.00736527,0.01389908,0.04310371,0.01370889,0.01890321,-0.01917682,-0.01695617,0.03599168
-0.00127994,-0.00054780,0.00275865,0.00014247,-0.00270931,-0.00474421,-0.00191846,0.00078429,0.00197826
-0.00695883,0.01893207,-0.00690622,-0.01937113,0.02092691,-0.01165607,-0.01892264,0.00874846,-0.02720915
-0.00171622,-0.00271138,-0.00984737,0.00596692,0.01015051,0.00309218,-0.00110305,0.00523571,-0.00460091
0.00804138,0.00766099,0.00412352,0.01374371,0.02897277,0.01607682,0.02562989,0.03148393,0.01043297
0.01804113,0.01702353,-0.01080125,0.03690653,0.01485364,-0.00577421,-0.02368133,-0.01110449,-0.01245151
-0.03234848,-0.01919902,0.01602074,-0.03410086,0.00647332,0.05260637,-0.01597329,0.03581265,0.01422178
-0.01174486,-0.00536749,-0.02188539,-0.03021165,-0.01388744,-0.01058786,-0.05394555,-0.04889720,-0.03270156
-0.02282199,-0.02248991,-0.01679297,-0.00510049,-0.00096107,-0.00918733,0.00121132,0.01164528,-0.00470659
-0.00871260,0.00974671,0.01559987,-0.02661929,-0.01290536,-0.00287821,-0.04368666,-0.02256825,-0.00874031
0.00874909,0.02103430,0.02338492,0.01812655,0.02886413,0.02386651,0.01662212,0.02559296,0.02267417
-0.03443192,-0.03768606,-0.02800037,-0.01289374,-0.01286410,-0.00582094,-0.00557343,-0.00986077,-0.01017875
0.00014251,-0.00123316,-0.00197462,-0.00271322,-0.00138919,-0.00330865,-0.00106583,-0.00414103,0.00110443
-0.00443317,-0.00674608,-0.00818882,-0.00252703,0.00231585,-0.01197392,-0.00311284,0.00274954,0.00124674
-0.02371035,-0.01090407,0.00530676,0.01644795,0.02981338,0.04220780,0.01333947,0.03109835,0.01179568
0.00182354,0.00256254,-0.00184492,0.03009577,0.02271852,-0.00101655,0.01737049,0.00653241,-0.02173968
-0.00673717,-0.00857246,-0.00793070,-0.00080129,-0.00548651,-0.00357667,0.00152128,-0.00001399,-0.00123105
0.00057190,0.00743060,0.00928136,0.00503088,0.00446839,0.00439831,-0.00179058,0.00413737,0.00169617
0.01576949,0.00660189,0.00768394,0.02849820,0.02965301,0.02870659,-0.04969672,-0.01050826,0.03538778
0.00456696,0.00672636,0.00356366,0.01158354,0.00770273,0.00803794,0.00728249,0.00848051,0.00687836
-0.00740034,-0.00348203,-0.00915150,-0.00623977,0.00742001,0.02470760,-0.02756932,-0.01469931,0.01026893
-0.02007490,-0.00586512,-0.01056051,-0.01408447,0.01004917,-0.00068583,0.01476816,0.01928650,-0.00613118
0.01422315,0.01573126,0.01454760,0.01673674,0.01792803,0.02592080,0.01010677,0.01326910,0.02036612
0.04476494,0.05145207,0.00984424,0.02679758,0.00813355,-0.07736766,0.03127796,0.02174023,-0.04299011
-0.00470851,-0.00283824,-0.00269282,0.01594073,0.01838342,0.02817476,-0.00377906,-0.00146349,0.00046871
0.00955481,0.02725251,0.00275984,0.00041048,0.02963820,0.00833526,-0.03502212,-0.01448123,-0.01000641
0.00052686,-0.00468015,-0.00153383,-0.00091451,0.00308579,0.00358083,-0.00637458,-0.00079564,0.00057785
-0.02305975,-0.01675718,-0.01085176,-0.00821381,-0.00026388,-0.00021805,-0.02865729,-0.01117027,0.01983378
0.00374348,0.01166654,0.01126823,0.00512305,0.00884407,0.01834720,0.00887596,0.02345568,0.02465485
0.01321645,-0.00568852,-0.01831254,0.01580853,-0.02448500,0.00300786,-0.01590257,-0.00188502,0.00228669
0.00002200,0.00937621,-0.00371610,-0.02179540,-0.00840185,-0.02859372,-0.03692348,-0.03291594,-0.02696597
0.00393676,0.00837028,-0.00135877,-0.00273553,-0.01879598,-0.03833188,0.00566833,0.01395920,0.01966364
-0.02995440,-0.01302566,-0.02165443,-0.03682002,-0.02807610,-0.03354253,-0.02918930,-0.00135201,0.00590932
-0.05447984,-0.02800289,-0.00994640,-0.05683624,-0.00818312,0.02789460,-0.03916236,-0.01632430,0.01902898
-0.00263407,0.01918274,-0.05640661,0.00736779,-0.00156433,-0.01456320,-0.01311078,-0.04405993,-0.01207729
0.03901849,0.00569847,0.02390341,0.07187115,-0.00008227,0.00212065,0.09417025,0.04736139,0.00108136
-0.00984380,-0.00196039,-0.02048194,0.00381666,0.01294443,-0.02934452,-0.00846623,0.01519081,-0.04000888
-0.03290628,-0.00155958,0.00607770,-0.00667822,0.01223330,-0.00475458,-0.03446463,0.01407200,-0.01338657
0.04035189,-0.02466342,0.04735792,0.05307696,-0.08311728,0.04334182,0.06902387,-0.05391475,-0.03936010
-0.02404592,-0.00313285,-0.02329144,-0.01185149,0.05525348,0.02543906,0.00248945,0.01956990,-0.03996390
-0.00107633,-0.00302279,0.00188294,0.00795686,0.00450425,0.00185471,0.00484002,0.01164342,0.00884184
-0.02579037,-0.01784618,-0.00778396,0.00275773,0.00171497,0.00109652,0.00525993,0.00834499,-0.00183055
0.01859803,0.01404314,-0.00253292,0.00853273,0.02035323,0.01492247,0.00161604,-0.00722780,-0.01890182
-0.00449759,-0.00875101,0.01831588,0.01773431,0.00307767,0.00082008,0.03137856,0.01486633,-0.02088155
-0.01438106,-0.02847289,0.01972670,0.00183305,-0.01865869,0.02231436,0.00619985,-0.00003197,0.00987386
-0.00233161,-0.00043548,-0.00260144,0.00037840,0.00248540,0.00126555,-0.00187720,0.00180057,-0.00301052
-0.00361304,-0.00750093,-0.01243895,0.00693473,0.00650924,0.00952588,-0.00992413,-0.00453029,-0.00863391
0.00766046,-0.01480350,0.00848946,-0.01739788,-0.04459463,0.00285733,-0.00310151,-0.01513302,0.01748447
-0.05754454,0.00373491,-0.05365827,0.02468488,0.06752798,0.01835749,-0.04228280,-0.04300789,-0.03502985
-0.00227056,-0.01919761,-0.00997646,0.02745824,0.01149297,-0.01716057,-0.02062915,-0.03045166,-0.03582954
-0.00256749,-0.00707764,-0.03890431,0.00437006,0.01072295,-0.00837338,-0.01654580,-0.02229770,-0.03775165
-0.00063015,-0.00166326,0.00019042,-0.00356800,0.00028225,0.00380350,0.00264015,0.00058371,-0.00317074
0.00224512,0.00325010,0.01483577,0.00184171,-0.00263069,-0.02855018,-0.02123379,0.00916369,-0.05836143
-0.00691143,0.01109307,-0.04398505,-0.01845461,-0.00163130,0.00180167,-0.01899130,-0.03059904,-0.01653359
0.00300492,0.03547929,0.01767883,-0.00146281,0.03281292,0.03444953,0.01609810,0.04402625,0.03111729
-0.02128550,-0.00627867,-0.06988313,0.06293163,0.11409692,-0.00440475,-0.04794805,-0.00606542,-0.06829404
0.01788185,-0.02339673,0.00858095,0.01913250,-0.07688284,-0.06128322,0.02229912,0.03907148,-0.03793767
-0.00779252,-0.00437642,-0.00640167,-0.00744510,0.00097532,-0.03445966,-0.00498295,0.01155794,-0.04503236
0.01106857,0.03453389,-0.03155711,-0.01149717,0.05451461,0.05027101,-0.00836102,-0.01452274,-0.01906560
0.02287231,0.02079229,0.02154511,0.07029570,0.05634466,0.03362815,0.04786402,0.04270911,0.00515418
0.00655575,0.00141537,0.00208763,-0.00880402,-0.00225669,0.00551229,0.00132421,-0.00087586,0.00864633
0.00390839,0.01496523,-0.01146397,0.02809151,0.05480402,0.03246592,-0.00011250,0.02773204,0.01755637
0.02499522,-0.00677190,-0.01776427,0.03223189,0.00635250,0.00992905,0.02267563,-0.02195185,-0.02929738
0.05644039,0.01925875,-0.01997394,-0.03616884,-0.04787686,-0.01463787,0.03690312,0.01523018,-0.02108885
0.01795544,0.01522038,0.04432144,0.01750297,-0.04519335,0.06064794,0.01636152,-0.00932092,0.02030296
0.00473961,0.00362341,0.00242836,0.00209938,0.00348564,-0.00207133,0.00016522,-0.00061296,0.00419308
0.03442453,0.07336800,-0.04220081,0.07942930,0.12269069,-0.05404043,0.02304041,0.07282922,-0.06977157
-0.00477158,-0.02033161,-0.00066487,-0.01068604,-0.03600194,-0.01679247,0.00467782,-0.00020333,0.00692316
0.11759093,0.12768878,0.02925504,0.17686096,0.22212903,0.08604982,0.06616519,0.09550558,0.02475247
0.02785534,0.02919381,0.02859900,0.01518046,-0.03056987,0.02429778,0.04240574,-0.02417204,-0.00334108
-0.02289963,0.05685332,-0.10529750,-0.00755245,0.15277319,-0.05818086,-0.02207618,0.07351051,-0.08064154
-0.03607505,-0.02060959,-0.03130041,-0.00180407,0.00202705,-0.03850842,-0.03381155,-0.01272960,-0.04780548
0.00725354,-0.00819069,0.01616604,-0.00688585,-0.01979845,0.01598764,0.00507747,-0.00100817,0.02087479
-0.01142448,-0.00385742,-0.01439497,-0.00829395,-0.01956761,-0.01240788,-0.00528951,-0.03148445,-0.02896971
0.03656226,0.04362800,0.01910533,0.04565829,0.06551477,0.04760891,0.01781907,0.02468838,0.01576440
0.00575554,-0.01463103,0.02857202,0.00294887,-0.00999681,0.02278489,0.01180933,-0.01081168,0.01794281
0.00137074,-0.00183653,0.00213001,-0.00112895,0.00346530,0.00199354,0.00475414,0.00053364,0.00127710
0.00042769,0.01414926,0.00580052,0.00812891,0.00706487,0.01006612,-0.00199679,0.00779301,0.00418904
-0.01917300,0.08658750,-0.01841572,-0.04693921,0.06330870,0.03071217,-0.04896840,-0.03159407,-0.05355803
0.01903968,0.05409336,0.01551938,-0.00371416,0.03627115,0.00046837,-0.02740005,-0.00294791,-0.01483485
0.00588072,-0.00052087,-0.00186048,0.00429531,0.00118090,0.00174261,0.00634712,0.00343311,0.00431955
0.00682626,0.00734545,-0.00132846,-0.00147932,0.00416934,0.00318251,-0.00238315,-0.00013138,-0.00976692
-0.01659174,-0.03663167,0.04543929,0.00963421,-0.06873804,-0.02171283,0.09554607,0.05803444,-0.03728684
0.00035968,0.01081499,-0.00161702,0.00848045,0.00930037,0.00541610,0.00176955,0.00380643,0.00078862
0.01161150,-0.00038758,0.02773890,-0.01116799,-0.03602841,-0.01887858,-0.01291055,-0.03925009,-0.05669551
0.00781328,0.05235935,-0.04327412,-0.00498575,0.07985066,0.02330237,-0.07851131,-0.06241306,-0.02185123
0.01089990,0.01445856,0.00372820,0.00768399,0.00295768,0.00219031,0.00446566,-0.00695854,-0.00022269
0.01786577,0.05008790,-0.10143826,-0.01011610,0.05233314,-0.01583871,-0.04150882,-0.03443946,-0.01572507
0.01017444,0.00666810,0.01126671,0.00808224,0.00651847,0.00937766,0.00518433,0.00647220,-0.00431245
-0.02277475,0.00648765,-0.02306210,-0.00874430,0.01248569,-0.05018814,-0.03878904,0.01190239,-0.04235642
0.00125143,0.00094182,0.00697668,0.00556665,0.00267160,0.00098802,-0.00229142,0.00200265,0.00028159
0.00006701,-0.00189263,-0.00103514,0.00289332,-0.02953992,-0.00543077,-0.00351463,-0.02118376,0.00089526
0.01676301,0.01547686,-0.00751039,0.02388227,0.02311710,-0.00015116,0.02185710,0.01130439,-0.00628615
0.00382988,-0.00412648,-0.01917329,-0.04625458,-0.01858533,0.03546730,0.01490718,-0.05798654,-0.05543014
-0.02475377,-0.00796970,-0.00249275,0.01597196,0.00290535,-0.01824400,-0.01539003,0.02623103,-0.01422343
-0.00097414,-0.00554896,-0.01437288,0.01285865,0.00942834,0.02383471,0.00780707,-0.00887629,-0.00700762
-0.00924078,-0.00070670,-0.00662483,-0.01538497,-0.01526124,0.01270691,-0.01396959,-0.00553332,-0.00805306
-0.01113698,0.01117926,-0.00991367,0.04644860,0.06059174,-0.02716214,-0.02088744,0.03244818,-0.06539845
0.00800909,-0.02202715,0.02347961,-0.01237162,0.02577225,-0.01430820,-0.01972190,0.05556647,-0.01053584
-0.02748686,-0.03614885,-0.00533926,0.01068907,0.09527973,0.05272290,-0.00767172,-0.01722418,0.03825317
0.00406255,0.02439366,0.00912947,0.01310697,0.03851667,0.03524441,0.00214538,0.01421884,0.01410921
