0.01133551,0.00032569,0.08497841,-0.03714043,-0.03631324,0.09809344,-0.05306299,-0.01459409,0.12379339
-0.01988630,0.01502594,0.01336135,0.02910329,0.01351701,-0.01820837,0.02594024,0.01782819,-0.02333242
-0.00137062,-0.05526436,-0.09259752,-0.00116223,-0.04222225,-0.06974766,0.02892088,-0.03506421,-0.03076936
-0.00203642,-0.02991439,-0.00108478,0.00671613,-0.03070910,-0.00369782,0.03388375,0.01807722,-0.00191643
0.00014027,-0.01973538,-0.01360908,-0.00462486,-0.00531156,-0.02229572,-0.03818903,-0.03830959,-0.03614237
-0.00914404,-0.05294027,-0.04806218,0.00889191,0.00101056,-0.06871738,-0.01505744,0.01303236,-0.07715985
0.01680531,-0.06199155,0.00572643,0.01990888,-0.06973116,0.00228151,-0.01034049,-0.08261324,0.01990068
0.00072994,0.03701265,0.02823487,0.04764755,0.00518780,-0.03567937,0.06059330,-0.00865453,-0.02881196
0.02469713,-0.01213936,0.00011196,-0.01070319,-0.00641364,0.00393474,0.02712971,-0.00754878,0.01996999
0.00773473,0.01911749,-0.01748470,0.01649030,0.03065286,-0.05312750,0.00413288,0.01479861,-0.03289298
0.02535211,-0.00463238,-0.00014328,0.00629067,-0.01188109,-0.03440415,0.00080141,-0.00570766,-0.00635415
-0.02543731,-0.00149615,-0.01456060,-0.00519954,-0.00954499,0.00519086,0.02557248,0.02494291,0.00845236
-0.05593875,-0.00683485,0.02577765,-0.06385495,-0.01130551,-0.01927420,-0.06878134,-0.02590052,-0.04632346
-0.02498996,-0.03658905,-0.01624059,-0.05232378,-0.04431439,0.01387254,-0.07091207,-0.06483549,0.05152114
-0.02676379,-0.00404511,-0.00955542,0.00013623,-0.01279057,-0.00635465,0.00527398,-0.00911525,-0.01723483
0.00058468,0.02432333,0.02999044,-0.03092251,-0.04991119,-0.00985808,0.00415229,-0.02024564,0.01617564
-0.03832281,-0.03017965,-0.01080622,-0.02835901,-0.02800465,-0.04743553,-0.01549652,-0.02960721,-0.01860937
0.04977875,0.00795371,-0.08663949,0.05938748,0.03078584,-0.07528140,0.01683643,-0.02238536,-0.06352114
0.02556497,0.02690785,-0.05003381,0.01551141,0.00218963,0.00907923,-0.00970657,-0.03570652,-0.02756341
-0.00805128,-0.02248014,-0.01051652,-0.00057676,0.01128511,0.00182265,-0.00885107,0.01347756,0.02736376
-0.01989501,0.00242532,0.03327720,-0.00982889,-0.00589433,0.01980530,-0.02291788,-0.00675280,0.01893033
-0.01137936,-0.04475839,-0.09694152,-0.02457926,-0.04528480,-0.08930203,0.02774043,-0.01416609,-0.05418461
-0.00167961,0.00874080,0.03008846,-0.00007847,-0.00965285,-0.01319241,0.00258747,-0.01702350,-0.02989895
-0.00873780,-0.01863229,0.01238938,-0.04209377,-0.02648391,-0.03568235,-0.05208065,-0.02295096,-0.02908111
-0.02408246,-0.02025519,0.01687321,-0.04218231,-0.04882282,-0.02186546,-0.04219631,-0.05369297,-0.00682482
0.02951471,-0.01037942,0.03184503,0.01461201,0.00301050,0.01798680,-0.00844337,-0.02603955,0.00662089
-0.07480948,-0.05532982,-0.01799214,-0.04203732,-0.02627102,0.00239797,-0.03948164,-0.01784565,0.01303474
-0.06344792,-0.00737589,-0.04062730,-0.08422261,-0.02649580,-0.01680920,-0.07076086,0.00045596,-0.07301909
0.01751323,0.01704946,-0.01717511,0.00478421,-0.01070818,-0.03170825,0.00734738,0.00528369,0.03043455
0.03187239,0.02575389,0.00323698,0.02603040,0.01631143,-0.02037617,0.03531886,0.03895127,0.01960008
-0.01747407,-0.04629205,-0.04660005,-0.02967308,-0.05917383,-0.06023855,0.01778826,-0.04399173,-0.04231352
-0.04881008,-0.00522572,0.00871661,-0.05517356,-0.01996104,0.01376152,-0.01355604,-0.00642930,-0.03245050
0.03652356,-0.00006453,0.04925413,0.05354172,0.01474075,0.00999513,0.06318919,-0.02515985,-0.04861938
0.02539706,-0.01615443,-0.03653330,0.02715831,-0.02447973,-0.05637701,-0.00967851,-0.02993410,-0.03078135
0.00149449,-0.00454717,-0.00513540,0.00522729,0.01209300,-0.00000359,-0.00230584,0.01827923,-0.00812457
-0.00205005,-0.01259574,-0.00267373,0.01909599,-0.02823343,-0.01264371,0.01209989,-0.04576520,-0.02979294
0.00441482,-0.00139612,-0.01775269,0.00453098,0.00638976,0.00474013,-0.01365901,-0.00654888,-0.02026495
0.00345313,-0.02890085,-0.06701340,0.00074856,-0.05997047,-0.05567902,0.00800137,-0.03925692,-0.05784125
0.04213160,-0.00564559,-0.01615181,0.02278890,0.00685765,-0.00981139,0.05599086,0.02239617,-0.03529124
-0.01983891,-0.02142530,-0.07789531,-0.01018414,0.00020419,-0.05968950,-0.02186740,-0.00349913,0.02122417
-0.00997394,0.02347828,0.03985899,-0.01755768,0.00655547,0.02121626,0.00975022,0.03043769,0.02363746
-0.01572574,0.02004828,-0.00416395,-0.01323125,0.00674072,-0.02044245,0.00800381,0.00466310,-0.02328146
-0.02993399,0.15099224,0.25123250,-0.08734815,0.25087193,0.42614362,-0.00026897,0.16454019,0.29923561
0.00173973,-0.04745667,0.02829277,0.01219549,-0.03771953,-0.00215893,-0.00132615,-0.08311948,-0.04544758
-0.03808460,-0.00288774,0.00791391,0.03509329,0.03743794,0.01346206,0.04866597,-0.02210600,-0.00918671
-0.00319419,-0.01256536,0.00384789,-0.02174641,-0.01477652,0.01510956,-0.03315904,-0.03781678,-0.00027733
-0.03601397,-0.02558582,0.01135571,-0.02853985,-0.00791815,0.03031459,-0.02437670,-0.02382895,-0.00864164
-0.03551103,-0.03701994,-0.05790033,0.00633341,0.01218125,-0.00499235,-0.00472981,-0.03036559,0.00568896
-0.01014974,0.04450160,-0.00965523,-0.00110110,0.01242596,-0.05519725,-0.02625577,-0.03705240,-0.09401134
0.03746188,0.01919645,-0.03324142,-0.01666798,0.00111687,-0.01397896,-0.01108546,0.00518324,-0.00917178
0.00154655,-0.06486461,-0.10249384,0.01698388,-0.01344301,-0.12379216,-0.00080848,-0.01161199,-0.07984491
-0.03936071,-0.02903560,-0.04057347,-0.03599091,-0.04698595,-0.05853452,-0.02203008,-0.03545197,-0.05898298
0.05805419,0.02008793,-0.03861664,0.01626954,-0.01522539,-0.03272479,0.02675385,-0.00151318,-0.03141629
0.00760217,0.00847393,0.04858392,0.01451078,0.04859408,0.11147088,0.06982832,0.04108866,0.14547825
0.01057521,0.05028815,-0.00644084,0.00062966,0.03131475,-0.00853418,-0.00741631,0.00916886,-0.02503882
-0.00959226,0.00356874,0.04191183,-0.00917539,-0.02286549,0.00267940,-0.00443471,-0.03928006,-0.02473663
0.07730123,-0.00083322,0.03984218,0.08326097,-0.00542861,0.02443688,0.06594053,-0.02874140,0.00408957
0.03029307,-0.00295712,-0.05608535,0.02659508,0.00868364,-0.01514524,0.03768406,0.03500245,0.00477066
0.01918639,0.00889572,-0.01659518,0.00807878,-0.03252552,-0.09240758,0.02367395,-0.02418573,-0.05488938
-0.03446536,-0.02737344,0.00051853,0.00728560,-0.03367916,-0.03075791,0.03719616,-0.02700703,-0.01584576
0.01884837,0.02556830,-0.03042310,0.00803349,0.01729200,0.01533231,-0.02779587,-0.02213444,0.00899935
-0.02961873,-0.04455729,0.02728588,-0.03147782,-0.04996897,0.04176790,-0.05653604,-0.08098899,0.03796003
-0.00250810,0.04385219,0.07694366,0.01772217,0.04025573,0.03139585,0.01432837,-0.00335982,-0.04745600
-0.03054543,-0.03304815,-0.02190665,0.01500735,0.01738722,0.00150586,-0.00810020,-0.00212715,-0.02001294
0.02816660,0.02354918,0.04326076,0.02995971,0.00393929,0.03002258,0.03882242,0.00913934,-0.00750383
0.05166203,0.02360446,-0.00412944,0.01800544,-0.04823099,-0.03432082,0.05454020,-0.00807833,0.00930863
-0.01628711,-0.01385812,-0.00642048,-0.02366821,-0.01411098,-0.00025090,0.02946971,-0.00869366,-0.00396537
-0.00263155,0.01119365,0.02238354,-0.01714855,-0.01370605,-0.01747930,-0.03554554,0.00622764,0.01720604
-0.00466448,0.00078413,0.02137647,-0.02483780,0.01262032,0.01158566,-0.10271925,-0.03535161,-0.00492052
0.00576355,-0.02653342,-0.04503232,0.03622567,0.01447431,0.01521600,0.02716567,0.07133666,0.04899042
0.03456912,0.04826917,-0.03375284,-0.00552279,0.05157708,-0.04668677,-0.07623385,-0.01880918,-0.08030462
-0.01207122,-0.02875130,0.01834192,-0.02000355,-0.03971696,0.07676364,0.03247636,-0.00441411,0.03769184
-0.13021776,-0.08639498,-0.01694020,-0.05554242,-0.02244635,0.02859941,-0.07317861,-0.03252358,0.05279205
0.03884452,0.01131132,0.01011042,0.00814915,-0.00484276,0.01313731,0.05021873,0.00901834,0.03382156
-0.05779904,-0.08706522,-0.00336937,0.01341821,-0.01095518,0.06842440,-0.00016380,-0.01891877,0.04967218
-0.00881959,-0.00599864,-0.01575203,-0.01343656,-0.05271452,-0.03408449,-0.00797475,-0.03631894,-0.03431626
-0.02210940,-0.03264333,0.00770963,-0.00110687,-0.03778016,-0.02867709,-0.01326754,-0.03146097,-0.01241813
0.00162171,-0.04061359,-0.01816841,-0.03713794,-0.04978385,-0.06544153,-0.01612910,-0.03485048,-0.06747036
-0.05018336,-0.01676615,-0.02024844,-0.01667776,0.01897053,-0.01604037,-0.01930872,0.01034141,0.03763974
-0.02892815,-0.02147690,0.04795463,-0.00776252,-0.01310729,0.05281220,0.07155931,0.01751459,0.05040544
-0.02794735,-0.01978998,0.02403208,0.04592864,0.02619861,0.03731736,0.01826546,-0.01356041,0.00663310
-0.04835448,-0.06176415,-0.03411003,-0.03743558,-0.03336710,-0.01139111,-0.04569521,-0.06313448,-0.06886022
-0.00032993,0.04010685,-0.01905058,-0.02326013,0.01670296,0.00578351,-0.02992488,-0.02608482,-0.03321078
0.04939756,0.02592207,-0.01628404,-0.00714516,-0.00390876,-0.03118053,0.04242633,0.04413258,-0.00785490
0.01000047,-0.01496571,-0.01906860,-0.00492912,0.00314044,0.02384908,-0.00093052,0.00476050,0.02902238
-0.07601529,-0.03986203,-0.01214829,-0.03743234,-0.01395761,-0.02476385,0.01232467,0.03378106,-0.02080372
0.00027328,0.02046371,-0.02381680,0.01047611,0.01364952,-0.02771209,0.00664161,0.01383319,-0.02438672
0.04820891,0.01553118,0.09685746,0.03814429,0.01750437,0.08454891,-0.06567334,-0.03868343,-0.01101963
-0.00222693,-0.01021562,-0.01170515,-0.02345223,-0.03163543,-0.04029212,-0.01221270,-0.00126597,-0.01261878
-0.04015670,-0.03252050,-0.03248034,-0.04829701,-0.06491657,-0.04259585,-0.06187401,-0.06080617,-0.04568350
-0.01603865,-0.00657975,0.03151888,-0.04315078,-0.01638796,0.05161025,-0.06229756,-0.04433410,0.03417044
0.03980464,0.01812027,-0.03355624,0.03338553,0.00124141,-0.02722419,-0.01023503,-0.02025269,-0.01664477
-0.06394425,-0.05412064,-0.02353000,-0.01841184,-0.03216682,0.00775147,-0.01921287,-0.04651157,-0.00660869
0.06400926,0.07305659,0.07479983,0.00643915,0.07606352,0.05759459,-0.00052113,0.04812426,0.05434589
0.00562036,0.01141076,0.00902746,-0.05401291,-0.00777429,0.01929756,-0.06256297,-0.02098925,-0.00228622
0.03058003,0.03781712,0.01836183,-0.00858374,-0.02582362,0.01255964,0.00566015,-0.04511894,-0.00736871
0.05321730,0.02237858,0.02309865,0.00503716,0.01001981,0.01614628,-0.00098909,0.03055413,0.02807187
-0.01213905,-0.02136137,-0.00699240,0.01279712,-0.02692381,-0.01927277,0.02158272,-0.02240694,-0.01511410
0.06935648,0.03569463,0.03092542,0.00044562,-0.01975146,-0.03153756,-0.07252075,-0.03871137,-0.04473233
0.00688001,0.13579577,0.01679435,-0.01144299,0.07140940,0.06849636,-0.01423450,0.04990989,0.06889746
0.03147815,0.03787220,0.04741932,-0.00654643,0.00215364,0.06758910,0.04338425,-0.03004708,0.00307004
-0.01093729,0.00465742,0.01856159,0.01816113,0.01411114,0.03807617,0.01155780,-0.03128484,-0.01759597
-0.00074432,0.03037113,0.00428794,-0.06054088,-0.05100712,-0.02429590,-0.07576787,-0.05168515,-0.02695332
0.00035826,-0.01204485,-0.03017615,0.03897000,0.05738858,0.04760391,0.05004623,0.06899403,0.03958762
0.02532251,0.04408616,0.04676937,0.02089916,0.01945582,0.01893542,0.01199996,0.02597392,0.03266865
0.04329392,0.03997006,-0.01809351,0.04859222,0.02652623,-0.03138088,-0.02226961,-0.03226921,-0.01090056
0.06472597,0.02528894,-0.01470289,-0.00813519,0.01809502,-0.00056366,-0.01261491,0.02769876,0.03933161
0.02709434,-0.00676258,0.01569665,0.06349175,0.02055399,-0.01397327,0.03616967,0.01880294,0.00421634
-0.04199730,-0.07103502,-0.06056009,-0.02111799,-0.05692889,-0.04859727,-0.01813341,-0.06597552,-0.01420286
0.00444947,-0.00212338,-0.00122297,-0.03722349,0.00361076,0.03070758,-0.05328903,-0.01417060,0.01897322
-0.00766465,-0.03539786,-0.00530696,-0.02653109,-0.04327207,-0.01586470,-0.07237896,-0.09597578,-0.08116034
-0.03496015,0.01811965,0.05246552,-0.05885839,-0.01762938,0.01711974,-0.00206198,-0.02683704,0.00658388
-0.01738308,-0.03137413,0.00012434,0.00060538,0.03080866,0.04119696,0.02273119,0.04268924,0.05409204
-0.01497056,-0.03098336,-0.01776609,0.08702111,0.05714868,0.10055779,-0.04229739,-0.08508521,-0.02386039
0.05550484,-0.04434093,-0.02150393,0.03987238,-0.02098491,-0.01283244,0.04289394,-0.01459890,-0.00497947
-0.00481886,0.00531199,0.03096135,-0.04523085,-0.01559709,0.01320292,-0.00477723,0.03631486,0.01796103
0.09403478,0.05705373,0.01317251,0.05542698,0.05653417,0.01379038,0.02147772,0.04844107,0.02557377
-0.03319149,-0.03829983,-0.02944273,0.00087659,0.01713542,0.00971764,0.01285285,0.05865654,0.05010308
-0.06339370,-0.01892517,0.00285377,-0.05205788,-0.02377052,0.00072462,-0.02646098,-0.01020803,0.00593981
-0.02352950,-0.00426969,-0.00044340,0.00474599,0.01905506,0.01816944,0.00547273,0.00653665,0.00990999
-0.00912158,0.02173374,0.01453213,0.03402543,0.05164377,-0.01105205,-0.00543407,0.01791508,-0.03936778
-0.02537701,-0.03552281,-0.03469563,-0.01024812,-0.03974482,-0.00747749,0.06015098,-0.00766663,0.01532978
0.07268234,0.05374186,0.02479340,-0.07170600,-0.02571064,-0.01686916,-0.06686693,-0.05466983,-0.04603249
0.04887521,0.01044472,0.00401304,0.01401726,-0.03438633,0.00018149,0.02577221,-0.02040090,0.05172445
-0.03680905,0.00265659,-0.00055776,-0.05874402,0.00571887,0.03160444,-0.07332762,-0.03874462,-0.01629704
-0.02808303,0.01050240,0.01618877,-0.02179858,0.00059970,-0.02781383,0.00410732,0.02352105,-0.02319608
0.00525197,0.02956759,0.06457620,0.03613995,0.03206010,0.02141188,-0.00409453,0.00788208,0.01495393
0.10791707,0.06669295,0.04980678,-0.01885303,-0.03949382,-0.05481998,0.04249663,0.00000324,-0.03714270
-0.05322744,-0.05417687,-0.03031124,-0.05470234,-0.05083108,-0.00450330,-0.10343610,-0.07374784,-0.02606729
-0.01127539,0.01810016,0.00311978,-0.01800067,-0.03721792,-0.04866446,0.01983684,0.03888829,-0.03482949
0.01957843,0.07771382,0.04656333,0.03451916,0.03139403,-0.03688103,0.02091696,-0.04283709,-0.11999094
0.02567006,-0.02845868,-0.01832572,0.04834005,-0.00425622,0.01944883,0.01971476,-0.01261305,-0.00563456
0.01095758,0.00206004,-0.01417402,0.03124789,-0.00440567,-0.01922080,0.04472886,0.00221348,-0.00223199
-0.02122685,-0.05038780,-0.02546152,-0.00480479,-0.00476606,-0.02738223,0.05799663,0.05210019,-0.03771607
-0.05493885,0.02602374,-0.01876741,-0.00669307,0.04426059,-0.02165024,-0.04457789,-0.06562024,-0.04361203
0.03101407,0.00028316,0.00076992,0.04108734,-0.00531295,-0.02051467,0.08027378,0.03051755,-0.00533329
0.01254213,0.01432820,-0.05381234,0.04074791,0.03744669,0.02363299,0.06503583,0.08007544,0.06414831
-0.01643791,-0.01678674,-0.02079499,0.01111452,0.01032985,-0.00686489,-0.01010138,-0.03002547,-0.02966667
0.00869255,-0.01187027,-0.02180475,-0.01739071,0.00436374,0.01872276,-0.03534995,0.00427621,0.00468076
0.00640702,-0.00767875,-0.02417085,0.02276588,-0.04407914,-0.04352024,0.04418064,-0.04714426,-0.01107941
-0.01291723,-0.00987786,0.00292856,0.00602871,0.01255745,0.01452935,0.02434569,0.01969021,0.02337589
0.02661086,0.05002264,0.01210240,0.17167667,0.21514316,0.07485607,0.03482360,0.08090407,-0.02956491
0.03389031,-0.01277892,0.00364764,0.01743267,-0.01226629,0.04035661,-0.04276304,-0.06906514,0.02762878
0.04627563,0.09270583,0.04881787,0.05850868,0.00411175,-0.02411671,-0.05780037,-0.02531039,-0.01821988
0.00989317,0.03797701,0.04884906,0.06984752,0.06230239,0.02888909,0.02866764,0.05039566,0.04021228
0.01383718,-0.02391649,0.01146285,0.03589898,0.02770573,0.04474122,0.01429340,0.00958515,0.03300985
0.04687920,-0.01513205,-0.00117498,0.06635494,-0.07634547,-0.05440503,0.05237898,-0.08163685,-0.04178776
0.05791866,0.02079443,0.03495674,-0.02002882,-0.05759703,-0.09468006,-0.10157093,0.01865802,-0.01902013
0.02227212,0.05998300,0.00011136,-0.02495076,0.03817296,0.00920544,-0.03157065,0.01528280,-0.01633989
-0.04736457,-0.09333986,-0.10493699,0.02701974,0.00338652,-0.04590397,0.06465097,0.02626731,-0.03918872
0.03002240,0.00390589,0.01641908,0.03861409,0.01012168,0.04969309,0.02741257,-0.01878575,0.01509500
0.01633058,0.01556225,0.00543116,-0.03598641,0.02379291,0.00213424,0.02917405,0.06261499,0.00550341
-0.02981073,-0.02306229,-0.01886410,0.02057962,0.01868566,0.04235625,-0.01293769,-0.00173278,0.04049664
-0.03609919,0.00082030,-0.00712218,-0.06664094,-0.02826909,-0.02304807,-0.03326683,-0.02302768,0.07025082
0.04127314,0.05382115,0.02856653,0.02187688,0.05680641,-0.06523922,0.01928565,-0.01828706,-0.06324582
-0.04685329,-0.06664862,-0.09325538,0.00780958,-0.03327133,-0.04799457,-0.03736897,-0.05431857,-0.01150841
-0.06449313,-0.09959556,-0.10634933,-0.04031885,-0.04497270,-0.03624235,-0.05119530,-0.06655106,-0.06830894
-0.04184229,-0.01736375,-0.00792901,-0.00402238,0.02401388,-0.00655577,-0.04742490,0.00885423,-0.02972259
0.02023569,0.01650843,0.03309416,0.03431602,0.02715085,0.05777114,0.00028266,0.00017877,0.02775995
0.10367478,-0.00260065,-0.00865453,0.05443561,-0.01232631,0.00623489,0.04558110,-0.01984125,0.06375533
-0.02294844,-0.04068134,0.01353356,-0.02000370,-0.03517427,0.02863310,-0.05742367,-0.01856091,0.05003323
-0.01860474,-0.02490831,0.04552908,0.05119393,0.01757013,0.03517248,0.06749567,0.06348836,0.01985820
-0.00154565,0.06222334,0.01714939,-0.03001175,0.00104650,-0.02006636,0.00713983,0.02711034,-0.00924788
-0.00578320,-0.02048597,-0.03861361,0.00615946,0.06962091,0.02388776,-0.00088239,0.01572773,0.05083968
-0.05807613,-0.04837418,-0.05793587,-0.00276871,-0.00114967,-0.01282891,0.03990734,0.04226499,0.02260286
0.01579445,0.01607099,-0.00535807,0.03050765,0.00521280,0.00082196,-0.00352651,-0.02475828,0.03503592
0.09039901,0.01443840,-0.00781150,0.07898402,0.02832888,0.03861966,-0.00985898,-0.03338820,0.00847560
-0.04866323,-0.03237170,0.00668109,-0.01216861,0.01338534,0.03234486,-0.03000299,-0.00632952,-0.00455921
0.01398434,0.01030661,-0.02128938,0.00982377,0.00460703,-0.02651313,-0.01415166,-0.02118366,-0.04027902
0.06782566,0.04067650,0.01575750,0.06820204,0.04653469,0.02803658,0.04227890,0.01171128,0.05087682
-0.01195789,0.01756657,0.02984929,0.06710681,0.12401665,0.08360474,0.01202619,0.05002229,0.02203840
-0.01503691,0.00921978,0.00907667,-0.04546438,0.00214927,-0.02993933,-0.00053057,-0.00242897,-0.06805453
-0.07051270,-0.03054968,-0.02813527,-0.03531242,0.02855422,0.04653643,-0.04595375,0.00493320,0.04132915
0.04378235,-0.04061820,-0.02495348,0.01810455,-0.05265138,-0.04576951,0.01734627,0.00642306,-0.02272405
-0.01863701,0.03111217,-0.00140387,-0.05065025,0.02659961,0.01054407,-0.05030811,-0.00380622,-0.00149975
0.01445552,-0.05321268,-0.04869602,-0.08308046,-0.02774662,-0.06573137,0.02872259,-0.00862727,-0.04915677
-0.02088651,-0.00383645,-0.00453822,-0.05262301,-0.04127641,-0.02436322,-0.02837580,-0.03435061,0.00542391
0.00101008,0.02127789,0.02976078,0.04552219,0.02847117,0.02159924,-0.00637939,-0.04289256,-0.05996348
-0.01786451,-0.03644333,0.00333046,-0.04302317,-0.03962936,0.00028533,-0.01251291,-0.01193706,-0.01866473
0.02888689,0.03677091,-0.03467714,0.05259568,0.00517486,-0.07347780,0.06733990,-0.00672325,-0.04125100
0.02305757,-0.00301460,0.01035423,-0.01895756,0.01092169,0.00627457,-0.02247389,-0.02808008,-0.05768578
-0.03036853,-0.07745487,-0.06084409,-0.01316201,-0.05901177,-0.06685533,0.01330111,-0.01666583,-0.03021269
0.01745233,-0.01522847,-0.03746825,0.00049447,-0.02584225,-0.04727333,-0.01679310,-0.00654610,-0.02131867
0.04880119,0.03068337,0.04943519,0.00086988,0.03057372,0.04222497,0.00280510,-0.00030136,0.00793321
-0.04253431,-0.03272355,-0.00687980,-0.03558928,-0.01234718,0.00441714,-0.04131179,0.01728442,0.01491166
0.00171328,0.01046801,0.04784361,-0.01575839,-0.00004276,0.01546059,-0.00887060,0.02711870,0.01988019
0.02299503,0.04553017,0.00303439,0.04257587,-0.02161109,-0.01204271,-0.01347703,-0.05473036,-0.07935038
-0.04828662,0.03366718,0.02281897,-0.04136186,-0.00867099,-0.00326891,0.00793426,0.06950171,0.03187636
0.04178972,-0.04823976,-0.02472311,0.00220129,-0.00514366,0.02043447,0.00463739,-0.00774463,-0.03567164
-0.03947917,0.01029608,0.06619245,-0.03593729,0.00779133,0.01815093,-0.09102450,-0.08006210,-0.06176154
0.02465561,0.03767622,0.06332764,-0.01872908,-0.03985450,0.00467516,0.03054199,0.01404218,0.03112170
0.04035096,0.01512748,-0.01360178,0.01363081,0.02833020,0.03622307,-0.08814211,-0.06268708,0.00008888
0.02994258,0.02670257,0.01786065,0.05762034,0.06016003,0.04714615,-0.02612825,-0.01262174,-0.00522038
-0.00282285,-0.02762762,-0.00888774,0.01431806,0.11472040,0.14417443,0.03131703,0.08588930,0.00327518
-0.00201951,0.01327296,-0.01109184,0.01061722,0.01510226,-0.00067929,-0.03267600,-0.01272005,-0.00929703
0.07133188,0.05933134,0.01073668,0.00458712,0.02014341,0.00168490,-0.04519290,-0.02304667,-0.02886449
0.01657549,0.00354138,0.02821456,0.03788613,0.03567503,0.02135591,-0.03493214,-0.01804331,0.02109683
0.03415124,0.01220822,0.03909191,0.01558608,0.00215172,0.03775729,0.00574769,-0.01107598,-0.00208484
-0.02555161,-0.00395368,0.01635479,-0.06724647,-0.06047213,-0.01702820,-0.09771667,-0.04945316,0.00395036
0.04767816,0.02406721,0.01697294,-0.00592797,0.01901272,0.02676712,-0.01562971,-0.02518672,-0.04221293
0.01809229,0.02079191,0.02139650,-0.00242723,0.01278225,0.03507944,-0.01746642,-0.00289441,0.00134582
0.00769411,-0.02194992,0.00912147,0.06197205,0.04354675,0.05987570,-0.01444508,-0.04220914,0.00937920
0.00212521,0.04269687,0.03295252,-0.03177174,0.03466133,0.03168302,-0.09753180,-0.06583247,-0.04241887
0.01708864,-0.02883770,-0.05426531,0.02145646,0.01900043,0.03577080,-0.00562475,0.00748702,-0.00260579
0.03764500,0.03009648,0.03204587,-0.02646916,-0.03088960,-0.01033374,-0.06841820,-0.05541780,-0.02898204
-0.08368517,0.06045803,0.05722810,-0.00628875,-0.00059160,-0.02727805,-0.05090894,-0.03947274,-0.05246634
-0.03350569,-0.01730695,-0.01182281,-0.04000169,-0.01250498,-0.01646547,-0.03396744,-0.02443049,-0.04489630
0.03026773,0.08306003,0.03789423,0.00002649,0.04219345,0.02950762,0.02524172,0.01573805,-0.00426439
-0.00017774,0.01050404,0.03027209,0.07868891,0.01964786,0.03401617,0.05710347,0.05535635,0.05156929
0.00888038,0.03875886,0.06032147,-0.02873654,0.00214427,0.00575612,-0.00381138,0.01396046,0.03176327
0.01957543,0.00078234,0.00708142,-0.03261429,0.00361241,0.05121112,-0.02739118,-0.03811057,-0.04129468
-0.01194724,0.04982036,0.07137399,-0.02189667,-0.02172114,0.02489348,0.02352318,0.01127410,-0.01760613
-0.01230496,-0.02484445,-0.03211080,-0.00619463,-0.00331119,0.00734051,-0.05239669,-0.04469758,-0.01504032
0.02234382,0.00914167,-0.01396421,0.03947774,0.03041919,-0.00810160,-0.04298672,-0.03043914,-0.04761951
-0.02379330,-0.01180643,0.03116469,-0.02565574,0.01907221,0.03001175,-0.05443402,-0.02165797,-0.01646400
0.02388249,0.04875715,0.06222269,0.03545681,0.01541246,0.03332342,-0.03547822,-0.04621661,-0.02592474
0.00268878,0.01181574,0.00985065,0.02352124,0.03187397,0.03495693,-0.01270336,0.01228882,0.00565760
0.00059861,0.03124743,0.04677656,-0.00449062,0.01025110,0.02017000,-0.04336033,-0.04486425,-0.02664465
0.00422876,0.03596715,0.01254706,0.05829871,0.04490940,0.02902311,-0.05130331,-0.05246378,-0.02848306
-0.02310810,0.00611299,-0.00824184,-0.00430401,0.01998453,0.04138207,-0.06017570,-0.02964285,-0.03009502
-0.01292136,0.00883474,0.01057888,-0.02510487,-0.02143597,-0.02432043,-0.00958172,-0.01090036,-0.02124131
0.00811484,-0.01078843,0.02895324,-0.02025098,-0.04555824,-0.02350782,-0.05750634,-0.09010467,-0.05705276
-0.01348696,-0.01171870,0.02958037,-0.04104194,-0.01006268,0.01033372,-0.05311241,-0.04829687,-0.04803834
0.04094472,0.03440075,0.04230166,0.05211087,0.04666695,0.03343456,-0.02110524,-0.03746599,-0.03777148
-0.03015090,0.00320461,0.06490334,0.00033454,0.04211982,0.08122200,-0.05821381,-0.00065553,0.07189336
-0.04270592,-0.04638681,-0.01098137,0.04357526,0.09157649,0.10938114,0.04376090,0.01797383,-0.02325464
0.01564922,0.00715047,0.00354527,0.02631782,0.00587888,-0.00524252,-0.04841053,-0.02963321,0.01003990
-0.00090844,0.00126073,0.02859158,-0.00034730,-0.04499545,-0.01940369,-0.00679496,-0.04233038,-0.02633966
-0.03580511,-0.04384001,-0.01214394,-0.02179367,-0.03614650,-0.02113434,-0.01620468,-0.05434248,-0.06393274
-0.01931344,-0.00830180,-0.01666260,-0.01143341,0.03049713,0.02286042,-0.05908403,-0.02751328,-0.03119124
0.02649411,0.04279917,0.02696809,-0.01150370,-0.01326058,-0.01789484,-0.04402502,-0.04470199,-0.05382309
-0.01929712,0.00089132,0.02378507,0.01839000,0.02584897,0.05585338,-0.06163830,-0.07570699,-0.02137040
-0.02517179,-0.00375320,0.01439322,-0.00353147,0.00939706,0.00261760,-0.03327120,-0.01319378,-0.02520081
0.00924825,0.00861897,-0.02703108,0.01769117,-0.01426536,0.00167843,0.00549134,-0.03548519,0.02606232
0.04372729,0.06684649,0.00519193,-0.01012099,0.09465840,0.00087783,-0.11191895,-0.06827658,-0.10608247
-0.04229474,-0.05679285,-0.05072320,0.07180624,0.06181083,0.05153092,0.00467585,0.00814441,0.03449158
-0.01662759,0.00154725,-0.02011782,0.04785937,0.06092486,0.03732615,-0.02043861,-0.04193343,-0.02751125
0.03591046,0.01849192,0.05026707,0.01349009,-0.00199642,0.00773045,-0.02869611,-0.04039060,-0.03412591
0.01542311,0.02240736,-0.02191809,-0.00734247,-0.01003680,-0.00322149,-0.05750390,-0.05357154,-0.02347201
-0.03040984,0.01035114,0.01504021,0.11102541,0.06654830,0.02391017,-0.05258821,-0.06651052,-0.03726261
0.04967298,0.00733027,0.03423194,-0.00018070,0.01545199,0.05160537,-0.03727790,-0.05472650,-0.06072744
-0.02505842,-0.01668243,-0.01684536,-0.01950086,-0.02554441,-0.01513172,0.00460965,-0.02311978,-0.04288859
0.06399209,0.01888498,0.02907729,0.06086791,-0.03387693,-0.03679474,-0.01271032,-0.09709977,-0.08242673
0.00311824,0.03235288,0.04869927,-0.04660960,-0.04876233,-0.03288398,-0.05799566,-0.04566950,-0.04101888
0.03121033,0.04614780,0.06217263,0.00183735,-0.02303034,-0.00321885,0.01511733,-0.02190655,-0.01026510
0.01061372,-0.00162902,0.01704567,0.01872812,-0.01466596,0.00595099,-0.02777874,-0.04727937,-0.03776705
0.00866235,0.01853630,0.00045803,-0.00716394,-0.02610867,-0.05542898,-0.01117072,-0.02563989,-0.06679476
0.00603551,-0.00756459,-0.01716956,-0.01123751,-0.01303339,-0.02054373,-0.01921029,-0.01447533,-0.00978945
-0.01643476,-0.03793492,0.00876582,0.02404386,0.00990473,0.03323786,0.00190855,-0.04398857,-0.03658507
-0.01063844,0.02002621,0.02793724,-0.02130351,-0.01908678,-0.01167963,-0.05050420,-0.02695856,-0.03485790
0.01835529,-0.01133633,-0.02838484,-0.04199434,-0.00188384,0.00439154,-0.05824856,-0.08905815,-0.10094821
0.06332263,0.04877280,0.05284949,0.02950175,0.05421391,0.06722021,-0.00201535,-0.03988816,-0.02289211
-0.03237526,0.00016291,-0.01421201,0.00154634,0.05162963,0.03952745,-0.05915200,-0.06454847,-0.06959800
0.00506473,0.00335549,-0.01078374,0.01527834,0.02008297,0.02889778,-0.04904309,-0.04706227,-0.01380394
0.00638251,-0.00355703,-0.01621465,-0.03689384,-0.02840626,-0.02350307,-0.01758410,-0.04154431,-0.04953980
0.01399987,0.03773085,0.03587655,0.03787416,0.04152061,0.01099809,0.01771311,0.01257035,-0.01567146
0.03659412,0.00783550,0.00536339,0.03864487,0.00699237,-0.00231747,0.01995083,0.00593960,0.04156201
-0.01921991,-0.01776845,0.04289143,-0.03186332,0.06459627,0.04095753,-0.01038735,0.00844716,-0.01831265
-0.00294463,0.04176993,0.00700485,0.01661952,0.04050389,0.01783169,-0.04133864,0.00583342,-0.00911684
0.03388062,0.01463165,-0.02555621,0.03879594,0.03295639,0.01242538,0.06428518,0.03396840,-0.01157646
0.05439296,-0.00319905,0.00569535,0.05679264,-0.02814656,-0.03499534,0.07823771,0.00475933,-0.01126054
0.00252781,0.04169721,0.02135897,0.02133561,-0.00155102,-0.03048796,0.05692670,0.01550720,-0.02903026
0.07957361,-0.07811382,-0.07289610,0.12445843,-0.08176345,-0.03121594,0.09027977,0.00898812,-0.04545487
-0.04273722,0.04902819,-0.00410845,-0.05036377,0.04880190,-0.05592000,0.02047070,0.03639135,-0.05448962
-0.01006568,-0.03991532,0.00131017,0.02264093,0.00520673,0.01926688,0.00706258,0.01786014,-0.00166810
0.05388977,0.04608257,-0.03337555,0.02903189,0.04491714,-0.01910730,-0.00405415,0.01935745,-0.03210583
0.08613274,-0.00444827,-0.02070034,0.09719562,-0.02449643,-0.04808238,0.05194880,-0.01615659,-0.01988513
-0.01076732,0.01903055,0.03847627,-0.04216764,0.06427988,0.01556260,-0.02633459,0.06980943,0.07417878
0.05049380,0.01058138,-0.00723617,0.00139915,-0.03204003,-0.01204272,0.04415641,-0.00945717,-0.04049908
-0.07136850,-0.03100394,-0.08025575,-0.05732492,-0.00867441,-0.06676453,-0.03537107,-0.00279541,-0.04154858
-0.00440633,-0.05401193,0.04131234,0.04504187,-0.03338853,0.04588339,0.05934549,-0.03923300,-0.01352211
-0.04880093,-0.06828847,-0.02966825,-0.08611920,0.01876809,0.01053130,-0.07111721,-0.00168404,-0.03571362
-0.02976941,-0.00955712,-0.07478214,-0.04382346,-0.01238036,-0.01195247,-0.02212558,0.00622859,-0.04474669
-0.01143029,-0.00810971,-0.01729334,0.00001362,-0.04634561,-0.04095609,0.03391928,0.03180706,0.01808572
0.02171257,0.04994098,-0.03752413,0.01121793,0.06827391,-0.08836172,0.01192468,0.00562961,-0.10952216
0.05959488,-0.00330952,-0.00193592,0.07355832,0.01378045,0.03330756,0.07637800,0.03988412,0.08628170
-0.00685340,-0.02638127,-0.03957814,0.01959160,-0.01177478,-0.02405545,0.01970613,0.01064835,-0.01228109
0.01860054,-0.00674382,-0.08946164,0.04281572,0.00698808,-0.06371139,-0.02579946,-0.02473695,-0.06309108
0.03850419,-0.00132480,-0.02236060,0.04597864,0.01575149,-0.01513587,0.04083963,-0.00956972,-0.02040079
-0.04645359,0.06534818,-0.00545848,0.07812793,0.07857686,0.01283847,0.07133743,0.01439400,0.01776694
-0.07241079,-0.00410814,0.00272648,-0.08540256,-0.00981606,0.00801451,-0.08658580,0.02047971,-0.01578901
-0.06361362,-0.00392374,-0.06588726,-0.01517623,0.03710476,-0.01366422,-0.01052077,0.01191230,-0.04308023
-0.05577887,-0.03511925,-0.03806815,-0.04816641,-0.06937475,-0.05029593,-0.12462070,-0.08647078,-0.05304772
-0.00992794,-0.02222991,-0.01022386,-0.02474304,-0.01604126,0.01736301,-0.01206908,0.00537986,-0.00552878
0.05218456,0.00366796,-0.01201086,0.03860788,-0.00836366,-0.02303798,0.00308488,-0.02449097,-0.04085253
-0.04048794,-0.01419595,-0.02364121,-0.01508184,-0.02182634,-0.05744088,-0.01344395,-0.01428550,-0.02958983
0.03912314,-0.02806837,-0.00069229,0.07495819,-0.02384065,-0.02724637,0.03341889,-0.04127843,-0.01738243
0.03219564,0.02537000,-0.01945441,0.03409603,0.03323144,0.00446212,0.00892646,0.01965099,-0.00850285
0.03401782,0.00429255,-0.00882556,0.00471809,-0.01644122,-0.02966728,-0.04753737,0.01407641,0.01917452
0.00037003,0.05875263,-0.00381049,0.00314294,0.07681192,-0.01878017,-0.00038415,0.01827288,-0.03722658
0.05501880,-0.02108297,-0.02536860,0.06462295,0.01015821,-0.00622663,0.05283299,0.02439113,-0.01424581
-0.02618863,-0.01849190,-0.00278722,0.05537772,0.02822210,0.03521886,0.12430336,0.05435370,0.00701847
0.03776311,0.03508485,0.00075406,0.00743914,0.03492726,0.00256835,-0.01041396,0.05346498,0.00462455
0.03762849,0.00690057,-0.04486331,0.05451616,0.03075331,-0.01414308,-0.02169766,-0.01934361,-0.03645578
-0.02583244,-0.04109089,-0.07414455,-0.01436222,0.00109007,-0.03233515,-0.07409069,-0.02331970,-0.07031018
0.03109358,-0.01240710,-0.05821994,0.09170678,-0.00215883,-0.02604508,0.03700042,-0.00934973,-0.04336881
-0.01763792,0.01206421,-0.05223756,0.02551002,0.01941480,-0.02912512,0.02625280,-0.00274219,-0.02179980
0.02255288,-0.02753476,-0.00557268,0.05186937,0.00339225,0.05032310,0.03331344,-0.00894016,0.07305528
0.00346309,0.07437301,-0.06683619,0.05896425,0.04202543,-0.12323146,-0.02239762,-0.03062066,-0.07314523
0.09199870,-0.00203306,-0.02906222,0.06704967,-0.02784390,-0.01191423,0.03495909,0.02504229,0.00393997
0.03815344,0.00043738,-0.03620883,0.03371574,-0.02188519,-0.01088149,0.00159994,-0.00725079,-0.01028046
0.02320178,0.03407842,-0.01876066,0.02061710,0.06248638,-0.00667395,0.04795514,0.04029968,0.01353703
0.03258970,0.05501946,-0.02059063,0.03206615,0.01801127,-0.03538348,0.01007008,0.01494998,-0.00762540
-0.04826901,-0.00939121,-0.07792421,0.07169168,-0.00941704,-0.06991134,-0.04177711,0.02243449,0.00514542
0.00073031,-0.04669541,-0.04671070,-0.01790274,0.00633077,-0.04418676,-0.00470869,-0.02293330,-0.05405401
-0.06609710,-0.01661973,0.00527010,-0.03815165,-0.02224546,-0.02333700,0.03184093,-0.00774867,-0.02496884
0.07734184,0.14511043,-0.08061776,0.10360142,0.06064830,-0.10955010,0.08904129,0.05412536,-0.02636884
0.03847672,0.02190810,-0.06852108,0.09341349,0.03689350,-0.08102073,0.09269372,0.01610510,-0.09608362
-0.03143982,0.02644824,0.01286260,-0.01036961,-0.01823413,-0.04877354,0.06070091,0.03547026,-0.02605871
0.07563443,0.06101678,0.00293123,-0.03697915,-0.01140772,-0.04176408,-0.03681439,0.01943340,0.01190756
0.04341641,0.02640248,0.02705546,0.01160158,-0.02109819,-0.01131854,0.01558837,-0.02162182,-0.05079574
0.04309437,0.03342600,0.02359432,0.02326302,0.00508563,0.03614777,0.01185431,0.00938805,-0.01477312
-0.05103904,0.00314043,-0.04123754,-0.03285000,0.01298252,-0.06692085,-0.02197285,0.00940450,-0.04664534
0.00945317,0.00738976,-0.04261907,0.06267084,0.00847430,-0.02932520,0.03475161,-0.03102079,-0.04578624
0.03301492,0.02926052,-0.03033460,-0.01606218,0.02420651,-0.05337364,-0.01047936,0.03583964,-0.07604923
0.00866809,-0.00121589,0.02432391,0.01098816,0.02230108,-0.00057217,0.02516560,0.03905461,0.00730715
-0.10705511,-0.00609291,-0.05456380,-0.10503478,-0.02421950,-0.06619158,-0.12297697,-0.05269690,-0.05367442
0.04492590,0.01801357,-0.04393549,-0.03092656,-0.02772461,-0.05746377,-0.03658984,-0.01830958,-0.06883716
0.04832653,-0.00114919,-0.05509181,0.03609232,-0.02395124,-0.05074317,0.07666349,0.02550839,-0.01030363
0.05010675,-0.00591393,-0.01997571,0.03095254,-0.03168534,-0.02573392,-0.01824752,-0.03750237,0.00094736
-0.03179052,-0.01737275,-0.03629549,-0.01191680,0.01502860,-0.02994972,-0.06557750,-0.03012822,-0.05153788
0.00360402,0.01033537,-0.02200392,-0.03278608,0.06136105,-0.00199631,0.03562932,0.02419939,0.06390564
0.01723683,0.03094127,0.05627934,-0.00249657,0.01628554,-0.01349528,-0.06327299,0.06213447,-0.01644950
-0.02179917,0.00345772,-0.04698211,-0.04918933,0.02049233,-0.01832094,0.03946322,-0.00782127,-0.00554097
0.03735275,-0.04347711,-0.00804346,0.09343700,-0.03693154,-0.07188211,0.04845619,0.00541286,-0.02805970
-0.04757584,0.01879756,-0.00195200,-0.00077048,-0.03249781,0.01526843,0.07371525,-0.03656723,0.01995832
0.07902739,-0.07612166,0.04483436,0.17799379,-0.12532194,0.00581854,0.21157652,-0.01890397,-0.04298038
-0.01660520,0.09587154,-0.01234949,-0.05389354,0.01996614,-0.02368900,-0.04470384,-0.04060167,-0.00675583
0.01482588,-0.05118645,0.00997678,0.05015573,-0.03757785,0.00852623,0.06153575,-0.02691701,-0.06216274
0.05867334,0.02930355,0.03305278,-0.02671310,-0.04026520,-0.01205492,-0.02623528,-0.01256569,0.01577743
-0.03663652,-0.04740063,0.01781157,-0.02738198,-0.08175994,0.00664075,-0.02753179,-0.02726412,0.02616446
0.01152357,-0.02756240,-0.05212256,-0.02232883,0.00067681,-0.04373555,-0.00928411,-0.00225547,-0.04492654
-0.05013888,0.00503648,-0.02464345,-0.03494388,-0.00013745,-0.01971482,0.05398630,0.00433816,-0.09518819
-0.09376568,-0.10642081,-0.03950815,-0.01832200,-0.05232877,-0.04108664,-0.00014947,-0.02301513,-0.02100432
0.04881619,-0.04675366,-0.05848046,0.08592008,-0.01221749,-0.03413366,0.07670203,0.01535058,-0.02990950
-0.02594841,-0.02200205,-0.02359687,-0.07202197,0.00957929,0.00089724,-0.03793544,0.01784749,-0.01666045
0.09570609,-0.01414036,-0.05135209,0.07975176,0.01469453,-0.00811134,0.01146170,-0.04116479,-0.04726349
-0.04448310,-0.03634272,0.00015143,0.00896558,-0.01583359,-0.00743479,-0.02817327,0.02264703,-0.00662216
-0.02090375,-0.02649209,0.01013082,-0.03603421,0.12079982,0.01420469,-0.07121376,-0.04149823,-0.03142537
0.06257004,0.06698956,0.03166518,-0.01076374,-0.01670665,-0.04383481,0.07383744,-0.00059527,-0.05057966
0.00411792,-0.00899014,0.02018719,0.00613430,-0.02680796,-0.01068651,-0.01253755,-0.05036281,-0.03416503
0.00767887,-0.03250140,-0.05321601,0.02433708,-0.04601333,-0.06731021,0.03729680,0.01053576,0.01278717
-0.02788815,-0.01454290,0.00092176,-0.01173462,0.00099090,-0.01304836,-0.02726160,-0.00542556,0.01760089
-0.00071237,-0.00660582,-0.05589498,0.02913368,-0.05634645,-0.03608228,0.02361377,-0.03229783,-0.00218439
-0.03104649,-0.01137008,-0.00379943,0.01421712,0.03159523,0.01227211,0.03561100,0.07274873,0.02290257
-0.00021491,-0.01368661,-0.03856445,0.05043481,0.01590716,0.01277783,0.02930233,0.01963292,0.01298954
0.02479794,-0.02948165,0.00255002,0.10363428,-0.01030504,0.05907720,0.08442152,0.05647505,0.10202102
-0.04838966,0.03640711,0.01903362,-0.07548463,-0.00077726,-0.00733147,0.00191984,0.03097328,0.00563297
-0.01073861,-0.01972725,-0.02516060,-0.03848803,-0.04421991,-0.05277462,0.01029646,0.01856797,-0.00754874
-0.10232735,-0.04840429,-0.04631970,-0.04676032,-0.02567696,0.00626189,-0.04006331,-0.00761241,-0.01444664
-0.06288213,-0.03543343,-0.03385750,-0.02531121,-0.00780863,-0.03146164,0.02328999,0.06207143,0.02626421
0.05966044,-0.03871446,-0.02847128,0.04626661,0.00934531,0.01840096,0.03063489,0.00886033,-0.02578014
-0.04751077,0.03169723,0.03434368,-0.03270854,0.04140832,0.05372534,-0.04102658,-0.00906891,0.00925247
-0.00244925,-0.01250998,-0.07431759,0.02897974,0.11315154,0.02240013,0.02359437,0.01623903,-0.04300328
0.02516836,-0.01261039,-0.05527459,0.01546163,-0.02220094,-0.01820113,0.03464045,-0.03321211,0.01054518
0.04189068,-0.03655549,-0.06499930,0.07869826,-0.00309715,-0.01804389,0.05724279,-0.02648337,-0.02212971
-0.01801952,-0.05702389,-0.01003064,-0.00641281,-0.02168946,0.00133199,0.02062931,0.03263489,0.02680864
0.06962732,0.02546839,-0.01453105,0.01184984,0.01365199,-0.03540151,0.02046664,0.02267317,-0.00415629
-0.07666161,-0.08167021,-0.06286855,0.03653049,0.02460263,-0.01104637,0.01265481,0.03510306,0.00693277
-0.06532732,-0.00409410,0.00307397,0.01628098,-0.01900864,-0.00486665,-0.04614827,0.03471627,0.02632478
0.01221512,-0.01894376,-0.05122644,-0.00524869,-0.02416181,-0.03516107,-0.03227897,-0.04559996,-0.04194720
0.01013069,-0.02681630,0.03246313,0.02329724,-0.03706824,0.01926500,0.03045505,-0.00613583,0.02690817
0.05097374,-0.08759320,-0.01574126,0.16802812,0.03335706,-0.02950121,-0.04646411,-0.02240191,0.04331748
0.00721569,0.00907403,0.07442140,0.00880474,-0.01943233,0.02676666,-0.03574074,-0.01258637,0.00959978
0.03027313,0.04460134,0.03791992,0.01296397,0.03168832,0.00038815,-0.09431679,-0.00514985,-0.01882610
-0.02254551,-0.05610107,-0.08438265,0.00773904,-0.00612167,-0.03414906,0.06927302,0.02778739,0.01483172
0.08039886,0.01043590,0.05045725,0.05712172,-0.00941150,0.02348926,0.02051719,-0.02503761,-0.04052847
-0.04339899,-0.02071564,-0.00964790,0.07433771,-0.06906552,-0.05512430,0.06178075,0.05806119,0.03746697
0.03047237,0.03886278,-0.00245978,-0.00134137,0.06701579,-0.00714118,-0.09653378,-0.02923182,-0.04357165
-0.08251271,-0.04914894,-0.03004587,-0.02690198,-0.02919396,0.00117361,0.00890932,-0.01190588,0.00212078
-0.01084343,-0.03070498,-0.03553924,0.07979572,0.01609674,-0.01997935,0.05408291,-0.01127684,-0.01073441
0.01107054,0.00222352,-0.03194668,0.00536001,-0.01886377,-0.02234224,0.02068156,-0.00454950,-0.00633000
-0.04262439,-0.00291888,0.01114546,0.02620668,0.03194890,0.07291275,-0.00001513,-0.04841367,-0.01163720
-0.05476696,0.01342420,0.08994223,0.02045387,0.07826985,0.07422112,0.01032849,0.12337326,0.09124947
0.04789751,0.02261901,0.00495480,-0.05386835,-0.04680377,-0.03339825,-0.04055019,-0.06409783,-0.04718969
-0.02917629,0.02572195,0.01940159,0.01708064,0.05953350,0.02810141,0.02796737,0.01468453,-0.03829338
-0.01348499,-0.00818203,-0.06152919,-0.00694756,0.02525589,-0.06344035,0.00585366,0.00030368,-0.05814185
0.01772670,0.00655251,0.02102109,-0.02367595,0.01448375,0.02974825,-0.02991879,-0.01379358,-0.00772283
0.01597241,0.01472757,-0.00881673,-0.06573015,-0.02706573,-0.07492591,0.08367869,0.01817304,0.01225113
0.07842925,0.04949296,0.01441372,0.01089085,0.03296771,-0.01566047,0.01902141,-0.00354437,-0.04578572
0.05953721,-0.01676328,-0.07393380,0.08726598,0.05531022,-0.01957968,0.05506899,0.02287625,-0.03495475
-0.02189593,-0.00655645,0.00397308,-0.00003942,0.00071499,0.03159701,0.00173828,-0.00657449,0.00636223
-0.00210370,-0.00401037,-0.01840606,-0.02392612,0.02693627,0.01074909,-0.07660153,-0.11494996,-0.08915538
0.03960221,0.01777629,-0.01433447,0.02647101,-0.00741763,-0.02522987,-0.01178526,-0.01520750,-0.02040037
0.00366618,-0.00157589,-0.00361730,-0.00875744,-0.01771499,-0.02474126,0.03906244,0.00186777,-0.02352212
-0.00737025,0.08965287,0.01016641,0.00857583,0.04869324,0.00066648,-0.01126405,0.01274537,-0.01293871
-0.01931788,0.00902703,-0.05442933,-0.05642259,-0.00487843,-0.06614897,-0.07592364,-0.04318254,-0.06352856
-0.00431408,0.05665034,0.05732239,-0.05225635,-0.07893275,-0.04798936,-0.01364831,-0.02454976,0.00696368
0.00234782,0.01140744,-0.01511946,-0.00052285,0.03050384,-0.01220030,0.02714691,0.04642929,0.01428175
-0.05024362,0.00765425,-0.00401569,0.01101208,0.11334921,-0.00368357,0.03182429,0.02542056,0.00955324
0.05539935,0.03029131,-0.04252851,0.06209094,0.02502567,-0.05418752,-0.01054205,0.00263953,-0.02636024
-0.08585134,-0.08234885,0.03709715,-0.02834081,0.16343325,0.04799681,0.32107675,0.81443775,0.05696658
-0.03813238,-0.01193542,-0.01836206,-0.02335472,-0.00502339,-0.03195568,-0.02871673,-0.01573394,-0.06608733
0.03602355,0.01316880,-0.01866458,0.07146782,0.07850108,0.04875839,-0.07609046,-0.06865422,-0.04791083
0.01021468,0.02688971,-0.06745794,-0.05747323,0.02406533,-0.08028845,-0.02887334,0.05091999,-0.04441508
-0.01247520,-0.03394695,0.02093526,-0.00161393,-0.02677538,0.03393824,-0.04565709,-0.05913359,-0.01157775
-0.06853070,-0.05360461,-0.04594858,-0.04864632,-0.04580693,-0.05297751,-0.08289377,-0.09587503,-0.07959867
-0.04339509,-0.08428458,-0.01555700,-0.07573202,-0.08728515,-0.00081856,-0.06814611,-0.05107727,0.03291109
-0.06033955,-0.01946433,-0.03509049,-0.05189047,-0.06651165,-0.04908510,-0.12034678,-0.06962229,-0.01955472
-0.00647554,0.05249802,0.00495348,0.05955575,0.01414039,0.00578687,0.07245524,0.05387664,0.00761054
-0.01920195,-0.04684244,-0.03466919,-0.00498265,-0.00632367,-0.00626265,-0.01370141,-0.01468818,-0.03981481
-0.02545264,-0.03492179,-0.02879310,-0.00740480,-0.05596804,-0.07239783,-0.01818886,-0.05218666,-0.11093307
0.01177565,0.07834677,-0.00080727,-0.00578525,0.01361695,0.04049778,0.01695607,0.00311334,-0.01969368
-0.02854181,-0.04980927,-0.03314686,-0.00727607,-0.03722647,-0.02223605,-0.03901374,-0.03726729,-0.03065408
0.00896790,-0.01281447,-0.03035915,0.01233501,-0.00083816,-0.02687620,-0.00433592,-0.00039581,-0.01947393
-0.02157121,-0.02235336,-0.06913163,0.03909646,0.00418529,-0.12450386,0.02009553,0.01456450,-0.08881833
-0.00491118,-0.01573789,-0.02189667,-0.01149128,-0.01432733,-0.03126600,-0.01645521,-0.01275863,0.00082442
-0.05093060,-0.04252962,-0.03883274,-0.01025559,0.00058194,-0.06316546,-0.00462033,0.08266231,0.01529398
-0.03521365,-0.05021764,-0.03127522,-0.05991881,-0.07571329,-0.05336749,-0.08404060,-0.10870317,-0.06323562
-0.04532898,-0.03925778,-0.03707194,-0.05952391,-0.00524902,-0.01184617,-0.03000737,0.03195921,-0.02662158
-0.03396678,-0.02687114,-0.08781949,-0.03594595,-0.03606949,-0.09425326,-0.01737246,-0.01688251,-0.09894578
0.00104844,0.00606284,-0.02943379,0.00600144,-0.04781334,-0.07944927,-0.00577594,-0.03867986,-0.08503523
-0.00389883,-0.02342304,0.00957824,-0.03715559,-0.04360384,-0.02537314,-0.06251290,-0.03702126,-0.04588103
0.03155300,0.05199293,-0.00963208,0.01414231,0.04344820,0.00674900,0.04357475,0.02274103,0.01559602
0.03923370,0.01721745,-0.01171638,-0.01181488,-0.03351439,-0.02239953,-0.01765917,-0.08736204,-0.05234568
0.01393141,-0.00055824,0.02751847,0.07948447,0.02731339,0.04067447,0.01798427,-0.00836284,-0.01174602
0.01063182,-0.01963918,-0.06484821,-0.01837716,-0.02550269,-0.04608522,-0.09427233,-0.11581728,-0.09986334
-0.04411633,-0.02929326,-0.03948449,0.02243936,-0.00660167,0.01620305,-0.06486530,-0.06681102,-0.01959812
0.04530420,0.03289682,-0.00457619,0.02374201,0.03501576,-0.00388196,-0.00633130,0.02146230,-0.00262063
0.00960581,-0.00975062,0.00041800,0.06317535,-0.01146591,-0.02195460,0.05590244,0.01411406,-0.00727047
0.02000681,0.01626142,-0.00417665,0.01670659,0.01562695,0.01428670,-0.02549564,-0.02800244,-0.03222666
-0.00860212,-0.02878551,-0.04204308,-0.01825279,-0.05596378,-0.06872060,-0.01967803,-0.05488393,-0.09617318
0.01432732,0.00914792,-0.02923770,-0.01558468,-0.03460911,-0.06352911,0.00082361,-0.01233943,-0.06251420
-0.02572252,-0.05355319,-0.05494291,0.01679116,0.07192302,0.01809333,-0.00454188,-0.00722571,-0.02117938
-0.00593164,-0.02350987,-0.02202667,0.01066112,0.01192956,0.01852581,0.01861362,0.01770804,0.03491774
0.06533262,0.09948894,0.07383478,0.03589585,0.08283964,0.06683036,0.03011801,0.08022743,0.04689718
0.02654015,0.07828284,0.17974442,-0.08476111,0.03614614,0.64566332,-0.03042904,-0.01415360,0.33590981
0.02238023,0.02121352,-0.07671634,-0.01100114,0.00496831,-0.12851630,-0.03310790,-0.04497265,-0.11367462
-0.00206611,-0.03022717,-0.05253226,-0.06360443,-0.05834922,-0.02349300,-0.03970737,-0.05210970,-0.04140326
-0.02698422,-0.02349791,-0.01663570,-0.02073248,-0.00957619,0.01375408,0.00431782,0.03461114,0.00593037
-0.04042675,-0.04429036,-0.06160365,-0.05860527,-0.06884959,-0.08210082,-0.04088987,-0.01933617,-0.06142840
-0.03967023,-0.03129537,0.03220916,0.08347795,0.09704271,0.08417576,0.00576425,0.03786852,-0.04459616
-0.02035752,0.00491133,0.01266350,-0.02823238,-0.00716235,0.01935118,-0.02418569,-0.03702141,0.01085327
0.01435686,-0.00853934,0.00572721,-0.02374921,-0.02918826,-0.02085652,-0.02509418,-0.01681057,0.00623465
0.01597237,-0.06530340,-0.04898693,0.00489087,0.00888085,-0.02420525,0.00407354,-0.02275377,-0.03406775
-0.04699168,-0.03353625,-0.04805958,-0.02880421,-0.02382347,-0.03636845,-0.01282899,0.00762310,-0.03895682
0.02059120,0.03798830,0.03113433,-0.02850740,-0.02247504,-0.02997373,-0.05128643,-0.02606526,-0.02606964
-0.03068469,-0.06754049,-0.01717377,-0.00831489,-0.01217822,0.06071645,0.01655491,-0.03380991,0.00214923
-0.04146362,0.00962849,-0.00167441,-0.04142589,-0.02270453,-0.01951719,-0.00942083,0.00603969,0.02009597
0.01464012,0.01066293,0.01827763,-0.02509907,-0.07071111,-0.03012969,-0.01302300,-0.02441928,0.00361991
-0.05049514,-0.04209326,-0.01142664,-0.03996227,-0.05688873,-0.04032274,-0.03649708,-0.04867890,-0.01636350
0.01311259,0.03087839,0.01417162,0.00325031,0.02838459,-0.00650584,0.00376089,0.02629136,-0.00622466
-0.02659523,0.00437625,-0.01737382,-0.01576720,-0.00759847,0.02910240,-0.00884434,-0.00811880,0.02225482
0.02936676,0.01276747,0.00212316,0.04154508,0.01484316,0.03132495,-0.01703968,-0.01805362,0.00070191
-0.04583718,-0.01191825,-0.00070822,-0.07273438,-0.04232164,-0.03060582,-0.02159982,0.01397889,0.00717621
-0.01717876,-0.04576386,-0.05956592,-0.00598439,-0.01628859,-0.00885033,-0.04624148,-0.01554686,-0.00283012
-0.02747707,-0.01637072,-0.04106135,0.02422082,0.02213996,-0.00777759,0.04460507,0.04604030,0.01740312
0.01673209,0.01114126,0.03359615,0.02145286,-0.01223642,0.00391254,-0.01789149,-0.04321831,-0.02611117
0.00604919,0.00542373,0.01128521,0.01971167,0.00231229,-0.00915449,0.08140894,0.02525945,0.02004321
0.00283388,0.00675896,-0.01031807,-0.04780369,-0.01779078,0.01435301,0.01945136,0.01894761,0.07023304
-0.03949483,0.01024300,-0.01687848,-0.03484279,-0.00850574,-0.03774538,0.04694591,0.05410014,0.01302602
-0.01325191,-0.04470143,-0.02489528,0.02840457,0.04528039,0.02105112,0.05209801,-0.01320417,-0.00767147
0.08263871,0.03473073,-0.06150678,0.05000660,0.01087751,-0.05369084,-0.06881871,0.00214270,-0.00848857
0.06505524,0.04267163,0.02309155,0.00869946,-0.01633306,0.00568166,0.01422074,-0.00030522,-0.00615047
-0.00780609,-0.03554357,0.01822150,-0.00124477,0.00212734,-0.00216296,-0.01606408,-0.01308329,-0.05347595
0.01351475,0.03492243,-0.01125405,-0.02643024,-0.02423576,-0.03428156,0.03093871,0.01527123,0.00139001
0.03064796,0.03476013,0.03850511,-0.00193974,-0.01646043,-0.00104171,-0.08660033,-0.09209134,-0.03112885
-0.02903668,0.04711768,0.05880962,-0.11199266,-0.02059697,0.02124962,-0.07498799,-0.02844639,0.02956963
0.00035831,0.00365664,-0.01644162,-0.04929600,-0.04586999,-0.01595434,-0.09275682,-0.03228282,-0.00944754
0.02645331,0.07955808,0.00575902,-0.01776063,-0.04652657,-0.10865919,0.03863629,-0.02010498,-0.03576513
-0.07571431,0.01028165,-0.01009576,-0.04605542,0.02598235,0.00577679,-0.05709079,-0.05193348,-0.07190080
0.08419254,0.07077034,0.08857884,-0.02750632,-0.04671309,-0.00485183,-0.04296215,-0.01166757,-0.05652804
0.02743931,-0.00907548,0.03025471,0.01845717,-0.01905725,0.00096453,0.04724927,0.02664318,0.04433389
-0.03736349,0.00333018,-0.00622315,0.02711014,0.07781674,-0.01216942,0.13588540,0.00746472,0.00509183
0.06919691,0.02688178,-0.01920535,0.03513037,-0.02076338,-0.03007818,-0.03588145,-0.03582246,-0.02472233
0.02943886,0.01621118,0.02552747,0.01045401,-0.00168110,0.01466465,0.03607429,0.04390688,0.00753418
-0.03904347,0.10242002,0.02902561,0.00386963,0.06169677,-0.02460679,-0.11013009,-0.05607224,0.03848077
0.00473412,0.10029139,0.03608265,0.01788359,0.06380315,0.07792053,-0.13106538,-0.16123229,-0.04768226
-0.01711154,0.00657128,-0.03468546,0.01868469,0.03070671,0.00434328,-0.03029421,-0.00244771,-0.01532887
0.03658437,-0.01557566,-0.01210799,-0.03949182,-0.04666267,0.02211456,-0.00941128,0.02509381,0.01756841
0.06253087,0.01030130,-0.00187002,0.03728776,0.00479856,0.00214176,-0.00563439,0.04786250,0.03729043
0.04051329,-0.00682811,-0.06462104,0.01244759,0.01205103,-0.00515938,-0.04571902,-0.00573643,-0.03545998
0.02430705,-0.01261000,-0.04098275,0.00673886,-0.02905789,-0.06599899,0.08810116,0.01500798,-0.04520912
0.03399696,0.04901155,0.02504501,0.05455744,0.06287561,0.02731832,-0.01024311,0.00682989,-0.01698123
0.00368240,-0.03052169,-0.01534356,-0.06041534,-0.05079703,0.01405452,-0.06118612,-0.03737886,-0.01346878
-0.07685722,-0.03030400,-0.03088290,-0.01031740,0.04964611,0.00933125,0.05931620,0.03933906,0.05835643
0.11420124,0.05108846,0.04803469,0.00137054,-0.06223693,-0.00912782,0.01768821,-0.04314073,0.01958812
0.00439964,0.00529504,0.00391067,0.03519448,0.01136738,0.02395194,0.00104297,0.00343125,0.00939635
-0.04615869,-0.05046991,-0.01537235,-0.03361449,-0.02145450,0.00153517,-0.06700607,-0.02468335,-0.00855877
0.06610657,0.10440724,0.13919020,-0.05609345,-0.01644653,0.02273300,-0.10030656,-0.04607159,-0.01935623
0.01085660,-0.02232108,-0.01136848,-0.00760513,-0.06466352,-0.06211006,0.03459179,0.01805794,0.03155861
0.05905697,0.01611892,-0.05966423,0.00298298,-0.03981062,-0.02462758,0.01541730,-0.06226237,-0.00991899
0.00773550,-0.01842999,0.00301088,0.00773761,-0.01116876,0.02410873,-0.03781576,0.01237377,0.03084710
0.02231534,0.06266858,0.01085752,0.01638940,0.02935511,-0.01897960,-0.03126571,-0.05033010,-0.05277516
0.02919357,0.05427916,0.01321276,-0.01751555,0.00663326,-0.03371182,-0.05922977,-0.00844045,-0.05352467
0.00224867,0.03279956,-0.01339314,-0.03606458,-0.01735591,-0.07805993,0.02027927,0.00361582,-0.08428905
-0.00188877,0.03819411,0.01125913,0.02090740,0.03180947,-0.00418657,-0.07978594,-0.05289305,-0.01886954
0.04482438,0.00463134,0.06268785,-0.01940278,-0.02340405,0.04813644,-0.01257576,0.03407812,0.00051265
-0.04788163,-0.00816369,-0.00939307,-0.03210764,-0.00670565,-0.01415216,-0.02795655,-0.01367599,-0.00734804
0.02200260,0.02529249,0.01079560,-0.03709942,-0.00621985,-0.02093559,-0.01635184,-0.00135513,-0.01877206
0.08169462,0.01321140,0.05887953,0.01375532,-0.03166000,0.03790973,-0.01741967,0.03574754,0.08920087
0.06214302,0.01156735,0.03826319,0.04275926,0.03512409,0.02854499,-0.08005089,-0.06804116,-0.10597815
0.07969534,-0.00184994,0.04891042,-0.03191030,-0.02087311,0.03483205,0.01288136,0.01687152,0.00327426
-0.00918224,0.05229960,0.04981972,-0.03538858,0.01119378,0.03016860,-0.11949906,-0.01927136,0.04356422
0.01235854,-0.00682222,-0.03113594,-0.00672745,0.00165564,0.00419857,-0.03082777,-0.04571400,-0.03953642
0.07605653,-0.01919605,0.01660004,-0.08246362,-0.10481936,0.04301215,-0.04600466,0.03830545,-0.08991911
-0.00669228,0.00428985,-0.02224430,0.04195667,0.06920625,0.00916715,0.03097855,0.00685211,-0.01557483
0.02399177,0.00189911,0.01876747,-0.03109450,-0.02029404,0.02567322,-0.02511501,-0.04858188,-0.04075620
0.00547181,0.05994230,-0.00851283,-0.10539670,0.06750782,0.03356132,-0.03298599,0.08706343,0.00370442
0.02426010,0.01507446,-0.00313052,0.01199977,0.01491213,-0.00281506,-0.06443577,-0.00574876,-0.02523871
-0.07205582,0.00209261,-0.00434701,-0.06878020,-0.04338790,-0.04997938,-0.00504611,0.01285165,0.01968054
-0.07112521,-0.06810921,-0.02330940,-0.05353841,-0.04071484,-0.00965381,-0.04616031,0.02995425,0.06096174
-0.01638167,0.02749614,0.09124703,0.01861103,0.05163943,0.04049290,-0.06209656,-0.07425795,-0.02269132
-0.09334565,-0.07149806,-0.03102170,-0.10588718,-0.05623559,-0.01726714,-0.05317976,-0.06277748,-0.01759743
-0.00946155,0.02049404,-0.01863201,-0.03574491,0.00627707,-0.00833314,-0.04291185,-0.01443390,0.02540623
0.03733281,-0.00395411,0.00439930,0.00067770,0.00837515,0.03962204,-0.01037384,-0.01393339,0.05052979
0.21915993,0.18506473,-0.03184306,0.05324249,0.00247924,-0.06351329,-0.15568121,-0.18100941,-0.06145175
-0.00380128,0.00847978,-0.02640560,-0.02859498,0.02727599,0.00168272,-0.08711447,-0.01317026,0.06325620
0.14707862,0.04252542,0.03637533,0.06562540,0.00327822,0.02827809,0.00184060,0.00198977,-0.00878727
0.03711721,-0.01350776,-0.06161589,0.05411831,0.03778595,-0.01046460,0.00446238,0.00105720,-0.02345981
0.00861621,0.00076960,0.04270525,-0.08104261,-0.02827851,-0.01654737,0.02653436,-0.02372697,-0.01765540
0.11806703,0.06579550,0.02735707,-0.00016353,-0.02832394,-0.01490424,0.01483311,-0.00104023,-0.00357914
0.05828254,-0.03625392,-0.04008346,0.00668251,-0.02103307,-0.05379048,-0.04492850,-0.08304119,-0.13403200
0.04090022,0.02551341,-0.02972152,-0.01495577,0.00566122,0.00971142,-0.01017958,-0.01137046,0.05836017
0.04710455,0.00010020,-0.03397306,0.02116477,-0.03445303,-0.05004944,0.02536253,-0.02806249,-0.02351685
-0.05214791,0.01197146,-0.02488074,-0.00687463,0.03215402,-0.02529066,0.00169204,0.00024560,-0.05920419
-0.06425039,0.02270347,0.09865174,-0.04191301,-0.03184693,0.00582505,0.01017041,-0.01714522,-0.01632627
0.03072149,0.01224107,0.03296909,-0.03728130,-0.06224835,-0.03035577,0.02281243,-0.01969036,-0.01964089
0.02317374,0.10353506,0.05945778,-0.06250698,-0.03746291,-0.03723840,0.06846149,0.02272677,-0.02192461
-0.02172843,-0.02642547,-0.03303096,0.00529916,-0.01280136,-0.02625331,0.00534972,-0.03231896,-0.02803909
-0.05194004,-0.00367484,0.00278840,-0.06112808,-0.00301269,0.03812713,-0.10519859,-0.02402698,0.03532477
0.03346624,-0.00848679,0.00859633,0.06499079,0.03594834,0.01540218,0.02532876,0.03589033,0.01547583
-0.00665688,-0.05264572,0.01800011,-0.00922144,-0.03713107,0.05604009,0.02378267,0.02064557,0.07057659
-0.00334247,-0.02374441,0.01643403,-0.04035755,0.04071609,0.08121619,-0.01907958,-0.02083190,0.00284401
-0.05579867,-0.00345201,0.04326020,-0.02028098,-0.01803572,0.02871881,0.00175759,0.00407732,0.01125811
0.00339516,-0.00229529,-0.10887513,-0.01598006,0.10026163,0.10240114,-0.06293518,0.09794008,0.11241355
0.02293020,-0.02098912,-0.01459526,0.05669020,-0.00927289,-0.04143132,0.07309518,-0.03931049,-0.07301600
-0.02688817,0.02369537,0.06255485,-0.09474520,-0.02741196,0.10174840,-0.09420437,-0.09986526,0.04220834
0.04731332,-0.01952408,-0.01947150,0.02751316,-0.01484840,0.01034325,0.04612100,0.00609735,0.00975350
-0.03503817,-0.02106291,-0.03298249,0.04134586,0.03017328,0.00866334,0.00327937,-0.03098238,-0.05412332
0.01355035,-0.01524500,-0.02788778,-0.03235932,0.07742264,-0.00133118,-0.05161396,0.03294915,0.09552506
-0.03888199,-0.00040235,-0.00964638,-0.01033067,0.01938135,0.03514997,0.00769258,0.00591704,0.03599170
-0.05722206,-0.01243961,-0.00718629,-0.00818501,0.06086186,0.08776111,-0.09581430,-0.03337699,0.01059243
0.01987888,-0.03668943,-0.02860849,0.04818295,0.01321267,0.01176984,-0.06869098,-0.07621692,-0.04188312
-0.04870588,-0.03255141,-0.01270071,-0.02980901,-0.00466063,0.00133897,-0.06335325,-0.01228634,-0.03269215
-0.03249018,-0.01082823,0.02750457,-0.05285613,-0.03559757,0.08864188,-0.03685175,-0.05006473,0.06582199
-0.05588886,-0.00838358,0.03106823,-0.05088798,-0.01398345,0.05742073,-0.07959887,-0.04145267,0.05841924
0.03532882,0.02105573,0.00938629,-0.00067616,-0.01922952,-0.03170382,-0.03592538,-0.02599395,-0.04524256
-0.09535381,-0.04638978,-0.03201097,0.04527854,-0.02326739,-0.00040408,0.05439884,-0.02452233,-0.01916999
0.04263758,0.00407227,-0.07436853,0.00744308,0.00631399,0.03729236,-0.02822599,-0.05951496,-0.03865934
-0.05639380,-0.00492805,0.06492472,0.03100623,0.03355137,0.05348482,0.02062224,0.02444667,-0.00431931
0.03158525,-0.02765264,0.01710140,0.08503649,0.03186641,0.03596727,-0.02160990,-0.03100422,-0.02740149
-0.03386284,0.00470555,-0.01604181,-0.04937549,0.00570925,-0.03516752,-0.08950090,-0.02567267,-0.02903835
0.00984023,0.00880343,-0.02656254,0.01415215,-0.00470474,0.02090736,-0.01923805,0.00661656,0.07771785
0.02394286,0.00581935,0.01166485,0.00520739,0.00765453,-0.03711144,0.03398810,0.03227888,-0.06258109
0.02600106,-0.01937178,-0.09312016,-0.00568837,0.04640700,-0.01723355,-0.06909259,-0.04722989,0.00174217
-0.00261218,0.01790377,0.02463157,-0.01331837,-0.00504505,-0.00853473,0.02796212,-0.00300456,-0.01789636
0.04400419,-0.03762800,-0.02713710,-0.04588064,-0.09102358,-0.01388391,-0.00234698,-0.04505496,-0.00234384
0.04758359,0.03424565,0.04392227,0.03516459,0.03745879,0.01680992,0.02822453,0.03060898,0.02354639
0.01598216,-0.00167983,0.01121500,0.00582451,-0.00776361,-0.01099822,0.01530076,0.04040798,0.09771285
0.01916649,0.02852560,0.05603268,-0.03412883,-0.01368788,0.04981474,-0.01120157,-0.00790455,0.08548769
-0.02552366,-0.00806056,-0.01306289,0.07862067,0.06077946,0.03753535,0.04243013,0.01743363,-0.01370290
0.06176119,-0.00784049,-0.01097504,0.05063842,0.00094875,0.00605520,0.01416370,-0.01929177,0.04176527
-0.07500262,-0.05542362,-0.03049476,-0.05509296,-0.03575430,-0.01266986,-0.05314649,-0.03852028,-0.01617656
-0.02799269,-0.04313842,0.00686220,0.09776578,0.00412082,-0.09211337,0.04082852,-0.02771489,0.00569833
-0.05571828,-0.03645587,0.04911179,0.01259572,-0.02911544,0.00639046,-0.03138633,-0.03199637,0.00169562
0.05454950,-0.00273494,-0.06004962,0.05143367,0.01295731,-0.07600209,0.02692770,0.03183149,-0.05205610
0.01114579,0.02191728,0.00339669,-0.07481238,-0.05899116,-0.00131849,-0.06367053,-0.00289596,0.14167520
0.02280318,0.02311914,0.01967514,-0.01654195,0.00019064,0.03595360,-0.02553307,-0.03972020,-0.04273334
-0.02630881,0.00972736,0.00006039,0.01008834,0.00988247,0.06939807,0.01425495,-0.00684356,-0.00616943
0.01973001,0.00847576,-0.02847626,-0.02739575,0.03178849,0.01515789,-0.11313334,-0.04596421,-0.03289497
0.02258619,-0.00903093,-0.07033931,0.04851177,0.04048003,-0.00089723,-0.06460156,-0.00555318,0.00727217
-0.01298641,-0.07136652,-0.08516031,0.06594927,-0.00154945,-0.04290035,0.07496951,0.05629912,-0.01417929
-0.08254427,-0.03163759,0.04018982,-0.08404762,-0.03803053,0.06309211,-0.04950985,-0.04400982,0.03952477
0.03881215,0.01159343,-0.03002983,-0.00798581,0.01736428,0.01812201,-0.07921146,-0.03764547,-0.01095833
0.03713145,0.03179151,-0.02267095,0.02708416,0.03483274,0.00189709,0.03602895,0.04597020,0.01880753
0.01229178,0.06542449,0.02587127,0.05867742,0.07334424,0.02043066,-0.04207663,-0.00830149,-0.01580448
-0.04911009,-0.01124684,0.00835690,-0.01317934,-0.00142216,-0.01617566,0.03466947,0.01539022,-0.00103493
-0.02413308,-0.04520433,-0.01902448,0.00061007,0.03914610,0.03275974,-0.04683245,-0.01153143,0.02575178
-0.03467811,-0.06017075,-0.02502949,0.00314579,-0.02653553,0.05696183,0.08676896,0.00969134,0.07126917
0.06460481,0.03352788,-0.00551327,0.01497489,0.01104891,-0.04797061,-0.05708122,-0.01331097,-0.01451652
-0.07362395,-0.05094287,-0.01268466,-0.04598372,-0.01335007,0.05663128,-0.02438839,-0.04365957,0.06334037
0.01345026,-0.00847173,0.02317155,0.02731789,0.01775084,0.02994740,-0.01685501,-0.02993757,0.03450416
-0.02517387,0.03699850,0.05921865,0.00869963,0.01128980,0.04568991,0.05452233,0.04504526,0.04748277
0.00047480,0.00025604,0.02015995,-0.00859169,0.00115790,-0.03974612,-0.09268511,-0.05353535,-0.04296788
0.03535097,0.03871126,0.07693100,0.03823295,0.01919801,0.00997645,0.05354566,0.00101485,-0.00126396
-0.06604514,-0.00972121,0.00218353,-0.02241172,-0.00183070,-0.04602142,-0.03741343,-0.03256627,-0.06863752
0.01496204,-0.08888951,-0.01844613,0.06818178,-0.00542846,-0.01297818,0.08058501,0.06746759,0.03224702
-0.00709718,0.03595856,0.05257543,-0.01941710,-0.04330947,0.01134747,-0.00212262,-0.02539302,0.00373876
-0.08933932,-0.08075942,-0.05379887,0.01361448,0.00349896,0.00659321,-0.01001571,-0.01917927,-0.02418021
0.00098893,0.04257818,0.05725799,0.00914015,-0.02303894,0.01074960,-0.02241714,-0.04511569,-0.03288973
-0.01116433,-0.02303446,-0.01964410,-0.01919540,-0.01278441,-0.01133402,-0.01633962,-0.00982703,-0.02284731
0.05150023,0.01689924,-0.02794511,0.03128267,0.00470652,0.06166411,-0.02745338,-0.07490874,-0.01340498
0.04861258,0.06464504,0.00914998,0.00627204,0.04924698,0.04922251,0.00938013,0.04669610,0.06595735
-0.03875281,0.02686898,0.02433483,0.00426866,0.04263705,0.05740651,0.02421268,0.04662314,0.02286308
0.01585648,0.06958985,-0.00152505,-0.06176495,-0.02752474,-0.00419851,-0.01275354,-0.00364030,-0.01854142
-0.02789222,0.02029469,0.02879087,-0.00592841,0.00238551,0.04056916,-0.00625707,-0.00800534,0.00158629
-0.04901821,-0.02963985,-0.06257321,-0.01105211,-0.00681519,-0.04811829,0.01745370,-0.01351864,-0.05933401
0.04984544,0.02853736,0.01281110,0.00511854,-0.01014459,0.01207326,-0.02614464,-0.04552080,-0.02407354
-0.01864470,0.02935437,-0.02076047,0.22412907,0.24806105,0.00848494,-0.07439230,0.04275197,-0.05283131
-0.02440288,-0.00600468,0.02851944,0.00015657,0.02057516,0.02799417,-0.03247884,-0.02962305,-0.03356828
0.04038134,0.01608313,0.02812145,0.03675680,0.08785219,0.04002208,-0.03628062,0.03930461,-0.01804727
-0.01656439,-0.01050824,-0.01469350,-0.02193331,-0.02660011,0.00629639,-0.03628210,-0.01971800,0.01603053
0.00215600,0.06941434,0.03140015,0.01714982,0.03367764,0.02217006,-0.00231577,-0.00279187,-0.02008927
0.02827825,-0.00137317,0.10312658,0.03258738,0.01573505,-0.02589904,-0.01093412,0.00067356,-0.04879481
0.04159868,-0.03744929,-0.07107860,0.01420262,0.08573586,-0.05595575,-0.05149654,0.07182626,0.02257247
-0.01908929,-0.00727352,-0.05290354,0.00441456,0.04169817,-0.02448473,-0.06659040,-0.03397335,-0.07105229
-0.03989872,-0.04693705,-0.05475314,-0.01636015,-0.02985334,-0.00402920,-0.06078958,-0.05792474,-0.05106739
0.01418239,0.04109358,0.03210963,-0.01605133,-0.01472451,0.00335303,-0.06406499,-0.06090056,-0.04943087
0.02137438,0.10754360,0.01576452,0.01723585,0.02114195,-0.00021849,0.02997614,0.00391850,0.02056852
-0.00355348,-0.01936331,-0.03418805,-0.03310080,-0.04741287,-0.04273174,0.00701445,-0.01062656,-0.01496275
0.00857428,0.05855328,0.03408824,-0.00774171,-0.00392981,0.05703521,-0.06413317,-0.07464498,0.01576971
0.01195078,0.05070387,-0.08458527,0.00461634,0.00726676,-0.02068128,-0.11519425,-0.11375880,-0.07780273
-0.01048752,-0.07922624,-0.13115099,0.00229679,0.05165156,0.00000184,-0.01989256,0.02119617,-0.04293178
-0.05994331,-0.00499173,-0.00595508,-0.05237851,-0.00429703,0.00533721,-0.01759785,0.00938145,0.00417474
-0.05910387,-0.07824265,-0.03702956,0.00984325,-0.03852237,-0.02281715,0.04071619,-0.00350764,-0.01819533
-0.04805242,0.00282179,0.04723110,0.02921855,-0.02520227,0.02957937,0.00893940,-0.00955724,0.07553420
0.02846717,0.05611769,0.01256844,-0.01810808,-0.00582497,0.00323285,-0.02957277,-0.05331714,0.02776435
-0.05940129,0.00682158,-0.01090687,-0.05897033,-0.01733513,-0.03419293,-0.03088148,0.00720174,-0.02698263
-0.07571316,-0.06137734,0.02453280,0.02900511,0.09458011,-0.02094737,-0.05109064,0.02909197,-0.10235406
0.03952934,0.06877094,0.02771707,-0.00483286,0.02998280,-0.03698406,-0.04129912,0.00511654,-0.03918504
0.08921506,0.10051464,-0.04180691,-0.01782033,0.06941625,0.07157494,-0.01436157,0.00635415,-0.01386056
-0.02881017,-0.00731612,-0.02871901,-0.00256636,-0.01490827,-0.03810411,0.00627840,-0.00974531,-0.05566613
-0.06768243,-0.00187877,0.00916060,-0.07685641,-0.00679452,0.00072564,-0.12189441,-0.00896378,0.03347301
-0.00294466,-0.01868864,-0.05364781,0.07670487,0.01630951,-0.05592578,-0.00578595,0.00393501,-0.05315939
-0.01227991,0.00103153,0.01712081,-0.06172011,-0.05281579,0.03653065,0.00919703,-0.00935500,0.00677313
0.01386752,0.02683314,0.01263483,0.01424480,0.00884177,0.00928817,0.05436616,0.02443758,0.03415567
0.05275315,0.00455979,-0.03541122,0.04969317,-0.00638565,-0.07194683,-0.02641368,0.00437740,-0.02583780
0.00246158,0.09522180,0.09185648,0.09165845,0.02602239,0.02206291,0.00703916,-0.00315733,0.01514176
-0.05261673,-0.00824815,-0.04350899,-0.01351263,-0.05261575,-0.02762017,0.01535843,-0.06791823,-0.03353126
0.00353039,0.01662415,0.00464346,-0.03361263,-0.02935658,0.03907074,-0.04077179,-0.00759203,0.00288426
-0.02403731,-0.00107650,-0.01667491,-0.03880651,0.04571986,0.02781319,-0.07582106,-0.00138138,0.04672666
-0.01938029,0.05774184,-0.00965583,0.00491932,0.05066482,0.01231435,-0.01837720,0.01460824,-0.02081244
0.11337744,0.16742933,0.04058463,-0.04658908,-0.06498331,0.03208670,0.01672375,-0.01701952,0.05965460
-0.05068742,-0.04710363,0.03604841,0.00206546,-0.01462772,0.00975093,-0.01314698,-0.02467224,-0.01632752
-0.02137002,-0.03517366,-0.03492604,-0.05111088,-0.05094640,-0.02695815,-0.06983872,-0.11402447,-0.03945496
0.02037767,0.06440742,-0.01987451,0.05287154,-0.01929882,-0.10564113,0.01734894,0.02123079,-0.01712206
-0.05247676,-0.02549663,-0.00466964,-0.05769868,0.00869163,0.02049943,-0.06734189,-0.00027675,-0.00325353
0.04828452,0.04172120,-0.00330098,-0.01230475,0.03653037,-0.03387969,0.03585346,0.02999262,-0.00393172
-0.03851303,-0.00733248,-0.04848795,-0.01455869,-0.02472073,-0.03359006,-0.02148123,-0.03293685,-0.02370788
-0.05680023,-0.03892408,-0.01762067,-0.03059140,-0.05965307,-0.05309051,-0.05418645,-0.01467107,-0.01357682
-0.00455882,-0.00158858,0.01900052,0.00037163,-0.00752722,-0.01835543,0.02891286,0.00476001,-0.01986703
-0.03066883,-0.00072252,0.02792288,-0.02060217,-0.01912041,-0.03368495,-0.01533265,-0.00942666,-0.01598708
-0.00602239,-0.02850775,-0.00666564,0.05754933,0.01234896,-0.00053105,0.02367883,0.02731154,-0.00283427
-0.00432357,-0.05726212,-0.03559652,0.04781015,0.03670169,-0.04221452,-0.01672891,-0.01304979,-0.06102533
-0.04354106,-0.03437973,0.01311763,-0.01145661,-0.02471088,-0.03372913,0.00517905,0.03205238,-0.00171803
-0.03285822,-0.01628386,-0.01235452,0.02532930,0.01530171,-0.01582871,0.00668235,0.02411049,-0.00781287
-0.00590502,0.02490658,-0.03780144,-0.00850640,0.03249775,0.02405674,-0.06147552,-0.02970938,0.00469702
0.00439219,0.04472524,0.06413280,0.01227567,0.01417285,0.00829432,-0.00948861,-0.04145305,-0.08901144
-0.04546013,-0.04994437,-0.07374858,0.01694961,0.01164880,-0.03099587,0.00886354,0.02274957,-0.01210500
-0.01926437,-0.05687962,-0.05048524,-0.03244484,-0.05031843,-0.00485459,-0.04669185,-0.03442838,0.00015015
-0.04443438,0.01530914,0.03111618,0.02805926,0.14199424,-0.03804973,-0.03583211,0.04882463,0.00488800
0.01969783,-0.03676137,0.04197554,0.02488824,-0.07483331,0.02726744,0.02121543,-0.02327411,0.03356133
0.07876763,-0.00104062,-0.00947278,0.08200383,0.00735497,-0.02320676,0.03363621,0.05900790,0.05343617
-0.04625792,-0.08121212,-0.04111415,-0.03626578,-0.00737852,-0.04206272,0.01363471,0.11279879,0.04457683
-0.02007388,-0.04470009,-0.06290280,0.01633963,-0.00985091,0.00621807,0.04632042,0.00971364,0.00449728
-0.03396510,-0.05926661,0.10009371,-0.03395341,-0.10117944,0.21421061,-0.05968840,-0.06821775,-0.02071614
0.01326780,0.07085288,0.05370034,-0.00679551,0.04476303,-0.00208936,-0.01818950,0.02748264,-0.01159350
-0.01156235,0.00987513,0.00530676,-0.00408357,-0.01101051,0.04196936,-0.03444373,-0.05980844,0.04314180
-0.00131104,-0.00605611,-0.05492592,-0.04071055,-0.00783752,0.03472952,-0.14894263,-0.09246477,-0.02524761
0.06570126,0.07049976,-0.05525881,-0.03805503,-0.01916890,-0.07111891,-0.04962908,0.00212915,-0.04059481
-0.01490125,0.00841746,0.01596847,-0.03818964,-0.02787638,-0.04247341,0.00356897,-0.01625212,-0.01675910
-0.01956051,0.03580179,-0.00444696,-0.02248395,0.02748213,-0.00644819,-0.02419755,0.01153597,0.01116692
0.18439840,-0.00154791,-0.02055710,-0.00481729,-0.04447909,-0.01134015,-0.04402337,-0.05872513,-0.05285043
-0.04873357,-0.11747000,0.07973318,-0.05094506,-0.16962166,0.21562836,-0.02738765,-0.19707794,0.28026029
0.02518072,0.02566767,-0.09032644,-0.06490407,0.27915975,-0.04873408,-0.09782144,0.38709450,-0.09635818
0.02534954,-0.04771405,0.07343715,-0.03100227,-0.05769981,0.16628626,-0.07315627,-0.05996033,0.00562675
0.14204997,0.01151538,0.02344008,0.14733595,-0.01025057,0.02592028,0.03284851,-0.06052375,0.00279963
0.02151176,-0.06389631,0.01175527,0.09970013,0.00124892,-0.03494950,0.01393986,0.01177184,-0.03317147
-0.01203882,-0.13941006,-0.04611695,0.00134069,0.05977492,0.05800576,-0.00061475,0.04578029,0.04698166
-0.04083858,0.08378505,0.07397422,-0.03365013,0.02302436,-0.00626218,-0.02511803,0.02465693,-0.02512968
-0.05310375,-0.02239731,-0.04561951,-0.03280447,-0.04053024,-0.04017451,-0.03112487,-0.05604554,-0.05714808
0.13333502,0.05711953,0.03666458,0.13930801,0.03751462,0.05444697,0.13878250,0.05136725,0.05663465
-0.09685820,-0.07058538,-0.07708631,-0.05924741,-0.04340191,-0.00303558,-0.02591270,0.00724124,-0.00462973
-0.02663027,-0.04651496,-0.03302205,0.01655895,-0.02033883,-0.00069218,-0.02567369,-0.05960147,-0.05553862
-0.07839645,-0.03584643,-0.09374187,-0.09420509,-0.03391763,-0.02576196,-0.07743547,-0.00607714,0.02668734
0.04835464,0.07974406,0.04942545,0.02214319,-0.02036183,0.01015866,0.04757507,0.00716856,0.00502654
-0.03839425,-0.04415565,0.03193926,-0.06414415,-0.04680789,0.02954672,-0.01803228,-0.05187616,0.02113659
-0.00349382,-0.01334563,-0.01228973,-0.03766789,-0.03628167,-0.05276027,0.00012072,0.01952638,0.01561966
-0.02953819,-0.03563191,-0.05967363,-0.03667390,-0.02831898,-0.01291642,-0.06954012,-0.02889505,0.02111845
-0.04321678,-0.00325116,-0.02951623,-0.05142956,-0.01738462,-0.06242484,-0.06191723,-0.02763532,-0.05835849
-0.11555307,-0.04429692,-0.01593975,-0.10274453,-0.00334138,-0.02353350,-0.08586532,0.01840642,-0.02919851
0.00400662,0.04885229,0.00180534,0.03543685,0.01900713,-0.01742193,0.07417889,0.02988869,-0.00167309
0.05366159,0.04418718,-0.00493930,0.03544822,0.09387541,-0.04326013,0.02609083,0.03815123,-0.02219218
-0.08082193,0.18351437,-0.01757592,0.04167559,0.11819226,-0.03611825,-0.00331308,0.06924201,-0.00945172
-0.06916107,0.01692015,-0.00503567,-0.07218868,0.13508971,0.35991678,-0.09239879,-0.06728676,0.07027293
-0.07034649,-0.04939223,0.01728050,-0.03356925,-0.00622045,0.05625045,0.03744926,0.04609068,-0.02126344
-0.07299960,-0.03056993,-0.01320608,-0.04153236,-0.02688895,0.00395721,-0.00930846,-0.00384263,-0.01689801
-0.04737452,-0.01114893,0.03417807,-0.02778090,-0.01468986,-0.03324437,0.02487902,0.00808052,-0.03960705
0.00573995,0.10253124,0.02863832,0.00839329,-0.01097634,-0.05804747,-0.01450888,0.01000124,-0.01491706
-0.06310562,-0.02701050,0.00537819,-0.05188526,-0.02361098,0.00318729,-0.05337812,-0.02177845,-0.04222400
0.03141440,0.04469686,0.03578728,-0.08620661,-0.04690161,0.02792348,-0.02034812,-0.02514745,0.03352234
0.04230605,0.01771698,-0.02479422,0.02052016,-0.04081155,-0.01995449,0.02225034,-0.03333244,-0.01361450
-0.01418445,0.01893106,-0.04649793,-0.00680104,-0.03527206,-0.05519044,0.10569523,0.09971364,0.03168092
-0.11458449,-0.01662766,-0.01543443,-0.08179089,-0.00311967,0.00070347,-0.06473683,-0.02914012,-0.05909899
0.01388792,-0.02747362,-0.01654200,0.07904062,0.05035938,0.01207516,0.03137218,-0.01782330,0.03439006
-0.09277349,-0.05655722,-0.00337026,-0.11890180,-0.05995015,0.00859239,-0.08657358,-0.04407650,-0.02247830
0.00169866,0.03444589,-0.01803195,-0.04339919,-0.03447241,0.04769325,0.03076047,0.03291418,0.07378385
0.04554301,0.01423608,-0.01894980,0.01601639,-0.03682172,-0.03295182,-0.03851414,-0.07671033,-0.02816279
-0.02595877,-0.03747519,0.00948022,0.05390039,0.01363449,0.03069151,0.09966139,0.01330284,0.01092241
-0.06157085,0.00758673,-0.02589038,-0.04388395,0.00176687,-0.06172490,-0.08807241,0.03061367,-0.14626910
-0.01812216,0.01280179,0.03760810,0.03598664,0.00968833,0.11482703,0.00401754,-0.04643884,0.06795313
-0.10069241,-0.00947033,0.02876590,-0.02610135,-0.00307812,0.01151089,-0.06671026,-0.06926322,-0.07400735
-0.01055150,0.02016111,-0.03883268,-0.03899456,-0.03166178,-0.01630597,-0.00119789,-0.01816874,-0.01583901
0.07220017,0.03950750,0.00383320,-0.00917856,-0.01205280,-0.02322849,-0.07986578,-0.07632930,-0.08456371
0.03728705,0.00669697,0.00124766,0.00926490,-0.03623374,-0.04532962,0.00650739,0.01653447,0.02607695
-0.05804403,-0.07462558,-0.04927063,-0.05877490,-0.06051217,-0.05691070,-0.02002425,-0.01678260,-0.02171196
-0.02967357,0.01158877,-0.01177626,0.01119346,0.00489352,-0.04142506,0.00390435,-0.06594379,-0.09820302
-0.00823583,0.01178014,0.08404777,0.05865272,0.04308425,-0.01633602,-0.05405786,-0.04419328,-0.00323376
-0.00562508,0.04493195,-0.01568286,0.03706327,0.06984171,-0.00671546,-0.06291220,0.05228117,0.07288098
0.04019110,0.02328245,-0.01209478,-0.05682279,-0.06205766,-0.05663389,0.00366289,-0.01912667,-0.02423603
-0.01593854,-0.01695161,0.06528524,0.02476767,-0.05631775,0.02203589,0.06767717,-0.05815228,0.01076081
0.06349736,0.05882218,0.00960730,0.02282445,0.05462489,0.01668824,-0.04899009,0.02051883,0.02812669
-0.00609723,0.02765860,-0.08147153,0.01397110,0.03667387,-0.03737958,-0.03993658,-0.09125130,-0.02638292
0.04685774,0.02184085,0.01006548,-0.01622348,0.00643129,-0.00547788,-0.01248868,0.06269413,0.03164874
0.03831427,0.01254388,-0.02319343,0.01081600,-0.00948649,-0.00259679,-0.00643014,0.05895043,0.00810691
0.01781933,-0.03967893,-0.04096112,0.07579569,-0.00309179,-0.03107081,-0.00455030,-0.04210661,0.01190140
-0.04017894,-0.02852271,-0.01707913,-0.00477116,-0.01816157,0.00224593,0.02046951,-0.01792912,-0.03838216
0.04411541,0.06673660,0.06852295,0.00738044,0.01592620,-0.01359749,-0.01296895,-0.03955308,-0.04336329
0.03198406,0.07169416,0.08315291,0.00240276,0.01469524,0.03424586,-0.09033613,-0.06786465,-0.01044848
0.01621312,-0.02062499,-0.00264272,0.02964556,-0.00301055,0.02663046,-0.02772154,-0.05679313,0.05414686
-0.06698658,-0.05829962,0.03974125,-0.00697808,-0.02751139,-0.00307132,0.11578459,0.03032639,0.00011774
0.00268547,-0.01074076,-0.05729979,0.02620343,0.03512001,0.04501703,-0.04776227,-0.04807182,0.00641343
-0.05768739,0.00427230,-0.00593477,-0.07041975,-0.02029326,-0.04151906,-0.06440419,-0.02754843,0.00528347
-0.02382638,0.05048769,-0.00174612,-0.04502288,-0.00995845,-0.02199605,0.00967340,-0.01901745,0.01732166
-0.01324170,-0.01638185,-0.00103748,0.04771508,0.04115102,-0.01341835,0.03905884,0.10620349,0.03893548
0.01460380,0.00223299,0.07742709,-0.06355100,-0.04389703,0.00814458,-0.07061404,-0.02455056,0.04113520
0.03051163,0.05361887,0.03094386,-0.01781978,-0.01080038,-0.09508150,0.04159078,0.05856260,0.03109496
-0.05720825,0.00327878,0.00164094,-0.00335292,0.05483456,0.05995940,-0.03704619,0.05347404,0.05228885
0.01042721,-0.02680477,0.00671894,0.04136959,0.02048547,0.06040797,-0.00234579,0.05964689,-0.02676941
0.02388511,-0.02187966,-0.03107526,-0.01888124,-0.06708504,-0.08565442,-0.00113228,-0.03870617,-0.07270414
0.05823015,0.04267190,0.00487769,-0.00478160,0.01134788,-0.00821304,-0.00618549,0.00861563,0.07238732
0.05039141,0.01275923,0.10531913,0.02616534,-0.04695990,0.07623727,0.03162179,-0.02782004,-0.06424819
-0.01705357,-0.02171659,0.05577749,-0.03768612,-0.09899403,-0.03478702,-0.01607444,0.01537293,0.02361605
-0.00891222,-0.03765057,-0.05667387,0.01807198,0.02055338,0.00503914,0.04355828,0.05138068,0.03479002
0.04150048,0.06426374,0.03055442,-0.05279686,-0.02471620,0.00867377,-0.00374508,-0.04753052,-0.02030108
-0.02006933,0.03540217,-0.05403941,-0.01146766,0.01833097,-0.03108766,0.03866826,-0.00613107,-0.01360143
-0.04696080,0.08173545,-0.03416818,-0.06953944,0.09639991,0.00162127,-0.06991003,-0.02049323,-0.05661789
-0.00821602,0.02224732,0.00138196,-0.03154345,0.01279897,0.03298425,-0.00695796,0.00060408,0.06461222
0.00951443,0.02227375,0.00591719,-0.00754712,-0.02149827,-0.04600041,-0.00017118,-0.04839084,-0.00418915
0.02609014,0.05707950,0.02949432,-0.00659115,0.00202582,-0.03281054,0.04680689,-0.00734169,0.00822165
-0.02684123,-0.02572023,0.03129858,-0.02943630,0.00259868,0.05227689,-0.02763020,0.04574802,0.04314831
0.04553889,0.02978039,0.07034554,-0.03684326,0.00264853,0.03749868,-0.00289564,0.06546394,0.08605535
-0.00361104,0.01474680,0.06994487,-0.06409414,-0.06026753,0.00781959,-0.10178895,-0.11318231,-0.02944112
0.00492169,0.03162613,0.03412366,0.00147448,0.03124536,0.02576466,-0.04299800,0.00327136,0.00738909
0.06071584,0.04992465,-0.03887922,-0.01762493,0.03424946,-0.07825603,0.01284044,0.04508557,-0.07822024
-0.00335751,0.01163273,0.01668385,-0.01635398,-0.00342596,-0.04681319,0.06394697,0.05171761,0.00530286
-0.01134505,0.00554706,0.01392553,0.00661679,0.01949016,0.00243165,-0.02841895,-0.00176779,-0.10185268
-0.04941182,0.06943880,-0.00230296,0.00601086,0.10065612,-0.01764436,-0.02072836,0.13177130,0.02564763
0.00904017,-0.01896209,-0.01418752,-0.04350124,0.05955162,0.05506593,-0.13426590,-0.00711287,0.02363259
0.00786855,-0.02045541,-0.01215897,-0.03595342,-0.02010800,0.02350539,-0.06790542,-0.06536823,-0.00996138
0.02033484,0.00923741,-0.03213629,0.01634539,0.00084597,-0.03326953,-0.09876655,-0.04268217,-0.04230448
-0.02922862,-0.01416367,-0.12051432,-0.01579746,0.03154433,-0.03248436,-0.09229893,-0.03824889,-0.08421972
0.03680819,-0.02445788,0.01472817,0.01081954,-0.06672979,0.01513642,0.04627566,-0.14758644,0.01264601
0.00214937,0.00247721,-0.00796955,0.03580784,0.01912123,0.00945635,0.00978731,-0.00328476,-0.02447017
-0.09562065,-0.05250379,-0.05277904,-0.02329083,0.00834733,0.00804060,0.01595476,-0.02924020,-0.00352553
0.05744849,0.01925767,0.01007883,-0.02948859,0.00303972,0.03832900,0.04907838,0.00780281,0.01063805
0.02106548,0.10328344,0.01852616,-0.02251566,-0.00280486,-0.07942972,0.05452577,0.00205926,-0.05044515
-0.03173655,0.02670634,-0.02530362,-0.00775762,-0.00569238,-0.04832729,0.05366366,-0.07080817,-0.04333623
-0.02283263,0.01205658,-0.00680511,0.02618575,0.03104026,-0.01144571,0.04244031,0.04193163,-0.04177285
0.00263656,0.01244364,0.00096769,-0.03602876,-0.01939593,-0.04487507,-0.03166668,-0.01472097,0.00665284
0.10000780,0.11278950,0.05789171,-0.05178139,0.00426579,-0.04918351,-0.06512516,-0.07488586,-0.00612719
-0.01608048,0.01182325,0.01377952,-0.00365841,-0.03765212,-0.02955409,-0.11149019,-0.09566370,-0.03814810
-0.07053722,-0.06311600,-0.08508381,-0.06353127,-0.04823811,-0.06992479,0.00042379,-0.04917488,-0.07023643
0.00130802,0.11430580,0.00367028,-0.04436928,0.03109936,-0.05516517,0.05112958,0.07830628,-0.00284754
0.06723396,0.07236805,0.02295315,-0.03086824,-0.00926758,-0.05774840,-0.02260723,0.01641842,-0.02370832
-0.04577196,0.01006686,0.07725917,-0.07513001,-0.02041639,-0.00358955,-0.05792679,0.01350884,-0.05239426
0.05477453,0.01918483,0.01596250,0.01366686,0.00990117,-0.01071931,0.00302804,-0.01030856,0.00506078
0.03565056,0.05218855,0.00753140,-0.02333223,-0.04449654,-0.00867202,-0.05498941,-0.09937090,-0.08411895
-0.00551957,-0.02252591,-0.04499202,-0.03027268,-0.03088506,-0.03102053,-0.04298007,-0.02358578,-0.01683705
0.02759395,-0.04449547,0.02300667,-0.02712714,-0.02795579,0.00210693,-0.04093441,-0.02846579,-0.03087957
-0.03230122,-0.00050066,0.01861100,-0.02529525,-0.02532578,-0.02281182,-0.08051518,-0.05802514,-0.03844630
0.03390086,0.01392809,0.02350510,-0.05646420,-0.08847821,-0.01017757,0.00557451,0.07530054,-0.02372092
0.00699681,0.03818192,-0.02144875,-0.03576462,-0.01386745,-0.01571926,0.01552101,0.13198552,0.04546315
0.01348747,0.04721129,-0.06514599,-0.02235093,0.03702379,0.01137677,-0.01324856,0.05685152,-0.01253559
0.01021637,0.02841781,0.02412977,0.03351767,-0.00531119,0.01468869,0.06179940,-0.03199374,0.02653303
0.03236911,0.01911290,-0.00845770,-0.00968995,-0.03278003,-0.05398270,0.02513429,0.02228326,-0.04019336
-0.00033500,0.04128794,0.06334772,-0.02510645,-0.00467644,0.01289278,0.01393132,0.02243447,0.00327889
-0.01389495,-0.00001515,0.01022569,-0.01988118,-0.01204136,0.01904142,0.00333852,-0.00034954,-0.02685854
-0.01232964,0.02917059,-0.06146974,-0.00504313,-0.01445099,-0.05828438,0.00481109,0.06921872,-0.03311393
-0.01662914,0.01148326,-0.09191108,0.00857058,0.03923870,-0.00970213,-0.01030075,-0.09568684,-0.03066042
-0.02821604,-0.00984521,-0.01857039,0.00086752,-0.02220566,-0.02493209,0.03481473,0.03696139,-0.03447559
0.01010056,0.06737552,-0.05102133,-0.04511714,0.06115128,-0.07688314,0.02517730,0.01206097,-0.02129845
-0.04670681,-0.00413903,-0.02944333,-0.04192800,0.08453727,-0.05842388,-0.07072091,0.07600372,-0.08694720
-0.09080109,0.07039794,-0.09608624,-0.03909599,0.15142889,-0.14618519,0.00603397,0.01311840,-0.06591471
0.02776204,-0.03639847,-0.04511259,0.01600447,-0.00063256,0.00386585,-0.05779843,-0.05965405,-0.03910686
0.04944243,-0.03253309,-0.00444235,0.06043883,-0.01913828,-0.03424140,0.04764672,-0.01423511,0.02995437
-0.01227063,-0.00442369,0.04768353,-0.00084587,0.05209687,0.03560529,-0.03646262,-0.02406056,-0.00384794
0.04733711,0.01479826,-0.07018404,0.02492541,0.10428240,-0.03938766,0.09164213,0.06548142,0.02347293
0.02054301,-0.07706983,0.00545628,0.04934534,-0.08812246,0.02081664,0.06006213,-0.00991809,0.02376776
-0.02310316,0.05359193,0.06581683,-0.03769070,-0.00959213,-0.01332316,-0.04268758,0.01358671,-0.00625296
0.04015299,-0.02454442,-0.08638957,-0.00060064,-0.02453303,0.00036932,-0.03154392,0.01769890,-0.00277357
-0.00413882,0.05187084,-0.04865878,-0.02589617,0.04372890,-0.02149145,-0.02274477,0.03545119,-0.00191613
0.03159627,-0.00340104,0.03770528,0.08330934,-0.13140492,0.05895793,0.03358604,-0.06993720,0.07457912
-0.07200597,-0.02393139,-0.10031592,0.02433581,0.02477577,-0.03081695,0.00118645,-0.02507992,-0.03206393
0.01063634,-0.00518920,-0.05917284,-0.04334407,0.04003203,-0.04355791,-0.06773099,0.02523295,-0.05041013
0.00729921,0.02344452,0.07215999,-0.01096835,-0.08615630,0.16416717,-0.02358434,-0.02603146,0.11213517
-0.00341460,0.03607243,0.03322905,0.07932324,0.00956605,-0.03036912,0.02113818,-0.00468610,-0.06811757
-0.02387595,0.01413533,-0.00482973,-0.02088658,0.02029175,0.00603243,-0.00773924,0.01660901,0.01000796
0.02377466,-0.02566371,-0.05895707,0.02715465,0.06218496,0.02446163,0.00048548,0.01886234,-0.02409571
0.00083555,-0.04599465,-0.05901549,-0.03821559,0.00330526,0.00899631,-0.03651020,-0.01350557,-0.00137397
0.04829719,-0.04716002,0.01767709,-0.01747850,0.03407405,-0.03069246,-0.00716711,0.07033052,-0.01607201
-0.06490818,0.02540680,0.03861190,-0.04502150,0.01803973,0.00740299,-0.00498390,0.01757039,0.02999038
-0.06353296,-0.04926394,-0.03223738,-0.00383891,0.05775794,-0.02657612,0.02062212,0.00657535,-0.01324383
-0.05827561,-0.00820627,-0.03531894,-0.01449505,0.13733049,-0.01554439,-0.01368220,0.03479209,-0.00920868
-0.00586673,0.00595790,0.01888626,0.05700646,-0.06281918,-0.01043266,-0.03611059,-0.09148420,0.04404265
0.05256369,0.02899962,0.00328160,-0.00628548,-0.00845037,-0.01448189,-0.01183639,-0.00995799,-0.02434358
0.07454355,0.06313932,0.01904340,-0.01551245,0.04458566,-0.06031210,-0.01756852,0.03588476,0.00131096
-0.00640697,0.06686633,0.05288491,-0.02986789,0.04505053,0.04773124,-0.02023551,-0.00215285,0.02064670
-0.01253415,0.01279996,0.06320325,-0.02526737,0.04542527,0.03298999,-0.04909928,0.12001991,0.03226709
-0.03778099,0.00823182,0.04243580,-0.03932905,0.03932829,0.02165509,-0.03481108,-0.00322673,0.01775050
0.09171974,0.04380582,-0.08950026,0.04993981,-0.01831131,0.01190330,-0.00327724,0.02075729,-0.07313724
-0.02112638,0.00439543,0.05332709,-0.09238170,-0.02539450,0.05865211,-0.10550889,-0.03851425,0.05157549
-0.01272910,0.02813046,0.00825710,0.04268879,0.05647401,-0.04256091,-0.03063694,-0.00215014,-0.00651712
0.00524683,0.04244203,-0.00667358,0.00873395,0.04719098,0.03387123,-0.03136503,-0.04216651,-0.04251025
0.06820312,0.03994223,0.02273386,0.03818889,-0.03747812,-0.00316682,0.01138585,-0.03555627,-0.02395967
0.01487539,-0.01608097,-0.00784432,0.00668076,0.01872011,0.03352235,-0.02018196,-0.04063591,-0.02394482
-0.00790594,0.03943270,-0.00608552,-0.10819231,0.10684035,-0.00116454,0.02792763,0.08967672,0.02980117
0.04074368,0.03658747,0.02762885,-0.01818454,-0.00329272,-0.01858893,-0.00357423,0.00096994,0.01282580
0.01832003,-0.01513591,-0.05649840,0.01705389,0.04531503,0.02286804,-0.04510680,-0.00118461,-0.00929895
0.00839800,0.05101110,-0.10288209,-0.07505954,0.16105600,0.00023008,0.02223848,0.03138432,-0.04543486
-0.01626937,0.01156301,-0.02670622,-0.06230444,0.05270949,-0.05111568,-0.01822146,-0.00802548,0.00624214
-0.03987035,-0.00311945,-0.06650044,-0.08402672,0.01663435,-0.02113372,-0.09936534,-0.06029157,-0.02173870
0.02006166,-0.07604534,0.02486693,0.05735821,-0.03873517,0.01408614,-0.01797977,0.00081971,0.03345797
0.02425200,0.02714681,0.01576974,0.02697938,0.07806175,-0.00253059,-0.01942431,0.02129041,-0.01437169
0.02394641,-0.05882923,-0.12908769,-0.06340860,0.08802144,-0.10204536,-0.00306334,0.08532100,-0.01613846
-0.02946012,0.01158908,-0.03574140,-0.02501766,0.04353523,0.04759213,-0.04615195,0.00642046,-0.02611879
0.02029275,0.02071201,0.01218947,0.03996795,0.01534919,0.01207275,-0.00146238,-0.00765676,-0.03356190
-0.02892136,0.01246920,-0.11463726,-0.11348387,0.05265987,-0.10083689,-0.01223680,0.07052555,-0.05934379
-0.00539202,0.02306440,0.01342906,0.00291939,0.00552068,-0.00039007,-0.01607607,-0.00094942,-0.00119588
0.08035693,0.01397522,0.03834487,-0.00642255,-0.03330855,-0.00086458,-0.09290309,-0.03804547,0.01431326
0.00536414,0.02721887,-0.02436420,-0.00678597,0.01313462,-0.02678584,0.03168288,0.01685665,-0.02649371
-0.08750325,0.00079837,-0.01674737,-0.03008657,0.04808750,0.00778707,-0.00309296,0.01185919,-0.05361722
-0.03463908,0.02588377,0.05756578,-0.01230676,0.00564356,0.00335825,0.00380497,0.00898296,-0.01367892
-0.00782384,0.04455052,-0.00233464,-0.03195912,-0.01237221,-0.03676678,-0.00957302,0.01606631,0.00392111
-0.05871896,0.01533627,0.01279598,-0.02808805,0.00000149,0.03997608,0.01979049,-0.00096696,-0.00405194
0.00810723,0.10524251,-0.00248883,0.01406160,-0.03006266,-0.02351747,-0.01413796,-0.03639945,-0.01478449
-0.05711533,0.07182252,0.02231164,-0.02885563,0.02333355,0.06497353,-0.00877024,0.05401077,0.07360441
0.00112001,-0.08652503,-0.01080697,0.02845754,-0.03112145,0.09398615,0.00542252,-0.07564224,0.03856909
-0.01500531,0.01760286,-0.02148525,-0.00757647,0.08892832,0.01240171,-0.03509637,0.06475516,0.05054272
0.05262559,0.05544431,0.00930790,0.01288761,-0.01284216,-0.01367754,0.01657981,0.04169358,0.00746025
0.00380302,0.01257744,-0.04070413,-0.03476676,0.01272809,-0.04450510,-0.02508162,0.00904905,-0.01602103
-0.00597038,0.01626669,0.07502820,0.02661862,-0.01100485,0.01210990,-0.00729423,-0.08223494,-0.02408468
0.01485277,-0.06431398,-0.00130727,-0.02543577,0.02653976,-0.02916221,-0.05578809,-0.02918709,0.07149673
0.01883187,-0.02916628,0.03136386,-0.01305514,-0.01645406,0.04885748,-0.07883324,0.01434572,-0.05266324
-0.07765233,-0.05942269,-0.02042399,-0.05001509,0.03653902,0.02948999,-0.06593337,0.01092431,0.06643822
0.07051048,-0.01808709,0.07335950,0.06234516,-0.06395951,-0.06660469,0.05626660,-0.01322818,-0.08661476
-0.03744530,-0.01457177,0.01161655,-0.01826016,-0.04200914,0.02263496,-0.02506033,-0.02715173,-0.02884240
0.01762029,-0.18994831,0.04085247,-0.04645268,-0.15714586,0.13854927,-0.00561282,0.00766505,-0.09667470
-0.04809688,-0.00151488,-0.01260037,-0.03136430,-0.02058236,0.01220259,-0.03065147,-0.05589849,0.01104707
0.04363974,-0.01230397,0.04542828,0.01747683,-0.01891352,0.03303748,0.03013428,-0.02776056,-0.00529532
0.04978221,0.03179633,0.01800193,0.03843020,-0.00828971,0.00460109,0.04141695,-0.03432906,-0.03619289
0.02262414,0.00956291,0.01424067,0.02783286,-0.03176994,-0.02648088,0.01302862,0.05637008,-0.01798575
-0.04909937,0.00785760,-0.00020858,-0.01631890,0.05371996,-0.01151245,-0.01671311,0.00060896,0.00216899
0.02447949,-0.04445476,-0.03371200,-0.00992072,-0.02556890,0.01262853,0.01973076,-0.01865487,0.04090498
0.12157894,0.05049203,0.06925131,-0.02847258,-0.00501284,0.03342855,0.01653309,-0.05925795,-0.00896228
-0.03177903,-0.03935954,0.08267982,-0.07594635,0.01633574,0.17561005,-0.04998667,-0.01355432,0.01729196
0.00432884,-0.04143037,-0.04594646,-0.01075203,0.31825459,-0.04631565,0.02136992,0.00408862,-0.04595334
0.02227107,0.01146406,-0.02260380,-0.02133635,0.04916906,-0.03218548,-0.04015492,0.00401028,0.01312256
-0.06892178,-0.00890076,-0.04298284,0.00445605,0.00865705,0.00625914,0.00272379,0.01733080,-0.02233781
0.08200101,-0.00228269,-0.05203263,0.17846262,0.06249486,-0.18650359,0.07155204,-0.04603978,0.00414822
-0.06683175,0.02679759,-0.00446335,-0.12549084,0.12767796,0.02516910,0.03488327,0.03812092,-0.05254994
-0.05935617,-0.04492721,0.03416964,-0.02070080,0.00151933,0.05862730,-0.00495680,0.00592396,0.05641122
-0.02075898,-0.06263036,-0.02771067,0.05474756,0.01080992,0.00032240,0.00019015,0.04519908,-0.01237533
-0.01180011,-0.03272377,-0.03730396,0.02016068,-0.01473485,-0.04014140,-0.02604628,0.00767702,-0.02385365
-0.05249579,0.00906595,0.02028013,0.02302107,-0.05436096,0.04383717,0.04851064,-0.03148374,0.07935230
-0.01738639,-0.10709730,0.04769539,0.04220363,-0.00458230,0.07510462,0.00502104,-0.01979817,0.02851539
-0.03345583,-0.05047748,0.00144910,0.01717981,-0.02558063,0.00274037,0.06514242,0.00690244,-0.00985163
0.00392936,-0.03280824,0.01276585,0.03711299,-0.06711224,0.06104732,0.01608433,-0.00347157,-0.02819014
0.00745316,-0.05834318,-0.05016674,-0.00869307,0.04191598,-0.01474873,0.05012433,-0.01351614,0.00786749
0.03322069,0.02852097,0.05740409,0.01435841,0.01612794,-0.00158740,0.01215433,0.00897860,-0.00881220
-0.02839486,0.00229027,0.03864596,-0.00182436,0.02979200,0.06325541,-0.00392209,-0.02151963,0.00455893
0.02152486,-0.06196547,-0.01715796,-0.02252729,-0.04861365,0.00411321,-0.02144337,-0.02444276,-0.01052075
0.06360690,-0.01290541,-0.05114724,0.02038572,-0.01446251,0.06202031,-0.01724850,-0.09090613,0.15503725
-0.01512423,0.00615665,0.01255369,-0.01644107,0.01229049,0.04141828,-0.01865353,-0.03480721,0.00414274
-0.03295184,-0.04127526,-0.03095594,-0.07087719,0.01001049,-0.05728983,0.01789569,-0.01152475,0.01636304
0.00882047,0.02602139,0.06962516,0.04666832,-0.03784580,0.00034571,-0.03052101,-0.05425325,0.00051342
-0.04264678,-0.02338225,-0.10054105,0.00728444,-0.00229141,0.01693195,0.04101069,0.02770787,-0.04602364
0.05592953,0.06116609,0.00054658,0.05346642,0.01190315,-0.04779226,0.02574358,0.03904230,0.00429687
-0.03856539,-0.00257412,-0.01371967,0.00037139,0.02867895,-0.02311501,0.05535637,0.06699860,-0.04724870
-0.01406040,0.00704556,-0.04251044,0.04516234,0.02470735,-0.06774291,-0.00667809,0.01201544,-0.03163827
0.02439295,0.00450963,-0.00368891,0.09058569,0.00688567,-0.01304886,-0.01457757,-0.00054157,0.04297204
0.01706355,-0.03408208,-0.02077048,0.00593042,-0.03307715,-0.00206518,-0.02616210,-0.01261374,0.00432135
0.01110407,-0.01150450,0.02551498,-0.02711892,-0.01546006,0.01661770,0.07889660,0.00334573,-0.00425101
0.02577366,-0.00932348,-0.04130517,0.14551105,-0.03878540,-0.02308267,-0.00581644,-0.00537611,-0.04058909
0.06447233,-0.05836650,-0.04934111,0.01162124,-0.11919370,-0.03301746,-0.02155911,-0.01337156,-0.01896740
-0.03681240,-0.00615908,0.05540325,-0.00058960,-0.05798263,0.02272969,-0.00120337,0.00525222,0.02458455
0.00549497,0.06171430,-0.04586708,0.00691952,0.04638266,-0.02222682,0.01840975,-0.01684129,0.00814011
-0.05285959,-0.01059829,-0.01219906,0.02277737,0.02556674,0.02220953,0.00182604,0.03820970,0.00457919
0.01228301,-0.05316397,-0.00808116,0.00479785,-0.10664398,0.07887223,0.05335679,-0.03995073,-0.00288793
0.03666630,0.00437143,-0.05817221,0.05837956,0.04133887,-0.08884623,-0.00342329,0.01081963,-0.03966048
0.01802757,-0.01013877,-0.00337323,0.04465508,0.01866489,-0.01624318,-0.01243352,0.00970391,0.00909613
0.03390995,-0.09460589,-0.09205855,0.02429843,-0.09434920,-0.04896256,-0.08579557,-0.05894843,-0.05103093
0.07452679,0.00523776,0.01226032,0.06009446,-0.04335196,-0.01863519,0.08126833,-0.00709103,-0.02081547
0.03126951,0.05549351,-0.03982039,0.04898960,0.06735301,-0.01156874,0.00636261,0.00241951,-0.01665330
-0.00639416,0.00474858,0.01926083,0.02221825,0.00036041,-0.02643695,0.00176028,-0.00363683,0.01028005
0.04474426,-0.03978105,0.02624242,0.00673743,-0.01248535,0.02666105,-0.05069042,0.01393638,-0.00941965
0.02338025,0.00712939,0.01042163,-0.03549120,-0.05100721,0.01466462,0.02034478,0.01387563,0.04495211
0.00148583,-0.03334168,0.00263789,0.01269028,-0.05642406,0.02397444,0.04077742,-0.03605293,0.05590067
-0.03417874,0.03620480,0.06511963,-0.01036278,0.03325264,0.01996004,-0.00234126,0.01708511,0.04002868
-0.03439555,0.00670443,-0.07506327,0.07315172,0.07728829,-0.06943702,0.00102749,0.01644152,-0.01351104
-0.07343271,-0.03722320,0.05531621,-0.01381020,-0.00628980,-0.03179928,0.02976808,-0.04237839,0.04452282
0.21335921,-0.05532866,-0.07298338,0.26123431,-0.06729609,-0.10152191,0.07265667,-0.02222804,-0.07568979
0.04594970,0.03810074,-0.07975955,0.02235968,-0.01280078,-0.01506710,-0.05016404,0.03430144,-0.01026883
0.06599905,0.05498326,0.00363376,0.00632011,-0.03968689,-0.02505120,-0.06917989,-0.04172490,-0.00257306
-0.01217688,-0.02692893,0.03077184,-0.01018540,0.00923307,0.05406746,0.03655180,0.00733317,-0.00198502
-0.04082584,-0.00636679,0.04360104,-0.03601728,-0.01079071,-0.01153347,0.00435190,0.04184294,0.00724162
-0.01953330,0.03454637,-0.05035022,0.00334886,0.09088261,0.03113864,-0.02563698,0.01334401,-0.00849914
0.02641431,0.09431054,-0.00702814,-0.01921024,0.04982074,-0.07139797,-0.01494153,0.06236281,-0.03901184
0.03461073,0.02508771,0.04841300,-0.01730398,-0.02392303,0.03938707,0.01983933,-0.01153155,0.02388726
0.02533110,0.00337377,-0.02381152,0.03508520,-0.01133759,-0.02391909,0.04686758,-0.01351429,-0.05640748
-0.07266858,0.01757896,0.05007745,-0.01291826,0.07859404,0.08064798,0.04996162,0.13987501,0.10061162
-0.05354751,-0.01403760,-0.00392372,-0.02070748,0.00494144,-0.02693362,-0.01451650,0.04985917,-0.01979527
-0.03774966,-0.05534914,0.00265480,0.01088246,-0.00677735,0.00449984,0.02513945,-0.00450505,0.00189819
0.09342624,0.07808711,0.05304543,0.00126147,0.02788522,-0.00885290,-0.00031143,0.03036747,-0.01689961
-0.03219018,-0.00591566,0.01889606,-0.00288172,-0.00841516,-0.00630292,0.03257382,0.07371848,0.01718416
-0.04056889,-0.05843571,-0.01041417,-0.02321061,-0.00707131,-0.00692748,0.02212667,0.05610878,0.00961135
-0.00064398,-0.03107964,-0.06120108,0.02025923,-0.00666157,0.00662462,0.03218812,0.01071552,0.05207621
0.01752713,-0.02020260,-0.04862654,0.01985051,0.01712212,0.02278411,-0.02360504,0.03261969,0.06302818
-0.02300855,-0.08230537,-0.06364268,-0.03113758,-0.09505296,-0.08343302,-0.03440388,-0.09013605,-0.07829043
-0.01756850,-0.03227901,0.02777123,-0.00593652,-0.01418422,0.01997125,-0.00145037,0.02809085,0.03972493
0.00105394,0.06249586,-0.03721186,-0.02520074,0.00813022,0.01506015,-0.01505485,-0.04202385,0.02811688
-0.02571679,0.07445039,-0.02740765,-0.09614468,-0.00697683,-0.06823479,-0.06084372,0.01989789,0.02418295
-0.05837519,-0.00062112,0.07097789,0.02311129,0.03641307,0.05821754,0.02558928,0.03534633,0.04102329
0.01352795,0.04583869,-0.04880901,-0.04355756,0.02516561,0.02604112,-0.02010882,-0.02817679,0.10705614
0.01930393,0.03364304,0.03301043,-0.00598518,0.00524481,0.06099053,-0.02768738,-0.02654853,0.00327540
-0.02139262,-0.04098440,0.07307648,0.02064951,-0.00337325,0.04963236,0.04206291,0.00131219,0.01111743
0.02123404,0.00424527,-0.03797211,-0.00550800,0.01456467,-0.02365538,0.03185784,0.06358937,0.00747658
0.00145419,-0.02577404,-0.02140655,-0.01644276,0.03383796,0.01928485,-0.03269345,0.06309345,0.06707643
0.00759680,-0.01998575,-0.04965936,-0.01638948,-0.05068830,-0.08477601,0.09005767,0.09479187,-0.02549166
-0.00066913,-0.01445862,-0.02755476,-0.00363133,-0.00149169,-0.01375636,-0.00780587,0.01072687,0.00747383
0.02519454,-0.07452678,-0.06440189,0.07147858,-0.01175048,-0.00795278,0.01598643,-0.00539417,0.02528811
0.02950633,0.03956321,0.03208916,0.03215908,0.06198100,0.02319004,0.01693049,0.08489966,0.03926863
0.01923142,0.01700280,0.00467485,-0.02451493,-0.00645918,0.03734240,0.03393158,0.00533653,0.04751004
-0.06346830,-0.08925404,-0.04851590,0.00255480,-0.00951709,-0.00722819,-0.02897767,0.02517027,0.00899627
0.00216158,0.03506887,-0.03612939,-0.03561249,0.02453490,-0.03138590,-0.02398843,0.03603503,-0.03366807
-0.02535270,-0.01304183,-0.02313981,-0.01481692,-0.03635535,-0.03446698,-0.03091328,-0.02672219,0.01388278
-0.07837129,-0.04532333,0.02408844,-0.07749481,-0.06325639,-0.01582996,-0.08475763,-0.07447941,-0.06473647
0.01281659,-0.01686991,-0.02665132,0.07634142,0.04068882,0.02168891,0.01938990,0.00790636,-0.03511632
-0.05899087,-0.00766062,-0.06133208,-0.02451347,0.02127974,0.01064382,-0.00491506,-0.04603935,0.02409123
0.06477344,-0.04490918,-0.04092167,0.04465684,0.00298255,-0.00176076,0.01366055,0.01895145,0.03355268
0.01321920,-0.01395527,0.03043992,-0.00496935,-0.03660083,0.01932025,0.01634514,0.00792872,0.00853015
0.01396080,0.02272628,0.00911320,0.01151676,0.00402017,-0.03483030,0.00879402,0.03359371,-0.00319506
0.10237308,0.04479770,0.00039850,0.01996866,0.00396392,0.01362257,0.01515630,0.00862675,0.02415804
-0.06753041,-0.03774040,-0.02991758,-0.03375325,-0.00785659,0.00018781,0.01601772,0.03841593,0.04531295
0.02229849,0.03766697,0.03963832,0.00468511,0.04426670,0.02171034,-0.02970681,0.04343130,0.05236892
-0.00312831,0.01651974,-0.01047912,-0.01979931,-0.01928604,-0.03088162,0.02436230,-0.01080589,-0.03647811
-0.05772156,-0.01919543,0.02924070,-0.05384854,-0.05947747,-0.01198242,-0.01988689,-0.04225494,-0.00966716
0.07626050,0.00612130,-0.04762877,-0.05774397,-0.05046791,-0.01972142,0.00490265,0.01477274,0.06791964
0.06672050,0.03178383,-0.04025589,-0.02506596,-0.00388909,-0.07649286,-0.02548243,-0.00072853,-0.07192720
-0.04155919,-0.01702653,-0.00665301,-0.05577910,-0.03565456,0.00411375,-0.05094850,-0.00847968,0.01553650
-0.04863094,-0.05193569,0.02118808,-0.01191754,-0.07190868,0.01897812,0.04341690,-0.00540315,0.01534315
0.02433302,-0.04256408,-0.04270486,0.03484471,0.00225689,0.00134350,0.04546900,0.02253682,0.02909293
-0.09817079,-0.12130693,-0.06246877,0.00971300,-0.04031702,-0.04880361,-0.01814377,0.06763094,-0.03365877
0.10579804,0.09208190,0.00251891,-0.01041678,0.02835460,-0.05390745,0.01846739,0.07448098,0.03041133
0.16302215,0.14818296,0.03610699,-0.03985580,0.03905067,-0.08137845,0.00080272,0.04899420,-0.02817850
0.00710563,-0.01127187,-0.02651503,0.03599396,0.04040659,0.05307258,0.07951147,0.01890007,0.05114571
0.04447691,-0.04861410,-0.01666715,0.06218601,-0.02087981,0.00677591,-0.00611469,-0.00424367,0.01918606
0.01519500,0.01110323,0.01685783,0.01179097,-0.06037527,-0.00403305,0.04767073,-0.04398941,-0.00456886
0.01752869,-0.01457960,-0.00115067,-0.01442552,-0.01551425,0.01636468,0.04953957,0.01468982,0.01528052
-0.02898707,-0.03787374,-0.00580552,0.02347283,0.01470088,-0.00650264,0.00272774,-0.01577096,-0.03312102
0.01465950,-0.00344125,-0.06620018,-0.00987405,-0.00065909,-0.06816576,-0.02199119,0.00161148,-0.04145376
-0.03830728,-0.00496746,0.01106021,-0.00287128,0.01142700,0.02481460,0.01746304,-0.01893022,-0.00983195
0.03764558,0.01313964,0.08462599,0.01592404,-0.01689864,-0.01106309,-0.00557044,-0.03942233,-0.07075237
-0.01685678,0.00934522,-0.03945278,-0.08938704,-0.02741045,-0.01970127,-0.07729582,-0.09600310,-0.00761765
0.03915562,0.00113630,-0.00919587,0.02492020,-0.01245917,0.01075270,0.07838628,-0.02971011,0.01390446
-0.07601875,-0.02295223,-0.03315871,-0.03460459,0.00512447,0.01080984,-0.00413827,-0.02264599,-0.02758943
-0.00818353,0.00866045,-0.00873449,-0.03280793,0.02010838,-0.02494201,-0.02173206,0.04271433,0.00365008
-0.01667288,-0.01569154,-0.06729888,0.04215433,0.00189805,-0.06083537,-0.03593462,-0.06862652,-0.07668022
0.00226177,-0.00952596,-0.08147201,0.00290303,0.01648033,-0.03455713,-0.03642297,-0.01206299,-0.07233027
-0.04206717,0.04169165,0.05008880,-0.06650271,0.01839073,0.04306292,-0.10505354,-0.02304100,0.01027714
-0.02630963,0.04277043,0.03397279,0.02362509,0.02339584,-0.00674636,0.04368313,0.05264006,-0.01366821
